1.423795421085404488e-02,8.618337700303263516e-02,2.239780761321118197e-02,4.053775237651223162e-01,3.325263358213713660e-01,8.886954667043436840e-02,4.863939909926437433e-02,-4.180434681779677218e-03,2.049594561358478520e-02,3.815848111592281405e-02
1.667786261254289998e-02,7.340381772859458365e-02,2.495691634190220498e-01,2.041242989356497825e-02,1.459803903131304259e-01,3.118573219424886633e-01,1.924764305429979561e-01,1.589647551540500359e-01,-1.815540898305183573e-02,-3.709872048257203698e-03
-2.450087777400519404e-02,-4.119153578618776207e-02,1.869874539866756349e-02,1.688624503251279912e-02,-1.166377006643975894e-01,1.130326627847993461e-02,1.775246980599885782e-02,-2.943118681235718220e-03,-5.024065324747305737e-03,-2.509703663365501700e-02
-2.401278771252448804e-02,1.149252996763161228e-01,1.198316796280977925e-01,2.150799700699068673e-01,1.315942013461444127e-01,2.036091066980180997e-01,3.324297375259822052e-01,1.366254823296359500e-01,5.926872784387161169e-02,9.294927436078044558e-02
2.672861596715916596e-02,8.855110522651529759e-02,1.247504543836598923e-01,1.249543830547189954e-01,1.034067165593144516e-01,1.122065374296208062e-01,3.209827602193435769e-01,2.341440220595474853e-01,5.196095998989396642e-02,2.717723828699078470e-02
5.535856179358311646e-03,-2.245778478126853397e-02,-3.050336292038320976e-02,-1.334105190570603408e-02,-2.492364091831120870e-02,-2.853714792997634822e-02,-9.744371503760134237e-03,3.369301738475605212e-03,9.766020377685620882e-03,1.230324081438109556e-02
-1.136193676680702022e-02,-2.919510209435321677e-02,-2.315104222780871995e-02,-9.166829760294245566e-03,-2.503677101737204064e-02,-3.531379901977534097e-02,-9.154087640135372649e-04,-6.088833348451915851e-03,-1.028824409927678492e-02,-8.484599276739196450e-03
-6.331781231943772216e-03,-1.255868619784119775e-02,-2.225463596501120120e-02,-2.900727811354589583e-02,-1.372861723078968622e-02,-1.871737297564510932e-02,-1.553192317016671709e-02,-4.710522251756924308e-03,2.201134634172248559e-03,-8.808078829030055110e-03
1.353137466911507047e-01,1.477021609395575419e-01,8.978519014747285421e-02,3.509717379687483096e-01,2.238104558199884020e-01,7.906027209277464995e-02,4.855549140895589616e-02,1.026902942211083275e-01,3.240384040746350364e-02,2.861735614187473423e-02
8.637351476434500935e-03,-1.766244551186139586e-02,-9.952589499091155090e-03,-1.664643631449535394e-02,-1.905895914524964596e-02,-3.157669767238734104e-02,-1.298921710090729029e-02,-1.490027857392872343e-02,-2.263558321444316193e-02,-1.141889845213367276e-02
-2.632780461926945842e-02,6.802921812446724448e-02,1.202734821500439505e-01,-6.033277121856363279e-02,2.617233149115657520e-01,2.915300575877283196e-01,1.644061095952539797e-01,2.152912199099094315e-01,3.408791724681012325e-02,5.001483979812981762e-02
-1.414780520106845817e-02,-7.851351713294933699e-02,-4.067518742768031978e-03,-3.218531690672499918e-02,-2.627996299818313470e-03,1.369899724847589879e-02,3.010121124071593428e-03,1.471989096758009527e-03,3.075573646493632435e-02,-6.212030755600907693e-03
1.800644769034310741e-03,-1.559073966195684974e-02,-2.698358993002047870e-03,-4.977900103992673186e-02,-1.549440185199296022e-02,1.097714711283922454e-03,9.898549445929017213e-03,-1.125869591995799432e-02,-3.231950356233786320e-03,-9.564308935449378863e-04
1.270144734691564803e-01,1.923789002749820565e-01,4.789061155649734086e-02,1.698329275101861102e-01,2.882531185989451461e-01,1.597659479897835244e-01,8.889997960804565946e-02,4.160220863880339723e-03,6.448121590277265669e-02,4.237682688048663437e-02
7.423030213400410790e-03,2.395470151443296336e-02,2.215122809765527612e-01,6.418216873102905451e-02,5.790186893334932361e-02,2.111036484559927207e-01,2.923293880195468319e-01,1.479346302111071154e-01,5.311436781966265286e-02,7.506748871391499822e-02
-4.302394583410559846e-04,-1.362387350570736129e-02,-1.848384050224143385e-02,-4.186197806764648671e-02,-4.926009398030247941e-03,-6.774174164420382685e-03,-7.659665196482432501e-04,7.223352643084759864e-04,3.146032578157942957e-03,-7.896045062112868208e-04
-1.710548563555214533e-03,-6.750965294452769550e-02,-1.406169477407478441e-01,-5.016434228460392442e-02,6.009041714687509556e-02,3.245177590471452073e-02,6.021653281637689981e-02,1.003642128046720004e-02,-2.812152925181649228e-03,7.319876955851470357e-03
3.221182355045909551e-02,1.690907764974106109e-01,3.053469108704987001e-02,3.169509625599675751e-01,3.232849889700451507e-01,1.606953832762942902e-01,3.207170587014827878e-02,3.140059972192975335e-02,2.154002256837070015e-02,2.102367405419268073e-02
-9.952315805793825534e-03,6.758575044848146030e-02,2.386215575372178654e-01,6.409163407103525556e-02,4.304329062813185003e-02,2.491217439307163994e-01,2.591904710040616733e-01,2.192441034566399716e-01,9.720699770508838336e-03,2.406669698396772528e-02
2.994800171649202036e-02,-8.208937043310053638e-02,-2.326096892562578428e-02,9.385436312724600161e-03,-2.065496002364849287e-02,-1.340034522662529315e-01,-8.468251448896122954e-04,2.860235908809295735e-02,-1.151343246562293310e-02,-3.079930520240786902e-03
6.422500600841228591e-02,7.540083239800113302e-02,8.021228204081982949e-02,1.233401670319661109e-01,3.880674534844542056e-01,2.205404505646400837e-01,1.610089523946358903e-01,2.962809310236411489e-02,2.896344309226639088e-02,2.261098185796280371e-02
2.110162503964109135e-02,8.330276503155531476e-02,2.483451342844904819e-01,4.877348601321922911e-02,1.464485141671867940e-01,2.945301105959451382e-01,1.530421911214589203e-01,6.017211027106270094e-02,5.444976552047625304e-04,1.216385136499555097e-02
9.531648183502131055e-02,1.439283609571080647e-01,1.482531279194653218e-01,1.838575337521329012e-01,3.499416633624608530e-01,2.800341751905396914e-01,9.238048492152541036e-02,5.790504569706576322e-03,-4.175039995956505989e-02,1.825384072153776391e-02
8.572759206070541815e-03,-4.684571942979356973e-02,-1.414153491061266033e-01,4.494755558304803882e-03,-1.510093274327507090e-02,3.864324769580713276e-02,1.266485326545697607e-02,3.892460863241192087e-02,-1.731928702954562901e-02,4.704190765495518817e-02
4.822208055423456846e-02,1.126902956687589469e-01,1.199564989744165699e-01,2.041658113375099393e-01,5.785538331325140726e-02,6.415556940642001826e-02,1.493867972889557638e-01,2.891488118453188205e-01,8.601141176871911209e-02,3.630680133251494579e-02
1.827671917106125574e-02,-3.317632943017532338e-02,-2.322909900101437566e-02,-3.519345961411032148e-02,-5.763609201915515824e-03,-1.130563169061787367e-02,1.443958123459457808e-02,9.487952283627592567e-04,-4.500601150632877606e-02,-1.129957881734804451e-02
-1.239815460199349649e-02,-2.625481569709316870e-02,-5.174543495831664987e-03,-8.111186248457887341e-03,-1.329804383624913836e-02,-2.325055542756659412e-03,-1.174042681490497161e-02,1.404124197083122909e-02,-1.567941322216626771e-02,-1.985715313126665271e-02
-2.262938735363869119e-03,-1.415654280665234153e-02,-2.563506969487244075e-02,-1.563624229729704967e-02,-4.283387441366440403e-03,-2.723278918040517721e-02,-7.887200831936197476e-03,-3.677480879397466984e-02,-4.324011121782911880e-03,7.475123309698902124e-03
2.607668475196589161e-02,-3.029273773385424487e-02,-4.689144948739846358e-02,-6.782315324887944197e-02,1.870802485797082304e-02,3.503461272084700678e-02,-3.814579929625250970e-02,-9.447772687045727716e-03,2.170801667996530293e-02,1.105402373614787492e-02
1.645473327158335913e-02,-3.390706072132662618e-02,-1.947506425611459160e-02,-1.722702778383588054e-02,-7.470819075432026148e-03,-1.307232030970439073e-02,-1.539664678735669194e-02,-4.117084169526173676e-02,-3.467564802816065772e-02,-7.540714329762140782e-03
1.541615111442833259e-02,1.295777037858239222e-01,1.547103814104811015e-01,1.295840409473519028e-01,9.435258588933637114e-02,2.521921019294738331e-01,1.994599103717009658e-01,1.517753310454635907e-01,4.766947203296611341e-02,3.193787493607092715e-02
4.650994310419707956e-02,4.208649995723583864e-02,6.553575830432632754e-02,4.026849705804828594e-01,2.682413893214866674e-01,1.431554521155621040e-01,3.959020174192621339e-02,3.348257867376447372e-02,1.618001495522875324e-02,3.214054448839363115e-02
-1.014759717194813754e-02,-1.009226668002237981e-01,-1.203918562302721098e-03,-4.843108607854340608e-02,-1.033222512929029245e-02,-1.242321263781964898e-02,-3.855520894234987683e-04,-5.938438837166933743e-03,-1.589554873987245390e-02,-5.461702973776126277e-03
1.129749721317355529e-02,-2.090092613435961741e-02,-3.790801399351621803e-02,3.589336932915632161e-03,-7.943754704663968935e-02,3.470666468278414598e-03,-8.251658561296457486e-03,-9.738290202326823838e-03,1.341380493181239426e-02,1.976226328084317290e-03
1.641111955158843297e-02,-3.673112144522081013e-02,2.088150765067641954e-02,6.302063426756424058e-02,3.607998852928545608e-01,3.647213006337657881e-01,1.796682701494134726e-01,1.772208834660861723e-02,-1.959974549460651375e-02,9.462129292941491923e-03
-3.881647236573349240e-03,-3.684032843298948312e-03,-1.094306404787581122e-01,-6.293375624010862091e-02,4.052585948171285452e-03,8.289365196728382124e-02,5.677455587683553906e-02,-4.549478052289688407e-02,1.724482860846933505e-03,-2.219607601009700951e-03
-2.227743508218068408e-02,-4.701607411091399125e-02,9.029534472930271852e-03,-1.440457700877383236e-02,-5.158934108090063378e-03,-1.705028148857638814e-02,-2.502021516334651183e-02,-9.100394658445387988e-03,5.081506580305684972e-03,-2.849059369224294942e-03
8.172481267919405948e-03,-7.830975846791331935e-03,-8.177073109970313392e-02,-5.658067048967282270e-02,-1.716195062978429636e-02,-2.349300269839401604e-03,1.705519879473328670e-02,5.188232961748433583e-03,4.426919676461646869e-04,5.670631625680054404e-03
-6.404518314065036667e-03,-2.199955372165690246e-02,-5.114683735755066324e-02,1.419384621911736616e-03,-5.652536854322504078e-02,-3.110746685187522776e-03,1.884480843114598458e-02,1.361034128267334803e-02,-1.637275288791369132e-02,-2.853675928246755030e-03
2.750222653502266620e-02,-3.473040760514675002e-02,-3.356951865720637224e-02,-3.042855670597675519e-02,-2.094819905193826340e-02,9.422249052108084069e-03,2.323451699634202644e-02,6.612910860943280698e-03,-4.674801313079263165e-02,-1.927709223257461496e-02
5.326821711856847413e-02,8.116658650711609801e-02,9.674471036734657442e-03,2.733515506919317328e-01,3.090838706481113252e-01,2.933874635830605038e-01,8.969263456662876499e-02,5.794494741559533951e-02,-5.184621579337621300e-02,8.863901234536380319e-03
-2.833109323529688778e-02,4.964932886345158752e-02,6.311479352659910003e-02,2.516486827292885309e-01,1.804702658572468199e-01,1.992126677590800032e-01,3.879716460989603988e-01,2.111650909082239680e-01,1.478057985122861739e-01,-9.460192117977649431e-03
5.238795148842902150e-02,-2.723324324173148278e-02,3.071833675722666912e-02,7.303836435408811445e-02,2.313681351777664152e-01,3.844727565782532497e-01,5.897743021799813079e-02,7.477416488328308096e-03,-5.595265651741664070e-02,8.533500275837751364e-03
-9.647966636545105695e-03,5.940967053985207746e-02,-1.087169653731206824e-02,1.311175779522504303e-01,4.587848924319383737e-01,3.352200436224488378e-01,9.936184849398885244e-02,1.902008634940915988e-02,5.474671332386733119e-03,1.914542539307087857e-02
-1.227896833172371742e-02,3.050968424037655766e-02,1.602925402951483891e-01,1.553004201926049266e-01,1.272342255842613956e-01,1.180185419577917533e-01,2.770250778465902508e-01,1.856890233743666296e-01,4.569836610911513775e-02,4.988625772098404659e-02
-8.090055594303163788e-02,-3.096847582123295108e-03,-3.072123118716960088e-02,-5.334372934294959873e-02,-3.935752248608379023e-02,-1.097522641231281695e-02,1.402121520207322454e-02,-3.564096976292108025e-03,-1.552330280444207643e-02,-6.664197319593503747e-03
5.885048903429974249e-02,9.119042728214667159e-02,1.997974585008234216e-01,3.062328073881191437e-01,2.790233740704018417e-01,1.062909300769876025e-01,6.556362797502435225e-02,9.255794314581314297e-02,6.353231465585763849e-02,1.654597670283194585e-02
-2.026493895323372083e-02,-1.773615575757839929e-02,-4.277425160953843286e-02,1.417834371713901781e-02,-3.784601850128474498e-02,-1.576066670045885368e-02,-3.505453251750717016e-03,-1.152707555051825025e-02,3.725563157306483689e-03,2.784679267841806000e-03
-9.203513776955253578e-03,-1.634961943960257930e-02,-1.740874719939134591e-02,-5.298781017494135631e-02,-1.933217182352540281e-03,2.501809422997456830e-02,2.602471562965122734e-02,4.347140844713663632e-02,-2.141714588792665436e-02,1.148928932229134180e-03
9.958723260273324995e-02,1.051303344369780707e-01,1.421321484299712667e-01,4.050772577602392288e-01,2.198770533410525363e-01,1.376556064187126338e-01,5.728814929350613955e-02,-2.193729830112046281e-02,1.315193641208297324e-04,3.115980087860163728e-02
-1.088594987294465473e-02,-2.852111203133178563e-02,-2.120723001710111619e-02,-3.975427191226846985e-02,-1.065020932618080188e-02,5.086087665403426356e-03,6.191142165336582272e-03,-1.629145260017251899e-03,-1.104077372651596917e-02,-8.210766250259819363e-03
1.383773464287414018e-02,-5.717312786568836541e-02,-1.165274146968007900e-02,-1.425290049075123855e-01,3.236564513322703895e-02,4.540863240735950462e-02,1.309368920310316313e-02,3.951351693037509494e-02,-4.406489668604909871e-02,3.077395278888129040e-02
2.287055019085319427e-02,-6.297459938310295824e-02,5.078768964267184327e-03,-8.387061056804732961e-02,-2.530829394183043562e-02,-1.195228170802232169e-02,-1.853168499914551251e-02,7.287114221395462645e-03,1.235599052498931316e-02,-1.807158364095717493e-02
-2.247685397511249572e-02,-9.324829740336583461e-02,-2.062686731659662057e-02,-2.292314042791260276e-03,-2.204297681343832249e-02,-2.764235607440671677e-02,-2.101574381101064051e-03,1.595439055940820611e-02,-2.363498371254296043e-02,-7.941924116810335221e-03
1.345531721733579926e-04,8.135435128363828483e-02,-5.000754270361925172e-03,3.590531075757222856e-01,3.070846044714903855e-01,2.045924410961034168e-01,3.462383408053377326e-02,2.061438235949789380e-02,7.081071874186325305e-03,-6.612825513651239724e-03
2.668402627959352326e-03,-8.458416206375579671e-03,-3.023677368650215178e-02,-2.886052864768427414e-02,-4.223440222446015607e-02,-3.881112768866988583e-02,-3.838539117614012119e-02,8.951773968966488318e-03,-9.428821154171632699e-04,2.357414769563381286e-03
6.209013015885337522e-04,-3.046178831660503045e-02,-4.814372216177345565e-02,-2.702973988436762134e-02,-8.375627494796150305e-03,-1.147500008643798780e-02,1.901607014707537091e-03,1.746527620895573993e-02,1.840979947688568645e-03,1.457356557307785136e-03
-2.959202295840379637e-02,-1.189200011560949746e-02,-2.706909927691304729e-02,-4.987980347566155215e-02,5.618266434637038398e-03,1.438126942748536516e-02,-3.410827611103842399e-03,-3.439009600927845928e-03,-5.387175431766728223e-02,-1.846889595601335435e-02
1.251729934185174045e-02,-1.921293558892110329e-02,-4.869626844383260350e-02,-2.548590936851020602e-02,-6.443794541283407937e-03,-2.107315628514831989e-03,-1.339963986998379125e-02,-3.314531521857268671e-03,9.088181292263183136e-03,-7.266013969011563683e-03
-1.305549838639482978e-03,-1.131813260568711836e-02,-3.088205304622004127e-02,2.449389354737306537e-03,-5.875179159916763677e-02,5.444264788503436897e-03,9.973195255911223439e-03,-7.044541099786593569e-03,-3.687274907778926442e-02,8.712958687225612385e-04
3.648425210862746987e-02,2.031346580135213326e-02,4.205860971033746620e-02,3.446829665699414069e-01,7.208379223790503665e-02,1.216481639970564722e-02,3.110017101071572698e-01,2.461632589735038845e-01,1.719743562359914157e-01,5.632943281182574424e-02
-4.501066655483272443e-03,-3.380192213645513005e-02,-5.091371050610641463e-02,2.052738586664292625e-02,-6.832292058028678616e-02,-5.085868925913971522e-02,1.177790131901536828e-02,1.098118969196433016e-02,-1.082649292865373557e-02,2.369504074461553644e-02
-2.590163754907973733e-03,-2.749597045001022852e-02,-2.555226922279842453e-02,-6.072635484453733218e-02,-3.812372357758765391e-03,-6.409181610271315159e-03,-1.469241464769023044e-02,-4.799679352947674831e-03,7.075348410433346565e-03,-5.579541432801021945e-03
-6.889890990865785159e-02,-1.080994089404066494e-01,-8.057505461274404313e-02,3.669029337091112702e-02,3.962721752094763850e-02,-7.827054558156777697e-02,2.505781687901619328e-02,6.483381564891460558e-02,1.374110897405938884e-02,-4.610065021278884900e-02
9.578381998078417184e-03,-1.656551041819415843e-02,-1.799539748693882932e-02,-2.983569843223606369e-02,-1.921400443483807854e-02,-2.381741463880406723e-02,5.128079564541063867e-03,-5.925280954527203589e-03,8.979391588524975043e-03,-1.073878669789292721e-03
-1.323899290619708902e-01,-7.087946532111330522e-02,-1.944971985000160802e-02,-3.743513368641276928e-02,3.396966027020945772e-03,1.111518509956974619e-02,-4.208036023137817251e-03,-8.020615740167628613e-03,1.055087099532063359e-02,-4.025429568434482066e-04
-3.800585806805176908e-03,-3.818492950128794111e-02,-4.853200221245381613e-02,-4.583974792172516161e-03,-3.786025295466830844e-03,-4.238588332192250174e-02,-7.332363547967593121e-04,-1.728798488934349745e-02,-1.659437019808342184e-02,-1.199919380698366914e-02
-1.200144586567319233e-03,-1.738088183422182090e-02,8.866414851679169876e-04,-1.531575700498738826e-02,-5.152120857157990036e-02,-1.908036311607807373e-02,-1.815537663625689177e-02,-4.186133198661932259e-03,-1.663795537877531391e-03,-6.523525566591536345e-03
2.203507768592581281e-02,6.092128200288172979e-02,1.349387156559802570e-01,1.605124356065148195e-01,7.904583811206239430e-02,3.329332096550223496e-02,2.464118851207730554e-01,3.039333702407256421e-01,1.336977875186363129e-01,8.972745398447865006e-02
-3.345738680937716120e-02,-1.768413218216359495e-02,-7.846942587014589521e-02,2.667801574091198044e-02,2.789171706161101827e-02,1.053584122280815660e-01,3.662702536391923558e-02,-6.359569045814077171e-02,-5.939262831003735282e-03,2.198394649929152553e-02
-1.160373226867630718e-02,5.178783556387659553e-02,1.278123292425018542e-01,3.289862832796399128e-01,6.438214870431270553e-02,3.578206617689384528e-01,2.475884393163229336e-01,6.271283312081625538e-02,3.558269626356798387e-02,2.363893885921065918e-02
5.365805865874081386e-04,-5.999479619640295941e-03,-1.461033861731806695e-02,-1.600277196787398132e-02,-2.359745938997430750e-02,-1.382481371749220804e-02,-1.219428283244916589e-02,-1.447766491129662617e-02,-1.814148727341147876e-02,-1.383427608927588828e-02
-3.875932362900485345e-02,-2.161289810549664459e-02,-1.426170742483441438e-02,-2.495179765465007499e-02,-7.899623208228619131e-02,1.867968361393657420e-02,1.321378887628603914e-02,-2.343964431185347874e-03,-1.697216079655769830e-02,-2.117393147150008290e-03
-1.952898456805411687e-02,-9.981754740059056372e-03,-3.602332872296110794e-02,-7.789737219934846947e-03,-2.645594475977526561e-02,-8.492952170564916151e-03,-6.262159053977244330e-03,2.762998491395164918e-04,-2.413689312478118840e-02,9.827627814305463574e-03
2.717529527761830543e-02,1.138626392415591077e-01,-1.901964723757198356e-02,3.235616375634802200e-01,2.374402645032598902e-01,3.176067534611051180e-01,6.221698242299827930e-02,-1.179514048042631415e-02,-1.987759240971792574e-02,2.933452244058760636e-03
6.089915423620127083e-02,7.141488431707884721e-02,1.450709941144959492e-01,2.954121951412775338e-01,3.476414037796646261e-02,2.804458787103051853e-01,1.979098360470232798e-01,1.273585431853202776e-01,1.653341803523961095e-02,1.166454275660345173e-03
1.527405167026571475e-02,1.106615291224475606e-01,2.192518653184595823e-01,1.001893811629355757e-01,1.462065174316163341e-01,3.381047203771226362e-01,2.851325334689693847e-01,1.422993867248008582e-01,-7.491332612746646894e-04,4.472379214432610495e-02
4.562370469436063253e-02,6.785885611138096907e-02,1.587901766191117670e-01,3.732648386627958059e-01,2.737309465219613935e-01,5.113556650651619045e-02,6.985693522966431035e-02,2.802972048322852072e-02,5.802589068675820944e-02,1.137094399627906934e-02
4.011493770430201583e-02,-3.977659045151709510e-02,-3.229553595587676684e-02,-1.305587736174279312e-01,1.209273755717935050e-02,5.907025831900678675e-02,2.212481606715946056e-02,1.300360570509436278e-02,-1.814116819752092111e-03,-3.931293313162638470e-02
4.498900571092475514e-02,1.516976677006733609e-01,1.071827445624060765e-01,1.301612739998888324e-01,2.426646677870722413e-01,2.984104050981081779e-01,1.853541577918230154e-01,5.377225971155892570e-02,2.139928908921932479e-02,-4.806610577878430227e-03
-1.590883701560232011e-02,-6.119486784567176180e-02,-1.748720246036452805e-02,4.163416418445415983e-03,-1.862889660506757486e-02,-3.324415212388372176e-02,1.272944907955549272e-02,-1.120050267010308000e-02,-1.207553180648315676e-02,-1.289004350165888491e-02
-2.161384112193013088e-02,-2.608071068491930530e-02,-1.936614211370428149e-02,-1.816920276081357422e-02,-2.462492124881537903e-02,-2.029685206025520078e-02,-1.045008381455653571e-02,-8.764575135866776306e-03,3.332392449853649333e-04,-4.058832251200704400e-03
-3.622081812980326720e-02,-5.916605130852758444e-03,-9.810651503425691852e-03,-1.957461035119907947e-02,-1.604706415757257282e-02,-3.650050123026541554e-02,-5.645566151823376566e-02,-2.698340177121405677e-03,-1.762271484505864615e-03,9.632282991740423114e-03
-7.239041485422094413e-02,-6.633775947198781997e-02,-1.113705532024918954e-01,-3.703798495345658748e-02,4.324872917215112633e-02,-1.533960590620198593e-02,-4.223899636555812631e-02,2.971006165063289073e-02,8.307316035415523298e-03,-3.634281157456143579e-02
6.775688616172601854e-03,4.191023579543840969e-04,-3.701334360338894708e-02,-2.846897774305858636e-02,-3.295506100559301293e-02,-1.148199196972583824e-02,-1.548423819476963184e-02,3.429159792824220971e-03,-2.173782101050274890e-02,1.172083217337250433e-02
-4.140450874692430845e-03,-2.884176374720022820e-02,-1.736201119416784511e-02,-2.441578622080098002e-02,-3.131709385497468551e-02,1.308351756983686803e-02,-9.920966150122258187e-03,1.587869518252421879e-03,-2.024185292862999350e-02,-7.300445647196915008e-03
-1.069747184621413008e-02,5.391742677835363942e-03,-1.796549866318803562e-02,-7.727935713591209399e-02,7.662155960148875691e-03,3.380400345887669272e-02,-7.729587558566605732e-03,-2.318083019199231737e-02,-2.759968344964293038e-02,1.980559696645284654e-03
-1.377936179350864598e-01,-6.447269265600465149e-02,-1.157318341427586439e-02,-8.529414952025075880e-02,-9.424085759281924934e-02,8.971059608551094910e-02,5.063359023369370937e-02,9.837009943016781707e-03,-1.136262897695674255e-02,-1.181346075312942473e-02
7.304349101001163290e-04,-9.752302289554936471e-03,-2.941756973557400553e-02,-1.779001376326915657e-02,-3.878087176752509357e-02,2.899305015160862607e-03,-6.727666369216488314e-03,-1.014651994094524674e-02,-1.985908898834116282e-03,1.728269918422834645e-02
-1.070421346100012411e-02,-9.454090298729068975e-02,3.792051933083454007e-02,-3.396917800401903775e-02,-8.812205612800075305e-02,4.274111270403320104e-03,2.089780376080904722e-02,6.162201806493458785e-03,6.632972507156563273e-03,-5.503177787168835912e-03
-4.676548228048059593e-03,-8.492540976718251228e-03,-3.312291072578261303e-02,-1.981724206734023289e-02,-3.111509739647540934e-02,3.822315301224862936e-03,-1.741167974639741545e-02,-3.311698600365195477e-02,2.504386382101480169e-03,-1.957401801442861401e-03
-2.424768529372939643e-02,-3.800213971287469406e-02,-3.259416208715526855e-03,-4.119662513580926028e-02,5.228380556689524693e-03,-3.034463044093190301e-02,-9.554183998546274259e-03,1.950618927672954613e-03,-2.898543650026566554e-02,-2.846703516085255514e-02
-2.943030082834946493e-03,1.549135873590648804e-01,2.153642684871941715e-01,-3.879889992991129941e-03,8.268587582499195565e-02,3.597414333802625985e-01,2.680268485171500292e-01,9.573548219287716932e-02,1.469170283894456579e-02,-2.558989781500477234e-02
3.671913324634246828e-02,1.773390896621139801e-01,1.315577879007978623e-01,9.727864826170412593e-02,3.617091967879165204e-01,1.846274222012652122e-01,1.275260321008511721e-01,-2.899472057521674737e-02,2.207199653315716770e-02,5.787900278566675272e-02
1.655221498210282874e-02,-1.271250214531955969e-01,5.177919252073277800e-02,5.069037199079452077e-02,-4.502925443335464156e-02,-8.006377902452713191e-02,8.509509751268209965e-02,8.022439599965811019e-02,-1.402468690577974263e-02,-1.249811918821170688e-02
3.028165690806881166e-02,6.004923092526599782e-02,2.629505839193626016e-01,3.062942120174271809e-01,2.012842478599228824e-01,3.304823159108708636e-02,7.472051248020053493e-02,2.199254764989215516e-02,6.497668932237091188e-02,7.598988843174787899e-03
8.828850921454861264e-03,-1.648441112270341083e-02,-2.915004123770443753e-02,-9.747149066119826719e-03,-5.120100096185942196e-02,-2.122213531846179908e-03,-2.541896152264064290e-04,1.800663854252397642e-03,-3.577563252427609641e-02,-1.213715576269951482e-02
-8.265583318021187467e-03,-2.110497822485236583e-02,2.790284216449049302e-03,-9.320299031458145755e-03,-4.693174980280695463e-02,-2.786193191568322666e-02,5.884780217001381319e-03,-2.036020354985851322e-02,-1.131890246699572382e-02,-7.082001000772995478e-03
2.796498676645014364e-02,-5.173594298587489565e-02,-5.280714296401628483e-02,3.606202852393346203e-02,2.993505092708502804e-02,-3.351347420713874509e-02,4.935408395123155184e-03,1.821095627403821610e-02,-3.743096989409139957e-02,-8.417867999773098395e-03
-1.322037860599154999e-02,-4.623762924364072276e-03,-1.746224033982193488e-02,-4.184543412499059506e-02,5.685386094261081318e-03,-8.975712495180396960e-03,1.682128911953296654e-02,-2.239385107070735251e-02,-2.235141156871289433e-02,4.747796210834711109e-03
9.955636718502434979e-02,-4.648692091658808423e-03,1.762245275362821495e-01,3.036378574115617957e-01,2.715647276385164677e-01,8.529032932524426014e-02,7.009004863111613359e-02,3.233130463758805695e-02,7.185892038846919405e-02,-2.336500605659850779e-02
1.053603581416895918e-01,5.769670041679329092e-02,1.159152188244064741e-01,4.329098669308415470e-01,2.187109848304290838e-01,8.151819165960749736e-02,9.354019556137690983e-02,3.126614848808034058e-02,2.902334942521122424e-02,-1.184822207629257843e-03
6.984226823468991409e-03,-3.557927064906032597e-03,-2.074085776735077810e-02,-3.364540167411141092e-02,8.418141579959030965e-03,3.028843653519761384e-02,2.106035840784987664e-02,-4.715897892178436135e-02,1.255980763217898546e-02,-1.810051122311322712e-04
9.047331056635347923e-03,-2.030727588816460052e-02,-3.771193502165055833e-02,-3.096118454070146547e-02,-1.657412519323099576e-02,-1.428343898434283193e-02,-1.201831287860320426e-03,-1.566934501167484631e-02,-1.269886346198889973e-02,-1.218820875702234137e-02
6.340000104662266156e-02,6.158209228825252401e-02,1.449511338049148390e-01,1.876370640267220613e-01,1.381209945733888889e-01,2.935222731905142712e-01,1.127149100834700934e-01,9.938370649198204065e-02,2.899274563324639835e-03,4.664504852787684092e-02
1.654846408008586039e-02,-4.528035031464891502e-02,-4.539312157428412181e-02,-7.527768532367574983e-02,-9.477863183275595654e-03,1.644116917561990604e-02,1.988742456933136667e-03,-5.472702904362638371e-02,3.385119619635882510e-02,-1.514820879609206274e-03
2.320591733268096910e-02,-3.749614697783763134e-02,-5.127088355729415847e-02,-4.359153485012159240e-02,-3.275929060933833320e-02,-1.149467667857781081e-02,1.971170754345291654e-02,6.018293594993555373e-04,-2.672207198270917794e-02,-1.324159374379136125e-02
-6.338080559760038944e-03,-1.308060008187815482e-02,-1.154679832610071462e-02,-2.025505328029020974e-02,-2.894987946586866784e-02,-2.189906408026979362e-02,-1.360068991058297969e-02,-9.447700648553778238e-03,-2.754150767900730504e-02,1.001850250391860681e-02
9.612918983283166505e-03,1.899041029447977660e-02,-1.981226441031622154e-01,-2.522084581624254467e-04,3.537592028763299201e-02,2.342187926771687259e-02,3.291694293764106660e-02,8.325156342384771799e-03,6.584464047202572001e-02,1.157826167729669037e-02
-5.386706508404229959e-02,-9.849754367633878349e-02,-1.688689394871716390e-02,1.684637345776885883e-02,-3.624588332484487280e-02,-1.008575211853593445e-02,-3.651944507928370220e-02,2.573413997874968162e-02,-4.105786320660548272e-02,-2.621302674960365037e-02
-1.177189601666788800e-02,-1.488846297814810059e-02,-3.034674336034727526e-02,-9.708677359118149039e-03,-1.544927398339488757e-02,4.723529310180354240e-03,-7.869641486119488332e-04,-3.212889355275743569e-02,-3.199778660613792746e-03,1.070203389985905675e-02
1.847460909988749012e-02,-1.650093340447061629e-01,2.659385221884982831e-02,2.647843534475536470e-02,-9.308609249842483835e-02,2.987990942491870403e-02,8.962919516509241374e-03,-1.994541419784849959e-02,-2.649291396462115974e-03,-1.446909136147575721e-02
2.581870391649930888e-02,-1.562182496132235310e-01,1.332144472593313304e-02,5.356457691110726171e-02,6.340596764848406564e-02,-2.191197402282761900e-02,-4.902235391864157021e-02,-5.121777961520167233e-02,1.957047300650829880e-02,-6.620349495979488408e-02
-2.166971381820308185e-03,-1.204610676035615564e-02,-1.176623696198463541e-02,-3.720765879301215356e-02,-5.021059871853627427e-02,5.220016526405426069e-05,-1.006092496344456735e-03,-2.039997607996673831e-02,-9.972068226675514027e-03,-5.110577887277398951e-03
-9.221445923094501868e-03,-3.483629606937484191e-02,-5.246629892841033621e-02,-3.228619851013986297e-02,-1.477652906571884188e-02,8.985991488104944080e-03,2.275415318554622687e-02,-3.667440932352260957e-02,-1.182817835519077779e-02,-1.080920989970416378e-02
6.778926901362410280e-03,-2.338997190856204056e-02,-4.542001133195598152e-03,-6.887700326065723799e-02,-3.097305323949329017e-02,-5.859198120901719549e-03,3.986755205211777939e-03,-3.374418426362421619e-02,-3.998657628004830510e-03,3.610289524423367612e-03
4.834334853793471193e-02,-2.230528869496829075e-02,4.072030184431702643e-02,4.156548349689471733e-01,3.453415714953525506e-01,1.351302528614916898e-01,3.476507558045097840e-02,3.510962429742713747e-02,5.746893717186562361e-02,9.221194152584318710e-03
6.784945859664967592e-04,-6.326998060246981359e-02,-5.624586946201246690e-02,1.634404283591435122e-02,1.998038036201251963e-02,-5.328538014026552860e-02,-1.906201313126215657e-02,2.688457108040251398e-02,-2.456069008810765966e-02,6.667985553219407321e-03
5.459797890518348212e-02,9.907403705431996888e-02,9.840407366191605831e-02,1.533797614416412547e-01,2.538867588337436199e-01,1.672812507486461098e-01,2.181766849434084998e-01,2.150543698511028085e-02,1.728006861392594740e-02,9.858170768977411735e-02
-2.984198158998814521e-02,-4.306737529310177871e-03,-1.198635016335192725e-03,-9.815166480615875044e-02,1.379460682519608253e-02,2.068371532320865958e-02,-7.085978537052608703e-03,1.090144549439652812e-02,-2.859323982517147922e-02,-2.134520243980057505e-03
-1.104887674413599676e-02,-1.263569996745166589e-02,-2.325371034021395111e-02,-4.215001022621575610e-02,-3.072903762237480171e-02,-2.976036038847919979e-02,1.530858841922644407e-03,1.621641882241938240e-02,8.599146015778614746e-03,-2.162498035777130762e-02
3.628576635338404827e-03,1.696491074803722909e-02,-5.422825981523721195e-02,-1.385235471623035286e-01,4.353579717840601847e-03,2.767471314508553049e-02,2.044875563387522216e-02,8.934585619523437855e-03,1.697557313750662836e-02,1.051870363816576233e-02
-1.019640610190464258e-02,-1.596878167206249380e-02,-4.011989458863924468e-02,-8.531538510672202411e-03,-5.902858125062576677e-02,2.863531282617740731e-02,-5.986802767628978880e-03,1.075557993087225030e-02,-3.721368886050966523e-02,-3.270042711310418987e-02
1.198396445876204718e-02,7.576116887849644599e-02,-1.831864128710530837e-01,1.299050329973837521e-02,-1.846360811574058319e-02,3.320386623009547594e-02,2.767294406758242370e-02,-4.525097703633663981e-02,4.528800653693913075e-02,1.106382001044451183e-02
8.135392763351101050e-03,2.089301553136222248e-02,8.853246054621856029e-03,7.854884434179806169e-03,2.564117475300120574e-01,4.160124573017938698e-01,2.378552973806118132e-01,8.392878152195558383e-02,-4.592311077023799454e-02,8.838582664201798805e-03
9.799938055530936845e-03,-7.455020209730691717e-03,-2.280858842433067246e-02,-1.140613762794814032e-03,-4.091041232753046125e-02,-5.014070945355866317e-03,-1.765166799878479034e-02,-2.041505054423200377e-02,2.997521961327852236e-04,-3.781308362400595362e-03
-1.103680247872932674e-01,-9.554717081726629702e-02,7.437533294246642971e-04,-3.129930108573562852e-02,2.850312730484700144e-02,1.260780415872434120e-03,-1.133837819090905384e-02,-2.384609379348954367e-02,1.157118197108469339e-02,-4.278362350634996696e-03
1.129012817336598300e-02,-1.178768851591932565e-01,-2.170693135717221764e-02,-6.521339768962448880e-02,-1.186397203747968296e-02,2.754818440506718452e-02,5.527951166748648441e-03,-4.989848500341597520e-02,-2.366076351122587546e-03,2.140813714548521485e-02
3.725928231078101671e-02,6.071239747542798992e-02,8.231049391342909471e-02,2.382184558721263390e-01,4.033684250479561695e-01,7.310164216464833109e-02,1.362908152462765365e-01,4.182386313600515437e-02,2.280602486621712000e-02,5.906287741790464119e-02
7.404934090842025477e-04,-2.474351444987280685e-02,-3.887047145326290309e-02,-9.208197283375801553e-03,-2.682934539746589797e-02,-1.535877996898431415e-02,-2.443371649643007876e-02,-4.013608696331690331e-03,-1.656201584349816305e-02,-5.754066341981493860e-04
5.936911324239809058e-03,-3.084063624554779851e-02,-2.219404090499800530e-02,-2.215546960048064493e-02,-6.224369876825790182e-02,1.894871794195346001e-02,2.885233677585807496e-02,-2.527388114160660990e-02,-5.768666159821902659e-03,-3.688973946722645062e-03
-8.098404663103988405e-03,-1.003670080949351923e-01,2.039142416980166059e-02,-1.563576316841968836e-02,-1.944694753836252732e-02,-1.583987799175397976e-02,2.606055470860617687e-02,-3.181666722213917498e-02,-1.468002650430528036e-02,-3.861560713384797061e-02
-4.524738912990784040e-02,-3.032628743154490089e-02,-4.489301595859152005e-02,2.026156408051703415e-03,-1.221943997544195082e-01,-2.472055815038859752e-02,5.409848943298768698e-02,5.075741824216907505e-02,-1.221407613229106778e-02,-7.088525874416153234e-03
-4.300475433226501332e-03,-2.060204727349732035e-02,-1.624405371571182102e-02,-2.216074208136877347e-02,-4.666366942863707512e-02,-1.305174932473026402e-03,-7.470495126362150518e-03,-1.957129488058773070e-02,-2.615858276067401303e-02,1.710830784862548424e-03
-1.215520802787704684e-02,-8.603278417659144042e-03,-8.591378675909156978e-03,-2.568234627954946517e-02,-4.498780177113352596e-03,-8.678601569206214478e-03,-1.647264275321219662e-02,-6.983416949590879122e-03,-1.247419192672552177e-02,-1.362056823311338580e-02
-5.534166173185992021e-02,1.107920737124463567e-01,1.133230529009548321e-01,1.625979316504046757e-01,2.484994872407411126e-01,6.235473955545394603e-02,1.944974929545006115e-01,3.179494646720479323e-01,1.628730752667540138e-01,8.177729675969773460e-02
-1.126099261342498881e-02,5.359998623326320960e-02,2.654513609894763593e-01,3.011936954033423569e-02,3.196304970099426712e-01,2.765629865439369062e-01,1.565652802927280096e-01,1.694762678403653397e-02,4.256422270305774969e-02,-8.164910149373171000e-03
-4.252896340349407445e-03,1.135720137458138927e-02,3.256779981228852955e-03,-7.523013369888749413e-02,-1.982218375175732669e-02,7.870264423317608476e-03,-2.090126560741756637e-02,1.926676019910823767e-02,1.747216010124339608e-02,3.970550262459637998e-03
-1.699506437340370796e-02,8.389477694978483835e-03,-3.389884253381172247e-02,-2.388511881013213878e-02,7.582701381128964177e-03,1.752250044320153438e-02,-3.131495295911236468e-04,-8.701237800331423217e-03,2.097252580623403667e-02,1.322897425077624624e-02
-8.035572289788571118e-03,-2.615637793649288820e-02,-2.851741499367195162e-02,2.766477020170012187e-03,-5.272218134699547393e-02,-1.399679045060628346e-02,9.555700651683126171e-03,-1.837116298142063911e-02,-1.233235246664949637e-02,3.779799041742167368e-03
4.972847432968578729e-02,8.505633163102639671e-02,7.992235557704685522e-02,3.416885601240281511e-01,2.796664288204153692e-01,2.979502868131790883e-01,-1.072819729996579881e-02,4.879482177608947951e-02,1.181962484781398995e-02,-1.075534533625128152e-02
-5.390797407160072968e-02,-1.319598341754962267e-01,8.640586755568429450e-03,-4.113336027814023382e-02,-1.097696914658117910e-02,-2.989338281235946054e-02,-3.839645415916011217e-02,8.903057738372101119e-04,4.397234860743142598e-02,-4.895715661368428909e-03
4.749252620551455001e-02,9.902710408244522200e-02,1.300100623609605210e-01,1.222753673534905383e-01,1.024202237983634356e-01,1.314094827019463840e-01,3.287265476105328266e-01,1.758765614262754462e-01,1.191558492211317738e-01,1.445783300271479277e-01
-2.802460686249084142e-03,-2.676360969843734686e-02,-1.049835064386864941e-02,-1.810039047365142803e-02,-2.874515062337079652e-02,-3.606990257498043917e-02,-1.234748088784335708e-02,-8.102747822442456574e-03,-1.724884299350371020e-02,-6.533726020320284635e-03
-2.381112627479003985e-02,1.637866655676619571e-02,-1.416070920088155771e-01,-4.711259561696939241e-02,3.899688861485935826e-02,3.466589052341886856e-02,7.400361782736125660e-02,3.736551241377927129e-02,-6.165321253357283759e-02,1.146501178203317844e-02
-1.554991623814900963e-02,6.325897095388419156e-02,3.002198376701752380e-01,1.116440355007067980e-01,3.941935661520468842e-02,2.438534082790806135e-01,1.734275798046432948e-01,1.171461138088004256e-01,1.285057916824048144e-02,-1.121101032933937910e-02
1.278341893382799188e-02,-3.671558338407911876e-02,-5.194533601083355101e-02,-1.990580850039687030e-02,-3.040251612135684914e-02,-5.680164324245520757e-03,2.161536240196014480e-02,-3.189851044861698182e-02,-2.455794231590738286e-02,-1.096566073724493211e-02
-1.562004270240267140e-02,1.624360058288654152e-02,-1.018231343689304791e-01,3.127189507515921313e-02,-1.446840080791080181e-02,-3.671758194094304484e-02,1.518079663356043316e-02,2.560720882697829597e-03,-8.186448332683544590e-03,-2.323461034705674375e-02
1.926717772507334850e-02,1.134898503568493311e-02,7.173413444033106823e-02,3.568745163628774253e-01,2.558408019329960204e-01,1.593114974031900055e-01,1.077085699684410119e-01,3.511760855355486322e-02,-2.194651141219727819e-02,8.477411378727957303e-02
-2.314095227546450473e-02,-1.057048481644513455e-01,-4.229059679520830173e-02,-7.463224586805365657e-02,-8.922285102663797887e-03,1.596233103214238225e-02,2.833713277699538916e-02,-1.458204331291698512e-02,4.282215523490786983e-03,5.411947002789943475e-04
1.177406715802213275e-02,-2.988176557283436438e-02,-5.756898242669206828e-02,-4.168265747359970602e-02,-4.008937865804530071e-02,-2.348852814789267190e-02,1.088181181679652616e-02,-1.683393508740316583e-02,-3.027875545981467340e-02,1.027647036663371363e-03
-1.174934149543875768e-02,-1.925108047403015568e-02,-2.172314218351312567e-02,-5.196989002327743329e-02,-2.981245181274848333e-02,-2.988582891617015506e-03,-6.319438398023726963e-03,1.351384249351839269e-02,5.136605350960137505e-03,-1.916819696267874421e-02
2.691204655561508716e-02,9.708566137598109713e-02,8.106422718170111508e-02,1.453351803710845914e-02,4.279441506466913347e-01,3.213208753542525220e-01,7.557515164549523379e-02,2.394098860817676921e-02,4.953271461511249418e-02,-2.775408397906804769e-02
5.049619316010217109e-03,-2.770501817856509119e-02,-2.920085367399139278e-02,-6.201836402071817314e-03,-1.665756906105559862e-02,-2.533636274289712345e-02,-3.091085806693881846e-02,-1.335184243882741803e-03,-3.635533725993667087e-02,-1.899951806588622352e-02
7.371694779660966680e-03,-8.817561922884457892e-03,-5.750909121800832496e-02,-6.920753777096189108e-02,-1.649574620979487802e-02,3.116030823797830834e-03,-1.216171032198629098e-02,1.299683257319036132e-02,1.625290719204675050e-02,6.315721725197893759e-03
5.625061514754554209e-02,9.761129733347233273e-02,9.142469561349911289e-02,2.618561402369097291e-01,3.990242903500620386e-01,1.318532862034743625e-01,7.923317697837525819e-02,4.498025597635421646e-02,2.954208838842235785e-02,5.409026083034782981e-03
-2.397168374188035633e-02,-8.278295241205288479e-02,-1.271058522337280283e-02,2.683910112249612151e-02,5.666494665678573246e-03,-3.705450217079912789e-02,-4.315511727875626785e-02,8.424532977937786507e-03,2.921694227111618775e-02,1.137811816315521633e-02
6.184975115214466634e-02,1.141229039740524337e-01,-5.865755065994088940e-02,8.870846862644100189e-03,3.177186090656253792e-01,2.091147775894484362e-01,2.364092704900166708e-01,4.469081216081654401e-02,3.641213463466666522e-02,-6.354979096322924126e-02
3.799322102207110773e-03,-1.782320408013988652e-02,-9.283318789183640785e-02,-1.838403581285144237e-02,-3.923599012267057345e-02,4.080732779961721707e-02,2.022702472917782199e-02,9.364574889874334451e-03,-2.052654946509189712e-03,5.788543525769395195e-03
-1.305095968004506002e-01,-1.787112596191382449e-02,-7.186496647110553193e-03,-4.470957039295932883e-02,-2.498796716571462587e-02,2.257667828575354255e-03,7.707554414662208357e-03,1.135317766569153737e-02,3.448774315099517162e-03,8.175535581144156502e-03
2.171945919472569736e-02,5.193209335421403172e-02,7.904317902185763189e-02,1.739341736435194574e-01,7.478782531688130120e-02,1.275292180402975151e-01,2.394817531860578275e-01,1.672275873254104595e-01,1.007903800948588419e-01,9.330340632836497949e-02
-2.552684724639333116e-02,-1.838406801031346183e-02,-4.730017072094188507e-02,-6.201842407472918373e-02,5.034073912513222122e-03,2.871802125062788286e-02,-3.919421804401488491e-02,1.087594189256673068e-02,1.357776341297154549e-02,1.312960375064897364e-02
2.955797232199056102e-02,6.066415352050333332e-02,1.351778057520377219e-01,1.429602100503391815e-01,1.357858859668975848e-01,2.365600872833098500e-01,2.918754260539743184e-01,1.905772219492440078e-01,5.525546557551817839e-02,2.887006798461483684e-02
1.792210884202556295e-02,5.475465940885962390e-02,1.200865787596127054e-01,2.249480514190130842e-01,3.364081763281037002e-02,3.158107900370116794e-01,2.463087520444894041e-01,1.234038383049502613e-01,1.659921165400019688e-02,2.052805993250348196e-02
-1.866948975400881811e-02,-1.540380354955210671e-03,-2.217039607356567285e-02,-2.723480439810026243e-02,3.112836625247738034e-03,1.258709272447283353e-02,-3.852318867840028114e-03,-3.352315604261665166e-02,-1.610090298391961966e-02,-6.818148438326998399e-03
-2.583000926772768130e-02,-1.433902117543739592e-02,-2.930455141864481486e-02,-8.736997761027028020e-02,5.475578116847709675e-02,2.006381029368360311e-02,-1.792724192928745255e-02,-6.618706949695596711e-03,-4.051425644551302080e-02,-2.611841126627422252e-02
5.520076321773403905e-02,-2.161507206720642352e-02,2.495842394177534285e-01,3.779423375359994841e-01,1.162668559098342935e-01,4.844517919756057001e-02,1.104890926004638146e-01,2.569778511473067364e-02,-3.551087729038815421e-02,4.278409868304033220e-03
-1.403730352119204536e-02,-1.820825612447223019e-02,-4.314135483506451041e-02,-2.542949218148138346e-02,-2.494492975913035343e-02,-9.554747018754757015e-04,-1.066547093125025901e-02,-1.025681552474520201e-03,1.992168694172797780e-02,-1.426675242866865499e-02
-4.237663579250663080e-03,-3.598675094648381284e-02,-5.281945995313071240e-02,-3.293012255112376385e-02,1.634429308769312812e-03,1.235307494909977525e-03,-4.620396413406438994e-03,-2.977829441507440916e-02,2.192851949021111524e-02,1.128174177975993508e-02
-1.668668398193926261e-01,-1.607222833991851785e-01,-3.927437250000523350e-02,9.002153758479221335e-02,1.540911070870132002e-02,-3.241428964646922428e-02,1.363156977826653592e-02,4.703202434514573704e-02,3.407794705909281130e-02,4.443101293743210826e-03
6.265789109841739257e-02,1.093085562607214872e-01,1.440069167473385925e-01,2.828545327546289623e-01,2.817790023960888846e-01,1.161801619732742430e-01,6.550131659605139267e-02,6.068373904676118563e-02,4.997053888912254827e-02,2.981768861903443674e-02
5.970823533583212439e-03,-2.024136016468762803e-02,-8.301419381709643219e-02,-5.057704408082822761e-02,1.651037245919382418e-02,2.427671684503958718e-02,-2.390639130433896628e-02,-4.623208617093446660e-02,2.487231520742289384e-02,8.280819684006835574e-03
-1.691722666523525279e-02,-2.199098449885406384e-02,-3.007179543075396561e-02,-1.712785596983204192e-02,-2.173469620432508676e-03,-4.281368334173853152e-02,-6.306649826367908239e-03,7.276879920150212087e-03,-2.402829315185146461e-02,-1.733717737024606520e-02
-4.282115244696724915e-02,-3.165707838054662021e-02,-2.539096387327052784e-02,-9.225294243686775822e-03,-1.814746579119523931e-02,-8.794222244898692448e-03,-2.106134577977085073e-02,-1.745521369605245246e-02,-1.973136871498231207e-02,-2.438594035614077490e-02
-2.269057305707872230e-02,-4.395029944174709546e-02,-5.086440114129583967e-02,-1.014893139141617856e-01,-5.842512451804123636e-04,3.397821456491605108e-02,1.024665619979825935e-02,-1.901492707005937241e-02,5.591893273897932670e-03,2.350785079718940851e-02
8.653610653558604102e-04,-1.280136273524307491e-02,-7.724913487507562015e-02,-3.211676765848931608e-02,3.893265111325697886e-02,5.664307363621297331e-02,6.452028631858358620e-02,1.097334016093109849e-01,1.494855267424092388e-02,2.397630139865077753e-02
1.826073287495565221e-03,6.277485595486222147e-02,9.195122916531896229e-02,1.818679921810016642e-01,4.202830969688809426e-01,1.564675337611278194e-01,1.406574121477029427e-01,7.282387356648153953e-02,2.944178798122198612e-02,-3.121823958661908236e-03
-1.203222493911728225e-01,-6.473977368020700229e-02,-4.719543635236984891e-02,-4.074489139652783670e-02,5.449593021202440296e-02,-7.398787225169289883e-02,3.921427405917284927e-03,-2.048376673260151812e-02,-1.603537930929382904e-02,-2.418588860657428299e-02
-1.401954513307371655e-02,-2.249512041942544269e-02,-6.401737782556103651e-02,-2.654199337273617162e-02,-3.963554383648897582e-03,-7.364647424646758936e-03,3.461851615567826911e-03,5.759376936929414340e-03,2.673531426980726208e-03,1.245287524151960853e-02
-1.057691120392448454e-02,-1.760814497591667582e-01,3.244394421125223332e-02,5.196888133721448005e-02,4.914602353016805578e-03,-2.985937888432764128e-02,-1.496506647671329571e-01,9.148591996741235743e-02,7.554589804066709491e-02,-4.944880786730174171e-02
6.006081722925367405e-02,1.054981728573204693e-02,1.268013162701607799e-01,2.739499429430461430e-01,8.747859401627988696e-02,1.047560490113728787e-01,2.065904221836661614e-01,2.537258872832711121e-01,1.815859839153922961e-01,8.923591801821460778e-02
5.714989524025479439e-03,-5.577539491473948452e-02,1.269272547322470267e-02,-1.178990710952469712e-02,-1.800574059483813633e-02,-3.644659026253918577e-02,5.454800634625936754e-04,9.855577203222080571e-03,2.663012581044199491e-03,-4.363898011835056975e-03
4.067221948235826695e-02,4.928113612857033810e-02,1.380639017970733406e-01,7.137295160541597128e-02,2.039583960185995526e-01,3.122501975592615331e-01,1.150211649676588788e-01,1.566834227610263142e-01,1.102236803444547747e-01,-1.405620642445495373e-02
-5.737414089927748116e-03,-4.441657515701333270e-02,-3.960333878058165669e-02,-3.595282298404458426e-02,-5.313963577332079385e-02,-3.244165326618974297e-03,4.048420606107934472e-02,-1.990316354588591349e-03,-1.242727175081846484e-02,-1.123947209010935609e-02
4.225994917080670710e-02,9.361764580100015443e-02,1.640338123654108970e-01,1.445181988844995713e-01,2.558562265033186289e-01,2.305910074028837964e-01,1.384796980691028467e-01,9.672852254390783278e-02,-6.872440505672872124e-02,1.969159936508763434e-02
2.289006554162928420e-02,-3.571055927563459437e-02,-4.141735922494350214e-02,-9.076761875695993353e-02,8.569436697892483107e-03,4.985052974105800422e-02,-6.095554772579376418e-02,-2.430344843340200359e-02,-1.538717299642284935e-03,3.122229485194938370e-02
1.152279660801334010e-01,1.952945715469446841e-01,9.139727019506206640e-02,2.548794239739049505e-01,1.135577925640266078e-01,8.233219208765185648e-02,-1.820355699485707917e-03,2.914110358129873637e-02,7.360674925944597768e-02,-5.519928770858018377e-03
-5.884561144092103008e-04,-4.422432170861089612e-02,-2.664962970844737128e-02,-1.698627558625170550e-02,-5.333717677022241366e-02,-3.228964083681346714e-02,6.657881715369867552e-03,-4.581271097726674450e-03,3.029551634578193497e-03,-2.327800709143267380e-02
-6.726141762345010100e-02,-8.312131099924050318e-03,5.619044009476019050e-03,-6.428549636716072990e-02,1.934826206857282599e-02,-1.111733263630683075e-02,-4.682271535639676019e-02,3.417158170092476216e-02,-6.194991454774857699e-04,-1.730607866726888849e-02
7.923396528865227217e-02,7.484917164440892112e-02,1.240556439841338093e-01,4.156817922087432393e-01,2.158759132650630574e-01,1.131432771943912535e-01,6.167183584208309199e-02,3.319021851189041944e-02,9.554941562388849854e-03,-1.411435787219567084e-02
-4.218590059226686589e-02,1.509928266573275744e-02,-5.283648543814368354e-02,-7.653566304211123494e-02,-2.416644762239056332e-02,4.403609098573246783e-02,8.568704033308535695e-02,8.419784412286120123e-02,-1.160723406422510817e-01,6.321627446780866966e-02
5.841302226761678484e-02,1.627634710687442809e-01,2.363814312563519010e-02,-2.197828669985988498e-02,1.654992484069523206e-01,2.985838170932588187e-01,1.260390510242649365e-01,3.749028939784100622e-02,-2.864272999692424326e-02,-3.647828118700392926e-03
-1.950844596857047699e-03,-4.129932428881141759e-02,-7.102876117661136024e-02,-3.770931894370578574e-02,-3.883956585635423009e-02,5.389809521390918207e-02,3.365388582589615846e-02,2.240388078647067432e-03,-3.386365523670932520e-02,2.226694688600882460e-02
1.373186227494932118e-02,-2.544940140292387826e-02,-8.415023288041380278e-02,-3.122521447835760119e-02,-1.284929965716823108e-02,4.079155345750999639e-02,1.824817846341188557e-02,-2.768290798468592273e-02,-3.328655071674518212e-02,-2.859961969165883671e-03
-1.129223784885255710e-01,-6.024988326557011165e-02,-1.236449858864222505e-02,1.590673507482596311e-02,1.187722111657732796e-02,-3.323192827992128839e-02,1.097134548636167529e-02,-1.134662608062627157e-02,1.248503534991963516e-02,2.138309765851597113e-02
-1.875109720978611685e-02,-2.805716509639333972e-02,2.606145764555797394e-03,-1.619436878021794646e-02,-4.399857097054375027e-02,-4.386671946198789779e-02,-6.535629475960041609e-03,-4.294548460226000784e-04,-1.190642370851876033e-02,-2.435561463793010657e-03
-4.692133063140330011e-03,-1.395658274319469712e-02,-8.534898674246867503e-03,-2.886171476102969077e-02,-2.621138337386970038e-02,3.486488641099900099e-04,-1.048027915690941461e-02,-1.775106999252981654e-02,5.593987117312812160e-03,-5.427147840982057651e-03
-2.136514308096209430e-02,4.176246019257027348e-02,1.904760983560174481e-01,3.091975184971057500e-01,1.252999469914199415e-01,1.552383915006586013e-01,2.864810520193815102e-01,7.596824626140444292e-02,8.917052874853437228e-02,2.008858769787943976e-02
-1.137240267493151019e-02,-1.557892325745868257e-02,-2.349878089395865052e-02,-2.676229315650469759e-02,-3.658448752276625970e-02,-1.949869373656541380e-02,1.659268923602865223e-02,-3.121718695168982163e-03,-1.303031484802057681e-02,-6.650443865921605927e-03
-3.727137608370133942e-02,-4.985688237950272605e-02,-3.891761631301151464e-02,-5.407003192226560867e-02,-1.913370800347270403e-02,1.561599880260833122e-02,-4.859303519187092336e-03,-3.900118244899612469e-03,-7.398719972557939346e-03,-7.423482715959788328e-03
5.371550025109041865e-02,1.440411954636416636e-01,7.255977984492512078e-02,1.752488989744274139e-01,3.548977014693832088e-01,1.633878220245442991e-01,1.599986584320785277e-01,4.193246008450807194e-02,3.104837086897521345e-02,-1.409441835291600290e-02
-3.683816114531693288e-04,-6.995638819424954309e-03,-5.429856001170360602e-02,-4.524813521361936708e-02,-1.051109056570703228e-02,1.458262845989115233e-03,-1.176681196805114127e-02,1.018445145430899729e-02,7.132243306582256893e-03,-1.568661480196133912e-02
2.598271057924844349e-02,7.749308813028404908e-02,-3.415312856613191179e-03,3.950292647651991174e-01,3.376961501657256837e-01,2.036928939129058203e-01,6.285931971587091494e-02,-1.375026961449179281e-03,-1.389235589014405992e-03,2.481980807977272538e-02
6.399921004524897206e-02,1.620809663544486579e-01,1.579912318981135100e-01,1.137626521477054092e-01,3.212026944074812818e-01,2.047320737532304924e-01,1.333929196478596257e-01,-4.245177518374205691e-03,1.097018856398347501e-02,2.876159443036772727e-03
-1.518003074590709885e-02,-4.236456771542312233e-02,-6.947467382785214862e-02,-1.001706640879090893e-02,2.377414253405729996e-02,1.638253203764576671e-02,-3.995875675958002540e-03,-4.801375756413817845e-04,7.210122298351342128e-03,3.073462299109140997e-03
5.053727972519966513e-03,5.357649402748873579e-02,2.162638710459822700e-01,2.104487738899555593e-01,1.199040249533789293e-01,2.853075637032290168e-01,1.498299498174044397e-01,4.708917063485218435e-02,1.131412238733572190e-01,-8.704891903269472431e-03
-1.201017727304130520e-02,-5.266053613736107475e-02,-2.743643666477610724e-02,-3.748022087126897522e-02,-2.117062295355422175e-02,1.472164049713519697e-02,5.202319272759636098e-02,-5.887094041199011918e-03,-2.805242271709460812e-03,-1.814316779665214527e-02
-1.200478252690267977e-02,-2.447732342428926913e-02,-2.010721943845043130e-02,-7.273689880726519341e-02,2.523225295662726020e-02,2.588304172487866303e-02,-2.844896877128811827e-02,-2.594468625990496713e-02,-3.887535786440944607e-02,-3.660941458399048776e-02
2.951507279835989539e-02,4.919451633174572874e-02,9.997624093343980556e-02,4.080928517273176848e-01,2.648174876874592187e-01,8.190911352422428071e-02,1.193438521679425490e-01,9.610897342029123269e-02,6.745212738521337570e-02,4.115008237004397218e-02
-3.844166489241605811e-02,-8.534747322721790777e-03,-2.393674032572155538e-02,-6.396753810723580791e-02,3.423729033875603199e-03,1.119563191218988889e-02,3.237024131859325693e-02,-1.835925331854338857e-02,-2.285515315519348264e-02,6.980990494339075168e-03
1.321525884556298824e-02,7.942799354674451306e-02,5.182434802282881448e-02,2.582445331996018889e-01,9.533855323101779466e-02,2.703967182498600019e-01,2.489276361361037471e-01,1.074498181731409624e-01,8.461693273484255373e-02,7.069574810853732072e-02
4.753082343223494211e-02,2.004164714777813272e-01,1.430615187415053002e-01,3.646153183386398322e-02,1.383918276017696847e-01,3.052840403003561076e-01,2.138924332455287569e-01,7.297195227108890792e-02,5.455318498303091124e-02,3.619927343787471274e-02
4.539297552667993091e-02,1.120307976818403772e-01,2.166170572917776316e-01,1.605856923513378776e-01,2.330330655868043388e-01,2.778934066591544072e-01,1.326390277017067409e-01,4.974296286897028629e-02,9.453220431428518977e-02,-2.559812053905830345e-02
4.090476314888476933e-02,-1.706999294316427149e-02,-9.359674043157804879e-02,-3.511310163969298681e-02,1.086111268024846956e-02,5.467207606343975346e-02,1.658573677924940828e-02,-2.993697193144930629e-02,-1.870988263709249394e-02,2.887085175978448999e-03
1.448158181385821724e-02,6.626283151844723773e-02,9.693170862434216661e-02,2.512626535727728871e-01,3.992672556768506187e-01,1.441013940211772759e-01,1.495372596675547672e-01,4.557591928483118587e-02,-3.109228085870775760e-02,5.776399270470938818e-02
6.841896684272687212e-02,3.623156376442641241e-02,1.897042205398651038e-01,1.593210855040206320e-01,1.258001190638218247e-01,3.372516342298181868e-01,1.542478368697675628e-01,1.574034136286509844e-01,7.413671628856902118e-02,-6.579658926308581957e-02
-1.131852022646810153e-02,-2.012421701668544449e-02,-1.350581108408482889e-02,-4.853255509098722276e-02,-2.642841679218037657e-02,2.096740850348506168e-03,7.983199788956880580e-04,1.492818903689893846e-02,-2.498967307189652737e-02,-1.743501893336605810e-02
-1.519655479863672200e-02,-6.271464747758746447e-03,1.185227759382909696e-01,8.955534579381996263e-02,4.853855031878801518e-01,3.029321066279945240e-01,1.468921518183375907e-01,8.424432407949811186e-02,7.281731412205368070e-02,1.600462612897828388e-02
-1.839968689209738745e-02,-2.307469817987196914e-02,-3.360508726166232252e-02,-9.639044273799021040e-03,-1.932903192357627795e-02,3.137248066116708062e-02,1.226666212569076618e-02,5.839847290899861498e-05,-1.423837593633118376e-02,6.579110026799087248e-03
4.779935820584340495e-02,9.934088350293639180e-02,7.259168961753420524e-02,3.295499084497535702e-01,1.351236591765523631e-01,1.128765057829675816e-01,2.480205470376192212e-01,1.718909456848962403e-01,9.762680692122407966e-02,5.901869581681037924e-02
-1.366776423790517885e-02,-4.548977333340970680e-02,-1.692431398941228113e-02,5.859183227566087948e-03,-2.674647019784007554e-02,-3.327702519384877905e-02,-2.426605018774444580e-02,-3.432322854211070778e-02,4.451737109187759302e-04,-5.067104234220212895e-03
-8.542676513531513452e-04,-1.200493121658615520e-02,-4.525588244277616717e-02,-2.665723321410787272e-02,-1.423537048033594182e-02,1.417629443262669519e-03,1.089554856413777785e-02,-5.998146849667744356e-03,-1.791224870482370155e-02,-8.940337627707586887e-03
-5.633495339879034721e-04,-2.350262893345181001e-02,-5.330479471320910545e-02,-8.180829922904372942e-02,2.269123799764220101e-02,5.482012025378081230e-03,6.055558314699584915e-03,1.005064091963052365e-03,1.527375536993099553e-02,2.167804516321030980e-02
1.900621772858763700e-02,-4.520371940804689126e-02,-4.882165744965196591e-02,-7.435326055347314667e-02,5.624652389457516534e-03,2.506632151305317538e-02,-4.650235544698648471e-02,-3.413496409133695043e-03,3.898953501690748114e-02,-1.556561961144996807e-02
7.833455670276365246e-03,1.572147506388054949e-01,1.245126044406885679e-01,7.460908786791388414e-02,2.986832577516927989e-01,2.826579067288976232e-01,7.248521926057165110e-02,-3.373719092664929226e-02,3.741309189961674383e-03,2.057382516622562399e-02
-1.359684583524509993e-01,-8.849956884277719593e-02,-3.908269451905477948e-02,-6.493463803647613400e-03,-3.288727948331460205e-02,-1.002483555265824000e-01,6.091953229117599150e-02,7.372259710573707270e-02,6.655393902530130912e-02,-2.736475422170916647e-02
-2.048733312000629303e-01,-7.183160572584137982e-02,2.293332065668153563e-02,-8.448223418647335045e-03,-3.575569873958046180e-02,1.044431457103421959e-02,3.145607987406478373e-02,3.288737298442941798e-02,2.477291320463451130e-02,-1.198996756994127715e-02
1.557145281544332349e-02,-2.561437382922756786e-02,-1.359014717463307570e-02,-1.295268367714604192e-02,-4.448205990232127760e-02,-2.911159237630981875e-02,-1.526875062617830993e-02,2.419364167175290774e-03,-2.108779759728843933e-02,-8.266836277648605125e-03
-1.352858097600508590e-02,-1.845020860388309203e-02,-4.517760166422896129e-02,-6.475189678681017580e-02,7.945280347482115008e-03,1.516172680023576171e-02,-1.168393755221997475e-02,-2.849251727600056461e-02,3.988514384288009695e-03,-8.300650142635027616e-04
-3.314114830366161196e-02,-6.760308123312975745e-03,-3.146109933388729213e-02,-1.177306743046663620e-02,6.233679635217775732e-03,-1.170774569360916867e-02,-2.553169508571217355e-03,5.479504341985372805e-03,1.823038121885448351e-02,-1.317277589369489528e-02
9.890509094505771284e-04,1.635769910171044617e-01,2.609975070037524048e-01,1.240351529866062785e-01,1.635745004111702483e-01,2.307026529895062905e-01,1.452130354914593635e-01,7.018792063588129293e-02,6.667434618170204989e-03,-5.416422893023481282e-03
-1.683001889922899202e-02,-2.538979691454445672e-02,-1.233339723222690249e-03,-1.021755269766706428e-02,-2.874735805534059385e-02,-1.156921754830375453e-02,-4.748571007279856447e-03,-2.070607589796151851e-02,7.172754710412089334e-04,-8.960095162769103269e-03
-3.211210480128890571e-02,5.828448940423313837e-03,-1.096397292501142817e-01,-4.524949239773144727e-02,-4.807450406291351869e-02,7.010209827616957490e-02,6.229720401538556274e-02,-2.856823048741090679e-03,1.413715802597959731e-02,-1.023456157911766624e-03
7.969764316157975509e-03,-6.342355062127692789e-02,2.101445514024664202e-02,5.205180680019063505e-02,-3.083613902572390070e-02,-6.701754192766261331e-02,-2.994322498133086818e-02,-3.493230681468645349e-02,8.577939627561129501e-03,-1.339912416270592176e-02
5.999216682132307854e-02,3.506521292937205686e-02,1.571470938986123389e-01,4.101667435960755781e-01,2.356084501567995426e-01,1.093933493493313425e-01,3.411679480133286702e-02,-2.869527109514961177e-02,1.488641290111430808e-02,2.838193256049809793e-02
-7.368769147691618107e-04,7.070755334434737638e-02,2.046367612298277405e-01,4.048592491395125448e-02,3.625649516449614973e-01,2.922974308252384024e-01,9.453673340035788353e-02,5.743273840569272648e-02,6.673414901379211631e-03,5.146194306036491750e-02
-5.114431366638261950e-02,-6.679334145608324669e-02,-3.593066753696234211e-02,1.473853807214696617e-02,2.550223132382094943e-02,-7.129169008013017637e-03,-2.563383382437302641e-02,-1.004736511811735004e-02,-8.668945595935336618e-03,6.408902354020385448e-04
6.084511464238823164e-02,3.773199821917692237e-02,1.178420356648297168e-01,8.327089595046177628e-02,2.124906309956182404e-01,2.538884049931086628e-01,3.202828530800483908e-01,1.350936400404918469e-01,8.770513768059613746e-02,4.446953479459603981e-02
-2.838043918244286673e-02,-5.269143110901674393e-02,-2.748777407667449702e-03,-4.996539162415248453e-02,3.508000673801318914e-02,8.044235035697653441e-03,9.629213737056500216e-03,1.713294245443015840e-02,1.751673485398715438e-02,-1.184007082062325453e-02
1.349218165553892545e-03,-4.607710606899759719e-03,-6.400448017334460504e-02,-3.771908428380921913e-02,-9.343108534310076360e-03,5.002006527147126978e-03,-1.849983385943679629e-02,-1.962029528057028169e-02,-2.093371145078164880e-02,-8.047893566427216303e-03
3.193764496297098882e-02,8.279913317323200905e-02,1.644092949092767764e-01,1.214257909776270961e-01,1.182483611526324724e-01,1.118841887239620525e-01,2.993488862003436113e-01,2.448156140259565294e-01,1.459630155606607693e-01,-2.784099512903984511e-02
-1.355793965932570455e-01,-1.363246689763228658e-01,-2.286267650978929429e-03,1.075819032356333943e-01,5.232893710244239383e-02,-7.941632987565121204e-02,-8.713319340120673218e-02,4.338709934922035938e-02,7.182014672865731642e-02,-6.195349347714566163e-02
2.523970317594528313e-03,8.729412106142125927e-02,3.009503016476645088e-01,4.223577883533098654e-02,8.111356460012844605e-02,3.744035105904642835e-01,2.119947512403206891e-01,9.804969331192099624e-02,-2.779021569763423516e-03,9.220837930566255086e-03
-2.698912969528345987e-02,-3.403771954611062300e-02,-5.429427638217158153e-02,-3.114932364544360441e-02,4.282340451495321096e-03,4.925498579062438653e-02,-3.683040322838408709e-02,-3.173648606626894991e-02,2.944799697526299595e-02,-6.290252340542649718e-04
1.803195675188040345e-02,8.946218411698435291e-02,1.500047414212091479e-01,2.379127213578781652e-01,4.884229402747481547e-02,2.185773521125573549e-01,2.508085324235062585e-01,1.705513566098550704e-01,8.711595899660291853e-02,-5.745328887042348712e-04
-1.572265470335074133e-02,-1.941839343047389171e-02,-1.562197750514330262e-02,-1.666978901309538671e-02,-4.255355825323854646e-02,-2.039205526578535821e-02,1.452230042242937634e-02,7.245351253064960181e-03,-2.066856706247035408e-02,-2.665772782613624534e-02
-4.837470497227624316e-02,-2.390808238398667643e-02,-9.766737677456041947e-03,-6.955122633333871672e-03,-2.782888458577733801e-03,-6.433133630231352082e-03,-4.523888846361252131e-03,-2.429062510329903918e-02,5.771851153545188434e-03,-1.819994886614757432e-02
5.815618385054732720e-03,-9.504298263426292498e-03,-1.665814380099368483e-02,-5.202431842749852264e-02,2.772921995877966617e-02,-3.609080483733111827e-02,-4.034917572298775401e-02,-9.164585979000635166e-03,5.141235888398180617e-03,-1.711564824117144459e-02
-2.462767499044309777e-02,1.678425251201756674e-02,-3.487054783386518003e-02,-3.277138867908583469e-02,-1.079796802699524959e-02,2.624617868180215141e-02,2.035401606987897322e-02,-3.716895724545662971e-02,-5.361098137815636239e-02,-1.590073793252400405e-02
1.539960552579621410e-02,-4.333617459682117395e-02,-3.418835972374388577e-02,-5.409375177258633760e-02,-5.561004103103412560e-03,-6.654027597071868368e-03,-1.208929181176132510e-02,-3.187864296675074760e-02,-8.169529678823199068e-03,-1.564117938070329686e-02
-2.633045105941782260e-02,-5.872203199497178644e-02,-7.861589134668615919e-02,5.028078184655195015e-02,1.641851845462976699e-03,-5.242751590501339848e-02,-1.274948239124058282e-02,1.083911628426273595e-02,7.345948795533579698e-03,9.137627487289612035e-03
8.559958924597972640e-02,8.235571614923321848e-02,6.639117782736442264e-02,1.467446862142871289e-01,3.418346726736050667e-01,1.700492288795271978e-01,1.302712182135782326e-01,-4.094090569090026721e-03,1.758428789145131260e-02,2.404654792552946702e-02
-2.203065683057405660e-02,-2.272187397141776921e-02,-4.111088613945285131e-02,-3.040270991367354306e-02,-2.916668693291978726e-02,-2.308896217043052493e-02,1.942931800216469648e-02,1.599812277610845879e-02,-1.228657759822918312e-02,6.102402574239566314e-03
-4.130952843591319430e-03,-2.441592592077154039e-03,-4.279642643488451581e-02,-9.039031916564624347e-02,2.323046371835906995e-02,1.477733919596863413e-02,-2.734506964117146277e-02,-5.242227347908717111e-02,6.301290157203206371e-03,-2.210666497932398025e-03
5.078340669797203055e-02,1.566069247162758249e-01,7.284451403577096862e-02,1.263326858413416631e-01,1.925907016049946407e-01,2.832751873050988745e-01,1.893259558736351544e-01,9.764997721770116157e-02,-2.960008734443472442e-02,3.137212663336201579e-02
-1.277850333713284950e-02,-5.942471464911362744e-02,2.098242980700717672e-02,4.361188562502662071e-04,-8.588811552076371092e-02,-8.813795961227010450e-03,1.027352184608210268e-02,5.258696249657545709e-03,-9.838897213442601361e-03,-3.536760787544242918e-02
1.294963650485426261e-03,2.920386082368997202e-02,-7.544368944315953118e-02,6.586677443149560433e-03,5.537103585090964210e-03,-5.434582647010964551e-02,6.598156842443574739e-04,3.812079360738261646e-02,-2.661405524058019917e-02,-2.373941761542391546e-02
-1.764660452696332343e-02,2.982669044523504967e-03,-2.612346123639641346e-02,-2.101969512424761363e-02,-2.239124226384327232e-02,5.371540438091718453e-03,-1.829953280819084441e-02,-2.075805169539430076e-02,-2.249241749925449604e-02,-4.823074661514176881e-03
1.018045042423539742e-01,-3.117184682617345493e-01,4.120165779042406218e-02,1.078241546801714523e-01,3.858536331960428500e-02,8.251532433910337139e-03,7.510020591638158494e-02,4.099035722534485893e-02,-1.583228429413409410e-02,-6.470747124208589551e-02
4.029180817433131168e-02,6.052336283221908947e-02,1.031755091715076816e-01,9.613969476519522439e-02,5.079870957027479150e-01,2.428805778865952558e-01,1.131724070823645484e-01,9.042991466152503974e-03,-3.225165530692122168e-02,1.094925565051853289e-02
9.945869848455206677e-03,-4.211110730779207660e-03,-7.384972377096847562e-02,-4.949973917771298415e-02,-3.487855380319879531e-03,5.131261057772954631e-03,-1.217634327974849266e-02,-2.252064444504029306e-03,1.221227478792346471e-02,3.071316776029407378e-02
7.614368428204214105e-04,-9.260130430802066643e-04,-4.203138199273527553e-02,-3.546870642171349314e-02,-5.166501127563193768e-02,-1.726662654796838961e-02,-2.005580756162843141e-03,9.077296677657786111e-03,-4.074520695933978032e-02,2.698373878321436853e-02
6.425998084625161519e-03,-8.104707522051517524e-03,-1.163712767488730288e-01,-2.204465674050347379e-02,-3.693805192891466346e-03,-1.741031629504910961e-03,2.286126927209184215e-02,7.764929608247749318e-04,-2.306065734414337876e-02,3.561966169251939464e-03
4.298304334958265305e-02,-1.138269022270665121e-01,4.398555841913173031e-02,4.926416683382307121e-02,-3.356515086788429414e-02,-1.733452294279902162e-01,8.387877869647122897e-02,5.028085764834166332e-02,-5.248836448074407218e-02,-2.832528832908870475e-02
-1.289861886148286479e-02,-2.217339605370564556e-02,-6.592198642699990951e-02,-5.333691113629631525e-02,1.195028619782061499e-03,6.378098421241783222e-03,-3.457444298487304807e-03,-2.083050135337344635e-02,-1.778533384137362047e-02,1.216973229822886082e-02
6.814020258840177216e-03,3.124406106067114872e-02,1.066246212829118356e-01,2.227461782171420157e-01,1.434781726250780043e-01,1.419050526638719334e-01,3.034096081151973490e-01,7.695530483109187803e-02,9.232956359892227627e-02,6.916139515160868792e-03
9.164980158818166606e-03,-4.278108141048941881e-02,-3.359193179037381349e-02,-5.972697447350035910e-02,-4.860521877472251395e-02,-1.058438409248041792e-02,3.285379460483894842e-02,2.195822969506351294e-02,-1.958301001221370019e-02,-1.679588698105759573e-02
1.955513010921704556e-02,1.760566337197389808e-01,2.249553211492378302e-01,8.183968933131499646e-02,2.172318425327463554e-01,1.889832326458319445e-01,1.545369556305113690e-01,7.413373773162136582e-02,1.831204278473485061e-02,4.695077909598512067e-02
2.607058213514270098e-02,8.018488382016195071e-02,2.693318114580760536e-01,5.111726797809876266e-02,3.910521398815166583e-01,2.816777047996199546e-01,1.148924753091542100e-01,4.193782574982039477e-03,-5.371294365103691099e-02,-1.402001979105064154e-02
-5.136483860417596914e-02,-4.508876941967695368e-02,-2.375143433072187879e-02,1.523965812760059123e-02,-7.318580628122763748e-03,-2.103764597040601661e-02,-9.848375193557931326e-03,6.878010841985662122e-03,1.356659039530355888e-02,-3.047656051430343641e-02
-3.916709330430536221e-03,1.968459845110722816e-03,5.856598689856235690e-02,4.169614116288828387e-01,2.839088452870696111e-01,1.807451592405798779e-01,9.212526008097830788e-02,2.996540596995860006e-02,2.931110623787664196e-02,7.179352203796621895e-03
-1.689162110074274650e-02,7.582100310990516623e-02,1.081319038570181246e-01,2.837780702804873142e-02,1.489962439465213062e-01,4.845860197840808348e-01,2.293782387751771290e-01,1.390107681726615585e-01,1.990537562278963182e-02,3.444241454934354740e-02
2.123960907558012853e-02,7.540090302621287564e-03,-6.487178923799259700e-02,-7.286503022481714831e-02,-6.735338875590135554e-03,1.497637625303870935e-02,1.331531704657534440e-02,-1.823372906584360895e-02,-5.102817438511467532e-03,-2.068925896038740705e-02
3.014196478457379161e-02,-3.349029121831301192e-02,-1.752507011045796315e-01,9.079725070498323447e-02,1.099249365239717280e-01,-6.171862272118032455e-02,-2.125985687454659892e-02,-4.081469178873862319e-02,-2.215168085713295140e-02,3.672582107585929505e-03
-2.243199135595597138e-02,-4.349481193709179433e-02,-1.440977513984327031e-02,9.451257981475759407e-03,-3.316338086687236654e-03,-4.445604832673819701e-02,-1.534428868375207512e-02,-1.306742024593493881e-02,-6.969131082050606697e-03,-3.830654681998551386e-02
-5.300057515855296358e-03,-4.487219735487310568e-03,-4.701431705444369252e-02,-2.237952459684692738e-02,-1.741285815429681472e-02,-1.972301404183596923e-02,-4.408804643046476852e-03,-6.293316264337003862e-03,-2.240739948623277425e-03,-9.500548237974231619e-03
8.600287461992327936e-03,2.112359488667298404e-02,-1.604633409172757236e-02,4.029999555640574327e-01,2.715373351156507020e-01,2.381241280791596693e-01,2.284385420732853653e-02,9.478249121015097645e-02,2.597300171528355711e-02,-2.985660633565780445e-02
-9.572889126943004076e-03,4.900784745227368400e-02,1.268827773960380656e-01,2.380779572131966337e-01,5.515661716488270971e-02,1.471244811780982598e-01,3.453782570996551948e-01,1.777615392833288011e-01,9.178522359252463958e-02,-6.585072920885851055e-02
-2.662878391057029673e-03,-7.994607442069642800e-02,1.905434664715664056e-02,-2.065912579796938889e-02,-2.238642405598071858e-02,-1.641055728340563499e-02,-2.695652760339103948e-03,1.012089803018484564e-02,-2.578736556745156450e-02,-1.893343663123342457e-02
2.351100726058584847e-03,-3.558420914212633013e-02,-7.777487949221170704e-02,-2.994406192969610928e-02,2.150893703652851166e-02,3.428092898171255370e-02,1.230487498028204688e-02,-1.624848518458794563e-02,4.720767006938405425e-03,4.861924266515468829e-02
4.537904119011574623e-03,-2.723047112896827618e-02,-2.951180522398719197e-02,-9.309256166271663233e-03,-1.482793621970260496e-02,-2.626612184203698172e-02,-1.876975410472997083e-02,-1.130698940340839689e-02,-1.028458025020825145e-02,2.388441209084975897e-02
-9.165240936314520553e-03,-1.729522136046847056e-02,-2.512273275601533198e-02,-3.899048830479778793e-02,-1.334405627026692340e-02,3.494697239256023148e-03,6.568886973377313990e-03,-4.078419850598188207e-02,-1.105330383571049083e-02,-1.196590067642446138e-02
-2.932624826983684652e-02,-1.899641800736904806e-01,1.879972082826997584e-02,-3.348779778254565992e-02,5.738002654460389734e-02,9.978502994417337568e-02,-1.233764433786985366e-02,-5.067858451406101472e-02,1.945766827249038877e-02,-6.748804049774626002e-03
5.040133956075547317e-03,-2.406021892872224968e-02,9.763850125330182650e-02,5.426384922097480246e-01,2.511026655081571857e-01,1.274378165825253151e-01,-5.643335748921137970e-03,-1.148008937092605090e-02,-2.608924492259039399e-03,-1.771812396117436808e-02
5.065853511092657281e-03,-1.715371468918578876e-02,-1.830672921281408308e-02,-6.605998246901766124e-02,-5.530158759010922118e-03,-1.050404461694272665e-02,-3.395029429779236607e-02,1.306393143922214561e-02,2.623825564494367338e-02,-1.699868854630015927e-02
1.418748151547901890e-02,-9.490187655356190077e-03,-4.818422011724931425e-02,-5.490066795807017896e-02,7.513135372509349534e-03,2.294755768126706744e-02,-1.902287370519983867e-02,-2.021844076433081464e-02,1.108564460210703997e-03,-1.985362062909347761e-02
-7.801845887886513231e-02,2.716294632758482416e-02,1.392090248604727909e-01,1.513600750848463627e-01,1.421526211014762509e-01,3.869417422872125645e-01,2.649301348891479613e-01,1.422312652451153125e-01,7.188930089417468194e-02,3.564278235068622791e-02
-8.310673567705169958e-04,3.455882904346017914e-02,1.066214509774858210e-01,1.573924795805118904e-01,3.777952024563907552e-01,2.446527728942491653e-01,8.570387142986503337e-02,8.214482013001903754e-03,5.465468750091852235e-02,3.397054795613000527e-02
3.105627473189470373e-03,-1.126751756475184718e-02,-4.281884374351659778e-02,-7.042246680224059641e-02,-6.067305009644835545e-02,3.068184212089111046e-02,1.284528291110768709e-02,1.283739453665895709e-02,5.245742739225549116e-03,-1.155073652512022880e-03
3.378409986865574949e-02,7.068844697274059841e-02,7.994872080447408547e-02,1.602282761096562591e-01,1.913136247998784012e-01,2.033145602529535523e-01,2.523029361613714494e-01,7.049197991200048530e-02,3.089503070608674569e-04,-2.201499206251757504e-02
3.032655317318294283e-02,-5.356127539170803253e-02,-2.015558213822762207e-02,-5.911792760073148606e-02,-9.117470993789927869e-03,5.665718745427067438e-03,6.767989264252069308e-03,1.442586635151697598e-02,-2.435607171533498566e-02,9.864750726731466926e-03
-1.317379417177218064e-02,-2.531322956157819326e-02,-6.999176277504119692e-02,-5.805036798777449270e-02,2.182460964569851725e-03,2.267142956086891370e-02,7.288825740333025594e-05,2.543449006771363388e-02,2.776330251011113401e-02,1.437320061600359626e-02
2.844616525035817758e-02,1.221021534635611250e-01,1.516749617922619545e-02,3.232443635006606586e-01,2.766571196358300622e-01,1.398148457266083222e-01,5.139660073354503089e-02,3.764832103151300596e-02,3.570011818227232514e-02,2.031536734127102617e-02
-4.896973894677382304e-03,-2.511734939465853356e-01,9.575196842063274372e-02,1.026673478096328251e-01,1.028430858865863190e-01,5.878313763092404137e-02,3.092017630709753898e-02,2.039051724929555678e-02,-4.615029302061388061e-02,-1.255858865522025206e-02
-6.041395297289688712e-04,-4.577352872595397137e-02,-2.133355589746001660e-02,-3.566086243948801693e-02,-2.595104317656309403e-02,-8.127857784238438563e-03,7.196085886091747354e-03,-8.643448139115746456e-03,-2.971139261569356871e-02,3.670162906112657488e-04
1.317406679906000383e-02,-1.674205316396619111e-02,-6.925609178355250639e-02,-4.005997883810198668e-02,-1.378469521573833824e-02,3.503101428486337775e-03,-9.009666969710236964e-03,2.364841292154278712e-02,1.782802669568914200e-02,1.946156508618465154e-03
7.482101381841582688e-02,1.001176329356596173e-01,7.732096367585732100e-02,6.840409138959627211e-02,3.466770418395356823e-01,2.137335676453069044e-01,1.516133165018987705e-01,5.491251043093433454e-02,-1.816796123017339667e-03,-3.538877475077551599e-02
-2.092602482421208714e-03,-2.026477667099215937e-02,-2.532660928427321601e-02,-2.738712219116649221e-02,-2.122788227639053546e-02,-3.191114386860067348e-02,-1.528783419546558310e-02,5.996661390743501276e-03,-1.322264893145387935e-02,5.897078946056544778e-03
1.297357454891606351e-02,-1.460776017643013354e-02,7.769833737218884151e-02,2.989082588630433968e-01,2.123652582879397288e-01,1.414633420491863691e-01,2.378205967173550039e-01,1.120648456972385687e-01,1.742803429520314862e-01,1.148824429337708675e-01
-1.018044636611709422e-02,5.225750402904469349e-02,6.151449318519430776e-02,4.554128748577128682e-01,3.409001441460453030e-01,5.683413534796766947e-02,8.629330622704120546e-02,1.386147682982918385e-03,4.008592980817382578e-02,-5.825134230908160689e-03
3.325561346843880495e-02,1.047710111500097796e-01,3.548984159608991468e-02,3.379606854067613853e-01,2.898023960422563827e-01,2.354309404746667278e-01,3.743849529282142902e-02,-4.027507940162990824e-02,1.268472324114454548e-02,1.521689617662275347e-02
-4.903275939109358328e-03,-1.147281050644394403e-02,-3.126747926543757550e-02,-2.972134440062361091e-02,-3.804615832558796984e-02,-4.031153563048277266e-03,-1.430773887390089476e-02,-1.496874999248276258e-02,5.625174625696831299e-03,2.313408235490344543e-03
2.160175615944585122e-03,-1.410716445506786897e-02,-2.078191701576586128e-02,-1.157784401070414276e-02,-3.083926030931224277e-02,-1.505156313379057108e-02,-6.767075133832977686e-03,-3.071586907871268202e-02,-2.213451668991535046e-02,8.567983901210083492e-03
-7.645883054384626509e-02,-1.402143757708835536e-01,-4.314383635943189882e-02,6.555702104896552439e-03,1.173039366374112498e-02,-2.816281023170311929e-03,1.410404625019891049e-02,-3.364099396222078320e-03,1.324501104031695041e-02,-4.252476263703382740e-03
3.810440224169633905e-02,8.714913348935784954e-02,1.495239274266634832e-01,2.258734556779046498e-01,1.387461393414992084e-01,1.363362777033944595e-01,2.034317598850790554e-01,1.776795162628537761e-01,1.260901399741328754e-01,4.735992174412440026e-02
-1.084200816856269872e-02,-1.705117143660301801e-02,-2.654042987867174727e-02,-5.480833418317362926e-02,1.202806667185435385e-02,-1.212551814275453568e-02,-5.034011928598150325e-03,-2.187806115849097802e-02,-1.554655129876784253e-02,-2.807351805376838167e-03
-1.181254877424774835e-02,-1.161434261922648752e-03,-3.573561184435251198e-03,-3.371992235086540557e-02,-1.919783354408559004e-02,-3.233116881384558942e-04,-6.305109752727668972e-03,-1.810388003826825590e-02,-2.253522237817564763e-02,-1.774960480253679179e-03
-1.777890741871720678e-02,-3.939109721557882554e-02,-2.973309181630357824e-03,2.121575749011108195e-02,-4.674623848944323146e-02,8.338912376589294878e-03,-3.783822911510749398e-02,-2.811606648124342217e-02,-2.580157509581933531e-02,-1.140768342789973133e-02
3.413786553640287946e-03,-3.159871795852711718e-02,-3.524983798211656083e-02,-8.835264235892487106e-02,1.600635704833425210e-02,1.884944543620551902e-02,-2.334965428747689739e-03,1.550713091423006583e-02,-1.567507900265490209e-02,-6.414624564503918283e-03
7.960751826761529315e-02,1.688262546927433438e-01,9.316558653141772395e-02,1.219380334533923249e-01,2.938786208056309857e-01,1.739812279719232802e-01,1.477378367905423651e-01,8.471192768803464945e-02,2.444867872896030331e-02,3.357447381418718173e-03
-1.157585100857907653e-02,-1.407742373354814967e-02,-1.422707772903378069e-02,-3.652622062831509253e-02,6.138200209105409977e-03,-1.984765592076933455e-02,1.241339261198138623e-02,-7.117460504996068332e-03,-4.065070137919161303e-02,-1.419376661509690312e-03
-2.784480860805203101e-02,-2.264630321467584612e-02,-1.199778498930330201e-01,3.721203511726955959e-02,-4.607381865312910191e-02,-1.609526426216187009e-02,3.383156023625254888e-02,2.396346864429914347e-02,-4.235659197839745579e-03,1.450392743181148567e-02
-5.275980940249766493e-03,5.158307172694284737e-02,2.197589179004389437e-01,1.212046627820708294e-01,2.157345147767197602e-01,3.474484427037936585e-01,1.619085645912505811e-01,1.072707410967108504e-01,1.422521379346003943e-02,-1.388530223265679875e-02
-2.132948143987927446e-03,-1.560952038005263345e-02,-5.074736132548724604e-02,1.049618387092285518e-03,-3.197626418477143156e-02,-3.250423503222328592e-02,2.701210726649022533e-03,2.659716787438303268e-02,-2.564920230580566146e-02,-1.824586397492276163e-02
-9.398689838254387086e-02,-3.565283739533246093e-02,2.266411317298572953e-02,1.314518605827178811e-02,-3.613141892742450373e-02,-6.055478652559941055e-02,1.754148487198760797e-03,4.805118817512959994e-02,4.195621136109724952e-02,-7.901891017493008207e-02
3.647608704615869224e-02,1.574077419977366887e-01,7.444746932300567999e-02,2.617185036988637359e-01,2.911942953292077085e-01,1.745429919610275715e-01,4.116489709586437784e-02,3.792038364681788593e-02,-1.541690908237915505e-02,1.335122973929171036e-02
4.301178374670893562e-02,-6.638202141856318350e-02,-4.993479853071209479e-02,-3.320910188606597188e-03,-1.960747842042108446e-02,-5.343612876323507177e-02,2.114562086358007589e-02,3.533402812478901589e-02,-1.352003746178958091e-02,-2.923873805858422104e-02
2.030007672156972781e-02,-1.126030976788836534e-02,-5.086840840660213081e-02,-1.608688025707549069e-02,-6.607238636804071974e-02,1.856756841595580410e-02,2.464158864427370976e-02,-1.003794583296037379e-02,-1.678260434465257342e-02,-2.538499472029168494e-02
-1.006717180756563773e-01,-1.306774566316868946e-01,-2.937381890036501117e-02,1.762187991055585642e-02,7.687523026171666496e-02,-1.377164253726976054e-02,-7.288901119164484244e-02,2.687572664013501006e-02,9.159667256892035231e-03,1.712847747990672853e-02
-2.377029102180869356e-03,-1.949419830541172446e-02,-3.937156785697592393e-02,-2.370971200973494286e-02,-2.413975781069985574e-02,-6.461709049428663795e-03,-2.055249471489912702e-02,-6.127155443375318679e-03,1.304948317404966418e-02,3.720394887556856701e-03
-1.339114773355782988e-02,-1.294433198952429399e-02,-1.349089237266044503e-02,-2.013977287481625439e-02,-1.956552083887616589e-02,-1.326387367605068139e-02,7.473183318399286533e-03,-2.608723134240752486e-02,-1.425310373934161011e-02,-8.664049769513260460e-03
2.865550463120490957e-02,-4.385061053567219924e-02,-7.102916741034111248e-02,-4.349853117716680206e-02,2.164784407298734475e-02,4.421358406045863138e-02,3.110183458643979871e-03,-3.212607671247825689e-03,2.893985817842914011e-03,-4.939417371305566788e-03
1.504182024682991781e-01,8.486706547204213302e-02,1.088050986049763774e-01,3.720461160060525296e-01,2.556547822778557078e-01,1.306021009646352593e-01,3.160131937948768011e-02,-5.920502231225118926e-04,-1.721774441254764892e-02,2.646470936156487819e-02
-1.821237185856809659e-02,-2.578699644870305341e-02,-2.483576490104344794e-02,-1.488777491748510991e-02,-1.464166488010322509e-02,-5.758345503564809426e-03,1.703229042929168754e-02,2.936001926932623254e-03,-4.141363846344345290e-02,-1.140637075718224126e-02
1.259749595034725380e-03,-2.042208926808819491e-02,-7.606805580478406131e-03,-2.500679460229904283e-02,-3.872823954595677742e-02,-1.149345375343341705e-02,-5.557451748538406316e-03,-1.861827156146297554e-02,1.113925773079781772e-02,-8.699729586473302009e-03
-2.384311635125094253e-02,-1.642471455062086486e-02,-3.072451214913523437e-02,2.253647757939948332e-03,-2.656286954112765941e-02,-3.522129199354639972e-02,-3.395418054026751870e-02,7.537932528887993089e-03,-3.159284433240123341e-02,-1.025220303407030353e-02
-4.783031550135677379e-02,-2.500098522636003476e-02,-3.653879193832071381e-02,-3.926486315050371767e-02,-1.332259807990123293e-02,-1.570340316224749441e-02,7.928391752737264792e-03,-5.278986696026102474e-03,-1.606847290636223211e-02,-2.457909278835681416e-03
9.226926230952545160e-02,9.268956463887587094e-02,1.815396186184102881e-02,1.811307035424181977e-01,4.224927417509918848e-01,2.024915577695975688e-01,2.792490746284596176e-02,2.834007179956647346e-02,1.002836869942673979e-02,2.364545589501118941e-02
-7.420560641976019743e-03,-2.197824815566711346e-02,-1.334734124892951283e-02,-2.988803877173207973e-02,-2.644466457607069689e-03,-2.510754405236009096e-02,-8.964373611934238397e-04,-1.823184407999166312e-02,-1.255109834166020719e-02,-4.979157944128274373e-03
-5.574957993304466286e-02,-2.767862257322524500e-02,-1.141550930612784606e-02,-8.423889724369462359e-03,-2.508798469926726629e-02,-2.686529810005809996e-02,-2.903937916875138844e-02,1.981538134608922452e-04,-2.291804639932234003e-02,-3.492991111910841856e-02
-7.205612207587173274e-03,-1.744873469464137128e-01,4.460879769403613970e-02,4.716144769052357799e-02,2.406884924985615293e-02,-7.880210168668676587e-03,-1.689284601710566019e-02,3.775709611960783446e-02,3.377630724692717856e-02,2.083667233290259144e-02
-3.218294467330951036e-02,-3.556083202227586226e-02,-3.155171718493839528e-03,-2.552966605732210487e-02,-3.538799448652574925e-02,6.472147474104956826e-03,1.415072917347408137e-02,-1.649302775302503160e-02,-1.704040720682864843e-02,1.795707056154285941e-02
-1.358981971713175106e-02,-2.892219357643796215e-02,-2.024283963286104340e-02,-3.131165559582872043e-02,-9.543890618583429240e-04,1.780200460334872836e-02,8.285203490115388911e-03,-3.852336536473052655e-03,-4.511057408196696844e-02,5.815637818240818220e-03
4.569679479448639225e-02,7.444018595055190701e-02,1.703788076593245882e-01,2.197845066864046182e-01,1.773141603918353404e-01,2.478907433707205621e-01,1.809582313616053262e-01,2.054487648340980466e-01,1.261531658755410956e-01,4.162631851760130453e-02
-6.465724794347800161e-03,-1.304989313784322633e-02,-1.071797532021703386e-01,-5.437598815329707652e-02,2.334617305396271408e-02,1.554453185692819366e-02,2.017712873510302610e-02,2.080882069834368801e-03,-6.930050676896363712e-03,1.538817860990017786e-02
-6.342940953952531588e-03,-3.345373092000095833e-02,-2.183529253584584606e-02,-2.274396506102632082e-02,-1.386954301963453078e-03,7.500953080332545611e-03,-8.023836706419569878e-03,-5.484935660891268605e-03,-2.034034211461525216e-02,1.487080892966490334e-02
3.649744903987363343e-02,1.342853551879910068e-01,5.689472488330332700e-02,3.888191728635259636e-01,2.898032276214780878e-01,1.610853519038041026e-01,7.545748357945557261e-02,5.142256745534720674e-02,2.184713911453552843e-03,3.519861329117645460e-03
4.645850385918968289e-02,5.103021290483078509e-02,-4.066324832991916396e-03,3.203485755520374401e-01,3.399149583854259582e-01,1.435936403180110565e-01,5.641848416356221724e-02,1.130022914742540435e-01,-4.196475280952138148e-02,-7.650915426833999888e-02
1.337354718270535210e-02,7.400258094410977483e-02,1.508416185669321230e-01,1.506759620636074215e-01,3.352603176224816517e-01,1.949563331736907656e-01,2.101621447429152800e-01,3.437528506329555478e-02,7.753385017214507735e-02,3.288618377139520405e-02
-1.494682978285425713e-02,-8.455627357858358506e-02,3.823229078275771752e-03,-3.334889373685917535e-02,1.816468074591768775e-02,2.647945659740902173e-03,-6.109821032208981317e-02,-1.333955529236218384e-03,-5.271084696891074894e-03,-3.440880251298346348e-02
5.698053169755233974e-03,-3.866132212423593895e-02,-7.551828624723351535e-02,-7.552279140334025587e-02,2.750717503062162853e-03,2.838678038271687590e-02,4.294903880025868759e-02,3.223234922135861241e-02,-1.235897149208465065e-02,1.691067199595272519e-02
-1.778757464322358595e-02,1.475687236387003276e-01,3.331169404931043077e-01,6.183842093039653570e-02,1.790066823909910732e-01,2.577611759707140182e-01,1.572469844644737991e-01,1.176467963882801976e-01,-3.340830941378829938e-02,3.428456736561732478e-03
9.460911974549970904e-02,2.904869249918847207e-01,1.061228091268151957e-01,-7.162488805076805409e-02,2.332250430553745590e-01,1.425374026175117437e-01,1.250558050929508336e-01,1.625620398360992647e-02,-2.925306746673020028e-02,-1.686285930204563244e-02
-5.444138027147524955e-03,-1.155523982044093408e-02,-1.891948195802952218e-02,-2.814967298561291131e-02,-1.468184795363804140e-02,-5.723925462137346987e-03,-7.553077400518953995e-03,9.539183765348249744e-03,-1.003986574648782146e-02,-5.957214477441297173e-03
-3.648627814828656751e-02,1.012317928773759229e-01,1.842515508135058322e-01,2.219047562650777738e-01,1.258567330104684856e-01,7.638859501312667173e-03,2.242539480023612863e-01,2.142773847998269698e-01,1.466658704747192676e-01,1.115639790860177422e-01
1.105411882129808156e-03,-1.872590254950597458e-02,-2.429428119906476558e-02,-2.988144338723172297e-02,-3.408740012705854805e-02,-1.297661445042041888e-02,-7.651932491752541643e-03,-7.458195365625692845e-03,-8.436804586915975027e-03,-2.869573731209194395e-05
-1.431327406455975247e-02,-1.847516702569794791e-02,-1.814315675448482240e-02,-2.764384058583697207e-02,-2.592630063704457616e-02,-3.545160237309321824e-03,2.406408739654063850e-02,-8.573437321095511016e-03,1.055832357984580298e-02,-1.041888656551453671e-02
-9.376577890074277999e-02,-1.183500281385075764e-01,3.215708640794279899e-02,3.822311509589812473e-02,-1.047996468525031095e-02,-2.881575151729519335e-02,2.088485284776358392e-02,3.030583140559897810e-03,2.575828293892775539e-02,-1.162486312249320745e-02
2.576214707636737336e-02,2.505549612625303582e-02,2.548352217247032425e-01,1.360819543558942912e-01,1.343405170248913039e-01,2.575468578721817337e-01,2.752796579180913361e-01,2.175941873268533167e-01,-1.375309440865753359e-02,-3.154201883076010460e-02
-1.142806659079670037e-02,-5.786990888666455196e-02,-6.605253788941705534e-03,-4.092068986184080326e-02,-5.814860758845707966e-02,3.128863918131223609e-02,-1.878293660281611654e-02,-2.814745382084880496e-02,1.436146391586309162e-02,1.421185282268156228e-02
-9.954887750674323854e-03,-1.356200175187347312e-01,1.280824624434734327e-02,2.822132406154462606e-02,-5.722210374366536179e-02,3.423894338678426519e-02,2.242492404912024839e-02,-6.530449513483851942e-02,-2.670649032668188233e-02,-2.954642443066895705e-02
-5.289462120189530880e-02,-3.798784286232442103e-02,-1.743364990077791998e-02,-2.906173853465626733e-02,-8.215620629639291961e-03,-1.712263698205426093e-02,3.184787594010428206e-03,-1.071647501817535840e-02,-1.203107950138055868e-02,-2.725102108629259140e-02
2.754468402997307594e-02,1.102833894575845630e-01,2.546947295584652826e-01,1.293929520922166843e-01,8.554037181301181458e-02,1.534139594283875085e-01,2.831475091819090628e-01,1.246718953649057077e-01,5.688964488068977421e-02,9.611710288047423112e-02
1.454305008089931683e-02,7.591247414811845562e-02,1.883193360738633360e-01,7.528999116123182012e-02,1.598357534366310895e-01,3.753863272875837542e-01,1.977249481250516194e-01,8.139723414778811394e-02,1.106213009465127108e-02,8.273267228938392670e-02
-1.596302963149061338e-02,-1.848552604320489665e-02,-7.073425902249329267e-02,-2.691732080666362978e-02,1.686961252856660973e-02,1.948975246109950488e-02,4.889501541593304496e-02,4.129726245447795652e-02,-4.550460843447196729e-02,-5.831436852926180810e-03
6.408675516456643906e-03,3.721676848521837666e-02,1.689970751148958117e-01,1.091156761051642471e-01,1.280499701082966069e-01,2.089747043835333551e-01,3.031554371830603167e-01,2.145745615375181659e-01,-2.088212688972711922e-02,4.135347434733151889e-02
2.231097750250962079e-03,-1.708085881773224041e-02,-2.010199657052355593e-02,-1.941567693489534494e-02,-2.442869853450854722e-02,4.912795732447114427e-03,-4.284002078468809871e-02,-5.399507265594310004e-03,-3.692901564327293398e-03,-5.267403136245315740e-03
-7.116754116307783375e-04,1.093485265351071684e-01,1.248816507538097059e-01,6.430235139799063415e-02,3.841764774657261960e-01,2.139134508380947375e-01,1.161981906518282370e-01,6.554181244960935460e-02,3.842084581387445602e-02,2.067586258625066838e-03
-5.797554338064980078e-02,-5.304582189445548879e-02,-1.883908443654316520e-02,3.268615403880744275e-03,-2.517763005665636048e-03,-1.019863161811621240e-02,-1.807233843079776234e-02,-1.956432534117119246e-02,1.037995553604415498e-02,-1.373825348814379857e-02
-2.919948674460585373e-03,-9.073049359430283844e-02,1.163204399908992701e-02,-2.439545029070189566e-02,-3.509762726009109379e-02,-3.450519836525813705e-02,1.241889131103457618e-02,2.962408924095103532e-04,-1.650058422757442154e-03,-2.008513430171538633e-02
-4.045072749541162027e-02,-4.406884273343925768e-02,-6.278348757225311882e-02,-7.915542493406403646e-03,-2.505661367532800721e-02,2.806811102928927562e-02,-4.066016045799995815e-02,-1.486211579051051855e-02,-1.299282832316613935e-02,-8.272441161562033018e-03
-5.211778508098671887e-03,1.212079963079243199e-02,-3.240295597196646976e-02,-1.964635096094947270e-02,-6.447245614463348318e-02,1.144744482495494743e-02,-2.522637206750492217e-02,2.234883204131208820e-02,-5.374680848222763291e-02,1.632062117389137743e-02
1.795319197720930205e-03,-9.783590919637834629e-03,-1.517214634331332315e-02,-4.140427560267215951e-02,-5.038411352463729315e-02,-8.695698945008198399e-03,7.677933687230014716e-03,-8.318744756018896236e-03,-1.661267876316584874e-02,-1.568854938867910885e-03
-2.103061356853054564e-02,-2.619161331010580809e-02,-1.776997821673518066e-02,-4.840726839975170726e-02,-2.895362460980247313e-02,9.368833051299828990e-03,6.298840503876365973e-03,-2.684258647511470960e-02,1.353479685815927105e-02,-5.247959892076481218e-03
2.659951312777172894e-02,-8.471643576971837897e-02,-5.130153763141567097e-02,-7.771614194309948986e-02,2.172548076350286697e-02,3.045851966635542557e-02,5.596526595490240036e-02,6.529902589998277940e-02,-2.512825245746423426e-03,-1.171960576138227073e-03
-8.454528695251571808e-04,-1.115228145397459403e-02,-1.342498812211349001e-02,-6.338179701347271267e-03,-6.338479232782537331e-02,-9.886973365069870456e-03,1.270202871993366192e-03,-1.153788244866045531e-02,3.118310681624626973e-03,-1.597738140797386186e-02
7.749358734861760967e-02,1.227066500202969174e-01,1.027252217734533624e-01,9.732438394867094777e-02,3.664590498688204967e-01,2.804738593735670027e-01,1.390260434013945168e-01,4.209700417307891962e-02,3.628779470886188407e-02,4.238750998037195405e-02
1.235525538761689246e-01,1.925640183527542112e-02,3.012030724169480478e-01,3.325209528566032691e-01,1.882257953528679584e-01,6.249240164403593173e-02,-2.354276633743147829e-02,2.365069160365602594e-02,4.585973538213337919e-02,1.905049193129427360e-02
1.822257393657306795e-02,8.294635247774745368e-02,1.443426107508898049e-01,4.507551440914857321e-02,2.019072753800396636e-01,4.502738051709507805e-01,1.833590748815020210e-01,1.407112584593411264e-01,2.174792208575959326e-02,-5.629154108797384398e-02
1.513430245034267513e-02,-2.786179435719656969e-02,-8.437290950923806779e-03,-2.926283362676734140e-02,-4.351934710687013069e-02,-1.891706579460746343e-02,7.027076634001891940e-03,-3.575665951641201178e-03,-4.026034386701509565e-02,-1.958147786010316221e-02
8.217223829514493094e-02,1.165957644811763116e-01,2.009507571466211950e-01,7.490913503274609572e-03,2.276864288057973973e-01,2.525924916827165800e-01,8.875065086074733489e-02,5.948621162057265294e-02,6.354153679784396713e-02,6.694662653170780145e-03
7.247395616430203635e-02,1.041126957719832186e-01,8.840771588980463058e-02,3.770401844594314933e-01,3.436992404647901678e-01,1.639469634457166036e-01,8.909605225451869975e-03,1.312151364680828360e-02,2.274497376079571281e-02,3.766796525016572611e-02
-1.939964911296389663e-02,-2.957258429912377681e-02,-2.835893048672271516e-02,-1.370041291141564990e-02,1.375815182163298532e-02,8.404644846672746847e-03,-7.165495830910974598e-03,-3.083834690083377128e-02,-2.242571320513618571e-02,2.267652454409597659e-02
4.675935744979961561e-02,4.731035096835098375e-02,2.047132197762241979e-01,1.080826876781352253e-01,3.987931725195310029e-01,2.470309760194527027e-01,1.375585932790666932e-01,6.599210594203501479e-02,1.523606720242879145e-02,-5.234629089166615255e-03
-1.086021730330547636e-02,3.604547525043674382e-03,-2.003679023123581746e-02,-4.337570095398302072e-02,-3.654940433366001690e-02,1.313925773202352654e-02,-2.671983299007132939e-02,-1.874134726835231107e-02,-7.050361896274785940e-03,-5.949413856905702395e-03
-2.343538482734725328e-02,-1.173754743383458553e-02,-1.763037242801420157e-01,2.935247871318042573e-02,9.485240790445817471e-02,3.384835203955864624e-02,-2.324028892766295470e-02,1.457889235088055853e-02,4.749959698414539522e-02,-1.526642476804484366e-02
7.569080331728475150e-03,-4.266517595097907983e-02,-6.858571908139488027e-02,-5.050514554314192855e-02,-1.260097455565273306e-02,-1.877709979308891247e-02,1.125741288368887864e-02,4.845703468153272214e-02,-1.024407522847075626e-02,-1.015034474744046580e-02
-1.098004475956227723e-02,-1.401194811894786521e-02,-3.988643793206227139e-02,-3.069571469666500935e-02,-3.510649440223564954e-02,-2.260893806715071844e-03,5.376154664168702850e-03,2.571829636756987284e-03,-4.132196420164758327e-02,-2.948144454458516157e-03
7.390378775329840833e-02,1.243716262127779193e-01,-2.106897078829703812e-02,-3.811418073890604497e-02,3.192465532909627979e-01,2.476739682706356749e-01,1.361343242554187427e-01,1.089303048335591717e-01,-2.425195064942906303e-03,4.381617017872023456e-02
-3.079392899439708370e-02,-4.147936191456171734e-02,-3.848971958914262741e-03,-1.500003773529369304e-02,-2.457487165226130907e-02,-4.475863223741201324e-02,-4.111623964452235103e-02,2.491286508000147351e-02,2.652645809338047278e-02,-3.007792763250163523e-02
6.572070868618965118e-03,-1.870235827394712072e-02,-4.341711764291165780e-03,-6.385098243244938243e-02,2.113690784018193783e-03,-8.965038043521901187e-03,1.160169281712629917e-02,-1.087719847637727381e-02,-1.749451523371477885e-02,-1.685228916356252410e-02
2.612529822595778539e-03,-3.274482478180649916e-04,-6.368894866786332931e-02,-5.276218898006797969e-02,-2.281306908035232381e-02,7.685588713607860445e-03,-1.020481767551534476e-02,1.786531282058204800e-02,-6.580446194475286781e-03,1.073193322348809688e-02
1.511043989480556279e-02,1.618217355055784346e-02,-1.044687537756073224e-02,-6.015289724430580159e-02,-2.516977410356448924e-02,-4.420200305110473342e-03,-3.145327042756657088e-02,7.963743858957214941e-03,2.443610206598895856e-02,-1.764096962702595833e-02
-3.686427080024198572e-03,-1.417892770078681662e-02,-4.592151301483715642e-02,-1.644885543591448687e-02,-4.887172174869330865e-02,2.012617178797174947e-03,-1.391923319394967537e-02,-2.646797126271236301e-03,-1.309650416657899899e-02,-3.995389127747372808e-03
-2.054140114944159531e-03,7.850142627286700592e-02,1.557607228120279630e-01,1.338197521743791918e-01,2.898433545831314295e-01,3.249332263698445078e-01,1.589038227138877546e-01,1.038222138683873585e-01,3.112826485403389146e-02,2.303646888207526791e-02
3.476318414850025629e-02,-5.226347038519867094e-02,-4.086417754040168326e-02,-3.792855295011905020e-02,-7.005046857663645155e-02,-7.119518672879645259e-03,1.076038364250402578e-02,1.195911718983076050e-02,1.236575735318135374e-02,1.150558508109622569e-02
1.782960565421824045e-02,-1.061033466656071365e-02,-6.122857770896653756e-02,-1.796301187902870494e-02,-3.348031405077196015e-02,1.969583253863677053e-02,-9.051078957493149599e-03,-2.735174974096904812e-02,-2.111587474469679704e-02,2.410888406657540894e-02
6.436846052008133451e-03,-5.420066340844529110e-03,-1.219929934294842339e-02,-3.231219878161498832e-03,-6.370656076482338059e-02,-6.504179676378945597e-03,-1.285192433048232795e-02,2.984617608057167290e-03,-5.228608621329480094e-03,-1.008835988666690123e-02
-7.876821725650903078e-03,1.327383393275957668e-01,1.659012538708426465e-01,5.646876448204680987e-02,2.889647715839455122e-01,2.260214412656050831e-01,1.881964194516492772e-01,3.122576191595345316e-02,3.923841544293278638e-02,8.202989376758432205e-02
9.804512193701903078e-03,-9.482954815264952805e-03,-1.392915363003589639e-02,-1.810831623629146833e-02,-7.378822750289847077e-02,-1.469945177201233653e-02,-4.612311003106848994e-03,-4.151227411466341943e-02,8.540073064173448261e-03,-1.815775356339456234e-02
-1.396685845290227684e-02,-2.274026670659938867e-02,-7.789212878294647646e-02,-7.785486747806302787e-02,-1.840325560999582499e-02,4.325517497253791172e-03,1.142974108354040744e-02,-2.735260507883274100e-02,-6.957113395505497289e-03,-1.105630496622418343e-02
6.408926615075322131e-02,1.001659243127009241e-01,2.881390347388963491e-01,1.803237390580788302e-01,6.184984375879610391e-02,2.647313004319809537e-01,2.459908605361465217e-01,1.718810713907602539e-01,3.070635923842853637e-02,-4.512858377015632749e-02
