1.215734691487183383e+00,-2.161439047703724303e-01,5.461882696170660134e-01,4.621226422579486348e-01,9.909546703860502292e-01,6.186484731169825668e-01,7.598080998260788865e-01,1.147897298335176161e-02,-1.135245223861668817e+00,-6.126651899628799969e-01,-1.116047106005129547e-01,-1.255867726406368354e-03,4.609096865880537436e-02,1.650899704521651967e-01,1.581820089590919576e-01,1.523518704534906620e-01,8.553684650505746778e-02,1.805198721862106420e-02,-6.004671210091709899e-01,-1.697157598508190368e+00,-3.068361140872996717e+00,-4.026400473424383009e+00,-3.783850696815432180e+00,-2.104766860221909397e+00,1.326732729897775576e+00,4.864725083546861839e+00,7.124926177937913607e+00,5.927653558780733078e+00,2.282454449362722126e+00,-1.558718174137044610e+00,-3.421916085694236997e+00,-3.161878839909792127e+00,-1.863555747984526390e+00,-6.173161180977680962e-01,9.171244656282702412e-02,1.710837599159121258e-01,7.584661820608451510e-02,2.453235200053553444e-01,6.589227078530998094e-01,1.013399988931698248e+00,9.894788469109051521e-01,8.207165293932137118e-01,3.894935253510675155e-01,-2.408882322573540347e-01,-1.178388641422283278e+00,-2.524055267501731592e+00,-3.305056905603964257e+00,-2.782870644855124809e+00,-1.808000732750612016e+00,-2.596489586121135673e-01,1.460473716775377406e+00,2.329320537307857819e+00,2.508602408264946959e+00,2.404500476918612684e+00,2.149265593942099262e+00,1.471080199746464867e+00,7.104726140701299597e-01,-5.908540934505370629e-02,-6.450490314692021165e-01,-1.256268646821599111e+00,-1.554176014998782440e+00,-1.018492685456246383e+00,3.863420275586010311e-02,7.504770156804982939e-01,1.292639670539888597e+00,1.645466845877922912e+00,3.325111894824161335e-02,-4.089275394761096583e-01,-4.953818944934076235e-02,6.852987390805377332e-01,-1.498897898138627505e-01,-1.925333505820322033e+00,-3.872396545290264669e+00,-5.048782761487491832e+00,-3.822813149411481870e+00,-1.169798057192082741e+00,2.388834536637277406e+00,5.332095481750245725e+00,6.040757846332587278e+00,4.335250758147746630e+00,1.434971664241067923e+00,-7.728152744508041128e-01,-1.669317255500872843e+00,-1.547065742156148005e+00,-1.037335715837550243e+00,-6.705734655172926884e-01,-2.091546999263140527e-01,2.254214324082496057e-01,1.697551804864838310e-01,-2.855752042991237249e-02,-3.444470836193978119e-02,2.316921023297210391e-01,7.024023310023542743e-01,1.060697748361166370e+00,1.059532527678930469e+00,7.687394820027310116e-01,3.019619905682987548e-01,-1.933911182802757200e-01,-5.112752489301231051e-01,-5.524595615918278524e-01,-3.639864335460332723e-01,-3.870622953070341349e-02,3.080933751829467160e-01,5.718753627738549783e-01,6.433173606868914929e-01,5.237230447360602392e-01,2.934921829341275989e-01,1.044983054235452263e-01,1.738275439206081116e-02,1.477013403664102602e-02,5.255898724904014413e-02,8.151565225158945160e-02,8.013573549999809809e-02,7.497826129597157108e-02,8.389679082217590955e-02,9.904477164645078546e-02,1.214448400178870097e-01,1.321487797724386071e-01,1.245919848270053282e-01,1.207964924978803950e-01,1.127404516439392962e-01,9.255852446873188977e-02,8.299558435875753482e-02,7.795024547048680363e-02,5.927173083079250587e-02,4.378524510361291033e-02,4.030849218314619398e-02,3.393520730921737588e-02,2.826606791224045567e-02,2.876035291737830818e-02,2.892822694550319096e-02,3.058481615789084007e-02,3.001162292941280882e-02,2.471585544966976161e-02,1.882131738272845717e-02,1.235563610390754026e-02,1.171481926013038036e-02,2.093977507935914154e-02,4.899520803193931767e-02,8.964600843837577937e-02,1.308909702067468928e-01,1.818827696499425439e-01,2.265309886304869291e-01,2.617537288077267377e-01,2.693445743923871816e-01,2.480639334577732780e-01,2.008177753987633041e-01,1.461120516759246701e-01,9.935305934569259312e-02,7.343477007081750108e-02,7.933661360065610846e-02,8.560658377128543828e-02,8.826679087756242326e-02,9.838508996087581837e-02,1.107145603572854270e-01,1.150406685072380003e-01,1.314490781097751304e-01,1.407054923916941092e-01,1.450224820875513354e-01,1.414500670885069367e-01,8.223045610588045062e-02,4.220233951506907437e-03,-1.105101891824652183e-01,-2.326076275399067139e-01,-3.184785047572121219e-01,-3.705635753590795778e-01,-3.614261947429583954e-01,-2.878331869803550380e-01,-1.589982773337698108e-01,-4.768880565831913609e-02,2.047392969899873225e-02,4.746102648745122166e-02,5.122095042929538516e-02,7.686087413102145327e-02,1.293690825286633039e-01,1.749302577951586946e-01,1.392176182482033342e-01,-5.213207245613277196e-02,-3.627487425635425033e-01,-6.689946788800168465e-01,-7.110873973102755929e-01,-3.219163968903717143e-01,4.010656449561631476e-01,1.103154402593319539e+00,1.504766572438057892e+00,1.504258020275368590e+00,8.640872054748891529e-01,1.160695335102114312e-01,-3.918263472415134396e-01,-6.305098622523070961e-01,-5.446751807227744324e-01,-1.790046246437339561e-01,9.437926651680562939e-02,1.570052532979135107e-01,1.701423230627460426e-01,1.268529084263800566e-01,9.432554243618634926e-02,8.008314199882758666e-02,7.162253058723146160e-02,7.149969403939933354e-02,7.533146470696393260e-02,8.350579153619216988e-02,8.521783799534868309e-02,8.644686281043159615e-02,8.870280367623750717e-02,8.764708893278154445e-02,7.026632927859816080e-02,4.774838951170137791e-02,3.499192187860915987e-02,2.058544716266944713e-02,1.615843443079005223e-02,5.445804564914361739e-02,1.072805689370875115e-01,1.572476576759254951e-01,1.972638329717786299e-01,2.297868520354080235e-01,2.395129668662209499e-01,2.064964274274368738e-01,1.680180642884762376e-01,1.213464008213765710e-01,6.269266587820832015e-02,2.105511033559330242e-03,-3.894133812810269407e-02,-5.752240698445037353e-02,-5.909826671561812378e-02,-4.546103741197215359e-02,-1.791874316138632878e-02,1.812068803169962494e-02,4.737928435291864637e-02,6.576767556804641313e-02,7.486821466224140298e-02,8.158435515555979844e-02,8.749976240388682158e-02,9.140486347556553426e-02,9.467305252044504182e-02,9.385154508978740817e-02,9.225284950100284820e-02,8.965100358713319617e-02,8.805500138964572621e-02,8.563171069855045336e-02,8.719904806379021045e-02,8.895902217755061181e-02,9.157720638145533387e-02,9.418426897862915148e-02,9.580673653070999329e-02,9.148232084728087632e-02,7.861022209218872236e-02,6.601549846108753505e-02,5.338423944560023032e-02,4.114858263272743594e-02,3.277753216194155550e-02,2.706685221618661263e-02,2.411593699411929484e-02,1.819518250654288821e-02,1.572332699677581047e-02,1.289692021609011377e-02,9.859164018677112062e-03,7.992240103978505775e-03,6.133248673865135565e-03,2.520759626458245976e-03,7.018904164315945471e-04,-4.379918431419459190e-03,-1.464168927932335898e-02,-3.846326745884165454e-02,-9.364204093441741428e-03,6.567539164404764818e-02,1.463749880521232893e-01,1.929473879344572318e-01,2.236950137248903125e-01,2.651563606870374068e-01,2.609841726687747165e-01,1.820172451338507302e-01,6.148667391255258075e-02,-5.285043735047535024e-02,-1.636233934895838793e-01,-2.371501042357541666e-01,-2.571903249317191165e-01,-1.811685017402943632e-01,4.072857050171919610e-03,2.478861232382570945e-01,5.150291984568096115e-01,6.789497886532936954e-01,3.812224871590838005e-01,-5.710126200681500119e-01,-1.950560025612062987e+00,-3.346056300201201594e+00,-3.773453748450562362e+00,-2.630287323766935081e+00,-7.936182526038143559e-02,2.750919086005819469e+00,4.224203671364741730e+00,3.736596499876088995e+00,2.426553719362373407e+00,7.204191747986313787e-01,-7.785906929203901816e-01,-1.013524916219395777e+00,-4.903453425444455616e-01,-5.159588995877022466e-01,-6.985124384585271740e-01,-6.541861545093730079e-01,-4.432342735699696390e-01,-1.753160527754386577e-01,-2.746032368901178342e-02,2.054960175982762163e-02,6.115119492554355746e-02,8.807134745631278738e-02,8.603636535395953189e-02,9.962969157783341245e-02,9.061759302563618390e-02,7.051840394518284205e-02,5.362089623401917332e-02,4.729759249901985957e-02,3.798862909308951818e-02,3.322190595214499081e-02,3.487635932754341167e-02,3.025445202243449982e-02,2.508943181136556386e-02,2.204734089010514098e-02,2.069037789019373755e-02,1.914680791747544811e-02,1.802364577512824764e-02,1.777885475373670171e-02,1.519470052421176103e-02,1.381242867484726994e-02,1.176895890165342157e-02,1.085408121009070678e-02,9.568471112665873426e-03,8.983147991516579264e-03,8.070742278883097712e-03,5.961878361396590921e-03,4.466029291363926741e-03,3.554068132692798226e-03,3.605464086265742010e-03,4.392561274553736204e-03,5.178872048544020529e-03,6.561285337041101659e-03,1.080388062458913570e-02,1.205578234524937349e-02,1.397703083007564157e-02,1.742177939339343076e-02,1.888485268647543264e-02,1.971749203676280079e-02,2.029746834774609834e-02,2.197016464005355565e-02,2.162738474279619211e-02,2.081836596842975839e-02,1.941688515598932741e-02,1.858026778453266553e-02,1.786582309182483536e-02,1.699555378999391062e-02,1.618737911780359154e-02,1.590964594271294941e-02,1.629954450397035418e-02,1.759829317529920320e-02,1.815483963760750399e-02,1.874077678968265326e-02,1.918394662490889926e-02,1.993015027653895210e-02,1.977785117943680476e-02,1.998569863598619392e-02,2.012506947741861049e-02,1.947210305966876401e-02,1.867936835024175402e-02,1.875970838203463303e-02,1.850051231117973843e-02,1.870536271233427111e-02,1.924943371270044362e-02,1.813548654094950321e-02,1.367533754775151003e-02,3.859035038373564118e-03,-2.753495418727526078e-03,-7.926260243761969887e-03,-1.366958877287374231e-02,-1.070876250142261017e-02,1.520796158511577602e-02,7.514297259375708748e-02,1.558028575136619909e-01,2.405015565148215240e-01,2.968329374777103902e-01,2.934779903736047246e-01,2.868105284412450495e-01,2.423407327052287674e-01,1.789627677600260092e-01,1.127858572053478947e-01,6.594477442295597347e-02,5.665177643641114424e-02,6.755811305396390576e-02,7.495354805029126599e-02,9.690032360203730544e-02,1.069503164126187483e-01,1.108700281191253162e-01,9.808277136048587641e-02,7.414458145130312094e-02,3.509096481625119390e-02,-2.127600766986155120e-02,-1.027550406241953262e-01,-1.920034350257694977e-01,-2.479362806254339080e-01,-2.407714670423856951e-01,-2.039125559675376287e-01,-1.386424967418484755e-01,-5.450574511504314296e-02,1.498161501922505405e-02,5.220181077566384692e-02,5.641101842011475576e-02,4.130045702500808463e-02,2.747563520710257640e-02,2.157410192793147649e-02,6.370311530547219381e-02,1.487615995489026122e-01,4.067721389075394378e-01,6.004503458096914770e-01,5.389528681361670515e-01,9.907424856667228497e-01,1.530625099981459680e+00,1.332648646917663937e+00,1.455732885134658483e+00,9.693859442647898561e-01,3.165784375859107547e-01,1.389830818557209746e-01,3.554374582783405567e-01,6.637746622044239375e-01,-1.723891078162279045e-02,1.011861350211699762e+00,-3.042495782495948209e+00,-4.257727794748014993e+00,-4.390065692389468310e+00,-1.947486962437057434e+00,-7.707056201750963620e-01,5.524687808526036470e-01,2.329649721009130481e+00,3.163653998191813699e+00,2.510053831453916029e+00,1.275183565745070746e+00,1.635305323803451782e-01,-4.115738297910423449e-01,-1.023394827680237373e+00,-1.460615902974601310e+00,-1.199216593448827695e+00,6.727790039155069624e-02,1.484964311218026634e+00,1.986553646999247524e+00,3.683050278134765154e-01,-4.656868523926006032e-01,-6.886940525159380710e-01,-9.979933872809694240e-01,-9.847256117899985117e-01,-2.503372633702807826e-01,1.145488048587548713e+00,1.985218930390696856e+00,8.861633170023744954e-01,-4.364481074576446740e-01,-9.339224026598649253e-01,-5.061876463261568704e-01,-1.384051010325535180e-01,2.585154224171899440e-01,2.628890096696546719e-01,6.733754172740977761e-01,1.135365010376264028e+00,1.690732640706724466e+00,2.643969815756730957e-01,-4.540036255733022053e-01,-2.999626573358644133e-01,4.272178348243151347e-01,1.035051740580661628e+00,3.737380302585705527e-01,6.358426328551245454e-01,-9.676639105155093734e-02,-1.180204469385149668e+00,-1.960297671974736478e+00,-1.070206033602516760e+00,-1.408997809903256015e-01,9.892345069999710638e-01,1.512961633096815861e+00,9.575673799622373972e-01,1.483488717089983915e-02,-5.371246157011723144e-01,-1.127636748316255710e+00,-1.464982419505616917e+00,-1.044487971209905997e+00,-4.240605840779906877e-01,-2.018999491482021402e-01,4.023780317796097350e-01,8.432750234736892114e-01,6.338009319676102260e-01,5.015200328880655700e-01,2.624942372639469945e-01,9.962571846099384232e-02,-3.460691918163455449e-02,1.279786092513295059e-02,2.108474626620287784e-01,3.446167466850129091e-01,1.664759002217645334e-01,-1.013624378945383320e-01,-2.426645130960893570e-01,-1.679201160982876639e-01,-1.335957955761375160e-01,-9.949240056590551162e-02,3.075566718931001600e-02,-5.383611980574787292e-02
-1.376332847340585586e-01,-2.889771011403140244e-02,-3.595682593119949727e-02,-6.784928809186001331e-02,-1.512811812741276796e-01,-2.882740820506906124e-02,4.945960824760949059e-02,-2.448899191852076801e-02,-6.074464746930810510e-02,-6.410827545691585860e-02,-3.983235539775770162e-02,1.303833940406728259e-02,1.529658315976684391e-01,2.976838225258470194e-01,4.361212757823829111e-02,-8.285791476952151235e-01,-1.786413823119316513e+00,-2.042112122011533693e+00,-1.527221471724192092e+00,-4.370453570485036687e-01,1.044864087188445589e+00,2.110213696373798520e+00,2.211408511640557961e+00,1.372902543060417146e+00,1.948054376341676608e-01,-7.228116356809832777e-01,-1.013498099381839213e+00,-7.677491644103766610e-01,-2.999772273185783988e-01,7.813812986851069453e-02,2.354452939560383040e-01,1.848726254035032712e-01,-2.974491671743492022e-02,-3.463865610659075944e-01,-5.309782681845840457e-01,-3.849862165701941619e-01,6.857272187313671885e-02,2.034434750014266768e-01,1.268749942108731987e-01,-1.922621315138415415e-02,-1.633613678782405987e-01,-2.684584217199753042e-01,-2.802471816362094859e-01,-5.700102675973305055e-02,1.691819431648108052e-01,3.147723232998000387e-01,5.102836031272032224e-01,5.977932871159336026e-01,1.378892892155041683e-01,-8.399894323365260096e-01,-1.776909719118198394e+00,-1.955286369250198719e+00,-1.265968019723718863e+00,-2.049634950821957735e-01,5.507714529732066211e-01,4.639419786854516725e-01,-6.112881190159720479e-02,-5.445480295845683827e-01,-6.448640629410399283e-01,-1.020868615988437533e-01,8.820156474006207725e-01,1.211986295844145411e+00,4.517968090187655106e-01,-6.533609438438258143e-01,-1.128147647524291086e+00,-1.296867501223611052e+00,-9.276150164771711504e-01,-5.750511580746560103e-01,3.666617280206700413e-01,6.705809618149448648e-01,4.675020823106410539e-01,1.642765166867038718e-01,1.324783271356002046e-01,5.113578151481417561e-02,-6.956093635280466425e-02,-2.349954655250496155e-02,1.337942930758260693e-02,1.471289961482811701e-02,-2.305779641913906913e-02,-5.971260303715307527e-02,-7.364599924739917425e-02,-6.779339457113003897e-02,-1.810288049593348006e-02,5.629730425971710833e-02,7.167219509559141777e-02,-8.617352877449989401e-02,-4.147960996752407814e-01,-6.703149130243101217e-01,-6.390283759777588557e-01,-3.506896933492778534e-01,6.596213064577044483e-02,4.341302711852324525e-01,5.092128845792888159e-01,2.969292893423783330e-01,-4.431772380650320087e-02,-3.150531394404545993e-01,-3.939100731510081221e-01,-3.047545810988863124e-01,-1.726465782937824378e-01,-6.371102564109909494e-02,-3.532923594853318305e-02,-4.896987492258519925e-02,-6.888203967722764109e-02,-8.456457352900365043e-02,-8.382984064675783054e-02,-8.116449226341256040e-02,-7.487458771365837484e-02,-7.173468704691485232e-02,-7.625781775263944240e-02,-8.073527618595098543e-02,-8.643127633993151482e-02,-8.950937014412660431e-02,-9.021527400193875279e-02,-8.900549994058352954e-02,-8.589212063613710368e-02,-8.512049011375885654e-02,-8.486748558269348319e-02,-8.572784154287606262e-02,-8.757533077440070313e-02,-8.849629525951710485e-02,-8.822372011906418066e-02,-8.659219945584180345e-02,-8.399529211413829521e-02,-8.255180233348900776e-02,-8.092178182789709628e-02,-8.292239253998415216e-02,-8.301846296270251613e-02,-8.568375594239359405e-02,-8.685653439236612483e-02,-8.539685828725011862e-02,-8.469735281222175172e-02,-8.034608074709208292e-02,-8.115075700923941870e-02,-8.333559447592125968e-02,-8.747860950621619280e-02,-9.046515147600484030e-02,-8.911096442921247196e-02,-8.800104225376652323e-02,-8.551056298341842832e-02,-8.053432946916469493e-02,-7.411538459058052142e-02,-6.909857794076268434e-02,-6.552892578993524397e-02,-5.944225169465355146e-02,-5.707669710791474921e-02,-5.266632248502856051e-02,-4.888604211485250706e-02,-4.631968568750466364e-02,-4.325553938486112471e-02,-3.905035119699921953e-02,-3.396061332737765337e-02,-3.379702571416124540e-02,-3.147577437000922962e-02,-2.746518530271369746e-02,-2.386567489422134966e-02,-2.223482617075554432e-02,-2.166984280379965003e-02,-2.072953352224307655e-02,-2.034118828801745327e-02,-1.750146691851689820e-02,-1.945174334800246763e-02,-2.005514296588922080e-02,-2.287205604918446031e-02,-3.599182317097165268e-02,-2.542605943782330624e-02,-2.909292641697132711e-02,-3.295208740878075721e-02,-3.480292110432475772e-02,-3.766966970273397802e-02,-3.886522858260916397e-02,-4.193224625344582623e-02,-4.761735800280307573e-02,-5.269345141386197473e-02,-5.528342612643948051e-02,-6.072980458036916773e-02,-6.774008677028411918e-02,-6.608893784184786957e-02,-8.105591795706834635e-02,-7.537718444066023038e-02,-7.115040999529825827e-02,-7.047609885012397213e-02,-6.632825746708209680e-02,-7.087338755365008014e-02,-7.741096675268478722e-02,-9.019204886424496415e-02,-1.013392880542136609e-01,-1.094966937121656381e-01,-1.109193772256184540e-01,-1.083273762530363310e-01,-1.042413007548138176e-01,-9.777605068792419307e-02,-9.073883694681593448e-02,-8.717955223290808908e-02,-8.685783220079520972e-02,-8.529596569127440020e-02,-8.543339735237374943e-02,-8.331656952973950925e-02,-8.140231113725966694e-02,-7.951750773859213306e-02,-7.814453055301877338e-02,-7.728794540935991775e-02,-7.664010217896169430e-02,-8.014042234507222362e-02,-8.434735863120551569e-02,-9.028609651263991287e-02,-9.514025318417189403e-02,-9.497809409914567680e-02,-9.715247730888661171e-02,-9.498164173470134697e-02,-9.431718032109805139e-02,-9.080650579493398933e-02,-8.631733063923317795e-02,-8.319700072934928248e-02,-8.022578847478996356e-02,-8.206753913031494818e-02,-8.532683499833423890e-02,-8.630863030852040096e-02,-8.636192350759769321e-02,-8.378225236093138351e-02,-7.953362828563356746e-02,-7.491737621962425708e-02,-7.442159470738160532e-02,-7.792495858392278762e-02,-8.209266949518552459e-02,-8.656532987004585122e-02,-8.890070962957792589e-02,-9.074033873396127048e-02,-8.777127062412731773e-02,-8.288072421904969789e-02,-7.858065883984297062e-02,-7.532468089702122616e-02,-7.140116367691652643e-02,-6.568783424533920778e-02,-6.364335490248035354e-02,-6.234082999884385523e-02,-6.117118239350186060e-02,-6.110411604326079771e-02,-5.965440809400496952e-02,-5.991762875836473268e-02,-6.049654427838310061e-02,-6.105743679822799030e-02,-6.147153348896745861e-02,-6.277552292702068271e-02,-6.312549729671912413e-02,-6.301091868639005500e-02,-6.157592921272579678e-02,-6.182289744301210088e-02,-6.155599326752765610e-02,-6.055752950754098723e-02,-6.255113136134665686e-02,-6.335789231916608144e-02,-6.243367363236274753e-02,-6.196093082623764514e-02,-6.291882619844162139e-02,-6.198969401318046163e-02,-6.071762977903759351e-02,-5.979582864454759811e-02,-5.862235455490538011e-02,-5.775136997151247148e-02,-5.883430735376724702e-02,-5.528957425061282321e-02,-5.364482105354062558e-02,-5.410228971359192646e-02,-5.234622474264315900e-02,-5.120164291676278928e-02,-5.061670644889166432e-02,-5.058431964366429112e-02,-4.802785482756413010e-02,-4.699102890827008827e-02,-4.575968133932573068e-02,-4.615933294533392656e-02,-4.477854325150106007e-02,-4.341559761237528264e-02,-4.248879280699108946e-02,-4.212065246188371331e-02,-4.155788618987749788e-02,-4.097760158070570813e-02,-4.009964359326676636e-02,-3.952516848673006539e-02,-4.127799861539324655e-02,-3.865596320475337550e-02,-4.116882018444895097e-02,-4.179407255051666853e-02,-4.271271517383246757e-02,-4.100484241204387093e-02,-3.859056434365321087e-02,-3.772066754525205817e-02,-3.614857677100818956e-02,-3.549476124410490263e-02,-3.476580396084237579e-02,-3.437729634191973027e-02,-3.253981362797428445e-02,-3.392241356444922890e-02,-3.104776924000045638e-02,-3.208957727976710639e-02,-3.200638578064060602e-02,-3.078471430731195835e-02,-2.830689083341629553e-02,-2.855916760079411226e-02,-2.656094583769802800e-02,-2.674043888432792171e-02,-2.640143001785776738e-02,-2.526187881186029577e-02,-2.409543123249222388e-02,-2.333231369613846667e-02,-2.564104038080224426e-02,-2.357848305291612018e-02,-2.120968846615892481e-02,-2.052551958533509191e-02,-1.948132067854560501e-02,-1.779373204787679588e-02,-1.534942602036757676e-02,-1.443299686545849309e-02,-1.397271064044787806e-02,-1.618590955269837844e-02,-1.996739493599130819e-02,-2.051219531855308018e-02,-2.573647239206023132e-02,-3.230463583616239448e-02,-3.589409200690087814e-02,-4.460989148319772363e-02,-5.352478913152589751e-02,-6.492767065842265650e-02,-7.435790731797531361e-02,-7.952872443568828609e-02,-8.825120536586676667e-02,-9.133737282461422413e-02,-9.181278080890513393e-02,-9.184187186946572712e-02,-9.074220258254739324e-02,-9.006917829585214808e-02,-9.005891336393614943e-02,-9.345188818108338125e-02,-9.637094950945995775e-02,-1.000765825137408804e-01,-9.898623110142253101e-02,-9.595781438372942562e-02,-9.133614173826037907e-02,-9.189689274334163216e-02,-8.943715333714562232e-02,-8.554026873732427372e-02,-8.193907596161995044e-02,-6.592639810367488529e-02,-5.889227468182404307e-02,-5.786031633030300908e-02,-5.414032825332878301e-02,-3.848824221644332744e-02,-2.602817680229219804e-02,-1.998697608924926775e-02,-1.115456095785190282e-02,-8.920558645614650589e-03,-1.241530846982395742e-02,-1.456436292097965796e-02,-2.329374580078961976e-02,-3.531362208837791894e-02,-3.957083209163782950e-02,-4.837152006897057349e-02,-5.847080508378624253e-02,-6.557371680469704922e-02,-7.147322602594603780e-02,-7.963079444662518602e-02,-9.243841550416016795e-02,-9.959085590596665483e-02,-1.045493267388258873e-01,-1.080578947654895899e-01,-1.096972404168143483e-01,-1.133529763664642004e-01,-1.114915846324759374e-01,-9.949836536793629782e-02,-8.926294119021523088e-02,-8.019332079473902308e-02,-7.301050757431730431e-02,-7.157997990395902066e-02,-7.401002118764506144e-02,-7.840196987782449556e-02,-8.845979049907723435e-02,-9.584209778980871952e-02,-1.026196461175079983e-01,-1.095364786307306826e-01,-1.039397690029695565e-01,-9.402285532221317521e-02,-7.804304260325180265e-02,-7.049183765689093217e-02,-6.240144846727677802e-02,-5.763390049212458593e-02,-6.156028957928354195e-02,-6.797604025385012294e-02,-7.695058007348498652e-02,-8.429902847000161903e-02,-9.133457801526827236e-02,-9.555987199562848700e-02,-9.552176464159896352e-02,-9.542729089505105899e-02,-9.280038653877477339e-02,-8.893230338727391160e-02,-8.847508300044779062e-02,-8.732911652170721739e-02,-8.445281407321339473e-02,-8.287387569095673590e-02,-8.050105329651213726e-02,-7.795690366768677493e-02,-7.868969390238507444e-02,-7.778879041580903653e-02,-8.128245308014417358e-02,-8.462324405441189190e-02,-8.852792616412004378e-02,-8.906672063106212123e-02,-8.403572412618812160e-02,-8.348617260598688306e-02,-7.882815908194787391e-02,-7.713383624433264862e-02,-6.775020792172084527e-02,-6.074969920988645966e-02,-5.254500552118497592e-02,-4.250304851870554540e-02,-3.729738428413119367e-02,-3.402507688076804315e-02,-3.059074632394626070e-02,-2.619091916248688506e-02,-2.718132988230759217e-02,-3.141735219967248249e-02,-2.913276073114703588e-02,-5.481150630713172572e-02,-5.269963476314970530e-02,-5.733023541767091891e-02,-1.882160567286365882e-01,-2.231663407856126768e-01,-1.485584414021717536e-01,-2.542687003825431016e-02,5.142069575208102483e-02,3.666159187787790263e-01,4.455494979975977432e-01,-4.913347778749515421e-02,-4.977676816073116628e-01,-8.369950463808444041e-02,3.112375782167055016e-01,3.335670528374673482e-01,2.614355110238513746e-01,2.521921676133867529e-01,4.599163225392793181e-02,-3.340264229213110725e-01,-2.327076646706055796e-01,2.892013020213632379e-01,3.849453448892191654e-01,2.640274256689935373e-02,6.079528383874132497e-02,-8.709563777160578280e-02,2.318252429981443596e-01,5.774796567131291747e-01,2.720392950124211895e-01,-1.908059971531111121e-01,-1.166228266732550534e+00,-1.710689239036238485e+00,-2.071101257371186666e+00,-9.149617714071725416e+00,-1.134946182485795063e+01,-1.538131329004995829e+00,3.992721384872000456e+00,2.785059151806619671e+00,2.070082913954719217e+00,5.057091771869487218e+00,2.928190894956387069e+00,1.424168505130627205e+00,4.537213391749183700e+00,2.757861922962303591e+00,-4.353773171650704654e+00,-5.329442269745749527e+00,-3.015593692240063461e+00,-3.796735730967118472e-01,5.643586378307963169e-01,6.528559793386677912e-01,1.413109939462961817e+00,2.547506400408619864e+00,4.713239356013700032e+00,4.809325255740587224e+00,2.767373918731743654e+00,-1.083441252020287182e+00,-2.469237129827184685e+00,-1.779489410809431238e+00,-9.445383772230676600e-01,-2.493597839718045828e-01,7.884731939328581962e-02,4.127532271787914125e-02,-1.072412005557209780e-01,-2.120709727215002935e-02,7.575134916213518976e-02,1.963996941647756234e-01,4.586593764105851428e-02,-4.124466091547121516e-02,1.361162112544211239e-02,-4.023880429308088202e-01,-1.527419279129065055e+00,-2.334713720346632826e+00,-2.004036168004638352e+00,-5.138955230627013648e-01,1.650363029818767702e+00,3.059229042847834368e+00,2.208641280142539465e+00,-7.420116071178177730e-01,-2.217623231177998644e+00
-1.341168395408823266e-01,4.055681079682496928e-03,-2.167134952814675497e-01,-2.188978673826426358e-01,-1.523522805526783264e-01,1.746009260068797364e-01,1.716394710317619976e-01,1.163086764205332885e-01,5.565913313929757300e-02,3.251670934813814112e-02,1.350349503144324982e-02,4.879694643544417801e-03,1.173855419847538370e-02,9.594495276859613120e-02,2.818373384225577039e-01,3.439993698966167246e-01,-3.207520915309527432e-01,-1.566106324439719311e+00,-2.619716850472584291e+00,-2.427250788739753418e+00,-1.445827354457443814e+00,3.502483978980659995e-01,2.182660903486979276e+00,2.725011151666663078e+00,1.889742071011581315e+00,3.406819700959295427e-01,-9.442395074369114294e-01,-1.370559611481408258e+00,-9.233783635561280123e-01,-8.819167894528372187e-02,5.921178421654103019e-01,6.523019301253787372e-01,-1.481212662792769919e-01,-9.588675863289435330e-01,-1.067047715584970691e+00,-5.277084265414289099e-01,1.772403315704297860e-03,3.765461228709186536e-01,2.898462147496691510e-01,3.363453540064444830e-02,-2.609341387958958314e-01,-3.987172720921083879e-01,-2.128479989386054261e-01,1.109170923704369538e-01,3.054161921170197025e-01,7.306701815124418964e-01,1.011028763457047175e+00,4.256334665537057638e-01,-1.092141601176487509e+00,-2.940689728310698747e+00,-4.267442285286614734e+00,-4.339974629255191729e+00,-1.616315253213169711e+00,2.975077515388695470e+00,7.013687160177675572e+00,7.321774253560234591e+00,4.252616208357242300e+00,-2.579150896897295930e-01,-3.761882210888466638e+00,-4.656018927226623028e+00,-3.173536960729846257e+00,-1.258599709403576572e+00,2.840142915824854231e-01,5.800233033763728674e-01,3.011593508976941336e-01,5.562158231108131623e-02,-1.480038665214589433e-01,-4.145950941581584837e-01,-4.594350328064353284e-01,-1.260526593178651518e-02,4.639496989010916117e-01,4.556910054162882084e-01,-1.709397247616740168e-01,-9.869444367028862297e-01,-1.179687338556413501e+00,-4.865614030924136357e-01,3.699463856210494228e-01,8.795571166142539532e-01,8.093783596862326180e-01,3.082724776221360541e-01,-3.357906744204526839e-01,-6.459452108680452387e-01,-3.197074443063878113e-01,2.906672288644394642e-01,2.873572013093174671e-01,-1.181735764486243068e-01,-4.355753605625657388e-01,-4.580288466423201310e-01,-2.038010961420554656e-01,1.659305345562736567e-01,4.134752465717637659e-01,3.999997188319760477e-01,2.272761595988826433e-01,-1.132710116182443078e-01,-2.658886378416259189e-01,-1.195285007397275112e-01,1.742936133440049079e-02,7.512562271969985828e-02,-1.694632367903839421e-02,-2.328971077022410630e-01,-4.272641099904884721e-01,-4.623038719855891432e-01,-3.266915653306698974e-01,-6.790543598978961148e-02,2.209150253423846355e-01,3.903822952012017122e-01,3.701677013251378767e-01,1.754238771946826370e-01,-8.370797378174392456e-02,-2.696550274313683770e-01,-2.951970351315607588e-01,-2.231265160210230414e-01,-1.266614953112247255e-01,-6.183877719085913161e-02,-3.172322942112736077e-02,-2.943408129039036189e-02,-3.619384204779965697e-02,-5.398169936541970249e-02,-7.279450750274406301e-02,-8.970199560486427637e-02,-9.900444537836937398e-02,-9.726965183288489858e-02,-9.546259377362778520e-02,-1.015681074816187773e-01,-1.101928448816720668e-01,-1.165808411081419999e-01,-1.183566161917653653e-01,-1.166794399857883913e-01,-1.068604992695419281e-01,-9.200354474894592571e-02,-8.715253546899773274e-02,-9.475579558967787974e-02,-1.093148682686489181e-01,-1.197896409887303920e-01,-1.140893484865830865e-01,-8.707875279100035781e-02,-4.041318081084610547e-02,6.786881120547458984e-03,3.852452694978552444e-02,3.876338178737770424e-02,6.988782085532178369e-03,-3.974764958882533172e-02,-8.552493110918911456e-02,-1.127735908510963531e-01,-1.180037413202483509e-01,-1.181393533818074493e-01,-1.201722201888776320e-01,-1.181539690445458923e-01,-1.061185699462030424e-01,-9.302226279674755127e-02,-8.927038794383360121e-02,-8.116100320409184998e-02,-7.216473733359965448e-02,-5.947164823086376756e-02,-4.458646075229768385e-02,-2.821991646835017575e-02,-1.742277300659790876e-02,-1.457402422863108248e-02,-1.529054540200803884e-02,-2.125327622644259881e-02,-2.295059134715351709e-02,-2.973736570013367844e-02,-4.053130154691875903e-02,-3.916455443397868358e-02,-4.321831688110692321e-02,-4.763676209524906474e-02,-5.761869405898079749e-02,-7.505575004146125551e-02,-9.328321997901761753e-02,-1.012294352626885718e-01,-1.048726152646616699e-01,-1.048243159840422239e-01,-1.004872300038038985e-01,-9.433277186193156361e-02,-7.552928957599980286e-02,-5.719815406807585850e-02,-4.733301875485362853e-02,-4.950194751161977880e-02,-6.209004813083764812e-02,-7.891230540231590485e-02,-9.831134258031398732e-02,-1.136966690343163555e-01,-1.206802596863312260e-01,-1.254951206928563712e-01,-1.246276910025139323e-01,-1.228710089618531565e-01,-1.182650092872936654e-01,-1.164854864184442368e-01,-1.154887161987721289e-01,-1.133571825476816786e-01,-1.097637185257555464e-01,-1.076297913263966483e-01,-1.014013315245657076e-01,-9.837312247573340440e-02,-9.269922110511612245e-02,-8.690471627236247276e-02,-8.196823432263271314e-02,-8.242284698494217743e-02,-7.264147561051420565e-02,-6.918280354191695680e-02,-7.590287966413258869e-02,-7.334683941774931826e-02,-7.350658214799857260e-02,-7.713553194983241434e-02,-8.052349395887327399e-02,-8.169431864209730776e-02,-8.217454580391031493e-02,-7.801073941446394489e-02,-8.010877376239722292e-02,-8.077891334180314908e-02,-7.973381080410356370e-02,-8.230889130212669380e-02,-8.593383944627180915e-02,-8.839467811620695115e-02,-8.586138062742502963e-02,-8.655346310434901269e-02,-8.669737435892058142e-02,-8.495008924688098040e-02,-8.269091903610163719e-02,-8.001807620399799259e-02,-7.564221133971182898e-02,-7.145385173161776515e-02,-6.739727922750649025e-02,-6.367344997405234575e-02,-6.060067359876629423e-02,-5.558590596360817732e-02,-5.505546670147307142e-02,-5.400741478323903277e-02,-5.178984624478751020e-02,-4.967121169283052196e-02,-4.957901276630628795e-02,-5.037912140601839839e-02,-5.016342450139103099e-02,-4.925002284396554075e-02,-5.214983391390504847e-02,-5.115368920180865531e-02,-4.961948026810959755e-02,-5.185523685410714512e-02,-5.367207757645218319e-02,-5.519907622618815124e-02,-5.603434457410629010e-02,-5.673116837497798465e-02,-5.657795546280067894e-02,-5.541011913356724133e-02,-5.552696095477635541e-02,-5.549909603374691969e-02,-5.695159917409265554e-02,-5.784459573833661966e-02,-5.727815828521231473e-02,-5.914118631368994738e-02,-5.696927380369397331e-02,-5.804628187602054595e-02,-5.803223895005528432e-02,-5.829780347669300672e-02,-5.910317388317272436e-02,-5.815248341221140871e-02,-5.909068466188612673e-02,-5.927464275265929144e-02,-6.060119680481693832e-02,-6.297025955726300028e-02,-6.141513872741991009e-02,-6.248472242874299198e-02,-6.375526364411134017e-02,-6.538903909992638264e-02,-6.576052952450309186e-02,-6.653669224522007486e-02,-7.168659164357112090e-02,-7.159794127426555299e-02,-7.793435335409022724e-02,-8.515865291709290297e-02,-9.095974210913546076e-02,-9.861992128919655487e-02,-1.044670179573940622e-01,-1.062859646122199242e-01,-1.086396754061597358e-01,-1.063701506500481925e-01,-1.069099811291081836e-01,-1.075455290175907214e-01,-1.079223239028813952e-01,-1.075328118997660592e-01,-1.058429999542195299e-01,-1.053946772231194318e-01,-1.047254577436820822e-01,-1.024864606425225783e-01,-9.746044844801080020e-02,-9.322738442159976546e-02,-8.781347905162041612e-02,-7.985770739775234495e-02,-6.854468906841892917e-02,-6.601303992442755786e-02,-6.050568165272497689e-02,-5.040449167040154943e-02,-4.602641023889176425e-02,-3.910534770205541938e-02,-3.731940122879604665e-02,-3.199570837775578269e-02,-2.968612464844140597e-02,-3.144901809066009274e-02,-3.112687709706235886e-02,-3.398763043970904479e-02,-3.891463152909890172e-02,-4.182489249585299995e-02,-4.681052148519448952e-02,-5.067787646954977770e-02,-5.268648783200025748e-02,-6.407262762835073955e-02,-8.101618072983608754e-02,-9.623107902617251963e-02,-1.084930084198435646e-01,-1.145263873891544243e-01,-1.137316531436686345e-01,-9.632255330172188879e-02,-7.783027533330162673e-02,-6.444755422652224952e-02,-5.274130282133587116e-02,-5.076254177278480273e-02,-5.680305533999509965e-02,-6.689561464421081571e-02,-7.717060117941176856e-02,-8.398371934474817280e-02,-8.331929041734061070e-02,-7.745515750976997293e-02,-7.444400639962477084e-02,-7.477721510066608068e-02,-7.590046079363986509e-02,-7.392494725865564331e-02,-7.355513512717998248e-02,-7.201653719799806785e-02,-6.953376838851818564e-02,-7.135197407231370914e-02,-7.221411970469872321e-02,-7.697771330884189966e-02,-6.870374547682545074e-02,-6.218849497718144381e-02,-4.989175461040449427e-02,-2.850346295853284015e-02,-2.251448459322385673e-02,-2.384999992203766517e-02,-2.875468261050292962e-02,-4.378343092289812416e-02,-6.459156046467717793e-02,-8.202400007667645654e-02,-9.892724500069076388e-02,-1.067301989297158582e-01,-1.010555788475832745e-01,-8.997815804172397403e-02,-8.533680716528854737e-02,-8.514220774345745979e-02,-8.286475442094308475e-02,-8.696049776448083746e-02,-9.150448458046982203e-02,-9.361286798433575418e-02,-9.229455915117970588e-02,-8.328951387881264323e-02,-6.843901253427968345e-02,-5.636435106292588676e-02,-5.624683603541157095e-02,-6.471523261538614236e-02,-7.922603707152581221e-02,-9.427284853378055385e-02,-1.057512049386368502e-01,-9.776545320746188317e-02,-8.840599241596024116e-02,-8.790289722706068343e-02,-7.371846151886839171e-02,-6.104488512946654177e-02,-5.055791829059469444e-02,-4.318882559691311629e-02,-3.795849268480269711e-02,-3.504214830524324947e-02,-3.480813159948402402e-02,-4.170160108050083303e-02,-6.476155211081009722e-02,-8.778835370388922421e-02,-1.081753394547902147e-01,-1.171973939083811173e-01,-1.177275783286700211e-01,-1.062958412152844451e-01,-9.640174847798196889e-02,-8.725510145221596070e-02,-7.385236408256358465e-02,-3.848793809545279082e-02,3.236554849913322873e-02,5.837386059530045440e-02,-7.279321606879492201e-02,-2.904301319664455150e-01,-4.050063552974920156e-01,-4.483596164858557609e-01,-3.711046891986905516e-01,-1.654919406171528884e-01,3.302155615421339951e-02,1.138188006641471101e-01,1.074380129173167220e-01,3.186311223412476284e-03,-1.211089112367731563e-01,-1.776707664065035053e-01,-1.800719505110661423e-01,-1.551200018430617944e-01,-1.243020355378124941e-01,-1.119818714196846865e-01,-1.145440416251219812e-01,-1.096919154957306519e-01,-1.060719350295808022e-01,-9.548482465525544305e-02,-8.719226984622374665e-02,-7.534819601959158453e-02,-6.596848358583375094e-02,-6.330330503143696830e-02,-5.652335780906891927e-02,-5.405206053736041211e-02,-5.445275341558322713e-02,-5.226536804119114032e-02,-5.024067828929459217e-02,-4.817649655367138573e-02,-4.816959240640050072e-02,-4.660462029946898371e-02,-4.102440236385626604e-02,-3.900423254203874701e-02,-3.638817164242892643e-02,-3.383363175692698233e-02,-2.908240175629298041e-02,-2.549749844946804650e-02,-3.567975175293543882e-02,-3.598910798362359165e-02,-3.262140720641126118e-02,-4.785954973691287223e-02,-3.695484778534509351e-02,-3.699072200254850673e-02,-3.664869895165639296e-02,-1.680911306052681187e-01,-2.460115295716069628e-01,-3.357849106349057866e-01,-9.191665405162245672e-02,2.823517322237851790e-01,5.357891539069740139e-01,4.662462276458290839e-02,-5.534005750185825301e-01,-1.601485790880649851e-01,-3.918148676505105871e-02,5.689279611297384798e-02,8.451053870933997181e-02,-1.112321209109133902e-01,-7.022006618406778644e-01,-9.238422512790490648e-01,-3.403945632823180967e-01,3.974431813576173589e-01,3.912758683658740799e-01,-5.094500092054412427e-02,-3.328468001138762955e-01,-5.475137144378215970e-01,-1.578567790960966610e-01,2.228351024272635095e-01,9.054203107594868682e-02,-3.622377816277901896e-01,-1.176197071878146483e+00,-2.160894943574937166e+00,-2.333504880136116455e+00,-1.265613614735674197e+01,-1.218889932605171822e+01,-4.165371489621443324e-01,3.024824309605618655e+00,8.590959722579918356e-01,2.773314793517482002e+00,5.161785931071899647e+00,2.943111281921551914e+00,1.699001463797269240e+00,1.128499337994720131e+00,5.745450384560489843e-01,-1.123606872130365364e+00,-2.248285082069997554e+00,-1.865798344333680747e+00,6.893266775763657872e-01,4.512620770123543679e+00,5.446730023631778383e-01,-2.748113628784385920e+00,-1.734427663602754882e-02,1.934102816010813131e+00,1.330830070129590537e+00,1.040819174692912741e+00,7.952513796325264561e-01,-2.530462732032655593e-01,-9.702725835872503257e-01,-3.391332584779646053e-01,2.766303710057002596e-01,4.833348936141360630e-01,7.738560513074693725e-01,6.788782207442483063e-01,5.992403673740011039e-01,6.173621055000184654e-01,5.647186837070227172e-01,4.905176429094598722e-01,2.131787334637164633e-01,-3.198772075774077850e-01,-1.509800164271126510e+00,-2.313230780234714956e+00,-1.680674617789563285e+00,-3.368491565920387898e-01,1.305525365035866470e+00,1.525318604279654267e+00,1.525971447140059001e-01
-9.482928617577697505e-02,-6.479015247253222531e-03,-2.180827768876114070e-01,-2.165134281213043632e-01,-1.124445377804350193e-01,1.457205906020807851e-01,1.221842717133982681e-01,8.945504702473985881e-02,5.800801384607483929e-02,5.054231208764956018e-02,1.331702939157120534e-02,-4.759936204524781167e-02,-6.653877379042566487e-02,-1.125095035630485282e-02,8.045859988019112008e-02,6.332457451294754014e-02,-1.648537573168471493e-01,-5.091838836224449327e-01,-7.904089730669575653e-01,-8.385631102099112555e-01,-5.987071715418678108e-01,-9.027717942549248753e-02,3.919770444173670265e-01,6.063304641356869196e-01,4.711128138601784476e-01,1.417164553898571100e-01,-1.878031033983338927e-01,-4.266776708274533370e-01,-4.687690804662881239e-01,-3.053070892934948155e-01,-5.621609988433635963e-02,2.237142307385760476e-01,4.994317396222140992e-01,5.349446762941694189e-01,2.540361621879901888e-01,-1.544606037245193908e-01,-6.034760742811948742e-01,-7.620681811379284021e-01,-6.400928461074594233e-01,-2.612262978977055172e-01,6.801817006522839493e-02,1.047311926443820485e-01,-2.939650409343021187e-02,-7.267006614128643238e-02,-1.902830854847078479e-01,-3.582745790327994118e-01,-7.605191519785983734e-02,3.118191647426112878e-01,2.586784781124443766e-01,1.716613259301806582e-01,4.533944929105799826e-01,4.022212411078596728e-01,-2.573006913772212245e-01,-1.211930692543587540e+00,-1.820479996442832427e+00,-1.742404076993498085e+00,-9.300888410997111277e-01,1.108525955024064480e-01,7.236533747853062248e-01,5.374826699948229702e-01,-2.572397400135632145e-02,-4.513478308623685709e-01,-6.226762279394909561e-01,-5.108742592635751034e-01,-9.217391971800170669e-02,4.457400963258646431e-01,9.075154427092960718e-01,1.133753397538845853e+00,7.015957520532432046e-01,-2.973334058944271385e-01,-1.345018043022504717e+00,-1.884811067999670131e+00,-1.544053412143251647e+00,-4.478210708955412400e-01,8.784525815079955446e-01,1.256720153188332967e+00,9.303584841056873334e-01,1.946378951340794472e-01,-3.361992599524106229e-01,-5.141092263668209927e-01,-4.193685028021800210e-01,-1.232646623241026029e-01,7.362916572163852313e-02,8.665901961594732472e-02,1.120372944168896573e-02,-3.001076212118693534e-02,-3.025627421401194325e-02,-1.277706874005837129e-02,3.707477037530278186e-03,6.468772710283904846e-03,-3.085361948357173180e-04,-1.062024556378525497e-02,-2.423021864103246450e-02,-4.241870744668368998e-02,-6.506647826163451664e-02,-8.732820579625165391e-02,-1.053107733131443957e-01,-1.201065863107759202e-01,-1.244626511404860331e-01,-1.262827680210604764e-01,-1.159750449651755222e-01,-1.018528758113203259e-01,-9.591438641714042368e-02,-8.872026658374268515e-02,-7.938163498055640643e-02,-7.643576144135352801e-02,-7.259864448898864508e-02,-6.200697397582251996e-02,-6.196799536059156843e-02,-6.663758356264874727e-02,-6.902270171263828746e-02,-7.903103776437968297e-02,-9.065663260339866525e-02,-9.751317454770698501e-02,-9.873433262291636536e-02,-9.964867221078205217e-02,-9.651050745110194284e-02,-9.431554673092217012e-02,-9.426241497526449686e-02,-9.338767455036267595e-02,-9.163169231967850659e-02,-9.220792682000913953e-02,-9.160194938731888725e-02,-8.921517385218780127e-02,-8.690500835947552460e-02,-8.936156458598257246e-02,-9.127746061512902187e-02,-8.890693689863858606e-02,-9.058262742982098326e-02,-9.142516350822768589e-02,-8.603778187497231056e-02,-8.266138404209973090e-02,-8.272840291073586816e-02,-8.167431251839667172e-02,-7.980166201105376445e-02,-8.144071934603251683e-02,-8.164527962451469112e-02,-8.114716292723968272e-02,-7.856699880693883420e-02,-7.537546088531220378e-02,-7.557812290209425798e-02,-7.231456392071207440e-02,-7.179528000604981641e-02,-7.445627367016843801e-02,-7.715849107168590293e-02,-8.250199156008740375e-02,-8.380130659344249555e-02,-8.330619159102363447e-02,-8.311974136422746462e-02,-8.069429110643476510e-02,-8.137999525951926383e-02,-8.254659391531195267e-02,-8.365668183175302419e-02,-8.813939221617345110e-02,-8.944171576445759941e-02,-8.908088076613968065e-02,-8.921845846464342145e-02,-8.866708240644909089e-02,-8.754202240196609641e-02,-8.438432751589494685e-02,-8.309398211207902341e-02,-8.400862166408505638e-02,-8.555746379711712257e-02,-8.617905159444219643e-02,-8.661108502599182413e-02,-8.807506222628262715e-02,-8.733649530131791516e-02,-8.747149025725439730e-02,-8.345648021702298247e-02,-7.771570490061652237e-02,-7.339215977871298147e-02,-6.860946144588379869e-02,-6.394373730279974410e-02,-6.094627196714334089e-02,-5.921107021379207885e-02,-5.683327574489102640e-02,-5.644907553450743964e-02,-5.389113164826212637e-02,-5.239232473943366414e-02,-5.118926968819159651e-02,-4.837099394087837623e-02,-4.537973450957605293e-02,-4.355103684274245351e-02,-4.199827471133335544e-02,-4.017628137839167335e-02,-3.973872281056355094e-02,-3.674264663589021929e-02,-3.295663186997799254e-02,-3.230209442492561894e-02,-3.105690196547079146e-02,-2.961992396049416970e-02,-2.864827956294128952e-02,-2.624221670966472852e-02,-2.294434725918548593e-02,-1.975958980046890051e-02,-1.848132578994848493e-02,-1.735867835980149654e-02,-1.711061531990332868e-02,-1.642692136314894552e-02,-1.591453666153751917e-02,-1.622589275505782747e-02,-1.657091040824523048e-02,-1.771299059074141549e-02,-1.786277440852805654e-02,-1.903427421785493928e-02,-2.221835345964891240e-02,-2.219211738283143401e-02,-2.289403162570963560e-02,-2.532396938346035201e-02,-2.500039780556074023e-02,-2.640162297342204742e-02,-2.759212996266884044e-02,-2.803366322219116510e-02,-2.911580850969972337e-02,-2.993355016295705731e-02,-2.983792391856790807e-02,-3.221995542829243081e-02,-3.462929662230505856e-02,-3.534637309561270563e-02,-3.696666711715139442e-02,-3.874657887412866902e-02,-3.961134036256764440e-02,-3.980245602746713268e-02,-4.007815587662527657e-02,-4.161130259119803082e-02,-4.243587290940279561e-02,-4.194282025355976218e-02,-4.439529506353590005e-02,-4.444715306488995071e-02,-4.521281033753286882e-02,-4.547710648209199458e-02,-4.635727144733816502e-02,-4.920804941049149867e-02,-4.873614276159196623e-02,-4.833287718220845991e-02,-4.828519776026408278e-02,-4.800497885454926145e-02,-4.764911246543961781e-02,-4.613660868009145793e-02,-4.591030846936865195e-02,-4.517896147789934175e-02,-4.419882162787889396e-02,-4.325846497073088798e-02,-4.189354371557889312e-02,-4.089210378787722089e-02,-4.051315186889432179e-02,-3.900098377533926103e-02,-3.785849065606606417e-02,-3.728985536259951661e-02,-3.455421558245560382e-02,-3.467048156900181394e-02,-3.475325013862759493e-02,-3.147310084369477762e-02,-3.172273355887075819e-02,-3.201707061807860383e-02,-3.062011586414295147e-02,-3.042646586219752841e-02,-3.053393426802976721e-02,-3.089774993346236162e-02,-3.037575428357975130e-02,-3.082056142373562277e-02,-3.158565885606792745e-02,-3.169905602159499292e-02,-3.054811095389694045e-02,-3.024623966261775695e-02,-3.053165842232382840e-02,-2.903892889413588196e-02,-2.717696322089549824e-02,-2.605084701901617256e-02,-2.647128693809610092e-02,-2.684440470701148981e-02,-2.618819847696531727e-02,-2.424334738120983990e-02,-2.234636132334193864e-02,-2.428389661111054684e-02,-2.497760143684593301e-02,-2.255553141769917058e-02,-2.161578032281224679e-02,-2.256256045861771906e-02,-2.197995138105751645e-02,-2.050161777054844425e-02,-2.052736368115217966e-02,-2.120745288748118740e-02,-1.952201182443715627e-02,-1.861954183098434717e-02,-1.976172966767847372e-02,-1.875894026338105480e-02,-1.993233516836061606e-02,-2.007980960401292009e-02,-1.654109238914018565e-02,-1.646091322748274161e-02,-1.614695533577489156e-02,-1.549771822471689674e-02,-1.571651696809795232e-02,-1.590238187479205839e-02,-1.547742757835041984e-02,-1.588713319016015271e-02,-1.551788305162268324e-02,-1.630680126583975223e-02,-1.698882652812839719e-02,-1.567050031598361814e-02,-1.589420479750401974e-02,-1.641402876793014373e-02,-1.743665800409379199e-02,-1.868207453707846494e-02,-1.958551931030381998e-02,-2.072646714958787870e-02,-2.058197262453706836e-02,-2.075155650428800111e-02,-2.280846631148306797e-02,-2.379611113689428584e-02,-2.532006188010295714e-02,-2.441654107894659573e-02,-2.521049106929398528e-02,-2.747171187734164313e-02,-2.706382543316549275e-02,-2.564843637213057650e-02,-2.667444761486334470e-02,-2.473110784518288072e-02,-2.686569640501713582e-02,-3.153575766616888154e-02,-2.553592139575238534e-02,-2.684282140073307454e-02,-2.798640290623257212e-02,-2.895441676018076227e-02,-3.120104411253263668e-02,-3.254144976976590387e-02,-3.345358338423445183e-02,-3.865177086717117710e-02,-4.315172771025920645e-02,-4.661979278683282130e-02,-4.841063920850905561e-02,-5.350518205051783133e-02,-5.270246330341214064e-02,-6.339546208022675544e-02,-7.628153333420617521e-02,-7.254945296360669482e-02,-8.073230862068371538e-02,-8.252433599138868370e-02,-8.380852827773883906e-02,-8.073820865355985088e-02,-8.246705866966427823e-02,-8.443833121449059731e-02,-9.032202105573149120e-02,-9.418900401442675818e-02,-9.528342356682489855e-02,-9.714706329204256252e-02,-9.443540819918211371e-02,-9.302702597290783693e-02,-9.419438194079829407e-02,-9.430355425035580330e-02,-9.261571546580635306e-02,-9.297759274068716218e-02,-9.164234682373449681e-02,-8.698728952359090216e-02,-8.318830064545262859e-02,-8.002436702405912872e-02,-7.806524709889099689e-02,-7.799878350312340614e-02,-7.820810030342870145e-02,-7.939107114557156231e-02,-8.137368124098466604e-02,-8.028484805529959023e-02,-8.001280455096156097e-02,-7.865539822187936347e-02,-7.764929358129010750e-02,-7.892643363586426819e-02,-7.730342859308726722e-02,-7.848712351965764222e-02,-7.697759914249623081e-02,-7.241826665977481314e-02,-6.840472332689473411e-02,-6.361785716072591856e-02,-6.443713745653723013e-02,-7.046383975751953355e-02,-7.588851183747677420e-02,-8.197149426251572335e-02,-8.655141630228607719e-02,-8.734274579359613266e-02,-9.026643891142281662e-02,-9.267430602089783698e-02,-9.216695556997407668e-02,-9.223018284698214497e-02,-9.030306807257824919e-02,-8.585453404732902583e-02,-7.963057089803705912e-02,-7.327092236490738431e-02,-6.963993600474439882e-02,-6.788243124839864195e-02,-6.855524870414823890e-02,-7.079304259858267001e-02,-7.223514130511481113e-02,-7.243891181232745002e-02,-7.406377773463306002e-02,-7.549458859173553693e-02,-7.773776783935695822e-02,-8.355455289873182922e-02,-8.812242372360849785e-02,-9.391704981471382663e-02,-9.596310360994063371e-02,-9.080512268419788091e-02,-7.818638605492936322e-02,-5.654349391652411377e-02,-4.059924873510493276e-02,-3.938586397259766225e-02,-5.654986572127600891e-02,-1.254728360806620646e-01,-2.078116960013699221e-01,-2.062801718599019396e-01,-1.794149773044685092e-01,-1.774691598807750514e-01,-2.100303951892571186e-01,-2.142877254718924263e-01,-3.096697710265871595e-01,-2.536536644069766755e-01,-3.229388149928106438e-02,-9.785795667492484806e-02,-3.560685781395182131e-02,-5.265951676963326333e-02,2.040439061830243150e-02,-3.739410730698072144e-02,4.752454312164718364e-01,7.540645865696546934e-01,7.200277652941122764e-02,-8.944225646597513402e-01,-1.270260653208031609e+00,-1.084216836116025151e+00,-5.394901059739803939e-01,2.407756754133252852e-02,1.679629105969797642e-01,-6.748004903674519050e-02,-4.713283114437625265e-01,-5.719880236227864456e-01,-1.784978005103496079e-01,1.423763215138305338e-01,-1.546630187019961411e-01,-5.965734231347183947e-01,-8.624738277357713034e-01,-6.847655278562277958e-01,-1.474663614513658724e-02,1.800111476063942229e-01,-4.493131375996609750e-02,-3.117803136419162180e-01,-3.017252872090526172e-01,-2.464112204298492814e-01,-6.869338001593554566e+00,-1.319771944481267489e+01,-8.290174052456105613e+00,2.526992174168821492e+00,8.272756224619064014e+00,8.668560942296171135e+00,6.995822474698894844e+00,6.599368678662878906e+00,1.128774557970147363e+00,-1.880674842879774600e+00,-2.001167353000750104e+00,-8.019721109486522836e-01,-1.938451144231406464e-01,-2.683399393417251755e-01,-1.580512147003142742e-01,-3.092312087400740928e-01,-2.319108016933025540e-01,-2.272914068581686486e-01,3.997074003580579626e-01,1.058725786903673916e+00,1.059985678741183657e+00,5.781021162952666437e-01,-4.718743774435216198e-01,-1.524121175419038021e+00,-1.716816602995748342e+00,-1.279925857389660804e+00,-4.028637356860081398e-01,5.421881544066764480e-01,8.746753350838206709e-01,5.349674627523501869e-01,8.459749271241918944e-02,-1.992350241605292394e-01,-3.615339981024143778e-01,-3.210541651650291595e-01,1.149815252259317119e-02,3.586407216920011742e-01,6.475086503671677596e-01,4.134835721019057275e-01,2.098783090933264983e-01,1.469636211926494684e-01,1.423419252422743198e-01,-1.783955321029047705e-02,-2.779182897229347526e-01,-6.510170184711494556e-02,4.801332716950023477e-02,-4.743298249714381631e-01,-1.310629088388143959e+00,-1.683887065956625406e+00,-7.103080529789351782e-01,-3.525893506920110276e-01,1.196463890784671191e+00,1.433093667162182117e+00,7.818579915291673510e-01,-9.664034268758453505e-01,-4.328195911040690902e-01
-1.392585962816129952e-01,-1.650883814320172963e-02,-1.466165418760920214e-01,-1.745895529758836329e-01,-1.708761337359187837e-01,4.052586752521238761e-02,7.289156206843248886e-02,4.577046335457909260e-02,1.896916464767018501e-02,1.179157720428759826e-02,-1.462474162100710698e-02,-6.998177924327302069e-02,-1.234067383447978034e-01,-1.712580088930880651e-01,-1.892341294509679028e-01,-1.928447234915821873e-01,-1.799277275965291134e-01,-1.483768444287625332e-01,-1.201599463413255131e-01,-1.297874931423101119e-01,-1.591757655671551808e-01,-1.796934970558529132e-01,-1.771792895772801857e-01,-1.781285703495781303e-01,-1.868651110424733586e-01,-1.774618937218118420e-01,-1.482912889563003656e-01,-6.493291808461029713e-02,1.088483479991505798e-01,3.554192895193252211e-01,5.274301590429077979e-01,5.323606254612761601e-01,1.513435342663325134e-01,-4.780058661432184386e-01,-1.091002214102214429e+00,-1.019712584816315104e+00,-3.154600316805969973e-01,1.780642329838628135e-01,1.278177175957404335e-02,3.938522602845091758e-02,-1.111803246599867706e-01,-4.070932706746167029e-01,-6.796435951881805160e-01,-3.172701774862617952e-01,2.930252261807078651e-01,5.071246083454874487e-01,5.118231313735974730e-01,7.036619374311989805e-01,6.796149720511365233e-01,-2.971706483668876131e-02,-1.049292885107352191e+00,-1.849117177714453053e+00,-1.982182533059523299e+00,-1.413956286761695491e+00,-1.803764090111567575e-01,6.940653424376620473e-01,8.979731490500992841e-01,5.218027803038132184e-01,-9.685329301859869899e-02,-5.276091625367754778e-01,-6.706388908145427541e-01,-4.767595635627795425e-01,6.898540748702312701e-03,4.932889683879291831e-01,6.703133908456488932e-01,3.280590290435728140e-01,-3.740569661191731621e-01,-1.070934819111281300e+00,-1.147608238096550215e+00,-6.040006892975829933e-01,3.025444286905818458e-01,9.070527102051199053e-01,7.344059644903951911e-01,1.507952035168358684e-01,-4.212903826650531980e-01,-6.687359123185785403e-01,-5.081601025972948271e-01,-4.768710013067699316e-02,2.494499932108360796e-01,2.082818542433863829e-01,8.333002467412091441e-02,5.782195864754387932e-02,3.877208301046797950e-02,-8.106034990278968228e-04,-5.064105955042909335e-02,-1.070729439698775848e-01,-1.391669612255333199e-01,-1.440810341559400631e-01,-1.420121350204887889e-01,-1.301751477910985111e-01,-1.264070305389430326e-01,-1.258814357038938458e-01,-1.240578741294133952e-01,-1.125857531542699269e-01,-1.006613315030520373e-01,-9.436509214330938977e-02,-8.831114693116784431e-02,-8.867438572294489285e-02,-9.478835818212125175e-02,-9.834179174406275370e-02,-8.042915062009317606e-02,-3.352563103151736529e-02,2.985786275911357299e-02,3.777381820951015989e-02,-6.913551914500319640e-02,-2.481547628764748381e-01,-3.774234335427820719e-01,-3.650763805204662593e-01,-2.328122294071506004e-01,-1.249213774160156006e-02,1.471528745017718631e-01,1.831082869999111351e-01,6.633175229357402003e-02,-9.589193593372662139e-02,-1.953717913907520864e-01,-1.875405181467361404e-01,-1.280930501197553306e-01,-8.172260747279530557e-02,-5.538171991365682667e-02,-5.986153651183512975e-02,-7.936071563726622424e-02,-9.043750525208595070e-02,-8.738137101700006737e-02,-8.451797194743204678e-02,-8.599279327549864960e-02,-8.382613122189400134e-02,-8.236007814673075578e-02,-8.505856182370791219e-02,-8.783758497013591238e-02,-8.424122218844611043e-02,-8.196846568392845978e-02,-8.460502359975413667e-02,-8.242694280005036234e-02,-8.441882522037592873e-02,-8.905897271369712931e-02,-9.078609688461780625e-02,-9.364152244014603554e-02,-8.990983924715449660e-02,-8.833472504616032839e-02,-8.180511070740256740e-02,-7.449602465628185621e-02,-7.075822982443413789e-02,-6.563376153319805395e-02,-6.337046827874504018e-02,-5.818684676394569183e-02,-5.633553784873947951e-02,-5.287604493438800152e-02,-5.023392486694085168e-02,-4.719673916383618217e-02,-4.255075089521892506e-02,-4.136634486740609767e-02,-3.856820043215123534e-02,-3.646385218531650318e-02,-3.434993821700674937e-02,-3.299139357196936156e-02,-3.185618402769611196e-02,-2.840184066672448923e-02,-2.861509469255133289e-02,-2.629158245400911587e-02,-2.509754069634584361e-02,-2.483143588064113880e-02,-2.375810751043492403e-02,-3.284980745289507037e-02,-2.280050071487815799e-02,-2.090181128780811692e-02,-2.532046327595919091e-02,-2.320326712333182703e-02,-2.436135802645724921e-02,-2.397870680108492650e-02,-2.531209445930869203e-02,-2.773767184807928235e-02,-2.697594595032484777e-02,-2.740022836200038323e-02,-2.962645875183017238e-02,-3.195975084067898681e-02,-3.466353979846122091e-02,-3.875777134692945380e-02,-4.521927218121671310e-02,-4.757474416549282298e-02,-5.001641406924675626e-02,-5.249391369206769103e-02,-5.616684692152790898e-02,-5.963005079521015162e-02,-6.397528534011331924e-02,-7.177995826380587086e-02,-7.491818864686963786e-02,-7.883400870820005124e-02,-7.865371661210526777e-02,-7.711225950848005217e-02,-7.789798948658109567e-02,-7.614235210276774912e-02,-8.165379601456780601e-02,-8.894648627931668605e-02,-8.909924379033495878e-02,-8.594419856102590571e-02,-7.711723093631631110e-02,-7.038522697656815486e-02,-6.549166671149886376e-02,-6.730679047452672870e-02,-7.483089462970439476e-02,-8.568078446241972346e-02,-9.229999076119815848e-02,-9.785660169532053865e-02,-9.925723700802920046e-02,-9.780574393258870125e-02,-9.366426102998505476e-02,-9.014218953013425351e-02,-9.047031710647301939e-02,-8.935778477662766062e-02,-8.788208931535318458e-02,-8.451951626158853148e-02,-7.877713475283720790e-02,-7.343009067253918054e-02,-6.974265221331864273e-02,-6.779840526445621296e-02,-6.697569633195542271e-02,-6.748055834476360260e-02,-6.573810923244306770e-02,-6.401807836660872164e-02,-6.139388815924064213e-02,-6.006866581130137356e-02,-6.016056055482822684e-02,-6.414685516147916600e-02,-7.051150335349266884e-02,-7.645687697925872273e-02,-8.180552243098516974e-02,-8.244321765638762400e-02,-8.291789609771715863e-02,-8.300635690653415666e-02,-8.284674940813513411e-02,-8.333680896501222124e-02,-8.299870086056036766e-02,-8.478843437158085916e-02,-8.293283649149360559e-02,-8.136414657740156930e-02,-7.904988201978982443e-02,-7.687312495363900211e-02,-7.589372394919549625e-02,-7.844225990841263707e-02,-8.226299731749282806e-02,-8.222956927048885589e-02,-8.352103222380111158e-02,-8.719453947841579455e-02,-8.826004748328596106e-02,-8.681320502741948775e-02,-8.771158685169258562e-02,-8.865712128791387869e-02,-8.746643136377915684e-02,-8.206902415951403129e-02,-7.695682776786504087e-02,-7.342656185584861550e-02,-6.654328751976082423e-02,-6.379217372914032513e-02,-5.931918441487048221e-02,-5.526798779898541014e-02,-5.232690213221137532e-02,-5.013743953606222131e-02,-4.894120912899740938e-02,-4.352503575626028715e-02,-4.004615455913096422e-02,-3.940396858638009481e-02,-3.754511597180643784e-02,-3.448380107193194793e-02,-3.158803464413574569e-02,-2.995773551757096795e-02,-2.927840205312290736e-02,-2.872196300999247179e-02,-2.891729534421484324e-02,-2.784063960229787860e-02,-2.762431164816946463e-02,-2.715393420415064540e-02,-2.789022579431437582e-02,-2.667414840913538698e-02,-2.620385392745987543e-02,-2.704721880035447501e-02,-2.850237536276001987e-02,-3.057172683776203728e-02,-3.107892712555456252e-02,-3.137794451836162235e-02,-3.082599857270816590e-02,-2.948885183193583615e-02,-2.946557082738048700e-02,-3.223988300682846531e-02,-3.396700431176520596e-02,-3.418470342386147054e-02,-3.731621724454912276e-02,-3.918933808386465545e-02,-3.933386926107794446e-02,-4.018526084743628130e-02,-4.084965932365797192e-02,-4.227306693898152945e-02,-4.459289454745339609e-02,-4.610754029004979215e-02,-4.673307588745000823e-02,-4.925410499319599067e-02,-4.978104289171323554e-02,-5.279716904896272767e-02,-4.957232286206858518e-02,-5.595421244977841213e-02,-6.382833936735256286e-02,-5.421388946587436114e-02,-5.760484899319037733e-02,-5.727688478033472752e-02,-6.089790323879752665e-02,-6.224675829127951365e-02,-6.486402491867605813e-02,-6.677752690176293193e-02,-7.109710658288555252e-02,-7.475133860141597308e-02,-7.710425416146995947e-02,-8.176898809346938579e-02,-8.354870653414059323e-02,-8.479100923611633533e-02,-8.779245237849764294e-02,-9.448276212299705490e-02,-9.821093162356692163e-02,-9.998999918352044491e-02,-9.917854285076350973e-02,-9.251884652208201831e-02,-8.875249901306353495e-02,-8.170797529181499097e-02,-7.391094891877478257e-02,-7.080022849539620300e-02,-6.680700371796087500e-02,-6.327005660450921165e-02,-5.734473418920062876e-02,-5.414376010077769086e-02,-5.198540518105675134e-02,-4.630990989139107533e-02,-4.182306920146582063e-02,-4.001360680278646248e-02,-3.825998595306406846e-02,-3.393485350800439643e-02,-3.035239140212057582e-02,-2.877945265956648180e-02,-2.509854923853304179e-02,-2.243940668719969847e-02,-2.186202350116802501e-02,-1.869439310734154203e-02,-1.739668961224383539e-02,-1.556961921801592805e-02,-1.735909886806656643e-02,-1.800446979774498676e-02,-2.196268546785735964e-02,-2.729049787033573093e-02,-3.090044218757306491e-02,-3.296557378612013228e-02,-3.676232537906574255e-02,-4.425938977233406790e-02,-4.952541006743339802e-02,-6.197508671324350460e-02,-8.252380607100892607e-02,-1.004140578520771043e-01,-1.097275947761946896e-01,-1.096516944814908273e-01,-1.063629451685100535e-01,-9.092509354059417903e-02,-7.356590666539600254e-02,-5.629869865624782116e-02,-4.335546824061006776e-02,-4.134870556160313154e-02,-5.140015903893244142e-02,-6.642871097741211150e-02,-8.699127924677721446e-02,-1.022782388719226943e-01,-1.126502140098445681e-01,-1.179912938342188161e-01,-1.212529185114588764e-01,-1.229157543411484310e-01,-1.235272883382626113e-01,-1.259258362126065844e-01,-1.266811512480687518e-01,-1.272810859639787462e-01,-1.216614119316927478e-01,-1.191688281936699040e-01,-1.119390887390274841e-01,-1.038063024699280579e-01,-9.562712172989358550e-02,-8.831229430197468089e-02,-8.327989948760457228e-02,-8.705828681597038710e-02,-8.886951521339080118e-02,-9.387203315621123201e-02,-1.034985293022992331e-01,-1.057550228303398149e-01,-1.081196410581705541e-01,-1.022835172287529654e-01,-1.036378818370773947e-01,-1.014099614599274224e-01,-9.284013186335206280e-02,-9.585850691870527462e-02,-9.343011242273471795e-02,-8.766620312936426740e-02,-8.577541644881954419e-02,-8.407232194124189539e-02,-7.346999709652331234e-02,-7.908729109482658115e-02,-8.441519813203375577e-02,-7.858771092997388075e-02,-6.772901159253516545e-02,-5.542602039229808236e-02,-5.330719255484708818e-02,-5.699390761580163528e-02,-5.173464476872496193e-02,-4.884111043916687656e-02,-6.771566292047079272e-02,-9.820158186322359983e-02,-1.148996089594719189e-01,-1.616226950813460239e-01,-1.908077687583658311e-01,-2.521621990838954774e-01,-2.564232652464447093e-01,-2.480273579959010044e-01,-1.674501191474768724e-01,-7.178288469944538175e-02,-8.495793673451719485e-02,-7.275259820264703969e-02,-1.743394302967166132e-01,1.281572189005947549e-01,6.976256111681300442e-01,5.247154797728673659e-01,-6.772473991044420938e-01,-1.320203368822085999e+00,-1.050025166693231649e+00,-3.429009365937470410e-01,9.995884242520826357e-02,3.738392195617561975e-01,1.776861795327888960e-01,-2.820924009395805454e-01,-5.986507995818387551e-01,-3.292624298481530154e-01,1.047473462470978750e-01,1.177006045729074163e-01,-2.495625706940558519e-01,-4.208425714771254489e-01,-3.655213201269939538e-01,-2.323495372843008555e-01,-6.602461635941168916e-02,-7.657390928747755121e-02,-2.123189906101864144e-01,-5.337038487500243011e-01,-8.385452097072672029e-01,-1.280352551218516988e+00,-2.729728914293359843e+00,-8.345975090936883944e+00,-8.794673877283786467e+00,-4.028197497761141221e+00,1.742693507462196756e+00,4.114370553782596751e+00,5.370811927944187936e+00,5.953416357294849526e+00,4.198754144048034043e+00,1.008499425889147982e+00,-1.450901237986251369e+00,-1.932981450865637552e+00,-1.474656781697955665e+00,-1.040170073888007751e+00,-1.650462425016974433e-01,5.871534386477236245e-01,5.338503693139917683e-01,2.103773882762385306e-01,2.161639799290987207e-01,5.490325029689132608e-01,7.873204984773217729e-01,9.401473663929563740e-01,4.349586642051799235e-01,-5.621263049291911340e-01,-1.099555175214571801e+00,-8.684178918905341993e-01,1.090787552456900199e-02,8.842326679751714158e-01,1.111618371808401617e+00,5.583373110314924226e-01,-1.437547440615923044e-01,-5.406244905700287040e-01,-6.096951183859249390e-01,-3.882035228468309063e-01,2.859175703713900951e-02,2.149543141034696847e-01,3.571848514744151160e-02,-1.566020336216827902e-01,-2.764608764338887248e-01,-1.987801107650694621e-01,-1.408316075914204778e-03,1.015902165935057416e-01,6.273504313490710360e-02,2.824724860959047096e-02,6.840263385395201068e-02,3.768500146590313127e-02,-1.482333935262747093e-01,-5.161577189996119364e-01,-1.239016597328949087e+00,-1.324160879787837253e+00,-8.124071848051966915e-01,-3.668299355062510370e-01,6.192705245347277510e-01,8.558301356239791380e-01,8.628409220839505789e-01,-4.312387726975518976e-01,-2.709798868137127115e-01
-1.365483503513092167e-01,-6.302217805883636448e-03,-1.539553842743877389e-02,-6.018906466463033733e-02,-1.217747040413397208e-01,-1.464959843414708439e-02,6.204064607255666691e-02,2.415671879572843517e-02,-6.149147882019387855e-03,-4.520826360204338590e-02,-6.837272606094406402e-02,-7.494693373616018173e-02,-1.095372471395863606e-01,-9.995622320867768307e-02,-9.366535597904127042e-02,-6.014378360154030989e-02,-2.492157599934423720e-02,-3.999567495634376302e-02,-1.534296181198809561e-01,-3.388727785431774886e-01,-4.303753085525820476e-01,-3.970315733728720375e-01,-2.100473532856154402e-01,6.605471206599591860e-02,2.589028795181877451e-01,2.365910614172493931e-01,8.918935577755970900e-02,-1.103628401697578643e-01,-2.860246996631904959e-01,-3.488133482014758036e-01,-2.787704012789524732e-01,-9.948354043526036472e-02,1.663262981639608284e-01,4.365312840459916188e-01,6.254021999821024469e-01,6.076274293555198325e-01,1.747123424233026912e-01,-4.957500571792706756e-01,-1.161994629098823451e+00,-1.157826868643590634e+00,-4.373800641781458443e-01,7.394860182440506080e-02,-9.292387221944693743e-02,-9.415521098344908218e-03,-8.149437055141267594e-02,-4.761439813813493349e-01,-6.826261734683697346e-01,-1.273801613979964331e-01,6.868734778414216091e-01,7.235449240452469510e-01,7.678072973774711096e-01,5.831735881138804256e-01,-7.936584979235619675e-02,-1.022083835783573313e+00,-1.553708359344113443e+00,-1.234282785712852659e+00,-2.548182535025856343e-01,5.481268350005529255e-01,5.760371261670846899e-01,1.438910173217214927e-01,-3.330866466505175705e-01,-6.450306790623981934e-01,-5.103239495219391575e-01,2.441815686776999117e-01,1.053785696778136272e+00,1.291225684490675540e+00,8.188179231385041001e-01,9.025166623066764246e-04,-1.038851639250618408e+00,-1.727877117876105872e+00,-1.608579420583619912e+00,-6.985817230616980789e-01,4.658690449508527953e-01,1.167469301682832583e+00,1.181167055015243106e+00,5.814318992788074514e-01,-1.059960656505233995e-01,-4.399351249804911990e-01,-4.594819069888112506e-01,-2.716642648021606599e-01,-4.393394260282522390e-02,8.687338638571649729e-02,3.738149059775315586e-02,-1.566129692504695040e-02,3.216730746610074743e-02,6.247034155457394794e-02,3.226636826096970084e-02,-2.403179248388432818e-02,-8.478394864936378283e-02,-1.213172371680494299e-01,-1.404141023771855179e-01,-1.504806444932622889e-01,-1.644495787994494085e-01,-1.779223600097916969e-01,-1.810563225311865032e-01,-1.711584754015393339e-01,-1.559150222583018941e-01,-1.404203751099826758e-01,-1.271469060740208212e-01,-1.181919949814506238e-01,-1.068748252703437263e-01,-9.860672211294907452e-02,-9.582853681403531720e-02,-9.475310235706667361e-02,-9.474382657216190440e-02,-9.340250397566748908e-02,-9.339153314963648256e-02,-9.332558136240076685e-02,-9.456164227763491636e-02,-9.883587633064022659e-02,-1.001391590552974942e-01,-1.014096540935938984e-01,-9.894105897443951358e-02,-9.303353592318143461e-02,-9.046857603610440612e-02,-8.903653029376118466e-02,-9.175179437915009784e-02,-9.762794445001313215e-02,-1.011803238865927046e-01,-9.903554548994214501e-02,-9.481325296593429153e-02,-9.079654061087134853e-02,-8.968781213584564593e-02,-9.401235212254535623e-02,-9.375034798353451548e-02,-9.717712549922860599e-02,-9.766812939379813929e-02,-9.239508302261850714e-02,-9.220154073390743332e-02,-8.917710814912190032e-02,-8.495988579586929990e-02,-8.257366526551375430e-02,-8.153014098231500806e-02,-7.677661660229999352e-02,-7.427630155409456481e-02,-7.347485942775008882e-02,-7.095605877250567295e-02,-7.028013900793149416e-02,-7.110637963360068314e-02,-7.356216003194381015e-02,-7.545969038337174695e-02,-7.531435732360550195e-02,-7.886572069315782307e-02,-7.756996081554028144e-02,-7.555805696213209466e-02,-7.496295159725921420e-02,-7.446953787882944209e-02,-7.676965238840953443e-02,-7.766246991713404713e-02,-8.232598523306247640e-02,-8.842320202712125599e-02,-9.162015522794753064e-02,-9.329280981227243419e-02,-9.259024262265151684e-02,-9.045024446993597811e-02,-8.462189325548785668e-02,-7.939863412249775765e-02,-7.586023077393613812e-02,-6.879904028393789284e-02,-6.440659727872147244e-02,-6.161998606966372777e-02,-5.801683170214606833e-02,-5.566456331500788113e-02,-5.201580587969348995e-02,-5.031758600397885639e-02,-4.843279888290927260e-02,-4.639310881956686117e-02,-4.337201930791884097e-02,-4.079421634470545288e-02,-4.003184656490733906e-02,-3.699426731029518273e-02,-3.471585056757055948e-02,-3.369847554977573045e-02,-3.039956964846468601e-02,-2.939065181488207182e-02,-2.859605559416767903e-02,-2.710716366353979612e-02,-2.442962274085794597e-02,-2.388981381508768070e-02,-2.253378299178344923e-02,-2.163858850147829666e-02,-2.157334999415250892e-02,-2.207189415621763767e-02,-2.077876495555886632e-02,-2.108891430349831009e-02,-2.174181124849868321e-02,-2.074278287421824074e-02,-2.179651822772504799e-02,-2.294025833470630590e-02,-2.192685581696975083e-02,-2.431800459005614007e-02,-2.682961237756293152e-02,-2.834008403089552722e-02,-2.911608693294111955e-02,-2.979920037367924865e-02,-3.156441095113685785e-02,-3.202800336984581303e-02,-3.353570047357611050e-02,-3.618184521722450642e-02,-3.856607542761151391e-02,-3.860210106433634852e-02,-4.153986109027017065e-02,-4.224474849019102529e-02,-4.371174482165965380e-02,-4.794007039883627086e-02,-4.864232449102079414e-02,-5.490765421959397513e-02,-5.536234462043027049e-02,-5.682857710789172845e-02,-5.591230231611361151e-02,-5.856037822943006149e-02,-5.858679132636496201e-02,-4.969272453256647071e-02,-5.695628804558840186e-02,-5.391092806538481247e-02,-5.546993092174026113e-02,-5.934145906336818488e-02,-5.992647970705931165e-02,-5.871961589961900013e-02,-6.848193631331414566e-02,-6.315284443517153734e-02,-5.939821611640677679e-02,-6.249554671491732577e-02,-6.224312169919822557e-02,-6.305735926682433379e-02,-6.299364803858874262e-02,-6.252191806962685561e-02,-6.235688749232271705e-02,-6.120074747247061797e-02,-6.106530272658443337e-02,-5.956927269455747354e-02,-5.863313906317925428e-02,-5.991500984306751681e-02,-5.908429470509410364e-02,-5.962385156842316125e-02,-5.775928717422740971e-02,-5.732091762849961247e-02,-5.722175376088586840e-02,-5.581662698495808150e-02,-5.873247647270433969e-02,-5.845291522826502606e-02,-5.815557841336344014e-02,-5.889333499935302252e-02,-5.828069945711003563e-02,-5.978687900043089948e-02,-5.849793915558097052e-02,-5.762614453020130367e-02,-5.562422955946089154e-02,-5.642009004777853026e-02,-5.794289893507996447e-02,-5.780137789165378653e-02,-5.760167360275800924e-02,-5.889541338825035610e-02,-5.858490285859343366e-02,-5.911663149403247747e-02,-5.792766213817985427e-02,-5.645244440115572415e-02,-5.686090318316151804e-02,-5.581484419968386207e-02,-5.564144943724072534e-02,-5.634831275513614568e-02,-5.819541467196547024e-02,-5.695571013677406397e-02,-5.650533161683746891e-02,-5.825263833935431096e-02,-5.678979376368838150e-02,-5.474257658642858043e-02,-5.423619038911137169e-02,-5.537644279219041538e-02,-5.287410552553183096e-02,-5.223207401664591715e-02,-5.250625826099752230e-02,-5.105669670649638087e-02,-4.889130892253770733e-02,-4.489008010755431155e-02,-4.357891821920384379e-02,-4.042455954609337071e-02,-3.758478850237768204e-02,-3.571202929420942002e-02,-3.370479495536080755e-02,-3.294058329675837726e-02,-3.196833955889121642e-02,-3.112800820122458428e-02,-2.999653212077219369e-02,-2.739192542403994651e-02,-2.644749582431430573e-02,-2.680373940980694189e-02,-2.568788864474842379e-02,-2.299332799970228020e-02,-2.235994679053723150e-02,-2.084465720714966108e-02,-2.315344781625860993e-02,-2.388866591755110097e-02,-2.380750582919505948e-02,-2.489531058885234571e-02,-2.642988420566354593e-02,-2.931400965792447383e-02,-3.024627286529063888e-02,-3.004064612565659695e-02,-2.944902171908471075e-02,-3.076079697057694518e-02,-2.840519751405513188e-02,-2.638858652578624994e-02,-2.579864232646228439e-02,-2.303250360824524515e-02,-2.283045009727318123e-02,-2.199189360826569323e-02,-2.221807022672568285e-02,-2.325205253209900944e-02,-2.258278915934370731e-02,-2.182090252242302117e-02,-2.202512569552413785e-02,-2.395009421619104240e-02,-2.482126756787576133e-02,-2.352571192071119602e-02,-2.251445886431217153e-02,-2.425481790029277579e-02,-2.497200478429274437e-02,-2.230390558866403999e-02,-2.326883551581743551e-02,-2.339694091781063107e-02,-2.356422139133133170e-02,-2.409027284428529037e-02,-2.203598228760988639e-02,-2.250669332100751346e-02,-2.313201360510131616e-02,-2.142936452588158416e-02,-2.218176458309415941e-02,-2.497854835629693612e-02,-2.664088629621173127e-02,-2.716308590382920593e-02,-2.702423653210818746e-02,-2.741453388397372543e-02,-2.578844494645417956e-02,-2.723464190853758238e-02,-2.821461629065782212e-02,-2.811846884913496089e-02,-2.863250076335491570e-02,-2.636995148617675422e-02,-2.582510629504830221e-02,-2.699173459733585426e-02,-2.761417197773163509e-02,-2.836950494690020433e-02,-2.861273869859149929e-02,-2.685543510708065726e-02,-2.509387861735345657e-02,-2.482872242060024659e-02,-2.457489072306122402e-02,-2.418724081387924052e-02,-2.551317333305096538e-02,-2.594684926344555456e-02,-2.458279268063988388e-02,-2.654039135476051608e-02,-2.756774676784641900e-02,-2.565573020953096015e-02,-2.634490701059445314e-02,-2.731001687881751475e-02,-2.708419545742901668e-02,-2.729438473416011951e-02,-2.889657043875717285e-02,-2.928261545037504771e-02,-2.938306344390951078e-02,-3.002080461449010626e-02,-3.359642299289327533e-02,-3.436285864830731368e-02,-3.763664443427932466e-02,-3.878806118509383477e-02,-4.047930351242071817e-02,-4.441638712076847323e-02,-4.294291008916783364e-02,-4.681385164363679324e-02,-4.820276918227751894e-02,-4.907518739337673325e-02,-5.068397072611698084e-02,-5.050507817206770916e-02,-5.273964132651036418e-02,-5.123162938707783581e-02,-5.282881186202499635e-02,-5.375254008831223396e-02,-5.355371277346043790e-02,-5.411158919715191445e-02,-5.290498883055777535e-02,-5.190068022915635820e-02,-4.890989813813827886e-02,-4.679192273130745872e-02,-4.827198681027885380e-02,-4.649921481873546536e-02,-4.385691319387063913e-02,-4.208235763871783636e-02,-4.189496935434865177e-02,-4.163284104015914366e-02,-4.121117529336017909e-02,-3.964057437511950277e-02,-3.737182151489978899e-02,-3.531498257650414474e-02,-3.496523078180145683e-02,-3.338969945585978927e-02,-3.164678814908447602e-02,-3.079723560142766381e-02,-3.097057585317223444e-02,-2.919538152212911714e-02,-2.836578117794432558e-02,-2.680390756624807802e-02,-2.485535495387596744e-02,-2.716054954708096991e-02,-4.382380030677817534e-02,-8.435218827866093616e-02,-1.015700273883832772e-01,-9.993778456574815838e-02,-1.689371200600489342e-01,-1.726482428421525772e-01,-2.404824630390534346e-01,-3.947915117843912025e-01,-2.525783177082463471e-01,-4.007486228525849320e-02,2.111333172658129698e-01,-1.176362256634609638e-01,1.478474370277726713e-01,5.785538661355759116e-01,-1.174325142744890721e-01,-1.185540605438129669e+00,-1.531343720383642859e+00,-8.313355313180288420e-01,-2.057426350277009597e-01,1.679288419779580988e-01,1.447591194135270098e-01,-2.006121157803249233e-01,-6.047025366525566881e-01,-6.102738272837809896e-01,-3.285647079168003692e-01,-1.584031396074479514e-01,-2.862418074455241185e-02,2.679423690228658339e-01,5.348796250560979848e-01,3.077072368715544903e-01,-2.644115528574450535e-01,-5.511217623528853471e-01,-1.275529275127683437e+00,-1.709405672924644515e+00,-3.190362919591149371e+00,-9.485197297823338758e+00,-9.538607560761509063e+00,-1.322880413361193774e+00,3.628815654328768847e+00,4.939191453755300998e+00,3.593653169372385214e+00,6.313245226863531734e+00,7.820247653072094352e-01,-1.469899597674055203e+00,-2.550293718407509846e+00,-1.399583438670933822e-01,2.127713193392744839e-01,2.220606301975076302e-01,2.199490468692986145e+00,7.137794844046103648e-01,-8.622649218748058564e-01,-8.306541005284227008e-01,1.260618524491561976e+00,1.238487677184014535e+00,-2.745653722576505973e-01,-7.398903179954071652e-01,-6.509260950297289794e-01,1.023698186881642352e-01,1.010493570536086683e+00,1.614007554949281165e+00,9.643920851413616546e-01,6.667566219738051414e-01,-7.984406981018822291e-01,-1.796400529857615336e+00,-1.301665214076328292e+00,2.813496973085031216e-01,3.899026217817905815e-01,1.720674321640052740e-01,-9.881720429117735183e-02,-1.626167274146387565e-01,-1.449232165411575846e-01,-3.069800980774675114e-01,-3.893252650214206745e-01,2.546087619179158157e-01,2.377970708184768134e-01,1.733338279369072421e-01,2.632539547398702814e-02,-4.123758778159270638e-02,-7.521456964367434495e-02,-2.079095519971410622e-01,-2.411667057498969313e-01,-1.067627875594980846e-01,9.314198596263303931e-02,1.831684731575795311e-01,-3.129232672058301218e-02,-1.155355878650020873e+00,-2.604460088290064590e+00,-2.694276789996820742e+00,-7.468015822633692347e-01,5.959586713030851080e-01,2.885792661972593987e+00,3.137426673851630987e+00,1.074899602277610056e+00,-1.686121485402269915e+00,-1.254688662125856391e+00
-9.769781400952953776e-01,-3.364144361880654355e-01,-4.904911729496486128e-01,-1.972426575406593108e-01,-3.558957290447495314e-01,2.250357136596721486e-01,3.741459396674597926e-01,4.471282623673080159e-01,4.095634942197364792e-01,2.885533356097221835e-01,2.329720585401332256e-01,1.277220366387070427e-01,-2.616860425029573969e-03,3.997591160301164695e-03,7.699005850859284850e-02,2.115828274999920766e-01,1.047997982020469343e-01,-3.411536103315151447e-01,-4.949689506908153680e-01,5.506211271903560522e-01,2.484676533799386799e+00,4.763344745955237158e+00,6.183258612999623871e+00,5.914115587032186205e+00,2.595440178454273550e+00,-2.698371605047541699e+00,-6.797812897014436473e+00,-8.160452265984023512e+00,-5.430180609810228987e+00,-8.964210525560657450e-01,2.956692249593297905e+00,2.903726389563054067e+00,2.212496825447864690e-01,-1.491115627873707883e+00,-1.967107600153664704e+00,-7.465210140384600512e-01,1.149110451705550817e+00,2.358298584273207599e+00,8.885426883840150669e-01,-4.261913906997802370e-01,7.080989224627016743e-01,1.362268056441309438e+00,8.683203201253973935e-01,-3.249331027323587584e-02,-4.569915118817421962e-02,1.291698429487411648e+00,1.577937492611754644e+00,-7.490194219855628166e-01,-3.327581674057805472e+00,-1.935585462064744133e+00,2.788896665841188449e-01,2.843977105449075893e+00,5.464340074365579447e+00,6.961472710051794799e+00,6.552422224687928676e+00,2.962972895152110819e+00,-2.626661365965811790e+00,-7.352639223726865403e+00,-8.054328733879200897e+00,-6.347894539387602286e+00,-2.375282652044329534e+00,2.965625614317669023e-01,1.177006329867390733e+00,8.186983270240984212e-02,-1.104549290416371621e+00,-1.082734381329992557e+00,-2.765344549542241848e-01,1.073249187210325806e+00,2.004952929998007782e+00,1.829050488230813620e+00,8.991820422730695261e-01,1.532066911216130312e-01,-2.503388446207208684e-01,-1.596752866049749031e-01,-1.329521529683531655e-01,-3.677272263471292324e-01,-3.358693759928739198e-01,-1.500079656634950576e-01,-3.127851880151542863e-02,5.770764861647394856e-02,2.977914202615434824e-01,3.305708645294848647e-01,1.427344602223850067e-01,2.460993649737471534e-01,3.325531814246657780e-01,2.001711489813281231e-01,-4.802905997841532687e-02,-3.024390549102423109e-01,-3.720956794658228928e-01,-3.639001199153579780e-01,-3.233056761861236028e-01,-2.804028979616943751e-01,-6.417456635557840239e-02,3.575866906200054762e-01,8.294239343235846329e-01,1.083067918611025693e+00,9.862970116039118107e-01,5.590860079728480203e-01,-2.339793383852034059e-01,-1.044452406218455698e+00,-1.412129974883794770e+00,-1.150753571001003950e+00,-3.974592967329161897e-01,3.876173299048902843e-01,7.720417739639776622e-01,6.759628654101177414e-01,2.743971154912242527e-01,-1.165075235569392464e-01,-3.262215776166970116e-01,-3.002561447024325592e-01,-1.387834141480218941e-01,2.234427420009648876e-02,1.026893306618945900e-01,6.045868351212554948e-02,-5.339227573284372613e-02,-1.700869099168113852e-01,-2.158834694089144801e-01,-1.714920808997462409e-01,-8.258649688435210079e-02,-1.414553309347787655e-02,-7.184633281025810427e-04,-2.265655638755214446e-02,-4.511090770249547716e-02,-5.002910192897022656e-02,-4.122713412512152981e-02,-3.221974345213973051e-02,-2.639179873501160817e-02,-2.895519429363368341e-02,-3.010497384656359368e-02,-2.608795716485636310e-02,-2.035096525213970706e-02,-1.860028288875617206e-02,-1.828710626857454891e-02,-1.543738260028350469e-02,-1.211546517377522052e-02,-1.380813797763745868e-02,-1.798404466231913815e-02,-1.818742600082524224e-02,-1.776733603734833786e-02,-2.093198872558795984e-02,-2.185292033619816096e-02,-1.853582140637760958e-02,-1.739599108063546312e-02,-1.535344473893770698e-02,-9.282158573145975547e-03,-2.798825745274985399e-03,3.357143976000779694e-03,1.001249831734732712e-02,1.390978700481912758e-02,1.628521245854623253e-02,1.768384898386951912e-02,1.739719857059544156e-02,1.792442435328442385e-02,1.618465751535367106e-02,1.427164102784073997e-02,1.396946064786095017e-02,1.306557397044014711e-02,1.201916590213869020e-02,1.051369713683408119e-02,9.900919608563504490e-03,8.960212925718658364e-03,7.787508506167654075e-03,8.115717256743879351e-03,7.710537406781303900e-03,8.709204881361931258e-03,9.293307598383836188e-03,8.813979776813869738e-03,9.356394074564382962e-03,1.065523903371569728e-02,1.069663446737003330e-02,1.122242264410425357e-02,1.159620137668991927e-02,1.117340013606185449e-02,1.043988590523478241e-02,1.584900731107414043e-02,2.634864664889109351e-02,3.224157083528168127e-02,1.305851248690982798e-02,-2.967458700107917721e-02,-9.125919106723222318e-02,-1.545997270873178397e-01,-1.905448997868650352e-01,-2.086479775101675871e-01,-2.331612476102540576e-01,-2.228770683990368151e-01,-1.937401088902489799e-01,-1.436315454785184187e-01,-7.851087388539237932e-02,-6.707682210278238799e-03,6.451543794212526162e-02,1.278097520484517413e-01,2.056265497879299631e-01,2.901771601788648014e-01,3.621409116785996862e-01,3.991438125071269938e-01,3.928720311129946796e-01,3.327455624320214134e-01,2.530343078421084524e-01,1.688014790107761065e-01,9.054513667195844551e-02,3.851554904211766661e-02,5.743276900127972442e-04,-2.161911174136261354e-02,-2.787273805499738619e-02,-2.763574828708341771e-02,-2.777445902706699929e-02,-2.307429790660509017e-02,-1.586234117696247448e-02,-1.702156646134949172e-02,-1.825006465766897817e-02,-1.517895363895587282e-02,-1.520424825732174211e-02,-1.368584939071986958e-02,-1.315936031632475300e-02,-1.202580416738246658e-02,-1.022435843541837260e-02,-1.069697169131993142e-02,-1.302318315732042125e-02,-1.331174558971885170e-02,-1.466475810866834512e-02,-1.450715173557002614e-02,-1.273026393915778834e-02,-1.261181885038069155e-02,-1.060373042109491112e-02,-1.162362710328841871e-02,-1.690907531193097321e-02,-2.023836661450880217e-02,-1.906589168844945170e-02,-1.990919421902551112e-02,-1.945665623072062936e-02,-1.600742027206910473e-02,-1.353207354633909933e-02,-1.112201080100796470e-02,-8.408782293754510362e-03,-4.836871227330927919e-03,-1.376012025201895934e-03,1.802048054847315379e-03,4.919062926112880915e-03,8.397374344410931182e-03,1.101764247757354605e-02,1.358617862635550302e-02,1.577730658222710122e-02,1.712712429695088107e-02,1.895886469561678875e-02,1.914358473950533712e-02,2.215110367095561236e-02,2.122712562391756985e-02,2.019932559908161826e-02,2.057454070447993846e-02,1.999549862176364795e-02,2.120365724456702017e-02,2.026339860180328620e-02,2.049277912010234390e-02,2.019387389029747223e-02,1.967062839402039173e-02,1.993719540855390729e-02,1.974457038256646410e-02,2.102461448386337695e-02,2.132728165304446921e-02,2.126492967002914861e-02,2.155384389086269573e-02,2.164537951581986877e-02,2.136580850806560003e-02,2.132252606594100749e-02,2.142946137287025585e-02,2.143520358908449289e-02,2.112832490920756381e-02,2.127920905356891351e-02,2.167649315947727320e-02,2.165574375423363201e-02,2.131535296258474377e-02,2.158215563093127468e-02,2.113624468633163236e-02,2.069889959207306396e-02,1.980545982619238976e-02,1.889785462391471715e-02,1.855089046951440002e-02,1.767070957602230249e-02,1.743326552396135681e-02,1.654272000469167794e-02,1.645367320063724492e-02,1.616461239227076976e-02,1.539917163975127769e-02,1.467512156800172829e-02,1.393506750023634430e-02,1.376163475042457493e-02,1.365836666583129452e-02,1.336609960323419805e-02,1.229849815469034359e-02,1.178272688362809635e-02,1.147247022895833690e-02,1.188431492963925272e-02,1.336363921197351520e-02,1.397074816832286417e-02,1.474963259406263279e-02,1.532546284152108695e-02,1.579511055843589931e-02,1.661763377543563555e-02,1.685925769894262502e-02,1.723894921285923365e-02,1.810182948179178339e-02,1.854919788865531938e-02,1.892853280409267230e-02,1.915697126214689627e-02,1.943181962911206054e-02,1.933701345750334089e-02,1.959544926083532992e-02,1.961636193266181813e-02,1.909913006684134038e-02,1.930978461309497407e-02,1.987821674223415672e-02,1.929335741065147172e-02,1.920205594812626065e-02,1.905822453719101250e-02,1.863508588591430287e-02,1.882263084179330512e-02,1.834955274125900371e-02,1.797649367929938027e-02,1.744545502057646275e-02,1.698051451488779423e-02,1.584415773908952330e-02,1.505246069626660875e-02,1.464713942434118371e-02,1.355145676700367924e-02,1.330607396035347542e-02,1.298577122005296555e-02,1.242568427549336878e-02,1.163651146935210795e-02,1.096631882736057682e-02,1.028211059799096633e-02,9.897031078662849382e-03,1.036763962037130782e-02,9.861000782545835397e-03,9.762970616651125283e-03,1.024867130390676867e-02,9.935596481611078806e-03,1.004286424765211613e-02,9.491309951762342406e-03,9.274607074812023580e-03,9.642338835252011950e-03,9.952495526138737184e-03,1.141651693741585309e-02,1.078107449865230334e-02,1.031555985532025231e-02,1.095459050245416351e-02,1.195632638924832084e-02,1.228692109512031887e-02,1.205627397641652505e-02,1.267422468781264841e-02,1.338093524873355811e-02,1.392736468829035464e-02,1.399216104449499919e-02,1.446395356081724148e-02,1.539745221533546198e-02,1.557537191265017697e-02,1.621424283800395466e-02,1.691821363689315419e-02,1.738688223495340676e-02,1.772795078727378015e-02,1.806512965811827090e-02,1.810821713855574958e-02,1.792804169511450635e-02,1.803840382267578313e-02,1.772763740622914155e-02,1.744322900250113925e-02,1.807436719818071580e-02,1.866147818005824827e-02,1.868993697856461203e-02,1.889503518648472449e-02,1.925512351812769599e-02,1.890735294441461475e-02,1.816593344972646656e-02,1.776867067419258400e-02,1.780398355435175439e-02,1.759955561029733634e-02,1.750896427539075720e-02,1.740687239195717884e-02,1.701656043522896747e-02,1.664232258392767810e-02,1.623168229773148605e-02,1.613873736240424225e-02,1.528837997133590358e-02,1.439125732030459813e-02,1.449148143694524438e-02,1.335764749606469307e-02,1.140802606567550143e-02,1.063303993436002723e-02,1.103600972360801319e-02,1.178236242901464781e-02,1.311470687180273272e-02,1.676507704987571096e-02,2.795427970900372233e-02,4.039666130831159885e-02,2.716517750165909836e-02,8.046720126256715414e-03,1.821247332869131708e-02,-9.377324136323427622e-03,-9.826114331028651394e-02,-1.647992459031982215e-01,-5.217056597174283272e-01,-8.965824895061210720e-01,-4.600101256776150671e-01,-8.117341824987772680e-01,-6.300195764412890309e-01,-1.835650604524593499e-01,7.803041829820599184e-02,1.810865601208819231e-01,6.762919626688985997e-02,-6.160701916229981423e-01,-6.998808935164544387e-01,7.203899885018618665e-01,2.144490770192305273e+00,2.357058656262056573e+00,2.704291102206662245e+00,3.477501900621893682e+00,3.809513672022522446e+00,3.031026185000829987e+00,1.510014051444192207e+00,-1.521879275413140720e+00,-4.223856059714544031e+00,-4.749653787128243820e+00,-3.283839251102047552e+00,-1.225557936187834596e+00,1.233725577253344419e+00,3.807505194589511532e+00,2.964126155007733132e+00,-9.304255880426241798e-02,-1.424943395081507136e+00,-1.992562074211449152e+00,-1.160038130131634038e+00,6.494328650760313425e-03,6.359741466302168966e-01,1.660123466303894402e+00,2.665309811427808651e+00,2.570982772348425982e+00,8.326175728242105833e+00,9.308703496251757414e+00,4.364831110385428481e+00,4.337997760721540863e-01,-2.135966698997404212e+00,-2.334331352967215167e+00,-2.221217051863701109e+00,-1.091599295310285100e+00,-1.332695593879333229e+00,1.461966759328697796e-02,1.312428837220999345e+00,1.131606121422137345e+00,-8.743311978382061200e-01,-2.557303774590956369e+00,-1.295710606787744412e+00,-6.805437654373339695e-01,-2.006759436757420689e-01,5.544298429694063390e-01,1.291142921635583196e+00,1.537242625518737915e+00,1.665947046406964782e+00,5.191110726654177832e-01,-1.636682785851570898e+00,-1.482405543864875552e+00,-6.561650311824853699e-01,-1.711257906156805897e-01,7.608681444453181397e-01,1.688088546029641313e+00,1.447024078873363040e+00,-2.717907664687838620e-01,-3.683014621443197467e-01,5.527067225298447628e-01,9.427753375373336686e-01,7.883286733672683066e-01,6.018801366996948676e-01,-1.185716372592594547e+00,-1.060637715973604900e+00,1.263707262887925342e+00,1.283972751609369523e+00,-2.822064194027001705e+00,-2.427014748276446809e+00,4.599614736541012827e-01,1.631475229802349824e+00,1.746902950573165025e+00,9.357034068182064068e-01,-2.751976231604816858e-01,-9.350381890795806950e-01,-1.345043527695859442e+00,-7.929996981321697502e-01,-2.489106097767002368e-01,5.458409454534213223e-01,6.612259263392336051e-01,-3.236391157734301582e-02,-1.340779925724258304e+00,-1.024590669774905205e+00,-2.304468720500203183e-01,-6.740974923789316842e-01,-3.642469845292211073e-01,2.669526010491177548e+00,4.097880128504131747e+00,2.473001463638488495e+00,-5.284753754573305873e-01,-2.878879858202866959e+00,-3.097147154369669586e+00,-1.730587590351440885e-01
