9.348107874393463135e-02,7.005398869514465332e-01,2.271483659744262695e+00,3.423873901367187500e+00,1.738774657249450684e+00,1.099380105733871460e-02,4.569140076637268066e-01,-9.510005265474319458e-02,7.890804111957550049e-02,2.871384024620056152e-01,6.205081343650817871e-01,3.973241448402404785e-01,3.774715214967727661e-02,-7.710458338260650635e-02,4.299523308873176575e-02,1.627378761768341064e-01,2.292337417602539062e-01,1.982271969318389893e-01,1.386250555515289307e-01,7.240729779005050659e-02,3.342825220897793770e-03,-4.010397940874099731e-02,-5.347589403390884399e-02,-3.482823818922042847e-02,2.753429673612117767e-02,7.736352831125259399e-02,1.637806743383407593e-01,1.502179801464080811e-01,1.253823488950729370e-01,7.310926914215087891e-02,1.849217340350151062e-02,-1.258267927914857864e-02,-2.598354779183864594e-02,-1.267586089670658112e-02,1.443895138800144196e-02,5.291203781962394714e-02,8.246060460805892944e-02,3.995939344167709351e-02,1.505958568304777145e-02,6.151579786092042923e-03,9.995813667774200439e-02,2.117125540971755981e-01,3.858832716941833496e-01,5.397755503654479980e-01,4.852710664272308350e-01,6.769024729728698730e-01,5.344556570053100586e-01,1.746286451816558838e-01,9.319958835840225220e-02,3.581128641963005066e-02,5.414030700922012329e-02,2.741976454854011536e-02,-2.307653485331684351e-04,-4.244685114827007055e-04,1.506615616381168365e-02,1.874144934117794037e-02,2.233416028320789337e-02,4.637658596038818359e-02,6.029798835515975952e-02,3.955380246043205261e-02,8.846213668584823608e-02,1.860699355602264404e-01,1.378573030233383179e-01,7.258687913417816162e-02,6.150983646512031555e-02,7.261760532855987549e-02,4.965912178158760071e-02,1.636416069231927395e-03,-2.528575435280799866e-02,-1.896752417087554932e-02,-6.718549877405166626e-02,-3.004985861480236053e-03,1.250538080930709839e-01,5.369061827659606934e-01,4.978267252445220947e-01,6.577728390693664551e-01,4.537344872951507568e-01,7.694087922573089600e-02,3.449351713061332703e-02,-5.013255286030471325e-04,1.520789600908756256e-02,-1.472753752022981644e-02,1.338108163326978683e-02,2.879784628748893738e-02,1.535972766578197479e-02,2.628739550709724426e-02,2.138079609721899033e-03,1.811585947871208191e-02,8.420417085289955139e-03,3.534535411745309830e-03,2.644368913024663925e-03,8.443134138360619545e-04,3.286875435151159763e-04,-7.529281720053404570e-05,-2.488600439392030239e-04,1.810293470043689013e-04
8.576165884733200073e-02,4.363754689693450928e-01,1.043009519577026367e+00,6.661730408668518066e-01,1.961469352245330811e-01,-2.539418078958988190e-02,2.419244311749935150e-02,-8.774031884968280792e-04,1.744666695594787598e-02,-1.806732453405857086e-02,-2.800099179148674011e-02,6.864743772894144058e-03,1.178202591836452484e-02,5.121623724699020386e-02,5.385233089327812195e-02,4.601157456636428833e-02,6.431763619184494019e-02,2.007661573588848114e-02,1.773826219141483307e-02,5.254348739981651306e-03,-1.393186743371188641e-03,-3.957006148993968964e-03,-3.766350913792848587e-03,-1.661714515648782253e-03,7.269185734912753105e-04,3.229279536753892899e-03,5.055137909948825836e-03,5.327744409441947937e-03,4.243931733071804047e-03,2.651078160852193832e-03,7.535447948612272739e-04,-6.097743753343820572e-04,1.283239398617297411e-04,4.064921755343675613e-03,4.354311153292655945e-03,7.199610117822885513e-03,8.890339173376560211e-03,-3.491560346446931362e-04,1.104659051634371281e-03,4.962049052119255066e-02,8.825750648975372314e-02,1.512056887149810791e-01,2.636089026927947998e-01,2.612460553646087646e-01,3.113006353378295898e-01,2.055424898862838745e-01,1.864715367555618286e-01,2.700839638710021973e-01,1.106977611780166626e-01,9.498744457960128784e-02,1.380314379930496216e-01,5.581248924136161804e-02,8.759833872318267822e-02,9.872974455356597900e-02,5.265999957919120789e-02,4.979009926319122314e-02,8.598604798316955566e-02,5.005824565887451172e-02,4.137471690773963928e-02,1.076750531792640686e-01,4.026628658175468445e-02,6.040747091174125671e-02,3.945309668779373169e-02,2.680947259068489075e-02,1.878447644412517548e-02,8.351697761099785566e-05,-7.006017956882715225e-03,-2.210026839748024940e-03,-5.796490702778100967e-03,1.322037278441712260e-04,-1.512425253167748451e-03,2.590368129312992096e-02,8.412988483905792236e-02,1.027672141790390015e-01,2.593552768230438232e-01,2.067367136478424072e-01,1.068848147988319397e-01,7.518204301595687866e-02,4.259474575519561768e-02,2.016363292932510376e-02,-1.280300639336928725e-04,3.958113025873899460e-03,-1.601812662556767464e-03,6.907069589942693710e-03,-5.216078367084264755e-03,2.303690649569034576e-03,-2.256254665553569794e-03,-1.869033090770244598e-03,1.649822457693517208e-03,-1.384961768053472042e-03,4.363805055618286133e-04,-4.592162076733075082e-05,-2.195806708186864853e-03,8.452130714431405067e-04,-4.344834596849977970e-04,-1.488037378294393420e-04
0.000000000000000000e+00,0.000000000000000000e+00,0.000000000000000000e+00,0.000000000000000000e+00,0.000000000000000000e+00,0.000000000000000000e+00,0.000000000000000000e+00,0.000000000000000000e+00,0.000000000000000000e+00,0.000000000000000000e+00,0.000000000000000000e+00,0.000000000000000000e+00,0.000000000000000000e+00,0.000000000000000000e+00,0.000000000000000000e+00,0.000000000000000000e+00,0.000000000000000000e+00,0.000000000000000000e+00,0.000000000000000000e+00,0.000000000000000000e+00,0.000000000000000000e+00,0.000000000000000000e+00,0.000000000000000000e+00,0.000000000000000000e+00,0.000000000000000000e+00,0.000000000000000000e+00,0.000000000000000000e+00,0.000000000000000000e+00,0.000000000000000000e+00,0.000000000000000000e+00,0.000000000000000000e+00,0.000000000000000000e+00,0.000000000000000000e+00,0.000000000000000000e+00,0.000000000000000000e+00,0.000000000000000000e+00,0.000000000000000000e+00,0.000000000000000000e+00,0.000000000000000000e+00,0.000000000000000000e+00,0.000000000000000000e+00,0.000000000000000000e+00,0.000000000000000000e+00,0.000000000000000000e+00,0.000000000000000000e+00,0.000000000000000000e+00,0.000000000000000000e+00,0.000000000000000000e+00,0.000000000000000000e+00,0.000000000000000000e+00,0.000000000000000000e+00,0.000000000000000000e+00,0.000000000000000000e+00,0.000000000000000000e+00,0.000000000000000000e+00,0.000000000000000000e+00,0.000000000000000000e+00,0.000000000000000000e+00,0.000000000000000000e+00,0.000000000000000000e+00,0.000000000000000000e+00,0.000000000000000000e+00,0.000000000000000000e+00,0.000000000000000000e+00,0.000000000000000000e+00,0.000000000000000000e+00,0.000000000000000000e+00,0.000000000000000000e+00,0.000000000000000000e+00,0.000000000000000000e+00,0.000000000000000000e+00,0.000000000000000000e+00,0.000000000000000000e+00,0.000000000000000000e+00,0.000000000000000000e+00,0.000000000000000000e+00,0.000000000000000000e+00,0.000000000000000000e+00,0.000000000000000000e+00,0.000000000000000000e+00,0.000000000000000000e+00,0.000000000000000000e+00,0.000000000000000000e+00,0.000000000000000000e+00,0.000000000000000000e+00,0.000000000000000000e+00,0.000000000000000000e+00,0.000000000000000000e+00,0.000000000000000000e+00,0.000000000000000000e+00,0.000000000000000000e+00,0.000000000000000000e+00,0.000000000000000000e+00,0.000000000000000000e+00,0.000000000000000000e+00,0.000000000000000000e+00
5.160837769508361816e-01,1.797477126121520996e+00,2.602879762649536133e+00,1.555939435958862305e+00,1.671536415815353394e-01,9.798203408718109131e-02,-7.508534193038940430e-01,-1.852203011512756348e+00,-1.468235015869140625e+00,-1.457113623619079590e+00,-8.399614095687866211e-01,-3.696354925632476807e-01,6.907154321670532227e-01,8.925555348396301270e-01,7.186561822891235352e-01,-3.131879270076751709e-01,-1.236773967742919922e+00,-2.001428842544555664e+00,-2.039503574371337891e+00,-1.441843509674072266e+00,-1.072789192199707031e+00,-5.846136808395385742e-01,-2.442391812801361084e-01,-3.012955747544765472e-02,1.191641539335250854e-01,2.418357580900192261e-01,2.988739311695098877e-01,2.752062678337097168e-01,1.809547692537307739e-01,5.824103951454162598e-02,-4.257234185934066772e-02,-6.492643058300018311e-02,-2.637085691094398499e-02,3.904228657484054565e-02,8.248687535524368286e-02,8.833488076925277710e-02,5.314023047685623169e-02,-1.618596375919878483e-03,2.654616907238960266e-02,1.113658323884010315e-01,2.105447351932525635e-01,3.616342246532440186e-01,4.501036703586578369e-01,3.330976366996765137e-01,2.095789611339569092e-01,1.636570245027542114e-01,8.176346123218536377e-02,4.802370816469192505e-02,2.874366566538810730e-02,2.213564515113830566e-02,3.102112375199794769e-02,5.007607862353324890e-02,7.991053164005279541e-02,8.956508338451385498e-02,1.088710203766822815e-01,1.024961620569229126e-01,7.793790102005004883e-02,8.196315914392471313e-02,8.800332248210906982e-02,8.246330171823501587e-02,7.644946128129959106e-02,9.448237717151641846e-02,9.988585859537124634e-02,9.317263215780258179e-02,7.359190285205841064e-02,4.227622225880622864e-02,7.076090667396783829e-03,-2.360825240612030029e-02,-5.082625150680541992e-02,-5.487848445773124695e-02,-3.654114529490470886e-02,1.256701350212097168e-02,1.263268738985061646e-01,2.710678577423095703e-01,3.796497881412506104e-01,3.085339963436126709e-01,1.545350551605224609e-01,1.047780290246009827e-01,6.471712887287139893e-02,3.787402063608169556e-02,1.434862427413463593e-02,1.673981919884681702e-02,1.393310166895389557e-02,7.855234667658805847e-03,3.104052506387233734e-02,4.686673730611801147e-02,3.260383382439613342e-02,1.575376838445663452e-02,2.374045178294181824e-02,9.151808917522430420e-03,5.984354647807776928e-04,-5.273757036775350571e-03,-4.414475522935390472e-03,-4.719191230833530426e-03,1.051504863426089287e-03,1.852769637480378151e-03
-5.606694892048835754e-02,-3.386603891849517822e-01,-1.542413353919982910e+00,-2.409216403961181641e+00,-1.584063529968261719e+00,-4.130754470825195312e-01,6.440763920545578003e-02,-2.647957205772399902e-01,4.675608128309249878e-02,-6.566772609949111938e-02,-2.724942266941070557e-01,-3.557997345924377441e-01,-4.215349256992340088e-01,-2.652230262756347656e-01,-1.476677060127258301e-01,-6.418856233358383179e-02,1.258677802979946136e-02,-1.957516744732856750e-02,-4.628243297338485718e-02,-7.440598309040069580e-02,-1.373096555471420288e-01,-1.735409498214721680e-01,-1.793444603681564331e-01,-1.319138705730438232e-01,-7.487879693508148193e-02,-3.051472827792167664e-02,2.607853850349783897e-03,1.977996900677680969e-02,2.039581909775733948e-02,1.548533141613006592e-02,9.143758565187454224e-03,3.273829352110624313e-03,-9.469435317441821098e-04,-2.953576389700174332e-03,-3.901218296959996223e-03,-4.065681248903274536e-03,-4.072283394634723663e-03,-3.671603975817561150e-03,-2.970234258100390434e-03,-1.850739121437072754e-03,-4.415824078023433685e-04,7.668075268156826496e-04,8.615929400548338890e-04,5.440008681034669280e-05,-1.227708649821579456e-03,-2.102722646668553352e-03,-2.818136243149638176e-03,-2.797266701236367226e-03,-2.181100891903042793e-03,-1.426730654202401638e-03,-1.113306148909032345e-03,-3.420670283958315849e-03,-1.082036178559064865e-02,-1.722830906510353088e-02,-1.529550552368164062e-02,-5.022997967898845673e-03,-3.722243476659059525e-03,-3.831111267209053040e-02,-8.493162691593170166e-02,-1.506633460521697998e-01,-2.367394864559173584e-01,-2.939233779907226562e-01,-3.109671771526336670e-01,-2.795695662498474121e-01,-2.149040699005126953e-01,-1.647773087024688721e-01,-1.342977136373519897e-01,-1.119520217180252075e-01,-8.850432932376861572e-02,-5.855091288685798645e-02,-5.047105625271797180e-02,-5.519215017557144165e-02,-5.528452247381210327e-02,-8.808392286300659180e-02,-1.245949715375900269e-01,-8.483046293258666992e-02,-4.826269298791885376e-02,-3.270061686635017395e-02,9.989760816097259521e-03,5.371782928705215454e-02,1.161758154630661011e-01,1.081317886710166931e-01,5.324836447834968567e-02,-1.766797713935375214e-02,-6.538768298923969269e-03,1.146218329668045044e-01,6.742669343948364258e-01,1.482420682907104492e+00,1.156835794448852539e+00,1.002370953559875488e+00,5.188294887542724609e+00,9.195797920227050781e+00,1.801489639282226562e+01,1.220225906372070312e+01,5.169928550720214844e+00,-2.414550781250000000e+00
2.288917824625968933e-02,3.413675725460052490e-01,1.444613456726074219e+00,2.485310316085815430e+00,1.480145931243896484e+00,1.481077373027801514e-01,2.402189671993255615e-01,3.420392870903015137e-01,6.368723697960376740e-04,-8.946802467107772827e-02,-1.419283002614974976e-01,-1.561361551284790039e-01,-1.964587159454822540e-02,-7.065878808498382568e-02,6.063843518495559692e-02,2.259234488010406494e-01,2.674475312232971191e-01,2.544229626655578613e-01,2.002019584178924561e-01,1.334735751152038574e-01,4.252126067876815796e-02,-1.809042878448963165e-02,-4.342908412218093872e-02,-5.373684689402580261e-02,-4.389641806483268738e-02,-1.776021346449851990e-02,9.558391757309436798e-03,3.127794712781906128e-02,3.921031206846237183e-02,3.457883745431900024e-02,1.992335543036460876e-02,4.770315717905759811e-04,-1.968176290392875671e-02,-2.553656697273254395e-02,-1.823592744767665863e-02,1.032961625605821609e-02,5.005423352122306824e-02,8.011001348495483398e-02,1.488974411040544510e-02,-7.795653305947780609e-03,1.086209435015916824e-02,1.153677254915237427e-01,2.574046552181243896e-01,3.982734978199005127e-01,3.408823907375335693e-01,3.291370570659637451e-01,2.276144027709960938e-01,9.213110059499740601e-02,5.046375840902328491e-02,-3.193086478859186172e-03,-1.307221036404371262e-02,-2.184726670384407043e-02,-9.257763624191284180e-03,3.519335761666297913e-02,2.617966569960117340e-02,-4.313978366553783417e-03,-2.536655589938163757e-02,-1.943534053862094879e-02,2.097980678081512451e-02,6.277622282505035400e-02,8.986686170101165771e-02,4.997689649462699890e-02,5.059386417269706726e-02,6.496356427669525146e-02,7.683212310075759888e-02,1.112918257713317871e-01,4.999184235930442810e-02,4.518181085586547852e-03,-2.231381833553314209e-02,-4.107209295034408569e-02,-4.376326501369476318e-02,-1.744566299021244049e-02,2.693159319460391998e-02,2.323968410491943359e-01,5.139843225479125977e-01,3.340533673763275146e-01,1.565510630607604980e-01,7.204720377922058105e-02,1.012511104345321655e-01,3.453444689512252808e-02,1.679636165499687195e-02,4.016391187906265259e-02,-1.685789611656218767e-04,9.454913670197129250e-04,7.494372781366109848e-03,-1.409946847707033157e-02,9.463680908083915710e-03,3.917802870273590088e-02,9.285884909331798553e-03,1.117245387285947800e-02,7.207989983726292849e-05,2.120058052241802216e-03,1.717752194963395596e-03,-5.707467153115430847e-06,-1.875333546195179224e-04,-2.898132952395826578e-04
-4.341729581356048584e-01,-4.084991514682769775e-01,7.515604496002197266e-01,1.962860107421875000e+00,2.173046350479125977e+00,7.422538399696350098e-01,-1.537075489759445190e-01,3.231512308120727539e-01,1.042368039488792419e-01,-1.656455993652343750e-01,3.211898356676101685e-02,-5.131774544715881348e-01,-5.050069093704223633e-01,-1.571522802114486694e-01,-2.406561747193336487e-02,1.307030469179153442e-01,4.265865683555603027e-01,6.783849000930786133e-01,6.220934987068176270e-01,5.316621661186218262e-01,3.840171992778778076e-01,1.666292250156402588e-01,4.012029245495796204e-02,-3.728738427162170410e-02,-6.138635426759719849e-02,-6.568841636180877686e-02,-4.691457003355026245e-02,-2.428016997873783112e-02,-1.222269888967275620e-02,-6.582395173609256744e-03,-2.004441805183887482e-03,1.139527885243296623e-03,4.957587458193302155e-03,8.761607110500335693e-03,1.140520814806222916e-02,1.212603971362113953e-02,8.153134956955909729e-03,2.111495938152074814e-03,-3.377090673893690109e-03,-6.670330651104450226e-03,-6.007297895848751068e-03,-4.443966783583164215e-03,-1.650105812586843967e-03,8.658257313072681427e-03,1.543053239583969116e-02,2.828842401504516602e-02,4.726535454392433167e-02,1.575205847620964050e-02,-7.494561374187469482e-03,1.360094826668500900e-02,1.078493595123291016e-01,2.852120101451873779e-01,4.085016250610351562e-01,4.999778866767883301e-01,4.297303259372711182e-01,2.924407124519348145e-01,2.020756751298904419e-01,1.505808830261230469e-01,1.245213598012924194e-01,1.166187748312950134e-01,1.111308559775352478e-01,9.844142198562622070e-02,9.619256108999252319e-02,1.103304401040077209e-01,1.166031509637832642e-01,1.092824488878250122e-01,9.445314854383468628e-02,6.982903182506561279e-02,4.707193002104759216e-02,3.818559693172574043e-03,-6.906142085790634155e-02,-1.749268025159835815e-01,-2.393514662981033325e-01,-2.059249132871627808e-01,-2.084727734327316284e-01,-6.614671647548675537e-02,1.895950138568878174e-01,2.864284515380859375e-01,3.621387779712677002e-01,4.792443215847015381e-01,4.819196164608001709e-01,4.565490782260894775e-01,1.768632084131240845e-01,-1.939487606287002563e-01,-4.225289225578308105e-01,-1.963487565517425537e-01,8.194047212600708008e-02,4.678781926631927490e-01,2.333504408597946167e-01,-2.083801031112670898e+00,-4.820033550262451172e+00,-5.009203910827636719e+00,-2.988348484039306641e+00,-8.447084426879882812e-01,-2.169978141784667969e+00,-1.599694013595581055e+00
7.561068534851074219e-01,1.801868796348571777e+00,1.125307679176330566e+00,4.600503444671630859e-01,4.183310084044933319e-03,7.700906693935394287e-02,-1.717114821076393127e-02,1.870693862438201904e-01,1.527089774608612061e-01,1.816242933273315430e-01,-3.838241845369338989e-02,-5.555119365453720093e-02,3.350154310464859009e-02,1.300197541713714600e-01,1.095787063241004944e-01,8.775194734334945679e-02,3.147213533520698547e-02,2.132773026823997498e-02,2.778591588139533997e-02,1.954463124275207520e-02,-1.359604019671678543e-02,-7.477860152721405029e-02,-8.761403709650039673e-02,-6.199609488248825073e-02,2.067713439464569092e-02,9.879058599472045898e-02,1.826272755861282349e-01,1.737269461154937744e-01,9.827289730310440063e-02,2.239810302853584290e-02,-2.614225074648857117e-02,-2.090033516287803650e-02,5.546230077743530273e-02,9.759248793125152588e-02,1.538962125778198242e-01,9.416027367115020752e-02,2.264114329591393471e-03,3.732252866029739380e-03,1.781425774097442627e-01,2.431332617998123169e-01,5.982705354690551758e-01,5.133641362190246582e-01,4.604095518589019775e-01,2.634144425392150879e-01,1.734869182109832764e-01,1.155046448111534119e-01,2.502501569688320160e-02,9.891421068459749222e-04,1.063994131982326508e-02,-3.620458394289016724e-02,-1.892429590225219727e-02,5.988810211420059204e-02,1.391847580671310425e-01,1.610694825649261475e-01,1.468197852373123169e-01,7.125417143106460571e-02,8.944242447614669800e-02,6.190090626478195190e-02,4.700850695371627808e-02,6.221047788858413696e-02,1.259127557277679443e-01,2.620425447821617126e-02,6.082770228385925293e-02,1.008385643362998962e-01,1.965996250510215759e-02,4.056466370820999146e-02,2.193260565400123596e-02,4.145207814872264862e-03,-1.603001914918422699e-02,-3.014523163437843323e-02,-5.476912111043930054e-02,-3.107290342450141907e-02,2.080045640468597412e-03,1.043281182646751404e-01,2.619138360023498535e-01,4.029051661491394043e-01,3.132073283195495605e-01,2.315628528594970703e-01,1.603730916976928711e-01,4.690358042716979980e-02,2.071403712034225464e-02,4.695550724864006042e-02,1.628966256976127625e-02,7.166608236730098724e-03,6.782083213329315186e-02,2.855120971798896790e-02,3.965595364570617676e-02,8.160179108381271362e-02,7.769826799631118774e-02,-4.668125417083501816e-03,-7.775790058076381683e-03,-4.021894931793212891e-02,-5.583700723946094513e-03,-2.114265691488981247e-03,2.472527138888835907e-02,4.194385930895805359e-02
4.116210043430328369e-01,1.181907892227172852e+00,1.277050614356994629e+00,1.199421167373657227e+00,2.199978381395339966e-01,-2.562716975808143616e-02,-2.988522946834564209e-01,-3.411633968353271484e-01,-1.151907444000244141e-01,3.692241851240396500e-03,3.489176928997039795e-02,1.600241288542747498e-02,9.006116539239883423e-02,5.791537836194038391e-02,-3.233015164732933044e-02,-1.651854962110519409e-01,-3.166430890560150146e-01,-2.824366986751556396e-01,-1.421328783035278320e-01,-4.121509194374084473e-02,3.474469110369682312e-02,4.741492494940757751e-02,3.982085734605789185e-02,1.750257983803749084e-02,5.969804245978593826e-03,2.905081026256084442e-03,8.353787474334239960e-03,1.449594832956790924e-02,1.637350395321846008e-02,1.387641299515962601e-02,7.835062220692634583e-03,1.015173969790339470e-03,-9.639794006943702698e-04,6.625232286751270294e-03,2.598843351006507874e-02,4.687508568167686462e-02,4.915077984333038330e-02,2.995663508772850037e-02,8.041755063459277153e-05,1.537487469613552094e-02,6.230587884783744812e-02,1.634784787893295288e-01,1.506006270647048950e-01,1.816512644290924072e-01,2.002671509981155396e-01,1.669496148824691772e-01,6.521366536617279053e-02,6.057215388864278793e-03,-1.958547346293926239e-02,-2.889284119009971619e-02,-2.145225368440151215e-02,-1.245095767080783844e-02,-1.792019233107566833e-02,-2.107926644384860992e-02,-9.107807651162147522e-03,4.448986146599054337e-03,1.231603510677814484e-02,1.757297478616237640e-02,3.898068517446517944e-02,2.691038325428962708e-02,2.190623804926872253e-02,3.495273739099502563e-02,4.126267135143280029e-02,4.574233666062355042e-02,3.130638226866722107e-02,2.653920277953147888e-02,3.928481414914131165e-02,2.166498638689517975e-02,5.029783118516206741e-03,-6.721223704516887665e-03,-2.064303122460842133e-02,-5.355092231184244156e-03,2.730885287746787071e-03,5.987428501248359680e-02,1.645763516426086426e-01,2.511562705039978027e-01,1.692862659692764282e-01,7.425752282142639160e-02,6.361049413681030273e-02,1.643046736717224121e-02,-7.469082716852426529e-03,-5.209137452766299248e-04,4.164940211921930313e-03,2.799876034259796143e-02,8.926968090236186981e-03,3.955451305955648422e-03,1.422405056655406952e-02,1.779289171099662781e-02,7.143487222492694855e-03,4.177349153906106949e-03,5.474378820508718491e-03,1.564578502438962460e-03,5.338761839084327221e-04,1.500109210610389709e-04,1.415021688444539905e-04,3.469092189334332943e-04
-8.577567525207996368e-03,2.074232101440429688e-01,8.762390017509460449e-01,2.585162878036499023e+00,5.408737182617187500e+00,5.919333457946777344e+00,1.947102308273315430e+00,-1.345196366310119629e+00,-1.669058650732040405e-01,2.101179599761962891e+00,2.133263587951660156e+00,6.435678899288177490e-02,3.681533038616180420e-01,4.571869373321533203e-01,7.255445718765258789e-01,1.601864576339721680e+00,1.153594374656677246e+00,2.549388706684112549e-01,-7.257106900215148926e-02,-2.798783779144287109e-01,-3.190723657608032227e-01,-1.964784413576126099e-01,-1.537040024995803833e-01,-1.259403228759765625e-01,-8.632723987102508545e-02,-4.737221077084541321e-02,-4.770155530422925949e-03,3.210406750440597534e-02,6.184465438127517700e-02,8.688287436962127686e-02,9.277404844760894775e-02,8.834598958492279053e-02,5.828056856989860535e-02,-1.838909462094306946e-02,-7.830183953046798706e-02,-1.310532391071319580e-01,-1.556066721677780151e-01,-1.221630945801734924e-01,-7.556582987308502197e-02,-2.989452145993709564e-02,6.730036344379186630e-03,2.000004425644874573e-02,1.919105648994445801e-02,1.443087775260210037e-02,7.726502604782581329e-03,2.038991311565041542e-03,-9.538773447275161743e-04,-4.823914729058742523e-03,-9.158875793218612671e-03,-1.026248931884765625e-02,-9.534420445561408997e-03,-1.158455759286880493e-02,-1.760856830514967442e-03,-1.259028725326061249e-02,-6.859262287616729736e-02,-1.078390851616859436e-01,-1.703490018844604492e-01,-2.451140880584716797e-01,-2.122090756893157959e-01,-1.493001431226730347e-01,-1.152323111891746521e-01,-7.137089967727661133e-02,-5.266671627759933472e-02,-1.016251668334007263e-01,-1.351983994245529175e-01,-1.000362858176231384e-01,-6.830006092786788940e-02,-6.507220119237899780e-02,-6.622831523418426514e-02,-7.663539052009582520e-02,-7.991956174373626709e-02,-6.435149163007736206e-02,-6.522961705923080444e-02,-8.621270209550857544e-02,-1.066699996590614319e-01,-8.418893069028854370e-02,-4.078894853591918945e-02,-5.660700611770153046e-03,3.770098090171813965e-03,-2.669643238186836243e-02,-1.114585772156715393e-01,-1.794142723083496094e-01,-1.599800139665603638e-01,-1.232979446649551392e-01,-6.654287874698638916e-02,-3.030481003224849701e-02,-2.020349167287349701e-02,-3.852929919958114624e-02,-7.150451838970184326e-02,-8.175176382064819336e-02,-7.111980766057968140e-02,-4.683605581521987915e-02,-1.449623890221118927e-02,4.809183254837989807e-02,9.701861441135406494e-02,9.445720911026000977e-02
-4.420350193977355957e-01,-1.710780143737792969e+00,-2.044901847839355469e+00,-8.600581884384155273e-01,-1.754803024232387543e-02,4.959122091531753540e-02,-1.278503537178039551e-01,-2.045291960239410400e-01,-4.591457843780517578e-01,1.330465078353881836e-01,1.760028153657913208e-01,1.349923312664031982e-01,-1.972592994570732117e-02,-1.857089996337890625e-01,-3.813030123710632324e-01,-3.314400315284729004e-01,-2.812790274620056152e-01,-2.231506109237670898e-01,-1.394248902797698975e-01,-9.509441256523132324e-02,-1.072792522609233856e-02,2.193390205502510071e-02,3.893447294831275940e-02,3.417785838246345520e-02,2.573275007307529449e-02,8.176106959581375122e-03,-1.774447783827781677e-02,-5.046945810317993164e-02,-7.211104035377502441e-02,-6.362858414649963379e-02,-1.284885127097368240e-02,4.927529953420162201e-03,-5.979399010539054871e-02,-4.152527749538421631e-01,-4.411118924617767334e-01,-7.705056071281433105e-01,-5.932115316390991211e-01,-4.016737937927246094e-01,-2.884744107723236084e-01,-2.211014330387115479e-01,-2.350729703903198242e-01,-1.809991598129272461e-01,-3.436706960201263428e-01,-1.986276805400848389e-01,-2.222857922315597534e-01,-1.591511219739913940e-01,-1.826155185699462891e-01,-2.056659162044525146e-01,-1.339410841464996338e-01,-3.368327021598815918e-01,-2.181406766176223755e-01,-2.589711248874664307e-01,-1.332402378320693970e-01,-2.120005637407302856e-01,-1.653362214565277100e-01,-7.173304259777069092e-02,-6.035193800926208496e-02,-3.198241442441940308e-02,-1.109275594353675842e-01,-5.898077040910720825e-02,-3.905393928289413452e-02,-7.797846198081970215e-02,-1.590965986251831055e-01,-1.535379607230424881e-02,-2.730702981352806091e-02,-4.442004486918449402e-02,-3.252919763326644897e-02,-8.543703705072402954e-03,-5.583823076449334621e-05,7.433729711920022964e-03,1.837797090411186218e-02,4.072873853147029877e-03,-2.399782650172710419e-03,1.407624594867229462e-02,9.628774598240852356e-03,-1.151646114885807037e-02,5.465781688690185547e-02,-5.014835000038146973e-01,-5.732420682907104492e-01,-5.652081370353698730e-01,-2.943910062313079834e-01,-1.079862341284751892e-01,-1.384516246616840363e-02,-1.658353209495544434e-02,-4.456286504864692688e-02,-1.034160479903221130e-01,-5.802203342318534851e-02,-1.322943717241287231e-02,-1.028349399566650391e-01,-3.750509768724441528e-02,-1.301036961376667023e-02,-2.266708016395568848e-02,-2.954752650111913681e-03,1.891364925540983677e-03,3.437789622694253922e-03,2.224164083600044250e-03
-2.444054633378982544e-01,1.060570497065782547e-02,-3.524601757526397705e-01,-5.467512644827365875e-03,-1.402146518230438232e-01,2.259207665920257568e-01,9.527992010116577148e-01,1.217429518699645996e+00,2.301351130008697510e-01,3.776721060276031494e-01,3.342555165290832520e-01,1.223652362823486328e-01,-4.428282845765352249e-03,-6.162322685122489929e-02,-5.879558995366096497e-02,-7.178875803947448730e-02,-5.155771970748901367e-02,-2.588078752160072327e-02,-3.392050042748451233e-03,7.340145297348499298e-03,1.059558708220720291e-02,8.496375754475593567e-03,2.142867771908640862e-03,-3.594201523810625076e-03,-4.911100026220083237e-03,-4.993407987058162689e-03,8.882627007551491261e-04,1.719911769032478333e-02,4.974103718996047974e-02,3.687281534075737000e-02,7.249611616134643555e-02,9.858190082013607025e-03,-3.941869945265352726e-04,1.605730317533016205e-02,4.670757353305816650e-01,3.738391697406768799e-01,6.660491228103637695e-01,5.612577795982360840e-01,3.977564573287963867e-01,4.416934847831726074e-01,2.339022159576416016e-01,3.432808518409729004e-01,2.927690148353576660e-01,1.559493243694305420e-01,6.565874069929122925e-02,1.125108227133750916e-01,1.089603155851364136e-01,6.827618181705474854e-02,7.947822660207748413e-02,2.123837471008300781e-01,3.402062952518463135e-01,3.503536581993103027e-01,3.879376053810119629e-01,1.496421247720718384e-01,1.080818548798561096e-01,1.439920514822006226e-01,1.355907022953033447e-01,2.200607061386108398e-01,1.572744846343994141e-01,3.920525312423706055e-02,-1.096449643373489380e-01,3.387154545634984970e-03,-1.487517654895782471e-01,5.465888231992721558e-02,2.388333082199096680e-01,6.144471168518066406e-01,8.315324783325195312e-01,6.644832491874694824e-01,3.543047308921813965e-01,2.359504997730255127e-01,1.116692200303077698e-01,1.220620870590209961e-01,5.719443410634994507e-02,2.130109965801239014e-01,2.687441408634185791e-01,1.381822526454925537e-01,1.359884738922119141e-01,7.494779676198959351e-02,1.110650300979614258e-01,4.492758959531784058e-02,-1.376369874924421310e-02,-2.329718694090843201e-02,-2.506757378578186035e-01,-1.178315654397010803e-01,-3.820038437843322754e-01,2.794429101049900055e-02,-1.664063706994056702e-02,6.404925137758255005e-02,2.495512664318084717e-01,1.658383131027221680e+00,2.869047880172729492e+00,1.269749402999877930e+00,-2.631365954875946045e-01,-4.604503512382507324e-01,4.735570549964904785e-01,-1.639517843723297119e-01
-1.487187594175338745e-01,-1.451137363910675049e-01,-9.467281401157379150e-02,-1.048996485769748688e-02,6.793309748172760010e-02,9.277481585741043091e-02,1.155029535293579102e-01,8.357685804367065430e-02,2.795426174998283386e-02,-3.102146089076995850e-03,-1.346280239522457123e-02,-1.135510392487049103e-02,-3.904855577275156975e-03,1.654431573115289211e-03,2.052524592727422714e-03,5.261494312435388565e-03,5.607379600405693054e-03,2.427500439807772636e-03,6.736394134350121021e-04,6.918073631823062897e-04,5.406626733019948006e-04,7.322233868762850761e-04,8.856194326654076576e-04,1.243918784894049168e-03,1.270318403840065002e-03,1.305273966863751411e-03,1.742088934406638145e-03,1.708086929284036160e-03,1.128341420553624630e-03,3.062721225433051586e-04,-1.039303257130086422e-03,-2.532598329707980156e-03,-2.117720898240804672e-03,2.378175558988004923e-04,5.515873781405389309e-04,1.059907721355557442e-03,1.572780311107635498e-03,1.713886507786810398e-03,4.374135285615921021e-03,1.497091911733150482e-02,-6.850051577202975750e-04,-2.891533076763153076e-04,2.349377609789371490e-02,8.330231904983520508e-02,3.318664133548736572e-01,2.805154621601104736e-01,3.009500540792942047e-02,-1.167987473309040070e-02,1.095620542764663696e-02,2.751650214195251465e-01,2.939891219139099121e-01,9.748162329196929932e-02,-5.171553045511245728e-02,-1.448501050472259521e-01,-1.339786499738693237e-01,-4.968795552849769592e-02,3.690133243799209595e-02,2.975224889814853668e-02,-4.852433502674102783e-02,-8.198016881942749023e-02,-8.056294173002243042e-02,-1.803337410092353821e-02,3.178939223289489746e-02,2.137602493166923523e-02,-5.417596176266670227e-02,-9.272930771112442017e-02,-1.594717800617218018e-01,-2.507929205894470215e-01,-2.213838845491409302e-01,-1.218181252479553223e-01,1.257620472460985184e-02,2.674931287765502930e-01,2.652094662189483643e-01,4.902314394712448120e-02,-8.909977972507476807e-02,-1.364909708499908447e-01,-1.717183738946914673e-01,-1.332491934299468994e-01,-6.919519603252410889e-02,3.070735372602939606e-02,1.272784024477005005e-01,1.749829500913619995e-01,1.551866829395294189e-01,4.650283977389335632e-02,-2.361949905753135681e-02,-1.116422191262245178e-02,1.291378401219844818e-02,8.367784321308135986e-02,7.699984312057495117e-02,1.028042435646057129e-01,6.416185945272445679e-02,7.797395810484886169e-04,-3.258810920669930056e-06,1.135185360908508301e-02,7.521158549934625626e-03,2.364531159400939941e-03
5.589826107025146484e-01,1.845655798912048340e+00,4.179103374481201172e+00,5.141594886779785156e+00,3.976482391357421875e+00,3.050126552581787109e+00,1.643676400184631348e+00,6.770802736282348633e-01,-1.850807964801788330e-01,-1.356323063373565674e-02,4.508768618106842041e-01,1.123926877975463867e+00,1.227179288864135742e+00,1.210162758827209473e+00,9.180775880813598633e-01,3.779591917991638184e-01,3.211380168795585632e-02,-5.653501302003860474e-02,-4.624092206358909607e-02,-5.161109566688537598e-02,-5.670110136270523071e-02,-1.948327943682670593e-02,-2.496280474588274956e-03,3.223869425710290670e-04,2.620826708152890205e-03,7.821507751941680908e-03,1.608982309699058533e-02,2.953013218939304352e-02,6.453052908182144165e-02,9.746721386909484863e-02,9.156699478626251221e-02,6.558985263109207153e-02,2.737257815897464752e-02,-5.057988315820693970e-02,-1.145419478416442871e-01,-1.467578560113906860e-01,-1.539339274168014526e-01,-1.162647008895874023e-01,-5.956392362713813782e-02,-1.406314503401517868e-02,1.578457280993461609e-02,2.646506205201148987e-02,2.617311850190162659e-02,1.627084612846374512e-02,6.824973970651626587e-03,1.496979035437107086e-03,-7.941193762235343456e-04,-2.036009915173053741e-03,-3.566791769117116928e-03,-7.514052093029022217e-03,-1.241154968738555908e-02,-7.054624147713184357e-03,-2.766921184957027435e-03,1.520864199846982956e-03,1.092090178281068802e-02,-2.625753544270992279e-02,-1.058194413781166077e-01,-9.098844230175018311e-02,-1.402353961020708084e-02,-5.432654637843370438e-03,-2.929570153355598450e-02,-4.354514926671981812e-02,-3.458469733595848083e-02,-2.352050505578517914e-02,-4.829040728509426117e-03,8.966310881078243256e-03,1.736962981522083282e-02,1.148499362170696259e-02,7.519028149545192719e-03,3.373942570760846138e-03,1.116088032722473145e-02,2.981184981763362885e-02,5.986303091049194336e-02,8.025202155113220215e-02,9.306017309427261353e-02,1.003685146570205688e-01,1.027812212705612183e-01,9.061704576015472412e-02,5.819741636514663696e-02,-5.582451820373535156e-02,-1.668985784053802490e-01,-1.451750993728637695e-01,7.111563533544540405e-02,1.276771724224090576e-01,4.980432242155075073e-02,-1.835388541221618652e-01,-3.487495481967926025e-01,-4.473560452461242676e-01,-6.081944108009338379e-01,1.956434175372123718e-02,2.394394636154174805e+00,3.526040554046630859e+00,2.932986974716186523e+00,1.368261814117431641e+00,4.921895563602447510e-01,4.533127844333648682e-01
1.085327491164207458e-01,-1.459655724465847015e-02,-4.210250377655029297e-01,-1.069194316864013672e+00,-1.477456212043762207e+00,-9.701034426689147949e-01,7.788602113723754883e-01,2.800867319107055664e+00,3.754431962966918945e+00,2.457565069198608398e+00,2.386391609907150269e-01,-1.083619236946105957e+00,-1.134577989578247070e+00,-5.090531110763549805e-01,2.454013563692569733e-03,1.290425211191177368e-01,7.073701918125152588e-02,6.402770522981882095e-03,-2.157486788928508759e-02,-3.632369637489318848e-02,-5.171570181846618652e-02,-5.602167174220085144e-02,-4.510969668626785278e-02,-2.444472350180149078e-02,-9.256743825972080231e-03,-2.245587995275855064e-03,1.089611439965665340e-03,2.370276721194386482e-03,2.005111891776323318e-03,1.080221729353070259e-03,3.052957763429731131e-04,-3.060589006054215133e-05,-1.486074033891782165e-04,-4.123323742533102632e-05,2.569346397649496794e-04,7.850490510463714600e-04,1.218159100972115993e-03,1.119306311011314392e-03,6.549925310537219048e-04,3.372611536178737879e-04,-5.007353029213845730e-04,-1.839561038650572300e-03,-1.970753073692321777e-03,-9.925322374328970909e-04,-3.189396520610898733e-04,-1.854487054515630007e-04,-6.935942801646888256e-04,-1.807473832741379738e-03,-2.371814567595720291e-03,-2.095171716064214706e-03,-1.672348356805741787e-03,-1.336840679869055748e-03,-9.984460193663835526e-04,-7.602669065818190575e-04,-5.464547430165112019e-04,-4.868175892625004053e-04,-3.970639663748443127e-04,-3.460690495558083057e-04,-3.611548745539039373e-04,-4.890133859589695930e-04,-4.483968950808048248e-04,-3.455776895862072706e-04,-2.278565225424245000e-04,-2.222315233666449785e-04,-3.389527555555105209e-04,-4.430466215126216412e-04,-4.728969652205705643e-04,-5.103276926092803478e-04,-5.849762237630784512e-04,-7.334770634770393372e-04,-8.491767803207039833e-04,-5.246421205811202526e-04,8.849929872667416930e-05,-4.726302868220955133e-04,-1.165520050562918186e-03,3.702238900586962700e-04,2.903657034039497375e-03,5.253660026937723160e-03,1.660382957197725773e-03,-2.216826938092708588e-02,-7.502198219299316406e-02,-1.356198936700820923e-01,-1.667384058237075806e-01,-1.204837113618850708e-01,-3.051891550421714783e-02,1.631033606827259064e-02,2.337092906236648560e-02,1.698175445199012756e-02,-1.620469614863395691e-02,-5.401398614048957825e-02,-5.204850435256958008e-02,-1.835461705923080444e-02,2.254745177924633026e-02,6.785432249307632446e-02,1.092951074242591858e-01,1.176424399018287659e-01
1.328088194131851196e-01,6.491365432739257812e-01,1.948121309280395508e+00,2.894297122955322266e+00,2.048438310623168945e+00,6.339589953422546387e-01,-8.007755130529403687e-02,3.962836414575576782e-02,-7.746964693069458008e-02,1.484268903732299805e-01,1.781104952096939087e-01,1.257923692464828491e-01,2.589069902896881104e-01,3.172862231731414795e-01,1.189415454864501953e-01,-4.673857986927032471e-02,1.143618207424879074e-02,1.363749802112579346e-01,2.627322375774383545e-01,3.389767706394195557e-01,3.932539224624633789e-01,3.344827592372894287e-01,1.505475342273712158e-01,2.559455856680870056e-02,-1.173699870705604553e-01,-1.740156710147857666e-01,-2.622605264186859131e-01,-2.190289497375488281e-01,-5.824653059244155884e-02,1.078372150659561157e-01,2.653433978557586670e-01,3.514432311058044434e-01,3.461536467075347900e-01,2.511203289031982422e-01,1.209294348955154419e-01,7.275952491909265518e-03,-5.451013892889022827e-02,-6.835975497961044312e-02,-5.601548403501510620e-02,-3.054289147257804871e-02,-1.003673113882541656e-02,-5.364326643757522106e-04,4.123059101402759552e-03,8.307965472340583801e-03,1.266286242753267288e-02,1.391828060150146484e-02,1.807647757232189178e-02,1.029037963598966599e-02,1.840195618569850922e-03,2.905301284044981003e-03,8.949277549982070923e-02,2.323576658964157104e-01,3.125187754631042480e-01,4.985327720642089844e-01,4.954717159271240234e-01,3.402894139289855957e-01,3.249306678771972656e-01,2.293879091739654541e-01,1.343626677989959717e-01,1.281191110610961914e-01,7.074790447950363159e-02,7.653219997882843018e-02,8.670091629028320312e-02,3.615777939558029175e-02,-2.581463754177093506e-02,-8.595152944326400757e-02,-8.860860019922256470e-02,-2.565783262252807617e-01,-2.245574444532394409e-01,-1.897204071283340454e-01,-8.803305774927139282e-02,1.234403997659683228e-01,4.933084547519683838e-01,8.257054090499877930e-01,7.980259656906127930e-01,7.553294897079467773e-01,4.550459980964660645e-01,1.866814494132995605e-01,6.523362547159194946e-02,-6.424362957477569580e-02,-1.595844775438308716e-01,-1.597274243831634521e-01,-1.003021150827407837e-01,-2.393842861056327820e-02,8.459955453872680664e-03,-3.071050718426704407e-02,-6.164256483316421509e-02,-5.761360377073287964e-02,-5.607852246612310410e-03,8.931048214435577393e-02,1.308157742023468018e-01,5.362321808934211731e-02,-6.050739437341690063e-02,-1.505445986986160278e-01,-3.329488933086395264e-01,-3.890948295593261719e-01
2.094984948635101318e-01,1.271098852157592773e+00,1.850175499916076660e+00,7.333303093910217285e-01,-3.147329017519950867e-02,2.636331021785736084e-01,-2.364710345864295959e-02,1.143028959631919861e-01,2.696693837642669678e-01,3.726841807365417480e-01,2.428877800703048706e-01,-1.834107562899589539e-02,-6.760019063949584961e-02,9.076502174139022827e-02,2.693769633769989014e-01,3.266952633857727051e-01,3.256237208843231201e-01,3.032923042774200439e-01,1.741065680980682373e-01,1.156629696488380432e-01,3.677106648683547974e-02,-4.175302572548389435e-03,-2.930805087089538574e-02,-3.075376152992248535e-02,-2.270479872822761536e-02,-1.563928648829460144e-02,-7.308442145586013794e-03,3.435201942920684814e-04,3.817383898422122002e-03,4.390323534607887268e-03,2.153986832126975060e-03,-6.121824262663722038e-04,-2.059246879070997238e-03,9.112422121688723564e-04,1.436435617506504059e-02,2.789443172514438629e-02,3.789396956562995911e-02,2.986149489879608154e-02,2.147011924535036087e-03,1.835175789892673492e-02,1.012429445981979370e-01,2.721832394599914551e-01,4.331241548061370850e-01,5.206576585769653320e-01,4.527067244052886963e-01,2.902120947837829590e-01,1.936102807521820068e-01,1.106830462813377380e-01,7.584910839796066284e-02,5.741350725293159485e-02,2.871031127870082855e-02,8.182871155440807343e-03,-3.435105085372924805e-03,6.735259201377630234e-03,4.114325344562530518e-02,8.611376583576202393e-02,7.826598733663558960e-02,8.532514423131942749e-02,8.511382341384887695e-02,7.241167128086090088e-02,9.070273488759994507e-02,1.225987896323204041e-01,1.015996336936950684e-01,1.317205131053924561e-01,1.457396447658538818e-01,1.354092210531234741e-01,1.143643483519554138e-01,7.417030632495880127e-02,8.550608158111572266e-02,6.742111593484878540e-02,4.503910988569259644e-02,8.808834850788116455e-02,1.236336007714271545e-01,2.246443778276443481e-01,3.518292903900146484e-01,3.948823809623718262e-01,2.958940863609313965e-01,1.138925105333328247e-01,6.949765980243682861e-02,3.487268090248107910e-02,1.077673211693763733e-02,2.583299763500690460e-03,1.342859177384525537e-04,8.544190495740622282e-05,6.113538402132689953e-04,2.211310493294149637e-04,9.666601195931434631e-03,1.089357491582632065e-02,1.542425435036420822e-02,1.393183320760726929e-02,4.422050900757312775e-03,7.388830184936523438e-03,3.220373066142201424e-03,1.034849905408918858e-03,8.510689804097637534e-05,1.533253816887736320e-03
1.379931271076202393e-01,2.908267676830291748e-01,1.795404702425003052e-01,2.353987395763397217e-01,2.765829861164093018e-02,-2.969679795205593109e-02,1.564861275255680084e-03,-8.961686864495277405e-03,-4.987018648535013199e-03,-7.708118762820959091e-03,4.213961772620677948e-03,2.187942340970039368e-02,1.695736683905124664e-02,1.913972944021224976e-02,1.816280558705329895e-02,1.608501747250556946e-02,1.412361860275268555e-02,1.038928702473640442e-02,5.496571771800518036e-03,1.891728141345083714e-03,-6.768006714992225170e-04,-1.912953681312501431e-03,-2.100378274917602539e-03,-1.342709758318960667e-03,-4.427443200256675482e-04,6.201467476785182953e-04,1.537733594886958599e-03,2.450586995109915733e-03,3.117143642157316208e-03,3.468558192253112793e-03,3.424549940973520279e-03,2.799142152070999146e-03,2.041073050349950790e-03,1.000385382212698460e-03,2.936395176220685244e-04,-3.641100774984806776e-04,-8.926909649744629860e-04,-1.664899638853967190e-03,-2.426745195407420397e-04,1.629543723538517952e-03,5.161462817341089249e-03,1.031552907079458237e-02,1.491289865225553513e-02,1.822863891720771790e-02,1.576907560229301453e-02,1.587924733757972717e-02,1.237023994326591492e-02,1.130452752113342285e-02,9.582727216184139252e-03,8.506139740347862244e-03,1.072498504072427750e-02,1.105823088437318802e-02,1.177632808685302734e-02,1.323681324720382690e-02,1.691035181283950806e-02,1.558088231831789017e-02,1.669377647340297699e-02,1.732379011809825897e-02,1.538692414760589600e-02,1.200171280652284622e-02,1.160584576427936554e-02,1.355522312223911285e-02,1.178261172026395798e-02,8.389351889491081238e-03,7.487390190362930298e-03,7.458145730197429657e-03,4.891301039606332779e-03,4.160803742706775665e-03,4.484361968934535980e-03,3.393788589164614677e-03,5.515669938176870346e-03,8.767792023718357086e-03,1.274061203002929688e-02,1.980536431074142456e-02,2.489555068314075470e-02,2.446108497679233551e-02,2.052550762891769409e-02,1.524810027331113815e-02,1.001555100083351135e-02,6.865451578050851822e-03,4.305825568735599518e-03,4.406211432069540024e-03,3.303778590634465218e-03,2.601831918582320213e-03,3.442239481955766678e-03,2.139373682439327240e-03,1.294637564569711685e-03,-3.692373284138739109e-04,-2.170433755964040756e-03,-4.535100422799587250e-03,-5.021923221647739410e-03,-5.242353305220603943e-03,-5.645457189530134201e-03,-3.105426672846078873e-03,-2.849814947694540024e-03,-1.105218776501715183e-03
2.210591554641723633e+00,2.474428176879882812e+00,6.675069332122802734e-01,7.215824127197265625e-01,3.949529528617858887e-01,-2.842794358730316162e-01,-7.478456497192382812e-01,-8.640232086181640625e-01,-1.600626558065414429e-01,6.875348091125488281e-01,1.859620809555053711e+00,2.039658546447753906e+00,1.965966463088989258e+00,1.232928991317749023e+00,6.073684692382812500e-01,2.419389486312866211e-01,2.022768184542655945e-02,-5.814985558390617371e-02,-5.576955154538154602e-02,-3.389867395162582397e-02,-1.766716316342353821e-02,-7.997298613190650940e-03,-4.066281486302614212e-03,-7.496007019653916359e-04,2.611130010336637497e-03,-3.900249721482396126e-03,-1.737539842724800110e-02,-3.669444099068641663e-02,-6.991815567016601562e-02,-4.978292807936668396e-02,-1.372413896024227142e-02,-1.291079213842749596e-03,-2.094286680221557617e-02,-1.330908238887786865e-01,-2.798061072826385498e-01,-3.856684565544128418e-01,-2.970383167266845703e-01,-2.719279229640960693e-01,-2.277851849794387817e-01,-1.290875673294067383e-01,-1.335444301366806030e-01,-1.183177605271339417e-01,-9.809668362140655518e-02,-8.142735064029693604e-02,-6.139899417757987976e-02,-6.196545436978340149e-02,-8.113218843936920166e-02,-1.002512946724891663e-01,-8.310052007436752319e-02,-9.074123203754425049e-02,-7.808251678943634033e-02,-9.446360915899276733e-02,-7.661633938550949097e-02,-5.775506421923637390e-02,-7.171474397182464600e-02,-6.308718770742416382e-02,-8.612285554409027100e-02,-7.691011577844619751e-02,-6.758923828601837158e-02,-8.072217553853988647e-02,-8.611340075731277466e-02,-6.439006328582763672e-02,-5.821795389056205750e-02,-5.088043957948684692e-02,-1.922985352575778961e-02,-2.673578215762972832e-03,4.569369368255138397e-03,7.003128412179648876e-04,-2.580212987959384918e-02,-1.288037449121475220e-01,-2.359676361083984375e-01,-3.060826361179351807e-01,-2.829032540321350098e-01,-2.216623723506927490e-01,-1.491339504718780518e-01,-6.345699727535247803e-02,-4.623352736234664917e-02,-4.070536047220230103e-02,-4.410990700125694275e-02,-1.544579304754734039e-02,-3.108811937272548676e-02,-4.709254577755928040e-02,-5.030726641416549683e-02,-1.608280837535858154e-02,-1.881931722164154053e-02,-3.177742287516593933e-02,-4.772349819540977478e-02,-4.278912767767906189e-02,-5.445641279220581055e-02,-2.893870696425437927e-02,3.619218186940997839e-04,5.542766302824020386e-03,4.801993258297443390e-03,2.112339017912745476e-03,5.079409573227167130e-03,2.118912898004055023e-02
-9.172019958496093750e-01,-2.051078796386718750e+00,-8.003679513931274414e-01,-4.023104608058929443e-01,1.088202223181724548e-01,-1.014354228973388672e-01,7.850381545722484589e-03,2.808544039726257324e-01,-6.545128766447305679e-03,-4.792763292789459229e-01,-7.761862277984619141e-01,-1.332268476486206055e+00,-1.115154385566711426e+00,-5.309581756591796875e-01,-2.706873714923858643e-01,5.011039972305297852e-02,1.780136972665786743e-01,2.352479398250579834e-01,1.907990872859954834e-01,1.903219372034072876e-01,1.748858392238616943e-01,1.352738142013549805e-01,7.367583364248275757e-02,1.120777241885662079e-02,-3.205179423093795776e-02,-4.952175170183181763e-02,-2.840382419526576996e-02,-5.003887927159667015e-04,3.768096491694450378e-02,6.426896899938583374e-02,7.780173420906066895e-02,2.808293700218200684e-02,-1.837136573158204556e-03,5.063985660672187805e-02,1.568129807710647583e-01,4.008999466896057129e-01,5.739507079124450684e-01,5.468556284904479980e-01,5.737895965576171875e-01,3.153747618198394775e-01,2.614755332469940186e-01,2.916873097419738770e-01,1.218676120042800903e-01,1.343364715576171875e-01,7.969567924737930298e-02,1.018011793494224548e-01,1.082199662923812866e-01,8.741837739944458008e-02,1.361457556486129761e-01,1.125599741935729980e-01,1.199797764420509338e-01,1.617959439754486084e-01,1.230057924985885620e-01,7.510201632976531982e-02,9.501937776803970337e-02,1.399284303188323975e-01,2.407718449831008911e-01,1.138612478971481323e-01,1.847619190812110901e-02,-1.828451454639434814e-02,-7.408529520034790039e-02,-6.556753814220428467e-02,-3.188407421112060547e-02,7.117627654224634171e-03,1.979300081729888916e-01,5.169858932495117188e-01,6.349294781684875488e-01,6.380215287208557129e-01,3.480470478534698486e-01,7.131662964820861816e-02,5.011118203401565552e-02,1.693928847089409828e-03,4.148263484239578247e-02,4.343830421566963196e-02,9.364959597587585449e-02,7.630150020122528076e-02,8.957123383879661560e-03,1.952207460999488831e-02,1.769890822470188141e-02,4.511923529207706451e-03,1.037228736095130444e-03,1.043837238103151321e-02,3.547583892941474915e-02,5.718144774436950684e-02,5.535779148340225220e-02,2.033330127596855164e-02,5.223669856786727905e-02,2.854823693633079529e-02,2.263549864292144775e-01,1.930459260940551758e+00,3.273728609085083008e+00,1.259507536888122559e+00,1.418619602918624878e-01,1.219260469079017639e-01,4.420495927333831787e-01,-1.127114892005920410e-01
6.515870094299316406e-01,4.471485018730163574e-01,1.282028704881668091e-01,-4.341641813516616821e-02,-5.358892679214477539e-01,-8.902602195739746094e-01,-5.596064329147338867e-01,3.555596172809600830e-01,1.188970088958740234e+00,1.589966416358947754e+00,1.401963472366333008e+00,7.920298576354980469e-01,2.868607640266418457e-01,-8.146552741527557373e-02,-2.064842730760574341e-01,-2.185139656066894531e-01,-1.901887357234954834e-01,-1.170283183455467224e-01,-6.236340850591659546e-03,-1.358112692832946777e-02,-1.666378229856491089e-01,-4.867467880249023438e-01,-6.291467547416687012e-01,-6.143299341201782227e-01,-4.506730437278747559e-01,-2.952341437339782715e-01,-2.245461195707321167e-01,-1.634115725755691528e-01,-1.416923850774765015e-01,-1.494388580322265625e-01,-1.321676224470138550e-01,-1.404139697551727295e-01,-1.548621654510498047e-01,-1.954140961170196533e-01,-1.037252768874168396e-01,-9.943088889122009277e-02,-1.141478195786476135e-01,-4.006459563970565796e-02,-4.469196498394012451e-02,-1.672276668250560760e-02,-2.946079242974519730e-03,1.987081719562411308e-03,8.332879515364766121e-04,6.110417190939188004e-03,7.336827460676431656e-03,-1.543634920381009579e-03,4.865107126533985138e-03,-1.734103716444224119e-04,-8.371366187930107117e-03,-2.708860114216804504e-02,-1.645783521234989166e-02,-4.780472442507743835e-02,-1.521220803260803223e-02,-2.169500663876533508e-02,-1.018834393471479416e-02,-7.719182176515460014e-04,1.143367611803114414e-03,-1.170087271020747721e-04,6.709990557283163071e-03,5.774429882876574993e-04,1.629377482458949089e-03,-2.389627115917392075e-05,-2.019489649683237076e-03,-1.211628876626491547e-02,-1.584030687808990479e-02,-1.996506378054618835e-02,-6.437490880489349365e-02,-3.406706452369689941e-02,-6.453386694192886353e-02,-4.872393608093261719e-02,-4.591184109449386597e-02,-4.770376160740852356e-02,-1.940132677555084229e-02,-1.121224742382764816e-02,3.782544983550906181e-03,1.208634395152330399e-02,1.960102841258049011e-02,2.383144572377204895e-02,4.067465662956237793e-03,-4.085705429315567017e-02,-1.842682063579559326e-01,-4.789884686470031738e-01,-7.243111729621887207e-01,-5.978196263313293457e-01,-1.268739253282546997e-01,-2.086158655583858490e-02,-4.900357453152537346e-04,-9.130666963756084442e-03,1.898337854072451591e-03,1.097976136952638626e-02,-1.820870675146579742e-02,-6.370829651132225990e-04,-1.156741101294755936e-02,4.396046511828899384e-03,5.577321862801909447e-04,-7.456933148205280304e-03
1.136169880628585815e-01,4.784597456455230713e-01,2.907099246978759766e+00,4.010105609893798828e+00,1.844498991966247559e+00,2.462572418153285980e-02,4.880378395318984985e-02,-2.826413214206695557e-01,1.435900945216417313e-02,2.794548273086547852e-01,3.448389172554016113e-01,9.285625070333480835e-02,-4.635952413082122803e-02,1.036949604749679565e-01,1.817366182804107666e-01,9.891389310359954834e-02,-6.112835556268692017e-02,-2.210812866687774658e-01,-1.896172314882278442e-01,-4.482887685298919678e-02,4.699544608592987061e-02,1.244103759527206421e-01,1.161435246467590332e-01,6.832914799451828003e-02,2.531651221215724945e-02,-8.224735967814922333e-03,-1.291262172162532806e-02,-4.894549958407878876e-03,4.026105627417564392e-03,4.428366664797067642e-03,-3.095751628279685974e-03,-7.652436615899205208e-04,3.515364974737167358e-02,1.017566770315170288e-01,1.893539577722549438e-01,1.842444390058517456e-01,4.590904712677001953e-02,-4.208079189993441105e-04,6.583042442798614502e-02,3.277022838592529297e-01,6.806915998458862305e-01,9.896063804626464844e-01,9.875793457031250000e-01,9.008489847183227539e-01,5.302290916442871094e-01,1.959756016731262207e-01,6.683008372783660889e-02,2.969507873058319092e-02,5.610563233494758606e-02,-2.980415895581245422e-02,-6.683770567178726196e-02,-7.645869255065917969e-02,-3.511624783277511597e-02,2.624745108187198639e-02,7.293678820133209229e-02,8.053894340991973877e-02,5.346990749239921570e-02,4.938834160566329956e-02,7.889451086521148682e-02,8.892650902271270752e-02,9.934296458959579468e-02,1.226499527692794800e-01,1.804108917713165283e-01,1.059914007782936096e-01,1.007808297872543335e-01,1.054927557706832886e-01,3.111712262034416199e-02,6.729817390441894531e-02,2.366242930293083191e-02,5.714410450309514999e-03,-2.731877006590366364e-02,-2.823682688176631927e-02,-3.270451352000236511e-02,2.020984329283237457e-02,1.351390779018402100e-01,5.700053572654724121e-01,7.568312883377075195e-01,5.743150115013122559e-01,2.790825963020324707e-01,8.302104473114013672e-02,4.387549310922622681e-02,-2.641367318574339151e-04,3.247520327568054199e-02,4.804720357060432434e-02,7.755257189273834229e-02,5.080537125468254089e-02,6.692926585674285889e-02,3.985153883695602417e-02,2.959665656089782715e-02,1.908035576343536377e-02,5.144183058291673660e-03,9.874751558527350426e-04,-1.381413778290152550e-03,-2.480120630934834480e-03,-4.084784595761448145e-04,1.427516544936224818e-04
-1.257925760000944138e-02,1.702770441770553589e-01,6.007120609283447266e-01,8.282532691955566406e-01,4.658883213996887207e-01,-1.129903271794319153e-02,1.624540090560913086e-01,7.998034358024597168e-02,-9.543139487504959106e-03,-5.315559357404708862e-02,-6.948097795248031616e-02,-8.328524231910705566e-02,-2.068668045103549957e-02,3.747204691171646118e-02,1.246332377195358276e-01,1.358008384704589844e-01,1.254281699657440186e-01,9.253408014774322510e-02,4.417266696691513062e-02,1.695680432021617889e-02,-9.001612663269042969e-03,-1.060944516211748123e-02,-1.759269461035728455e-02,-1.369472034275531769e-02,-4.618362523615360260e-03,-1.109720673412084579e-03,1.736434176564216614e-03,2.246289281174540520e-03,1.469821436330676079e-03,1.683739392319694161e-04,-1.025831559672951698e-03,-1.723888912238180637e-03,-8.323574438691139221e-04,1.567817875184118748e-03,6.983666215091943741e-03,1.018442586064338684e-02,5.958158522844314575e-03,-4.568121803458780050e-04,-1.545125618577003479e-03,3.308594692498445511e-03,4.040030390024185181e-02,9.525202959775924683e-02,1.897968649864196777e-01,2.083458006381988525e-01,2.041128873825073242e-01,2.095337659120559692e-01,1.096587628126144409e-01,8.870720863342285156e-02,8.595114946365356445e-02,4.971373453736305237e-02,2.146396040916442871e-02,1.273553352802991867e-02,2.234512567520141602e-02,4.446097090840339661e-02,7.949136197566986084e-02,6.356003880500793457e-02,3.564559668302536011e-02,3.300236910581588745e-02,4.853637516498565674e-02,6.697821617126464844e-02,6.835152953863143921e-02,4.489888250827789307e-02,3.776004537940025330e-02,5.272061377763748169e-02,4.698457196354866028e-02,3.585249185562133789e-02,5.809181928634643555e-02,5.558265373110771179e-02,3.019782900810241699e-02,7.063873112201690674e-03,-3.211061703041195869e-03,5.705122835934162140e-03,5.352905392646789551e-02,8.574973046779632568e-02,1.815568506717681885e-01,1.762115210294723511e-01,1.313126981258392334e-01,1.585507392883300781e-01,6.130827590823173523e-02,3.235699981451034546e-02,6.049574539065361023e-02,3.442025184631347656e-02,-4.046952817589044571e-03,5.358000844717025757e-02,3.671538084745407104e-02,6.544453557580709457e-03,3.188281552866101265e-03,1.723434776067733765e-03,-1.621119328774511814e-03,-4.441366065293550491e-03,-5.697173532098531723e-03,-3.426435869187116623e-03,-1.233300007879734039e-02,-5.882045254111289978e-03,-1.984813017770648003e-03,-1.890308223664760590e-03
5.161703564226627350e-03,2.936786711215972900e-01,1.376054525375366211e+00,1.960357904434204102e+00,1.508198976516723633e+00,1.368346959352493286e-01,1.761783957481384277e-01,5.244515091180801392e-02,5.299806362017989159e-04,5.933599546551704407e-02,1.609207093715667725e-01,9.165030717849731445e-02,-9.016712754964828491e-02,-2.595422603189945221e-02,7.043920457363128662e-02,2.098412215709686279e-01,1.498390734195709229e-01,8.788123726844787598e-02,4.284100979566574097e-02,1.074798963963985443e-02,3.672093152999877930e-03,2.874830039218068123e-03,4.770808853209018707e-03,-1.130229048430919647e-02,-2.597830817103385925e-02,-2.048390544950962067e-02,-1.349810510873794556e-02,1.685703406110405922e-03,1.227567810565233231e-02,1.518525369465351105e-02,9.242987260222434998e-03,-2.420126926153898239e-03,-7.175073027610778809e-03,-1.201043091714382172e-02,9.735917556099593639e-04,3.323944285511970520e-02,6.815377622842788696e-02,5.552887171506881714e-02,4.667633771896362305e-02,3.028844250366091728e-03,1.172447949647903442e-01,2.218515574932098389e-01,1.736420840024948120e-01,3.257587552070617676e-01,5.303618311882019043e-01,3.113831579685211182e-01,2.232022732496261597e-01,1.513152718544006348e-01,7.138067483901977539e-02,2.163159847259521484e-02,-3.033806756138801575e-02,-5.543601512908935547e-02,-4.293087497353553772e-02,-9.171292185783386230e-03,5.856344103813171387e-02,2.613382972776889801e-02,2.798771485686302185e-02,3.001323342323303223e-02,2.323434688150882721e-02,5.219914764165878296e-02,1.497218944132328033e-02,6.050741672515869141e-02,1.042624562978744507e-01,4.160773009061813354e-02,8.418072760105133057e-02,6.005235761404037476e-02,5.835483223199844360e-02,4.310927912592887878e-02,7.518975436687469482e-02,-4.022002103738486767e-04,-1.618480682373046875e-02,-8.268348127603530884e-02,-1.338041294366121292e-02,2.889245375990867615e-02,2.679585516452789307e-01,3.499137461185455322e-01,4.173253476619720459e-01,2.586901783943176270e-01,1.155753135681152344e-01,5.267651006579399109e-02,5.466883536428213120e-03,-3.816348034888505936e-04,1.376800821162760258e-03,2.634761622175574303e-03,7.390529499389231205e-04,2.927934285253286362e-03,5.574091337621212006e-03,-4.058082588016986847e-03,2.072078175842761993e-02,2.573184296488761902e-02,1.104537863284349442e-02,1.135328551754355431e-03,1.532762835267931223e-04,4.209946782793849707e-04,-3.554244467522948980e-04,3.410121134947985411e-04
6.077869534492492676e-01,4.717841744422912598e-01,2.793481349945068359e-01,1.529058098793029785e+00,3.864926397800445557e-01,-1.963657736778259277e-01,6.147198751568794250e-02,8.617039769887924194e-02,-1.396099328994750977e-01,7.749338448047637939e-02,-9.288245439529418945e-02,3.269968181848526001e-02,4.266150891780853271e-01,1.737174838781356812e-01,6.429842114448547363e-01,4.444644451141357422e-01,1.175247803330421448e-01,7.634342461824417114e-02,-8.937879465520381927e-03,-5.372821539640426636e-02,-4.312659054994583130e-02,-5.045380443334579468e-02,-3.688704967498779297e-02,-6.740937940776348114e-03,2.353591611608862877e-03,2.538096904754638672e-02,8.163087069988250732e-02,6.656561791896820068e-02,2.733619883656501770e-02,3.732134029269218445e-02,-1.179552078247070312e-01,4.363966882228851318e-01,1.366812944412231445e+00,2.366799861192703247e-01,6.856688261032104492e-01,1.438555955886840820e+00,3.837413191795349121e-01,3.276828676462173462e-02,1.312764585018157959e-01,3.015301749110221863e-02,-6.138283759355545044e-02,7.720009684562683105e-01,1.418635129928588867e+00,5.724753811955451965e-02,3.175378590822219849e-02,-8.480031043291091919e-03,1.169418692588806152e-01,1.652659922838211060e-01,4.228239655494689941e-01,8.858706802129745483e-02,-3.066825866699218750e-02,-5.675940774381160736e-03,3.801580518484115601e-02,-8.824589848518371582e-02,4.525045678019523621e-02,-7.360979914665222168e-03,8.748219907283782959e-02,2.317566871643066406e-01,2.032923698425292969e-01,-3.779752552509307861e-02,-2.023944631218910217e-03,2.679208479821681976e-02,-2.734277024865150452e-02,1.454056333750486374e-02,5.630080029368400574e-02,4.190060198307037354e-01,1.363634467124938965e-01,1.273494720458984375e+00,2.881199419498443604e-01,3.252196907997131348e-01,-4.122215509414672852e-02,8.845094591379165649e-02,1.198236718773841858e-01,3.784060012549161911e-03,1.866333559155464172e-02,6.970037519931793213e-02,2.416588924825191498e-02,7.177899777889251709e-02,8.148750662803649902e-02,1.570680923759937286e-02,1.837712526321411133e-02,-5.001907120458781719e-04,-6.062252912670373917e-03,9.487826609984040260e-04,7.290118932723999023e-02,8.687466382980346680e-02,-6.499949097633361816e-02,1.209382247179746628e-02,-3.765302151441574097e-02,1.481653571128845215e+00,3.478075504302978516e+00,3.284046649932861328e+00,1.208914995193481445e+00,-1.253536343574523926e-02,5.014497041702270508e-01,2.259711474180221558e-01
-2.919776365160942078e-02,7.949917763471603394e-02,4.755635932087898254e-02,-3.085961006581783295e-02,7.527254521846771240e-02,-6.000137329101562500e-02,9.541925787925720215e-02,6.623538583517074585e-02,1.120818257331848145e-01,2.107593566179275513e-01,1.782214492559432983e-01,1.415205299854278564e-01,9.478795528411865234e-02,9.152810275554656982e-02,5.685006827116012573e-02,2.132564410567283630e-02,-4.694677889347076416e-03,-1.464433781802654266e-02,-1.680946536362171173e-02,-1.401884853839874268e-02,-4.084794782102108002e-03,1.270473818294703960e-03,8.587273769080638885e-04,-3.563452512025833130e-03,-6.699002347886562347e-03,-1.551398308947682381e-03,2.264039404690265656e-02,4.756061360239982605e-02,9.438281506299972534e-02,6.101747602224349976e-02,1.847603358328342438e-02,1.328723412007093430e-02,8.787529915571212769e-02,6.644322723150253296e-02,2.611590325832366943e-01,3.608921170234680176e-01,3.581784367561340332e-01,3.140292167663574219e-01,3.266778588294982910e-01,1.873348057270050049e-01,-5.200567655265331268e-03,-7.274903357028961182e-02,-4.328504204750061035e-02,5.417592078447341919e-02,6.067712791264057159e-03,-3.087128698825836182e-02,-6.518966704607009888e-02,-3.043662570416927338e-02,1.350638829171657562e-02,1.013747677206993103e-01,7.168138027191162109e-02,4.282411560416221619e-02,3.161467984318733215e-02,5.042132735252380371e-02,5.336108058691024780e-02,1.930539682507514954e-02,1.078126579523086548e-01,3.142236545681953430e-02,2.090255962684750557e-03,-4.097340255975723267e-02,-7.740624248981475830e-02,-2.605811133980751038e-02,-7.246880233287811279e-02,-6.348738074302673340e-02,4.463610425591468811e-02,2.077946215867996216e-01,3.311579823493957520e-01,5.844025015830993652e-01,4.698285162448883057e-01,2.100148648023605347e-01,1.600329875946044922e-01,2.870555222034454346e-02,5.675811553373932838e-04,6.638998165726661682e-04,6.815510801970958710e-03,5.092334747314453125e-02,-9.240490384399890900e-03,4.289078526198863983e-03,3.800606282311491668e-05,1.493462920188903809e-02,3.547441447153687477e-04,-2.308238996192812920e-03,6.682261079549789429e-02,-4.026827216148376465e-02,-1.163250487297773361e-02,7.106250524520874023e-02,-6.912356708198785782e-03,3.233912633731961250e-03,1.129338890314102173e-01,4.948527216911315918e-01,1.163268446922302246e+00,1.415461778640747070e+00,1.604115068912506104e-01,-2.310079708695411682e-02,6.200056076049804688e-01,1.829464882612228394e-01
-6.011381745338439941e-02,-1.041119098663330078e-01,-2.425372898578643799e-01,-4.209964275360107422e-01,-4.415032863616943359e-01,-3.582690358161926270e-01,-2.377838641405105591e-01,-7.426448911428451538e-02,-3.099721856415271759e-03,3.028668696060776711e-03,-1.236276980489492416e-02,-9.604703634977340698e-03,-4.120013676583766937e-03,-1.162042375653982162e-02,-1.044419500976800919e-02,-3.949367906898260117e-03,-3.301908236608142033e-06,1.684009796008467674e-03,2.373586408793926239e-03,2.876742277294397354e-03,2.557774540036916733e-03,2.189647173509001732e-03,2.765157027170062065e-03,4.132932983338832855e-03,4.817075096070766449e-03,5.469995085150003433e-03,6.188767030835151672e-03,3.869402455165982246e-03,2.204087286372669041e-05,-4.910343792289495468e-03,-9.485034272074699402e-03,-1.184858195483684540e-02,-1.244204491376876831e-02,-1.011381484568119049e-02,-6.334172096103429794e-03,-3.964605275541543961e-03,-2.557688858360052109e-03,-2.233891282230615616e-03,-2.285480732098221779e-03,-2.468012040480971336e-03,-2.318829298019409180e-03,-1.797632663510739803e-03,-1.349300844594836235e-03,-8.074543438851833344e-04,-1.077064225682988763e-04,3.133598656859248877e-04,7.464404334314167500e-04,1.230870140716433525e-03,7.786789210513234138e-04,3.422263398533686996e-05,6.795593071728944778e-04,-2.761222713161259890e-04,-4.207880701869726181e-03,-5.995177663862705231e-03,-5.391923245042562485e-03,-6.263352930545806885e-03,-8.865805342793464661e-03,-9.988104924559593201e-03,-8.301304653286933899e-03,-7.583999540656805038e-03,-9.706191718578338623e-03,-1.004020962864160538e-02,-9.008380584418773651e-03,-1.021792646497488022e-02,-1.088070124387741089e-02,-9.976693429052829742e-03,-9.406300261616706848e-03,-9.040201082825660706e-03,-9.433332830667495728e-03,-1.311896927654743195e-02,-1.649083569645881653e-02,-1.810265146195888519e-02,-1.958086900413036346e-02,-1.906554400920867920e-02,-1.989638060331344604e-02,-2.145401015877723694e-02,-1.832224242389202118e-02,-1.665251143276691437e-02,-2.197096683084964752e-02,-2.536903694272041321e-02,-2.953470684587955475e-02,-3.579033911228179932e-02,-3.281599655747413635e-02,-3.094714321196079254e-02,-2.792090177536010742e-02,-1.244262512773275375e-02,-2.300671767443418503e-03,2.493089763447642326e-03,7.300064899027347565e-03,9.260298684239387512e-03,1.247323583811521530e-02,1.321201026439666748e-02,1.062988210469484329e-02,8.909935131669044495e-03,5.151982419192790985e-03,8.721909252926707268e-04
9.784012101590633392e-03,3.355425894260406494e-01,1.094561815261840820e+00,1.074796319007873535e+00,5.822561979293823242e-01,9.522137232124805450e-03,8.818300068378448486e-02,-4.259514063596725464e-02,4.778941161930561066e-03,3.546807169914245605e-02,3.945521265268325806e-02,-1.829456835985183716e-01,-1.578270494937896729e-01,-8.515591919422149658e-02,-1.330835092812776566e-02,7.504035532474517822e-02,1.655186712741851807e-01,1.989967525005340576e-01,1.860137879848480225e-01,1.640099585056304932e-01,1.053207516670227051e-01,3.923366218805313110e-02,-2.485995925962924957e-02,-5.499709397554397583e-02,-4.913864657282829285e-02,-1.764989830553531647e-02,2.611241303384304047e-02,5.666443705558776855e-02,6.662386655807495117e-02,4.577256366610527039e-02,1.673081889748573303e-02,-1.042628847062587738e-02,-1.452394388616085052e-02,7.322999183088541031e-03,5.170484632253646851e-02,1.035854071378707886e-01,1.152066811919212341e-01,5.228266865015029907e-02,-2.450077561661601067e-03,-5.774382734671235085e-04,1.205335855484008789e-01,2.333695888519287109e-01,2.817189097404479980e-01,2.616815268993377686e-01,1.478007733821868896e-01,9.413374215364456177e-02,1.989772357046604156e-02,2.451926935464143753e-03,1.046243496239185333e-02,1.214097253978252411e-02,-2.247865078970789909e-03,-1.455274410545825958e-02,-2.129610814154148102e-02,-1.633687317371368408e-02,1.012640306726098061e-03,2.264495566487312317e-02,3.086470626294612885e-02,1.963386312127113342e-02,6.914983037859201431e-03,-7.829751702956855297e-04,-6.578856613487005234e-03,-3.921737428754568100e-03,1.437778212130069733e-02,1.251107268035411835e-02,-5.195106379687786102e-03,-3.937134519219398499e-02,-1.081856042146682739e-01,-1.680937707424163818e-01,-1.747653037309646606e-01,-1.865337342023849487e-01,-1.775837093591690063e-01,-1.387607008218765259e-01,-1.018321663141250610e-01,-5.084858462214469910e-02,1.724334657192230225e-01,4.008988440036773682e-01,5.381118655204772949e-01,4.033141136169433594e-01,7.447575032711029053e-02,-9.628393501043319702e-02,-1.350259035825729370e-01,-7.673944532871246338e-02,-2.460355870425701141e-02,-2.032355219125747681e-02,-5.734374374151229858e-02,-9.553637355566024780e-02,-9.792108833789825439e-02,-7.130727916955947876e-02,-6.267754733562469482e-02,-1.288440078496932983e-02,1.010284852236509323e-02,-1.559123117476701736e-02,-8.741170167922973633e-02,-1.306103765964508057e-01,-2.025576382875442505e-01,-2.428906410932540894e-01
6.944250583648681641e+00,1.048522186279296875e+01,1.005698013305664062e+01,8.921812057495117188e+00,6.460266113281250000e+00,3.397973537445068359e+00,1.163857340812683105e+00,-4.635384678840637207e-01,-2.866008281707763672e-01,8.964163661003112793e-01,2.445525646209716797e+00,3.170848846435546875e+00,3.349873065948486328e+00,2.906234264373779297e+00,1.798937559127807617e+00,6.094766259193420410e-01,4.903159290552139282e-02,-1.906246542930603027e-01,-2.241383790969848633e-01,-1.289163082838058472e-01,-7.304902374744415283e-02,-1.569588109850883484e-02,-2.390792651567608118e-04,3.604940371587872505e-03,1.765344874002039433e-03,8.015846833586692810e-04,1.796491793356835842e-03,-4.491432569921016693e-03,-2.453726157546043396e-02,-5.120728164911270142e-02,-6.307939440011978149e-02,-5.087397620081901550e-02,-7.621824741363525391e-03,-1.425968389958143234e-02,-7.786501199007034302e-02,-2.265635728836059570e-01,-4.122589230537414551e-01,-4.733404219150543213e-01,-4.064350724220275879e-01,-3.532922863960266113e-01,-2.811082899570465088e-01,-1.877445280551910400e-01,-1.418692320585250854e-01,-8.052361011505126953e-02,-5.119080096483230591e-02,-2.780815400183200836e-02,-1.061773858964443207e-02,-2.585563110187649727e-03,8.393523283302783966e-03,1.250723283737897873e-02,3.833888564258813858e-03,-2.777713164687156677e-02,-7.323856651782989502e-02,-1.181788071990013123e-01,-1.285469233989715576e-01,-1.794304549694061279e-01,-2.168026417493820190e-01,-1.283237785100936890e-01,-1.613371521234512329e-01,-1.997145116329193115e-01,-1.981563866138458252e-01,-1.165352314710617065e-01,-4.445524141192436218e-02,4.286653362214565277e-03,1.915173605084419250e-03,-1.273640198633074760e-03,-2.203574776649475098e-02,-2.951919473707675934e-02,-4.721011593937873840e-02,-3.754658252000808716e-02,-3.491681069135665894e-02,-3.301509469747543335e-02,-1.993605867028236389e-02,-1.039913669228553772e-02,-3.893636865541338921e-03,-1.131054013967514038e-04,1.340660965070128441e-03,1.535164890810847282e-03,1.050071092322468758e-03,6.700657540932297707e-04,1.307965139858424664e-04,-3.197701298631727695e-04,-5.537041579373180866e-04,-9.090504609048366547e-04,-1.250899280421435833e-03,-1.052777981385588646e-03,-8.443553815595805645e-04,-8.796310285106301308e-04,-7.262615254148840904e-04,-5.238057929091155529e-04,-1.123325782828032970e-04,-1.459558116039261222e-04,-3.229876892874017358e-05,3.747014125110581517e-05,-5.929886247031390667e-04,-1.804172410629689693e-03
1.380931120365858078e-02,1.276992440223693848e+00,3.124330520629882812e+00,1.860516548156738281e+00,8.757231831550598145e-01,8.413646137341856956e-04,4.067568182945251465e-01,-9.334215894341468811e-03,1.207659989595413208e-01,4.227818455547094345e-03,-3.029624745249748230e-02,1.126668453216552734e-01,-9.138417989015579224e-02,1.119690537452697754e-01,2.225157022476196289e-01,2.444591820240020752e-01,2.495988607406616211e-01,1.728810966014862061e-01,8.980038762092590332e-02,6.158940121531486511e-02,3.450253605842590332e-02,2.263062074780464172e-02,7.464747875928878784e-03,-4.932892974466085434e-03,-1.382078044116497040e-02,-1.373555511236190796e-02,-8.686631917953491211e-03,-9.866819018498063087e-04,6.435762159526348114e-03,8.660754188895225525e-03,5.903583951294422150e-03,-4.786377830896526575e-04,-7.538930978626012802e-03,-1.105885021388530731e-02,-1.327852951362729073e-03,2.449049800634384155e-02,4.420262202620506287e-02,6.815306842327117920e-02,5.568660050630569458e-02,-1.034659799188375473e-02,2.763158082962036133e-02,1.261656731367111206e-01,4.993139207363128662e-01,5.231214165687561035e-01,6.814485192298889160e-01,6.366616487503051758e-01,4.049533307552337646e-01,2.067618668079376221e-01,1.180005446076393127e-01,1.665183007717132568e-01,1.192286759614944458e-01,2.178463339805603027e-02,-7.168730255216360092e-03,5.171197652816772461e-02,8.598472923040390015e-02,9.556072950363159180e-02,1.955292075872421265e-01,1.836125552654266357e-01,4.243820309638977051e-01,2.123213708400726318e-01,1.789250373840332031e-01,1.896746903657913208e-01,1.404176354408264160e-01,1.110180988907814026e-01,1.039819568395614624e-01,2.473178356885910034e-01,1.446419656276702881e-01,2.104017287492752075e-01,9.214292466640472412e-02,-1.409738510847091675e-02,-9.101217985153198242e-02,-4.376583546400070190e-02,3.323237597942352295e-02,3.261947333812713623e-01,6.192866563796997070e-01,6.605320572853088379e-01,4.058907926082611084e-01,2.094719856977462769e-01,1.419935375452041626e-01,8.630552142858505249e-02,4.192898422479629517e-02,5.542876198887825012e-02,1.202377025038003922e-02,-4.427374340593814850e-03,4.483370576053857803e-03,-2.417634677840396762e-04,5.373969208449125290e-03,-1.582801342010498047e-02,2.275875583291053772e-02,5.202592536807060242e-02,-1.176521368324756622e-02,1.703806221485137939e-02,1.164993923157453537e-02,1.253427704796195030e-03,2.250080928206443787e-03,1.087749697035178542e-04
1.857697032392024994e-02,8.382600545883178711e-02,1.573224186897277832e+00,2.472989559173583984e+00,1.265344023704528809e+00,1.211349517107009888e-01,1.955826878547668457e-01,5.714453384280204773e-02,8.555954694747924805e-02,1.533768922090530396e-01,7.575961202383041382e-02,-3.051250241696834564e-02,-1.090236082673072815e-01,-3.153477562591433525e-03,1.617778837680816650e-01,2.632822990417480469e-01,3.132712244987487793e-01,2.182422876358032227e-01,1.375291645526885986e-01,6.091757491230964661e-02,1.419775746762752533e-02,-2.639391459524631500e-02,-6.540526449680328369e-02,-1.056969761848449707e-01,-1.074717864394187927e-01,-9.974409639835357666e-02,-3.950694948434829712e-02,3.296659141778945923e-02,9.601791203022003174e-02,1.148578077554702759e-01,1.120055168867111206e-01,7.322931289672851562e-02,2.076558396220207214e-02,1.122758537530899048e-02,5.343293026089668274e-02,1.184374094009399414e-01,1.352217793464660645e-01,1.016653031110763550e-01,1.145864836871623993e-02,3.458208590745925903e-02,1.601242125034332275e-01,3.644502162933349609e-01,4.980649054050445557e-01,6.156026721000671387e-01,5.127324461936950684e-01,2.827259898185729980e-01,1.639383584260940552e-01,4.665650799870491028e-02,-3.788031637668609619e-02,-4.215360805392265320e-02,1.665174029767513275e-02,2.446434460580348969e-02,8.870318531990051270e-03,3.967133350670337677e-03,1.910141296684741974e-02,9.443125873804092407e-02,1.414898633956909180e-01,9.247998893260955811e-02,1.176196336746215820e-01,1.028756126761436462e-01,5.335539579391479492e-02,5.689372867345809937e-02,7.911452651023864746e-02,8.964322507381439209e-02,5.463521927595138550e-02,4.044491797685623169e-02,1.131842751055955887e-02,-2.739124558866024017e-02,-6.569048017263412476e-02,-9.050340950489044189e-02,-6.212375685572624207e-02,-4.613568261265754700e-02,1.403496228158473969e-02,1.463299542665481567e-01,3.459316194057464600e-01,5.162041187286376953e-01,4.953115582466125488e-01,2.699368000030517578e-01,1.914633214473724365e-01,1.340543180704116821e-01,5.058775097131729126e-02,2.877473831176757812e-02,3.340818732976913452e-02,5.410308763384819031e-02,2.238779887557029724e-02,5.867726728320121765e-02,2.709591947495937347e-02,9.825716726481914520e-03,1.095968531444668770e-03,-4.138984717428684235e-03,-3.088299557566642761e-02,1.477761380374431610e-02,-1.468314975500106812e-02,-1.410742849111557007e-02,1.382081885822117329e-03,2.725446783006191254e-02
2.826938033103942871e-02,2.498219907283782959e-01,1.184453010559082031e+00,2.544494867324829102e+00,1.500447869300842285e+00,1.067601889371871948e-01,2.198005467653274536e-01,4.311162829399108887e-01,7.378333061933517456e-02,-4.975369572639465332e-02,-1.869744509458541870e-01,-2.705137431621551514e-01,-4.808232933282852173e-02,1.926678419113159180e-02,1.147667616605758667e-01,5.939126759767532349e-02,6.949307024478912354e-02,2.038822323083877563e-02,-1.860948628745973110e-03,-9.753863327205181122e-03,-9.109467267990112305e-03,-3.574169473722577095e-03,2.029419410973787308e-04,4.238231107592582703e-03,6.561681628227233887e-03,8.374650031328201294e-03,9.695569053292274475e-03,8.486370556056499481e-03,5.389264319092035294e-03,1.338572241365909576e-03,-2.809397643432021141e-03,-6.457509938627481461e-03,-1.996874343603849411e-03,1.052283961325883865e-02,3.777036815881729126e-02,6.905739009380340576e-02,3.952908888459205627e-02,1.022623758763074875e-02,4.652782226912677288e-04,6.977517902851104736e-02,1.799969673156738281e-01,3.152518272399902344e-01,4.084890484809875488e-01,3.551325201988220215e-01,2.347449362277984619e-01,8.146011084318161011e-02,5.109981819987297058e-02,2.580578066408634186e-02,-1.112796179950237274e-02,-1.448383647948503494e-02,-1.508182007819414139e-02,-3.444154933094978333e-02,-4.668389260768890381e-02,-2.740112505853176117e-02,-5.854126997292041779e-03,2.383289858698844910e-02,2.925099059939384460e-02,3.459725528955459595e-02,4.445106163620948792e-02,5.658324435353279114e-02,1.350179016590118408e-01,1.308438926935195923e-01,1.075539961457252502e-01,1.180487424135208130e-01,8.605423569679260254e-02,8.045109361410140991e-02,6.647213548421859741e-02,7.264627516269683838e-02,-3.158841980621218681e-03,-4.180583357810974121e-02,-7.607927918434143066e-02,-3.694339841604232788e-02,3.184978617355227470e-03,1.898326575756072998e-01,4.886696338653564453e-01,4.967601299285888672e-01,3.111198544502258301e-01,2.193330824375152588e-01,1.146896332502365112e-01,4.402149468660354614e-02,2.692055143415927887e-02,3.138857937301509082e-05,1.173619180917739868e-02,8.257844485342502594e-03,5.112098995596170425e-03,-3.385531890671700239e-04,5.890482105314731598e-03,2.408516779541969299e-02,1.275575719773769379e-02,3.881836775690317154e-03,4.898549057543277740e-03,1.311224652454257011e-03,1.761392923071980476e-04,-2.870033786166459322e-04,-8.665869827382266521e-04,3.165570960845798254e-04
-8.074270188808441162e-02,-1.061021536588668823e-01,-8.161031454801559448e-02,8.599413931369781494e-02,6.596627235412597656e-01,1.215649724006652832e+00,1.114000320434570312e+00,4.103630185127258301e-01,-2.488344609737396240e-01,-3.198920488357543945e-01,-2.402869239449501038e-02,-6.154485978186130524e-03,1.843062937259674072e-01,2.245147675275802612e-01,3.911345079541206360e-02,-1.663150452077388763e-02,3.993523120880126953e-02,6.539556384086608887e-02,2.060637250542640686e-02,-3.857665462419390678e-03,3.415385261178016663e-02,9.457727521657943726e-02,1.227616816759109497e-01,1.181026473641395569e-01,8.754583448171615601e-02,6.068088859319686890e-02,1.819962263107299805e-02,-3.683664649724960327e-02,-8.414482325315475464e-02,-1.413419097661972046e-01,-1.647597253322601318e-01,-1.408253759145736694e-01,-9.857032448053359985e-02,4.904359113425016403e-03,1.375574767589569092e-01,2.248650044202804565e-01,2.953154146671295166e-01,2.558165192604064941e-01,1.530171930789947510e-01,7.077952474355697632e-02,7.503868546336889267e-03,-2.384445816278457642e-02,-3.076401911675930023e-02,-2.614932134747505188e-02,-1.571980491280555725e-02,-5.755301099270582199e-03,-9.017002885229885578e-04,1.234786235727369785e-03,1.780710881575942039e-03,3.325603203848004341e-03,6.231308914721012115e-03,6.582204252481460571e-03,5.776506848633289337e-03,3.430740907788276672e-03,2.463272772729396820e-03,2.064300514757633209e-02,5.053886678069829941e-03,2.975937351584434509e-02,1.611153036355972290e-01,1.688480824232101440e-01,1.233413666486740112e-01,1.657530367374420166e-01,1.443073153495788574e-01,9.295924752950668335e-02,1.167099103331565857e-01,1.529141962528228760e-01,1.240886822342872620e-01,8.971647918224334717e-02,9.273694455623626709e-02,1.000438183546066284e-01,1.121918186545372009e-01,1.455144584178924561e-01,1.357951313257217407e-01,9.353013336658477783e-02,8.413279801607131958e-02,9.278838336467742920e-02,7.947279512882232666e-02,5.639254301786422729e-02,3.367703408002853394e-02,3.028978779911994934e-02,7.517321407794952393e-02,1.433594673871994019e-01,1.999190449714660645e-01,2.447441518306732178e-01,1.918312907218933105e-01,8.626738935708999634e-02,5.195549875497817993e-02,6.818527728319168091e-02,7.838983833789825439e-02,9.091432392597198486e-02,1.222093850374221802e-01,9.355698525905609131e-02,2.388984523713588715e-02,-4.324878007173538208e-02,-1.215928569436073303e-01,-1.160603985190391541e-01
0.000000000000000000e+00,0.000000000000000000e+00,0.000000000000000000e+00,0.000000000000000000e+00,0.000000000000000000e+00,0.000000000000000000e+00,0.000000000000000000e+00,0.000000000000000000e+00,0.000000000000000000e+00,0.000000000000000000e+00,0.000000000000000000e+00,0.000000000000000000e+00,0.000000000000000000e+00,0.000000000000000000e+00,0.000000000000000000e+00,0.000000000000000000e+00,0.000000000000000000e+00,0.000000000000000000e+00,0.000000000000000000e+00,0.000000000000000000e+00,0.000000000000000000e+00,0.000000000000000000e+00,0.000000000000000000e+00,0.000000000000000000e+00,0.000000000000000000e+00,0.000000000000000000e+00,0.000000000000000000e+00,0.000000000000000000e+00,0.000000000000000000e+00,0.000000000000000000e+00,0.000000000000000000e+00,0.000000000000000000e+00,0.000000000000000000e+00,0.000000000000000000e+00,0.000000000000000000e+00,0.000000000000000000e+00,0.000000000000000000e+00,0.000000000000000000e+00,0.000000000000000000e+00,0.000000000000000000e+00,0.000000000000000000e+00,0.000000000000000000e+00,0.000000000000000000e+00,0.000000000000000000e+00,0.000000000000000000e+00,0.000000000000000000e+00,0.000000000000000000e+00,0.000000000000000000e+00,0.000000000000000000e+00,0.000000000000000000e+00,0.000000000000000000e+00,0.000000000000000000e+00,0.000000000000000000e+00,0.000000000000000000e+00,0.000000000000000000e+00,0.000000000000000000e+00,0.000000000000000000e+00,0.000000000000000000e+00,0.000000000000000000e+00,0.000000000000000000e+00,0.000000000000000000e+00,0.000000000000000000e+00,0.000000000000000000e+00,0.000000000000000000e+00,0.000000000000000000e+00,0.000000000000000000e+00,0.000000000000000000e+00,0.000000000000000000e+00,0.000000000000000000e+00,0.000000000000000000e+00,0.000000000000000000e+00,0.000000000000000000e+00,0.000000000000000000e+00,0.000000000000000000e+00,0.000000000000000000e+00,0.000000000000000000e+00,0.000000000000000000e+00,0.000000000000000000e+00,0.000000000000000000e+00,0.000000000000000000e+00,0.000000000000000000e+00,0.000000000000000000e+00,0.000000000000000000e+00,0.000000000000000000e+00,0.000000000000000000e+00,0.000000000000000000e+00,0.000000000000000000e+00,0.000000000000000000e+00,0.000000000000000000e+00,0.000000000000000000e+00,0.000000000000000000e+00,0.000000000000000000e+00,0.000000000000000000e+00,0.000000000000000000e+00,0.000000000000000000e+00,0.000000000000000000e+00
-1.684841364622116089e-01,6.068754941225051880e-02,-6.277249008417129517e-02,6.377094238996505737e-02,2.755330875515937805e-02,8.614582009613513947e-03,-1.736156642436981201e-01,-9.160597622394561768e-02,-2.712620198726654053e-01,-3.220012485980987549e-01,-7.196135818958282471e-02,-1.089174523949623108e-01,-2.649000287055969238e-02,2.042128238826990128e-03,2.147261425852775574e-02,2.084282413125038147e-02,1.703942567110061646e-02,1.108913496136665344e-02,3.048700047656893730e-03,-5.421395180746912956e-04,-2.993983449414372444e-03,-3.502582665532827377e-03,-3.117477521300315857e-03,-1.940136193297803402e-03,-5.795770557597279549e-04,8.501695701852440834e-04,4.782554751727730036e-04,-1.671224163146689534e-04,-4.310650750994682312e-03,-6.521605886518955231e-03,-1.898113079369068146e-02,-1.572171598672866821e-02,-1.275626383721828461e-02,2.977427502628415823e-04,-4.374658223241567612e-03,-1.856327988207340240e-02,-1.362631767988204956e-01,-1.200877055525779724e-01,-3.162338733673095703e-01,-6.924414634704589844e-02,-4.582083225250244141e-02,-1.018698364496231079e-01,-7.377807796001434326e-02,-6.648216396570205688e-02,-2.834150753915309906e-02,-6.174184009432792664e-02,-1.203789263963699341e-01,-8.339538425207138062e-02,-9.234096109867095947e-02,-8.476538211107254028e-02,-4.900317639112472534e-02,-3.296648710966110229e-02,-2.797167934477329254e-02,-7.136442698538303375e-03,-4.732183646410703659e-03,-3.913984447717666626e-02,-1.505105048418045044e-01,-2.626687884330749512e-01,-3.171741068363189697e-01,-7.293431460857391357e-02,5.756860133260488510e-03,3.178288787603378296e-02,5.572422593832015991e-02,4.490600898861885071e-02,-2.231845632195472717e-02,-1.850745975971221924e-01,-3.610514700412750244e-01,-4.630932211875915527e-01,-4.296344220638275146e-01,-1.929770708084106445e-01,-8.928368985652923584e-02,-4.663411900401115417e-02,-1.726116798818111420e-02,-1.345273293554782867e-02,-1.595932641066610813e-03,-1.276247166970279068e-05,-1.210510171949863434e-02,-1.369686704128980637e-02,-2.446287497878074646e-02,-4.389420151710510254e-02,-3.215990215539932251e-02,-2.289493381977081299e-02,2.230101078748703003e-02,3.883651643991470337e-02,7.259323447942733765e-02,6.313669681549072266e-02,6.702439486980438232e-02,1.107369884848594666e-01,4.008610248565673828e-01,7.340589761734008789e-01,2.631139516830444336e+00,1.572178959846496582e+00,-6.958838701248168945e-01,2.961907863616943359e+00,4.333508491516113281e+00,8.977044224739074707e-01
-4.188011288642883301e-01,-1.125516891479492188e+00,-1.839225172996520996e+00,-2.947589397430419922e+00,1.842815130949020386e-01,2.564532995223999023e+00,1.954135447740554810e-01,-1.948542237281799316e+00,-7.133740186691284180e-01,1.659652441740036011e-01,-5.082569122314453125e-01,-7.240836620330810547e-01,-7.897253334522247314e-02,-9.329711645841598511e-02,-1.591285765171051025e-01,-3.008086979389190674e-02,1.394817531108856201e-01,2.631155848503112793e-01,2.361749112606048584e-01,1.826796382665634155e-01,1.394560635089874268e-01,1.324034929275512695e-01,1.036914959549903870e-01,5.122778937220573425e-02,2.392900362610816956e-02,2.593109849840402603e-03,-8.639377541840076447e-03,-1.453504431992769241e-02,-1.393544208258390427e-02,-9.535196237266063690e-03,-4.668534733355045319e-03,3.282187681179493666e-04,2.708368934690952301e-03,3.916063811630010605e-03,3.971539903432130814e-03,2.177804475650191307e-03,2.256093721371144056e-04,-1.836385345086455345e-03,-3.156708553433418274e-03,-1.973746577277779579e-03,-7.960142684169113636e-04,4.413119168020784855e-04,1.188404276035726070e-03,1.827971776947379112e-03,3.547359257936477661e-03,5.147016607224941254e-03,1.433796132914721966e-03,-2.483285963535308838e-03,2.090390305966138840e-03,-1.094592153094708920e-03,7.862334139645099640e-03,9.482611715793609619e-02,1.836534440517425537e-01,1.243615373969078064e-01,6.871564686298370361e-02,5.687586590647697449e-02,4.231863468885421753e-02,4.951971769332885742e-02,6.154963374137878418e-02,5.312043428421020508e-02,5.760833621025085449e-02,1.903847604990005493e-02,9.549678070470690727e-04,6.844595773145556450e-04,-1.553797163069248199e-02,-1.285187341272830963e-02,-1.692830398678779602e-02,-1.350662671029567719e-02,-3.816719353199005127e-02,-6.632952392101287842e-02,-2.909885905683040619e-02,-2.073289360851049423e-03,5.620775371789932251e-02,1.337487846612930298e-01,2.292058914899826050e-01,2.576947510242462158e-01,1.653600931167602539e-01,9.579609334468841553e-02,-2.730178460478782654e-02,-7.708249986171722412e-02,-6.340851634740829468e-02,-3.107943572103977203e-02,4.361596889793872833e-03,2.210362255573272705e-02,1.498612482100725174e-02,1.463191467337310314e-03,8.358695544302463531e-03,4.253127798438072205e-02,3.126809000968933105e-02,2.531920000910758972e-02,1.809635199606418610e-02,-4.842132795602083206e-03,1.171719096601009369e-02,-5.886780563741922379e-03,-2.105829864740371704e-02,-4.271330311894416809e-03
9.579630196094512939e-02,4.296713769435882568e-01,8.475245237350463867e-01,4.434189796447753906e-01,1.628924161195755005e-02,1.407180279493331909e-01,2.009859085083007812e-01,-3.662205766886472702e-03,-6.157001107931137085e-02,-7.029759138822555542e-02,-1.021224707365036011e-01,-4.933234304189682007e-02,8.307113312184810638e-03,9.785977005958557129e-02,1.262993663549423218e-01,1.198103055357933044e-01,1.025634780526161194e-01,5.897657200694084167e-02,2.592851221561431885e-02,2.216707449406385422e-03,-1.174212060868740082e-02,-1.506214309483766556e-02,-1.120818406343460083e-02,-6.691401358693838120e-03,-2.588568720966577530e-03,-1.285013968299608678e-05,1.762897940352559090e-03,1.899124705232679844e-03,7.102565723471343517e-04,-5.443096742965281010e-04,-1.702379435300827026e-03,-2.396232448518276215e-03,-1.383664086461067200e-03,2.300975378602743149e-03,1.161800697445869446e-02,2.048676833510398865e-02,1.077575236558914185e-02,8.946751244366168976e-03,-9.800645057111978531e-04,3.754781931638717651e-02,5.286521837115287781e-02,9.980546683073043823e-02,1.589507758617401123e-01,1.023437231779098511e-01,1.286905556917190552e-01,1.127810031175613403e-01,3.326103463768959045e-02,1.600643992424011230e-02,4.093051538802683353e-04,-6.924102490302175283e-05,-8.007375523447990417e-03,-1.140193548053503036e-02,-9.079450741410255432e-03,-1.365991868078708649e-02,-1.142263412475585938e-02,-7.708598859608173370e-03,-4.082349129021167755e-03,-3.462074673734605312e-04,5.717428401112556458e-03,1.366648636758327484e-02,2.934804186224937439e-02,5.400430038571357727e-02,5.158413574099540710e-02,2.122264727950096130e-02,3.578670322895050049e-02,2.195822261273860931e-02,4.268556367605924606e-03,-4.701301455497741699e-03,-1.692140288650989532e-02,-2.660831809043884277e-02,-2.793633937835693359e-02,-6.250701844692230225e-03,2.431467548012733459e-02,7.381784170866012573e-02,8.579178154468536377e-02,1.267398595809936523e-01,8.486665040254592896e-02,7.208355516195297241e-02,8.653396368026733398e-02,4.056664556264877319e-02,4.567869380116462708e-02,2.271572872996330261e-02,1.957508362829685211e-02,1.818290352821350098e-02,2.298433333635330200e-02,4.530420899391174316e-02,7.883282378315925598e-03,-3.933755680918693542e-03,1.509766327217221260e-03,1.727846218273043633e-03,-1.864667050540447235e-03,-5.088043399155139923e-03,1.330234855413436890e-02,-8.559925481677055359e-03,-1.377038471400737762e-02,8.633469115011394024e-04
4.519195556640625000e-01,1.017062664031982422e+00,7.020005583763122559e-01,5.170552134513854980e-01,3.641570359468460083e-02,-7.127346470952033997e-04,1.603323221206665039e-02,8.228938281536102295e-02,7.132581621408462524e-02,2.571000531315803528e-02,-2.285549044609069824e-02,-1.957741333171725273e-03,2.345346845686435699e-02,1.856863871216773987e-02,3.401973750442266464e-03,-5.172932054847478867e-03,8.935729973018169403e-03,3.392211720347404480e-02,4.285742342472076416e-02,3.990217298269271851e-02,1.918560452759265900e-02,-5.983826704323291779e-03,-2.336643636226654053e-02,-2.937887981534004211e-02,-1.674922555685043335e-02,6.263750605285167694e-03,2.875432372093200684e-02,4.211052134633064270e-02,4.001910984516143799e-02,3.047877550125122070e-02,1.349747180938720703e-02,4.557810723781585693e-03,1.033046655356884003e-02,3.082424961030483246e-02,6.573303043842315674e-02,5.642101913690567017e-02,2.360128238797187805e-02,-2.419682452455163002e-03,1.279832608997821808e-02,8.792842924594879150e-02,1.617313921451568604e-01,2.002215385437011719e-01,2.170751541852951050e-01,1.559699028730392456e-01,8.248411118984222412e-02,3.347081691026687622e-02,1.101264450699090958e-02,-6.089684553444385529e-03,-1.834777370095252991e-02,-2.979278936982154846e-02,-3.334426879882812500e-02,-3.189163655042648315e-02,-2.498155832290649414e-02,-2.374630421400070190e-02,-1.767360046505928040e-02,-1.684912294149398804e-02,-1.311833411455154419e-02,-8.940910920500755310e-03,-1.298837363719940186e-03,-2.614423574414104223e-04,8.884549024514853954e-04,1.094429171644151211e-03,-4.625508096069097519e-03,-6.796666886657476425e-03,-7.499166764318943024e-03,-9.981890209019184113e-03,-2.008995786309242249e-02,-3.220519050955772400e-02,-5.113977193832397461e-02,-5.742590501904487610e-02,-5.815987661480903625e-02,-3.854500129818916321e-02,-1.712694205343723297e-02,3.607582300901412964e-02,1.007008701562881470e-01,1.707529574632644653e-01,1.330077350139617920e-01,6.973443180322647095e-02,5.495331808924674988e-02,3.633172065019607544e-02,9.675024077296257019e-03,-1.803264254704117775e-03,-9.553458658047020435e-04,6.481337361037731171e-03,1.527923624962568283e-02,3.003557398915290833e-02,5.309110879898071289e-02,3.681855648756027222e-02,3.773529082536697388e-02,2.847298420965671539e-02,2.293197810649871826e-02,1.735098287463188171e-02,7.751784287393093109e-03,-1.975472550839185715e-03,-8.992381393909454346e-03,-2.305129915475845337e-02
2.110058069229125977e+00,2.585485458374023438e+00,2.324128389358520508e+00,1.252333402633666992e+00,-1.028457880020141602e+00,-1.392163634300231934e+00,-1.694203376770019531e+00,-4.218100011348724365e-01,8.131242990493774414e-01,2.059530973434448242e+00,2.338409423828125000e+00,2.330264329910278320e+00,1.907417654991149902e+00,1.449550271034240723e+00,8.906250000000000000e-01,4.076205193996429443e-01,8.322098106145858765e-02,-1.294622719287872314e-01,-8.933714777231216431e-02,-5.276600364595651627e-03,-4.815722815692424774e-03,-1.840529888868331909e-01,-3.296733796596527100e-01,-4.698111116886138916e-01,-4.192914068698883057e-01,-2.697931230068206787e-01,-9.944293648004531860e-02,-2.642038837075233459e-02,-8.208291605114936829e-03,-2.057475224137306213e-02,-6.576602347195148468e-03,8.854530751705169678e-03,1.733671873807907104e-02,1.333251874893903732e-02,3.316394519060850143e-03,-7.296013645827770233e-03,-9.945365600287914276e-03,-1.902639493346214294e-02,-3.375469893217086792e-02,-2.993187680840492249e-02,-3.061497211456298828e-02,-2.272960729897022247e-02,-1.602529361844062805e-02,-2.091662026941776276e-02,-2.191398106515407562e-02,-2.906478010118007660e-02,-3.779680281877517700e-02,-3.960423171520233154e-02,-5.151921510696411133e-02,-3.759995102882385254e-02,-3.440784290432929993e-02,-2.686750516295433044e-02,-2.427441813051700592e-02,-4.212549701333045959e-02,-3.876666724681854248e-02,-3.093892335891723633e-02,-4.691212624311447144e-02,-4.515369981527328491e-02,-4.810868203639984131e-02,-5.051847547292709351e-02,-2.772975899279117584e-02,-3.173432499170303345e-02,-4.054281860589981079e-02,-3.675029799342155457e-02,-6.539040058851242065e-02,-2.050375193357467651e-02,-4.149156808853149414e-02,-3.226109594106674194e-02,-1.701149716973304749e-02,-3.662366047501564026e-02,-1.810202375054359436e-02,-2.783334255218505859e-02,-2.996338903903961182e-02,-2.915878221392631531e-02,-4.122620448470115662e-02,-2.005021087825298309e-02,-1.328295446000993252e-03,2.109839208424091339e-02,2.007683180272579193e-02,2.157839760184288025e-02,-8.256686851382255554e-03,-6.037735939025878906e-02,-2.130166739225387573e-01,-2.417343109846115112e-01,-2.142626047134399414e-01,-1.096273064613342285e-01,-1.678583398461341858e-02,-5.921380361542105675e-04,5.243712104856967926e-03,4.198455717414617538e-03,-2.470683284627739340e-05,1.021695882081985474e-02,-7.333559449762105942e-03,1.253878790885210037e-02,3.094819840043783188e-03,1.215253025293350220e-03
-9.466620534658432007e-02,-2.039071619510650635e-01,1.979739218950271606e-01,1.536232709884643555e+00,2.988880157470703125e+00,1.977354645729064941e+00,1.199904456734657288e-01,-5.897464752197265625e-01,-1.236787885427474976e-01,2.406198903918266296e-02,2.070195972919464111e-01,5.601616576313972473e-02,-2.848949097096920013e-02,6.478615850210189819e-02,1.434632577002048492e-02,-1.036160509102046490e-03,-1.263978308998048306e-03,2.813664078712463379e-02,1.381485164165496826e-01,1.337521225214004517e-01,1.096388101577758789e-01,1.009399890899658203e-01,8.390308916568756104e-02,5.246698856353759766e-02,2.263093832880258560e-03,-2.545762620866298676e-02,-3.942387551069259644e-02,-4.922768101096153259e-02,-3.673397377133369446e-02,-6.679977290332317352e-03,3.071917593479156494e-02,5.385645478963851929e-02,6.519328057765960693e-02,6.451791524887084961e-02,4.673028364777565002e-02,2.456592209637165070e-02,8.480243384838104248e-03,-5.083998548798263073e-04,-3.575600683689117432e-03,-2.604722743853926659e-03,-6.389777990989387035e-04,9.614033624529838562e-04,2.142199780791997910e-03,2.581051317974925041e-03,2.038605744019150734e-03,1.502588740549981594e-03,1.281485194340348244e-03,2.189287682995200157e-03,3.996547311544418335e-03,4.464917816221714020e-03,1.122526475228369236e-03,6.728232256136834621e-04,-2.245767507702112198e-03,1.382305938750505447e-02,3.607492521405220032e-02,2.655611373484134674e-02,4.248342663049697876e-02,7.994173467159271240e-02,9.768579900264739990e-02,9.927436709403991699e-02,1.239203214645385742e-01,1.755945831537246704e-01,1.574925631284713745e-01,7.438057661056518555e-02,5.047774314880371094e-02,9.847409278154373169e-02,1.428831517696380615e-01,1.047865599393844604e-01,8.672205358743667603e-02,1.164762228727340698e-01,1.191264241933822632e-01,1.058648452162742615e-01,1.248382702469825745e-01,1.442398130893707275e-01,1.704872548580169678e-01,1.996011435985565186e-01,1.876872479915618896e-01,1.602720767259597778e-01,1.465046554803848267e-01,1.005321741104125977e-01,9.937838464975357056e-02,1.478462666273117065e-01,1.435205638408660889e-01,9.052702039480209351e-02,8.201333135366439819e-02,8.135747164487838745e-02,3.310060501098632812e-02,1.464153546839952469e-02,2.171403169631958008e-02,2.633511461317539215e-02,2.038710191845893860e-02,1.821541227400302887e-02,-8.683115011081099510e-04,-4.567582160234451294e-02,-9.046295285224914551e-02,-8.098945766687393188e-02
9.397916495800018311e-02,6.812859773635864258e-01,2.337741374969482422e+00,3.552588224411010742e+00,1.670480012893676758e+00,-5.806972272694110870e-03,5.220958590507507324e-01,-2.275535650551319122e-02,1.605300158262252808e-01,4.305529594421386719e-01,2.374472320079803467e-01,1.679111421108245850e-01,3.451506197452545166e-01,-1.684476286172866821e-01,1.240069232881069183e-02,1.252176016569137573e-01,3.147042393684387207e-01,3.362668454647064209e-01,3.530505001544952393e-01,2.611308693885803223e-01,1.308172643184661865e-01,1.022531166672706604e-01,3.706444799900054932e-02,-1.364786643534898758e-02,-3.641650080680847168e-02,-3.501179814338684082e-02,-2.945066615939140320e-02,-1.045774016529321671e-02,7.404087577015161514e-03,1.765998266637325287e-02,1.563122682273387909e-02,9.716541506350040436e-03,-1.788683817721903324e-03,-5.875718779861927032e-03,5.344888777472078800e-04,2.715007588267326355e-02,5.268570035696029663e-02,1.113451570272445679e-01,6.013553589582443237e-02,-4.973165690898895264e-03,5.039745010435581207e-03,1.392637193202972412e-01,3.739030361175537109e-01,4.892708659172058105e-01,5.856404304504394531e-01,3.820083439350128174e-01,2.788323462009429932e-01,1.199744790792465210e-01,1.748798228800296783e-02,2.773159369826316833e-02,-1.005532406270503998e-02,-3.316216543316841125e-02,-3.722114488482475281e-02,-1.966676488518714905e-02,1.148316543549299240e-02,5.018196254968643188e-02,5.352444201707839966e-02,5.749579519033432007e-02,1.040490120649337769e-01,1.206620484590530396e-01,1.501388996839523315e-01,1.968075186014175415e-01,9.389974176883697510e-02,7.708384841680526733e-02,1.803936958312988281e-01,1.193905323743820190e-01,9.720133244991302490e-02,1.332435607910156250e-01,5.086635425686836243e-02,1.328109204769134521e-02,-4.611129686236381531e-02,-3.416382893919944763e-02,7.316230796277523041e-03,1.788375228643417358e-01,7.157805562019348145e-01,6.430286169052124023e-01,4.686803817749023438e-01,3.446968197822570801e-01,1.216998323798179626e-01,7.429081201553344727e-02,1.370542962104082108e-02,2.436638437211513519e-02,-1.784641790436580777e-05,2.309199795126914978e-02,2.548702992498874664e-02,8.969622664153575897e-03,1.075493730604648590e-02,4.747502878308296204e-02,1.738384738564491272e-02,1.851877756416797638e-02,-3.380818990990519524e-03,1.945394673384726048e-03,2.837120555341243744e-03,-1.191820047097280622e-04,-1.051664003171026707e-03,-1.043893629685044289e-03
