4.235096246597990118e-03,6.731460086518660166e-03,6.731460086518660166e-03,6.731460086518660166e-03,6.731460086518660166e-03,2.496363839920670482e-03,-0.000000000000000000e+00,-0.000000000000000000e+00,-0.000000000000000000e+00,-0.000000000000000000e+00,3.380553167222805164e-03,6.398791476118541321e-03,6.398791476118541321e-03,6.398791476118541321e-03,6.398791476118541321e-03,6.398791476118541321e-03,-0.000000000000000000e+00,-0.000000000000000000e+00,-0.000000000000000000e+00,-0.000000000000000000e+00,8.530264235762438293e-03,8.530264235762438293e-03,8.530264235762438293e-03,8.530264235762438293e-03,1.443926952382549450e-02,1.443926952382549450e-02,1.958909502265878191e-02,2.674582073453259795e-02,3.012637390175539748e-02,3.667255174946474489e-02,6.171242417142788761e-02,7.826870752010690879e-02,8.971963987633393978e-02,8.971963987633393978e-02,1.128893091365542473e-01,1.162598161756579901e-01,1.166879224218002192e-01,1.066413909166372964e-01,8.996727445252507283e-02,7.623199404856298433e-02,3.384864884381780931e-02,3.744411795609933757e-02,4.566852095825933017e-02,4.566852095825933017e-02,4.867615986698164976e-02,3.434398226105748325e-02,3.434398226105748325e-02,3.145417646776836607e-02,8.063849739800919847e-03,-0.000000000000000000e+00
-3.149348794225702297e-02,-3.721648396653055857e-02,-4.355898011968269146e-02,-5.228959869939493743e-02,-6.732130375014352963e-02,-9.498072279090784276e-02,-1.331627488824955186e-01,-1.502000390938535990e-01,-1.735688724522361503e-01,-1.891893137382051893e-01,-2.158199955298558126e-01,-2.418780321037684866e-01,-2.479061124928750304e-01,-2.412781904085347373e-01,-2.263753078436029631e-01,-2.141008354827898530e-01,-2.205788416344940939e-01,-1.820403260824521585e-01,-2.159310214557285945e-01,-2.028107614850097051e-01,-1.971194627144041422e-01,-1.990927262538297604e-01,-1.748409576267119792e-01,-1.439768962504611172e-01,-1.521898585976419471e-01,-1.521898585976419471e-01,-1.534879895237283853e-01,-2.063121979541596152e-01,-2.445314305758503892e-01,-3.120604048093580940e-01,-3.564648740713735053e-01,-4.015233235870354078e-01,-3.905213175584181240e-01,-3.998833011239452673e-01,-3.679274172700036649e-01,-3.491906979116974896e-01,-3.154438342831925035e-01,-2.465902362905905143e-01,-2.230877575734999951e-01,-1.975289520946063027e-01,-2.005463436470743821e-01,-2.063266190078397178e-01,-1.909739910693585285e-01,-1.925694334862592394e-01,-1.813281874990409770e-01,-1.841590766759144404e-01,-1.797457531991591695e-01,-1.498793436735300078e-01,-1.109411171733709206e-01,-7.690117330776784221e-02
-0.000000000000000000e+00,1.245177485940289659e-02,1.245177485940289659e-02,1.245177485940289659e-02,1.245177485940289659e-02,1.634537853662259427e-02,1.634537853662259427e-02,1.634537853662259427e-02,3.893603677219695941e-03,3.893603677219695941e-03,3.893603677219695941e-03,1.923712669998408481e-04,1.923712669998408481e-04,1.923712669998408481e-04,1.923712669998408481e-04,1.923712669998408481e-04,1.923712669998408481e-04,-0.000000000000000000e+00,2.800335309418849634e-03,2.800335309418849634e-03,4.309454463866717495e-03,4.309454463866717495e-03,4.309454463866717495e-03,2.156185205192480067e-02,5.867379808674082903e-02,6.835646006954167186e-02,9.758181175104124749e-02,1.047385374629150601e-01,1.228379399913879649e-01,1.228379399913879649e-01,1.211736974314408521e-01,8.088531375672362855e-02,6.020775522631049981e-02,5.977964898016826373e-02,5.011891301616202415e-02,4.022784926858424120e-02,3.561006013549216503e-02,5.169847766903707190e-03,1.139074860290109452e-02,1.181885484904333060e-02,1.181885484904333060e-02,1.181885484904333060e-02,9.018519539624481399e-03,7.354276979677366877e-03,-0.000000000000000000e+00,-0.000000000000000000e+00,-0.000000000000000000e+00,-0.000000000000000000e+00,-0.000000000000000000e+00,-0.000000000000000000e+00
1.070786034826220687e-02,1.594781894376409367e-02,1.594781894376409367e-02,1.594781894376409367e-02,1.594781894376409367e-02,1.095509126392275184e-02,1.608567084678305366e-03,1.608567084678305366e-03,-3.196322917023235698e-05,-3.196322917023235698e-05,-3.196322917023235698e-05,6.770020074904280552e-03,1.231817870209979057e-02,1.231817870209979057e-02,1.231817870209979057e-02,1.231817870209979057e-02,4.720546702639460274e-02,6.087194458178449979e-02,6.087194458178449979e-02,8.065525275418974904e-02,8.367349106308549778e-02,8.367349106308549778e-02,5.959521502955304750e-02,5.959521502955304750e-02,3.912675417008863038e-02,3.610851586119289552e-02,8.383626084769259246e-03,-0.000000000000000000e+00,-0.000000000000000000e+00,1.298130926086411537e-03,1.033418964486908925e-02,3.420992191328552090e-02,4.555216868218645021e-02,4.944362516498607141e-02,4.944362516498607141e-02,4.814549423889966095e-02,4.231482243605574900e-02,3.312400390213673246e-02,1.224375426269614167e-02,8.352297779896515270e-03,8.352297779896515270e-03,8.352297779896515270e-03,1.133989890626145927e-02,1.974232776363882280e-02,2.716981939774319732e-02,3.179341879149871763e-02,3.179341879149871763e-02,3.179341879149871763e-02,2.880581766513377190e-02,2.040338880775640837e-02
-0.000000000000000000e+00,-0.000000000000000000e+00,-0.000000000000000000e+00,-0.000000000000000000e+00,-0.000000000000000000e+00,-0.000000000000000000e+00,-0.000000000000000000e+00,-0.000000000000000000e+00,-0.000000000000000000e+00,-0.000000000000000000e+00,-0.000000000000000000e+00,-0.000000000000000000e+00,-0.000000000000000000e+00,-0.000000000000000000e+00,-0.000000000000000000e+00,-0.000000000000000000e+00,-0.000000000000000000e+00,-0.000000000000000000e+00,-0.000000000000000000e+00,-0.000000000000000000e+00,-0.000000000000000000e+00,-0.000000000000000000e+00,-0.000000000000000000e+00,-0.000000000000000000e+00,-0.000000000000000000e+00,2.496363839920670482e-03,2.496363839920670482e-03,2.496363839920670482e-03,2.688735106920511330e-03,2.688735106920511330e-03,1.923712669998408481e-04,5.793041885837540116e-03,8.424509549327930530e-03,1.092087338924860145e-02,1.072850212224876233e-02,1.072850212224876233e-02,1.072850212224876233e-02,5.127831503411062197e-03,-0.000000000000000000e+00,5.547096006587652790e-03,1.777886541251087749e-02,1.777886541251087749e-02,1.777886541251087749e-02,1.777886541251087749e-02,1.777886541251087749e-02,1.378952651722692088e-02,1.557757111303693801e-03,1.557757111303693801e-03,1.557757111303693801e-03,1.557757111303693801e-03
2.496363839920670482e-03,2.496363839920670482e-03,2.496363839920670482e-03,2.496363839920670482e-03,2.496363839920670482e-03,-0.000000000000000000e+00,1.746652865167295891e-03,5.573323686461377144e-03,5.573323686461377144e-03,5.573323686461377144e-03,5.573323686461377144e-03,5.573323686461377144e-03,5.573323686461377144e-03,-0.000000000000000000e+00,-0.000000000000000000e+00,-0.000000000000000000e+00,-0.000000000000000000e+00,-0.000000000000000000e+00,-0.000000000000000000e+00,1.553455371247526584e-02,4.805212921904554457e-02,5.135867261325155475e-02,8.982988895485619074e-02,1.080383414183690161e-01,1.235843795617812962e-01,1.249874304005340053e-01,1.313346580503727268e-01,1.295880051852054404e-01,8.418628034000788518e-02,6.479520265909802235e-02,9.325008153055083793e-02,1.231288994370123291e-01,1.579212017122144374e-01,1.440407436950750242e-01,1.440407436950750242e-01,1.386689207059267903e-01,1.352984136668230475e-01,1.232381826296049393e-01,7.461700705624095542e-02,6.655315731644002863e-02,3.931512903345096843e-02,2.182133306612568657e-02,2.182133306612568657e-02,2.182133306612568657e-02,2.182133306612568657e-02,9.145334184512136227e-03,-0.000000000000000000e+00,-0.000000000000000000e+00,-0.000000000000000000e+00,-0.000000000000000000e+00
-3.639599924419339994e-02,-4.601197241507408442e-02,-6.267391113188855445e-02,-7.482295198258734348e-02,-1.126341068058060307e-01,-1.513444659987289442e-01,-1.738550453543278862e-01,-2.551358150848645479e-01,-2.925475243880542031e-01,-2.962572748881010520e-01,-3.129228905801784699e-01,-3.089592026028158411e-01,-2.540163475194915366e-01,-2.400185132225454432e-01,-2.239729501418976365e-01,-2.332303796048425526e-01,-2.107202625977827870e-01,-2.067043254373846783e-01,-2.286715083008700189e-01,-2.263214010139206478e-01,-2.314364202057651032e-01,-2.315795441988066361e-01,-1.778371106720154637e-01,-1.716382304330633657e-01,-1.716382304330633657e-01,-1.817798899347317920e-01,-1.760379904215418900e-01,-2.387755644449256476e-01,-2.456675885415828264e-01,-2.601661208756239074e-01,-2.649394654959082995e-01,-2.697231261885862930e-01,-2.735762031188583854e-01,-2.798910832421777073e-01,-2.512705328760310164e-01,-2.595165366611509872e-01,-2.649104246882497127e-01,-2.491501590199813043e-01,-2.524451572727974269e-01,-2.544249167537381284e-01,-2.566398015660987797e-01,-2.431487037602952095e-01,-2.480595916447101701e-01,-2.271094617247529091e-01,-2.101881192772342699e-01,-1.871522855932418183e-01,-1.574459355968218233e-01,-1.224944263612932627e-01,-9.692204546947527644e-02,-4.688571896346495349e-02
4.685085371453994590e-02,6.954293589932591946e-02,8.278130720857357350e-02,1.097553836673853811e-01,1.255289287741531978e-01,1.363716267483068567e-01,1.245990380271227577e-01,1.106548493682776996e-01,9.118849213326106484e-02,6.438202099265533107e-02,4.860847588588751433e-02,4.440707084802612836e-02,4.459944211502596401e-02,4.459944211502596401e-02,4.459944211502596401e-02,3.094824667743229646e-02,3.344461051735296564e-02,3.344461051735296564e-02,2.148282393610699559e-02,2.148282393610699559e-02,9.000736476312562809e-03,9.985718042999653515e-03,9.985718042999653515e-03,1.210675154847277481e-02,2.523276533678847980e-02,5.268939910079471767e-02,6.489017506432152860e-02,9.209929735999161649e-02,1.005379639244582818e-01,1.005379639244582818e-01,9.841693041898516570e-02,1.014574825433960797e-01,8.744917512066534282e-02,6.230975532667801242e-02,6.230975532667801242e-02,6.414424254203932030e-02,4.255733600718671072e-02,1.335879367102502623e-02,1.014165950166841593e-02,1.014165950166841593e-02,1.014165950166841593e-02,5.600670618837699268e-03,5.600670618837699268e-03,1.381216712717923435e-02,1.643214642493017949e-02,1.643214642493017949e-02,1.643214642493017949e-02,1.083147580609247936e-02,8.335111966171808440e-03,-0.000000000000000000e+00
-0.000000000000000000e+00,-0.000000000000000000e+00,-0.000000000000000000e+00,-0.000000000000000000e+00,-0.000000000000000000e+00,-0.000000000000000000e+00,6.357449166413839566e-03,2.856765721293737237e-02,5.619145855862255762e-02,5.619145855862255762e-02,5.868782239854322680e-02,6.428676867439336862e-02,8.402742509344354738e-02,7.894580091230038454e-02,5.958402013146557596e-02,3.620220232837868812e-02,3.620220232837868812e-02,3.620220232837868812e-02,4.180287294721639346e-02,4.180287294721639346e-02,5.020530180459375352e-02,3.991625322156348854e-02,3.991625322156348854e-02,3.194501211675944419e-02,1.327054386056872315e-02,1.327054386056872315e-02,1.452885096719759919e-02,1.996646036979368016e-02,3.400880876206241465e-02,3.400880876206241465e-02,3.400880876206241465e-02,3.400880876206241465e-02,3.436719027148729677e-02,3.959967608164460112e-02,3.621192780966911440e-02,3.019439435708595743e-02,3.912855279419600457e-02,6.191355114801573578e-02,6.846432413732914113e-02,7.648439229168443876e-02,7.648439229168443876e-02,9.294671071856473732e-02,6.747384004926529344e-02,6.358238356646565836e-02,5.968877988924596589e-02,5.288679658517145277e-02,4.228766142336471551e-02,3.199468934301620548e-02,8.020068154355283752e-03,-0.000000000000000000e+00
-5.238233343003907694e-02,-7.083948300178255497e-02,-1.187678437768417139e-01,-1.330292289941855111e-01,-1.724708364352713630e-01,-1.941164933059058573e-01,-2.005359159462326568e-01,-1.976820105998015609e-01,-2.045829638381359006e-01,-1.879679227168039035e-01,-1.628344383087327318e-01,-1.766760628346503159e-01,-1.214312721556366492e-01,-1.691861735490823304e-01,-2.531570466086698334e-01,-2.687262504913961458e-01,-2.771284785281164509e-01,-2.796367887204637137e-01,-2.897453083450250988e-01,-2.839416307366871006e-01,-2.502486579648899867e-01,-1.948327483499061319e-01,-1.379549342055221006e-01,-1.091885715505744314e-01,-1.154145904263893796e-01,-1.238292981910423807e-01,-1.190735396403890811e-01,-1.035635133346994863e-01,-5.172566886082766158e-02,-7.848230468844827334e-02,-1.059057178145256795e-01,-1.802431372781400365e-01,-2.318008257816142614e-01,-2.703613225124970043e-01,-2.726266666684254991e-01,-2.570973591580353323e-01,-2.578736843545805235e-01,-2.227257686383928292e-01,-1.992844160006242982e-01,-1.848698209385075675e-01,-1.339212580721017565e-01,-1.095012685639693839e-01,-9.919234518292029124e-02,-8.400999636498247825e-02,-5.716067605882158009e-02,-3.758591142933355445e-02,-3.254445411490713286e-02,-2.670271611107750617e-02,-1.878962736630889960e-02,-1.704297450114160284e-02
-7.755733357598409115e-03,-3.468517910789438441e-02,-6.042394253345331756e-02,-1.067912322214382009e-01,-1.327978293475179095e-01,-1.578945291556105301e-01,-1.806136497518806283e-01,-1.913646590995140007e-01,-2.239765042229504288e-01,-2.356826359684004724e-01,-2.350215551771019373e-01,-2.367506198077070356e-01,-1.893500898119806208e-01,-1.838360695874025064e-01,-1.685618293546733149e-01,-1.727068277654448258e-01,-2.078184986974538351e-01,-2.071608007181861555e-01,-2.226705212775125231e-01,-2.257942140637673178e-01,-2.536136022719917560e-01,-2.586240609669968604e-01,-2.101832998223511217e-01,-1.785528687938897630e-01,-1.785528687938897630e-01,-1.785528687938897630e-01,-1.801568545406303512e-01,-2.311941327086773912e-01,-2.533350596830675205e-01,-2.322485400949530210e-01,-2.344035414375610915e-01,-2.576864872770531778e-01,-2.676521649934480163e-01,-2.816606694674874678e-01,-2.684352900786292073e-01,-3.123311186752828483e-01,-3.162058649014639067e-01,-3.390326006989548557e-01,-3.217960883648481318e-01,-3.138226548493554535e-01,-3.045028932677358302e-01,-2.953010409875740372e-01,-2.573260898986725054e-01,-1.855185274447375132e-01,-1.352047117090112716e-01,-1.202380994467936864e-01,-9.358380673625180113e-02,-8.124345302747643105e-02,-5.547154371649860860e-02,-3.412029262654680400e-02
2.073855494427429003e-02,2.395568911363089859e-02,2.395568911363089859e-02,2.395568911363089859e-02,2.395568911363089859e-02,1.674370483032705872e-02,3.217134169356610732e-03,-0.000000000000000000e+00,2.619979297750943837e-03,2.619979297750943837e-03,2.619979297750943837e-03,1.108934997768967930e-02,1.108934997768967930e-02,8.469370679938735894e-03,1.199861755210372694e-02,1.199861755210372694e-02,1.449498139202439785e-02,6.025610712085661957e-03,6.025610712085661957e-03,6.025610712085661957e-03,2.496363839920670482e-03,-0.000000000000000000e+00,-0.000000000000000000e+00,-0.000000000000000000e+00,-0.000000000000000000e+00,5.909005288063055340e-03,5.909005288063055340e-03,5.909005288063055340e-03,5.909005288063055340e-03,1.168861687464129752e-02,2.677879409085012069e-02,3.681817748106042815e-02,4.038619069765016917e-02,4.038619069765016917e-02,4.038619069765016917e-02,2.869757382300887338e-02,2.158778404972330756e-02,1.071649376669074226e-03,-0.000000000000000000e+00,-0.000000000000000000e+00,-0.000000000000000000e+00,6.504372636391891893e-03,6.504372636391891893e-03,6.504372636391891893e-03,6.504372636391891893e-03,6.504372636391891893e-03,4.995253481944024465e-03,-0.000000000000000000e+00,-0.000000000000000000e+00,-0.000000000000000000e+00
-0.000000000000000000e+00,-0.000000000000000000e+00,-0.000000000000000000e+00,-0.000000000000000000e+00,8.224403002159992593e-03,1.175364987432498363e-02,2.434443712181058941e-02,2.756157129116719798e-02,3.369802516144400351e-02,3.219420570708284718e-02,2.396980270492285459e-02,4.455876927419357564e-02,5.103991117352979501e-02,5.417480501412723359e-02,4.993866340917761659e-02,5.144248286353877292e-02,4.644975518369743456e-02,4.664212645069727714e-02,4.664212645069727714e-02,4.664212645069727714e-02,1.307444994686970952e-02,6.722421936915657162e-03,6.722421936915657162e-03,1.509119154447867862e-03,1.060303329081245007e-02,9.093914136364582637e-03,9.093914136364582637e-03,1.225890466192321865e-02,1.225890466192321865e-02,1.225890466192321865e-02,1.225890466192321865e-02,3.164990525558636879e-03,2.709455087453502276e-02,3.713393426474533021e-02,8.190542779747971014e-02,1.046013964099909294e-01,1.046013964099909294e-01,1.320810929917438648e-01,1.204303143356275918e-01,9.811214925255717922e-02,7.333528134103776963e-02,7.225956813281884938e-02,4.172822256630594889e-02,1.720768711792045047e-02,1.079617189038938052e-02,2.732322150588461541e-03,-1.503819454361159580e-03,-0.000000000000000000e+00,-0.000000000000000000e+00,-0.000000000000000000e+00
-4.379058543180107399e-02,-4.379058543180107399e-02,-5.609046533313534477e-02,-5.615458908880195665e-02,-7.711723886991540822e-02,-8.406640016943574267e-02,-6.716440219796104838e-02,-8.308582244014117713e-02,-8.733886899806926618e-02,-9.215761758314998386e-02,-9.773083339016155890e-02,-1.027040767278462607e-01,-1.204013665273112599e-01,-1.167700568703623071e-01,-1.418500277757430983e-01,-1.262824965100694252e-01,-1.331424584583593695e-01,-1.269244427320633806e-01,-1.458335722794353861e-01,-1.667960019650086001e-01,-1.787556673915094985e-01,-1.870814435916041685e-01,-1.864624824347883292e-01,-1.617782360643360007e-01,-1.598325078229361762e-01,-1.699741673246046025e-01,-1.699741673246046025e-01,-2.086823727031187903e-01,-2.732213610783814084e-01,-2.893800491354596716e-01,-3.310859633764388632e-01,-3.174437508643721539e-01,-3.224457380419353258e-01,-3.393919304956691807e-01,-3.268759038773629833e-01,-3.010160626221025648e-01,-3.129581161432103964e-01,-3.158675990837512271e-01,-3.409126288398687254e-01,-3.238581365845764615e-01,-3.366723479252441975e-01,-3.263698281756741149e-01,-3.433996107863703240e-01,-3.307267408675189091e-01,-2.745542430547522339e-01,-2.208358714166833714e-01,-1.828195971235053174e-01,-1.559615830314353691e-01,-1.046246568082746936e-01,-7.126040635069932905e-02
-2.125764396802428194e-02,-3.627476240185985995e-02,-3.981179371997860955e-02,-4.721974448242362288e-02,-7.939122124510264444e-02,-1.022369941464291027e-01,-1.111741950658495237e-01,-1.675615501835876486e-01,-2.073562558133127953e-01,-2.577034040665115433e-01,-2.650188335526063588e-01,-2.864833016285348588e-01,-2.584270103681120534e-01,-2.530970480075576678e-01,-2.275113327036184796e-01,-2.108399569642348814e-01,-1.779607599639187743e-01,-1.534027021097596200e-01,-9.802119277169875355e-02,-1.275489076920275355e-01,-1.425883318373772912e-01,-1.531479628643298840e-01,-1.411117824721685732e-01,-1.110482651819583166e-01,-1.110482651819583166e-01,-1.110482651819583166e-01,-1.100882866913806546e-01,-1.575742473232029095e-01,-1.822757222965809831e-01,-1.880496409360124799e-01,-1.633602292114021970e-01,-1.655563455872542111e-01,-1.744303732263832452e-01,-1.969913959396749348e-01,-1.521091774546970976e-01,-1.292488803329419345e-01,-1.424088486781110996e-01,-2.170549564487108118e-01,-2.338707211423629584e-01,-2.569127953813580278e-01,-2.595327746791090129e-01,-2.756292499394664697e-01,-2.644815110014994697e-01,-2.335341812376841575e-01,-1.793973073931548479e-01,-1.368598639434680242e-01,-9.897123079367250997e-02,-9.177341939114312674e-02,-4.849161185082524750e-02,-3.184505176930609027e-02
6.504372636391891893e-03,1.494303920085856413e-02,1.494303920085856413e-02,1.494303920085856413e-02,1.494303920085856413e-02,1.867387864191258351e-02,1.617498899988922823e-02,2.936235570377563470e-02,2.936235570377563470e-02,2.936235570377563470e-02,1.568373054380707218e-02,1.318736670388640300e-02,1.318736670388640300e-02,1.318736670388640300e-02,1.878803732272410140e-02,1.878803732272410140e-02,5.600670618837699268e-03,5.600670618837699268e-03,5.600670618837699268e-03,5.600670618837699268e-03,8.345340005470899478e-03,8.345340005470899478e-03,8.345340005470899478e-03,8.345340005470899478e-03,8.345340005470899478e-03,1.163584844160314366e-02,1.552945211882283960e-02,7.184112113351939256e-03,7.184112113351939256e-03,7.184112113351939256e-03,7.184112113351939256e-03,9.455537505551682084e-03,3.678548897341966245e-02,4.650675268810159496e-02,5.323235755491369930e-02,5.323235755491369930e-02,5.172323840046582494e-02,5.042510747437941449e-02,2.495223680507996367e-02,6.725604866812103476e-03,1.009611190591584197e-02,1.009611190591584197e-02,3.370507039103738060e-03,3.370507039103738060e-03,3.370507039103738060e-03,3.370507039103738060e-03,-0.000000000000000000e+00,-0.000000000000000000e+00,-0.000000000000000000e+00,-0.000000000000000000e+00
-0.000000000000000000e+00,-0.000000000000000000e+00,-0.000000000000000000e+00,-0.000000000000000000e+00,-0.000000000000000000e+00,-0.000000000000000000e+00,-0.000000000000000000e+00,-0.000000000000000000e+00,-0.000000000000000000e+00,-0.000000000000000000e+00,-0.000000000000000000e+00,8.769187886695135187e-03,8.769187886695135187e-03,2.318242275407681255e-02,2.318242275407681255e-02,2.318242275407681255e-02,2.318242275407681255e-02,1.441323486738167910e-02,3.255601272593838802e-02,1.903049500823192353e-02,1.903049500823192353e-02,1.903049500823192353e-02,1.903049500823192353e-02,1.903049500823192353e-02,1.903049500823192353e-02,-0.000000000000000000e+00,-0.000000000000000000e+00,9.618563349992042405e-05,9.618563349992042405e-05,9.618563349992042405e-05,9.618563349992042405e-05,9.839027831751367623e-04,2.410367504415420956e-02,2.924744800615617507e-02,2.924744800615617507e-02,2.924744800615617507e-02,2.845591648998088002e-02,2.595955265006021084e-02,9.618563349992042405e-05,1.394316559586331961e-03,3.332087627065438706e-02,6.157354572891560185e-02,6.397372393533634627e-02,6.397372393533634627e-02,6.397372393533634627e-02,6.267559300924993582e-02,4.453693414548986346e-02,2.562120179477082871e-02,-0.000000000000000000e+00,-0.000000000000000000e+00
-0.000000000000000000e+00,-0.000000000000000000e+00,-0.000000000000000000e+00,5.879382093406013664e-03,5.879382093406013664e-03,5.879382093406013664e-03,5.879382093406013664e-03,5.879382093406013664e-03,5.879382093406013664e-03,-0.000000000000000000e+00,-0.000000000000000000e+00,-0.000000000000000000e+00,-0.000000000000000000e+00,1.946801838609847971e-03,6.048113419427567257e-03,6.048113419427567257e-03,6.048113419427567257e-03,6.048113419427567257e-03,6.048113419427567257e-03,4.101311580817719286e-03,3.908940313817878438e-03,3.908940313817878438e-03,-0.000000000000000000e+00,-0.000000000000000000e+00,7.957174869319010024e-03,4.440367456545744884e-02,6.210402949982705978e-02,6.210402949982705978e-02,6.210402949982705978e-02,6.210402949982705978e-02,5.711130181998572142e-02,4.765971957637502032e-02,5.239958595501887674e-03,5.239958595501887674e-03,5.239958595501887674e-03,5.239958595501887674e-03,3.217134169356610732e-03,3.217134169356610732e-03,3.217134169356610732e-03,3.217134169356610732e-03,1.796206652293212344e-02,2.356273714176982184e-02,2.034560297241320981e-02,2.034560297241320981e-02,3.000633893641945285e-02,3.391527925023733042e-02,2.353177736171986958e-02,1.356967627782412061e-02,1.356967627782412061e-02,1.356967627782412061e-02
7.211984283303841600e-03,7.211984283303841600e-03,7.211984283303841600e-03,7.211984283303841600e-03,7.211984283303841600e-03,-0.000000000000000000e+00,-0.000000000000000000e+00,-0.000000000000000000e+00,6.743730695218210121e-03,2.938635580453707874e-02,3.735759690934112309e-02,3.745378254284104091e-02,4.566674489002188475e-02,4.265910598129956516e-02,4.265910598129956516e-02,3.948309197632254158e-02,8.434253670352503951e-02,1.255342834804647201e-01,1.420217554153051787e-01,1.746111072402764808e-01,1.776293455491722295e-01,1.629143737491500210e-01,1.454855907065388532e-01,1.158605321687183054e-01,5.481108280056583987e-02,9.221988693246184823e-03,4.830367982003120654e-03,9.777317522378460579e-03,9.873503155878381871e-03,1.689467735201274912e-02,1.689467735201274912e-02,1.689467735201274912e-02,1.486464467942847853e-02,1.309370914403016305e-02,2.488141743489862695e-02,4.454757295877394274e-02,4.454757295877394274e-02,4.137155895379691917e-02,3.857122364437807344e-02,4.445060573778408797e-02,4.445060573778408797e-02,5.371736724268370150e-02,7.403732479951889711e-02,7.237658121631825037e-02,6.785155982177520917e-02,5.495100353223482392e-02,5.495100353223482392e-02,5.495100353223482392e-02,3.530677803874443521e-02,1.876298095309858124e-02
-0.000000000000000000e+00,-0.000000000000000000e+00,3.428950301181086201e-03,3.428950301181086201e-03,6.447188610076821924e-03,7.035565396064981381e-02,1.111745131467961750e-01,1.482681178477489869e-01,1.582108568839176721e-01,1.551926185750219234e-01,1.551926185750219234e-01,1.439398515399489265e-01,6.330627443730242609e-02,1.681016667029296141e-02,1.359303250093634938e-02,1.359303250093634938e-02,-0.000000000000000000e+00,-0.000000000000000000e+00,-0.000000000000000000e+00,-3.007638908722319159e-03,-3.007638908722319159e-03,7.233583415911962883e-03,7.233583415911962883e-03,1.854874663960291714e-02,2.871431015263657682e-02,4.190006466714597116e-02,4.190006466714597116e-02,3.165884234251168522e-02,3.165884234251168522e-02,2.034367911882073096e-02,1.927202974215165565e-02,5.909005288063055340e-03,1.273751535541688476e-02,2.010633060149760731e-02,2.010633060149760731e-02,2.135405102530836541e-02,2.135405102530836541e-02,2.765300444246001146e-02,6.131990167337092457e-02,7.688252215574363502e-02,7.688252215574363502e-02,7.688252215574363502e-02,7.688252215574363502e-02,7.688252215574363502e-02,7.277032065466364219e-02,4.303881550908657955e-02,4.303881550908657955e-02,1.586472780283989387e-02,-0.000000000000000000e+00,-0.000000000000000000e+00
7.368815246080722553e-03,7.368815246080722553e-03,7.368815246080722553e-03,7.368815246080722553e-03,1.016962486520651097e-02,6.351956016675477934e-02,7.078013852031503350e-02,7.778587597912599294e-02,9.799407493374991118e-02,1.094181262676962169e-01,1.313239569643084304e-01,1.475927300700660694e-01,9.948060564529659366e-02,1.037826335414389345e-01,1.007749946327166218e-01,9.594462665071350205e-02,8.927838466799094264e-02,1.767537468827185543e-01,1.574084378556803998e-01,1.294883384454575403e-01,1.350467393502321478e-01,1.350467393502321478e-01,1.224046136608405722e-01,1.069906538701611981e-01,8.225906376417578547e-02,7.654675134789085122e-02,3.527586277001468207e-02,2.605387407676849898e-02,2.605387407676849898e-02,4.500142464916905699e-02,8.001161534482575943e-02,1.116800194598653456e-01,1.183340698534808971e-01,1.216555928556756622e-01,1.345039572204443090e-01,1.323791156771418898e-01,1.205907173505411656e-01,8.047123481815898760e-02,4.726542111062655149e-02,4.726542111062655149e-02,4.726542111062655149e-02,6.287105100548613656e-02,7.477586994986358537e-02,5.847742449523807284e-02,5.847742449523807284e-02,5.847742449523807284e-02,5.366370764817835620e-02,3.459425578581567379e-02,2.155844837498452002e-02,1.100173206350660293e-02
-5.967132611898785799e-02,-9.127277430480189302e-02,-1.133601366023216234e-01,-1.419019885227283395e-01,-1.718549043124603104e-01,-2.014931251802445922e-01,-2.117522171030779832e-01,-2.591480315827931480e-01,-2.795883544766555318e-01,-3.135441422507232456e-01,-3.385078776972361703e-01,-3.574918321865516724e-01,-3.922226727890630871e-01,-3.709547798191903389e-01,-3.515921258522965998e-01,-3.302035161897744486e-01,-3.390859910930208998e-01,-3.352698431856705463e-01,-2.992026428769642976e-01,-3.045828113247576185e-01,-2.673374244122348475e-01,-2.436809932233972020e-01,-1.818268409605872660e-01,-1.032512561656843686e-01,-1.032512561656843686e-01,-1.184523815610450670e-01,-1.184523815610450670e-01,-1.060385788258568773e-01,-9.357366796692154209e-02,-5.314258337197545756e-02,-4.397210985620981366e-02,-6.339693294025028347e-02,-1.148519076499533859e-01,-1.537801235748885720e-01,-1.823744538787785141e-01,-1.895536019258425020e-01,-2.042377863709231023e-01,-2.147175165277158126e-01,-2.110064061156710358e-01,-2.116764317567002562e-01,-1.617668563064653675e-01,-1.642611769869913307e-01,-1.588386089861510420e-01,-1.448523773844937190e-01,-1.423446195759445199e-01,-1.365142413995335258e-01,-1.199955898501371687e-01,-8.104442667120936861e-02,-6.122060948922875001e-02,-2.504089563975153351e-02
-2.920682585615220345e-02,-4.001036198237997721e-02,-5.046785217514950656e-02,-5.313481352051258044e-02,-5.313481352051258044e-02,-6.532090473637207351e-02,-9.678238681432997648e-02,-1.664697902931407958e-01,-2.211733657816286058e-01,-2.419730603599095087e-01,-2.543915926777674530e-01,-3.044010088657695956e-01,-3.466106118447294104e-01,-4.090197944902737026e-01,-4.132077850627491888e-01,-4.234560740548889979e-01,-4.419517610852121137e-01,-4.360443362126441014e-01,-4.167725238817932554e-01,-3.962398848348762659e-01,-3.480389962692937988e-01,-2.948969968140666698e-01,-2.718803182979352417e-01,-1.768714946032572122e-01,-1.768714946032572122e-01,-1.768714946032572122e-01,-1.685088895653373831e-01,-2.189875981029378305e-01,-2.675668909730006817e-01,-2.576754538125460292e-01,-2.652164164595526286e-01,-2.652681623050623383e-01,-3.049411728450967529e-01,-3.015277533744428196e-01,-2.807455944407392101e-01,-2.708068898876583863e-01,-2.366942751445962612e-01,-2.090252941113684981e-01,-1.551825776531312595e-01,-1.412763171725094080e-01,-9.445099281805403868e-02,-2.818936852285959527e-02,-3.661099602982580137e-02,-3.098725215187246584e-02,-3.596166590981495631e-02,-3.101613403602606484e-02,-3.101613403602606484e-02,-2.749952646700117020e-02,-1.877516665901923787e-02,-1.492669862841630030e-02
-6.313767473674264386e-03,-2.112369408171285018e-02,-2.112369408171285018e-02,-2.822334561693829943e-02,-2.822334561693829943e-02,-2.952147654302470989e-02,-8.685630124845719613e-02,-1.156333132190096036e-01,-1.453127358158516069e-01,-1.623687838356598634e-01,-1.701138871901135274e-01,-1.990910710802391292e-01,-2.066293349911664246e-01,-2.345260651063450219e-01,-2.559470467067264110e-01,-2.585969734057140812e-01,-2.751896730475338337e-01,-2.760242106371982862e-01,-2.726031621103441882e-01,-2.650639613785182314e-01,-2.906741040863863867e-01,-3.529734520156718736e-01,-3.084530028299031224e-01,-1.731163284584694706e-01,-1.731163284584694706e-01,-1.832579879601378969e-01,-1.766154903050273783e-01,-2.724751549403562345e-01,-3.356559043904957518e-01,-3.033623875229919387e-01,-2.895401982322199919e-01,-2.772992802130134216e-01,-2.812119101836233481e-01,-2.377885326812126943e-01,-2.060916300983838267e-01,-1.914218969523834579e-01,-1.910107966117947642e-01,-2.109485619289001024e-01,-2.279249998247238063e-01,-2.178764272415585346e-01,-2.086873303977559713e-01,-1.949784905181514982e-01,-1.851571887818656836e-01,-1.415725774146984750e-01,-1.280491039838202172e-01,-9.749975079742045914e-02,-6.185597181513245724e-02,-5.108547766772920939e-02,-9.145062298903796488e-03,-9.145062298903796488e-03
-5.409534353151452396e-02,-1.089016602852086180e-01,-1.483788085341880558e-01,-1.745321137207525852e-01,-1.854108872620108817e-01,-1.995396446259084799e-01,-2.090064639506621635e-01,-1.838132305092368690e-01,-1.765381597421950277e-01,-1.805537353539024004e-01,-1.429261704698474023e-01,-1.196076974483256672e-01,-1.637821989617232743e-01,-2.192494281975800596e-01,-2.734263076066096310e-01,-2.902995383229567405e-01,-3.323381255664005218e-01,-3.389035664302073592e-01,-3.049153441070859283e-01,-3.267337527859257018e-01,-3.042925421946482412e-01,-2.587526918987768099e-01,-2.258611670227067825e-01,-1.687495830044718481e-01,-1.643760044332430725e-01,-1.547152684692368330e-01,-1.547152684692368330e-01,-1.582541723636547437e-01,-1.348924059573694823e-01,-1.414760438159850253e-01,-1.710476029235925011e-01,-2.670450149492221703e-01,-3.278200417213483764e-01,-3.084518891557448406e-01,-3.154127800842638774e-01,-3.477484088485867098e-01,-3.481476001847358948e-01,-3.103421071147005605e-01,-2.707745963912766007e-01,-2.024027419697284613e-01,-1.074040889984374525e-01,-1.009815597946541188e-01,-1.096429318139030551e-01,-1.032014520556653603e-01,-8.756451240706530914e-02,-8.756451240706530914e-02,-7.216752231725812039e-02,-5.934752581257309728e-02,-3.781266958465968192e-02,-3.651453865857327147e-02
1.298130926086411537e-03,1.298130926086411537e-03,1.450245750871794782e-02,1.450245750871794782e-02,1.450245750871794782e-02,1.450245750871794782e-02,1.320432658263153564e-02,1.320432658263153564e-02,1.320432658263153564e-02,1.320432658263153564e-02,1.733699459173889540e-02,4.228853642607280187e-03,1.269822432254601695e-02,2.361996480930021736e-02,2.361996480930021736e-02,6.120720361388225228e-02,8.753266101557370671e-02,1.045363191733696545e-01,1.360877004157190762e-01,1.369520963721760909e-01,1.399703346810718396e-01,1.399703346810718396e-01,1.123836224763609809e-01,1.170255721523843079e-01,1.036802076343690121e-01,8.509521977641057444e-02,9.550108520827893521e-02,9.926208667912084227e-02,9.926208667912084227e-02,9.775826722475969288e-02,9.348915690703565873e-02,6.202756355112256509e-02,4.346915478828649454e-02,5.042039627964051834e-02,5.042039627964051834e-02,1.857374478869436296e-02,1.266473950063130675e-02,2.268819755980159419e-02,2.268819755980159419e-02,2.268819755980159419e-02,2.019183371988092501e-02,2.019183371988092501e-02,2.019183371988092501e-02,1.324059222852689947e-02,1.324059222852689947e-02,-0.000000000000000000e+00,-0.000000000000000000e+00,-0.000000000000000000e+00,-0.000000000000000000e+00,-0.000000000000000000e+00
-2.286579205124467801e-02,-2.286579205124467801e-02,-4.366488525328169473e-02,-6.105559662067415461e-02,-7.997242606352225613e-02,-1.428227896972795730e-01,-1.413239205045739855e-01,-1.666284097701995204e-01,-1.928533030999471931e-01,-2.205028196153045461e-01,-2.272850270224104907e-01,-2.503236554027805094e-01,-2.333796130664497759e-01,-2.318753468149047370e-01,-2.204833325911328412e-01,-2.157359443399389509e-01,-2.372637729347744362e-01,-2.133355902739623722e-01,-2.454426395036960473e-01,-2.326857042977096279e-01,-2.363726205606166975e-01,-2.410774966812442299e-01,-2.265791908734639537e-01,-1.515062413052785661e-01,-1.418930891284938545e-01,-1.418930891284938545e-01,-1.383608520725771451e-01,-1.586022518922241276e-01,-2.155738150084698379e-01,-2.541290647685975346e-01,-2.587904276601417641e-01,-3.152186558930545335e-01,-3.352194630935820263e-01,-3.629366471040501585e-01,-3.311358487165304010e-01,-3.304464573235411096e-01,-3.033060244130652006e-01,-2.854719389474699165e-01,-2.563830007280282208e-01,-2.210794101249090038e-01,-1.769102094182647134e-01,-1.535260507498664995e-01,-1.614150620861804220e-01,-1.259271541862382049e-01,-1.331108907802929786e-01,-1.246057693762461643e-01,-1.181521732529879770e-01,-1.006490002646429349e-01,-8.167670278730719546e-02,-6.164463542750364677e-02
-2.170484974555592431e-02,-3.630180785166068486e-02,-9.233351177345987260e-02,-9.951960702061266040e-02,-1.511101568959133112e-01,-1.766872960383105984e-01,-2.141015715767136951e-01,-2.410227694999393933e-01,-2.760483655309666773e-01,-2.902090618171493941e-01,-2.927834579093526735e-01,-2.748900520434172656e-01,-2.770940825834768972e-01,-2.425246315720194501e-01,-1.937710007771962228e-01,-1.489012826294321690e-01,-1.163778543871743648e-01,-1.000131319526114809e-01,-8.538292751419336579e-02,-7.126493884561592440e-02,-8.981517850864254027e-02,-9.682557084569073935e-02,-8.251650175049687896e-02,-8.057077350909705449e-02,-8.057077350909705449e-02,-8.057077350909705449e-02,-8.839867002284965136e-02,-2.021637636655668757e-01,-2.249877326044491810e-01,-2.269877889372906021e-01,-2.624394266642116613e-01,-3.182994115727761919e-01,-3.439548509319776404e-01,-3.380606133077583841e-01,-3.064718851715424464e-01,-2.943999881487737724e-01,-2.681507779105214428e-01,-2.262080530258957223e-01,-1.996051624918569189e-01,-1.750566570759803098e-01,-1.584548864568294246e-01,-1.421907095325563031e-01,-1.310636959100382470e-01,-1.401350848393166093e-01,-1.208547999125598738e-01,-1.143388599115564841e-01,-1.045576323623399195e-01,-9.646770722767727957e-02,-9.169655675309473786e-02,-5.706133327495840207e-02
2.987601126364944435e-03,1.357795513873899691e-02,1.357795513873899691e-02,1.945733723214500971e-02,1.945733723214500971e-02,2.334879371494463784e-02,2.036119258857969211e-02,2.036119258857969211e-02,2.036119258857969211e-02,3.891456482799625100e-03,3.891456482799625100e-03,1.014165950166841593e-02,2.423878898857115272e-02,3.059689715403983434e-02,3.928679548916643588e-02,3.928679548916643588e-02,4.506640707574467719e-02,3.492474757407626473e-02,3.492474757407626473e-02,1.446950992170483938e-02,6.785691022876821042e-03,3.608486785294022503e-02,3.826243113568098680e-02,3.826243113568098680e-02,4.661707677821697038e-02,5.060372502175973508e-02,5.060372502175973508e-02,6.026446098576597465e-02,4.118680874150298932e-02,3.115765542270241759e-02,9.853107231006082156e-03,9.853107231006082156e-03,9.853107231006082156e-03,1.923712669998408481e-04,4.756063115646150252e-03,4.563691848646309404e-03,4.563691848646309404e-03,4.563691848646309404e-03,5.569771284944888268e-03,5.569771284944888268e-03,1.006079436298578647e-03,1.006079436298578647e-03,1.006079436298578647e-03,6.001332918242603329e-03,6.001332918242603329e-03,6.001332918242603329e-03,6.001332918242603329e-03,6.001332918242603329e-03,4.995253481944024465e-03,-0.000000000000000000e+00
-0.000000000000000000e+00,-0.000000000000000000e+00,-0.000000000000000000e+00,-0.000000000000000000e+00,-0.000000000000000000e+00,-0.000000000000000000e+00,1.959794031135337743e-03,1.959794031135337743e-03,1.959794031135337743e-03,9.586286897849106980e-03,1.088441782393552090e-02,1.351588548742591045e-02,2.153852350003042371e-02,2.415850279778136711e-02,2.415850279778136711e-02,2.078799575867762775e-02,1.542625027198102523e-02,1.029841876856996477e-02,2.152165298135178591e-03,2.152165298135178591e-03,2.152165298135178591e-03,2.152165298135178591e-03,1.959794031135337743e-03,1.105370816749992081e-02,1.336302445408860118e-02,3.399455723156778048e-02,3.399455723156778048e-02,3.399455723156778048e-02,3.399455723156778048e-02,3.399455723156778048e-02,1.801155347972823936e-02,3.722197317474712497e-02,3.899290871014543525e-02,2.754691666159837099e-02,2.098135523041719935e-02,2.098135523041719935e-02,2.098135523041719935e-02,2.294114926155253753e-02,1.002364377093625802e-02,1.026311230383507300e-02,1.026311230383507300e-02,1.026311230383507300e-02,1.026311230383507300e-02,1.079968211262040574e-02,1.079968211262040574e-02,1.079968211262040574e-02,1.079968211262040574e-02,2.496363839920670482e-03,-0.000000000000000000e+00,-0.000000000000000000e+00
-0.000000000000000000e+00,-0.000000000000000000e+00,-0.000000000000000000e+00,-0.000000000000000000e+00,-0.000000000000000000e+00,6.001332918242603329e-03,1.027044323596662187e-02,1.551040183146851215e-02,1.551040183146851215e-02,1.551040183146851215e-02,1.551040183146851215e-02,1.051514834952448595e-02,1.006079436298578647e-03,5.240764776267946810e-03,5.240764776267946810e-03,5.532816266055779267e-03,8.164283929546170548e-03,1.066064776946684146e-02,1.066064776946684146e-02,6.425962429497472650e-03,7.432041865796051514e-03,6.133910939709641061e-03,1.006079436298578647e-03,1.006079436298578647e-03,1.006079436298578647e-03,-0.000000000000000000e+00,2.496363839920670482e-03,2.496363839920670482e-03,2.496363839920670482e-03,2.496363839920670482e-03,2.496363839920670482e-03,-0.000000000000000000e+00,4.427056606969208795e-03,1.020666819354745097e-02,1.843107119570744357e-02,1.843107119570744357e-02,1.843107119570744357e-02,1.843107119570744357e-02,1.400401458873823390e-02,8.224403002159992593e-03,-0.000000000000000000e+00,-0.000000000000000000e+00,-0.000000000000000000e+00,-0.000000000000000000e+00,-0.000000000000000000e+00,-0.000000000000000000e+00,-0.000000000000000000e+00,-0.000000000000000000e+00,-0.000000000000000000e+00,-0.000000000000000000e+00
-1.514684500780089614e-02,-4.338547073361395667e-02,-6.548863993480490142e-02,-1.044717049476023424e-01,-1.227814422451121434e-01,-1.900799622960940571e-01,-2.147650572189765128e-01,-2.397914445252292970e-01,-2.701947222523125025e-01,-3.195717323301269785e-01,-3.162242549083869592e-01,-3.142864410679010456e-01,-3.026908381732540398e-01,-2.850545417230948009e-01,-2.866318600117068183e-01,-2.857036498391181123e-01,-2.570790122376088171e-01,-2.325004593777619810e-01,-2.345308478952767839e-01,-1.975426213967269584e-01,-1.526287471405906038e-01,-1.601455736078452319e-01,-1.587320203994577739e-01,-1.587320203994577739e-01,-1.587320203994577739e-01,-1.566522484329378462e-01,-1.149269512990273578e-01,-2.017859284100459727e-01,-2.446666388395028757e-01,-2.558570179266843048e-01,-3.025465148716250385e-01,-3.109770962806338579e-01,-3.431570124319330839e-01,-3.289989331172433196e-01,-3.076304564583439149e-01,-2.995672302051426428e-01,-3.120823997624523338e-01,-3.152461009848179785e-01,-3.269198636591937879e-01,-3.133339879556036878e-01,-2.684343337685134445e-01,-2.672871771328711454e-01,-2.423143023588240075e-01,-1.963323157908737626e-01,-1.483232904986883094e-01,-9.095933450419611821e-02,-6.342467399077958423e-02,-5.424596913370152707e-02,-3.820633291346038629e-02,-2.451926155243911581e-02
6.358108165468682495e-03,6.358108165468682495e-03,6.358108165468682495e-03,6.358108165468682495e-03,6.358108165468682495e-03,6.358108165468682495e-03,-0.000000000000000000e+00,8.013491790839759321e-03,1.228260210856377960e-02,1.228260210856377960e-02,1.228260210856377960e-02,1.228260210856377960e-02,1.486503441850574314e-02,9.869780936561718676e-03,5.600670618837699268e-03,5.600670618837699268e-03,5.600670618837699268e-03,5.600670618837699268e-03,-0.000000000000000000e+00,-0.000000000000000000e+00,8.476598888551786087e-03,8.476598888551786087e-03,3.070530345860014373e-02,4.279814488096631009e-02,1.018065280685052643e-01,1.129722406307700211e-01,1.428233091235099339e-01,1.515920071940920488e-01,1.402768439704011050e-01,1.329314238158718076e-01,1.321589427947815476e-01,1.031277526663262334e-01,4.332378166026733951e-02,3.401492164786655559e-02,3.401492164786655559e-02,1.904361687448841850e-02,-0.000000000000000000e+00,-0.000000000000000000e+00,2.255067837849121862e-02,2.255067837849121862e-02,2.255067837849121862e-02,2.255067837849121862e-02,2.255067837849121862e-02,2.255067837849121862e-02,2.255067837849121862e-02,-0.000000000000000000e+00,-0.000000000000000000e+00,-0.000000000000000000e+00,-0.000000000000000000e+00,-0.000000000000000000e+00
-3.941424951639884572e-02,-6.142738478405797287e-02,-6.542464789354218713e-02,-7.866487680616221501e-02,-9.325338211736648730e-02,-1.471232395645515334e-01,-2.226568893409096306e-01,-2.577265242175680315e-01,-3.288976049207197883e-01,-3.542912496764598629e-01,-3.566235645903635954e-01,-3.466325798611938902e-01,-2.787079583880159861e-01,-2.334974881138802694e-01,-1.767215426833331493e-01,-1.286245455137374205e-01,-1.188018266459140854e-01,-1.112481472622520312e-01,-7.156259874291399925e-02,-1.319390874106992073e-01,-1.466319503943459557e-01,-1.486518439165048222e-01,-1.644885704459652098e-01,-1.499920311780955362e-01,-1.469143277390826952e-01,-1.469143277390826952e-01,-1.482124586651691056e-01,-1.579908803549210372e-01,-2.269192130780273708e-01,-2.523121550895617293e-01,-2.441129061751074469e-01,-2.650328386139418346e-01,-2.682971361255947484e-01,-2.696516377945979426e-01,-2.563710182040035979e-01,-2.323535204514732555e-01,-1.906411295000612627e-01,-1.181464117944580200e-01,-5.360094289986900434e-02,-3.202945661180807424e-02,-4.581735745911604679e-02,-5.539943353452076585e-02,-5.986823402046335257e-02,-7.499998650954584067e-02,-7.480915605420063175e-02,-7.781679496292294440e-02,-7.122769800807920992e-02,-4.680800725655253486e-02,-4.418802795880159145e-02,-1.011391768187195825e-02
-0.000000000000000000e+00,-0.000000000000000000e+00,3.826670821294080819e-03,5.573323686461377144e-03,5.573323686461377144e-03,5.573323686461377144e-03,5.573323686461377144e-03,5.573323686461377144e-03,-0.000000000000000000e+00,-0.000000000000000000e+00,-0.000000000000000000e+00,4.234685339969367947e-03,4.234685339969367947e-03,4.234685339969367947e-03,4.234685339969367947e-03,4.234685339969367947e-03,4.234685339969367947e-03,-0.000000000000000000e+00,-0.000000000000000000e+00,8.224403002159992593e-03,8.224403002159992593e-03,3.337944622012786744e-02,5.942186459074032256e-02,5.942186459074032256e-02,8.128019302067228391e-02,1.250710688539958260e-01,1.380972775390760798e-01,1.240591544716316968e-01,1.240591544716316968e-01,1.071025357328418276e-01,1.088491885980091278e-01,9.269665994483541893e-02,8.473948507551641585e-02,5.127193639076704085e-02,1.999804558247558067e-02,4.427056606969208795e-03,4.427056606969208795e-03,1.671287531595059411e-02,1.671287531595059411e-02,1.247818997598122877e-02,1.247818997598122877e-02,1.228581870898138792e-02,1.530405701787712451e-02,1.530405701787712451e-02,1.855327775435229587e-02,1.855327775435229587e-02,1.855327775435229587e-02,9.660735964006241308e-03,9.660735964006241308e-03,9.660735964006241308e-03
-1.033794747738071840e-01,-1.090986702092651417e-01,-1.249378528445075076e-01,-1.392970327292955557e-01,-1.599942253440901907e-01,-1.617670377319715969e-01,-1.613076437687515352e-01,-1.609638847523694738e-01,-1.727851308368422989e-01,-1.882073799462594399e-01,-1.997162254804869530e-01,-2.142488811734252208e-01,-1.849903198987728203e-01,-1.500529547767710248e-01,-1.210591069113885754e-01,-1.090035584297885385e-01,-7.559112006205258305e-02,-6.456364322571345182e-02,-6.118513044815034052e-02,-7.438945703078188310e-02,-8.010062054063779580e-02,-1.399453448370761577e-01,-1.506402766441520824e-01,-1.338428606915042229e-01,-1.338428606915042229e-01,-1.338428606915042229e-01,-1.495671687399825756e-01,-2.253256312904485248e-01,-2.652895752503379168e-01,-2.625950591006785961e-01,-2.893393724933581157e-01,-2.900711138202332617e-01,-2.717277751821656206e-01,-2.931541323163674440e-01,-2.682550454058672540e-01,-2.489122511308576868e-01,-2.767012125762827734e-01,-2.907737918963727020e-01,-3.208644092244029578e-01,-3.217512544506865857e-01,-3.506976065332122472e-01,-3.175627658392185526e-01,-2.937423264543714829e-01,-2.209818845608955140e-01,-2.010963661492479460e-01,-1.749832071948783097e-01,-1.346833129629700920e-01,-8.821293737532318047e-02,-8.577534319423946868e-03,-4.422634676756622904e-03
-0.000000000000000000e+00,-0.000000000000000000e+00,-0.000000000000000000e+00,-0.000000000000000000e+00,5.239958595501887674e-03,2.445037829052077241e-02,2.445037829052077241e-02,4.477015020261916611e-02,5.303548622083388564e-02,4.779552762533199883e-02,4.779552762533199883e-02,4.779552762533199883e-02,5.121412650607173878e-02,2.862320609696743234e-02,2.035787007875271282e-02,2.035787007875271282e-02,2.035787007875271282e-02,2.035787007875271282e-02,6.414476539003298450e-02,5.109260356443332679e-02,5.411084187332906859e-02,5.411084187332906859e-02,5.623187537880218467e-02,5.623187537880218467e-02,5.279543520594529027e-02,1.796794148310295464e-02,5.990301585769288936e-03,5.990301585769288936e-03,5.990301585769288936e-03,3.869268080296168512e-03,-0.000000000000000000e+00,1.418204044395560484e-02,4.519873581234346016e-02,4.519873581234346016e-02,5.803408988643449923e-02,5.803408988643449923e-02,6.769482585044074574e-02,5.351278540648513743e-02,4.396892666710226077e-02,2.918065989406615907e-02,1.634530581997512000e-02,1.634530581997512000e-02,6.684569855968880425e-03,6.684569855968880425e-03,6.492198588969039577e-03,-0.000000000000000000e+00,-0.000000000000000000e+00,-0.000000000000000000e+00,-0.000000000000000000e+00,-0.000000000000000000e+00
-0.000000000000000000e+00,1.984542745945339429e-02,2.309471861186759498e-02,3.203915118098930176e-02,3.203915118098930176e-02,3.203915118098930176e-02,3.203915118098930176e-02,9.186084812813591349e-03,8.691477408197095453e-03,2.043189983179693418e-03,-3.007638908722319159e-03,-3.007638908722319159e-03,-3.007638908722319159e-03,-0.000000000000000000e+00,1.432984789526587158e-02,1.432984789526587158e-02,1.432984789526587158e-02,1.432984789526587158e-02,1.432984789526587158e-02,1.432984789526587158e-02,3.018238308895735723e-03,3.018238308895735723e-03,3.018238308895735723e-03,3.018238308895735723e-03,3.512845713512231620e-03,4.946074046164957881e-04,4.946074046164957881e-04,4.946074046164957881e-04,6.869786716163366362e-04,6.869786716163366362e-04,4.429806239831970797e-03,1.890843961172752191e-02,1.890843961172752191e-02,2.212557378108413048e-02,2.865880738089639571e-02,2.865880738089639571e-02,2.865880738089639571e-02,2.108930899138667867e-02,9.942739036168714642e-03,6.725604866812103476e-03,6.725604866812103476e-03,6.725604866812103476e-03,-0.000000000000000000e+00,-0.000000000000000000e+00,-0.000000000000000000e+00,6.935533903893890961e-03,6.935533903893890961e-03,6.935533903893890961e-03,6.935533903893890961e-03,6.935533903893890961e-03
-9.748733378156525936e-03,-9.748733378156525936e-03,-9.748733378156525936e-03,-3.769650317960771685e-02,-4.479656041120403526e-02,-1.293833591876538402e-01,-1.531950674606079588e-01,-1.898149280186734456e-01,-2.835186186146142484e-01,-3.818598573352038339e-01,-4.116304132298752028e-01,-4.851931894221592767e-01,-4.755500568789978733e-01,-4.952064721903317590e-01,-4.977946229775663811e-01,-5.177872815860045108e-01,-4.850217526409001390e-01,-4.295156566884230087e-01,-4.164397487540865694e-01,-3.581832728311071801e-01,-2.809357171858999913e-01,-2.125638864135344086e-01,-1.736751365647210554e-01,-1.779966424291022642e-01,-1.683359064650960246e-01,-1.683359064650960246e-01,-1.696340373911824351e-01,-2.021615192047755138e-01,-2.145308854631700068e-01,-2.274523642297566206e-01,-2.116394978068912303e-01,-2.102302791980859009e-01,-2.220026013467421844e-01,-1.967231519496581704e-01,-1.764883658654375909e-01,-1.820674137588967345e-01,-1.656822645278031025e-01,-1.463330556615425326e-01,-1.406702006473895261e-01,-1.242416675287714989e-01,-1.293178926673926032e-01,-1.354931527728438778e-01,-1.485116188463354026e-01,-1.403682147968969840e-01,-1.178551903836401182e-01,-1.143259435114751255e-01,-9.590309755236811617e-02,-8.988555023479868900e-02,-3.529779346863540224e-02,-2.416442520160970442e-02
-0.000000000000000000e+00,-3.007638908722319159e-03,-3.007638908722319159e-03,-3.007638908722319159e-03,-3.007638908722319159e-03,-3.007638908722319159e-03,-3.007638908722319159e-03,-0.000000000000000000e+00,5.239958595501887674e-03,7.320261795435779525e-03,7.320261795435779525e-03,1.457972237824041103e-02,1.457972237824041103e-02,1.494043440157622436e-02,1.295631683514225120e-02,1.295631683514225120e-02,1.295631683514225120e-02,1.295631683514225120e-02,2.961924569747256819e-02,2.401857507863486979e-02,2.543150859958281940e-02,2.543150859958281940e-02,2.543150859958281940e-02,2.543150859958281940e-02,2.072354638967364993e-02,1.071649376669074226e-03,3.009989874497792650e-02,4.196727890284172174e-02,4.903190988014804325e-02,6.080132519439417071e-02,6.770091692252913629e-02,7.601943905368223342e-02,7.601943905368223342e-02,7.601943905368223342e-02,7.601943905368223342e-02,6.334116967027626777e-02,7.026740636081174607e-02,6.438184860682745481e-02,5.261243329258132040e-02,5.142718440868102037e-02,4.991806525423314600e-02,2.872923416983191175e-02,2.239233897325530048e-02,2.074014201946364905e-02,2.074014201946364905e-02,1.486075992605763278e-02,1.486075992605763278e-02,1.486075992605763278e-02,-0.000000000000000000e+00,-0.000000000000000000e+00
4.652871401324965711e-03,4.652871401324965711e-03,4.652871401324965711e-03,4.652871401324965711e-03,4.652871401324965711e-03,3.217134169356610732e-03,3.217134169356610732e-03,1.726783587731185732e-02,1.734478438411179296e-02,2.581415506405052712e-02,2.581415506405052712e-02,2.259702089469391856e-02,2.259702089469391856e-02,4.055765390323663039e-02,4.055765390323663039e-02,5.337797770555471888e-02,5.905440393521336345e-02,5.897745542841342087e-02,5.897745542841342087e-02,3.370985140713367301e-02,2.998435902081119861e-02,5.281583204009802912e-02,6.409602454922924686e-02,4.237822382083019507e-02,4.237822382083019507e-02,3.935998551193446021e-02,4.002903220449562788e-02,4.162103239885628359e-02,4.162103239885628359e-02,2.466441366006641434e-02,1.874335012557450456e-02,3.253125097288247364e-02,4.557154171008057086e-02,4.549459320328063522e-02,4.549459320328063522e-02,4.549459320328063522e-02,3.398491729637988235e-02,3.148106298583103202e-02,9.645599081166307542e-03,9.645599081166307542e-03,9.645599081166307542e-03,9.645599081166307542e-03,9.645599081166307542e-03,-0.000000000000000000e+00,2.134555158862009704e-03,2.134555158862009704e-03,2.134555158862009704e-03,2.134555158862009704e-03,2.134555158862009704e-03,2.134555158862009704e-03
8.530264235762438293e-03,8.530264235762438293e-03,8.530264235762438293e-03,8.530264235762438293e-03,9.828395161848850481e-03,2.796705402560892978e-02,1.943678978984649322e-02,1.943678978984649322e-02,1.943678978984649322e-02,1.943678978984649322e-02,2.075863816151102270e-02,2.619979297750943837e-03,2.619979297750943837e-03,2.619979297750943837e-03,2.619979297750943837e-03,6.504372636391891893e-03,3.011664730504424320e-02,4.209428720237790023e-02,4.209428720237790023e-02,4.209428720237790023e-02,4.209428720237790023e-02,3.460266988051321352e-02,2.270874774502771448e-02,2.270874774502771448e-02,2.270874774502771448e-02,1.279000190983592931e-02,3.568013216589744491e-03,3.568013216589744491e-03,3.760384483589585339e-03,3.760384483589585339e-03,6.918143211792127101e-03,2.087101955429427128e-02,2.087101955429427128e-02,2.665063114087251259e-02,2.645825987387267000e-02,3.028493069516674865e-02,2.692970774018780405e-02,1.190518202101658977e-02,1.222626170562326683e-02,6.446650119045024656e-03,6.446650119045024656e-03,1.770935535398314832e-03,1.770935535398314832e-03,1.770935535398314832e-03,1.770935535398314832e-03,1.770935535398314832e-03,1.770935535398314832e-03,-0.000000000000000000e+00,-0.000000000000000000e+00,-0.000000000000000000e+00
1.676799060497631078e-03,1.676799060497631078e-03,1.676799060497631078e-03,1.133753502450387217e-02,9.660735964006241308e-03,1.473156571484044927e-02,1.473156571484044927e-02,1.473156571484044927e-02,2.532191972721450218e-02,1.566118376320826261e-02,1.566118376320826261e-02,1.059035401237405291e-02,1.059035401237405291e-02,1.059035401237405291e-02,1.059035401237405291e-02,1.059035401237405291e-02,-0.000000000000000000e+00,-0.000000000000000000e+00,-0.000000000000000000e+00,-0.000000000000000000e+00,1.676799060497631078e-03,4.294022342167291839e-02,5.120187674373695430e-02,8.059170404923444997e-02,8.059170404923444997e-02,7.891490498873682258e-02,7.641854114881614646e-02,5.317427918836729883e-02,2.938982730549748873e-02,4.329156895462112076e-02,1.779319813192326016e-02,2.959010334499763764e-02,2.959010334499763764e-02,2.959010334499763764e-02,4.072364510570698759e-02,3.464090429619513800e-02,3.074944781339551333e-02,2.331397306537918643e-02,3.398774860100718664e-02,3.970434710826735436e-02,3.691656056966647476e-02,3.691656056966647476e-02,4.198739032050068098e-02,4.198739032050068098e-02,4.198739032050068098e-02,4.198739032050068098e-02,3.351801964056194683e-02,3.351801964056194683e-02,2.844718988972774060e-02,1.577331698636401380e-02
1.190165722331450876e-02,1.527216426241824639e-02,1.688073134709655240e-02,2.867763656017092988e-02,2.490483867405125784e-02,1.891053449571843126e-02,1.677597933685642112e-02,1.340547229775268176e-02,1.179690521307437748e-02,1.402216642906429361e-02,9.660735964006241308e-03,1.822629227744489849e-02,1.822629227744489849e-02,1.822629227744489849e-02,1.887535774048810372e-02,9.214621776481860677e-03,9.214621776481860677e-03,6.490654630432057684e-04,6.490654630432057684e-04,6.490654630432057684e-04,-0.000000000000000000e+00,-0.000000000000000000e+00,-0.000000000000000000e+00,-0.000000000000000000e+00,1.071649376669074226e-03,3.206204535531083713e-03,3.206204535531083713e-03,1.141770104387261967e-02,1.403768034162356307e-02,1.403768034162356307e-02,1.296603096495448949e-02,2.106932094126081484e-02,1.857295710134014566e-02,1.285782443291928062e-02,1.285782443291928062e-02,1.285782443291928062e-02,1.350688989596248585e-02,2.315479136864196513e-02,2.214337915556932948e-02,2.214337915556932948e-02,2.214337915556932948e-02,2.214337915556932948e-02,2.709498431136382265e-02,7.209237703516004417e-03,2.262410512806174723e-02,2.262410512806174723e-02,2.262410512806174723e-02,2.262410512806174723e-02,1.702343450922404883e-02,1.452707066930337965e-02
-2.722895957200308081e-02,-3.176958474489892381e-02,-5.384303917445738830e-02,-7.962454785702405280e-02,-9.338995616999617999e-02,-1.562159974371170601e-01,-2.289654517544124912e-01,-2.623962461373526289e-01,-2.882776411322101606e-01,-3.263355877206385314e-01,-3.492038296061757419e-01,-3.540023790884248567e-01,-3.715846933609748270e-01,-2.928102439510411603e-01,-2.719786095181231378e-01,-2.630433737437159469e-01,-2.532407744761099311e-01,-2.227024023382379592e-01,-2.422636329809375044e-01,-2.018516397634182169e-01,-2.277551173490630076e-01,-2.473384696142605366e-01,-2.257445049629472344e-01,-1.699073685052816807e-01,-1.666902343359250582e-01,-1.717610640867592575e-01,-1.717610640867592575e-01,-2.612922715343161117e-01,-2.807539786143138372e-01,-2.583361173867067540e-01,-2.953963750446930714e-01,-3.274808417393682003e-01,-3.574001092626429843e-01,-3.590236582290473044e-01,-3.352375434471350779e-01,-3.341687536180301121e-01,-3.196031697185585108e-01,-2.858115363070254933e-01,-2.722120388264248625e-01,-2.607896637540829676e-01,-2.493654840063233014e-01,-2.121836960717328191e-01,-1.946403761501047103e-01,-1.781387895933324583e-01,-1.691881647559233537e-01,-1.296350055550115066e-01,-9.253568883982522808e-02,-7.319407994177225263e-02,-3.421211648060043520e-02,-2.978948180384381056e-02
-0.000000000000000000e+00,-0.000000000000000000e+00,-0.000000000000000000e+00,-0.000000000000000000e+00,1.014165950166841593e-02,1.014165950166841593e-02,1.503648848077939783e-02,2.855606848912641688e-02,2.855606848912641688e-02,2.855606848912641688e-02,1.841440898745800095e-02,1.841440898745800095e-02,2.676017223687391852e-02,1.853576923471392593e-02,1.853576923471392593e-02,1.324059222852689947e-02,1.324059222852689947e-02,1.324059222852689947e-02,1.324059222852689947e-02,1.324059222852689947e-02,1.509119154447867862e-03,3.031800371118795190e-02,4.005423371757067114e-02,5.913188596183366341e-02,7.025866373801557818e-02,7.705671686987482227e-02,8.359728375475886097e-02,7.691079534263738082e-02,6.717456533625465465e-02,6.717456533625465465e-02,4.960603224643954368e-02,6.618831837486410796e-02,6.618831837486410796e-02,6.618831837486410796e-02,4.867090047703865469e-02,4.716178132259079420e-02,2.727193981646010637e-02,1.342399172373950206e-02,1.342399172373950206e-02,1.342399172373950206e-02,9.825865318043972702e-03,1.859456338862607722e-02,1.859456338862607722e-02,1.859456338862607722e-02,1.859456338862607722e-02,1.859456338862607722e-02,1.406387507676912924e-02,1.406387507676912924e-02,8.768698070582102780e-03,-0.000000000000000000e+00
2.969148845616692914e-02,4.289581503879846131e-02,4.289581503879846131e-02,5.659465327698427056e-02,5.659465327698427056e-02,5.659465327698427056e-02,4.306808261601382387e-02,4.306808261601382387e-02,4.306808261601382387e-02,4.306808261601382387e-02,2.021051995187112676e-02,1.389120950518564837e-02,1.389120950518564837e-02,1.540032865963351580e-02,3.256682588331189648e-02,3.256682588331189648e-02,2.921912554013684354e-02,2.366834405796758994e-02,2.215922490351972252e-02,2.215922490351972252e-02,4.992727679841340964e-03,2.121033505473120858e-03,2.121033505473120858e-03,2.121033505473120858e-03,1.843285401732811662e-02,2.928596123759727443e-02,3.444373110367438678e-02,4.461794625793844699e-02,4.249691275246532396e-02,4.726806322704786567e-02,3.891341758451188904e-02,3.560169470483758036e-02,4.048721081523652676e-02,5.402663804318579011e-02,7.218680302646536540e-02,9.338317010795540996e-02,1.019989631112001860e-01,1.218724691862503873e-01,1.220865223093215018e-01,1.285908949457134076e-01,1.299882620787537191e-01,1.114079360126186274e-01,1.081908018432620189e-01,7.885464013991165533e-02,5.780150896063371291e-02,1.499041200625107068e-02,-0.000000000000000000e+00,-0.000000000000000000e+00,-0.000000000000000000e+00,-0.000000000000000000e+00
-7.722029569732734300e-02,-1.044732617210704095e-01,-1.233755587255021546e-01,-1.612891622469175279e-01,-2.018548566089285179e-01,-2.512504480068956658e-01,-2.898118842417268803e-01,-2.940588331941930145e-01,-3.074796489512324760e-01,-3.065135893479826734e-01,-2.847751453220240814e-01,-2.664329086289090043e-01,-2.190846750467946302e-01,-1.450838604932155329e-01,-1.464653700403601988e-01,-1.583612916979603435e-01,-1.856551327035897148e-01,-2.045311693299405320e-01,-2.140470304274588731e-01,-2.409698808567785067e-01,-2.382212334800151710e-01,-2.476365654216590717e-01,-2.127294931032581715e-01,-1.588442308904951250e-01,-1.588442308904951250e-01,-1.588442308904951250e-01,-1.792670635867082418e-01,-1.988037675015862926e-01,-1.611833179920143244e-01,-1.507828277800857542e-01,-1.459015709444340669e-01,-1.538535601279790999e-01,-2.064020587046904720e-01,-2.209716735976103852e-01,-2.605817281089817805e-01,-2.661439944923434386e-01,-2.704482225731146272e-01,-2.571342326794761046e-01,-2.558361017533897219e-01,-2.195026523335711077e-01,-2.079564916972026778e-01,-1.452360334662095298e-01,-1.346932814591223215e-01,-8.708519637291188553e-02,-7.877539708757723413e-02,-6.773636769953109149e-02,-6.333888321181115055e-02,-4.791953565345104249e-02,-3.686482807362941733e-02,-3.063894064392796643e-02
1.077942253177048473e-03,1.077942253177048473e-03,1.077942253177048473e-03,1.077942253177048473e-03,-0.000000000000000000e+00,-0.000000000000000000e+00,-0.000000000000000000e+00,-0.000000000000000000e+00,-0.000000000000000000e+00,9.290904600357891008e-03,9.290904600357891008e-03,9.290904600357891008e-03,1.058903552644430146e-02,3.971383699897269165e-02,9.096298136762596964e-02,1.072455821468586423e-01,1.068174759007163993e-01,1.255335006842620282e-01,1.242353697581756039e-01,1.088984691329551863e-01,6.903618962462072794e-02,3.513122801960852359e-02,3.555933426575075967e-02,2.708996358581202551e-02,2.041851049314850203e-02,4.177071908669353212e-02,5.680677148228388540e-02,5.680677148228388540e-02,5.680677148228388540e-02,5.680677148228388540e-02,5.699914274928372798e-02,4.223730894338157543e-02,1.923712669998408481e-04,1.923712669998408481e-04,1.923712669998408481e-04,1.923712669998408481e-04,7.971241104804040883e-03,1.708411992203062724e-02,1.708411992203062724e-02,1.708411992203062724e-02,1.708411992203062724e-02,1.708411992203062724e-02,1.708411992203062724e-02,1.708411992203062724e-02,1.708411992203062724e-02,1.708411992203062724e-02,1.708411992203062724e-02,9.112878817226588088e-03,-0.000000000000000000e+00,-0.000000000000000000e+00
-2.023240763389676233e-02,-3.257289046322396631e-02,-4.662038156158331698e-02,-6.682702642087143263e-02,-6.736285110920596508e-02,-6.736285110920596508e-02,-6.984268226194120799e-02,-7.285032117066353452e-02,-5.828032831736748576e-02,-5.822643673322961538e-02,-4.679364201234779974e-02,-8.896808415276014070e-02,-1.477862671251718718e-01,-1.692898906427631744e-01,-1.870408761722993085e-01,-1.778908020058562744e-01,-1.940298330950923633e-01,-1.982479228995527865e-01,-2.018285347407745012e-01,-1.843716951233151657e-01,-1.991218007105978738e-01,-1.973307593423228867e-01,-1.989378196776177277e-01,-1.602668947097292962e-01,-1.602668947097292962e-01,-1.704085542113977225e-01,-1.642721003411208858e-01,-2.061917423436052110e-01,-2.045643326198743339e-01,-2.184252807939759955e-01,-2.656226311700867759e-01,-3.122785525074409652e-01,-3.800058243044465711e-01,-4.307093457501405820e-01,-4.731295735379809630e-01,-4.780252542435568519e-01,-4.727919263059339183e-01,-4.530403012581780686e-01,-4.510943274988876706e-01,-4.159440315620643869e-01,-3.748865644878467962e-01,-2.478102664511991349e-01,-2.384743495478899022e-01,-2.248572493950832529e-01,-1.901001536147805537e-01,-1.433212485857040808e-01,-1.176898055761117501e-01,-8.377246328678733533e-02,-1.448987824157044191e-02,-9.660735964006241308e-03
1.452707066930337965e-02,2.279240668751809917e-02,2.279240668751809917e-02,3.119483554489546270e-02,3.119483554489546270e-02,3.119483554489546270e-02,2.149813285759520284e-02,1.323279683938048332e-02,1.681220607526345487e-02,1.142801552678182619e-02,6.294609820193987348e-02,6.854504447779001530e-02,8.207824435364535764e-02,8.207824435364535764e-02,9.637739203331409377e-02,9.637739203331409377e-02,9.637739203331409377e-02,9.637739203331409377e-02,8.965178716650198942e-02,7.644746058387046073e-02,6.640948196835960715e-02,4.930164410543431963e-02,3.093807624757584709e-02,1.382128277350331072e-02,-0.000000000000000000e+00,2.496363839920670482e-03,2.496363839920670482e-03,2.496363839920670482e-03,7.326731821923790702e-03,7.326731821923790702e-03,8.409777217886091338e-03,8.409777217886091338e-03,2.664143278990373925e-02,2.913779662982440843e-02,3.134064378587107791e-02,3.134064378587107791e-02,4.135976125930219960e-02,4.786587554282385748e-02,4.579761794904542438e-02,4.579761794904542438e-02,4.262959049730101480e-02,2.915911751384026723e-02,2.594198334448365520e-02,2.594198334448365520e-02,2.594198334448365520e-02,2.594198334448365520e-02,1.330809758759616233e-02,1.330809758759616233e-02,6.801983304074513126e-03,-0.000000000000000000e+00
-0.000000000000000000e+00,-0.000000000000000000e+00,-0.000000000000000000e+00,5.598946275850141818e-03,5.598946275850141818e-03,4.095126821488982022e-03,1.231746331914215092e-02,1.231746331914215092e-02,1.231746331914215092e-02,1.231746331914215092e-02,1.231746331914215092e-02,1.576701101490312479e-02,2.334502231516318027e-02,2.334502231516318027e-02,2.334502231516318027e-02,2.334502231516318027e-02,9.523739541659869551e-03,2.615108898103731330e-02,2.225748530381761736e-02,2.225748530381761736e-02,4.086613339082040969e-02,4.086613339082040969e-02,3.824615409306946628e-02,6.182492553123758450e-02,8.607695134729284603e-02,9.106003078181403032e-02,9.904571792482400050e-02,8.982372923157780353e-02,1.201030162118664479e-01,9.661301718244517944e-02,1.109259872283621662e-01,1.168053693217681877e-01,1.091550421049321956e-01,9.287000817780451112e-02,9.535605819681011730e-02,1.053553852320573275e-01,1.053553852320573275e-01,9.006235512765214946e-02,8.206103738423524419e-02,5.483921649051658187e-02,1.025778488556003225e-02,8.249372417440437727e-03,1.991071602312826511e-02,2.185644426452807570e-02,2.185644426452807570e-02,1.490520277317405017e-02,1.490520277317405017e-02,1.360707184708763798e-02,1.945728241399812550e-03,-0.000000000000000000e+00
-0.000000000000000000e+00,-0.000000000000000000e+00,-0.000000000000000000e+00,-0.000000000000000000e+00,8.255034142277746512e-03,2.287450387354197229e-02,2.287450387354197229e-02,2.453874643348908507e-02,2.453874643348908507e-02,2.453874643348908507e-02,2.064514275626939260e-02,1.628371229121133856e-02,-0.000000000000000000e+00,1.923712669998408481e-04,4.019042088293921233e-03,9.259000683795808040e-03,1.086756776847411406e-02,1.086756776847411406e-02,1.086756776847411406e-02,1.067519650147427321e-02,2.906698010764716903e-03,1.264292801714743397e-02,1.103436093246912969e-02,1.103436093246912969e-02,1.103436093246912969e-02,1.530347125019314997e-02,1.991434561216979052e-02,1.178668269046537903e-02,1.178668269046537903e-02,8.779043781743061173e-03,8.779043781743061173e-03,4.509933464019041764e-03,1.123553833083114524e-02,1.928770721015907880e-02,1.928770721015907880e-02,2.229534611888139839e-02,1.638634083081834392e-02,1.638634083081834392e-02,2.567539520852693546e-02,1.938516628362442831e-02,1.265956141681232570e-02,2.106199027418969097e-02,2.369345793768008399e-02,2.369345793768008399e-02,1.606864611991860869e-02,1.269813908081486933e-02,1.269813908081486933e-02,4.295710223437504936e-03,-0.000000000000000000e+00,-0.000000000000000000e+00
2.374517649084448984e-02,2.676341479974022469e-02,2.676341479974022469e-02,2.676341479974022469e-02,2.676341479974022469e-02,2.676341479974022469e-02,6.492198588969039577e-03,1.237158068237505237e-02,1.237158068237505237e-02,1.237158068237505237e-02,1.237158068237505237e-02,1.237158068237505237e-02,1.237158068237505237e-02,-0.000000000000000000e+00,3.541871070796629665e-03,3.541871070796629665e-03,3.541871070796629665e-03,3.541871070796629665e-03,1.797883738114780527e-02,4.573619007927465230e-02,5.449758871832388607e-02,8.314593766662634056e-02,8.314593766662634056e-02,1.001025564054162098e-01,9.945349094237300458e-02,7.983491829222112701e-02,6.023243224877822266e-02,2.085022241600956172e-02,2.931959309594829588e-02,2.931959309594829588e-02,1.301203982020163706e-02,1.884271162304555075e-02,1.494910794582585481e-02,2.126841839251133320e-02,1.279904771257259558e-02,1.279904771257259558e-02,1.214998224952939035e-02,6.319310446685477527e-03,6.319310446685477527e-03,6.319310446685477527e-03,6.319310446685477527e-03,6.319310446685477527e-03,6.319310446685477527e-03,6.319310446685477527e-03,-0.000000000000000000e+00,-0.000000000000000000e+00,-0.000000000000000000e+00,-0.000000000000000000e+00,-0.000000000000000000e+00,-0.000000000000000000e+00
3.592864141159923808e-02,6.843835804241441001e-02,8.089013290181730487e-02,8.588286058165864323e-02,8.588286058165864323e-02,8.588286058165864323e-02,7.422151697597081932e-02,5.317617502874315977e-02,3.356397761763759563e-02,1.394433632285610458e-02,1.419142427586318755e-02,1.419142427586318755e-02,1.419142427586318755e-02,9.660735964006241308e-03,9.660735964006241308e-03,9.660735964006241308e-03,7.355646216304551933e-03,7.355646216304551933e-03,7.355646216304551933e-03,7.355646216304551933e-03,8.864765370752420229e-03,8.864765370752420229e-03,8.768579737252498937e-03,1.509119154447867862e-03,1.509119154447867862e-03,-0.000000000000000000e+00,-0.000000000000000000e+00,7.156725711873814302e-03,7.156725711873814302e-03,7.156725711873814302e-03,7.252911345373734726e-03,1.107958216666781598e-02,1.631954076216970279e-02,1.953667493152631135e-02,1.953667493152631135e-02,1.953667493152631135e-02,1.944048929802639353e-02,3.217134169356610732e-03,3.217134169356610732e-03,-0.000000000000000000e+00,-0.000000000000000000e+00,-0.000000000000000000e+00,-0.000000000000000000e+00,1.509119154447867862e-03,1.509119154447867862e-03,1.509119154447867862e-03,1.509119154447867862e-03,1.509119154447867862e-03,-0.000000000000000000e+00,-0.000000000000000000e+00
-1.712858581317105999e-02,-2.318757396247780184e-02,-3.084983909732212301e-02,-3.840079869840000437e-02,-4.732200431206972507e-02,-6.722294000251480273e-02,-6.722294000251480273e-02,-7.002636350697878653e-02,-6.938588494265790496e-02,-7.795223558837295619e-02,-9.577020582694288631e-02,-1.155931480041476611e-01,-1.310395781894973244e-01,-1.551308989692323781e-01,-1.540219357438529779e-01,-2.012639167242031846e-01,-2.199195792661055027e-01,-2.446503158972219705e-01,-2.588057457961721042e-01,-2.766468553966302535e-01,-3.071304249543352349e-01,-3.114434910681090907e-01,-2.471159959585432220e-01,-1.823515926582980895e-01,-1.823515926582980895e-01,-1.823515926582980895e-01,-1.726908566942918499e-01,-2.577881355693890653e-01,-2.961007476500727709e-01,-2.690481162973213936e-01,-2.853414387462180346e-01,-3.021552144937024176e-01,-2.918898474895528783e-01,-3.007762944898917379e-01,-2.839584339459446660e-01,-2.941340839069243041e-01,-2.830580793965007391e-01,-3.080312951369127417e-01,-3.258816702911086494e-01,-3.509060579305682270e-01,-3.582217423181468519e-01,-3.636668719905662428e-01,-3.066534124367981673e-01,-2.738431005972918331e-01,-2.549075017820502942e-01,-2.073802943978086399e-01,-1.614160435506489244e-01,-1.268145654584064419e-01,-8.311236196624331718e-02,-4.038740427572561770e-02
-0.000000000000000000e+00,-0.000000000000000000e+00,-0.000000000000000000e+00,-0.000000000000000000e+00,-0.000000000000000000e+00,-0.000000000000000000e+00,-0.000000000000000000e+00,-0.000000000000000000e+00,-0.000000000000000000e+00,-3.007638908722319159e-03,-3.007638908722319159e-03,1.697871583496121661e-02,2.723217629434642600e-02,2.723217629434642600e-02,2.736042380567964977e-02,3.036806271440197283e-02,3.459732372780681409e-02,2.697251191004533880e-02,2.375226658870992560e-02,2.375226658870992560e-02,2.526138574315779303e-02,2.526138574315779303e-02,2.526138574315779303e-02,1.776432298574384672e-02,1.073110784769405225e-02,9.221988693246184823e-03,3.220245321335413625e-03,1.168961600127414908e-02,1.168961600127414908e-02,1.168961600127414908e-02,1.168961600127414908e-02,1.168961600127414908e-02,8.469370679938735894e-03,3.220245321335413625e-03,3.220245321335413625e-03,3.220245321335413625e-03,7.046916142629494444e-03,2.129905580154822092e-02,2.280817495599608835e-02,1.958792963466067516e-02,1.958792963466067516e-02,1.958792963466067516e-02,1.052130021786470450e-02,-0.000000000000000000e+00,-0.000000000000000000e+00,-0.000000000000000000e+00,-0.000000000000000000e+00,-0.000000000000000000e+00,-0.000000000000000000e+00,-0.000000000000000000e+00
7.631861185528672487e-03,1.299176698592869120e-02,2.014849269780250723e-02,2.308818374450551103e-02,2.308818374450551103e-02,2.595818686047607349e-02,2.535731979258960475e-02,2.146586330978998008e-02,3.163822564596002751e-02,2.869853459925701331e-02,2.869853459925701331e-02,2.869853459925701331e-02,2.154180888738320074e-02,1.648848968995352340e-02,-0.000000000000000000e+00,-0.000000000000000000e+00,8.383626084769259246e-03,3.314146655016551174e-02,3.608115759686851554e-02,3.608115759686851554e-02,3.961040446903350831e-02,3.961040446903350831e-02,3.961040446903350831e-02,3.961040446903350831e-02,3.667071342233050452e-02,4.257971871039355899e-02,1.429263137283231372e-02,5.909005288063055340e-03,5.909005288063055340e-03,5.909005288063055340e-03,5.909005288063055340e-03,1.927137674114894408e-02,2.559068718783442248e-02,4.155118242387015326e-02,4.155118242387015326e-02,4.190421278136687022e-02,4.062813473076631182e-02,3.670545370008485714e-02,3.670545370008485714e-02,3.670545370008485714e-02,3.670545370008485714e-02,3.800358462617127453e-02,6.405738218274360796e-02,8.749538209753390805e-02,1.109987577731779973e-01,1.059778262577100588e-01,1.059778262577100588e-01,1.046796953316236484e-01,8.373137678938658013e-02,1.556557880450313083e-02
-0.000000000000000000e+00,-0.000000000000000000e+00,-0.000000000000000000e+00,-0.000000000000000000e+00,-0.000000000000000000e+00,-0.000000000000000000e+00,-0.000000000000000000e+00,-0.000000000000000000e+00,-0.000000000000000000e+00,-0.000000000000000000e+00,-0.000000000000000000e+00,-0.000000000000000000e+00,-0.000000000000000000e+00,-0.000000000000000000e+00,6.576264652869272601e-03,6.576264652869272601e-03,6.576264652869272601e-03,1.798324935049041076e-02,2.078358465990925996e-02,2.078358465990925996e-02,1.741307762080552407e-02,1.420732000703998910e-02,1.420732000703998910e-02,8.427708420461747785e-03,1.071649376669074226e-03,1.071649376669074226e-03,1.425901608055547658e-02,1.425901608055547658e-02,2.171084793035994720e-02,2.171084793035994720e-02,2.063919855369087536e-02,2.578262400546250249e-02,2.578262400546250249e-02,5.089496375538657413e-02,9.203848918533903689e-02,7.721903500969090617e-02,8.842179917648711196e-02,1.012868956518624547e-01,1.156498906170599916e-01,1.156498906170599916e-01,1.124441330032944497e-01,1.024655381329303561e-01,9.126277396613413639e-02,8.363857862280241195e-02,6.621386909000531729e-02,2.216161607767939967e-02,2.216161607767939967e-02,-0.000000000000000000e+00,-0.000000000000000000e+00,-0.000000000000000000e+00
-3.698721582333056035e-02,-5.559778171862396479e-02,-8.758129134216016687e-02,-8.758129134216016687e-02,-9.818768853083600923e-02,-1.349633347648208082e-01,-1.262867210415994923e-01,-1.470394496517672955e-01,-1.510491021677335954e-01,-1.681426468969553500e-01,-2.012997906746649690e-01,-2.260857255082109329e-01,-2.840881212011975299e-01,-3.229795875105480052e-01,-4.014789853138668319e-01,-3.967392359421285097e-01,-3.961825546250994368e-01,-3.760894207175324855e-01,-3.511374416918956465e-01,-3.306183663126178174e-01,-2.703393649984390246e-01,-2.829317115891708534e-01,-2.429299956743435074e-01,-1.711390897252872689e-01,-1.744638769034213277e-01,-1.846055364050897540e-01,-1.762429313671699249e-01,-1.931622174776112810e-01,-2.294921556982297273e-01,-2.256995387723102486e-01,-2.183830923225182352e-01,-2.711718756965085797e-01,-3.098964324288633332e-01,-3.268502326872146369e-01,-3.299650152283447047e-01,-3.277779615209412412e-01,-3.145074418509672398e-01,-2.717068898076860917e-01,-2.314462570913026762e-01,-2.175462436066538108e-01,-1.559519178483170232e-01,-1.473107386387009221e-01,-1.344035569957587883e-01,-1.289829336249244118e-01,-1.215646358142410816e-01,-1.138995482041306184e-01,-9.100699490347971543e-02,-8.564331067572654443e-02,-6.638277609546017199e-02,-4.816079608063884854e-02
-3.894856606882350636e-02,-7.222832780147306342e-02,-8.926869021337742460e-02,-1.294690312751291261e-01,-1.891044364843548764e-01,-2.367932445717702283e-01,-2.507133423577901365e-01,-3.154150381934008873e-01,-3.199060038713820164e-01,-3.274785796320110465e-01,-3.494543105017371420e-01,-3.371899176630026029e-01,-2.794012108988386256e-01,-2.770702027882951390e-01,-2.224184162798739928e-01,-1.802596868902637262e-01,-1.165747180213709822e-01,-1.165747180213709822e-01,-8.994681092259816657e-02,-6.305862034133921656e-02,-9.065837243618143915e-02,-1.407699942978437868e-01,-1.421089059566414958e-01,-1.448757596167705997e-01,-1.448757596167705997e-01,-1.550174191184390260e-01,-1.471416411463832008e-01,-1.694682188757721253e-01,-1.725264015467891099e-01,-1.595327870509446744e-01,-1.542626260970174912e-01,-1.781277043140880034e-01,-1.895565128581541137e-01,-2.367108575823176353e-01,-2.812754145696138020e-01,-3.222428281186442978e-01,-3.420502697867617847e-01,-3.249519642639976391e-01,-3.080171809756073742e-01,-2.956984045630996483e-01,-3.089663294771495261e-01,-2.785513383631803563e-01,-2.506459540363130123e-01,-2.144786075931250369e-01,-1.687778166750928677e-01,-1.634827991245592360e-01,-1.182238579605299766e-01,-9.052771451727971430e-02,-6.699775122283870010e-02,-3.354553837129426591e-02
-0.000000000000000000e+00,-0.000000000000000000e+00,1.014165950166841593e-02,2.524486842486973331e-02,6.363385812166319488e-02,8.364984736988700931e-02,8.754130385268663050e-02,8.754130385268663050e-02,7.639356491471963051e-02,7.639356491471963051e-02,5.125426719956427402e-02,1.802083135477153264e-02,6.065525132170987259e-03,6.065525132170987259e-03,1.520145457400784092e-02,1.520145457400784092e-02,1.520145457400784092e-02,1.520145457400784092e-02,2.098106616058608223e-02,2.098106616058608223e-02,3.051740983264709939e-02,4.828412616113457456e-02,4.828412616113457456e-02,4.467687501081568646e-02,4.480626871230050656e-02,5.210736156230903054e-02,7.118993962262154529e-02,6.189259397407280427e-02,6.189259397407280427e-02,6.189259397407280427e-02,5.029839055038385492e-02,5.317013373506754292e-02,4.350939777106130335e-02,3.825716126047917776e-02,1.259499163756195445e-02,1.259499163756195445e-02,1.259499163756195445e-02,3.217134169356610732e-03,3.217134169356610732e-03,-0.000000000000000000e+00,-0.000000000000000000e+00,1.006079436298578647e-03,1.006079436298578647e-03,1.006079436298578647e-03,1.006079436298578647e-03,1.006079436298578647e-03,-0.000000000000000000e+00,-0.000000000000000000e+00,-0.000000000000000000e+00,-0.000000000000000000e+00
2.414332053367503755e-02,2.414332053367503755e-02,2.414332053367503755e-02,2.414332053367503755e-02,2.414332053367503755e-02,1.390700345076011091e-02,5.600670618837699268e-03,3.453003886353133572e-02,7.529118042645574493e-02,8.769290624988373972e-02,9.091004041924033441e-02,9.091004041924033441e-02,8.530936980040262907e-02,6.233286297102385437e-02,3.023832972404882219e-02,4.988069704754925782e-03,1.770935535398314832e-03,1.770935535398314832e-03,4.660741328687436139e-03,4.660741328687436139e-03,7.678979637583170995e-03,5.908044102184857246e-03,5.908044102184857246e-03,5.908044102184857246e-03,7.195561130163727510e-03,1.035062522839077202e-02,1.272013768587563001e-02,1.851283892867065101e-02,4.923129779435410358e-02,4.923129779435410358e-02,4.505397497308610832e-02,5.212126479449023103e-02,4.975175233700537131e-02,6.552683127009716058e-02,6.552683127009716058e-02,6.552683127009716058e-02,5.880122640328507011e-02,5.656864408010328638e-02,5.656864408010328638e-02,1.827745251260281395e-02,1.827745251260281395e-02,1.827745251260281395e-02,1.827745251260281395e-02,7.305708253153061181e-03,7.305708253153061181e-03,-0.000000000000000000e+00,-0.000000000000000000e+00,-0.000000000000000000e+00,-0.000000000000000000e+00,-0.000000000000000000e+00
-3.401358155523422078e-02,-4.205060752273095948e-02,-5.990428039621323308e-02,-7.625941962950180675e-02,-9.847319150749657413e-02,-1.138859004816461240e-01,-1.385771825007663938e-01,-1.468869817861010452e-01,-1.717119169353621966e-01,-1.890651303194978428e-01,-2.206551405255859077e-01,-2.478942834146893870e-01,-2.971765421570873311e-01,-2.900892368299261559e-01,-2.736665200349129856e-01,-2.611102702274647469e-01,-2.514570946231572401e-01,-2.387674449165337887e-01,-2.426938602749612595e-01,-2.038877061622708653e-01,-1.906410758485910795e-01,-2.110423292041800070e-01,-2.041392774572627911e-01,-1.510323423630800244e-01,-1.528987345096003703e-01,-1.528987345096003703e-01,-1.432379985455941307e-01,-1.488779394015559698e-01,-1.462588941852309421e-01,-1.511308746460107433e-01,-1.711975202144050134e-01,-2.412539395447133583e-01,-2.867907952320261078e-01,-3.356244883410275381e-01,-3.473682610939206050e-01,-3.604592875239531757e-01,-3.607604382164195100e-01,-3.275371755249004702e-01,-3.308377302262912045e-01,-3.183867202291341680e-01,-2.631536666653022660e-01,-2.397070644478204726e-01,-2.119399126111889131e-01,-1.873701573530058839e-01,-1.403325702540912101e-01,-1.252289113560743905e-01,-1.040426549181995702e-01,-9.137632244566652739e-02,-5.794746191872489349e-02,-3.745510512727011354e-02
4.575330668559272895e-03,4.575330668559272895e-03,4.575330668559272895e-03,4.575330668559272895e-03,1.664242559947113655e-03,-0.000000000000000000e+00,-0.000000000000000000e+00,-0.000000000000000000e+00,8.469370679938735894e-03,8.469370679938735894e-03,8.469370679938735894e-03,1.825723421107439820e-02,1.825723421107439820e-02,2.775073409609940533e-02,1.928136341616066771e-02,1.928136341616066771e-02,4.940178117205103886e-02,4.087151693628859883e-02,4.087151693628859883e-02,6.968040149302867636e-02,7.941663149941140254e-02,8.790712979445267083e-02,9.030508868327588590e-02,7.687991378207584270e-02,6.984599062774818345e-02,4.270134863095521177e-02,3.296511862457249253e-02,2.880668111275535431e-02,2.213784615638003661e-02,1.395705628182676399e-02,3.041916460665298333e-02,3.333025271526514344e-02,3.333025271526514344e-02,3.333025271526514344e-02,3.333025271526514344e-02,2.610181589916996114e-02,1.364892430084285388e-02,6.492198588969039577e-03,6.492198588969039577e-03,6.492198588969039577e-03,6.492198588969039577e-03,6.492198588969039577e-03,6.492198588969039577e-03,-0.000000000000000000e+00,-0.000000000000000000e+00,-0.000000000000000000e+00,-0.000000000000000000e+00,-0.000000000000000000e+00,-0.000000000000000000e+00,-0.000000000000000000e+00
-3.134602036342799131e-02,-4.285164925505287326e-02,-5.726729675541564202e-02,-8.540641154380318456e-02,-1.152450738761903459e-01,-1.401809746781010890e-01,-1.696790361644566758e-01,-1.996508150841814488e-01,-1.889805354169756813e-01,-1.961151551801271486e-01,-2.196283975537203781e-01,-2.126940002171973654e-01,-2.345993911318953740e-01,-2.402789025878962481e-01,-2.531857306019681397e-01,-2.422418190057172571e-01,-2.642857044631486962e-01,-2.638320697841309848e-01,-2.689698402450578785e-01,-2.487381885614717847e-01,-2.242072114151956730e-01,-2.152828670399736244e-01,-1.383444110899925972e-01,-1.055601047605012888e-01,-1.023429705911446663e-01,-1.074138003419788795e-01,-1.154272921328186319e-01,-1.018183096370492702e-01,-9.176820733659962759e-02,-8.948318740666963422e-02,-9.514981530059801740e-02,-1.218371425125031743e-01,-2.090232591375970339e-01,-2.380400349256042436e-01,-3.101400379650834371e-01,-3.163979194877387657e-01,-3.409456568566020529e-01,-3.365927612314988937e-01,-3.652915052720636657e-01,-3.247093791197404600e-01,-2.990037663296003512e-01,-2.561540705133428242e-01,-2.695201000633901667e-01,-2.289588147252636929e-01,-1.667268396844040490e-01,-9.434464429201877556e-02,-7.709189420043224827e-02,-4.412902515774282108e-02,-2.796743569148588821e-02,-2.029312314914499815e-02
-0.000000000000000000e+00,-0.000000000000000000e+00,-0.000000000000000000e+00,-0.000000000000000000e+00,-0.000000000000000000e+00,-0.000000000000000000e+00,-0.000000000000000000e+00,5.879382093406013664e-03,5.879382093406013664e-03,5.879382093406013664e-03,5.879382093406013664e-03,1.095021184424022076e-02,1.095021184424022076e-02,4.642723504691971884e-03,1.190218408749660339e-02,1.190218408749660339e-02,1.190218408749660339e-02,6.831354336662395429e-03,2.850337906738409366e-02,3.866771531990904898e-02,3.866771531990904898e-02,3.140825473710441573e-02,3.140825473710441573e-02,3.140825473710441573e-02,3.697292200130400386e-02,2.598056395169141830e-02,2.860054324944236170e-02,2.860054324944236170e-02,2.860054324944236170e-02,2.860054324944236170e-02,2.867864532043522957e-02,5.070829750834207963e-03,1.179643461764631057e-02,2.500076120027784621e-02,2.500076120027784621e-02,2.500076120027784621e-02,1.992993144944363998e-02,1.992993144944363998e-02,1.992993144944363998e-02,2.794342324028339930e-02,3.236438832868926418e-02,1.048126965004180094e-01,1.111403662170555029e-01,1.235921410764584116e-01,1.205739027675626629e-01,1.155786492856186454e-01,9.163861039368273453e-02,7.485036641415167280e-02,2.998051079118763118e-02,1.897877872768102825e-02
-2.143587117421161606e-02,-5.223322050380212189e-02,-6.714381246544016968e-02,-1.214417176766242334e-01,-1.760693232852414136e-01,-1.896967746430825164e-01,-2.036567086841254148e-01,-2.112137130435522980e-01,-2.390940695017034767e-01,-2.613725666391792934e-01,-2.612498347612549066e-01,-2.692649301419971497e-01,-2.848110945924198223e-01,-2.808833013620646857e-01,-2.798464113076282178e-01,-2.881182909974894235e-01,-2.708029729141963049e-01,-2.623986875798368645e-01,-2.794456558680209479e-01,-2.918612589451375916e-01,-3.050162452692939397e-01,-2.849505157005400857e-01,-2.291192567781234202e-01,-1.656992164869624251e-01,-1.656992164869624251e-01,-1.656992164869624251e-01,-1.573589079813268732e-01,-2.036878008389801376e-01,-2.189222851094109745e-01,-2.247303678158068252e-01,-2.179927719300613631e-01,-2.208483178804812042e-01,-2.242388899101432909e-01,-2.094070223228526872e-01,-1.564719536197427818e-01,-1.382129885030152494e-01,-1.371490677356040910e-01,-1.425339655144600426e-01,-1.735043670008635797e-01,-2.035952501458730690e-01,-1.995201949619182236e-01,-2.203315517504081111e-01,-1.984906656389437973e-01,-1.878032214705512570e-01,-1.758499086689457036e-01,-1.497114001898427749e-01,-1.105429132347343218e-01,-8.754418823377434211e-02,-4.380978151609697668e-02,-4.220121443141866546e-02
-0.000000000000000000e+00,7.771094075036955040e-03,7.771094075036955040e-03,7.771094075036955040e-03,7.771094075036955040e-03,7.867279708536876331e-03,7.867279708536876331e-03,7.867279708536876331e-03,2.239887686254191795e-02,2.624426383912284791e-02,3.113909281823383154e-02,2.887248372853465708e-02,2.896866936203457490e-02,3.683023800501771666e-02,4.625858848234426501e-02,6.281331546474291927e-02,9.342853544272423927e-02,1.022000553181921234e-01,9.933013208478035094e-02,8.837504082085759216e-02,8.115671725499618017e-02,6.813796378546006782e-02,5.067032725945358473e-02,3.700384970406369461e-02,1.947914379889726516e-02,9.221988693246184823e-03,-0.000000000000000000e+00,6.725604866812103476e-03,1.638634083081834392e-02,1.638634083081834392e-02,1.638634083081834392e-02,1.768447175690475784e-02,2.742070176328747361e-02,3.063783593264408564e-02,2.097709996863784260e-02,1.425149510182573999e-02,1.425149510182573999e-02,1.295336417573932780e-02,3.217134169356610732e-03,-0.000000000000000000e+00,-0.000000000000000000e+00,-0.000000000000000000e+00,1.006079436298578647e-03,1.006079436298578647e-03,1.006079436298578647e-03,1.006079436298578647e-03,1.006079436298578647e-03,-0.000000000000000000e+00,-0.000000000000000000e+00,-0.000000000000000000e+00
-0.000000000000000000e+00,-0.000000000000000000e+00,-0.000000000000000000e+00,-0.000000000000000000e+00,-0.000000000000000000e+00,-0.000000000000000000e+00,4.076635907860345909e-02,4.130218376693799848e-02,6.441657100229948585e-02,7.264097400445947150e-02,7.585810817381608007e-02,7.585810817381608007e-02,6.732784393805364698e-02,4.839545222829439580e-02,1.651236692235081086e-02,8.287963920190818262e-03,5.070829750834207963e-03,5.070829750834207963e-03,5.070829750834207963e-03,-0.000000000000000000e+00,-0.000000000000000000e+00,-0.000000000000000000e+00,-0.000000000000000000e+00,-0.000000000000000000e+00,-0.000000000000000000e+00,5.358246883345371128e-04,5.358246883345371128e-04,5.358246883345371128e-04,9.005195368273273548e-03,9.005195368273273548e-03,9.005195368273273548e-03,8.469370679938735894e-03,4.854530887985034071e-02,6.634339042577699908e-02,5.787401974583826492e-02,5.787401974583826492e-02,6.753475570984450449e-02,6.753475570984450449e-02,4.962907863129992214e-02,1.473156571484044927e-02,1.473156571484044927e-02,1.972429339468179110e-02,1.006355743067554806e-02,1.006355743067554806e-02,4.992727679841340964e-03,4.992727679841340964e-03,-0.000000000000000000e+00,-0.000000000000000000e+00,-0.000000000000000000e+00,-0.000000000000000000e+00
-4.997104914941431775e-02,-8.953889491852257132e-02,-1.194331632230695717e-01,-1.314771686712631338e-01,-1.510044153908954856e-01,-1.734385131390093204e-01,-1.623938337102603102e-01,-1.821960683090349808e-01,-2.001539950382938693e-01,-1.822263451242887577e-01,-1.799455081045289451e-01,-1.779526792484636133e-01,-1.722973514072783374e-01,-1.421737437047505548e-01,-1.508586738307407527e-01,-1.782001563015534751e-01,-2.072168939728677994e-01,-2.173728795130571156e-01,-2.487538813034794460e-01,-2.570073587350688582e-01,-2.445858775958169307e-01,-2.791154718334060703e-01,-2.414892601624614721e-01,-1.857212332870019633e-01,-1.834172762184873851e-01,-1.834172762184873851e-01,-1.767747785633768942e-01,-2.940090099290775250e-01,-3.646712756604004735e-01,-3.629467315404528160e-01,-3.972286379905198839e-01,-4.362252803233505061e-01,-4.559688299945638956e-01,-4.416074749064397009e-01,-4.356977972705988744e-01,-4.104522619341188228e-01,-3.788155145044980743e-01,-3.181021576755582725e-01,-2.424363705248659961e-01,-1.801685082494204893e-01,-1.606091547482438875e-01,-1.051683530654805715e-01,-9.368056684803034717e-02,-7.671432317586099336e-02,-6.511871868620797144e-02,-6.041189468070838620e-02,-4.504498431935362313e-02,-3.276034079010720079e-02,-2.057267226520803974e-02,0.000000000000000000e+00
2.866631645980797019e-02,3.970848468806058296e-02,6.022630916185089250e-02,6.022630916185089250e-02,6.022630916185089250e-02,5.857936205691206821e-02,4.557503044249110874e-02,3.453286221423849944e-02,3.453286221423849944e-02,4.457224560444879996e-02,4.457224560444879996e-02,4.457224560444879996e-02,2.893393701314277838e-02,2.893393701314277838e-02,2.135929272652392283e-02,-0.000000000000000000e+00,-0.000000000000000000e+00,1.131516322369095599e-02,7.716851234297704420e-02,7.716851234297704420e-02,7.867763149742490469e-02,7.867763149742490469e-02,8.494361572932689064e-02,8.210505139418772247e-02,7.044605771420346663e-02,4.209078900527769840e-02,1.970568897992247201e-02,1.970568897992247201e-02,2.817505965986120617e-02,1.969846077130942355e-02,1.343247653940743414e-02,8.469370679938735894e-03,2.313447126779522023e-02,2.313447126779522023e-02,1.820697165865311357e-02,1.820697165865311357e-02,1.820697165865311357e-02,1.820697165865311357e-02,7.368541892090710484e-03,2.072145904564584931e-02,1.717958797484922182e-02,1.717958797484922182e-02,1.717958797484922182e-02,1.717958797484922182e-02,8.112958558053251154e-03,2.471284533740153010e-03,2.471284533740153010e-03,2.471284533740153010e-03,2.471284533740153010e-03,2.471284533740153010e-03
-1.773547478860926577e-02,-2.312182398792553273e-02,-2.786857393043803283e-02,-2.786857393043803283e-02,-2.786857393043803283e-02,-4.991582837882677093e-02,-7.766181052166329368e-02,-9.905805070291257008e-02,-1.036554943267010004e-01,-1.207649393788560455e-01,-1.346930501840246652e-01,-1.736098615458435690e-01,-2.092176843234006267e-01,-2.426370626126038987e-01,-2.593597764140589401e-01,-2.782927175766950478e-01,-2.841343974986678678e-01,-2.823713456311081615e-01,-2.721522131467920547e-01,-2.325453962719649659e-01,-2.394082163278696274e-01,-2.372904538102384442e-01,-2.028168249158600334e-01,-1.763234899027135705e-01,-1.763234899027135705e-01,-1.763234899027135705e-01,-1.801501607240076352e-01,-2.014541639472927359e-01,-1.958864665150886475e-01,-1.926466246461674414e-01,-2.502871360467332496e-01,-2.981104701499710519e-01,-3.647027874793029034e-01,-4.062189281913026750e-01,-4.302168503288844037e-01,-4.184956846437711819e-01,-4.260257788122785438e-01,-4.043275345539191212e-01,-3.649255916574351000e-01,-3.408291269393302070e-01,-2.530137124241948476e-01,-2.252915577904190669e-01,-2.025154511768178511e-01,-1.957264667885394993e-01,-1.613232921158058164e-01,-1.024078330183506719e-01,-7.772307563920338724e-02,-5.215487258903425682e-02,-1.971471663439352401e-02,-1.565823712123959321e-02
-0.000000000000000000e+00,-0.000000000000000000e+00,-0.000000000000000000e+00,-0.000000000000000000e+00,1.746652865167295891e-03,1.746652865167295891e-03,1.140738882917353633e-02,1.140738882917353633e-02,1.147952805429847817e-02,9.732875189131181409e-03,9.732875189131181409e-03,9.732875189131181409e-03,7.213922512494031804e-05,3.898810046419021354e-03,1.128713693589941669e-02,1.128713693589941669e-02,2.050912562914559978e-02,2.050912562914559978e-02,2.043698640402066141e-02,1.661031558272657929e-02,1.197472099471206045e-02,1.197472099471206045e-02,1.197472099471206045e-02,1.197472099471206045e-02,1.022806812954476369e-02,9.221988693246184823e-03,-0.000000000000000000e+00,7.213922512494031804e-05,7.213922512494031804e-05,7.213922512494031804e-05,7.213922512494031804e-05,7.213922512494031804e-05,7.213922512494031804e-05,1.006079436298578647e-03,1.006079436298578647e-03,1.006079436298578647e-03,1.006079436298578647e-03,1.006079436298578647e-03,6.001332918242603329e-03,8.775070518154459709e-03,8.775070518154459709e-03,8.775070518154459709e-03,8.775070518154459709e-03,1.539380289961735440e-02,1.039854941767332994e-02,1.039854941767332994e-02,1.039854941767332994e-02,1.039854941767332994e-02,7.624811817761474424e-03,-0.000000000000000000e+00
-1.305837178641998213e-02,-2.837715870768093424e-02,-4.547637955336571169e-02,-6.685503981740166524e-02,-7.594909861544688057e-02,-1.219543877169628615e-01,-1.451195218507873586e-01,-1.580808157086648069e-01,-1.703202515680584117e-01,-2.079188205603085260e-01,-2.115178500675631568e-01,-2.739574558773942847e-01,-3.027846932743901154e-01,-3.487269159121449413e-01,-3.516207568731696820e-01,-3.442708478936730709e-01,-3.858505868551566076e-01,-3.753750324878174505e-01,-3.625589226515886221e-01,-3.570301195169524600e-01,-3.215178220344437898e-01,-2.469911042766781140e-01,-1.976577227994203989e-01,-1.113591217889320917e-01,-1.076031222397154929e-01,-1.076031222397154929e-01,-1.076031222397154929e-01,-1.058244223819158614e-01,-9.039471172313910674e-02,-1.095403682588608346e-01,-1.012974656161587800e-01,-1.405299067866252472e-01,-2.005119461189093233e-01,-2.704667734123839540e-01,-2.874791909412210411e-01,-2.997968889264633341e-01,-2.900381485191466102e-01,-2.693213003834714070e-01,-2.576309975480129966e-01,-2.388050389338052804e-01,-1.830946849405954979e-01,-1.669227514953754710e-01,-1.390949226501440317e-01,-1.210033365214910894e-01,-1.115591312438915517e-01,-8.049702878712912402e-02,-2.591385065171991631e-02,-2.206324442949260389e-02,-8.254709733965116814e-03,-8.254709733965116814e-03
7.671103238830460046e-03,7.671103238830460046e-03,7.671103238830460046e-03,7.671103238830460046e-03,5.994304178332829185e-03,-0.000000000000000000e+00,-0.000000000000000000e+00,1.676799060497631078e-03,2.528947244353500073e-02,2.528947244353500073e-02,2.528947244353500073e-02,2.528947244353500073e-02,2.361267338303736987e-02,2.361267338303736987e-02,1.159420342368895455e-02,-0.000000000000000000e+00,-0.000000000000000000e+00,3.908940313817878438e-03,3.908940313817878438e-03,3.908940313817878438e-03,3.908940313817878438e-03,3.908940313817878438e-03,3.908940313817878438e-03,-0.000000000000000000e+00,-0.000000000000000000e+00,-0.000000000000000000e+00,1.646271926808075270e-02,2.037165958189863374e-02,2.037165958189863374e-02,2.037165958189863374e-02,2.757245521437891311e-02,4.136035606168688566e-02,8.989219590232065682e-02,1.138110663074963919e-01,1.271371311356339906e-01,1.353615341377940040e-01,1.484242756556615750e-01,1.484242756556615750e-01,1.153508358593340610e-01,8.915541418902624138e-02,3.347856734548432939e-02,1.872716047504620687e-02,1.551002630568959484e-02,1.551002630568959484e-02,1.551002630568959484e-02,1.551002630568959484e-02,-0.000000000000000000e+00,-0.000000000000000000e+00,-0.000000000000000000e+00,-0.000000000000000000e+00
-4.894503016887964686e-02,-5.741276468582304920e-02,-8.520274962829946230e-02,-1.056044513248030892e-01,-1.242352226039235147e-01,-1.368180545799765890e-01,-1.414440843974440754e-01,-1.661533155487464331e-01,-1.479319122182620183e-01,-1.563705787827287252e-01,-1.366601784550617316e-01,-1.073301348551478906e-01,-1.047413302212941155e-01,-1.434981721537781363e-01,-1.594218464739087793e-01,-1.661579148077564350e-01,-1.869208041091565686e-01,-1.696510814842532300e-01,-1.747600799955192352e-01,-1.397536222271248962e-01,-1.436580514859311652e-01,-1.928610012339256330e-01,-1.832352281857346776e-01,-1.671040559771740097e-01,-1.671040559771740097e-01,-1.671040559771740097e-01,-1.637488496824756612e-01,-2.430551004419421735e-01,-2.814513358147530120e-01,-2.646144819741823584e-01,-2.991457567472075585e-01,-3.183983075964744169e-01,-3.138691996361716585e-01,-3.133749776950122135e-01,-2.813543823627241980e-01,-3.058007034481674546e-01,-3.235230556857534578e-01,-3.472202740702352020e-01,-3.473517954455184187e-01,-3.691510842452747632e-01,-3.714885950493810318e-01,-3.544698297991401015e-01,-3.202429411254392178e-01,-2.807613085422462351e-01,-2.530361035269895753e-01,-2.041017707634372735e-01,-1.262976858965323967e-01,-1.078876182000813311e-01,-7.753981018710551232e-02,-4.246417264892535931e-02
-3.809219358892572405e-02,-4.877962470066852380e-02,-9.401662417907775959e-02,-1.269709080036658111e-01,-1.427934198923148379e-01,-1.799868232524344802e-01,-2.368506901164951495e-01,-2.699285676531145706e-01,-2.988490378645188295e-01,-3.028548124883980175e-01,-3.079681967898426631e-01,-3.119744809796412000e-01,-3.055341917242173078e-01,-2.798404582952567776e-01,-2.613497899656772039e-01,-2.774480206170375496e-01,-2.987736894013157118e-01,-2.557879738493519239e-01,-2.692586821202075376e-01,-2.647976471920271968e-01,-2.690477367238643946e-01,-2.771961694768932394e-01,-2.221623309562404947e-01,-1.700001268360116224e-01,-1.687029746750784431e-01,-1.788446341767468417e-01,-1.788446341767468417e-01,-2.449569549816818514e-01,-2.559384653183052749e-01,-3.070306138192064327e-01,-3.351254524666398282e-01,-3.286288666284060134e-01,-3.579310160265043450e-01,-3.606986531220703340e-01,-3.513995391342810692e-01,-3.302584771760451177e-01,-3.034335592960513139e-01,-2.771231784718498070e-01,-2.170258874866260457e-01,-1.620337932538340464e-01,-1.593516716295306224e-01,-1.346775167719941046e-01,-1.072125430200260437e-01,-8.479208394921171343e-02,-6.740339290615655898e-02,-5.241037620511251882e-02,-4.641044379765378591e-02,-3.910348992949522900e-02,-3.307041997061713895e-02,-2.656607226264148108e-02
