-1.798953418395394244e-01,4.628125351121635589e+00,8.558474229052769999e+00,3.663236938552636435e+00,1.013802097402802893e+01,1.005170777443545305e+01,1.415913435038617774e+00,5.999977745735955104e+00,1.164054820507949906e+01,1.305906960881216250e+01,4.374723208316939171e+00,1.897056262340364441e+01,-5.709048399358139569e+00,3.649081179513470108e+00,1.081907016559613943e+01,2.060316157533011250e+01,1.512374118855132465e+01,-2.847243966842634144e+00,6.399009398168711016e+01,5.326439660049739189e+01,5.286216539890438781e+01,5.145615973973640678e+01,4.380398859523291577e+01,5.653057539782061269e+01,5.881667010848007493e+01,4.579204008785342239e+01,5.441943456760203901e+01,5.445871381557897450e+01,4.731568202046601357e+01,7.235992778777760748e+01,3.660160324501141105e+01,3.469568942934743205e+01,-9.215248829577285861e+00,2.003571879528897526e+01,1.947857244382007025e+01,1.365031085628022467e+01,1.361587670450349563e+01,-1.166465971913742017e+01,1.477328635508345089e-01,-8.425475479812904567e+00,-7.876968408345248029e+00,9.386157534627590948e+00,-3.803908011971086633e+00,1.068996026999697202e+00,1.989174495744028803e+01,1.318818669105725583e+01,1.354663216607831266e+01,7.750855637420705158e+00,5.828087738881744251e+00,-6.641146119114827329e+00
3.215831489584874525e+00,7.008974845383031393e+00,8.696305384238184999e+00,-5.703799113368033247e+00,-2.728864309046179049e+00,8.361030951311324344e+00,3.499737853552896016e+00,1.386399198147843137e+01,1.084258003126726422e+01,-9.105300442992172449e-01,-4.381157897617944386e-01,8.348175027093871492e+00,5.317720875808302772e+00,-4.413797057687967929e+00,6.177942485755869129e+00,1.174934542640069779e+01,1.223889046820691462e+01,-9.652149122916105384e+00,7.158136201981635338e+01,4.926952040665425159e+01,6.919734359421134684e+01,5.737728294634521831e+01,6.664939680627634289e+01,6.913435029138561561e+01,6.246796851253981231e+01,5.267462944844878336e+01,3.281606120651938596e+01,3.874211257738517133e+01,4.313541133384963899e+01,4.727708303016082425e+01,5.079140470965450049e+01,5.864287346390391775e+01,8.707919213208628051e+00,2.415831439376926681e+01,9.448840528372363323e+00,3.763379901722820886e+00,1.130042882225495759e+01,5.698755017119011557e-01,-3.355937053621056876e+00,3.211183446278990328e+00,7.390731081895355992e+00,2.896473675146916094e+01,4.071578308604917318e+00,2.841525154052765600e+01,1.466521861470698873e+01,1.467009906420206633e+01,-1.601164711550189024e+00,6.070870434513149227e+00,7.646160046805002608e+00,1.909150456770382753e+00
3.351672254409277407e+00,5.015127803862341693e+00,1.007772722851400182e+01,1.225803966119741162e+01,3.256522088995086328e+00,6.327735076799059222e+00,-1.639511538860040973e+00,4.104723580151929951e+00,8.747652812496150787e+00,1.258985469716468186e+00,2.968122928394182569e+00,3.589910449812393267e+01,2.693350286170714725e+01,3.294697826610062208e+01,2.599825261494412842e+00,5.491794411187692404e+00,2.886413467831032520e+01,5.033431354562667437e+00,3.061846682996829472e+01,5.057966189355887110e+01,5.614967960686888659e+01,5.086227371260347496e+01,4.304470727151050369e+01,6.891244936821635747e+01,3.415761554987393112e+01,6.024974025541520462e+01,3.978811157011839583e+01,5.579725445862969480e+01,6.283003581487464118e+01,5.753351096672727039e+01,4.363902957514785896e+01,5.667326768455016150e+01,6.734895449701200576e+00,1.702902376556819775e+01,-5.251054269645908157e+00,4.437721119315490625e+00,-7.277547452787277216e+00,8.757107664937148428e+00,2.254930220473954350e+01,9.826718784726693912e+00,2.783405383721637349e+01,3.625158378998172726e+00,-1.853761585595733052e+01,3.828323277950592018e+00,1.045253472294168873e+00,3.701123759227398224e+00,6.843586571664214802e+00,3.338361917693266179e+00,-1.940128828253588233e+00,5.508937433935967576e+00
2.095242007441749710e+00,9.453394287509434335e+00,4.320825643714805153e+00,6.602550496485368292e+00,7.413571043519421089e+00,2.488865640553865788e+01,1.069256012423787716e+01,1.716208758414046187e+01,2.779092178770151378e+01,3.781881980080893868e+01,4.069781674408723404e+00,-1.899446110695559042e+01,1.877478075508773969e+01,-1.914353857872966103e+01,-1.621136223038494251e+01,2.343095844403800143e+01,-5.082932300125079017e+00,3.717701274206925177e+01,6.065632031040706096e+01,3.934551968742319872e+01,5.867386629443605273e+01,4.692429946953616593e+01,4.436892199766476352e+01,4.759916252257902869e+01,5.230985476033221460e+01,2.631078391166052910e+01,5.587877771819050565e+01,5.270206246180477905e+01,5.203387186782905616e+01,4.131998857744422793e+01,6.392498926034335227e+01,3.379825217708503970e+01,1.617093178694949884e+01,1.325625854209430088e+01,1.639122526549419945e+01,4.262040877572377440e+01,-8.097579127462919857e+00,-1.944506897301372939e-01,1.035371506319615875e+01,2.119335690759289648e+01,2.532716176947944930e+00,6.380472203816847987e+00,-3.991958726625462361e+00,1.585464794639888275e+01,1.027506114260614289e+01,-3.581857905965764921e+00,5.663789207253403291e+00,2.369463402340427294e+00,-1.739014031495663204e+01,-1.867591747331134755e+00
5.167302898030698977e-01,8.558680811613934125e+00,7.665752777126187745e+00,9.441945843239224700e+00,1.584482004171020542e+01,8.733544958271725278e+00,2.991990110746031917e+01,-1.204744968351883472e+01,3.888078433661755184e+01,3.454809420870321901e+01,1.549133643669289029e+01,3.315452494834047581e+00,8.806300348966320968e+00,1.397188414615742680e+01,-1.743943015765043958e+00,2.470536404100280592e+01,7.244324339057963691e-01,-6.885613392806243738e+00,5.726831031614296563e+01,4.310943156421173938e+01,3.849715334576288939e+01,5.429052530711224023e+01,4.683839864194339242e+01,5.251304553650977169e+01,7.031624249845890517e+01,4.685583558126570836e+01,3.823858825607431555e+01,4.322540796748140224e+01,6.646001596367111119e+01,5.099384631053764849e+01,4.210420192909798232e+01,6.132937357613131724e+01,7.361580501216357320e+00,2.678709832819683001e+01,1.325737077782957485e+01,3.479929606490794214e+01,1.709870357835116650e+01,-2.960574903760338117e+01,-1.575635052077130460e+01,-4.096749434935867740e+00,4.085965517030551553e+00,4.881222728469449379e+00,2.460586429770659667e+00,8.919421776793051038e+00,-2.605879854820897457e+00,7.297127179504936834e+00,4.531401596344515781e+00,-2.946961254736383928e+00,4.407587054342887001e+00,1.578616076811166113e+00
8.992160961756265891e-01,7.738111836071760230e+00,1.217145713074277324e+00,1.394682801758351687e+01,6.523357775977249418e+00,-4.133372488812914192e+00,1.156074559847791150e+01,2.653867464771084528e+01,2.283220682437105253e+01,1.503066913156504292e+01,-4.749721732983028133e+00,2.375985089002573503e+01,1.013891561098061267e+01,6.536766792428526429e+00,8.154773878230265893e+00,3.817659879912039145e+00,-3.884030219624460933e+00,-1.725606546418717002e+01,7.245555118298418051e+01,5.810358077035456148e+01,4.170483830914081125e+01,5.271711037782553433e+01,4.230769287661366462e+01,4.114620007003010471e+01,5.335568231103822257e+01,5.833048208169829962e+01,6.014523831668127229e+01,1.581489949397621331e+01,6.087569161025758291e+01,5.094040628069836174e+01,3.278684451715394488e+01,4.422429730492025612e+01,1.761302441901654348e+01,2.536160893460877830e+01,1.877369096963903061e+01,2.567942783048689837e+00,4.774309127479788861e-01,3.998780561364316810e+00,-1.875118828079463285e+01,7.487463450090312556e+00,-4.820149548872682210e+00,-2.016480385797002484e+01,1.739947021472308508e+00,2.029565064568582855e+01,1.615887920041877024e+01,2.252167046434705000e+01,2.455388536993665216e+00,-4.867368682499883192e+00,1.160355487378138939e+01,-2.661841802947116364e-01
4.108490731128954465e+00,-3.174216088445451778e+00,1.292943993198985630e+01,4.208723467532016649e+00,2.007574075069322816e+01,7.594518940033082366e+00,1.621933517042817385e+01,1.648139625666794927e+01,1.320685319360375765e+01,-1.434909109855601450e+01,1.303334413166038885e+01,4.999508451414454768e+00,1.021530700936865088e+01,-2.665547707742696115e+00,1.418362186062143060e+01,-2.594044799102365673e+01,1.773157231904207487e+00,2.658865542578939767e+01,3.989912296307652184e+01,3.112061910753883964e+01,5.700143027094764392e+01,5.179120362037472347e+01,5.165959922661438242e+01,5.778045587946073880e+01,5.284399490550028844e+01,5.692650925207836821e+01,4.712914889554268427e+01,4.827599926037883904e+01,5.038319321163666586e+01,3.522977034610978819e+01,4.398085642057626643e+01,3.245002177265939025e+01,-1.608986441043516891e+01,2.645415930725938836e+01,4.365895609693976276e+00,2.991139673490129880e+01,1.620189826385406207e+00,1.008489196680243438e+01,1.746166165629021805e+01,6.713796394090236319e+00,-8.875929869201673483e+00,2.262450857834123141e+01,6.866421059446150110e+00,1.773414853810718128e+01,2.732295934474134658e+00,3.481382532995401391e+01,9.556018367049079032e+00,1.214012544276668670e+01,5.465887259389069719e+00,7.027640232799910791e+00
6.822888098582695626e-01,5.030430247149472400e+00,1.473897996155456092e+01,4.697892234635833830e+00,-3.135351204854837093e+00,1.687959927402212301e+01,-1.699009852239897000e+01,-2.201501390446288120e+00,2.158788313103265821e+01,1.608762379303464130e+01,1.228401801081138345e+01,2.271472494385558960e+01,5.278152449346452002e+00,1.509482900922282056e+01,1.189489766780764768e+01,-2.684038527145573561e+00,1.642916297327360331e+00,1.994919858971911353e+01,5.591577435674388852e+01,7.288428207372773215e+01,4.039529622947910781e+01,3.793696455908076359e+01,4.942628619673407542e+01,4.503271719869059808e+01,5.075476928012543709e+01,5.919855273934083328e+01,4.000659144190091610e+01,3.443616411303294456e+01,5.059172337848596612e+01,4.607467524287790184e+01,4.571976461184186746e+01,4.921928449258105331e+01,2.845375826799409680e+01,1.566532556339066140e+01,7.559289518715500478e+00,2.649201495507399073e+01,2.237716014046185364e+01,2.103060100249951958e+01,1.999892024276830327e+01,1.668812101297156048e+01,1.337544642941320383e+01,1.356263545615801824e+01,1.996121040052167217e+01,2.419265609776905634e+00,1.350885707309374517e+01,3.878468649650307043e+01,2.355862840541797354e+01,-3.146189691970849633e+00,9.476340285913877892e+00,9.084390931432546168e+00
1.245012824621553493e+00,2.653710707324998364e+00,1.031253053302898337e+01,3.970458649332244683e+00,2.056394682848781130e+01,-1.911884495904640247e+01,-5.341883986404331042e-01,-2.781650768144452890e+00,4.418443892722931032e+00,2.269015692141545770e+01,2.424074636507729807e-01,1.745494169197701595e+01,1.993324863951181314e+01,2.618189166283152503e+01,-1.565296165956414409e+00,6.026800213522058414e+00,1.350409334997052291e+00,1.501812141173908488e+00,2.504681539752223074e+01,3.782904795371528905e+01,5.978391915809165624e+01,6.156775346160568319e+01,4.356370475087645389e+01,3.410073316691615730e+01,4.955865260173968778e+01,4.226494147916031352e+01,5.882023093571031325e+01,4.686220137987086076e+01,4.126474830843761765e+01,4.205129632279456331e+01,2.314846384924994283e+01,4.763636903756027863e+01,-3.575478173840666241e+00,4.438435441713981788e+01,1.914082583283059336e+01,-2.099613432635620835e+00,1.635328111601441492e+01,7.637852721588703098e+00,2.568663876357273068e+01,-1.390626640091801747e+01,1.797955890366585407e+01,4.067116686777031020e+01,3.069120056496887727e+01,3.801471392501670010e+01,1.224056656647545083e+01,1.898896885029085624e+01,1.647297667484327732e+01,9.308454305576312038e+00,1.628795387036967668e+01,1.388526384669466429e+00
-2.762188449958108194e+00,-3.840025840996328377e+00,-1.188616502936820574e+01,-1.153628750625966504e+01,-3.081725146067348486e+00,-2.881948799943943929e+00,-2.219686048099019704e+00,-1.147890726726958555e+01,-5.726166159432344749e+00,-1.578129927789167297e+01,4.885932764259687922e+00,-7.729871865326948921e+00,-9.188965686836983338e+00,-3.839203732154230053e+00,-5.600530254253142992e+00,-8.519026188719295289e-01,-5.295440702341993600e+00,-5.561783791572840308e+00,2.538051993635078674e+01,1.575712298022618363e+01,2.751926536895536302e+01,2.157079712382550696e+01,3.318992716473031379e+01,1.519883588921692485e+01,2.424644879728578317e+01,2.252481240713260746e+01,2.321370749260054822e+01,3.146908743162727973e+01,2.828855890026249398e+01,1.312049964636270794e+01,2.525706126989809164e+01,4.609089006846410541e+01,-1.776026122345564318e+01,-3.151899993612903472e+01,-8.272597121528800557e+00,-1.918886435362016840e+01,-4.605973747757603931e+00,-1.412506502181198798e+01,-6.157711498325371124e+00,-8.740225773548863097e-01,-2.859897933671564019e+01,-1.058632376875510239e+01,-1.053651499985190476e+01,-1.577825182039831375e+01,-8.771112131234097831e+00,-5.583189075899913867e+00,-6.858786269137730152e+00,-2.924138017253145705e+00,-1.711090018453992334e+00,-4.149459748876696885e+00
3.571317345994275971e-01,-1.560929271302082144e+00,-1.003341671022168491e+01,-7.339082430958933756e+00,2.273836066991388627e+00,-1.596488968252968155e+00,-1.155538192287719390e+01,-1.062597335180006830e+01,-1.296906734445829601e+00,-1.649009938508523376e+01,-2.288813590135064135e+00,-1.532299157268023748e+01,-1.473850276813248250e+01,-6.161198702773688751e+00,-1.161609146969546558e+01,-6.056167994175265967e+00,9.394374210575932693e+00,1.811553518376158634e+00,1.844182980313564713e+01,3.722144611514389112e+01,1.474719173901726599e+01,2.889925121750161097e+01,3.263750275176656857e+01,2.186937185667132866e+01,2.586993113768054187e+01,1.724608795408643758e+01,2.630079879361652928e+01,2.286652330112497111e+01,2.158171151493747786e+01,2.683224453489222938e+01,1.437169043408898084e+01,4.554062288006925741e+01,-2.502562905442402563e+00,-2.053519197632324378e+01,-1.722919799674725638e+01,-8.350733650265697250e+00,-1.467985804144787743e+01,1.760454796017939572e+01,-5.684531305760854636e+00,-2.542603572719465177e+01,-3.680229036902260553e+00,-1.497440809333448719e+01,-1.361391635589372484e+01,-6.584943824946251745e+00,-2.457027257893777872e+01,-1.772842589198753416e+01,-1.324090764377984009e+01,1.433410671813006410e+00,-8.957146637808962808e+00,-2.281323242223215697e+00
-4.887326422653491598e+00,4.980070127331620355e+00,4.293709279558643566e+00,-1.827105593122769100e+00,1.409833353334293271e+01,-4.454973169664127930e+00,5.912474389255524265e-01,7.550634379421576448e+00,3.373860543686657110e+00,8.093073211837708669e+00,-6.903446058485060099e+00,1.615901893762834973e+01,1.388654168608167083e+01,4.219726587080487867e+00,3.707194722543969867e+00,1.751944827309681330e+01,4.181204698405125875e+00,-2.294579185890738060e+00,7.167594940239779078e+01,6.237160029047416998e+01,4.721764567934944523e+01,3.587007233285461894e+01,3.863041600649778928e+01,4.322249253284117998e+01,6.808225622090975548e+01,3.297592237182558250e+01,3.596778538413066428e+01,3.280602701027108736e+01,4.517325359161863219e+01,5.315276486338937900e+01,3.428454831584627271e+01,5.138886708399905956e+01,2.314033702043063201e+01,1.223473243894671469e+01,-1.013072722199764719e+01,3.755489843798289940e+01,1.722294566030634044e+01,1.533513722444473615e+01,3.083023107721622225e+01,2.396739032376301282e+01,1.456693082334039246e+01,4.103109573617442152e+01,9.465641748771066233e+00,-2.084818105556417223e+00,2.116861402518274815e+01,9.295182983700298607e+00,6.146742826067235654e+00,1.366382477256307126e+01,1.120947052756118012e+01,-3.715070522510749207e+00
-4.824854241169223013e-01,-6.217172662034846198e+00,-8.163645046473696709e+00,-3.141130413203105931e+00,-1.730521230063866867e+01,-1.003547359501149394e+01,-2.466342595471069932e-01,1.023935251218962605e+01,-1.392276401467425551e+01,-1.384155983542576607e+01,-8.175123769900963566e+00,1.377323701754095575e+00,-1.823397068558819445e+00,-1.864883576333844672e+01,2.250297357118672625e+00,1.096434664440062434e+01,-4.925395555686262306e+00,-1.979811301453136352e+01,1.682886722117171274e+01,3.292772503568031084e+01,1.692082527312639328e+01,2.879976060228722545e+01,2.953766619757659484e+01,3.066975042113881145e+01,8.743152510052926374e+00,1.977189879177119636e+01,-3.113528530433985253e+00,2.814788843576033983e+01,1.775505883413367059e+01,1.675031233836651978e+01,2.779543911517988164e+01,2.949527706726332354e+01,8.795478819184022967e+00,-2.129890380589498733e+01,-1.992817477492473088e+01,-4.137874420173462298e+00,2.102583667779597043e+00,-1.061383884484025941e+01,8.193365122921846933e+00,-1.356021431062668903e+01,-2.217835689413085021e+01,-1.041624850227876031e+01,-5.228897876130617073e-01,-1.612029326368409698e+01,-1.903479337333946120e+01,-3.685686603916860093e+00,-3.945325734384356853e+00,-4.539959577104466071e+00,-1.211423007403967667e+01,-7.638180623611769526e+00
-2.076748943803435665e+00,-4.543735374630048618e+00,-9.354459603156280778e+00,-5.826908871488397423e+00,-6.952758989637837672e+00,5.671171002459063359e-01,-1.269639999047196355e+01,-1.128056177332486421e+01,-8.515824058279687137e+00,-4.101942898628740508e+00,-4.632424555983759795e+00,5.797602220606361101e+00,-1.955880409490412930e+01,-1.088830114532175308e+01,-2.995249941008363503e+00,-7.562554807766357357e+00,-4.202214658643663725e+00,-1.822190653363266222e+01,4.406156043007250389e+01,2.215710891071539734e+01,4.267122045222596682e+01,4.825580649998464366e+00,5.530629456422388301e+01,2.790735966589723205e+01,2.450213990707539224e+01,1.598324205653400387e+00,3.024345616884040666e+01,2.610812659850292761e+01,2.123504386727185178e+01,1.930783022578552632e+01,2.588110248416070647e+01,3.800074086341300728e+01,-1.487120793259013363e+00,-2.651033314354126347e+01,9.903111618371667202e-01,-9.599369954065300803e+00,-1.158833959801354752e+01,-9.877451559932662661e+00,-6.468188884784506598e+00,-1.422504528848632432e+01,-2.358543885619776237e+00,-1.786211851290444130e+01,-1.178879517695447099e+01,-1.576628472167793582e+01,-1.200578190752140273e+01,-1.683789498169137744e+01,-1.139223618595489995e+01,-8.706373600747697949e+00,5.461926066481494146e+00,-6.422195933433044956e+00
-1.776627026940416076e+00,-2.966594498152191672e+00,-6.500298787235900821e-01,-3.195095237960411172e+00,1.269875880366573284e+00,-2.309302540081215493e+00,5.138410738986798343e-01,-2.476995648259974203e+00,-4.102571677798132477e+00,-1.392734568787954430e+01,5.356917056680575717e-01,-8.598357705220861291e+00,-9.909267163046374449e+00,1.771879871137132856e+00,-1.181705788656108425e+01,-9.168805543349314746e+00,-2.884263843008794126e+00,-6.920005261233817428e+00,1.449735082212743720e+01,2.284501514527947919e+01,4.456251855398757300e+01,1.823448050815183663e+01,2.331524876676497726e+01,1.882460507063595045e+01,2.254744308077909309e+01,1.394641627113175808e+01,5.772696338179684972e+00,2.060994641236810310e+01,1.460252994003390903e+01,2.155589516177743548e+01,3.637228790559058922e+01,1.990570886166639397e+01,-1.814676296728012517e+01,-2.801785056509601635e+00,-4.180768853904566207e+00,-3.196655225944650880e+01,1.376106975553230027e+00,-2.712576638875510682e+01,-2.287683841063649837e+01,8.255794044783380414e+00,-1.714284391586859968e+01,-1.715717798625518764e+00,2.258524600779347136e+00,-1.127420829629808630e+01,-1.309088081398562053e+01,-2.096780096812595673e+01,-1.531086831425509409e+01,-5.965479477768487193e+00,-8.609835621226723745e+00,-2.724488210343445349e+00
6.104162904947004753e-01,-5.454043980438752826e+00,-6.259067806587401250e+00,-4.710296357323294991e+00,3.851277016628900096e+00,4.111637155280120304e+00,-1.062300002910347013e-02,7.965517299299332166e+00,-2.614718214073714364e+01,-1.369297109699605564e+01,-1.013259852700382524e+01,-2.444748075448557501e+01,-8.548041354576769280e+00,-1.494503195425988018e+01,-1.269748660567911358e+01,-7.386855845203935012e+00,-2.594854684903478148e+00,-2.319605602093433472e+00,-2.241495418519607596e-01,2.989896749075602855e+01,2.856295087059555726e+01,4.401597887022061428e+01,3.551420945069281743e+01,1.032880171534490366e+01,1.522077433954379799e+01,1.177087303019420794e+01,3.417324918871061357e+01,1.967455934768563353e+01,2.338894497653622295e+01,1.085901208700100185e+01,2.515921870301241370e+01,3.779442164815452543e+01,9.429250897220745387e+00,-2.290700714350415268e+01,3.790184127067782072e+00,-1.809140394499107174e+01,-4.556478031452637190e+00,8.184753828463234626e+00,-1.300905540527379678e+01,-9.989130642218460920e+00,-1.069717132353328992e+01,-1.829107634749641420e+01,1.480892913941715427e+01,-3.298795879058278757e+01,1.486298975913163956e+00,-1.693969014648619620e+01,-4.394796188971939799e+00,7.412547780025916744e+00,-1.004893364539484857e+01,-2.136336873579693485e+00
6.871031931645123159e+00,1.376991019092367274e+01,1.017147851524995872e+01,1.376581485221477275e+00,-5.643360735678998985e+00,5.021172596824259315e+00,-5.692086996596674275e+00,2.597377792246544814e+01,2.117833487820434613e+01,2.285761981155474842e+01,1.261515873752910899e+01,3.954172432727594444e+00,8.141933296953833832e+00,-9.528058448340706033e-01,1.414909056424060019e+01,-2.032387065609602672e+01,1.529675432005086755e+01,-8.390812369241420043e+00,5.589239626400608785e+01,7.535097807508638823e+01,2.923806607285052195e+01,5.430706585123554220e+01,3.572090942877736808e+01,4.830665952776531213e+01,4.677613468470616453e+01,5.187140968335345548e+01,6.337156837152206634e+01,5.590665322334260878e+01,4.890515161546438350e+01,6.105843473920741360e+01,3.615672881737355482e+01,5.939224269178508564e+01,2.857077153050873974e+01,6.150763260446077574e+00,2.204250979256058329e+01,2.087008411785341622e+01,-2.485000532313929256e+00,7.423806438773913108e+00,2.160973079048773826e+01,4.863409941098902678e+00,7.392247972005423051e+00,-1.543046917035677801e+01,1.013108014963765591e+01,2.484284875352712874e+01,1.860733212264717551e+01,8.942819331832307483e+00,1.283334990330502468e-01,-3.750818064347214431e-01,-9.316780576215254461e-01,-9.674622594557713562e-01
-8.747213910276013804e-01,-5.236392118234394211e+00,-6.759320172997869136e-01,1.314236471871924383e+00,-1.148023745349932589e+01,-9.857016376621590581e+00,-1.105417108295188688e+00,-5.942769534646769714e+00,-2.412999110562563942e-01,-7.461891012379509469e+00,-4.304060643905640582e+00,7.079819739548547375e+00,-8.926071244232229862e-01,-3.366919979927670781e+00,-1.474788162639253919e+01,-7.749509304241221308e+00,-2.522194522265782002e+00,5.763608827819651781e-01,5.549446818107041679e+01,1.357350683214754383e+01,2.584761044415354547e+01,3.044777734975012251e+01,1.981488550633497070e+01,1.906721226119671186e+01,3.108273316559818511e+01,2.006226325712065872e+01,1.775096326595469165e+01,2.065877238639863833e+01,2.622066243840125210e+01,1.753197710784277774e+01,1.527478467094998571e+01,2.963380154286601353e+01,-1.183752532610066588e+01,-1.049965609264646993e+01,2.790926018810587994e+00,2.024245351512059976e+00,-2.772414473339206609e+01,-3.439544226860059783e+00,-1.235990525271933116e+01,-1.060885335261811591e+01,-1.283608936527764044e+01,-1.828318123859251898e+01,-8.584947899133061000e+00,-2.549887968042698461e+01,-1.174201582377668451e+01,-2.127096684397958271e+01,-5.508620234819002093e+00,-1.152948821572609805e+00,-9.825988331066090709e+00,2.729036269742468601e+00
-6.623647354319512903e-01,-6.832209597130765921e+00,2.519395794945136213e+00,-2.955151692575050948e+00,1.421063858790696521e+00,2.902814055793735193e+00,-3.610879841464788242e+00,-1.930259615521148220e+01,-6.856943480057069884e+00,-1.199812111481441157e+01,1.100895691246928010e+01,-4.749560783632006178e+00,-2.257908206110196403e+01,-5.950562186373252516e+00,-4.672316308619880232e+00,-3.611398514043346331e-01,-5.660767486360493983e+00,-1.982806441428716937e+01,3.597815105237899758e+01,2.137323078002171783e+01,2.032315438952245046e+01,3.629227472579090374e+01,2.881130582526681749e+01,3.634424866791588471e+01,2.192128557363814778e+01,2.725656095834134263e+01,1.225921063224850727e+01,3.847069497803504845e+01,2.906670936582465004e+01,3.158827383107424680e+01,1.977004046063515119e+01,4.070399743532018277e+01,-1.640329187152475665e+00,-2.760805631878841027e+01,-1.168280095239913585e+01,-7.041464156718914680e+00,-1.665301291561949881e+01,-6.109992016325819231e-01,-1.128403243676573631e+01,-3.732433535311441286e+00,5.941356929952461563e+00,-7.497591971401447175e+00,-5.383303923647217992e+00,-8.021210107844428450e+00,-5.834018108896452226e+00,-2.925437578933085803e+01,8.284683633310082618e-01,-8.118083763411053866e+00,-1.270950828178073877e+01,-9.632235010346297255e-01
2.866764702445097512e+00,-9.037803262433438789e+00,8.614286830172150911e-01,-1.250848735736541251e+01,-1.483958086618950922e+01,-1.869601910478203122e+00,4.697594739964370270e+00,-8.250380830286875522e+00,-4.827443566451538715e+00,7.094049421089501983e+00,-5.652729859059338224e+00,-7.603607061977507797e+00,-6.027610676883348617e+00,1.002476166067803121e+01,-2.185072363266962192e+00,-1.812016435530932501e+00,-1.337185836203483547e+01,-2.082868246231913290e+01,1.370767371420825853e+01,2.277256513085038492e+01,3.510272564473498846e+01,2.806149703168816956e+01,2.120523931426183140e+01,2.365780835389928072e+01,4.559374226485325465e+01,9.566228542418967251e+00,2.619510054823721390e+01,8.845121497841637037e+00,1.199708932635372172e+01,3.005693543306406923e+01,1.031919028221672008e+01,2.879488886104100942e+01,2.882451977920370556e-01,-2.618470244157784954e+00,-1.207721483516071359e+01,-3.383098069233126637e+01,3.715373467838236188e+00,7.184615210660082241e+00,-1.031239900701414314e+01,-8.074084039910296440e+00,-4.354712139059120801e+00,9.538300639423905380e+00,-1.795321129857208575e+01,-2.425286558395914582e+01,-2.910158699431709461e+00,-1.800360580805728006e+01,-4.595091285100722622e+00,-8.475319763597465084e+00,5.730135816784369673e+00,-1.011068042966670077e+00
4.404582636369363868e+00,2.803784143171501597e+00,8.741931619703482426e+00,-5.035786558075139752e+00,1.571230963136298797e+01,6.362668346535845565e+00,1.304404056445953586e+01,2.052807333981381177e+01,-8.922899341718738830e-02,8.792769798385124957e+00,1.782227380944961581e+01,8.442057507850108777e+00,-6.661596861544240689e+00,1.777500703861662146e+01,5.548309896942014596e+00,9.610194982845543521e+00,3.471490642096366486e+00,2.172074535314353838e+01,5.945291980810516463e+01,3.975896061426222161e+01,5.638231617464906975e+01,4.608540026966431924e+01,6.561200065612099763e+01,4.322416742426856473e+01,4.686332921413409736e+01,3.400838078166481893e+01,6.996382183027172630e+01,3.711204870617503104e+01,4.506828289459238590e+01,2.892333357920745485e+01,6.085985510375439844e+01,4.281583269757256716e+01,4.137172819925707401e+00,3.167270421838075123e+01,1.263800813218193753e+01,9.437969827353670738e+00,9.903600858826862918e+00,6.736053613686492803e+00,2.163258083094186190e+01,-4.265738335993183306e+00,2.234714014985653208e+01,2.652601748281924188e+01,-9.545489330363009728e+00,2.067254224310321575e+01,2.455907615415819123e+01,3.037370899173962524e+00,3.267126332861552296e+00,-3.724507811134274426e+00,-5.936989380110536452e+00,5.341655144770848906e+00
-1.040801677591912888e+00,-8.222456918396071401e+00,-5.956885759058280883e+00,-4.365662448489012526e+00,-5.218270590324527447e+00,9.374477736414176476e+00,-7.342893575657583938e+00,-1.256583399636377330e+01,-9.642851598930354484e+00,-1.221774388356776875e+01,-3.511178487539849957e+00,7.741563934911766864e+00,-1.077412565456190663e+01,-1.448600547692296914e+01,1.645100226457373083e+01,-4.834366085147552283e+00,-1.360455058367136871e+01,8.221216903238448559e-01,1.305169506481354880e+01,3.410701437719601614e+01,2.999273475034949854e+01,4.163270027738457912e+01,2.232863472870361221e+01,2.667459683535672355e+01,2.836250246854761414e+01,2.256904503766800119e+01,8.256266077798796843e+00,3.441771132732478122e+01,2.550332275701185125e+01,4.067595806951993609e+01,4.599638843363804597e+01,1.153669821606212942e+01,1.765880627360401300e+00,-1.141191806974454215e+00,-3.122888534203543998e+01,-6.292147030994920343e+00,-1.900805630234768984e+01,-1.709230939268692850e+01,-3.158189013275717727e+01,-1.087458600399890862e+01,-4.777998121977429236e+00,-4.074262697446921777e+01,-3.814267660878522648e+00,-4.238459285345721916e+00,-1.273554330183772620e+01,-1.124567263925956517e+01,-1.661923478037291346e+01,5.753210136305057176e+00,3.376663659332104217e+00,-2.723397974764062202e+00
5.839937824557750901e+00,9.739601545363640867e-01,9.729379843510477244e+00,2.184386813715811115e+01,3.935768014735848919e+00,2.272429196474841007e+01,5.270702875714404101e+00,1.147235001717428027e+01,2.008801375334373063e+01,2.991380680683707283e+01,1.476473933562117757e+01,2.915882372011021406e+00,1.529498898192251310e+01,-1.717824158712147664e+00,-4.585296917096994829e-01,1.415074656692516086e+01,2.298251969310299181e+00,1.998406475923960457e+01,5.558835264410097921e+01,5.010865837685912538e+01,5.291098562725938592e+01,4.374315272686288836e+01,3.525201262074428143e+01,5.930060330698237436e+01,6.002671316693861314e+01,3.961660718583324581e+01,4.917077807014585034e+01,5.408603676176296915e+01,6.015004157392431949e+01,8.376545915525855435e+01,3.512467298803121452e+01,6.603943408187332409e+01,1.138061091115303070e+00,4.804222497925555224e+00,-3.274624171483761170e+00,2.311092965734413696e+00,-8.339832488264541155e+00,-4.829114004751569045e-01,-3.221300368268803282e+00,3.035112944962191861e+01,1.710468237241681777e+01,2.389607708403292285e+00,9.371811206815284123e+00,2.811406045287824540e+01,2.537976830355519553e+01,3.646792638596058822e+01,1.528786162272398386e+01,1.030856791389597760e+01,6.288759868436347489e+00,5.567264440184396257e-01
4.549155694347800427e+00,8.919829808782139935e+00,1.228400677300629340e+01,8.327368313462911731e-01,6.375860534073399144e+00,4.226120989328169486e+00,6.164719743286505071e+00,1.757633324327004232e+01,2.464141766721296989e+01,3.347604451797323577e+01,2.706355657790595259e+01,-4.441562363444060857e+00,6.769040264918383398e-01,-4.458908076493554695e+00,1.031138832462993804e+01,2.772403331523788239e+01,2.794284152059644910e+01,2.449471867743543996e+01,5.438409355615648622e+01,3.814503807330996921e+01,4.680095380956314699e+01,5.776224732100070014e+01,3.677054375126819963e+01,5.115805639706728414e+01,4.364875986388108942e+01,7.486267093453770372e+01,5.670501217269081451e+01,5.836823245269220450e+01,4.599011893686343910e+01,5.175228258854964736e+01,4.626337117070320204e+01,5.363153680055726369e+01,1.019869579201003340e+01,5.433246207731897925e+00,1.691746587663617873e+01,1.498853508661476397e+01,1.633884695466564096e+01,2.040969456478547173e+01,-7.155091578253762741e-01,4.743221362145383146e+00,-5.338928121037042729e+00,9.810804424352356223e-01,9.177343461382553969e+00,3.274026180450614998e+00,1.496857864961170925e+01,1.157672199126962198e+01,5.827419607089463049e+00,-1.378969167807255980e+00,9.019090903785735858e-01,1.728065929576621640e+00
1.804156263728480813e-01,-1.476454472416688546e+01,-1.203089880805089074e+01,-1.338553758323696208e+01,-1.163451273423448562e+01,-3.168805815268416648e+00,-2.284621730548103358e+01,-7.223005246591203132e+00,2.855204878054969253e+00,-1.136157584905525830e+01,-2.132107054827142534e+01,-6.396316408529296282e+00,-1.796460759093034554e+01,-1.964956365856895104e+01,-3.031331160227483945e-01,-4.172092161437756630e+00,1.021665126886909525e-01,-1.135167100745977820e+01,9.202486580564835705e+00,5.567661936520109833e+01,2.514994413440724941e+01,3.286158006924919306e+01,1.872897298822122991e+01,8.809195974594421941e+00,2.140274263283174960e+01,1.556727755819388825e+01,2.448867065440042623e+01,2.772090687381470175e+01,1.867646185550371207e+00,1.038091922717812565e+01,4.259803453169934784e+01,2.110869811406742969e+01,-1.128675593588614845e+01,-2.252440420313142866e+01,-9.301320427292122162e+00,-2.385549901795146965e+01,-4.810492051127353008e-01,-4.114660085391971478e+00,-3.973399172437750426e+00,-1.605219009489244897e+00,-1.484955738473642661e+01,-9.783769122521853490e+00,-1.754078089203328261e+01,-3.764118581693873722e+01,-6.328966156019172118e+00,-1.641070919574345766e+01,-8.109030673047463722e+00,-5.146980323309215066e+00,-2.111240098823438771e+00,-5.369685545007753191e+00
-3.413054797847298705e+00,-3.600176058080431840e+00,-4.601725802679120569e+00,-5.058336439651720084e+00,-1.149421985534854684e+01,-1.493378907419179136e+01,-4.260123096560539224e+00,-2.817170266918034738e+00,-4.220191728791233388e+00,-8.477433641318281587e-01,-4.762404687103952483e+00,-1.509227887695990411e+01,7.670276107334153437e+00,8.135742662566899597e+00,-7.928676882838952444e+00,-2.190653705826587228e+01,3.956573678778688929e+00,7.423512851287830117e+00,1.491014920536694177e+01,3.062384073386520811e+01,2.268175016926550214e+01,1.184271171412539125e+01,1.678751523612640639e+01,2.657430602039468326e+01,4.531287654390020947e+01,2.395423728083778059e+01,2.376290442208082254e+01,1.139596550112039708e+01,3.667928885435323849e+01,1.746052817831683868e+01,1.915879197305901371e+01,4.460004666179924726e+01,-4.907697755448678478e+00,-1.324271355702569508e+01,-3.611152986211067617e+00,-5.053280427026499488e+00,-1.780622465166960211e+01,-3.960851439471107405e+00,1.420963454284157912e+01,-1.673549086201654745e+01,-7.288636560770404671e+00,-8.108781026217549481e+00,-3.702033850694590456e+00,-9.408610560508343212e+00,-1.743680962720066319e+01,-8.831629500111494835e+00,-1.223887879567104697e+01,-1.850080816904760184e+01,1.200708803626486798e+00,-9.719793092003429891e+00
-1.130239811382874660e+00,3.277148220730546208e-02,-1.274328483326706341e+00,-4.649137066429079646e+00,-2.524789838197983194e+00,-2.397075904640645128e+00,-1.497617394370396982e+00,-6.015546794877216996e+00,-5.808762984861568057e+00,-1.527361641395776637e+01,-2.131617520864768522e+01,-7.783671113785898044e+00,-2.847876592425854980e+01,-6.259640975431109311e+00,-2.258172943090545814e+01,-2.855346548135262452e+01,-4.019114523035414166e+00,-1.234877995034273113e+01,3.099578784494173078e+01,2.177411431048310320e+01,4.446402750946773352e+01,2.878734652206848210e+01,3.420665420256028000e+01,2.272926661325197273e+01,2.254118881554261122e+01,2.797664983544446216e+01,1.121232924950312437e+01,1.624386753534903605e+01,3.144894444883327012e+01,1.373160263402340497e+01,1.550355295160456848e+01,3.173458755028654110e+01,3.106511944244107593e+00,-2.029855314472723649e+01,-1.216527928941673231e+01,-1.292847541347796358e+01,1.884596616911025535e+00,-3.294740942178613796e+00,6.005290661318730017e+00,-9.181574317534504370e-01,-1.325650888202185573e+00,-8.890692054530427768e+00,6.512028671016252268e+00,-3.985436019995615364e+00,-7.171222091107139818e+00,-1.491976324395380438e+01,1.116775385308915780e+01,-2.949921549655721176e+00,-3.686249282559322271e+00,2.484746582997876541e+00
8.133516589527846063e-01,1.233503467521378916e+01,1.466792398430960320e+00,5.844678898969617897e+00,1.250133767827823839e+01,2.270331293029804698e+01,1.288012059004105758e+01,2.525991021267602576e+01,1.387623336094636706e+01,2.093061842422030594e+01,1.675944541981634117e+01,3.885320530997054878e+00,4.415899487799130441e+00,9.213752197656678078e+00,1.358552347082614276e+01,1.670324628613540696e+01,1.731843795831155575e+01,-1.862029401312036470e+01,4.440503314761231479e+01,5.871090080462141714e+01,4.183931881190034119e+01,4.707681765641623883e+01,4.471333863262287167e+01,4.179662604538859227e+01,4.995996017498988095e+01,6.178824335865184025e+01,5.637614215252177274e+01,2.999668827694023321e+01,5.476318723003552691e+01,4.374509341688634123e+01,4.167081150712262883e+01,4.459273549925643465e+01,1.507362744579078040e+01,1.008676878561762535e+01,1.734359338206311207e+01,-7.129057148647620634e-01,1.683786488720764751e+01,3.848828483345897666e+00,-7.360578968135862432e+00,1.133764803254511655e+01,1.606810369482988321e+01,-7.613802476388037199e+00,-4.515470648038969692e+00,2.433904171755330381e+01,5.997199615805411277e+00,7.206986844846199780e+00,1.156074406600386695e+01,-7.544065053887815786e+00,-2.827271309765852614e+00,2.143744027657593865e+00
4.709850284417127497e+00,5.931167565557402988e+00,6.608233504958649362e+00,6.536209003378535165e+00,1.338661411225796449e+01,-3.839108632336368787e-01,-1.154645238029480758e+01,1.613256254049857574e+01,2.819464556462754601e+01,8.032496414533106588e+00,2.371523384647001631e+00,1.261384563488315713e+01,1.488574893032541446e+01,-6.981882240911276405e+00,8.378265093688730403e+00,8.865920065801830674e+00,-9.425365081085040231e+00,2.455933006350677772e+01,6.037433732411574283e+01,5.597365267390085108e+01,4.250989043907495812e+01,6.976383749415427360e+01,3.289041839256662314e+01,6.980317354607801406e+01,7.504681913834772899e+01,5.387386442100525130e+01,5.248857874579442040e+01,3.002674925238428116e+01,6.277363295174419022e+01,4.912307136116775297e+01,5.686301323271623431e+01,4.502053414118659447e+01,1.490075591874896332e+01,1.576048190506067481e+00,-6.163138677437866031e-01,2.477934724603185757e+00,-9.565951159089199907e-01,1.052180275005525090e+01,-4.099721841481995810e+00,1.652751606338521384e+01,-1.272939285495404960e+01,1.775381549441878704e-01,5.947028730536983332e+00,1.524045483318649552e+01,4.197505565822815754e+00,1.020557682503550367e+01,1.541967630683982371e+01,-8.778363204304277190e+00,-6.000883778605721197e+00,-6.414424508073360620e+00
1.020256335535318026e+00,-6.187016552194029906e+00,-1.614074114056840159e+01,-7.075769881875996425e+00,-1.108631623424882662e+01,-1.416191408284496411e+01,-1.951955079705482987e+00,-1.924496955069134430e+01,-1.443535012241828319e+01,-3.876659075858402304e+00,-1.110341638104850048e+01,-1.524582678262587798e+01,-1.409036770014449580e+01,-8.073925364249371128e+00,-4.095686695906902486e+00,-4.515362072976030205e+00,-2.763529261258378611e+00,-1.217916237912514354e+01,2.913491163322641242e+01,3.471841435797392705e+01,2.264931810654929478e+01,3.014093578245018179e+01,2.796454272431436294e+01,1.242093244732212654e+01,2.243567225524133590e+01,2.117124557316359912e+01,1.607387899847118717e+01,4.523468037075426906e+01,9.952500321001071626e+00,3.177859050363544213e+01,1.464253869703498623e+01,4.268322681710270672e+01,1.353675058640919915e-01,-8.792591070834788525e+00,-5.004617245194046937e+00,-1.513635200242996781e+01,-1.645687173883755960e+01,2.222717319986890594e+00,-1.437075149197664103e+01,1.693819781690011128e+00,-1.567184747491568508e+01,-1.805210111975125997e+01,-2.077344407552966121e+00,-1.809952644794078580e+01,-1.065768050852879867e+01,-2.843485749474083590e+01,-2.797095900922721512e+01,-3.898086265087571611e+00,-2.463183996416904886e+00,-4.264127118330292454e+00
3.693917262308819005e+00,1.205908571152605369e+01,1.355180928817362584e+01,5.407754790177667914e+00,1.000506314535506869e+00,1.142395155702672582e+01,9.571850973748121660e+00,5.974257664433740622e+00,2.351024193256482597e+00,1.310017940166270201e+01,7.242976789510133351e+00,1.825081732717794480e+01,1.705581465554663012e+01,1.017562543458591051e+01,1.600042865376934387e+01,1.101725436714199802e+01,1.391376422726383488e+01,1.150316529039566937e+01,4.746001782171835259e+01,5.300278968661894652e+01,5.912473054819020746e+01,3.609527389330364855e+01,5.355087215309718829e+01,5.746057850080373441e+01,6.235049819679517924e+01,4.984642316267839135e+01,5.767780021607906349e+01,3.563457175787780784e+01,5.424752703290827327e+01,4.772678044493698479e+01,6.232908578033124769e+01,2.916569988117828416e+01,-3.650310130459339053e+00,1.364028852209915144e+01,2.584957934435859173e+01,-3.866284842297306845e+00,-1.549510084541645938e+01,2.220982826731879811e+01,3.808915343715630897e+00,6.554228509877324527e+00,1.874175016037039398e+01,6.249340304795903300e+00,2.810494193961467602e+01,4.071050746287778566e+01,3.008126125007869689e+01,-6.304819216309890395e-01,1.133639135366697737e+01,1.926130857850787592e+01,8.011021840386431947e+00,6.496389432119775265e+00
2.372839694322525617e+00,-3.888535232136388631e-01,1.171873375968534958e+01,-3.377528590715286327e+00,5.312174796111360564e+00,-5.038851166076720567e+00,-5.946748533445814999e+00,2.039898685587506222e+01,-5.415736544747650205e-01,2.371687422317316774e+01,1.594572218429980559e+01,8.093818567836084554e+00,-5.543210298076526321e+00,3.722634028430854780e+00,2.804476537071606401e+01,1.992279827182344931e+01,-4.366030707733500549e+00,2.704912749955781948e+01,4.521919710221538935e+01,5.500895372745399925e+01,6.390588088014181523e+01,5.328110084386923262e+01,3.557326430730051925e+01,4.706080281554032041e+01,2.881414945642350389e+01,5.377524199265734950e+01,4.955740448025298406e+01,4.168077800218109985e+01,4.129031198782710987e+01,3.235748952742483198e+01,4.911062570178121689e+01,4.935664666974800241e+01,-2.090704995029301738e+00,1.802653263810682915e+01,3.199887826901750998e+01,5.138201068008361005e+01,1.942173557716901300e+01,2.912540181895012026e+01,2.458818051639449465e+01,1.139784805488688413e+01,1.745309053011216349e+01,1.449664554975822917e+01,1.185607303773513266e+01,1.236687814857630352e+00,1.261660379756468231e+01,3.050854319555214911e+00,1.953922106801381275e+01,1.128582441825779270e+00,3.741136410496681997e+00,-4.124729645226540065e+00
4.039781912486192006e+00,2.138985784673852475e+00,1.322843120772523129e+01,-9.123736337884245984e+00,2.099702059944861432e+01,-2.661334862277792812e+00,1.615980074734565619e+01,3.886502238253732422e+00,1.210342074508430521e+01,1.364234874442964340e+01,6.054259186514832081e+00,-2.033836459206854741e+00,3.077756893553060369e+00,-1.358566887589132932e+01,2.203078325165488494e+01,2.529615805358350755e+01,3.113322714682106085e+00,3.550870086224665556e+01,6.063360957620719205e+01,4.000087697533690800e+01,5.286158461540660625e+01,2.570858656340340076e+01,3.899997541322701267e+01,5.033856021407812875e+01,3.795554232280312590e+01,5.341084336245882014e+01,5.386527670476860408e+01,4.104855129205959940e+01,7.667179439021721521e+01,4.797338873090841105e+01,1.996271771795481342e+01,4.808586279483188974e+01,4.333083028666706582e+00,1.308392901643616568e+01,-4.439694219249497031e-01,9.991252126925562749e+00,-1.176340634735984558e+01,-8.269550582815558215e+00,2.527929805529245844e+00,-1.488897893783267312e+00,2.479027293783545005e+01,-1.871671787269447051e+00,-9.789208847022980997e-01,1.475639000060075823e+01,-4.993138219107208009e+00,1.932101260672428111e+01,7.687194534307095317e+00,-2.255880217178777070e+00,7.567862495028520264e+00,1.546612402669518549e-01
-2.904886273901812199e+00,5.367686600174212508e+00,2.746387603492260077e+00,6.032223618432997370e+00,3.090201505811270621e+00,1.359465662370308303e+00,-3.044924819918757297e+00,2.888700223227593344e+00,1.188232583228960415e+01,-7.424647820728819347e+00,2.138704881737151808e+01,3.674547336616384996e+00,6.481252803449361721e+00,-6.158625790942460654e+00,2.282645792682203734e+01,1.407139864959300368e+01,-6.526080768379950714e-02,-5.670050917250557543e-01,6.339271779511963700e+01,4.787886076412402048e+01,4.958631260262612983e+01,5.466177677523182865e+01,5.908021310142631677e+01,5.213929526158670313e+01,4.566402670467621761e+01,4.944894195561023054e+01,5.117028115944479794e+01,4.863188297041150321e+01,5.257782422282791401e+01,4.678737421165381249e+01,5.252638867916957821e+01,4.479705061773734798e+01,-3.244358910380032768e+00,3.622595090186485578e+01,-4.334401990317365616e+00,2.813905811737159013e+01,2.735355806673563350e+01,2.070119909853594820e+01,6.942650405041674411e+00,5.955293626758261238e-01,1.542380656107953918e+01,1.421533251573888812e+01,3.398334922822709814e+01,4.322143396846471575e+01,1.088092534515738841e+01,2.006810536517300125e+00,2.309807235672354153e+01,7.148981107680301150e+00,2.765696487806659221e+00,-1.805608414751918245e+00
2.287947046384847916e+00,6.354869123613661408e+00,1.716980723522478769e+01,1.017446806060225839e+01,1.572996484652295734e+01,1.466105808235391095e+01,1.590837772371335923e+01,2.214236717653056985e+01,2.268299131455324513e+01,2.740001278965459619e+01,1.101751759809502929e+01,1.362040027001979148e+01,2.789473855448748196e+01,1.235333395781665544e+01,1.653182357369913191e+01,1.309937016134261079e+01,-7.316716673307482877e-01,8.463973811156131788e+00,7.114447016235399701e+01,5.202959930874209959e+01,5.708044170976285159e+01,4.683796698813107184e+01,3.834755970665892022e+01,4.631991598227681806e+01,5.979760996140428375e+01,5.829132809921507175e+01,4.757242580019882183e+01,4.515934369620981670e+01,4.630526955531603051e+01,6.869511887068065903e+01,4.285623948737382705e+01,4.011125762720830323e+01,2.271558774707229134e+01,4.395960035075222549e+01,1.692908515999731023e+01,-1.759967572131885538e-01,1.137218586394228836e+01,1.370329159155504328e+01,1.276252004269065665e+01,9.043935167578419865e+00,2.315939344553734713e+01,1.968575890634943093e+01,3.851125343195704431e+01,2.048046501529141850e+01,1.237498459212331525e+01,1.418046231469639373e+01,-1.893261680034920236e+00,-9.158979283410181083e+00,5.891527069422720864e+00,1.822105517023882681e+00
2.115196895742631700e+00,2.811383998776494586e+00,6.190226871240294138e+00,1.078032307850304861e+01,-2.369046409550333632e+00,-1.006652631059948000e+01,8.716174047348523857e+00,5.581342269700614978e+00,7.004711580572997143e+00,1.268907044669878026e+00,5.554264168374845045e-01,1.375538955846808342e+01,2.265466315983710288e+01,1.455553412935345570e+01,1.565904523251010083e+01,-2.445657139815565095e+00,-1.753263006423652293e+00,1.792563408849514772e+01,5.018498650029775376e+01,5.235542919438049836e+01,6.535685597261564794e+01,4.371578309024507547e+01,6.025460734050273715e+01,5.131464133324291765e+01,4.981260809059261874e+01,6.098322505423328010e+01,5.088738124102582816e+01,5.037792101292601643e+01,4.114358928016146422e+01,4.573205257476488583e+01,4.932402776217728757e+01,5.890828768335391175e+01,1.106792712752100449e+01,3.531312030888919651e+01,1.591987329742059210e+01,1.834556951383435930e+01,2.022616577243374536e+01,1.957510447524676511e+00,-9.505893696729531328e+00,-1.582609897316680758e+01,3.870760178014960307e+00,2.504132662756827443e+01,-5.839160007365318705e+00,1.906967299550374051e+01,2.669445163966985390e+01,-3.031724164942326105e+00,4.852082065050343118e+00,-1.054147226059701792e-01,1.264194058637960261e+01,-6.283443394560614514e+00
-3.580781743898692859e+00,3.823807840459408691e+00,5.493543376890818175e-01,6.524117127360381296e+00,-6.233622888368922865e+00,3.884632198818703586e+00,4.629432674581428486e+00,1.163497961880187148e+01,3.913491164708365488e+01,-8.083903233106886077e+00,1.459929731686614041e+01,2.620846494874642119e+01,7.164645527877598674e+00,2.008885592265816911e+01,5.899672433769664437e+00,4.794937873133087614e+00,1.460718340584081609e+01,1.776053028542870749e+01,3.026133383399527688e+01,5.691443802029986898e+01,5.450250795726361019e+01,6.521619105192981181e+01,3.690114178957781377e+01,7.303260891034395286e+01,4.577364963252124852e+01,6.218642487270842167e+01,5.308891303033617959e+01,3.827006607983130948e+01,4.385129986943735503e+01,4.519371715059975259e+01,4.131195427060344372e+01,3.979117438969358744e+01,4.468528405951944116e+00,1.598843905871188298e+01,-3.786338602807471698e+00,1.046783792957693393e+01,3.977710402604776263e+00,-1.116482212996310608e+01,1.046611908347508724e+01,1.816719178268423107e+01,-3.413638616601919029e+00,3.233211963539640266e+01,1.448728731654114554e+01,2.561304972141362057e+01,1.966474846999633641e+01,1.104951175984207090e+01,9.179619873605131986e+00,-2.083388307660743788e+00,-3.603332034688267349e+00,1.605157943958749334e+00
-1.084914774614219812e+00,-2.945178194364940882e+00,-6.733786265081867839e+00,-1.172114543231130179e+00,4.957838845971339836e+00,-2.300730201884890302e+00,-9.140303853892348673e-01,-7.454086213200080024e+00,4.185048845591021305e+00,-8.907515049458789136e+00,-9.247203248393930375e-01,-9.296773871919418397e+00,-1.847061102028212431e+01,-2.668453058618257323e+00,-1.160539700182036604e+01,-1.419590066866908806e+01,-1.296150959461827412e+01,-1.038656835744004248e+01,2.083736215650848322e+01,3.598971377366235913e+01,2.630467709485148475e+01,1.389483215671122629e+01,2.335166832721313668e+01,2.198812703645429423e+01,2.535251534091207404e+01,1.422242948975879173e+01,1.290948351533450023e+01,2.662027989502790248e+01,2.144058066114711636e+01,1.767365351023742903e+01,1.320941413265506625e+01,2.805417476417402156e+01,-3.544638184649355761e+00,-1.144733924753085574e+01,-1.186735590047863553e+01,-1.344908655759722649e+01,-8.426435084838786338e+00,3.194781874988175563e+00,-1.946514744799035057e+01,-1.452631075027028817e+00,-8.637599083449970294e+00,-1.852233200593721918e+01,-1.643497185188365961e+01,-4.717829086611851608e+01,-2.335619851459428631e+01,-1.533672789224739752e+01,-2.624198509897807341e+01,-2.740513828420871789e+01,5.733802536871585032e-01,-1.680144975357546855e+01
-2.814823405894169017e+00,-7.433681159772024927e+00,-9.736130328451574556e+00,-9.236869753317899168e+00,-8.129227175107208936e+00,-1.502427872788019592e+01,-1.184468548467213189e+01,-9.645973129297568116e-01,7.845658041708943209e+00,-3.755321918592651742e-01,7.709847016480166459e+00,-1.064581443129260840e+01,4.223843479853488958e+00,7.766977732735767859e+00,-1.208763513363082431e+01,-5.837198224366096255e+00,-8.402909406264587489e+00,-1.585626653140491094e+01,8.624039580410174821e+00,1.368882723861723960e+01,2.937329384545475364e+01,1.962866504232675169e+01,2.653534726398974186e+01,2.945984920828919940e+01,3.374466222488520373e+01,9.001365243183508724e+00,2.409093292120848062e+01,1.943834540803658584e+01,1.523850683053767341e+01,1.129687945631245150e+01,1.856483141458664576e+01,3.949256482358975529e+00,1.316463898772814289e+01,-1.988107408832367184e+01,3.356590005553254041e+00,-8.789036424596199382e+00,-4.210567300838885529e+00,-7.260406726488017881e-01,-1.319811375461970293e+01,4.887081406420489493e+00,-5.082646962176831984e+00,-6.932577718496736097e+00,-2.220266420090921855e+01,5.292290163609791875e+00,-8.759071749243654281e+00,-1.995047436919962891e+01,-5.576971454566483466e+00,4.595312132532442639e+00,-5.951904440197642643e+00,1.128784842096859808e+00
4.127261593828858821e+00,1.139330854249140934e+01,1.266433159810947018e+01,5.370075877970713840e+00,5.299074758043959221e+00,2.424944520491941446e+01,-7.778121491215499006e+00,6.846950208998071830e+00,1.012896980479284714e+01,6.373076676836715748e+00,1.030973820199922386e+01,8.430081020406248626e+00,6.396703695797892664e+00,8.276573796637288538e+00,4.567264213206689405e+00,6.525338977604620894e+00,2.133227068858095521e+01,1.650709881271315993e+01,5.982948268444927464e+01,2.906734580191950812e+01,5.274143000468196618e+01,5.023690585569804057e+01,6.016661693602928551e+01,6.577353209600545370e+01,4.408858503574744248e+01,6.898437457020195041e+01,3.222488353133035588e+01,6.152341160571529599e+01,3.969583240926554879e+01,5.689126575166349653e+01,7.016386732269874926e+01,4.792772134007725526e+01,-1.334404606298842388e+01,2.073372104734101029e+01,7.509649895070372061e+00,7.571515532859811159e+00,5.838700755976671264e-01,-1.309928939605819487e+01,6.742475538246987199e+00,1.388339393061176530e+01,2.756992511359083764e+01,3.281476100112312366e+01,-5.759835660821745584e+00,2.063246052425653687e+01,8.243326929532678093e+00,1.754431378608405012e+01,1.087644887334293209e+00,-1.932573418819786504e+00,7.705965247794540396e+00,3.153007808658220834e-01
-2.804816165255138216e+00,5.337077776384189676e+00,4.151982609402596225e+00,7.375154527104321289e+00,-7.594006538988262278e+00,7.960645048463495854e+00,7.085484138366195950e+00,-1.630011172182875168e+00,1.404100089743197621e+01,2.399079843193988282e+01,-1.883780302598706058e+01,3.188668169603735336e+01,8.386584465985217562e+00,-3.138139037617308169e+00,1.887961908025166835e+01,1.468660406402285368e+01,3.723295957043503801e+00,-1.817667168508994457e+00,7.127707487067473835e+01,4.206146623353850345e+01,4.886079614445354480e+01,5.209341403104228618e+01,3.555316429277672086e+01,3.425113411151662746e+01,5.678398192320153015e+01,4.334849489027177327e+01,6.875509310030220433e+01,5.070398248733255997e+01,3.863582401418729972e+01,5.444910964590071956e+01,4.386925877032698651e+01,3.842677311548873575e+01,1.589626388388077416e+01,9.276441432261453457e+00,1.828020895516334221e+01,2.295717217576624947e+01,3.354007790219294183e+00,2.107078940025687430e+01,3.928066180190317169e+00,1.769112598384821666e+01,3.513625739504644852e+00,3.476973930081962294e+01,3.534840934160693671e+00,1.548737846568189624e+01,1.503085726387697285e+01,2.159901490663265733e+01,2.291513779938214590e+00,-7.460786054181997251e+00,4.575220622278326488e+00,1.447748257281048279e+00
-2.924548059741047368e+00,-2.397775382112108389e+00,-8.599261474679840145e-01,-1.321250973501211456e+00,-1.364904526774031801e+01,-1.470788886338247003e+01,4.185278138941040393e-01,-3.171617447763985709e+01,2.510991481257789815e+00,-1.857308791098163425e+01,-1.414773524803617732e+01,-5.047341766829109844e+00,-3.508751361214872588e+01,-1.943164146446880025e+01,-1.590560979349905146e+01,-1.413882820294094289e+00,-7.240499546543460729e-01,-1.128549801170587408e+01,1.682486508452359786e+01,3.030203271557536127e+01,4.655018205701651368e+01,3.370488088994463283e+01,1.864436848748130160e+01,1.627897175593462364e+01,3.857905343016965816e+01,3.491842709024447089e+01,2.796155701563353801e+01,2.909743171171242437e+01,1.586429214240029317e+01,1.028413601682451173e+01,2.311894449820955799e+01,3.829808480012609806e+01,6.089380635504490158e+00,-1.574427450059839195e+01,-2.456474386291329193e+00,-7.718052235060110178e+00,-6.902019463392268683e+00,-1.921436465087304057e+01,-2.846601342721462657e+01,-2.708762184164883635e+01,-8.566001719586214813e-01,-2.450590655238637439e+01,-3.007557923165480318e+01,-7.972093369104812588e+00,-1.252393034464290977e+01,-2.659573241979525804e+01,-1.344177135051406458e+00,-8.250801810339234876e+00,-8.322440088961242211e+00,2.842957444471554851e+00
-3.375565087672274700e+00,-3.708674673119542575e+00,-4.636141574412580901e+00,-3.670290232176826262e+00,-8.382827582362788021e+00,-4.212751878112252157e+00,3.759957047835921884e+00,-5.588903540879488041e+00,-6.630176217584273779e-01,-1.830504208016633072e+01,5.470434579527309715e+00,-1.205162347016897861e+01,-1.648358840200026165e+01,-6.148522152273645069e+00,-1.668338957331285677e+00,-6.274266459090392267e+00,-5.814093044210573602e+00,-2.124915476384088109e+01,3.687304735961895830e+01,2.643480980114619783e+01,2.508897081205958557e+01,1.831417196563160488e+01,3.575014539223948873e+01,2.589526076907071683e+01,3.045728020603661435e+01,2.835777089202617063e+01,2.671305184081921169e+01,2.058965222989402477e+01,1.986004900752491409e+01,2.254465215124938737e+01,1.713959868533184405e+01,3.791063597039159561e+01,-5.034648559699625991e+00,-1.085659913150161771e+01,-8.436565508944624980e+00,-7.843637964216025438e+00,-1.457264890376314170e+01,-3.122331864163827575e+01,-1.803898966163192696e+01,-1.368005592669837611e+01,-4.661205467763569743e+01,-9.288187734691158326e+00,-2.872476468321510978e+01,-6.737662400893894343e+00,-1.606053058585921889e+01,-7.517717768672261158e+00,-2.452955900318034210e+01,-8.572514715889669290e+00,-1.420255606731892328e+01,-2.064841806275330427e+00
1.566313016640312084e+00,-7.050724145355966144e+00,3.200812250344081455e+00,-1.367141271280835646e+01,1.946343287444424641e+00,-9.915967299098888077e+00,-3.000574164741524275e+00,5.541230560354781787e-01,-1.159515872125280467e+01,-9.517952450943665266e-01,-1.985968620769461124e+00,-1.359792837401810317e+01,-1.667840471761990173e+01,-2.050824280712093639e+01,-1.227794816988263449e+01,-5.732602400769087225e+00,-1.008788687743260581e+01,-1.678834436527350960e+01,4.631068872625448307e+01,3.083983795758843982e+01,2.742688020383702607e+01,3.196519039643202120e+01,3.169976629508949273e+01,2.778839207690242574e+01,2.016337188673940162e+01,1.002534248876301959e+01,2.179987832581639751e+01,1.132365573592301011e+01,1.965664760522928134e+01,4.793354690988471134e+01,2.411694583149855831e+01,3.376961467256244731e+01,-1.339491062359297757e+01,-1.015512050551864753e+01,-3.926967937425595068e+01,-5.144483197988029666e+00,-1.435617015028320331e+01,-1.916568610983066989e+01,-1.100948882805429108e+01,-1.534913678159909978e+01,-1.139927022208219931e+01,-6.128792297808617562e+00,-7.561936835815332714e+00,-4.838052433787209594e+01,-3.931270813699570255e+01,-1.601336120301133903e+01,-8.764132038330158636e+00,-9.778139931191095258e+00,-1.109921487719066668e+01,-9.882562672728164799e+00
-6.904554522053748533e-01,5.631756358833567511e+00,4.360362890483923337e+00,2.440937643943472679e+00,8.950700503125270657e-01,2.931572014407559656e+00,1.115472531984981153e+01,1.395801327145319704e+01,1.594490661929955522e+01,1.138283854616350865e+01,1.883659041018123759e+01,5.605721586701379877e+00,-1.555018158159289321e+01,1.509077679150414575e+01,-7.798949081725600863e+00,7.038147845003695835e+00,3.090246377700960068e+01,-1.304933375929062045e+01,5.414902029511855375e+01,4.188363941270846169e+01,3.590726922843993663e+01,4.738161943546327137e+01,3.916169264743796674e+01,1.901742351512040230e+01,5.305664479604946848e+01,7.672855004069995744e+01,3.939241291029905767e+01,4.656881655770044404e+01,4.548004951861062040e+01,3.358603451962986242e+01,3.482438881733872904e+01,6.830267649709405475e+01,-3.065177342256996695e+01,3.586773673045395405e+00,2.960732167265301840e+01,1.271946990690798529e+01,1.642840550802900879e+01,1.496464965939936675e+01,-6.169675983222696836e+00,2.033769013061781905e+01,-1.177062901997428579e+00,1.841344079561112324e+01,-4.807367512607646276e+00,1.954683255908603101e+01,1.785113311031610195e+01,1.817759247769234321e+01,5.636391221536841023e+00,1.520378481003709048e+01,4.450492980783748997e+00,-1.405999478308100681e+00
7.101990053920775869e-02,5.488202817993202309e+00,2.258228611196221980e+00,1.126234380786295119e+01,-2.321434704710165331e+00,1.337007919790928945e+01,3.080609834059733654e+00,2.732721209346935076e+00,8.640442587260114493e+00,2.453012223726629770e+01,-3.678137429790746094e+00,-5.980740198668075713e+00,-1.564605058239449420e+01,1.575437910971819022e+01,3.015977856246361100e+01,-2.403716987569600505e+00,-3.206650160615724943e+00,1.149120777605807753e+01,7.202657440317030080e+01,5.801093457029497102e+01,5.430243743736730977e+01,4.970802966911693943e+01,3.327445710118161770e+01,6.628306111877216722e+01,4.824579129447141668e+01,4.858910043869732931e+01,3.989299164353891314e+01,5.932374361477391744e+01,4.701352093796665343e+01,6.181035485873061219e+01,5.838639669749506567e+01,5.458984325344285082e+01,1.159325548264836847e+01,2.248830122388199726e+01,1.612098831916559050e+01,1.465158483967445413e+01,4.491825353583450031e+00,1.625526936206976814e+01,1.354309579891315884e+01,1.908994091232593249e+01,-5.954682812074283405e+00,1.491823433860342618e+01,5.634031567247328454e+00,1.326514424552534432e+00,2.923016963843342708e+01,2.429192906472284719e+01,-6.651979197690423007e-01,8.605123732888550592e+00,-5.986985867268235229e-01,-4.974626456617333048e+00
-1.749106533130872609e+00,6.810220686768119869e+00,7.372200838322334526e+00,7.464545207889385026e+00,1.566803011892449504e+01,-3.977539296127730051e+00,-8.871656611399274084e+00,2.468519383119979427e+00,-2.892654837107353494e+00,6.176261732697951423e+00,5.096041276385870233e+00,2.053935636387543795e+01,1.476770932241337952e+01,1.181074235862611399e+00,-1.139533000618708947e+01,1.702916312229959672e+01,3.343270176540710903e+00,1.512463607582685654e+01,5.496012425683388614e+01,6.580993796775878479e+01,4.847559102429229938e+01,5.489804800810468777e+01,5.220422745030872846e+01,3.566856100315396816e+01,6.178258147332153527e+01,6.283065122544805092e+01,1.682761308546632506e+01,3.923120770323927786e+01,4.499982023394580466e+01,6.038026771808905835e+01,2.413378032355992886e+01,6.550663201261713198e+01,4.147705614791441953e+00,9.921467516815209109e+00,-3.110520832639419364e+00,4.480649157879143019e+01,-1.010206601606363819e+01,2.594244581370436364e+01,1.954673265726477993e+01,1.780741766390036318e+01,-1.227961620623373884e+00,2.007988996364922230e+01,9.376507197757987910e+00,3.330937803973688460e+01,1.633586901873487207e+01,1.605691872493392935e+01,-3.487678499843460678e+00,1.819315404242350454e+01,-8.522559223038557175e-01,1.443456592492044344e+01
4.503171517981169880e-01,-3.559990434088550426e+00,-7.041690491678800790e+00,-7.723933654299035112e+00,-8.939388865883096669e-01,-4.613522658575630153e+00,-1.524439504041662552e+01,-2.605250358959077417e+01,-2.018342433214370146e+01,-1.482227118207790184e+00,7.987675895081575161e-01,-8.583697593969812800e+00,-2.035996891559611655e+01,-1.391296450709457311e+01,-8.066973474580757753e+00,-2.520863677722838148e+00,4.007435021357700577e+00,-9.893782491990297245e+00,1.705931821398483805e+01,1.986024431054861950e+01,1.232396380337126018e+01,4.518101111753021115e+01,4.063346438194006538e+01,1.301706623442903776e+01,1.724975689464904960e+01,2.146415523552859028e+01,2.349329082668193891e+01,1.855990392095691277e+01,3.149058767523835911e+01,2.222585584417689475e+01,4.201340963092019365e+01,3.669556756130977249e+01,-1.819822948952225738e+00,-2.452796702535432516e+01,-1.036403624525166833e+01,-2.345975911922706914e+01,-6.572626025785373471e+00,-1.128965396189700421e+01,-3.264114922535087970e+01,-6.523039610706747204e+00,-2.651483915888928777e+01,-2.939869325371980580e+01,9.521698599599270896e-02,-2.954922204948904252e+01,-4.528855433768854688e+00,-1.130414782795563688e+01,-1.784173312401148015e-02,-6.608925440264689755e+00,-4.127172089578992065e+00,1.794082765985726358e+00
1.991130733919566909e-01,1.072190111234580989e+01,5.472894432679398236e+00,2.638169026881786117e+00,1.505425618173028468e+01,1.335429440404947377e+00,1.290876606187506148e+01,-4.086646746240561789e+00,7.499145682991196216e-01,2.069104233129637649e+01,4.764494993948962254e+00,2.503988052597390279e+01,1.584781129316343851e+01,5.944766831721563172e+00,5.489857997220599195e+00,1.569359590286688722e+01,1.218219840286175604e+01,3.003056954402742562e+01,6.509238341665626137e+01,4.945826469818615578e+01,5.488221354015480813e+01,4.581761033227662949e+01,5.329800197105034698e+01,4.225409796933560358e+01,4.457057455476254404e+01,6.825484505861068385e+01,3.380433484446903236e+01,4.177809554609266485e+01,3.341250240796245663e+01,3.991449262976199464e+01,3.262466819646682836e+01,5.385908986771429596e+01,-1.882342651645898712e+01,4.613435599120756336e+01,-5.915908550415995393e+00,4.087741659202642097e+01,1.127702787010843899e+01,-3.955235987909819340e+00,-3.149632464275780031e+00,-6.282456292128693498e+00,-5.997519750037093367e+00,1.387640055198145461e+01,-1.492810890086803255e+01,1.549625462895405548e+01,1.938850049667280118e+01,1.027687159268762507e+01,4.898158097750807904e+00,7.607413073508137558e+00,1.073880381848900178e+01,1.510205146755775329e+00
-4.628241618104953936e+00,-8.633715471977081890e+00,-9.290838937072988912e+00,-1.506347126411598403e+01,-3.909162231451864589e+00,-1.423793873143568867e+01,-1.886297459573315294e+01,-2.013971781671882511e+01,-1.283069559644250290e+01,-1.834349434006518820e+01,7.199263779884272019e+00,4.584692434290336571e+00,1.046000304828156757e+01,-5.311810508516851215e+00,-5.207037933022315102e+00,-1.479985596912169754e+01,-1.676115787492994391e+00,-1.403044924801194782e+01,3.452529457175687355e+01,3.397151366369389791e+01,3.850541074943381403e+01,4.025116617969266031e+01,1.981857629454635017e+01,1.694334556553513238e+01,1.959669055617255751e+01,3.182438476591610055e+01,2.854152617324283270e+01,1.903908147891514702e+01,3.528258418850123945e+01,3.587367659761415695e+01,3.696011164013252426e+01,-5.038302445599549984e+00,1.229920282964459410e+01,-7.377027231913467986e+00,-2.692060996515855109e+01,-2.481379418166786621e+01,7.232893493351738590e-01,-1.488874570702341060e+01,-1.407286015104419796e+01,-2.494979677953472219e+01,5.351801921045372445e+00,-1.275868879208128703e+01,2.451775647869910202e+00,-1.421061369623422799e+01,-1.196977783409642271e+01,-1.081575591511361623e+01,-1.775722369219618346e-01,-1.048090408973362564e+01,-4.364638688258509980e+00,8.251621722553620364e-01
-3.130342938264123021e+00,-2.254154107688669750e+00,-7.923687170798318746e+00,2.003514397817920845e+00,-1.385362032223017292e-01,-8.340600574817402801e+00,-1.619962052871340674e+01,-4.405002240206062680e+00,-1.321256202260161672e+01,-2.908919228553463299e+00,-3.487361128322195025e+00,-1.853813957220130604e+01,6.665818721498363075e+00,8.208523940247683726e+00,-1.798860763413957287e+01,-1.203748213964066238e+01,8.944818656855794359e+00,-1.311828515406878282e+01,2.011237415394750272e+01,3.689929038728247690e+01,3.200573871515988600e+01,4.249349865001710214e+01,4.186373025993975006e+01,1.827088217356859801e+01,2.873383823904209322e+01,2.480058392387401156e+01,2.088151511605315491e+01,2.328762094141537986e+01,4.100401636595184840e+01,2.832191737162862921e+01,3.410448248691078277e+01,1.222103395445063612e+01,-1.249369108097111436e+00,-1.166639437990567707e+01,-2.787958400487949628e+00,-6.227246053908601198e+00,-5.692929770546372836e+00,5.449182962045154177e+00,-7.264109679806704634e+00,-5.496861561815195252e+00,-1.191935651672103980e+01,-3.112952489142006485e+01,-1.636609459176617065e+01,-3.856893915762175595e+01,-1.952588703023524630e+01,-1.136103883545221116e+01,-2.245372264562165654e+01,-4.290634763351903302e+00,-2.815521107543847101e+00,-1.518952339367475091e+01
4.275677925996852480e-01,-5.634922301896139629e+00,-2.343840545871545444e+00,-1.439656959805852843e+01,-1.718837848597232565e+01,-1.545808296726372610e+01,9.087124538574165911e+00,-3.779476729612107277e+01,-1.667037479177600545e+01,-4.210995584560482285e+01,-1.298005872898118440e+01,1.055158050765306754e+01,-1.949646125227925353e+01,-6.633807491868111583e+00,2.171195130447974631e+00,5.179631952371049897e-01,9.397526771137139079e+00,-1.251012074382514427e+01,4.607250417935857456e+01,1.974722893871786766e+01,1.786984513985358447e+01,2.575815902861574713e+01,8.666514796719903657e+00,3.482797531132462154e+01,9.433058879249673012e+00,1.942659469590119414e+01,4.147746413314125391e+01,1.832390575139507760e+01,1.862167683138444474e+01,2.860645301993953282e+01,2.884421583401167766e+01,1.684020460568363475e+01,-4.424976344704750986e+00,-2.269751902739999494e+01,-6.769509055423182708e+00,-8.384110667921314430e+00,2.118645820652694245e-01,-6.915768057883979303e+00,-1.080734225444792429e+01,1.089152396385900090e+01,-3.374513768665623026e+00,-4.144693198465222217e+00,1.957235617161833119e+01,-2.599213529775211740e+01,-2.592540712101454048e+01,-2.543623379368224491e+01,-1.069354585649412925e+01,-2.110070698508203435e+01,-1.401708903011410001e+01,-4.840662945330916345e-01
-1.749322694822881719e+00,1.501469520892123377e+00,5.715963284616605300e+00,9.537904965274517366e+00,3.533460213165491748e+00,1.497799058077511880e+01,-2.441763595403470821e-01,1.409024168422924461e+01,1.833681659476768289e+01,1.780046016140595810e+01,1.313515316515624853e+01,5.280149533699116660e+00,3.364363774691525588e+00,4.794271251888528873e+00,2.827344878553960683e+01,-1.534389616724785910e+01,-5.197513412511116648e+00,2.204611093176688641e+01,3.090934534995230010e+01,4.429878730450374036e+01,4.694880484593368664e+01,5.092998037276860401e+01,5.286010357948806160e+01,4.429946985496147960e+01,5.324586988335008186e+01,5.804740845202547206e+01,4.337620850354930724e+01,4.491449906908612633e+01,5.293888249279692815e+01,5.217254662453748892e+01,3.896554433841462384e+01,4.551586576439449061e+01,1.133852671392529032e+01,-1.834965917469968177e+00,3.240434773630745724e+01,2.319972062852044914e+01,-1.688052414659714895e+00,1.435771989331695409e+01,6.377284816636358045e+00,1.706549455894247203e+01,-1.411209836469891510e+00,-2.025308630040205227e+00,-3.237762188684401909e+00,2.948042077886909862e+00,7.265332817165544022e+00,1.029799431131471721e+01,1.319980225582676958e+01,-3.814046023968046484e+00,-5.003472340096335458e+00,3.390201195627399411e+00
-9.470056586782368280e-01,3.408309163231749483e+00,8.377261339931585393e-01,8.665391113204913509e+00,1.077734624299001354e+01,5.035664066271754891e+00,1.843592876321644036e+00,9.761044256241513395e+00,8.275867993651230492e+00,1.055707901730519094e+00,6.326570287031962003e+00,3.152841716540090822e+00,1.708596438761754044e+01,-6.195448828215717185e+00,8.867624565251569280e+00,-5.590140744604728873e+00,2.995593998808607950e+01,1.162754892279115992e+01,5.716270613408266144e+01,7.165538722086978396e+01,3.902878690360964242e+01,5.284654162074959061e+01,5.162774647985126819e+01,5.074787250998559784e+01,4.358790640179341835e+01,5.426830458307004790e+01,3.371735752171053946e+01,4.215440851026288271e+01,4.298463095972956438e+01,4.867980291250518832e+01,5.008930654672144556e+01,5.147363493766497555e+01,-4.762527460000676172e+00,1.159481439408086700e+01,1.095335967648027875e+01,-5.101389381826628266e+00,-1.337043773837426119e+00,1.605782119192820545e+01,1.371510148469620383e+01,1.194107725010097631e+01,-1.608181926834516418e+01,2.628550987255358606e+01,-1.783928053976330919e+00,2.057442141149433112e+01,5.370988218040580797e+00,8.796945234501713173e+00,1.472403913922731888e+01,6.701452431255702002e+00,5.158360718341977069e+00,1.427280888414723448e+00
2.301488727222987585e+00,4.717730017430382006e+00,3.375135493625912364e+00,8.091358212159722285e+00,5.579556075329489273e-01,3.027061023606785639e+00,-1.575760014141492960e+01,1.703308130362072248e+01,1.438632794663471692e+01,9.951050989893261978e-01,2.426851325824426908e+01,-3.928040634575489687e+00,2.201387576069245711e+01,2.488107490827590418e+00,1.126586249860942424e+01,6.484670314054961082e+00,1.121210757546701586e+01,1.392287549629557653e+01,4.653257743844299199e+01,6.008677291322508296e+01,5.990300174862563409e+01,5.771006988695825868e+01,3.769680001346080900e+01,3.985118125141643475e+01,5.888989373707071451e+01,3.821243170192442307e+01,6.446009000535299549e+01,5.155524021931614698e+01,4.853399617835589908e+01,4.783894888995797601e+01,4.175134202800055050e+01,4.235191917179606236e+01,-2.111816891060692036e+00,9.158152164801075523e-01,5.998837727266014497e+00,5.791731272917093776e+00,-8.716822849602759993e-01,3.057912303099057283e+01,3.368248514979462538e+00,1.762981704246287151e+01,1.428423099665043416e+01,-1.920111116153486819e+01,3.065088236737197747e+01,2.614781672517109357e+01,6.837636105976120149e+00,6.428296155633663744e+00,-6.843319516865211671e-01,1.284124587342756385e+01,9.816036052392452804e-01,-3.186929328639418468e+00
-3.888742026898249216e-01,-3.484293992384593697e+00,-2.817429990894084302e+00,-1.575478668420470907e+00,-3.925305132075266101e+00,2.963889322071909804e-01,-1.581619044232786031e+01,-4.059998794134136446e+00,-3.755754637771699045e+00,4.573162751968267159e+00,9.350592574582957894e+00,-1.057660514922992334e+01,8.084633554980067416e+00,-2.342033803670855896e+00,5.967531045321346816e+00,-4.854173699978887591e+00,-3.649405474747573930e+00,-1.566591813957306911e+01,2.298484247988123741e+01,2.016146748923454979e+01,8.237839370816161022e+00,3.400527539462351712e+01,3.543472163967200572e+01,2.789963896866494508e+01,1.773856658974303002e+01,4.611786328306111571e+00,2.406005026060387664e+01,1.968966035504434942e+01,4.609743308289426800e+00,5.012525918196295294e+01,1.553673674255446002e+00,3.734013523643101706e+01,-1.558799480358906386e+01,-1.674219509441475751e+01,-8.423859163521436599e+00,-1.982169658948541269e+01,-2.004644740775851020e+01,-1.080365429117274445e+01,-2.738362356595514413e+01,-2.172210154561389217e+01,-2.117932363902609794e+01,-1.230789690738846431e+01,-2.035154569183308837e+01,-2.443265249237304459e+01,-1.465663215154487808e+01,-2.525562110160485219e+01,-2.482489242825659304e+01,2.167582601552897614e+00,4.349015421538101833e+00,5.006774159650589917e-01
-7.571635226812205577e-01,-3.537640543708578278e+00,-4.230299105943222671e+00,-1.186811312522196893e+01,-1.028340621083830086e+01,1.566371000440961403e+01,2.538078214293425283e+00,9.028297536984217220e-02,-7.086397152686676471e+00,-1.346702627324719437e+01,1.202540781065969711e+01,-7.712061233832948837e+00,-1.564644235654896320e+01,-7.127225339054350073e+00,-4.358460563033510482e+00,-4.585882255632788507e+00,-2.794008378806080994e+00,-2.009322177471751658e+01,1.582875742050313761e+01,2.094023588913307066e+01,2.099433035335765396e+01,1.963306041233245125e+01,2.371067365006655692e+01,5.594793291491201082e+00,3.621021007249975554e+01,1.397937579041185607e+01,1.922381369594568312e+01,3.071845276028490446e+01,1.493090891586563629e+01,3.380936944925645093e+01,3.650955571616758988e+01,3.048954942978494742e+01,-1.825426356713855824e+01,-1.751969543791034667e+01,-2.290228860045720793e+01,-3.155944524487301805e+01,-1.066435698119204822e+01,-4.532908408339682893e+00,2.954383564836257303e+00,-8.096835606395881513e+00,1.443509858263577073e+01,-5.138666024654893505e+01,-1.515872608051439840e+01,-3.709028901313263304e+01,-4.036463047636327239e+00,-1.734925827000728304e+01,-3.706617748469289353e+01,-4.094120093315794406e+00,-1.476497348688651812e+01,-6.172182954215766237e+00
3.791014912858096775e+00,5.980682201282405686e+00,2.550663047738957356e+00,-1.475891665073269188e+00,4.653339830119342047e+00,-1.500373133450076148e-02,-3.915257452513918768e+00,-6.274146735959218901e+00,2.892005875234828327e+00,3.207701026086047591e+01,2.740096269542132745e+01,6.486105310214762554e+00,2.805404340731245227e+01,-5.748601037938117386e+00,1.213056654878436547e+01,2.388081410774406665e-01,-1.809022867455075101e+01,3.867808531375029890e+00,4.517747579957293880e+01,4.126839020095344779e+01,4.461599399016164114e+01,4.177745929978274120e+01,5.381827941829361350e+01,6.717696334230123512e+01,4.298077465067797931e+01,4.760088542488662000e+01,4.726938713960834093e+01,3.599321086036744788e+01,4.495211855924657129e+01,5.078129748213333983e+01,5.290036050798698142e+01,4.874468397866466063e+01,1.680909472007049388e+01,2.127369064732362247e+01,1.452952065872968745e+01,2.273403989644326373e+01,-1.514878974509542287e-01,1.856986391029702688e+01,-4.605276790752061977e-01,1.134172981467144226e+01,1.602929416173035193e+01,3.501650931143657886e+01,-1.759784076567657252e+01,1.180701806074851667e+01,8.968698878989190604e+00,5.662717357044653177e+00,2.774779725165678279e+00,6.714870225186384545e+00,-1.240513036513175571e+01,-2.412901435036414632e+00
1.000703636647328976e+00,6.831526353184105282e+00,8.505527488076879195e+00,9.484148933248812696e+00,-5.833279347047139574e+00,6.217576410114027397e+00,1.392885619567424804e+01,3.184876662977000450e+01,2.990759609648428796e+00,2.946457812970793455e+01,2.265112793764681243e+01,-3.364597955365779214e+00,3.349588149965559314e+00,3.410195096110786039e+01,9.815721927982783868e+00,2.002502686884707828e+01,3.429125379068250368e+01,1.732031231817506978e+01,4.000829832580294720e+01,3.324309409830949846e+01,4.569718150897973175e+01,2.848620377041355312e+01,4.927753613931182741e+01,5.150980430838386326e+01,6.053641866711170394e+01,6.352765899534573180e+01,6.017280704908010591e+01,3.443237530766889165e+01,5.861214885297110300e+01,3.756274143713793023e+01,3.416373860114637040e+01,3.880320307861428830e+01,-2.185736520114226877e+01,1.216491195478002929e+01,1.965295996779018139e+01,1.850002241464289909e+01,2.121044061066380593e+01,2.449800391312989234e+01,3.011189267863531782e+01,1.020120943038159922e+01,7.987669242271050685e+00,-6.898321669162291947e+00,2.744376182936023412e+01,2.440615069571046902e+01,8.896067483627360772e+00,1.720387721188754071e+01,-9.680146820076277692e+00,1.926260855118377435e+01,4.664671131975785201e+00,5.550459987401167083e+00
-4.527644996614521133e+00,-5.343104651668403982e+00,-3.924603664405568182e+00,-3.590165470800557479e+00,-1.606925428543896572e+01,-2.701790123361726081e+00,9.485205489483318431e+00,-1.190847879842219648e+01,-1.850147840666195265e+01,3.668851066402592398e+00,-2.520543715100441418e+01,1.489518553631266506e+01,-8.519618869986643972e+00,-2.181154617356310865e+01,-8.135674181352142043e+00,-1.368821661679493751e+01,-1.707685408975211061e+01,-1.898219373353228434e+01,1.920587269351803528e+01,3.011035371609553124e+01,2.932895411983326284e+01,3.888008511666497924e+01,4.659415834022076552e+01,4.994285578080138777e+01,2.333529622928199387e+01,8.430609717864454566e-01,1.279223481708265631e+01,3.489008672465590166e+01,2.017174111726771102e+01,2.358499633359824443e+01,2.644786635174442679e+01,4.056514655111617174e+01,-3.819901006384195608e+00,-1.290911131257130862e+01,-4.253017946775453639e-01,-1.619415448410116198e+01,1.949383403281902716e+01,7.046176154155790350e+00,2.404553287383950355e+00,-9.903515714049436980e+00,7.525655279828027844e+00,-3.337645467250284437e+00,8.605884003648847980e+00,-2.198252820593336665e+01,-1.835367523393618683e+01,-1.881051543994718145e+01,-9.486881051066072601e+00,-1.154441307451493337e+01,-1.876477244027859204e+00,-6.554275722805322779e+00
-1.368964759105083084e+00,-1.284284468017377101e+01,-9.771921860581988639e+00,-5.021190519006283104e+00,-4.835322317634207501e+00,-4.847092742372241858e+00,6.491366604063388834e+00,-2.556070189783513769e+01,-1.121995995058112428e+01,-4.160111926538332838e+00,9.030195809311073463e-01,-1.666312906149734374e+00,-9.310268235341537135e+00,-9.827738366383149682e+00,-6.983093485650259780e+00,1.816891044876285166e+00,-6.944535677563250964e+00,1.894585362935699679e+00,3.295762385431152808e+01,2.226753542764800642e+01,3.072732570958252651e+01,1.656278231117909172e+01,1.885224692133135704e+01,1.848409715788926277e+01,1.482092465647096091e+01,2.508314475490435669e+01,3.388146127630361093e+01,2.108497495244414210e+01,2.772701689679865922e+01,1.133382196744410919e+01,1.996447199796210015e+01,2.722616107407799291e+01,-5.278680025155713551e+00,-1.898504350776457272e+01,-3.925763326369994033e+00,-2.535977524537212258e+00,1.058206986880420253e+01,-1.437921302553542269e+01,-2.819586282379674813e+01,-2.782954600847671767e+00,-3.504069256212961392e+00,-6.253751030227649110e+00,-1.492699484870751370e+01,-1.209074453728495335e+01,-2.029648951194916062e+00,-1.147255172707201432e+01,-7.804774166972842764e+00,-8.820829939928508168e+00,-1.419795705719534062e+00,-7.419072834429178087e+00
8.987519895260850378e-01,-8.127892314908253368e+00,-4.740197188870887146e+00,4.545625974940852743e+00,3.975012622213299096e+00,-7.790677518065328044e+00,-1.734010014935337196e+01,-6.815312151059772283e+00,-1.502998232826885960e+01,-2.198840865369884412e+01,-2.830572065075709531e+01,-3.678107604493010108e+00,-2.479144652778125746e+01,-3.005694665694501566e+01,-1.392036038312958013e+01,-1.839141315195749016e+01,-1.592046196997036533e+00,-2.607948859467375424e+00,2.795744614896012692e+01,2.825294695217537466e+01,2.955191853880564068e+01,4.298170921008222223e+01,4.462815869918077993e+01,1.795783312116993358e+01,2.807210566416766895e+01,2.402861610801364378e+01,3.042833926510093789e+01,3.142965781551039939e+01,2.372572242682565147e+01,2.739233030229031840e+01,3.222025381658181686e+01,1.815889018223960960e+01,-1.710373865010499017e+01,-1.191191554835436683e+01,-7.605405683550563900e+00,-9.378896788396387407e+00,-2.928441848113175183e+01,-1.162552519109714311e+01,-1.922520706619205910e+01,-5.466312815105201395e+00,-3.001547596668522289e+01,-2.228166037419485601e+00,-2.015000511236029723e+01,-3.439512682785333197e+01,-1.903863817819966897e+01,-2.639716112114312097e+01,9.257422560099502817e+00,-6.026751665364681543e+00,-1.598194695453005743e+01,-1.294518710443169773e+01
-2.573589859078240227e+00,-3.491393264904691485e+00,1.288494098900452967e+00,-7.550956103512967310e+00,-1.051458479614958641e+01,-1.273721553412690888e+01,-6.197871304340793586e+00,-1.036940576565400285e+01,-5.274144915670981426e+00,6.377985200663238707e+00,-1.393268085792682953e+01,1.666633017622419288e+01,-2.367622043406773713e+01,-6.107853580174153585e+00,-2.555381291768353691e+01,1.820943580386504612e+00,-1.611353555447885499e+00,-1.434242716499241332e+01,2.995553324193929257e+01,3.009661542402452739e+01,2.125423170770926262e+01,1.457530508362709654e+01,1.399611793896244905e+01,7.953966647556274694e+00,2.052609428718540130e+01,1.627011124951106069e+01,2.468654560655685870e+01,1.337169055302069509e+01,3.054644811565906082e+01,2.628670436926237031e+01,4.254480571706834979e+01,3.384143084725361206e+01,-1.016214932738245036e+00,-8.343896410139574726e+00,-8.543408694602561582e+00,5.303910858048703769e-01,-5.905715987538365574e+00,7.832819492572729025e+00,-1.074905893258043932e+01,-1.132921294668571477e+01,-1.020379586717921150e+01,-1.628931435609936784e+01,-1.481954461001810408e+01,-2.708754979816599118e+01,-6.056260315808716044e+00,-1.798081774898639296e+01,1.187898852418951456e+01,-7.105906704854808353e+00,-1.185810693199510446e+01,-4.071132111379074936e-01
1.498212265575302293e+00,8.880845469206887444e+00,6.697687471702616691e+00,1.323607443923481775e+01,1.689965228335071146e+01,1.197467044723087959e+01,1.310481201266158813e+01,-1.775659119541630560e+01,1.910927174981537746e+01,1.319331347718974001e+01,3.386689966848174027e+00,-1.362041287118667565e+00,1.114422124673283321e+01,1.817869514452691604e+01,8.160871564223723951e+00,-4.675106003595970172e+00,-4.214850438049674075e+00,5.706090052875270935e+00,3.363603092300079567e+01,4.246201289666558409e+01,4.060576842029619371e+01,5.162556669068029436e+01,5.272603805431018742e+01,5.116573227620787634e+01,3.551799943298271245e+01,6.040694609718676134e+01,4.683927979986606971e+01,5.267916826954884613e+01,5.910689234522421742e+01,3.762763337396599894e+01,2.075856627293192602e+01,5.745357377191490400e+01,1.612034167632690806e+00,2.209843109551841422e+01,1.977795920663385232e+01,3.122797203542359767e+01,3.165165976654875735e+01,9.334699832199714109e+00,3.844448350071694875e+01,3.922830079043183105e+01,1.110335061473032781e+01,3.748817352888905674e+01,-1.283337613375386965e+01,4.303670182063623884e+01,1.226359271887223379e+01,1.300320770622741762e+01,3.761430794681509759e+00,1.390086626502299083e+01,1.334641648485315413e+00,-4.329305086211930664e+00
3.164091707969756584e+00,4.413496346427000283e+00,6.557170548714175595e+00,5.286109182458659461e+00,6.991171773952816082e+00,9.076111911619941353e+00,-6.597763180891978330e+00,1.834076207821867044e+01,2.408784581818078152e+01,-7.329933036517237710e+00,-8.700818492615310262e+00,5.576559060546612656e+00,2.621034610578118773e+01,-1.113786562417431014e+00,1.101489323085240102e+01,5.954232112094874019e+00,4.788251061847889289e+00,2.011712566218439591e+01,6.003565247547952310e+01,4.858229684777791135e+01,4.903368100379871208e+01,5.793661059710743189e+01,3.649933067344725401e+01,3.821012600564463213e+01,4.390399425932561428e+01,7.772888688356771070e+01,1.861642780346782544e+01,5.248191034157826351e+01,6.295165796198721608e+01,5.775658989938536081e+01,2.663189422714550503e+01,4.910420220051328499e+01,-6.409902787960944259e+00,1.703496955251037903e+01,1.265368916215382811e+01,2.824555682489191000e+01,3.284977372802940998e+00,-9.784725588058510448e-01,3.022520990655984718e+01,-1.287939124830739424e+01,3.501858227781563926e+01,7.075367941610227973e+00,2.606262880514194080e+01,3.384186076149618572e+01,1.534973138186026986e+01,4.146406248125897775e+01,1.731193213778945506e+01,2.344730751522119050e+01,2.680482098334877605e+01,2.157082689630065442e+00
-3.205854589798404763e-01,7.021311685453639484e+00,1.904314851779365370e+01,2.659591836770313833e+01,1.527068034850889866e+01,5.495476099452711871e-01,3.212142495527487540e+01,2.804617200417466094e+00,1.359915699779010900e+01,3.561587396119021776e+01,1.235178033496463001e+01,-1.485160549312932865e+01,3.656102785250291731e+01,1.757367342023987433e+01,7.572597239539263780e-01,2.585592022139196189e+01,2.174174776986933821e+01,1.517611336642831965e+01,4.746570288343446009e+01,5.327795229671266242e+01,6.655840987195713865e+01,4.722059740826350804e+01,5.063753295744539429e+01,4.078543391432018694e+01,5.257222653260742362e+01,5.068332804566763627e+01,4.768934920375009057e+01,5.656327284185266535e+01,4.917129490758867405e+01,5.840624823520623465e+01,4.485466617230243713e+01,4.813844687636481012e+01,1.963524567301022117e+01,-7.050174469111977871e+00,5.582193642769684772e+00,2.541286562266550675e+01,5.585335078757840854e+00,-5.948474093697686982e+00,6.154284408026271969e+00,6.455920677094335147e+00,1.049789623348770462e+01,2.619165924879690266e+01,5.061435956875683928e-01,2.529911877993692926e+01,1.079763236546173211e+01,3.934385523838887622e+00,1.870292677000091075e+01,8.493980897791193030e+00,8.506958136799502412e+00,1.343128211208796507e+01
-1.048298630943904630e+00,-1.078566185124238785e+01,-3.616582768832866890e+00,-9.069806091913280355e+00,-9.481319858007676515e+00,-6.538144053407952683e+00,-3.119290327995459133e+00,-1.802877354640328988e+01,-2.810003223490215163e+01,6.174329953320121689e+00,1.068678317807135869e+01,-8.746806806015079871e+00,-8.464278403932295802e+00,-6.190342834665890415e+00,-6.504116071355838358e+00,6.128537367576645245e+00,-1.277408631753489621e+00,5.936337854598230379e+00,2.960731571108554050e+01,2.005103011739741348e+01,3.746951882990325799e+01,3.854342860422067929e+01,4.063155163488401200e+01,2.292779381122117144e+01,1.670144562660352960e+01,1.467408879413155098e+01,6.672856824070249715e+00,3.094725648098351911e+01,2.072828835819139215e+01,2.908108272997756671e+01,1.120155541233148000e+01,2.751974029540089361e+01,-1.359150075967828464e+01,-2.627430690401808633e+01,-4.839595557306973994e+00,-1.412080832216355297e+01,-1.075077479844280504e+01,-2.400326118845204082e+00,-8.421491169532384191e+00,-1.396829235909883593e+01,1.023074600316442595e+00,-1.283214760523451403e+01,1.897521554660325016e+00,-9.466764848401563626e+00,-2.805712970377933857e+01,-1.006037664662494713e+01,5.247872975914553706e+00,-9.437539094467101819e+00,1.953671880489397994e+00,-3.212479117226685332e-01
-7.534776360622664759e-01,-2.001331538758034156e+00,-3.344244335272191559e+00,-3.109848259636934231e-01,-5.973811300561785664e+00,4.769323179021142667e-01,-5.173617935190336858e+00,-4.878626131209313321e+00,-1.753766316146338600e+00,-2.966728340160156296e+00,-1.524772517823717166e+01,1.151204682216871111e+00,-8.892897852063528230e-01,-7.880249816593392076e+00,-9.378057331014598930e+00,-2.650927788695196075e+00,1.561412495685750912e+00,7.368281970432838612e+00,1.668890630892338933e+01,1.575937170209572358e+01,1.407243206661921953e+01,3.843471463095055896e+01,1.457027745041747657e+01,2.192242304480464909e+01,1.634988657984662197e+01,4.044641073308808643e+01,2.279204301548811706e+00,1.388526748681108280e+01,2.056844226950898502e+01,2.585658424865617988e+01,1.779150673542863359e+01,1.506169234026626569e+01,-9.063766602019736496e+00,-8.752003249670920582e+00,-2.044687408235744286e+01,-8.181579861369566942e+00,-2.769313197092021639e+01,-1.608338224485284584e+01,2.071060904768160071e+00,-9.748326532800502875e+00,-2.118278483822017577e+01,3.056752300184271576e+00,1.332855938691612119e+00,1.099003618380794300e+01,-6.231699954930038032e+00,-2.187141122022820028e+01,4.122431554115649766e-01,5.829536432028652904e+00,2.640061645496156739e+00,-1.828368809943299977e+00
-1.657015551172519752e+00,-2.226734747945952275e+00,-2.999833179104190339e+00,-5.403740978723693189e+00,-6.138768902201321431e+00,9.453312198152090673e+00,1.942565820038665514e+00,-1.916961129591958191e+00,-4.868306149934306326e+00,-2.033135412562977251e+01,-1.391256075842385798e+01,2.509088431111934359e+00,1.019630279957942243e+01,-2.536880219289546545e+01,1.143530227004839617e+01,-2.499842655946673986e+01,-8.274616066195452646e+00,2.239042432270898164e+00,2.701396784736872547e+01,5.920106342274583966e+01,2.584328241691393657e+01,1.613456185471539683e+01,1.813872902250367503e+01,3.945325823768214235e+01,1.604443550295169274e+01,1.723655076138718201e+01,2.344960655257446902e+01,2.599700643335999928e+01,4.817494860982515803e+01,2.743381258736703288e+01,3.220272731265500710e+01,3.513693337824981455e+01,-8.481018932811774658e-01,-1.381692618915262649e+01,-2.703133558816585236e+01,-3.180653417686018503e-01,-6.191950749831932832e+00,-1.179420908254148337e+01,-1.062903928876854565e+01,5.383794302296974088e+00,-3.309135231954909528e+01,-1.689214916924143850e+01,-1.154617244618781591e+01,-8.971579505901148721e+00,-6.138153526890792300e+00,-4.530494587520949068e+01,-2.935516916879183569e+01,-1.374259896277269632e+01,-4.593930791506211975e+00,-5.596560487646172533e+00
-9.601412898529841922e-01,-6.483084293949701316e-01,-1.255601481516462847e+01,-1.544061136457365313e+00,4.043453043280845094e+00,-1.464970801772985354e+01,-2.813148014862145718e+00,-8.739791550555334965e+00,-4.351233394267842947e+00,-5.608322857301677011e+00,-5.308420936928279765e+00,6.489204138776243802e+00,5.697358698762262641e+00,1.773445874072868467e+00,-9.714422275422819553e+00,-2.026037300956843534e+00,9.766917664167099389e+00,-7.716530537010726221e+00,2.290241939474118027e+01,4.463670704665446465e+01,3.662080906038853811e+01,2.652102592238643908e+01,3.545038425931380033e+01,2.887322087290843697e+01,2.118129073928012573e+01,1.967406334569490767e+01,3.536052542686056199e+01,1.391016513818317968e+01,1.596800816882247176e+01,2.160605855353790616e+01,2.373590229791738437e+01,2.488436500274273300e+01,-2.674752287608773038e+00,-1.288627696784961429e+01,-9.496856420342073335e+00,-1.275635446880742663e+01,-1.253982893973768142e+01,-1.276338228062836322e+01,-1.571551805963282078e+01,-7.457871217788146545e+00,-3.496146318329177660e+00,-1.815163514078312801e+01,-1.275137153358029707e+01,-4.496940532079782393e+00,-7.168021244240164513e+00,-1.811751040870562335e+01,-1.633333087762170166e+01,1.493631331034849907e+00,2.838666086812863476e+00,3.572632512349522393e+00
-1.357849686879417206e+00,-2.088946092642586863e-02,4.550931199778449177e+00,6.682135860553262141e-01,3.564223478490720520e+00,8.442258157788401718e+00,-6.009204377204340197e+00,-3.528311033033569188e+00,-2.570671142811921106e-01,3.049403679837927150e+00,7.004570415089444779e+00,-8.112724518607240753e+00,1.029190271731987671e+01,1.417755257434202143e+01,-5.032558419520242188e-01,9.180012995075198745e+00,4.137783933719825669e+00,1.191013982113451419e+01,5.163586110901626824e+01,5.177323209016515193e+01,2.813725772492346522e+01,6.568310463983333136e+01,5.662327080192743267e+01,5.374322540110618718e+01,7.075991386333018340e+01,4.597486918024691249e+01,6.634210960672344015e+01,2.610514805020922324e+01,5.264079104771332851e+01,3.761142835779514826e+01,5.837122480883660813e+01,3.685899420274700589e+01,1.320806449117659831e+01,1.760743179501306210e+00,3.455830693963145706e+01,1.942999609546802731e+01,1.308653791240829811e+01,-1.326882725746903091e+01,-1.338879094844549478e+01,-1.172724237157631677e+01,8.700765212998096132e+00,6.695605853480646630e+00,4.607166063733832750e+00,1.401031958981506698e+01,1.240952483407670393e+01,-4.184273417003755213e+00,2.645292872102587012e+00,7.624703866769265703e-01,5.769581857330420505e+00,-2.237344748485339707e+00
-4.941603036243284564e+00,-1.152032160022333773e+00,-3.980209412142498682e+00,-1.321254736948074004e+01,6.835119630411375935e-01,-3.851685789377075064e-01,-6.932890293925408898e+00,-1.996610773855585919e+01,4.920197291229852610e+00,1.375153138547949031e-05,-2.598313424013820150e+00,-4.847044426539131479e+00,9.143009656421337894e+00,-2.690944657589334810e+01,-1.634427181824901609e+01,4.222576823156967585e+00,-1.757765617344023479e+00,-2.915071928306857174e+01,3.870344819044206019e+01,2.867196659156065763e+01,2.016717241791211279e+01,2.346606629686494827e+01,1.677067980881385267e+01,2.244362157942431324e+01,1.490739941158205362e+01,6.162334600039475418e+00,3.440605608391000203e+01,4.410259984035641168e+01,2.320335999543075900e+01,3.381811597236124101e+01,3.920391737618285788e+01,2.761692049224849654e+01,3.694145025150880279e+00,-2.021648895019543346e+01,-3.092871954330187023e+00,6.294447728577173606e+00,-1.778783929998251168e+01,-1.897658161825206591e+01,-1.779189711494611714e+01,-1.418157814421150675e+01,3.693985461860588515e+00,-4.930363218372651346e+00,-1.080099700936542106e+01,2.945600038415205013e+00,-2.686508636237598946e-01,-1.288526177637355197e+01,1.236278222290837014e+01,-2.770403116758920703e+00,-2.506011477296655521e+00,-5.003278811625887279e+00
-3.888005021407141548e+00,-3.468860645063876813e+00,-6.843732967562259795e+00,-1.113135986559068336e+01,-5.754380438156553979e+00,-3.680276346053892311e-01,-1.368678928369903236e+00,-3.066306200514159030e+00,-8.651933779827825077e+00,-2.842413741041154740e+00,1.660434918361384460e+00,-4.379246230576619436e-01,-1.066156672908498138e+01,-1.729958415290406748e+01,2.748656749660417509e-01,-1.385239090684875940e+01,-1.389316432967647064e+00,-1.105709466517286366e+01,3.339922612838095262e+01,2.895501650591391041e+01,7.165945481053137556e+00,2.153189147454219565e+01,2.397731887328735567e+01,3.455244678918791834e+01,8.819148872457668986e+00,1.743618988600247377e+01,2.494530561086224196e+01,9.609082736364390698e+00,3.467088654695270122e+01,2.703309479225646683e+01,3.716204862755270710e+01,9.374082647793574807e+00,-7.238576471123479017e+00,6.387776956864218647e+00,-6.099045428138509806e+00,-1.535550399421060241e+01,7.356332981504748458e-01,1.626826842703417375e+00,-2.309251475960256528e+01,5.219261948415306884e-01,2.460650799847355685e+00,7.483225957472097178e+00,-1.223043215220036650e+01,-1.160090980098827984e+01,-4.170965070987404211e+00,-2.921501969913446928e+01,-1.247912906359868934e+01,-1.956125581985909179e+01,-1.315235585585602074e+01,5.277785274493923540e-01
5.313457752369937559e+00,-2.578696764933838370e+00,-1.194023523018264932e+01,1.353357812242950375e+00,-1.438605734402140257e+01,-7.624199935101085401e+00,3.556458668006367230e+00,-1.482729686058186047e+01,-1.549403348285106041e+01,4.254700764007899316e+00,-5.254493048695720425e+00,-5.626617191681031471e+00,-1.961049089374481857e+00,4.742050815448844325e+00,-3.238351815876509221e+00,-6.469739462990299117e+00,4.902448432401329548e+00,-1.027762631524824144e+01,-4.894716656868534632e-01,3.297263433242785879e+01,3.737238848745225539e+01,2.696825752198765258e+01,1.014652069140742086e+01,1.855899932258385476e+01,1.838981319926509173e+01,6.422626825160781650e+00,1.797881612680514607e+01,3.707975976499258763e+01,3.036426172217653630e+01,4.090162058122311350e+01,9.742255626674639402e+00,3.295453590203167238e+01,-5.852058879179155682e+00,-1.715882000121963102e+01,7.052741819218630859e+00,-1.292473345929087358e+01,-3.830125439972012380e+00,3.107441671386055315e+00,-3.573765919245995626e+00,-7.552800678388713607e+00,1.460629039543268892e-01,1.160972257764567805e+00,-1.335326814132748119e+01,-1.766940543932510366e+01,-1.686147318345197732e+01,-2.045260086272987010e+01,-1.188128725579278466e+01,-1.755755260017608066e+01,-1.430473380940801320e+01,-8.329269724992494517e+00
-4.087166336935447730e-01,-5.440934881440285587e+00,-1.249741837512494058e+01,-2.279973685606975664e+00,-6.920780320887669035e+00,1.113125389101273566e+00,-6.178463004692900107e+00,-1.835804017132525345e+01,-1.060406217158881503e+01,-1.069907106061914703e+01,8.785280112993469004e+00,1.099157885214536501e+00,-1.343396228960791738e+01,8.914163142465985068e-01,-1.314379628982016435e+01,-2.408624299066179919e+00,5.906493295778946440e+00,-8.053140513640618892e+00,2.381940945082777716e+01,2.288183957743903463e+01,1.147673911894267640e+01,6.905882609807449946e+00,1.320105077059243648e+01,1.919114658589997191e+01,2.013869726294262108e+01,1.565315468147510813e+01,2.092634509744302207e+01,4.888626246159818578e+01,8.637968846716347571e+00,1.196543482834037953e+01,2.675506980646190769e+01,3.041200897418545068e+01,-1.231561578304500948e+01,-2.982706149398346085e+01,-1.810816924024863894e+01,4.638974579069439663e+00,-2.961844070295538867e+00,5.001010700482905413e+00,-3.650419814768336835e+01,-1.774294945983178806e+01,-2.676178778116207635e+00,-2.454361319659791008e+01,-7.338813833093997374e+00,1.644264759476656934e+01,-7.952773574032448778e+00,-1.588662662755231558e+01,-3.341272373703266241e-01,-6.719586645046785378e+00,-1.387581269452339061e+00,-7.108703306518164844e+00
-3.139299334133303088e+00,3.645106579696480775e+00,-3.044874139733970253e+00,1.155709521362670955e+01,8.283760198804143826e+00,2.341409930713068022e+00,-4.550788235039376239e+00,2.581263110446594400e+00,4.154124462799683393e+00,-7.892483099967441129e-01,-6.639061952035647529e-01,9.770019270476492101e-01,3.068415265342698817e+00,-1.454868925892436549e+00,7.137970001550618671e-01,4.958904075916093390e+00,2.844356004488137302e+01,-7.894391000095573041e+00,6.001055803738952221e+01,5.105067459829430021e+01,6.023566164471600359e+01,5.024537375028047848e+01,3.770274684510050633e+01,4.409390873015532719e+01,5.131102300148665307e+01,7.115253435569478313e+01,3.730406630871745932e+01,5.062083123810997876e+01,4.649258157021350968e+01,4.486336083894393312e+01,3.828945063858068920e+01,4.588363799930002784e+01,-1.204678343661575468e+01,3.690481920333149191e+01,7.438707602181409584e+00,6.201268414123760842e+00,5.043250087132160608e+00,-1.311809049195461085e+01,1.810991543714595053e+01,-2.570167823202275059e+01,5.406672196142532805e+00,5.532705431963039544e+00,1.028326852001891112e+01,1.938511057324457099e+01,3.319659743502106153e+01,1.380333915930099487e+01,1.708778958270590209e+01,1.002891377239032167e+01,-6.187894673229438425e+00,5.613804261264244033e+00
2.196909534849639467e+00,-1.041299552913665272e+00,-1.121814915259503387e+01,-9.981255422189445170e+00,4.542884179589536053e+00,-3.464840260159303131e+00,7.261318472688975678e-01,-7.775657989409642035e+00,-1.271686247117767365e+01,-6.064634151980476950e+00,-1.504760756530597199e+01,-1.111146374988411445e+01,-1.449099060249904980e+01,1.084856993387047552e+01,-1.164044884818437176e+01,-1.181289279954737426e+00,-1.001173920012349683e+01,-1.683293266662136034e+01,4.182373048581141717e+01,1.959796753678970660e+01,2.068183932869974839e+01,3.360405559250811791e+01,5.502725760858945847e+01,3.201057452195662734e+01,2.397998462605464454e+01,2.659387559422319214e+01,2.649289679215643645e+01,3.947797439541890441e+01,3.094393770005653010e+01,1.734794463349033578e+01,3.275008295997949403e+01,2.268529869373659835e+01,-7.325736340636649579e+00,-5.549845880811372645e+00,-1.480645049890114073e+01,-1.951727504893072052e+01,-2.674589196120278700e+01,-6.741160687763890991e+00,-1.661358653498428239e+01,3.469727422233964020e+00,-6.762821201773048685e+00,-1.285520994642991610e+01,3.909920060998401947e+00,-1.255289221754353868e+01,-1.772537729877464230e+01,-5.861691157771367955e+00,1.890354935299243033e+00,6.007690288294111891e-01,-9.482533469423575667e+00,-6.190282202857848581e+00
1.671355235029878594e+00,-1.766918508095258522e+00,-2.581589743065796139e+00,4.441429410388488819e+00,1.069150469704787554e+00,-1.496485953968773153e+01,4.412244638389613449e+00,-1.868155658810162834e+01,-1.873227569726056529e+01,-1.129747578572452671e+00,-4.736986156335409426e+00,1.604335907339821077e+01,-1.043252299876383482e+01,-5.281011067689751037e+00,1.571477667060453065e+01,-1.863255823867783079e+01,-1.634896789430585029e+00,-1.721564401571070846e+01,1.839494861340185849e+01,3.724998329058815472e+01,1.458527385820326572e+01,2.666776798697683049e+01,2.345426876066132138e+01,2.114744730049469723e+01,2.043073233299444169e+01,1.439951107857852541e+01,1.468680760333296753e+01,2.335576354010725098e+01,1.329783713278757240e+01,3.548795684043942344e+01,3.288096560646624056e+01,4.150966517007901757e+01,-2.053007909118235386e+00,-6.301845371929181816e+00,-1.486209131868475275e+01,7.282322954087254718e-01,-2.070162870158210211e+01,-4.811888802902616113e+00,-4.010084609070324824e+00,-9.903007513312442001e+00,1.088524603682287406e+01,-9.086289682823085911e+00,-1.792527693677356027e+01,-7.475004934305570004e+00,-9.763375700975123195e+00,-1.807495354638796314e+01,-1.427565270074514991e+01,4.740348779419254477e+00,-5.967176647710216386e+00,3.099370270381666348e+00
