-6.654639760589599502e-03,-1.025192620851147910e-03,-4.533602506053068340e-04,-2.483003979246728096e-03,-1.348256134096967622e-03,1.981636804805495845e-03,-1.430842958884804552e-03,-7.465365601578377239e-03,-4.334271918356638782e-03,1.875606454706982285e-03,3.598562473198074936e-03,-2.756031976667691619e-02,-2.107344956693641552e-03,-1.685777804369328545e-02,-8.612367551595457790e-03,-6.727844979287062044e-02,-4.000997627741667562e-02,1.878067249400110997e-03,9.427029122427993055e-03,-2.371363871222104125e-02,-2.070748385721762549e-02,-3.417860407637798859e-02,-7.385461895851065488e-03,1.361168432637685716e-03,-1.119866086504235636e-02,-2.353628554973972997e-02,-4.387953240436599789e-02,-2.494321037787563741e-02,8.794174009125309971e-03,-6.985108014981755709e-03,9.524846134648848718e-04,-1.501508273304300381e-02,-7.567368369243142887e-04,-1.347260153709700300e-02,2.538530790173646780e-03,1.093411186235728264e-02,-1.616874507225380189e-02,-8.701872543256121417e-02,-2.725596191728574605e-02,-7.275633411729558186e-02,-2.459880753406698817e-01,-8.806009883414903094e-02,2.174602360749601851e-02,-1.668785792638468324e-01,-2.336277643619316113e-01,-2.053718711190988533e-01,-1.524233609415078239e-01,-1.092556578143890761e-01,-3.050308465512551956e-02,1.412208251906698631e-01,-9.875188783348308116e-03,4.152884264233698830e-01,3.933099643377319654e-01,6.593907107149327151e-02,1.975492726964905299e-01,2.100470173988889133e+00,7.537086859471894273e-01,7.380278089327872715e-02,2.118269510463658190e+00,1.935186600984746708e+00,3.070652410585430037e+00,2.385963138363686564e+00,2.613191453268284281e+00,4.343804531860430806e+00,5.275379374988227177e+00,-2.982756133794196244e-03,5.781303145074513372e-01,-5.061109631433056977e-02,-4.745212875585060053e-02,5.627131048408311464e-01,4.009103065706882130e-01,2.199721178841938241e-01,5.874676038148888280e-01,1.950514155891494017e-01,6.628175478088840777e-02,-2.028161808262339549e-03,-4.385562637793703235e-03,-2.701624176257241133e-02,-2.435061009876269590e-03,-3.218471945532556250e-02,-9.243598874083668732e-03,3.305410725783302327e-03,-6.251819458174348587e-02,3.439377999348154549e-03,4.486925528767206350e-03,-2.994778650085960087e-02,-2.050992856966132177e-02,-3.359770721886901762e-02,-2.389073484744693582e-02,-7.684266612763761273e-02,-6.644620003251501539e-02,5.747053703230365664e-03,-4.875194658438385641e-03,-5.113783835131188813e-04,-1.244368482564612161e-01,-6.038642012742384546e-02,-1.580226401432876029e-02,-2.659993195599432564e-02,-1.039083349546235380e-02,-5.278114114877946114e-03,-2.793576421317531255e-02,1.829562799034254198e-03,4.035580556334944675e-03,-4.779429086437137798e-03,-2.376059164157000997e-02,-3.933206395631545782e-02,-2.676542368870112737e-02,3.865657303376926219e-03,-5.243010909394459247e-03,-3.053148627190536979e-02,-5.604376827222985746e-03,-3.529269933319284513e-02,-6.874153226039213249e-02,-4.470121401209749268e-02,-6.114678464971809446e-02,-2.138899157134438803e-02,-3.174564310616338758e-02,-5.714175150932704859e-03,2.655660421999342380e-03,-3.772668527424680868e-02,-5.327260857559246859e-02,-7.733901101497775432e-02,-4.837573020668997636e-02,-1.578850865363286282e-02,-7.205156768984382135e-03,6.716334656475136423e-03,-3.472288361426214501e-03,-1.382877686872313085e-02
-2.421238703953030799e-02,-2.815080571464357792e-02,-6.361682070210683201e-03,2.834998266009865209e-02,1.957106054485880861e-02,1.537670880945532330e-02,3.037813023905656961e-04,-1.338620410335707514e-02,-3.301316299863421566e-02,-3.893202846150262825e-02,-4.202067687891672745e-03,-1.563087062247789025e-02,-2.640739142238859513e-02,-2.008724829538351825e-02,-8.686686889827426039e-03,-2.163820817683979013e-03,-5.884634514169270227e-03,-4.476320894889086223e-03,-1.098938289418709829e-02,-9.094946206115972834e-03,-9.544771653882878903e-02,-1.052010520270458584e-02,-6.047315980699859844e-02,-2.106725395766439329e-02,-2.060774864376685445e-02,2.951884917301533448e-03,-3.423460337823746452e-02,-1.279506052730339412e-02,3.696539095894467702e-03,-5.164406990855487361e-04,-1.249823569035775871e-02,-4.998988921850656270e-02,2.703354732074318093e-03,1.043460268853194008e-03,1.559970348497353955e-03,-3.983937113502471206e-03,-1.374186801515287415e-03,-3.716915478318447152e-02,-1.442343552010672339e-02,-2.091067738924787950e-02,8.016451881906168711e-03,-5.418846206510131644e-03,-1.713828588366224587e-04,-4.138128404858402304e-02,1.103964966792978170e-03,-1.019658165165876137e-02,-2.516192692832154923e-02,2.937751336153685781e-04,-3.922092972070079231e-03,-3.287965915950712137e-02,-3.765056402464983520e-02,-8.192085896854695015e-02,2.002001533685643028e-02,-8.694585408894310585e-02,-7.527049835812142653e-03,-5.747394527136935952e-03,-1.726595037184932846e-01,-4.615306592849325457e-02,-1.245726949580443915e-02,-1.234528634145107967e-01,-5.851745657475631440e-02,-1.384704585979607827e-01,-5.711416501104140536e-02,-2.477578512400075220e-02,4.462868950010106389e-02,-6.984093528316934196e-02,-1.669684509935937256e-01,-2.650163660455925885e-02,-4.544871152251409724e-02,-1.173804669158086816e-01,-2.420509014507914447e-01,-3.234617195031184306e-02,-1.236150672848717047e-01,-1.458369203004016568e-01,-1.197474742843939871e-01,-1.809352319011095778e-01,2.180110324012345807e-02,-2.676002833138719783e-01,-2.122803984871516336e-01,-8.968659151117387707e-02,-3.980255208059512162e-01,-7.496813475312860686e-02,-1.477522685762221455e-01,-1.392255986811605506e-01,-2.977995863812570865e-01,-1.977248025531339048e-01,-2.230361568550751072e-01,-1.848122053248534291e-01,-1.321233902616763267e-01,-1.396683361621773312e-01,-7.732174616078442420e-02,4.471937249464414399e-01,4.056345676658541788e-02,2.993006709835833723e-01,1.289240956852762299e+00,1.712313172467344324e-01,2.037433135518085248e+00,1.083497570043173264e+00,1.301268795069241868e+00,1.738938063264300116e+00,1.971625757839660986e+00,1.489614241601520339e+00,1.616104769536711172e-01,2.356201326072311641e-01,4.190004549281196033e-01,5.730664194645764820e-01,4.659329893557948576e-01,1.143241208787676433e-01,1.956030148515778277e-01,7.323191098989305370e-02,1.410224343108096821e-02,5.792288010608285555e-04,-1.153238317155098891e-02,-1.358924179565780543e-02,-3.891015890992905596e-02,-2.549938495836218122e-02,-7.287882344731967665e-03,-1.580542346249088140e-02,-1.747964601104924978e-02,-1.910563361764559473e-02,-4.993177083800336147e-02,4.484199307364233368e-03,-5.723140804256077185e-02,-6.632331319819577409e-02,-2.404688150802922891e-02,-4.720013422072416587e-02,-2.356320095241426146e-02,-4.537506207499176656e-04
9.389278538611472991e-02,9.559893466635502324e-02,1.197376697666033135e-01,1.203895750259146302e-01,1.835056288784101819e-01,1.406007140968912883e-01,1.709833322857877980e-01,1.633629524116026188e-01,2.126930028975381193e-01,1.695718564389561145e-01,3.230830343722086995e-01,2.383626967859204804e-01,2.077666667292921432e-01,2.313763071219381851e-01,2.160246830915946437e-01,1.133108447404187619e-01,1.911745365063390323e-01,1.326460425348512384e-01,1.185779196213712083e-01,8.774397295993573154e-02,-1.241392708791239042e-03,3.189559237765317995e-02,4.262467557293470738e-02,9.935946510214960226e-02,1.446997040138484625e-01,1.085521684243180573e-02,9.519071269679454939e-02,6.724094971904358287e-02,1.376411989623596843e-01,-1.496179604092496250e-02,1.777354326494943737e-01,1.766041375075192155e-01,1.497152177696066400e-01,1.492494289236922789e-01,2.882372361833770297e-02,8.315216794794337563e-02,3.623063387766493892e-02,1.531425519057559859e-01,1.113934295906789940e-01,2.347452416669584263e-01,9.911013188080701475e-02,1.193997183428281983e-01,1.017858079259324755e-01,1.910204347619801624e-01,8.177894900740156903e-02,1.720295447148829371e-01,2.001478549659781725e-01,3.324626115494770662e-02,1.365040473253396613e-01,6.375875889233871552e-02,1.409266713617337297e-01,9.814230537869274296e-02,1.274165067525714068e-01,6.659887513147251525e-02,1.927841398372164838e-01,3.383120756644634325e-02,1.029246369123754806e-01,1.439373248747421175e-01,8.778646970988565612e-02,1.375762831546996634e-01,7.966245978488861734e-02,5.551852035642058925e-02,1.517724953281100186e-01,1.254479182664007819e-01,9.231489062752763763e-02,1.223407746129470952e-01,1.819619099194196843e-01,4.621637273201496116e-02,6.069262935025092343e-02,1.223027783728321966e-01,6.885836217602388232e-02,2.356604572031357602e-03,2.031987495961358470e-01,8.337608942888816155e-02,1.619868818492028184e-01,5.103934533580361393e-02,4.052677717697673876e-02,1.926639339735274903e-01,9.004166937937593818e-02,5.024825089931546362e-02,1.958675221253921295e-01,1.717109748317057483e-01,7.969448776245588451e-02,1.666376279040217290e-01,1.404351204000254261e-01,1.213447267608310370e-01,1.508348779559108566e-01,1.452388750209855917e-01,1.013960647978117552e-01,8.061345486039653285e-02,1.038522683346872338e-01,5.291614058491911354e-02,1.216949911500614517e-01,5.811900281018035630e-02,5.678143793305482495e-02,6.135192420095725296e-02,4.239251235797406731e-02,7.565847369879633542e-03,-1.691021963189710473e-02,-2.552838854062593199e-02,4.490822444201524738e-02,5.238006777750277981e-02,9.220889757365313688e-02,9.571230639825743791e-02,1.348863802766167574e-01,1.962631772266590358e-01,1.428261043256761342e-01,2.153970339923510224e-01,1.868661533740507141e-01,1.367867712612816367e-01,1.482904786675704467e-01,1.523532020622753169e-01,2.730383756455729283e-01,1.621089819633243223e-01,2.592035673019005837e-01,1.464000343589943465e-01,2.610526195256942517e-01,3.034673413839244493e-01,2.549149952266919206e-01,1.859824900864282260e-01,2.375938482622964032e-01,1.969674180957477760e-01,1.652196026288157704e-01,2.124056038035219141e-01,1.887934923116892927e-01,1.449340984729658999e-01,1.445124589034585960e-01,1.161312487739445398e-01
-4.473329529267983801e-02,-3.694923770970287569e-02,-2.352574937380741416e-02,-5.248239832781871270e-03,1.112728399244414940e-02,2.231880641763924270e-02,6.210014998646191942e-02,7.569362159144493729e-02,6.945279393405942581e-02,2.243357430563956353e-02,8.245063493321729345e-03,-3.471830125156508389e-03,-6.942715810429894545e-03,-2.771598017768498942e-02,-2.377964937013004459e-02,-1.881365668954167528e-02,-2.282407069935776106e-02,-1.185864817538154724e-02,-2.996575737714549797e-02,-2.814791741843056597e-02,-4.581627152607290615e-02,-1.778741434921789905e-02,-1.507254354238380875e-02,-1.019925031930817017e-02,-1.987698362290860749e-02,-1.122895549522463440e-02,-8.569854540987189087e-03,-6.545368892781597107e-03,-9.859067764023649039e-03,-2.193519158804370373e-02,-2.892954024294037627e-02,-3.117415395759886784e-02,-1.517525119704298160e-02,-3.926331130174944006e-02,-1.544493597817701673e-02,-6.584548921323647719e-02,-2.743244033489532219e-02,-3.779945684482759888e-02,-1.095628679709305907e-02,-6.668683873952147012e-02,-2.285099397769106352e-02,-7.731857008515728019e-03,-1.250502871545325009e-02,-1.899510257497174929e-03,7.720383257384933178e-04,1.958794154343804911e-03,-3.484008357892907394e-03,2.342081713586679961e-03,-1.618177369538753227e-02,3.381832935917375698e-03,-2.538874849869049780e-02,-3.016233161951196919e-03,-2.642339701912414449e-02,-2.054102009979120753e-03,-1.097251725426858296e-02,-1.183709039599269153e-02,-4.886014177819290698e-03,6.720602259902975877e-04,-1.211740531065483035e-03,3.780110389144514509e-04,4.557464649129095314e-04,-5.227263415359688706e-03,2.010029779863218677e-05,-5.248490653699361104e-04,-2.587722624865679624e-02,5.722153094844247695e-03,-1.408708365630770287e-02,-4.959689306919477444e-03,-3.506287072785875709e-03,-1.508171390346508545e-01,-2.296952749901267493e-02,-3.771868357722398674e-02,-6.599646334722671093e-02,-1.230257019037426236e-01,-7.989096598806524896e-02,-1.421248434424815799e-01,-9.927122327463289153e-02,-2.296396026481481722e-01,-1.836534847373317847e-01,-1.148353487693981601e-01,-1.708982236546507938e-01,-2.128676991732093501e-02,-5.504852446965616958e-02,-8.291416384178196264e-02,-2.233898556011198189e-01,-2.254231329944928752e-01,-2.063327737779279414e-01,-1.680417845948084798e-01,-9.684171193703963731e-02,-1.543760874878987999e-01,-1.458452747848080489e-01,-4.368925788932401938e-02,-2.394940258157010615e-01,-1.890698670432858775e-01,-1.685344228083729412e-01,-3.822175699171092011e-01,-8.715040519089484183e-02,-1.760853530372323006e-01,-2.433097937508599540e-01,-9.697488328511613687e-02,-1.546326817954878086e-01,-1.345019026541978413e-01,-1.289479370126113966e-01,3.398629388208701529e-02,-3.609195118135460206e-02,1.080130486994892031e-01,1.527731456853228531e+00,6.117036745260937547e-01,1.600463362136221590e-01,1.267187520144186674e+00,2.089053904419647445e+00,8.013079654158075660e-02,1.575155973427486700e+00,2.019867748856421397e+00,4.540284413437772892e-01,5.990022482310234375e-01,4.042852310227695867e-01,2.256256265387933946e-01,7.489943944877228699e-01,9.512186329771693538e-02,4.311338915474079436e-01,1.533165564009836834e-01,6.054695780953331385e-02,2.588680180816042148e-02,1.143373249927336424e-02,-5.631848043354783367e-03,-1.296454229691319619e-02,-1.290427785498689944e-02
-6.091851836527718833e-02,-3.830528707280728140e-02,-3.338520324412139889e-02,-5.230087928805078439e-03,6.707763260980686981e-03,7.510490920505509538e-02,6.758994670166731944e-02,5.835888781226294952e-02,9.995214913523561839e-02,3.597033164325305621e-02,2.673018753380228957e-02,1.705498640760983592e-02,-5.772253612676698196e-03,-6.206885037977246007e-03,-2.439232160483449305e-02,-1.572200781153943600e-02,-1.513305223545765438e-02,-1.752474095111124924e-02,-6.651368867564760867e-02,-7.000084121508455375e-03,-6.309438636567510188e-03,-4.097033982590789214e-02,-8.111726620934161386e-03,-3.235484601729858578e-02,-3.580850795052996360e-02,-2.093490302723902130e-02,-3.433122682936452785e-02,-4.660078586646648063e-02,-6.089881668142294209e-03,-2.018661250365122103e-02,-5.850955721162818396e-02,-7.347265308181017123e-04,-8.476866336212408870e-02,-4.052361697187546741e-02,1.612567712146255675e-03,-4.447284146570210789e-02,-3.175454690974695987e-02,-4.472786775135318554e-02,-5.828093620642549322e-02,-3.373101048863760831e-02,-2.346571130769288527e-02,-7.233628549606704872e-02,-3.069221742320136365e-02,-5.109812691839794863e-02,4.047639720314178541e-03,-1.717148957818327715e-02,1.635786426641861347e-03,1.131179292865969004e-04,4.332667439046283494e-04,1.319452640143656220e-03,-5.165687315312615831e-03,-2.551830084606367469e-02,-1.844513104628511466e-02,-3.078410527349437729e-03,-2.963888032587974619e-02,-1.076856482187366418e-02,-2.027310567009348377e-03,3.089165874237743883e-03,-1.910559825013613024e-03,-3.671801018807990358e-04,1.041933930054515485e-03,6.476840304425867528e-04,1.261003437876623756e-04,-1.303765161785768074e-02,1.246952795504987794e-03,-1.828869613029584021e-03,-4.224272323960297226e-02,-1.899034814812647224e-03,-1.593346858669641430e-01,-5.978599452281563309e-02,-3.011532760140808382e-02,-2.703934130873826558e-02,-1.052800442014000942e-01,2.683952141771294656e-03,4.231378339667130409e-03,8.705068839918582435e-03,-1.266175743363592843e-01,-2.272072473537412318e-01,-8.638933948589745671e-02,6.625186438683758512e-03,-4.629719246594835719e-02,-1.513229570157821613e-01,-6.607113600320943525e-02,-4.662802363520341525e-02,-3.012419090066223264e-03,-7.649547505484707854e-02,-1.612752836431395331e-01,-2.136393442754137492e-02,-2.524674690952151412e-02,-1.462863150686455060e-01,-1.257438820602345408e-01,-2.431540695652801287e-01,-1.302170883424847714e-01,-1.772784298440816531e-01,-1.418216353336804736e-01,-1.242603077995474564e-01,-2.407904687592279103e-01,-6.608108738101381441e-02,-2.150423168654272688e-01,-2.490643004264568305e-01,-1.125939036783897285e-01,-1.004172052985445041e-01,-2.311929967148303455e-01,-2.931585113980484936e-01,-1.345976266025811496e-01,-1.794412771331025391e-01,-2.742531608407861587e-01,-2.157849414426981915e-01,-1.894690884895391392e-01,-2.515750854936671943e-01,-1.701428132396826665e-01,-8.012533733061041885e-02,-5.609056510916381882e-02,2.164316577407743303e-02,-8.924670079560546518e-03,-8.117359604028241693e-03,1.342701967975195920e+00,8.892114342767115653e-01,1.024384389938155948e+00,1.334213447837473199e+00,1.382221919687844691e+00,1.276535585494455560e+00,2.099735402267337125e+00,3.449764766874744426e-01,5.331827330106143625e-01,1.036122362089888727e+00,8.065244127747447367e-01,7.371543310549958372e-01
-2.213799024233972269e-03,-5.584896183125932084e-02,-7.838270707220314215e-02,-1.290574256116959750e-01,-7.393156735488548570e-02,-1.187124926646592055e-01,-3.806155184008992026e-02,-1.259945937993648679e-01,-6.191143773231796987e-02,-7.157568344047506026e-02,-3.731221062001779248e-02,1.514920420920614448e-03,-2.301376236910085415e-02,-3.803193938774725863e-02,-2.043761468409979049e-02,5.562066491017957255e-03,-2.512150979790770886e-02,1.068917723496203703e-02,5.440125557646426774e-02,8.350090413851060656e-02,2.878338365473655514e-01,1.999848582750305970e-01,4.021400365219530704e-01,1.844057312026875783e-01,2.551765579477281998e-01,2.504439576151318847e-01,1.142555863975304176e+00,1.184894399533635179e+00,1.547687056718468179e+00,1.546836283165184955e+00,1.357501436466886480e+00,2.272063695103322623e+00,4.044022930238848068e-01,-7.018763763145939583e-02,1.059909596721853697e+00,5.724252918824124237e-01,1.106569138402992758e+00,5.675708117307092238e-01,1.763922405725404097e-01,3.290512345875659106e-01,1.058093159430136820e-01,2.778692790126064405e-01,1.485618109060458103e-01,2.282139624991100513e-01,2.847485718244289199e-01,6.661808241864250468e-02,3.305864729126130608e-01,1.045487049260922785e-01,-6.371672886245594806e-04,9.954800845469552462e-02,1.464503636723352709e-01,1.006664425738371810e-01,1.139033336049414397e-01,3.911085831249388328e-02,6.536181087676078139e-02,3.061471398838333524e-02,3.770819605999593122e-02,3.606699566255050764e-03,6.764758563492206944e-02,1.074208852510542267e-01,-2.300829906272344391e-03,7.123218301179744076e-03,4.304473812876207818e-03,-6.934531018898491134e-04,1.173489663754005100e-03,2.043808329839200914e-03,-1.722494999931136134e-04,2.106747040690346452e-03,2.391698891881820829e-03,3.721867614291683724e-03,5.295618054676052799e-06,-7.239789862786231295e-04,1.889330292888229340e-03,6.787171990170334443e-04,6.959723771413704849e-05,-1.096529225905630740e-03,-9.086753802360866480e-03,-1.622377595326408113e-03,-1.755037919051766204e-03,-2.290835165742743929e-02,-1.758057278897053738e-02,-2.885766325493871812e-02,-2.186640621821990191e-02,-1.305285278414650661e-02,1.743994018298051021e-02,-8.917567442400896327e-02,-6.681782906263455946e-02,-1.283706751342504337e-01,-1.496931342217337410e-02,-7.320729384172741661e-02,-7.493997248593432803e-02,-6.336651181129143717e-02,-6.413040222851626448e-02,-4.124034333421027626e-02,-2.558871791949158744e-02,-3.123023645839034107e-03,-6.090835839150140173e-03,3.093325577292450456e-03,-7.703972755008831053e-02,1.758042805517359697e-02,-1.482737919386214187e-01,-7.119770778171688463e-02,-2.147485782469422955e-01,-2.075349612619338535e-01,-2.001769354940076961e-01,-4.856141369300156357e-02,3.693403556571978660e-03,-1.009358512271816416e-01,-4.440030977528230949e-02,-3.121401900145366962e-02,-4.822375408863845830e-02,-9.558838713848304136e-02,-8.547939476923242796e-02,-2.005795198487397846e-01,-5.626229765532243104e-02,-1.339051610118384694e-01,-3.410947929790948685e-02,2.910763343000997636e-02,-4.201998806456366808e-02,-7.010980248602421971e-02,-1.962779258784887182e-03,-5.371704491665153791e-02,-1.555145654657139574e-02,-7.902034082314117816e-03,-8.750685800295216615e-03,-2.529351844703330368e-02,-1.405046858088562431e-02,-2.333269455405879642e-02
8.777274794398615132e-02,8.020159969928326860e-02,8.940309378297418841e-02,8.468407559513210781e-02,1.804457662808143792e-01,2.175943855843300301e-01,1.383016115375476363e-01,1.318069325533793579e-01,1.983982075880205698e-01,1.381285068144933459e-01,1.941859080399029047e-01,7.082982195055705088e-02,1.445490549603110630e-01,1.896113912808863322e-01,2.504094371499865912e-01,1.381770293358825230e-01,2.616738110377792026e-01,2.252589286059526463e-01,2.342373599287015384e-01,1.990290808105111831e-01,8.904581307259788747e-02,3.278221831261956404e-02,6.352381000060428051e-03,4.281058152668580641e-02,7.496674788981974591e-02,6.976045396096534901e-02,9.718703922975720222e-02,1.315063647302782412e-01,1.299242060137161536e-01,2.419286962287253706e-01,1.477315598106321293e-01,1.199722328296755763e-01,1.258928848815824009e-01,2.209421380114008071e-01,1.198423185796175933e-01,7.981657601661419632e-02,1.491514931237303832e-01,8.825665610309481324e-02,1.039762994396097040e-01,1.311465867214294811e-01,1.313946628495387126e-01,6.537303143312352127e-02,1.943767709207987748e-01,1.670848410299589637e-01,1.558791071273363527e-01,1.392181187226691486e-01,1.055050831402009892e-01,2.054030756192101459e-01,1.110443748573841649e-01,2.806545134013377352e-01,1.034762964270994207e-01,8.533421567043601719e-02,1.195733836199910916e-01,1.567329654342966283e-01,1.080994389260865329e-01,7.777542729047762227e-02,1.285051689118020812e-01,1.419903154838428883e-01,6.011742272090400685e-02,2.386916037741116103e-01,8.074850056518949326e-02,9.522428453971382156e-02,5.510116489980410731e-02,1.066512247044045236e-01,1.296507758469851446e-01,2.181753695674552018e-01,8.968852324246552599e-02,1.587724012437482513e-01,8.426400187704979894e-02,5.486835462632072558e-02,1.813596820129639853e-01,1.386429489371377721e-01,3.064036796531135337e-02,1.834809454711740784e-01,5.271749304408736292e-02,1.406826524218359187e-01,4.395743719063328198e-02,2.011074375845985363e-01,3.856172701355866511e-02,1.189831271188403344e-01,8.139902133779228222e-02,1.699660545845713966e-01,8.364826616793082092e-02,1.056303845891440607e-01,2.517295498319520597e-01,3.661306532326877305e-02,9.965507170487238053e-02,9.540352882694697056e-02,1.491773688411367760e-01,8.835872021139666577e-02,6.634377149631366655e-02,3.544136571532566921e-02,9.799078464266581037e-03,-2.163275848408997663e-03,2.230080432476652316e-02,4.094301461440771894e-02,7.996526322456422309e-02,8.354673217251638861e-02,1.189984305651357183e-01,8.876594467920956300e-02,1.236372083277616218e-01,1.666947624682190154e-01,1.519394602854665099e-01,2.469582459022798826e-01,2.251323887208190877e-01,1.827378538849748491e-01,1.209269837241906120e-01,1.978467083444400976e-01,2.011576540787990419e-01,1.444265174095570592e-01,1.655889588296963755e-01,1.729532276764502718e-01,1.866032770972956001e-01,2.249018444629262703e-01,2.136266254093732442e-01,2.496214433353037832e-01,1.550922094651933369e-01,1.611856351048677749e-01,2.689166505156539433e-01,1.551164737988004194e-01,1.406673571435662351e-01,2.658209150085837913e-01,2.072800332834961456e-01,2.064066225071488070e-01,1.606320153849729870e-01,1.425525029517935305e-01,1.006966488535092213e-01,6.316843327716713252e-02
-9.740199778078960369e-03,-5.732418693690784217e-02,-8.567957697159965524e-02,-1.078277073585913459e-01,-1.221814926068117146e-01,-7.984679025144592046e-02,-9.418409292224480533e-02,-1.040182499606153999e-01,-1.098153842701625124e-02,-5.164784661984262587e-02,-4.141836451927007751e-02,-5.778456331385018775e-03,-1.541056491528067056e-02,5.289797407375470759e-03,6.496968403941885684e-02,8.281777360165357149e-02,2.820854083259125011e-01,2.900214901244611010e-01,1.048814255697074482e-01,6.804890796131394248e-01,4.608490667623038606e-01,3.330868198125061519e-01,1.723976850727702903e+00,2.327290433815945914e+00,3.325434516402882235e+00,1.901456971173511423e+00,1.322714463545274333e+00,1.175620752429946236e+00,8.416489021165026729e-01,1.230915273237813023e+00,6.087013017709064222e-01,8.694898790680151146e-01,9.095581280987536932e-01,1.115934026175166016e+00,3.292603852522228425e-01,6.657028395195552228e-01,8.776787341068650883e-02,3.155558678628229974e-02,4.073755205893537235e-01,3.597208954377276169e-02,8.655969458844831044e-02,7.266845346666754579e-02,4.326201761022057529e-02,8.992762231859204036e-02,4.435668613254996340e-02,5.096954222612131574e-02,9.096706314294096540e-02,4.190433002334822271e-02,3.922837997754164557e-02,5.026710867807821642e-02,3.222098099381542902e-02,5.060880783911025221e-02,6.229907923756378141e-02,6.277578435349311092e-02,3.785937526612262113e-03,2.438495025586822143e-02,1.433763645161940242e-02,-2.040509616515900210e-03,2.807300202846280124e-02,-4.068541590886843966e-03,7.966251470522345626e-03,5.094394326620163560e-02,2.770910482031140043e-02,2.536953289314089824e-03,1.586874862906452119e-02,-1.045655479773460262e-03,9.428392049156265374e-06,-2.663262804210088125e-05,-2.020712965360425308e-03,2.269421831821496430e-03,-4.997924459319362002e-03,-2.992242653457771826e-03,-6.408185825913643953e-04,-1.828525902502334483e-03,9.013804047410499398e-03,7.102281720333821456e-03,5.100185244799614742e-03,7.469967599750402436e-05,-5.854510264244812065e-03,4.450495247490308362e-04,-6.019866538511186400e-04,-7.756574025737285154e-03,-5.892286266938868630e-03,-1.149309467247075674e-02,-3.340802894791813221e-02,-1.986322036139008193e-02,-1.812882764933576932e-02,-5.662117579981760379e-02,-5.822225493752795911e-02,-7.403223329243090178e-02,-3.740916682229634277e-02,-1.690056443575323544e-02,1.521608546005601137e-02,-3.384828118964149785e-02,-3.142936474835065358e-02,3.586772123748121349e-03,4.181810941518321854e-03,-6.139003509403178488e-02,-1.935292793093575103e-01,-8.461400463907464697e-02,-3.157761129587940280e-02,-9.407988816623025219e-02,-1.538214087184343604e-01,-1.193924514558679095e-01,-7.802086120974698058e-02,-1.969215444233292020e-02,-7.356988845797558796e-02,-1.476945497450151967e-01,-9.445682124301417459e-02,1.820946337321519698e-02,-2.195327499346527017e-02,-4.450903697636389433e-02,-1.498838943803420740e-02,-8.274649250831170311e-02,-1.335845216732156338e-01,-7.782194848152797217e-02,-9.951638314700768373e-02,-6.447663769858466565e-02,-3.482641723867675732e-02,-3.917473695957352647e-02,-7.664661061507178907e-02,-1.007656406015596390e-01,-7.896536534645109962e-02,-6.674253770521561269e-02,-3.493111225466459524e-02,2.381813567982682053e-02,-5.073641319662369753e-03,-3.829697250441525119e-02
-3.052706984167164947e-03,-6.870516294836303064e-03,-3.259396215957281913e-03,1.173407290008029666e-02,-3.519508395124614202e-03,6.051710228793885822e-03,-3.398397763330967929e-03,-7.718534981621638993e-03,-2.300656946511978398e-02,-2.274388991325778167e-02,-2.905655161989387572e-02,-3.820009946690811065e-02,-2.472981466606456041e-02,-2.984926410835541527e-02,-2.443014233522187995e-02,-5.938035531545870355e-02,-9.957932474458702776e-02,-3.366384467684710446e-02,-3.014814136708332190e-02,-4.207799103312996614e-02,-9.360171307254186099e-03,-2.978227518054902406e-02,-1.245526102433082948e-02,-3.371325537158335710e-04,-7.865278879549940372e-02,4.219975832515510464e-03,1.353993508387472912e-03,-7.734120079048961531e-03,-5.386816042208765996e-03,-3.199277543357855608e-03,-1.976570145280496377e-02,-1.249988120642615656e-02,-3.732264840710802789e-05,1.410281220109623011e-03,-5.576053873537533540e-02,2.760890573447802483e-03,1.719248520378831996e-02,-3.889457179396955261e-02,2.167029258999221900e-02,-2.739344551606704425e-01,-8.884745986487818659e-02,-1.319519700831774389e-01,-3.252056512625180196e-02,-2.933604522063126829e-01,-2.718548250996726812e-01,-1.811043349907367761e-01,-2.304292220923630508e-01,-1.181523690459585357e-01,-9.209025150035815566e-02,-1.465056772381253258e-01,-1.056276702642800769e-01,-9.290400869182101340e-02,1.337611159335816979e-01,4.450603025131181778e-01,1.344063800508169260e-01,2.565473026288139224e-01,2.781965215744890974e-01,-7.135240712591964241e-02,4.463464313766469793e-01,1.599534453411496637e-01,2.324766439378565863e+00,1.925007525719671930e+00,2.657868234718111289e+00,1.334875213084389944e+00,1.285458870781825969e+00,1.016778985090876830e+00,2.292202926753063696e+00,1.857415115760131741e+00,1.825538072430175740e+00,7.576293190212854411e-02,6.251528648681273781e-01,4.912488567534850081e-01,-4.976278328779552146e-02,-4.273155519562701204e-02,3.050175531290660880e-01,1.209058773849183976e-01,1.374279287996058550e-02,2.251426211125409638e-03,-6.693308473337039079e-03,-1.465595982516166088e-02,-2.607609658643570208e-02,-4.061910604615923820e-02,-2.365325386792295134e-02,3.570124301263999031e-03,-5.041017705988196790e-02,-4.885693455318429468e-02,-3.002342523573818533e-02,-6.177163534011811258e-02,-5.882177130856564018e-02,-7.013662983316733268e-02,3.987136862867937670e-02,-4.847680714954101522e-02,-4.054491412532309352e-02,-1.564164369011996139e-02,-7.985269853903143034e-02,-6.668918492098981077e-02,-2.388054294145628559e-02,-6.729726195365742791e-03,8.644917755988574051e-03,-2.067525867365082454e-02,-3.292061488258376210e-03,-6.645744002862510012e-03,-8.057093088434611611e-03,3.526397778955507861e-03,-1.355093878131857256e-02,-4.078283691123809587e-04,-1.968063608885605234e-02,-1.859313592158247028e-02,-1.511735447266093074e-02,-2.212660613144255481e-02,-7.244970492857376321e-02,-6.629558627858261888e-02,-2.403349928440732045e-02,-2.047530336053892536e-02,-3.526280371228014687e-02,1.309370471256819830e-02,-1.257611028322976228e-02,-2.948455931924357648e-02,-3.697052751377968242e-03,-5.737554514819958110e-03,-2.110793177768878828e-02,-2.659228402002962802e-02,-5.771386977994355516e-02,-3.746172475679693942e-02,-6.467147560156964736e-02,-2.295585120073647886e-02,-3.590089820152766314e-02,-5.174599155250890481e-02
-8.138662159260862811e-03,-8.265363186249177763e-02,-6.655617999552737585e-02,-1.442027946138911554e-01,-1.691412825955117272e-01,-1.590609090463346031e-01,-2.548799860766732261e-01,-1.300972719534830846e-01,-1.077583067661748613e-02,-1.324435757102403188e-01,-1.293614559516276796e-01,-1.240549325023259236e-01,-2.416707484385587912e-01,2.037309646663393661e-02,-1.568264385662085925e-01,-8.425140761934916955e-02,-6.343574898133531870e-02,-2.930883430087469557e-02,-1.165970787041938767e-02,2.935783932556572384e-02,1.249840372805459260e-01,1.572778047808698065e-01,2.906480339171270688e-01,1.032301649971506974e+00,3.000423027012731336e-01,5.440866063160830768e-01,5.817885072407534830e-01,1.254961573716672163e+00,2.123643713019328416e+00,1.052862979476368199e+00,7.061078787305902216e-01,1.495393964762490452e-02,6.592746224144183098e-02,6.150116165687610215e-01,3.746291378278672202e-01,1.042862308184814013e-01,6.857640596424123824e-01,5.601205089669518689e-01,8.732879763913831139e-02,2.896291244163998191e-01,3.417250844717743541e-01,3.839285574209864715e-01,2.891838893401348365e-01,2.005007963291051687e-01,3.100021008098269304e-02,6.450930224609681407e-02,2.522505914238211758e-02,8.494775192974220179e-02,1.568912899378420711e-01,5.309203203731938624e-03,7.611842385765411889e-02,6.677834499816437397e-02,2.629828921578905576e-02,4.551464383857139334e-02,9.840070714850537859e-02,1.916699867734549673e-02,4.428109950303699832e-02,6.729408859828106548e-02,4.404490715934467060e-02,8.114644795875093630e-02,9.465533158374510314e-02,3.259746361887787269e-02,2.715049966542012680e-02,7.898948289112357746e-02,7.077165143857744312e-02,1.931237238497477207e-02,8.704804431717495794e-02,-3.694012760720632500e-05,6.635404573910411510e-03,2.575697390045198626e-02,3.929632085413156672e-02,4.378778796551288308e-03,1.386572210388270672e-02,3.090497523063645449e-04,6.274311197024871976e-04,-5.168693554607648680e-05,-1.984361349258694906e-04,-5.853421692891136972e-03,7.196785661919120024e-03,-1.252879096006097835e-02,1.043540933109806876e-02,1.867802989322259535e-03,3.033975904107370954e-03,-8.908207661820301271e-03,5.017121578127583820e-04,2.844978932512491881e-03,-8.341562319107249587e-03,5.082062320653692872e-03,4.412703920463078070e-04,-2.845860431868164030e-04,5.416162343880240445e-04,1.775541304572890401e-03,-3.107696950457492988e-02,-2.896073593445438674e-02,-6.441917283102513436e-02,-5.452559950559744684e-03,-1.365001368823948701e-02,-2.445193018868370774e-02,-1.391147388037329048e-02,-2.508505230878805420e-02,-1.872988399831660225e-02,-4.557859135202974032e-02,-1.415106714928916765e-02,-1.758366572778508052e-02,-5.657005628378766748e-02,-3.342538185955340468e-02,-1.357431070177908365e-02,-1.257541433251810857e-02,-1.916338333159622181e-02,-1.470360245660729537e-01,-1.553745664741673360e-01,-6.844270102062940953e-02,-2.912403244259766794e-02,-9.149942051921440556e-02,-7.717302501343896448e-02,-1.546723145272072553e-01,-6.529936540061775929e-02,-1.147279843190642107e-01,-1.897216599827379335e-01,-8.950162714599757541e-02,-3.241452306969318242e-02,-5.983571251745450209e-02,-2.504362553100571501e-02,-2.994001930449836923e-02,-3.479902970402135032e-02,-5.391713206812353415e-02,-4.085995878192250769e-02,-5.831281699624939197e-02
-1.262058102660305707e-02,-1.771997405689199057e-02,-9.918203567214898750e-03,-3.014218522839941412e-03,-6.073065823786354990e-03,1.026870641837657715e-02,-1.203654329923590019e-02,-1.147965855936572410e-02,-6.244750264082948518e-03,-1.061464234863391740e-02,3.785662829142685901e-03,2.253052166394195477e-02,1.025191703247346243e-02,3.288881125575853631e-02,3.287040424314671694e-02,1.148884740676896221e-02,-1.499977731454644190e-04,-1.906921679008514656e-02,-6.404447564415373557e-03,-2.597640747245024903e-02,-2.682893311645630566e-02,-2.892372442966183871e-02,-5.069521823260091792e-02,-1.932932408021360154e-02,-4.831915266847517515e-02,-4.800491605240254922e-02,-1.402618425742849229e-02,-2.692099720494616280e-02,-1.455296590370779540e-02,-1.249368259556819447e-02,-5.909938256578092103e-02,-2.831416561193528247e-02,-2.865749791050024170e-02,-7.889543518998469451e-02,-4.573040964662163782e-02,-2.574856084934228420e-02,-3.344184778212958703e-02,-2.496595532436100308e-03,2.984643099926995673e-05,-1.901829665913427544e-02,-4.969703707615277148e-04,1.173923527525297644e-03,-1.223677153733512303e-02,-2.965899158112089099e-03,-1.210533504635331534e-02,-8.423929787360572713e-03,-1.559479151979130222e-02,1.131619833435974082e-02,-4.479134274323234161e-02,-4.502043503492086929e-02,-7.834770727909697030e-02,-4.763456834254586880e-02,1.138228677092188116e-03,-2.185175858342301158e-01,-1.147216336781621895e-02,-9.046743909393267780e-02,9.280662644018250473e-03,-3.834649781502877386e-02,-8.426185148819406723e-02,-6.772651275474254884e-02,-7.670161560407152967e-02,3.330175555695730205e-02,-4.142520366254218850e-02,-1.727675916062476960e-02,-5.369748157802832489e-02,-1.300802748690522426e-01,-1.292151782597598109e-01,-1.315616026515753767e-01,-7.399416653617370276e-02,-2.552898654578115642e-02,-8.086015014442210491e-02,-2.474354076443416039e-01,-1.325043095646525337e-01,-1.254847574908330432e-01,-1.418515463360310869e-01,-1.762228870318313101e-01,-1.052862527872341220e-01,-2.672859618639805146e-01,-1.379163975303103473e-01,-9.677773320686566816e-02,-1.656605524550180120e-01,-7.509956789998144255e-02,-2.037765355675080423e-02,-1.891203746282597298e-01,-8.345368793598238744e-02,-2.705505626816174791e-01,-1.701292349705620377e-01,-1.058733675155271864e-01,-2.655318057372851315e-01,-1.889159671122584427e-01,-1.325907129506543047e-01,-2.259574311847836470e-01,-1.584385776046400574e-01,-1.335065158582655898e-01,-9.974616049688332653e-02,-2.830294090159425624e-02,1.018272273555884955e-01,-4.485320472385927182e-02,1.319684249499359641e-01,4.511003126253107509e-01,9.543829556648156798e-01,2.176722869901061674e+00,1.022923379089988538e+00,4.443963854670869851e-01,1.882831454794533732e+00,1.574802322785775477e+00,1.069022895530974127e-01,1.420888406605257170e+00,4.662691934081658052e-01,4.014094883517743129e-01,3.445709497146813294e-01,3.144460883764234049e-01,9.509419049375675281e-02,1.162124221159688553e-01,8.723429311238661832e-02,1.557012043421420744e-01,6.492108910122341980e-02,2.344907374778264220e-02,1.932028426637435667e-02,1.610214116922640084e-04,-1.015032504536063016e-03,-6.231559274564341805e-02,-5.007676720482218125e-02,-6.026923815491985054e-02,3.696889285475870018e-03,-2.244680924194326910e-02,-8.035018545975779886e-03,-2.282247735011091322e-02
1.274611112792804930e-02,1.063912594386631945e-02,7.124361051112218512e-02,5.163022853097436887e-02,1.755769329073090523e-01,8.520937175064263736e-02,4.362315824240892842e-02,4.587903764154130370e-02,1.196904086172705106e-01,1.502319881847941629e-01,1.310086320281276216e-02,1.540086943966149750e-02,2.231592585037831811e-01,1.162787039817306939e-01,2.001584747472327230e-01,1.265164725751584118e-01,4.431821764161169436e-02,6.136095106272033972e-02,2.365400879509718321e-02,4.060208384458044439e-03,8.190013278464264301e-02,1.306642518510517936e-01,8.979574995014683036e-02,2.411347421914619704e-01,1.172958872488373272e-01,1.406966370857768711e-01,7.731125561990745410e-02,1.462737306696272610e-01,2.173176596735425514e-01,9.963423394967491076e-02,2.067303961532455381e-01,6.475430146911660689e-02,8.370778383611698903e-02,7.694960673859276012e-02,2.604859811571526573e-01,1.081059920923518741e-01,1.863627357143550767e-01,1.391950479625237991e-01,8.102256984075223434e-02,1.314662072880700971e-01,1.177818421540868105e-01,1.906902150113545802e-01,1.494712059287750805e-01,1.768540111603159604e-01,7.965991553048541729e-02,1.828739240204791672e-01,2.143181061188353109e-01,1.665308906606308703e-01,2.257220883018687951e-01,1.482372588020532678e-01,1.752372518616920338e-01,1.403844115477703158e-01,1.544467539571651449e-01,5.475694013719911019e-02,1.534028890915358767e-01,1.262081278165473330e-01,2.247312859230977955e-01,1.768230729691328551e-01,2.064573028182424552e-01,3.555437531341081869e-01,1.641220677873334866e-01,2.242582528561428701e-01,1.802979529947132398e-02,1.627297486947908711e-01,1.892178933284761888e-01,1.844518303137138715e-01,7.559360718268934298e-02,9.734538518365597193e-02,6.862431872951399447e-02,-1.532888922837075465e-02,1.246630018954009156e-02,-1.861773884191489925e-01,-3.212889176385725909e-01,-1.465911616865484823e-01,-1.978369130829569222e-01,-2.250754834027494100e-01,-1.619568976592357101e-01,-1.269299298956320654e-01,-5.489173585152911337e-03,2.872979238471971147e-02,2.790670848842590271e-02,1.035742585016092426e-01,5.720421310566122658e-02,1.516305614774178245e-01,1.616709624088904229e-01,1.810797937356939946e-01,1.693549533327365630e-01,2.414017087716688603e-01,1.547906603732870645e-01,9.873502068200969151e-02,2.569523816371066180e-02,2.148835361763645480e-01,1.358618237513297411e-01,1.800636191353407745e-01,8.606870668538151026e-02,1.489902028509085818e-01,1.195005958020644299e-01,1.823063095335194506e-01,1.783690378645512165e-01,2.099632334987256155e-01,1.215826365420931282e-01,1.628643293642638157e-01,1.961694877678767379e-01,1.251825894374786474e-01,5.737024274346610303e-02,7.168257366229215111e-02,1.376200252450665851e-01,1.182826802588724940e-01,1.860609880377486480e-01,2.189942377150916053e-01,1.625982348551457957e-01,8.219531313604980238e-02,1.825993383578880525e-01,1.351033921553435879e-01,5.491144143164550934e-02,1.421251119963594378e-01,2.539955917729985191e-01,2.459982264905048732e-01,1.111956635305529212e-01,1.944425976543360246e-01,1.658154818360092486e-01,7.152627613541899521e-02,1.270719691772270177e-01,1.410016256268393220e-01,1.379988605358158649e-01,1.512344187514107208e-01,9.252718279968921711e-02,3.792433062872036659e-02
-2.591426203256741098e-02,-5.529489627512215733e-02,-3.667736986849137043e-02,-2.549045481048494224e-03,-9.251756116417438058e-02,-8.533839383682952084e-02,-9.388600608465777486e-02,-4.842030073631409248e-02,-7.172352218572075611e-02,-4.114804011377374421e-02,5.194831372551950675e-03,-6.412786378713726532e-02,-7.318116700984215496e-03,-9.828984848129028451e-02,-6.273936835286965386e-02,-1.200577712625961607e-01,-1.357367932427120359e-02,8.044413457874884099e-02,3.048138289618831931e-01,6.214501055868627555e-01,5.110240973550163046e-01,2.861538573073796332e-01,2.837327273677334727e-01,7.968341359797828996e-03,2.862485393958787316e+00,3.856187432007978977e+00,8.565604291561731420e-01,1.948109563238246134e+00,1.924936100595173727e+00,1.297847061877886343e+00,1.573156612133520260e-01,8.700476659881068997e-01,1.115250270457471160e+00,1.506403809866284638e+00,1.095680984882110298e+00,4.071927151651919541e-01,1.645990296663073227e-01,5.367494230716028936e-01,2.195577256177504155e-01,1.399829564138604654e-01,2.696634248101721365e-01,2.704561948845841113e-01,6.556451796295216516e-02,3.176327889639246616e-02,1.209526049935437386e-01,4.499717558317443966e-02,7.167998589309089452e-02,5.527359556572088162e-02,3.378571600862675939e-02,5.885773573259749092e-02,6.258811721043709697e-02,2.463457596470868330e-02,4.541751749746560096e-02,1.856308252663332881e-02,3.874912459385301822e-02,2.015683706303974393e-02,1.774127474448127309e-02,3.772059115473758856e-02,9.291787498491627453e-03,2.607896836381839827e-03,1.500320955668966311e-02,1.542448675256183170e-02,2.433259740451472822e-03,-2.928765717988427233e-03,1.945383569749841455e-04,1.470552322145801845e-02,1.244321305767569566e-02,6.045446603179613354e-03,4.355997530904512360e-02,4.816750115813274620e-03,2.688833410931952810e-03,-2.465279977842733342e-03,8.585440848589655964e-04,-1.123192582921360347e-05,-1.510510132019775168e-03,4.708647050830970884e-04,-3.734659907397803146e-03,-6.379762368167439870e-03,8.954956474074359657e-03,1.551289125340552574e-03,-4.102158785004719928e-03,1.318713093183863840e-03,-1.920286142998620105e-03,3.450669595097706748e-03,3.739707187509374448e-03,1.310050656528218395e-03,-1.072975619686732107e-02,-4.433265113351376498e-03,5.675089946560170871e-03,1.470102691758474762e-03,-1.377772673655361076e-03,7.505728123617894055e-04,-7.866228879292285750e-04,-8.088163466797793771e-03,-2.967928668599545058e-02,-5.680427592468617615e-02,-5.016416219523071917e-04,-1.581219428319684955e-02,-4.219070925012857742e-02,-4.010660238312099141e-02,-1.999298002713448263e-01,-1.849790203415048462e-01,-2.031722450124482104e-01,-1.864807066824437920e-01,-2.451028141644884251e-01,-1.062584194811836275e-01,-1.471625031543128126e-01,-6.911011304286575341e-02,-7.756191571930404205e-02,-1.198741486276576861e-02,-6.885889925511254339e-02,-5.051993063817732110e-02,-1.353741444844809017e-01,-6.789342065056215569e-02,-1.195841876109740576e-01,-1.198647305477169855e-01,-1.007269785449693561e-01,-3.354415212358047294e-02,-4.134012204816371605e-02,-9.826014488755008269e-02,-5.138048295600307347e-02,-1.013749916608868984e-01,-2.217139597830217884e-02,-7.687948413794531977e-02,-4.176586155176718884e-02,-9.243889895691544123e-02,-4.624440338805406447e-02,-2.385492271431317521e-02
-3.123974474752969424e-02,-9.559595137886334887e-03,-7.402314362047390447e-03,-3.299852208851040015e-03,-3.203801412031107628e-03,-8.520866470358042649e-03,-3.015998333688212074e-02,-1.483935239815320668e-02,1.325911990938467063e-03,-3.124328418963958492e-02,-6.039349617584397617e-02,-5.061631812709527223e-02,-4.916174421805889760e-02,-4.031776910392551039e-02,-3.172726667255804101e-02,-5.786888358471871385e-02,8.967693309571716023e-03,-1.015650578508563509e-02,-3.598215193333047929e-02,2.120289455372988911e-03,-9.303149814079123047e-04,-9.419032886533444671e-03,-3.748209867153376191e-03,4.614414514700438362e-03,-1.708794050588700875e-02,-3.947110334871947734e-02,-2.573230826383671697e-03,1.018830157415083655e-03,-2.614003550438411677e-02,-1.744810565180671819e-02,1.664644650874171680e-03,2.776194471174176122e-03,-7.638345173964945257e-03,1.297314296801670196e-03,-2.405159409113645768e-03,-2.428558051911183183e-03,1.813500241588226862e-03,-3.943119648143688163e-03,-6.258764841531028883e-03,-6.089772545923734627e-04,-5.070713972261899809e-04,7.842480181123285404e-03,-7.298919263253475509e-02,-2.489384723589182710e-02,-6.429804391300932009e-02,-1.218157044766332402e-02,-4.820548033948478944e-02,-1.526224030894222927e-01,-1.807772566638466208e-02,-3.151345698906113380e-02,-5.285737315178765799e-02,-9.422776273496907959e-04,-1.624845070076788855e-01,-1.161698084191297164e-01,-1.042335694736025858e-01,-1.113993840723669082e-01,-3.360550795344685038e-01,-8.098199287531533674e-03,-9.192626330388888045e-02,-6.015078611617729470e-02,-6.259558970628381624e-02,-1.376720010595100518e-01,-4.085243685193147289e-01,-2.425414237295980824e-02,-1.093288741120074514e-01,-1.863456161814987938e-02,-1.585404837193001570e-01,-2.526628677244482368e-01,-1.385398704753167121e-01,-2.397872043192484925e-01,-1.617521996520303318e-01,-1.172550361217696291e-01,-1.049306469297702354e-01,-9.635516303281047024e-02,1.024491790260874252e-01,1.129839208100834186e-01,4.375558997386123639e-01,-5.207294561590745247e-02,-1.239322394097207847e-01,1.294689231148214770e+00,7.248708405396845356e-01,7.257618143096977725e-01,1.552131731236418455e+00,1.993031374711152104e+00,4.448121056126697614e-01,6.467968302790764179e-01,4.247426532467777349e-01,3.065123818782895082e+00,1.283835529849059798e+00,1.100361732698830419e+00,6.674184546899356585e-01,3.047266406910754122e-01,6.806640818300034868e-01,3.212936817225482966e-01,4.403229880215613762e-03,2.821523048752148655e-01,1.099320317204067893e-01,1.600614139937546199e-01,1.080579947260992407e-01,8.011919228926745341e-04,2.306008516397449817e-02,-5.976542754364935588e-03,-1.314079382877060727e-02,-1.048103738854945510e-02,-3.486210505183422875e-02,-5.020606882365599710e-02,-2.013115989442860326e-02,-1.477737978307695765e-02,-3.578924503328975715e-02,-3.322131743189564446e-02,-2.250834713767909528e-02,-4.865404379372663402e-02,-3.414097258109429628e-02,-4.356852223994518714e-02,-2.110638790337631202e-02,-1.767389749486659653e-02,-6.141874455963447499e-02,-1.006238217551491676e-02,-3.973709804900373010e-02,-4.062412566952212228e-02,-9.539622660945986515e-03,-4.663796400713583756e-02,-4.423995618613955905e-02,-2.803613846247679509e-02,-1.474910916668581429e-02,-5.179336732186383407e-02,-8.338772572797746585e-02,-1.290601443397460836e-02
-2.465993662307641721e-02,-2.799157797073540885e-02,-7.969698619241200738e-03,3.288396625458609585e-02,1.087622273062983924e-01,5.738146962264228240e-02,3.153086832385145442e-03,1.548911054284153946e-02,-1.206039580736944323e-03,-1.147546019745577725e-02,-2.819435595636683549e-03,-2.165425187860617329e-02,-1.512166855704506763e-02,-2.120231151176422621e-02,-1.878811385147454924e-02,-2.350650888034539615e-02,-1.934944315666114675e-02,-1.776552807680251145e-02,-2.158865205944958052e-02,-1.452088057622021727e-02,-1.403977393802201962e-02,-1.176202692437125844e-02,-9.147842619972222644e-03,-3.239395821456726027e-02,-3.870821356439013011e-02,-4.509735455777590107e-02,-3.888418313526308123e-02,-2.485020498816240160e-03,-2.464269952124052351e-02,-2.466514417823886872e-05,-1.676492907840626892e-02,-8.931848858980961925e-03,-1.629033526108987842e-02,-2.776322770259443198e-02,-1.147863357029781962e-02,-1.385062092935940032e-05,-3.043913343381098383e-03,-1.810183081108912920e-02,-2.819568040951686647e-03,-3.169826226320391488e-02,4.724459358579014218e-04,1.739288212176156928e-03,-2.087826564310787947e-02,4.509928477419581153e-04,-1.117683980941495308e-03,-4.018153369825246818e-03,2.503878200052164250e-04,1.039188028050490667e-03,-2.970032593956572781e-03,-1.598999067372486533e-03,-2.049414073866759767e-03,1.400643267916190995e-03,4.439779608792404002e-04,-1.691187346309970963e-04,-2.343690642370944988e-02,3.345119986248536095e-03,-1.162850264461338934e-02,-2.929557193717227757e-03,-3.405817178405290543e-04,-7.577837837259772391e-03,-4.933790973146194234e-03,-7.454548739746665910e-03,-2.655173597900499852e-02,-2.237373889765043034e-02,-2.274450358770483890e-02,-5.733337708131836831e-03,-1.403487446676666972e-02,-2.795896347055766909e-02,-1.622834834216249633e-01,-4.207943969842078968e-02,-1.056702516160457767e-02,-7.907869964734322299e-02,-3.599410692003092438e-02,-6.890354144105453882e-02,-2.215355899773064630e-01,-6.103286438220925647e-02,-1.181528431371790949e-01,-9.918816810929753647e-02,-1.759174686350843675e-01,-1.154024195399374758e-01,-2.103184832454701447e-01,-8.702820884587873784e-02,-9.331379799865445468e-02,-2.788651717179167489e-01,-5.925207592718353261e-02,-9.058796814652014806e-02,-2.684446965063393403e-03,-1.107447276751856308e-01,-2.750409852241616493e-01,-2.598397720587932169e-01,-2.248834619515592270e-01,-1.302455101172606544e-01,-9.403496132930611040e-02,-2.325811420617433789e-01,-2.614476167703631004e-01,-2.604642241981044437e-01,-1.245818955041421150e-01,-1.489813885962344708e-01,-2.793659622186909774e-01,-2.792887544291151047e-01,-1.042890839566769368e-01,-2.094346676405676733e-01,-1.079209878034159825e-01,-8.825219787294338869e-02,4.557601857920950961e-03,-3.777731781236712966e-02,5.311826633439186568e-02,1.219996053933648655e-01,1.596305941746181789e+00,6.264370752169423628e-01,9.677055057768330082e-01,3.672784537513388070e+00,6.968162791200450679e-01,1.603650330302188731e+00,2.037166172030341560e+00,1.668739314565320431e+00,3.866703704573167810e-01,8.332569358955503880e-01,6.618845085217182067e-01,2.686175479375114694e-01,4.109924316062706917e-01,1.342474014183865638e-01,9.726567444822724340e-02,9.048525443680752178e-02,6.284575532095774963e-02,6.257642320360996303e-03,5.010418076128043095e-03,4.905609273957234513e-03
-2.422673086549726254e-02,-1.346699936216849518e-02,-7.911553730687202746e-02,-8.732035295047078927e-02,-3.677052695040997077e-02,-1.912532838759556722e-02,-4.780565065142158843e-02,-4.943368140118128279e-02,-1.644366078484841079e-02,-2.468284831004552340e-03,2.895731360246006983e-03,9.968118334562314775e-02,1.968916274010417966e-01,1.367428319246720425e-01,6.042210376877121814e-01,4.042168984420915767e-01,-3.227629346075574363e-02,4.835503159157920616e-01,2.154233359046181295e+00,1.266382579081513748e+00,2.553523926974853975e+00,1.367357278222048000e+00,1.245083496368436515e+00,2.590560266274041012e+00,9.886556927876639644e-01,8.523766143457945921e-01,4.566204962640293963e-01,2.429842685474734032e-01,2.039360945603754693e+00,1.454790454030508773e+00,7.720629009540879162e-01,5.682699969367460691e-01,1.729824890636687262e-01,1.193932091108120402e-01,9.227623539719304047e-01,5.576502616587010186e-01,1.079050903707713949e-01,5.289613839110222093e-01,2.483172532511528363e-01,1.462589794322310399e-01,2.834265896154223099e-02,1.259536394334228315e-01,8.771844563802443095e-02,6.271236302405669427e-02,5.348267086747490739e-02,8.839702384176992278e-02,2.861766149918688190e-02,5.823712365244787525e-02,7.443963845035816984e-03,3.202503408702854493e-02,9.098106533182591729e-03,5.046177123200754067e-02,1.535916977193717108e-02,2.258095806350022411e-02,5.623599709530017164e-03,-1.696457996747787562e-03,3.025848414389319986e-03,7.850056001714909252e-04,2.540324611532476188e-03,-1.081750421925074884e-07,1.069252565054555040e-05,4.703471427686703628e-03,3.159338229683254871e-03,-4.284251433573222885e-04,2.789396691660685733e-03,-2.839623544675959983e-05,2.056900088609603123e-03,1.280055678857396290e-03,1.602827495787919861e-03,1.877482422587808692e-03,3.843050314065549807e-03,1.631194194627710306e-03,-8.041823602451703135e-03,-1.553372173893793727e-05,-2.616132393938657569e-02,-4.783967591199395769e-02,-3.575608767959726625e-02,-1.148295938346993866e-01,-1.705396570076020760e-02,-1.693738649545651898e-01,-1.082571343380361872e-01,-8.130832714704702702e-02,-3.290963721102940776e-02,-9.449863073741543440e-02,-1.427936879592671127e-01,-1.350960523198760088e-01,-1.937293354218315999e-01,-5.727845723785793264e-02,-1.063410552394518094e-01,-9.547281988308186501e-03,-5.161288281616493306e-02,-6.339120325592756400e-02,-1.692716830731434002e-02,-4.984514598387185247e-02,-5.328400289517356420e-02,-7.912929466286101887e-02,-1.729764123946039844e-02,-6.274267783175245528e-02,-5.119834326958877524e-02,-7.892150162721200957e-02,-7.335830777415508486e-02,-3.151024551887447039e-02,-8.864423042091544580e-02,-2.673654977208370434e-02,-3.875688146687006341e-02,-6.129475038549259819e-02,-5.142574508473324313e-02,-3.610029795874387937e-02,-5.011174076368775376e-02,-3.620698653016810736e-02,-9.066205563400868417e-02,-6.004668893261887880e-02,-3.154354957360996220e-02,-3.793780395696402102e-02,-2.936836617906656358e-02,-1.049627544544887159e-01,-5.873760275695801697e-02,-7.790328318602930679e-02,-6.565941893716606415e-02,-8.174624218351328464e-02,-9.412160423166249235e-02,-3.459300025351528390e-02,-5.477651381833013866e-02,-6.043204387522531362e-02,-2.522511829229349099e-03,-2.581629210626646981e-03,-5.116678710657458599e-03,-1.554709763682118710e-02
-8.067859897664540064e-03,-6.475636391623006138e-02,-6.881300542123791608e-02,4.442167596838246697e-03,-5.125444160758266254e-02,-3.795604270255212992e-02,-5.363638852890514896e-02,-3.022599314338119542e-02,-2.905592496229835939e-02,-1.214721415298185975e-02,9.204788227412183041e-03,2.285996143841110672e-03,1.222149910005453088e-01,4.130334222376279008e-01,3.186129175843370187e-01,3.799651896428348219e-01,6.660608992202896594e-01,1.931018569902418283e-02,5.091550248395689676e-03,2.189592499955194338e+00,1.603704467700106662e+00,1.960766248556853331e+00,3.044816773885853145e+00,1.565778148797722480e+00,2.360405565811845907e+00,4.998717836712668339e-01,1.072084425032084676e+00,3.063762803539266111e-01,1.327583439241129426e+00,6.844262316319262851e-01,7.963117217023182315e-01,5.252930444047058112e-01,5.737410975676291436e-01,8.433168825659476120e-01,7.935178359687494742e-02,3.415517105248522256e-01,3.851625605509552408e-02,1.150695067231980590e-02,9.769420049496012337e-02,9.901514101506822541e-02,2.698920598694081602e-02,7.979805498411179920e-02,9.749646864806467417e-02,2.802877194344933348e-02,1.032641331401389223e-01,7.439277104710842470e-02,1.766524248370912251e-02,3.750740914145496430e-02,3.802471038675969695e-02,3.590779704906958691e-02,4.146398235006134442e-02,3.763544164393248931e-02,3.852895280720939480e-02,4.560549882801685773e-02,5.553770356457825470e-03,9.915346268203541202e-03,7.293036124902531163e-04,-1.065431157503295492e-03,5.777077583511641766e-05,-1.318103276962415658e-02,-2.981599816893192121e-03,-4.117307172316118577e-03,-1.705475463224999377e-02,-2.988776818860481438e-02,-1.363627951108535019e-01,-5.140045365531493299e-02,-8.195689257204104294e-03,-1.846260539669669631e-02,-1.003713247146424403e-01,-6.980537553727583777e-02,-4.914954998123282487e-02,-1.649416608850806654e-02,-1.353365075825318717e-02,-4.834171665362708981e-02,-4.731435188815948101e-02,-8.200531652689961593e-02,-1.585061198047913456e-01,-1.282627234286813633e-01,-8.374651080411581183e-02,-1.614663247517876890e-02,-6.328694393720789291e-02,-7.186418030330674056e-02,-3.588482184059219732e-02,-6.152405861270266590e-03,-1.069192470622883778e-02,-1.305880473179017731e-02,-8.254261452876859861e-03,1.226803809949253248e-02,-3.938754874155556357e-04,-1.070503512145296564e-02,-9.248825590820597756e-03,5.000189522245034913e-03,-1.787836348819928436e-02,-1.595677036593147122e-02,-8.358518201435818223e-03,-3.967940264834869842e-03,2.662468635620250743e-03,-2.164201652610848754e-03,-1.378203581937366504e-03,-2.246599499287312354e-02,-3.503390159543307708e-02,-3.943764083385861013e-02,-3.273274755006688047e-02,-6.360668481816909858e-02,-8.831539647823911932e-03,5.202526899243063545e-03,-3.956592929935814906e-02,-2.176255378762654083e-02,-3.431572733598733937e-02,-4.272188056636663095e-02,-7.669442952490672372e-02,-1.250893865349439193e-01,2.069585473697055714e-02,-2.061144339888532420e-02,-5.829943768377131297e-02,-5.153279930098138284e-02,6.157773299868590094e-03,-7.655291069511627189e-02,-1.244555232133313406e-02,2.628838536698374639e-02,-6.899826071509776448e-02,-5.224254091091015684e-02,-5.629667213985322521e-02,7.014351311314680031e-03,-4.573688678159950477e-02,-1.225645912035393595e-02,-5.454246548274108673e-03,4.793933632319990860e-03
-1.878120276726370427e-02,-4.332992467185176749e-03,-3.987085980168458138e-03,-5.591805312817878194e-04,1.064058287509484640e-03,-1.573770878614078571e-03,-1.612017975632252728e-02,-2.803758536398857221e-02,-1.190943473148268171e-02,-9.262602114519350588e-03,-3.402335575417825275e-02,-2.245391587315544862e-02,-7.501563384259554712e-02,-1.753707322248915929e-02,-8.214322642393676044e-03,-4.884416709603664475e-02,-3.883408891677284785e-02,-4.221510529938844909e-03,-8.090041939147292471e-02,-4.580764611623572985e-02,-2.065895765140484883e-02,-9.036297810024539190e-02,-5.274412368077276148e-03,-6.560754875304294909e-02,-5.275743686483318380e-03,-3.309499036166572289e-02,7.537449490422758495e-04,-1.623506767696253350e-02,-6.360383989865972879e-03,1.191643450917462266e-03,-2.680477844979995902e-02,-3.148821971062231578e-02,-3.362943145454030253e-02,-4.662867300641831275e-02,1.462894389278094828e-02,-7.488560271533508360e-03,-2.452461152540879805e-02,-2.703268487557614411e-02,-1.417261012131609257e-03,-1.788849606585700414e-02,-4.395609417176029807e-03,-1.018571252156759074e-02,-3.864136511221221565e-02,1.104851984932092579e-02,-2.747370119237192432e-01,-3.985043067708610165e-02,-1.120073172832841690e-01,-7.144717364439635843e-02,-1.288501599906178297e-01,-2.319981210737387389e-01,-9.873293307668108698e-02,-8.008193164775870287e-02,-8.278827414948833341e-02,-7.726913301931982725e-02,3.804213920546326011e-02,1.086740536684593084e-01,1.182852375355897545e-01,1.582522292618922244e-01,-1.863439635228665223e-02,7.455674774819283090e-01,1.757733701226399825e+00,5.414997411190029808e-02,7.420738398744470832e-01,5.890860843473789688e-01,2.676294888478769618e+00,2.455874818881289112e+00,1.197613531070096604e+00,2.483071881637358036e+00,5.096746769108113639e+00,3.653504081476742105e+00,1.037164812938600411e+00,1.541101732793379586e-01,2.702268171858974305e-02,-1.006538919692673457e-02,7.015906648195930906e-01,1.188168647005961864e-01,3.696132073358331382e-01,5.240801721852167416e-02,7.735320892943592375e-02,3.924088766289361013e-02,2.756331378443703864e-02,-1.584076671511648008e-04,-2.165832578452401343e-03,-8.276938539651248561e-04,-1.229625541682987516e-02,5.603588695159785263e-03,-3.210299647467510648e-02,4.385396499832420851e-04,-8.917991996767904439e-03,6.570417741994114859e-03,2.395244540745107478e-03,-1.424719353072946906e-02,-6.475901173756058726e-02,-3.454984432148503620e-02,-4.331619199525883063e-02,-5.738259316001255439e-03,-3.566003096562461727e-02,-8.568036337018221371e-02,-1.242931312980576075e-02,-4.276579019465334697e-02,9.616681930346706111e-03,-6.979038682269650407e-02,-2.252063815601179977e-02,-1.026014902704710727e-02,-2.610935343986188137e-02,-1.863526230153628171e-02,-1.904105190449971105e-02,-2.390591624300879292e-03,-2.190016641931210109e-02,2.062738311699735625e-03,2.631224301987656819e-03,-4.054839491511030847e-03,-6.844567040054146817e-03,-2.071936007030704754e-02,-3.774659180570871277e-03,-4.295356263801124869e-02,-3.504247002651428300e-02,-1.352162815557119216e-02,-1.234283530248684105e-02,-1.134887929698900032e-02,4.166532620935920438e-03,-4.860844948308512894e-03,-2.564848282546935282e-03,-1.111419120358554148e-02,-1.009110758083070838e-02,5.113591807779118564e-03,-2.409460722276663813e-03,2.330329403196331264e-03
1.427225043849494196e-03,-1.269238222657421630e-02,-2.717727956822991574e-03,8.617802204338897293e-03,3.445175041094079849e-02,5.357765936140142411e-04,2.678488601695961421e-03,-1.559480535074981786e-02,-2.087713052978257267e-02,-1.261941935869939808e-02,-4.770651476290656973e-03,-1.408222921973692650e-02,-1.203287573080138138e-02,-2.906407164935729745e-02,-1.433713211244668113e-02,-7.325678922744496661e-03,-3.997922353545336344e-02,-4.116847716197747503e-02,-8.376127595978661092e-03,-2.367224609193480100e-02,-3.821832274436847560e-02,-2.287531505258306661e-02,-4.316686682377621903e-02,-4.288306804906583114e-02,-2.665368438042408500e-02,-2.752559288821850025e-02,-3.834750322744210488e-02,-6.757484824933253018e-03,-2.893577457318381035e-02,-7.359654033738638815e-03,-5.788051505242580719e-02,-5.259753579207158275e-02,-6.645413818293334496e-02,-6.022486858649880870e-02,-1.815213955062221218e-02,-1.043059463454677413e-02,-1.061524822510452951e-02,-3.653296546494892716e-02,-5.360515032559249465e-02,-2.527985189938315377e-02,8.586974371327305748e-04,-1.102998225051163989e-02,2.377661219786481213e-03,4.814262729507710024e-03,-3.833534608054139144e-03,-4.121643980100298671e-02,-3.953513317958307072e-02,-1.942053489984432377e-02,-1.580979835106658890e-02,-7.258545883272271657e-04,-3.282407485082919352e-02,4.819744329894955909e-03,-2.377010559665067996e-02,8.639937546631948351e-03,-1.433312422162553133e-02,-5.221568640117294456e-03,-3.547646450594255790e-02,-5.911782910577446232e-02,-9.063293725712091853e-02,-1.231587536157644977e-02,1.190354425716399697e-02,-1.041500599219179896e-01,-1.109073522731785361e-01,-6.102299325499471044e-02,-1.983934842256911135e-02,-2.482154629455586570e-02,-4.138826019451614935e-02,-1.180036629709421275e-01,-7.472451467575615125e-02,-2.690409553966308792e-02,-1.999254435201032465e-02,-1.533920380126646901e-02,-1.122930169334090678e-01,2.138556683980732606e-02,-1.579101914365314274e-01,-2.179564710516575243e-01,-7.319525274508056900e-02,-5.355279509564597057e-02,-4.687281926140511590e-02,-3.545263115749493210e-02,-3.790746712171458310e-01,-1.931832129171128787e-01,-3.870917669767168223e-02,-1.057254380229858265e-01,-5.820902902470254797e-02,-2.534155638983554559e-01,-3.931050455673982813e-01,-8.260950297787490390e-03,-2.396478264396135205e-01,-2.700975560879431137e-01,-5.745578406459099507e-02,-2.391815021630407934e-01,-3.083512948573849943e-01,-2.571081383537959231e-01,-1.058747184222727789e-01,-7.733795465564481664e-02,-8.736631483249203411e-02,5.040254988158408833e-02,-6.262933602584137838e-02,2.763365650305864563e-01,-1.105168420593545531e-01,6.738354278896095950e-01,1.935729762931395204e+00,7.657530069725438926e-01,1.331501887317288579e+00,1.588733589090254084e+00,1.441469821734643109e+00,8.986100001128413117e-01,2.705414138858068807e+00,1.016055834353385423e+00,1.440094184220661599e+00,5.418048924721592385e-01,4.962710985588200674e-01,5.713225707945829290e-01,3.034770512440891355e-01,1.850052528777531013e-01,2.668136298007310891e-01,4.351317645234185905e-02,5.156211284127538291e-02,5.061942630729518444e-02,5.634860493607012251e-03,-1.532380506748370376e-02,-1.017060365171275869e-02,-2.690322618299274826e-02,-2.184670596065723530e-02,-3.540732689293001056e-02,-2.777644919883370117e-02,-4.721978397186037124e-02
4.607232026388797391e-02,7.155936071090189532e-02,1.181673704810887460e-01,1.311496981021129105e-01,1.669980453048071356e-01,1.712828339611296435e-01,1.067090112969132365e-01,1.751409553190943769e-01,2.549231599054434527e-01,1.820763081865608146e-01,1.983774655654292896e-01,2.085465916563361277e-01,2.210073297675106407e-01,1.729897428427581985e-01,1.862201312109836027e-01,2.539334530266757484e-01,2.219946864685350685e-01,2.082644245895289570e-01,2.546187947801727969e-01,2.598222799114811576e-01,1.924005829547018875e-01,2.725275946369691282e-01,1.500621469337263536e-01,5.265168606545032881e-02,2.505443420409622091e-01,1.592161218621794272e-01,6.286168966213230569e-02,1.228247928074716611e-01,1.157392606794318060e-03,4.597702894256418954e-02,3.936570240660024894e-02,1.093620852587568193e-01,4.476507636495552500e-02,5.562617579287264247e-02,9.607411905775482819e-02,2.253237802085992503e-01,1.662475621688090655e-01,1.444621461405029283e-01,2.456928738609863161e-01,1.158086606358698784e-01,8.561528571746394867e-02,1.356786911301250120e-01,8.440084405454907623e-02,9.621837795302264074e-02,1.352986779520423122e-01,1.510897620477140157e-01,8.748763856374161541e-02,1.008782561105341369e-01,1.978876088835972435e-01,1.275397155594741316e-01,7.667808746503199102e-02,1.057987892919268896e-01,1.449965387483276302e-01,1.262927868924526853e-01,3.396235115608015054e-02,2.871744325577705315e-01,9.561742203845564891e-02,1.487937739285289107e-01,1.727785171159428312e-01,8.575713524399584953e-02,3.752593518706388853e-02,6.547261671092816093e-02,1.231007362189441984e-01,7.722765934072735317e-02,2.067468987770597344e-01,9.414281438075701447e-02,1.684585159794746989e-01,7.319029904253834817e-02,5.859430068615627263e-02,7.890983348853049251e-02,1.184941250133755009e-01,8.908932568770394633e-02,1.415901241613996553e-01,1.501467528790802475e-01,7.502301141987119393e-02,7.738176555233403087e-02,9.034165266650437398e-02,1.104908997960568906e-01,1.414694519032959341e-01,1.089471139016214424e-01,8.490124009024253848e-02,7.157880555123490030e-02,1.673960624655219942e-02,1.157911323716429020e-01,7.474703281864486515e-02,1.119482671018103975e-01,1.685578267788724882e-01,1.030390000383787225e-01,-2.162562332510163318e-03,1.489644297200083400e-01,-8.551757818975149958e-03,7.356535450944305665e-02,3.282031440318311510e-02,1.878004739378286991e-01,9.265759828130926135e-02,1.072479989810432577e-01,1.972379056352080717e-01,1.450638583919856284e-01,1.454030425189034859e-01,8.555173556488805675e-02,8.546658740752040295e-02,4.599066666055794117e-02,3.395606912198449734e-02,7.039450459126883478e-04,-4.870895186441115410e-02,7.956546054264872214e-03,2.198338964098310935e-02,4.921298250478189917e-02,6.332190702445618380e-02,1.086612907400496125e-01,9.904301127333614563e-02,1.647212457423687104e-01,1.937670098783985662e-01,2.142291349226144725e-01,1.616046333284113512e-01,2.360320173985762382e-01,1.965172729215272363e-01,2.943829492621955479e-01,2.797027690844358094e-01,2.075273639442330176e-01,2.448121055490876663e-01,1.930623105155309382e-01,2.487962497490890934e-01,1.206087838587980299e-01,1.318931951712968009e-01,7.519257339987124589e-02,8.463240287673624851e-02,6.063356627734327320e-02
-3.005601905472329513e-02,-1.503426925949885237e-02,-1.214137044003487341e-02,4.386297748088434888e-03,1.465493230104361611e-02,5.355528302200196315e-03,2.304912979334020756e-02,1.211625073801239280e-02,-7.031137279072579953e-03,-1.798561286632618592e-02,-4.153295271157645373e-03,-1.182881517598896939e-02,-3.392645623786558901e-02,-3.514021446292742157e-02,-5.578818456116842878e-02,-1.041097261081473831e-02,-2.709192187076732775e-02,-5.186007573297692769e-02,-1.609908466802981858e-02,-8.426272043745505758e-02,-3.077834141197957618e-02,-5.674201519575433270e-03,-4.648093037199959449e-02,-2.553912127578260999e-02,-6.567030804086043672e-02,-4.708848476188325777e-02,-4.687165138569995143e-02,3.503336057543365162e-03,-6.497057914603671753e-04,-1.669038815472559129e-03,1.811494122043726552e-03,-6.707785079542651942e-03,-2.272461321888989347e-03,-6.965489343327839304e-03,-2.220493968063351475e-02,-7.854477554679201992e-04,-5.595291169703807931e-03,5.265485235262521574e-03,-1.280983972360501787e-02,-4.329919366902331562e-02,-5.340742102476609549e-03,-1.343177214941747577e-01,-7.457568828810116901e-02,8.940978348435012213e-03,2.533612192257484602e-02,-9.321467751278864067e-02,3.917304852112891284e-02,-4.958118996756941815e-02,-1.009588240651316526e-01,-9.408580848080505543e-02,-2.251339851445821050e-01,-2.507951285995182467e-01,-1.306317874237883647e-01,-3.517516572730432223e-02,-1.013537602591176034e-01,-2.386345939933636195e-01,-9.668356236447575580e-02,-2.407814351409617859e-01,-3.845994617701284368e-02,-1.672275512586787194e-01,-5.774036433722183614e-02,-2.682566258326259459e-02,-2.669689065207190848e-01,-2.170354002183951803e-01,-4.375258544460147725e-02,-2.722650166331151977e-01,-1.752762304399950177e-01,-1.715135167865779742e-01,-2.354321936871970333e-01,-1.809095394788764188e-01,-2.544212384291585916e-01,-2.052581926522421829e-01,-2.019731465888180144e-01,-1.405290250918108386e-01,-7.994733118103362901e-02,-5.546803702078018788e-02,3.083045642291062580e-02,-7.525847727983822968e-03,3.004793752680088303e-01,5.618520548597304431e-01,3.865288968543420522e-01,1.401742696272352484e+00,2.002014162565156408e+00,2.398770798795617942e+00,1.599227507682522642e+00,5.009435504992675980e+00,1.824421193714643730e+00,1.295362682068189053e-01,6.451722368939603047e-01,1.054237127434297649e+00,7.378516778110443264e-01,8.976094518721150495e-02,4.201564672202429129e-01,1.173572738443632579e-01,1.602852845951451277e-01,1.792297669117912107e-02,1.717121990774020737e-02,6.395897492391130036e-04,-1.717968995650034697e-03,-4.626114911704014288e-02,-3.409607412355388639e-02,-3.614755744658256637e-02,-3.029450033553784949e-02,-3.077779259267082734e-02,-1.400712900571259717e-02,-1.949479502415500665e-02,-4.001233613876554324e-02,-7.404745100708925998e-02,-1.630959478317382111e-02,-4.838635846119680728e-02,-5.435836179852440719e-02,-4.781824944689696752e-03,-2.821909691242605739e-02,-3.799765754833064196e-02,-6.574941002690672283e-03,-5.928863791613683820e-02,-4.334623995353346221e-02,-2.907597250118063373e-02,-3.115476769815042927e-04,-5.157198622611604277e-02,-3.114334693651889252e-02,2.776798767009129587e-02,-1.047354619278085541e-01,-8.732948896992996646e-02,-2.058890994799843915e-02,-1.455130385460836999e-02,-4.287239403885088895e-02,-2.512425360679788194e-02
-2.249969610494107625e-02,-1.710049630645187058e-02,-7.689864471982679750e-03,3.138945123612098265e-02,1.961684124128521001e-02,2.245928388915363963e-02,1.200268859025785222e-02,2.370894918652033043e-02,7.704611199968852339e-03,-1.379999792020809857e-03,-7.783946282902652614e-03,-1.519404064529337323e-02,-2.753122106077942818e-02,-1.166383902763071939e-02,-3.769473626104073716e-02,-2.669199172201169520e-02,-1.365674671727020242e-02,-3.952074134911390951e-02,-3.045901041746141430e-02,-6.605694730729912145e-02,-2.884679777945880694e-02,-8.549643490041969329e-02,-2.408575323430925744e-02,-2.965321021557481077e-02,-3.470835518394941449e-02,-8.775233511112685500e-03,7.092114326629471791e-03,-1.034848382263783145e-02,-1.432242790667841159e-02,-9.472588983442303823e-02,-3.274560443004491395e-02,-1.351397182018140679e-02,-2.251541790076567323e-02,-1.132753585757292729e-02,4.517614226476476119e-03,-4.908616540267424222e-02,-1.800226285889996308e-02,-5.566478593238382601e-03,-1.020260916364153572e-02,2.917174059575929502e-03,-2.557845208662897288e-03,2.596857412761012702e-04,-1.540036529439248571e-03,5.706727589531640689e-05,3.052575085676515441e-03,-1.236242171033596036e-02,-8.861095203085754199e-03,-1.175815768702276288e-03,-1.010790536073143814e-02,-3.140065420770649270e-03,-1.041097555079627431e-02,5.713069077466367829e-03,-7.296391410345885037e-03,-8.966282831313797386e-02,1.816105132226571856e-02,-1.426959883679026694e-02,-1.984305625781461815e-02,-6.360091053085373258e-02,4.095146278043199084e-02,-5.729094980023181211e-02,-2.555139503813645963e-01,-3.865390540916020974e-03,-9.650246445267721129e-02,-2.217058818132723319e-01,-1.000967212381844024e-01,-2.291583091321421073e-01,-9.921159494928255551e-02,-7.725821043754055317e-02,-9.302793370358335145e-02,-1.611074783359776885e-01,-4.423135924513539596e-02,-2.808893386857274632e-01,-4.770405825300311209e-02,-2.071222871212317906e-02,-7.328585385730794488e-02,-3.640322266542579954e-01,-1.988308297545773873e-01,-2.735861053584103808e-01,-2.272130797583750972e-01,-1.840505534726922521e-01,-1.672363014893029354e-01,-1.045608930378255641e-01,-2.871854333982959973e-01,-8.788287537844773067e-02,-2.120337190112284997e-01,-2.790447432244258508e-01,-1.377826351893015611e-01,-1.459611698828145177e-01,-8.853870320492673862e-02,-8.754861381607173532e-02,-6.979658630937951580e-02,3.233340583258635381e-01,1.386750642160098669e-02,-6.131169992821830506e-02,8.824929887246237836e-01,1.777987322378353330e+00,1.833277902281605032e+00,1.856246765899677076e+00,3.608148496007067330e+00,6.090309480833747680e-01,1.430209534673420269e+00,7.060279639168957067e-01,6.141883913432490960e-01,2.193634548851392252e-01,2.234323741774104088e-01,5.039141242950069266e-01,6.586920567248570890e-01,-1.145471696211286354e-02,1.664867400815160936e-01,1.933768164968293832e-02,5.062819326852647898e-03,2.537895877949901662e-03,-1.107856396873268395e-02,-2.183554836522274070e-02,-1.722897397898045732e-02,-3.423882348839664413e-02,-5.000598477734034819e-03,-2.971185672929372093e-02,-7.993606291990721854e-03,-2.376858552985396805e-02,-1.118593322760651904e-02,-1.652888981421320527e-02,-1.676823116503375899e-02,-2.352935281935556941e-02,-2.587396021284777900e-02,-2.465262935630918931e-02,-9.941930824662012153e-03,1.964889662605229844e-03
-6.723245210004104256e-04,-1.491055754733574927e-02,-1.304317763581417646e-03,-1.317331029023369529e-02,7.085027943483470855e-03,-4.701487605642062223e-02,-6.368456380292257524e-02,-3.035355271516140731e-03,-2.846620167896610210e-02,-2.372945506472962443e-02,-4.577155290064227611e-02,-4.071014281144016284e-02,-1.739456774897533628e-02,-1.131988459379458002e-02,4.052165426483604616e-02,-5.231447226768330683e-02,-3.563356647232616969e-02,-3.351894792214949598e-02,-1.730583949232212529e-03,-1.713531362915880416e-02,-2.362072165098054108e-02,-1.509004853044834150e-02,-4.808969703947322399e-02,-1.076621598507646223e-02,-4.677744634509071325e-02,-5.578913873012696784e-02,-1.915362311770733503e-02,-2.711994112330169335e-02,-9.734631800452184236e-02,-3.981656427996862341e-02,6.437856341781539316e-03,-4.232995016091114365e-03,-4.502426705844498646e-03,-4.273903647389575011e-02,-2.615159688394339942e-03,-2.162030480891065712e-02,1.336943913785154040e-03,-1.421330807699817261e-02,2.292646931060561295e-03,-2.825055986671668341e-03,-2.220621411190859887e-02,2.052317761617828383e-03,-1.117709553692241425e-02,1.500006077450093068e-04,-3.132766641559172477e-03,-5.478871167924287411e-02,6.902174366036810740e-03,-1.590035256221859067e-02,-8.760660789235315271e-02,-9.743258211223225496e-02,1.167466030230959913e-02,-2.165939775549496904e-02,-1.003182332560988155e-01,-2.889117663240371447e-01,-1.612571915198949823e-01,-1.154704941492659814e-01,-2.218401089376368651e-01,-3.857494526390299605e-02,-1.181473768240979827e-01,-1.704320050577362577e-01,-2.962580088619916063e-01,-1.708671277966437307e-01,-1.366273997694110454e-01,-1.173442966621499328e-01,-9.474696436431255184e-03,-8.678260476539005619e-02,-8.051904473654237712e-03,6.429644409877245392e-01,3.542504832415888788e-02,-6.926787150472550614e-02,1.049451933993789554e+00,1.160907877053895643e+00,7.105005861223782082e-01,1.116769610779789090e+00,7.378340591517476010e-01,2.317279373827410449e+00,7.112451501891292605e-02,4.598335502204975000e+00,3.481741989751927502e+00,1.769640519161369108e+00,2.334543770025330200e+00,3.893734080852944146e-01,1.504884613701795992e-01,1.831898488601455544e-01,2.709686432675184609e-01,9.421042495499354352e-02,2.713246379472478709e-01,1.486213942297483215e-01,9.736842501513141845e-02,9.671521602860477448e-03,1.099322616413282196e-02,-2.127836741738998484e-03,-3.504794257618338432e-02,-2.965845044732126970e-02,-4.258953708047668457e-02,-1.197983873113184217e-02,-1.941304860873301411e-02,-9.427236534996137965e-03,-3.946417557841216256e-02,4.839834728609954811e-03,-2.614600059264565388e-02,-2.502894746982728749e-02,-5.964206749580025328e-03,-2.469903289154884787e-02,-3.656011754364986432e-02,-3.859633295061458413e-02,-2.683789205241185818e-03,-7.271260305931410983e-02,-4.274139831200401973e-02,-6.086161477747641102e-02,-8.512292214920197386e-02,-1.614087406027337260e-02,3.851166944131719037e-03,4.149492534267185465e-03,-6.197200717562387218e-02,-1.026938266161650237e-01,-3.085475606681224031e-02,-3.429132386747191924e-02,-8.411104774321249240e-04,-1.347589381317424850e-03,3.742165201299602843e-03,2.846165127084426642e-03,-5.762468920127410132e-02,-4.146436664618447648e-02,-1.529407560515178705e-02,7.990694284156460089e-03,-3.143458800827771821e-02,-4.353021167413743953e-02
4.262723103006853947e-02,2.016050975437142304e-02,5.440903973455978038e-02,1.048894786918780908e-01,9.870500377567681394e-02,9.951995215921689841e-02,8.388759018945919632e-02,1.524649196226929293e-01,1.131807715733814945e-01,5.451295451218198668e-02,1.113015870076839581e-01,1.228786020811429847e-01,1.806478721004651511e-01,1.142734292264625945e-01,1.244071437515363171e-01,1.751143012805111698e-01,1.041973349896296586e-01,2.850218107274979720e-02,1.280149866977422224e-01,1.271992117642792297e-01,6.562315152691859665e-02,4.441175994544658417e-02,4.290219084628356383e-02,-8.674000028401962275e-04,6.625404728347734917e-02,1.741909227586242448e-01,1.777324625806984693e-01,1.802763748084018902e-01,1.250279784811094974e-01,1.649393949574890217e-01,2.171761126704450096e-01,2.962197244387213546e-01,2.414372244056069705e-01,1.618642488595969653e-01,1.603395695733673687e-01,1.496220345283965081e-01,2.372277985924528265e-01,1.889407720707843019e-01,2.477938630949211019e-01,2.931875977663864763e-01,2.005611999746468865e-01,2.443088682099789632e-01,1.947640281062571477e-01,1.029931896907131939e-01,1.767937364361013841e-01,1.237277369531166876e-01,1.837134313344811753e-01,2.187532734287082337e-01,1.715811255452570627e-01,3.007794308660762250e-01,1.325387839108648491e-01,2.961138196184630034e-01,1.622146555419505254e-01,1.553176310896964285e-01,2.144038261796343547e-01,1.660477862336634802e-01,1.625346194802646804e-01,1.467352062448246397e-01,1.296667202640690020e-01,-3.460909744827068979e-02,6.275590003392163274e-02,-5.991354658835944952e-03,-1.550017851419622228e-01,-2.114240233222841950e-02,-1.714861222094771487e-01,-9.316851368075328155e-02,-5.136132671205952821e-02,-9.524948780607361831e-03,-1.265818424977715739e-01,-5.909397495317029320e-02,-7.620999681870412046e-02,-1.776379783759505235e-03,1.822311361201906996e-02,8.462259020509731167e-02,4.996173585617426360e-02,-1.035841533475710327e-02,5.164558816560001903e-02,4.961692288272339518e-02,2.429831619163268230e-01,8.813962478841060044e-02,6.174473741512832153e-02,8.018548398929971344e-02,7.183061386379424595e-02,2.091137691255015030e-01,1.468794693493412629e-01,1.720120419733157102e-01,1.644670368429227425e-01,1.807771659058213798e-01,1.273787203891703634e-01,1.290740426969837762e-01,1.082075374782081462e-01,1.083202932703808685e-01,1.615340905707963459e-01,8.743286290093769952e-02,1.701944045528080984e-01,3.295481534914342786e-02,1.020121795667988385e-01,2.085059831399327657e-01,1.092479093546082081e-01,1.601093316712760839e-01,1.047110452553930288e-01,9.323838098772690985e-02,1.905174810803004701e-02,1.245419097679510145e-01,1.079231790724584777e-01,1.692536511794167364e-01,5.452855675664459306e-02,1.422247986915645690e-01,1.096461820372152118e-01,8.087746427264130844e-02,7.362258302458637993e-02,1.834242407966255040e-01,1.253178332134330664e-01,1.251558166819024820e-01,1.143607583832211005e-02,1.096133461292213146e-01,1.323912365296410210e-01,6.960406217816876573e-02,1.786686900667333877e-01,2.006460858950167847e-01,1.023320624742634355e-01,2.245149028017685011e-01,1.724189698342845078e-01,9.524381810623361311e-02,7.015453136553048696e-02,1.204901941716208374e-01,7.835554780688122611e-02,2.008003753184110091e-02
-1.358237176563525765e-02,-5.683648428514638529e-02,-3.714371551826020634e-02,1.026811687268010947e-02,6.024115108512905631e-02,9.051432045898396075e-03,8.661012469114197365e-02,1.529741636701989205e-01,7.516932395446757065e-02,6.564017841720853896e-02,3.352503526822000340e-02,2.518219759967639179e-02,1.880144310462232354e-03,-9.993405389222158319e-03,-1.819039264413124454e-02,-1.592053357415364884e-02,-2.085861156246994821e-02,-1.476432140199061480e-02,-1.207104707654095901e-02,-1.354612410499826149e-02,-3.114578405865793195e-02,-1.337183831474918726e-02,-1.005999898610994599e-02,-2.021842562371740926e-02,-1.516531712941242976e-02,-4.027727261074099535e-02,-5.561285305182855215e-02,-6.325541426888736662e-02,9.212369597835947180e-03,-5.557202946528431997e-02,-6.231098030161097596e-03,-3.493977322478353936e-02,-7.626823493464576775e-02,-1.205956865632314481e-02,-5.344774100356661922e-02,6.587683022508133805e-03,-1.372351430268625889e-02,-1.642977342930245985e-02,-6.939477495325273304e-02,-3.841219568355715847e-02,-6.282673932869239919e-02,-1.010001721440502778e-02,-1.641519650596947807e-02,-6.111600418202624285e-02,-6.130971718721100333e-02,-3.091166192701394477e-02,-4.191139512382442006e-02,-3.396248741029242457e-03,-1.643889990185577049e-02,-4.749043619588736581e-02,-5.893703196260407368e-03,-2.343700664696800676e-02,1.884496352245249289e-03,-4.793161569844228329e-04,-1.214389103726864171e-02,-1.310584273699914523e-02,-1.084674263828139251e-02,2.676218076184678531e-03,-2.936554829546838738e-04,-7.132406432978799504e-03,1.820960753670443648e-04,1.403976974864577006e-03,9.248519541170210391e-04,-9.489157081202879290e-03,8.842756918881734764e-05,-9.961794418203865145e-04,-1.493049515308638234e-02,-3.804202280476461778e-02,-1.306674642443296161e-02,-5.448525548952522224e-02,-1.871582559049589714e-02,-2.226196394745223218e-03,-1.413917303944504759e-02,-4.681472572109768304e-03,-7.094109517426007427e-02,-4.491044871630528457e-02,-2.668499395373861646e-03,2.429284048784549296e-04,2.202303414191749548e-03,-9.423420855376719169e-03,2.668761070181125631e-04,-2.702963851270428000e-02,-4.913590695507502083e-03,-3.178450891287391139e-02,-1.210499491041778716e-03,-4.551958232749691441e-02,-2.170785480177058607e-02,-1.623710426528440776e-01,-1.844340138160428522e-01,-1.333181318512889901e-01,3.472781016723398839e-02,-1.850759364188601930e-01,-5.503373201646114682e-02,-9.716457057460115010e-02,-6.003734139429688782e-02,-1.542569628395512871e-01,-2.276710024763857476e-01,1.344165156195835029e-02,-3.110823151935668829e-01,-1.267956131818694376e-01,-1.964214894654755794e-01,-1.809335446208140685e-01,-2.805322689724170093e-01,-2.586436250931918868e-01,-2.987946171249898919e-01,-2.619270717290148043e-01,-2.332099967591928225e-01,-1.867568701060161596e-01,-3.880183979604429068e-01,-2.053017858745209145e-01,-1.652019765287290332e-01,-1.890570858622551975e-01,-2.253247784428745182e-01,-2.169249412062877747e-01,-1.197963302785731432e-01,-9.637092108332899823e-03,-1.059543109676460010e-01,-9.353585581780746172e-03,9.772616291802618260e-01,1.148460179158411032e+00,4.064902980463994675e-01,2.126829099361684960e+00,1.219117263871334789e+00,7.328982005866192528e-01,1.001191397023488028e+00,4.740553105120248051e-02,7.196440898189551127e-01,5.990833650379852049e-01
-4.329473859354846660e-02,-3.852247735395287337e-02,-8.291643647661423033e-02,-2.000329203885353388e-02,-1.026211125027541998e-01,-7.671921955915823009e-03,-1.829777537619273545e-02,-3.725161324943113833e-02,-1.324052297852364168e-01,-7.376456781277104802e-02,-3.263185536766412959e-02,-7.348248625723907690e-02,-1.081662360483183483e-01,-6.885229899979407320e-02,-8.030550691333328273e-03,-4.219653057820184350e-02,-1.362429947270156309e-02,-6.172333321045696958e-02,-2.765241365203837884e-02,2.281705450171634536e-03,1.025458946221394392e-02,6.600977216464438968e-02,1.043587124857884713e-01,1.195304783109522040e+00,3.716631994756207091e-01,3.530650509952614619e-02,2.574530019861886454e-01,1.789233846724476384e+00,3.281136502860622528e+00,8.701547791322790104e-01,1.685954407216791129e+00,7.739743992171247422e-01,1.007399063207358392e+00,1.404013431117827393e+00,9.386688396270406187e-01,3.126243428906334554e-01,6.029692746351510424e-01,1.017685963042983088e+00,1.637422207586513301e-01,2.635337359641272692e-01,6.905694066720573510e-01,9.521118605161124626e-02,8.776481836609180409e-02,4.487458676574899302e-02,1.013585822887830001e-01,1.157616398881372577e-01,7.857650065821703000e-02,5.350337116478008637e-02,9.253707201936800519e-02,-3.649379489351416064e-03,3.326296441379979901e-02,1.920391567111117970e-01,8.495815317758818874e-02,3.567284067666057906e-02,2.283318292065988561e-02,9.537505939689062961e-02,3.293934909637346448e-02,5.571567818634103053e-02,3.833268930073311515e-02,4.456896872354781935e-02,1.830179473392909081e-02,8.250840012530710754e-02,6.935949644808553360e-02,5.377845573972681731e-02,3.037704972044578955e-02,1.759704248800890002e-03,2.533320721615590562e-02,-9.909760490062419561e-04,2.133722551581767116e-02,-8.487339205873580331e-03,3.050463455638991600e-02,1.998993960878654372e-02,3.034458397765295995e-02,2.433348756013919631e-02,1.885438042673020717e-02,-8.072162641349491874e-04,7.657581006556573970e-03,-7.067834866502000900e-05,-3.105533404930198803e-04,-4.894215693636706603e-03,-7.166923832939781558e-04,1.127448806924510535e-02,6.633244488891941633e-03,2.417628777781486576e-03,-3.649742540001443131e-02,-3.052732820572766348e-02,-1.593438348484080107e-04,-1.124745019004495979e-02,-8.160962934373482136e-03,-6.131362689801881510e-02,-9.457376544468987234e-02,-4.846352515947246337e-02,-1.467758678162959726e-02,-8.051520948858293530e-03,1.764896285993416839e-03,-4.567599894852438641e-02,-5.692764110928828780e-02,-5.185426852129873532e-02,-2.321651987874099807e-02,-9.043160523779618376e-02,-8.984183343555166013e-02,-1.082414738517804981e-01,-1.405459486636191635e-01,1.117395679193396857e-02,-2.278728851884628814e-01,-1.313025207295307750e-01,-1.283779415605173224e-01,-5.378530152690243205e-02,-1.444301373279550105e-01,1.363365791010113202e-02,-7.184055500910678516e-02,-6.856123768206398572e-02,-9.130022660652073463e-02,-4.451132777627798270e-02,-3.865135295589082476e-02,-3.780808262116709673e-02,-8.396759932178450569e-02,-1.117174360464228550e-01,-1.645733026680235855e-01,-1.608364311583086737e-01,-1.416778203084807508e-01,-1.138087621888243112e-01,-7.246787468022677925e-02,-7.199862351923350112e-02,-6.253525316161963332e-02,-9.121011366328431180e-02,-3.230549515995710663e-02,-4.725789945049931051e-02
-2.634590824230835515e-02,-2.371924079374176583e-02,-1.141646585768840844e-01,-1.209809216859866893e-01,-1.194224259054833259e-01,-2.738386620253852044e-01,-1.570137544484213887e-01,-3.120428580609274985e-02,-1.297171300720528220e-01,-1.096661757722859620e-01,-1.484416283091135880e-01,-2.522127551993965655e-01,-1.203454647813516076e-01,-1.753999143761528212e-01,-1.551595876555019182e-01,-6.573190486953911504e-02,1.453258257729260136e-02,1.891610721559685016e-01,4.877396828720370614e-01,4.348160644908533046e-01,1.996794486889771625e-01,7.081844417227824984e-01,7.651762604604940288e-01,8.376752870011957564e-01,9.962423264207992402e-01,1.904552868116575093e+00,7.606935702188986070e-01,2.615604973740515593e+00,8.211978467334194454e-01,2.392969997584132591e-01,3.423116588396233895e-01,8.612479859128417681e-02,3.313706360527823858e-01,2.826949966341739118e-01,1.642761395077188824e-01,1.063667464013292457e-01,1.545570674325232041e-01,1.840867088953188069e-01,1.730117715791860966e-01,1.814976786101114570e-01,6.925803896174767549e-02,2.082803289763009158e-02,3.333614647328996677e-02,8.905301894195985501e-02,7.403830474390447891e-02,1.357020765932928086e-01,9.202517202043702937e-02,3.711495343272559061e-02,6.193279814623965651e-02,1.518332535233389742e-02,2.094938433955837245e-02,6.231012180307032161e-02,-1.048842193934184167e-02,2.086966556818673629e-02,1.705095466639314217e-02,4.716551993037795820e-02,1.456122135629485566e-02,4.868895279313868035e-02,6.620065315260827143e-02,-7.227729198368550330e-03,1.693723569899348367e-04,1.655375235473097520e-02,3.381460666515903601e-02,2.670574178131913598e-02,5.838204064194046222e-02,1.387556194742259330e-02,2.523032433800484822e-02,4.679771988500035403e-03,2.910823010383887383e-02,5.568855115451381253e-03,1.169347049015586476e-02,-3.043458963326523773e-03,1.119274973821932995e-03,2.493767115619056028e-03,2.538857681076824653e-04,2.058802889367349065e-03,-5.266555349275918105e-04,2.545026863924150680e-03,-8.253283287359617151e-03,2.345623708426611016e-03,-1.323943500263654292e-04,1.460277410363168202e-03,3.681033393856544388e-03,-6.364593197168668314e-04,1.016141431203688821e-02,-1.991471881260592144e-03,-4.906038284505728590e-03,-3.005738408839974665e-04,-6.270433632733495325e-04,-4.217340905658531654e-03,3.206682996387017360e-03,7.885582332598983432e-03,-1.739212794027428189e-03,-9.734830773278961569e-03,-2.823987220010371058e-03,-1.488676489299949274e-03,6.188730809991435829e-03,2.367015571487284670e-03,-1.899503890023433673e-04,-1.519615569871278406e-03,-2.503716109219174257e-02,-1.595580789818521264e-02,-2.727733105695227464e-02,-4.761041224190064314e-02,-6.827960060928337134e-03,-2.026734697850017530e-02,-2.302495935566654245e-02,-6.059853562015213692e-04,-8.445255201562751335e-03,-4.645071776588713397e-02,-6.214226123475933249e-03,-1.208107457224750526e-02,-6.081502754750406359e-02,-1.822367492647475051e-01,-1.833029676239245898e-01,-1.265003249520969819e-01,-1.115222572672741469e-01,-3.360003001755559882e-01,-2.081185734085257144e-01,-1.989766381485721936e-01,-1.768620836087491932e-01,-1.425314529417880116e-01,-7.466615258484855799e-02,-7.335551487391532566e-02,-4.516270497366492442e-02,-4.640413013066762432e-02,-4.714643628920243967e-02,-3.652855755695977313e-02
9.327721318039239014e-04,-4.163046854775627123e-03,2.926480812583428029e-03,-7.455610942991756918e-02,-1.140318310071822133e-01,-1.835473922649462908e-01,-1.039212110609261663e-01,-2.216290865164715351e-01,-1.345356430769931166e-01,-5.138750729876878642e-02,-1.142590247325135644e-01,-2.959163632321765852e-02,1.310277861422164958e-01,7.378870916671834146e-02,3.343762341303090357e-01,6.714512429220096390e-01,1.597938866568686112e-01,7.678577601659664076e-01,1.195551571737799024e-01,2.134223697646704387e+00,1.226972962478565909e+00,3.525163149110860150e+00,6.541897872951606407e-01,1.202843984822093537e+00,2.013791809236966657e+00,4.469813668955017194e-01,5.222718248591798895e-01,2.295849770823761737e+00,1.809201123234624453e-01,1.165696010359559720e+00,2.209088127216893849e-01,4.626771848780000251e-01,5.923226842086632971e-01,4.102571671890151150e-01,2.503572454516347356e-01,8.447137515305648547e-02,2.677756791018368748e-02,6.677570609675956281e-02,3.987047307069880447e-02,1.335315250727363567e-01,1.148320727005781028e-01,6.329809813517174588e-02,4.708408664594715409e-02,6.537276577279260703e-02,4.221052689175210093e-02,6.056492852301268576e-02,9.077682640790407653e-02,1.608364363494142746e-02,4.317658654573785365e-02,7.936780738490049544e-03,2.601918860934659961e-02,1.015246551457862478e-03,-8.054173830602640027e-03,6.217517769159185657e-03,3.583533395114325143e-02,8.465519083286261043e-03,1.884942167948303396e-02,8.356866306849511372e-02,5.957037896921148906e-02,-5.988044470539100397e-03,1.578636153820138152e-02,2.162461395906305553e-02,6.903989605250662742e-02,7.078519466350564199e-03,8.412313454970416632e-03,5.463016746816457860e-03,1.518271884770589289e-02,3.746648035496837450e-04,3.164330212220745509e-07,-1.259684349227382970e-03,1.031729174225598684e-02,-9.910074810740746726e-03,4.337146539066550135e-03,-2.896369940968033727e-03,1.112748945918312637e-02,-7.067783425354017858e-03,6.836603006815658514e-05,5.517030396407140644e-04,-4.907032437788266550e-04,-7.483836000238371826e-04,-4.507334888914350107e-03,-3.775633078604902996e-03,-6.469962512342175738e-03,2.550135637404552565e-04,-1.549209458126296277e-02,-1.854797875883524823e-03,-1.108348525227868028e-03,-1.600248130643943658e-03,2.219428949767037005e-03,-6.763122720845553921e-04,5.841714937369525012e-05,-1.758577313688255636e-02,-3.582497809391286397e-02,-4.981278702159951111e-02,-2.613482679606589018e-02,-1.752231391377736536e-01,-1.844928173113976611e-01,-1.754361316632979395e-01,-3.017299757960660855e-01,-1.496861244093656285e-01,-2.302673664976994522e-02,-1.405781866102775168e-01,-1.270334820187282443e-01,-5.084070949624396041e-02,-3.206371778616642215e-02,-1.060886429492241025e-02,-3.816031107010140616e-02,-8.464952206495840459e-02,-9.562115634649552554e-02,-1.758931099486726046e-01,-1.520834855786361572e-01,-1.207599516120901606e-01,-9.376281227735656920e-03,-9.728512638639862098e-02,-1.559290658503401927e-01,-6.544712989928758162e-02,-3.021698629735519726e-02,-1.254055579409087962e-01,-8.118138756725676308e-02,-8.832342639633788614e-03,-8.881033644521951764e-02,-9.213824760268978648e-03,-4.007397974023806791e-02,-5.630263923172595247e-02,-2.430065480029317340e-02,-2.625828904711876438e-02,-3.169330079307653564e-02,-1.250326047783347459e-02
-1.218144632645926269e-02,-2.650989614318466359e-02,-4.751570388145014145e-02,-6.003186270951953174e-02,-3.394490750522559386e-02,-1.747626331033694594e-02,-1.033737219327075275e-02,-1.831505970406622011e-02,-5.297358048252948787e-02,-2.184196597580201002e-02,-6.477425408237164062e-02,-4.394964021871555770e-02,-7.072326693161792854e-02,-1.074754386888785926e-02,-2.912803363877320903e-02,-1.873241516314396587e-02,-4.099614299952343555e-02,-3.162659280114105131e-02,-5.372660192565319182e-02,-3.593126155198385352e-02,-9.771794601155545795e-03,1.196676407170637734e-04,4.204403873148510745e-02,1.272700189861325770e-01,2.232730809949188822e-01,3.260401548931336491e-01,4.315888295849511919e-02,5.425803993582500179e-02,6.738049014470074427e-01,8.699270296273724501e-01,1.162155246739945635e+00,1.195903544711937938e+00,1.178828816511784172e+00,1.610894068069168295e-01,2.025663882170563035e-01,6.126611387229553563e-01,4.678884194120001561e-01,4.647118410867444593e-01,2.177812150139192271e-01,1.705851583612375266e-01,1.233648768530639234e-01,1.592970619685716849e-01,3.418328639634127808e-01,1.609450408208225602e-01,1.888804980514056930e-01,2.023260145359450646e-01,5.726245868697729668e-02,4.139572691803695137e-01,1.377263427336886947e-01,4.403190361462041014e-01,2.099782292842247156e-01,2.124845185099674683e-01,1.300728344777895007e-01,3.509531721011339145e-01,1.780347007718740271e-01,1.227301379019797717e-01,1.896559256835422813e-01,1.996645630094993629e-01,5.325360425514767682e-02,4.113158766331705130e-02,4.380611590911864806e-02,-1.859593484344601241e-02,-1.857011064625983116e-02,-1.100450097587721970e-01,-5.863728396048764613e-02,-7.395901486185672835e-02,-1.531700476696308197e-02,-3.603137087723338322e-02,-1.213740877635804544e-01,-8.080921125467804833e-02,-3.067967848721292815e-02,-1.433365018508427589e-02,-1.947276167704125108e-02,-3.746902955951683135e-03,-1.146567147269311922e-02,-1.648361048454665898e-02,-3.570222925032804501e-02,-2.094896959453248705e-02,-1.523032666399669680e-02,-1.160813165582453600e-02,-2.875893423160475956e-02,-3.075022700459466296e-02,-1.045816192563152162e-02,-8.040170178391493547e-03,-3.070415492616993675e-02,-5.056497230518390562e-02,-4.029121060568074258e-02,-3.956129153729318754e-02,-3.340248933482659749e-02,-1.747249498545041801e-01,-1.217756312828161165e-02,-1.325275098913065164e-01,-9.932111192015764811e-02,-1.257956098008406465e-01,-9.010035649003501901e-02,-1.025316346203027085e-01,-4.423002306303658315e-02,-1.188714998086621427e-02,-7.782426951046235442e-02,-7.178533423575356176e-02,-8.827711778717252378e-02,-3.279654623496404409e-02,-8.691106625283134823e-02,-5.418590736210460168e-02,-7.520956918006753422e-02,-6.000880528152623822e-02,-4.151428686246717847e-02,-3.237696432035280791e-02,-9.046601987257929522e-02,-8.575069152544542717e-02,-7.867044239166830211e-02,-7.818222274940575534e-02,-3.908896327686069844e-02,-7.393091429293155437e-02,-7.793360437081948977e-02,-1.191234447102488686e-01,-6.058398654200780609e-02,-3.593598890330541168e-02,-2.317432203229592355e-02,-2.667218630926205050e-02,-5.361367321734841068e-02,-5.344192803305959638e-02,-9.326358356022971391e-03,-6.125787408543723750e-02,-7.714770278655426992e-03,-1.699719107286262396e-02,-2.199390256091319357e-02,-9.799166478444224990e-03
-4.911098443426008611e-03,-3.275255863088851610e-02,-6.532296381894978077e-02,-6.894763000783238338e-02,-5.221531173960491240e-02,-1.950987647212265030e-01,-1.554090290119317652e-01,-3.696906339888245824e-02,-2.083779998135695463e-02,-1.642717267166874384e-01,-8.675311926522367989e-02,-1.448692569915438766e-01,-9.899711979017204386e-03,-9.984217179147152066e-02,-6.796324731243359729e-02,-1.342249533752911395e-01,-2.317691781425158110e-02,-4.082361073214648556e-02,-8.830801353304060242e-02,-5.489882177314631129e-02,-5.350580745571251184e-02,-1.724935019640115585e-02,1.018120841721038145e-01,1.653446875382746147e-03,9.565237247401144061e-02,5.951914686607848726e-01,3.039509846947694993e-01,2.136044700915275540e-01,1.667856453451903309e-01,6.535285905600215495e-01,3.517552910687200107e+00,3.922244217649492604e-01,1.764093833658717081e+00,2.044231187531334815e+00,4.331144251979200943e-01,2.100994643377061544e-01,2.391281253271424490e+00,2.487949702645143590e-01,5.521014946657429867e-01,7.630694244302230755e-01,4.502410749749133356e-01,3.597893761402403134e-01,6.441653524582116042e-01,7.308024218760701407e-01,6.624533761117486208e-02,2.440225901677727793e-01,3.891771635491270143e-01,2.201800812369595142e-02,3.267026785750428569e-02,1.034402854653457965e-01,1.608561191496912235e-01,7.888787867635344009e-02,2.121419857229264461e-01,3.514122100159129680e-02,3.922885584189841207e-02,5.901071024633316314e-02,1.043967061953897935e-01,6.125299592996572007e-02,1.058437855959976637e-01,2.316146998236762525e-02,7.506528203209178463e-02,6.834406484649280245e-02,5.369123500746417893e-02,5.435527048997713939e-02,4.076671317084337720e-02,1.580846329983219556e-02,-5.732672900084316396e-03,8.024097138425735284e-03,2.514110481838038175e-02,1.213955668567293393e-03,8.032056253525589936e-04,1.860446465731279472e-04,-1.127189453371114317e-03,6.411932267770811345e-04,1.289908776475105713e-04,7.428005369630150167e-04,5.030189471765225857e-04,1.279407238670780117e-04,4.598056762769692565e-03,1.238009452817719937e-04,-1.170324856262782180e-04,-3.220555106544322355e-03,6.597363654642286745e-03,2.164688927181995359e-03,-2.719019670176132508e-03,-2.839763348568290907e-03,4.586372356652377788e-03,4.695329120797155954e-03,2.026107146776796094e-03,-2.123511096932349915e-04,-5.254749494680008753e-05,-3.938002873630550189e-03,-3.703748683693700375e-03,1.277521747408878272e-03,-3.571011291005330573e-02,-1.440145560518897236e-02,1.422230965373103354e-02,-9.525556293681705644e-02,-3.400108402733462154e-02,-4.356082480194999051e-02,-3.673348796146872625e-02,-4.664830903856445610e-02,-2.237241884479377468e-02,-6.293886407100961200e-02,-8.024182031030845097e-02,-1.492845546827781776e-02,-7.105218339011233619e-02,-7.053640799751469126e-02,-6.680119958130174840e-02,-1.354176118077309865e-01,-3.940282404703760594e-02,-1.724575820004468907e-02,-6.268659960436660794e-02,-4.043516299168276734e-02,-5.058558276206696902e-02,-7.658193061876397700e-02,-1.454613742268212606e-01,-8.101764286011620131e-02,-6.150587333491472353e-02,-6.859263184911201794e-02,-2.157514722659199524e-01,-1.634476573452401660e-01,-1.038104799625197555e-01,-1.654696812443317844e-01,-7.749358366256219044e-02,-4.619868851204771143e-02,-4.491576363278835388e-02,-4.597295519010675957e-02
