-8.606818914413452148e-01,-1.310296058654785156e+00,-1.685810804367065430e+00,-2.026948451995849609e+00,-2.269414424896240234e+00,-2.435110092163085938e+00,-2.542957067489624023e+00,-2.590176105499267578e+00,-2.607117891311645508e+00,-2.580016613006591797e+00,-2.596867561340332031e+00,-2.592930316925048828e+00,-2.570741176605224609e+00,-2.607902288436889648e+00,-2.711428642272949219e+00,-2.792558193206787109e+00,-2.699166536331176758e+00,-2.666875839233398438e+00,-2.421912670135498047e+00,-2.150028705596923828e+00,-1.705140352249145508e+00,-1.299776554107666016e+00,-9.223904609680175781e-01,-5.475820302963256836e-01,-2.886237800121307373e-01,-1.092255264520645142e-01,-1.016665156930685043e-02,5.674439668655395508e-02,7.366259396076202393e-02,9.111510962247848511e-02,1.055903285741806030e-01,1.278918981552124023e-01,1.371947824954986572e-01,1.440972685813903809e-01,1.510914117097854614e-01,1.487479060888290405e-01,1.389521360397338867e-01,1.110123395919799805e-01,5.111180990934371948e-02,-4.961980879306793213e-02,-2.077800035476684570e-01,-3.750608861446380615e-01,-5.110369920730590820e-01,-6.999071240425109863e-01,-8.627866506576538086e-01,-1.036340236663818359e+00,-1.227140188217163086e+00,-1.444539070129394531e+00,-1.774802803993225098e+00,-2.067611932754516602e+00,-2.373348712921142578e+00,-2.631523609161376953e+00,-2.830735683441162109e+00,-3.049237489700317383e+00,-3.172204971313476562e+00,-3.294448852539062500e+00,-3.341745853424072266e+00,-3.364688873291015625e+00,-3.310654878616333008e+00,-3.233431577682495117e+00,-3.150184631347656250e+00,-2.981444358825683594e+00,-2.858533382415771484e+00,-2.771731615066528320e+00,-2.667193174362182617e+00,-2.631535530090332031e+00,-2.615255594253540039e+00,-2.607202529907226562e+00,-2.582003355026245117e+00,-2.658860206604003906e+00,-2.675752162933349609e+00,-2.672346591949462891e+00,-2.690248012542724609e+00,-2.655632495880126953e+00,-2.685039997100830078e+00,-2.663415670394897461e+00,-2.650285243988037109e+00,-2.679907321929931641e+00,-2.658748149871826172e+00,-2.682046890258789062e+00,-2.620368480682373047e+00,-2.633224248886108398e+00,-2.626895189285278320e+00,-2.619910240173339844e+00,-2.566122531890869141e+00,-2.486404895782470703e+00,-2.411834955215454102e+00,-2.347350835800170898e+00,-2.265469074249267578e+00,-2.207821130752563477e+00,-2.145761728286743164e+00,-2.141628742218017578e+00,-2.158622264862060547e+00,-2.160790920257568359e+00,-2.226358413696289062e+00,-2.273547172546386719e+00,-2.285481452941894531e+00,-2.198534488677978516e+00,-2.029921531677246094e+00,-1.756168603897094727e+00,-1.481599569320678711e+00,-1.178070068359375000e+00,-8.814905881881713867e-01,-6.563574075698852539e-01,-4.288783073425292969e-01,-2.731777727603912354e-01,-1.464846283197402954e-01,-2.736624144017696381e-02,3.632872551679611206e-02,8.098523318767547607e-02,1.028188914060592651e-01,1.094854697585105896e-01,1.122817546129226685e-01,1.188128739595413208e-01,1.182334050536155701e-01,1.257027238607406616e-01,1.306964904069900513e-01,1.289918422698974609e-01,1.221639290452003479e-01,1.247438564896583557e-01,1.108785271644592285e-01,1.033394336700439453e-01,9.117121249437332153e-02,7.785852253437042236e-02,5.887489765882492065e-02,3.796825557947158813e-02,2.709169639274477959e-03,-7.012952864170074463e-02,-1.482712328433990479e-01,-2.539354562759399414e-01,-4.308859407901763916e-01,-6.071088314056396484e-01,-8.518400192260742188e-01,-1.137909650802612305e+00,-1.443893790245056152e+00,-1.756957650184631348e+00,-1.995637297630310059e+00,-2.271662235260009766e+00,-2.446991443634033203e+00,-2.633590698242187500e+00,-2.673273801803588867e+00,-2.656174182891845703e+00,-2.609024763107299805e+00,-2.513120889663696289e+00,-2.246753454208374023e+00,-2.127221822738647461e+00,-1.868823766708374023e+00,-1.516315937042236328e+00,-1.489359021186828613e+00,-1.654466867446899414e+00
2.866224646568298340e-01,4.508811831474304199e-01,6.102911233901977539e-01,7.926260232925415039e-01,9.522422552108764648e-01,1.097090482711791992e+00,1.234006285667419434e+00,1.342571854591369629e+00,1.434840440750122070e+00,1.499363422393798828e+00,1.538975477218627930e+00,1.547821760177612305e+00,1.554731130599975586e+00,1.555522322654724121e+00,1.556742310523986816e+00,1.557753801345825195e+00,1.557132720947265625e+00,1.553419113159179688e+00,1.543255090713500977e+00,1.513967394828796387e+00,1.483822703361511230e+00,1.452887296676635742e+00,1.417807698249816895e+00,1.347961544990539551e+00,1.268508315086364746e+00,1.187183618545532227e+00,1.120701789855957031e+00,1.056145668029785156e+00,1.017695665359497070e+00,9.794180989265441895e-01,9.533422589302062988e-01,9.204597473144531250e-01,9.019420742988586426e-01,8.936840295791625977e-01,8.874298930168151855e-01,8.740270733833312988e-01,8.582326769828796387e-01,8.446896672248840332e-01,8.054016828536987305e-01,7.543288469314575195e-01,7.127402424812316895e-01,5.830187201499938965e-01,3.949760794639587402e-01,2.380438297986984253e-01,6.812596321105957031e-02,-8.440425246953964233e-02,-2.297244071960449219e-01,-3.603840172290802002e-01,-3.861932456493377686e-01,-3.795110583305358887e-01,-3.476453423500061035e-01,-2.186642885208129883e-01,-4.476246982812881470e-02,1.778957396745681763e-01,8.542350530624389648e-01,1.278030157089233398e+00,1.557140350341796875e+00,1.772936105728149414e+00,2.047754764556884766e+00,2.423049449920654297e+00,2.820538759231567383e+00,3.213374614715576172e+00,3.586431026458740234e+00,3.794588565826416016e+00,3.866081237792968750e+00,3.890791416168212891e+00,3.878456115722656250e+00,3.892696380615234375e+00,3.845042705535888672e+00,3.780904054641723633e+00,3.686691999435424805e+00,3.580794095993041992e+00,3.507780075073242188e+00,3.470262050628662109e+00,3.471733570098876953e+00,3.503372192382812500e+00,3.543437480926513672e+00,3.584866285324096680e+00,3.614353656768798828e+00,3.642636537551879883e+00,3.691214084625244141e+00,3.714804172515869141e+00,3.745692729949951172e+00,3.680015563964843750e+00,3.401544570922851562e+00,3.044848680496215820e+00,2.673179626464843750e+00,2.303393602371215820e+00,2.042636871337890625e+00,1.908986091613769531e+00,1.799265146255493164e+00,1.663691878318786621e+00,1.518015146255493164e+00,1.207347869873046875e+00,4.366736412048339844e-01,3.796154260635375977e-02,-2.250243127346038818e-01,-2.484982311725616455e-01,-1.385038793087005615e-01,1.188262253999710083e-01,4.692939817905426025e-01,8.473655581474304199e-01,1.142862796783447266e+00,1.420453906059265137e+00,1.665823578834533691e+00,1.735275268554687500e+00,1.674456357955932617e+00,1.684857964515686035e+00,1.762811899185180664e+00,1.778791427612304688e+00,1.798813223838806152e+00,1.856123924255371094e+00,1.865072250366210938e+00,1.807016134262084961e+00,1.660388588905334473e+00,1.516580581665039062e+00,1.353410005569458008e+00,1.220618605613708496e+00,1.119028091430664062e+00,1.043737411499023438e+00,9.816125631332397461e-01,9.494514465332031250e-01,9.240506291389465332e-01,9.172899127006530762e-01,9.280659556388854980e-01,9.313449859619140625e-01,9.355815052986145020e-01,9.415636062622070312e-01,9.541736841201782227e-01,9.726999402046203613e-01,1.001151919364929199e+00,1.028111100196838379e+00,1.064960122108459473e+00,1.116375803947448730e+00,1.173661947250366211e+00,1.244260072708129883e+00,1.285801053047180176e+00,1.341784358024597168e+00,1.376562595367431641e+00,1.356209158897399902e+00,1.301123261451721191e+00,1.217523813247680664e+00,1.089264988899230957e+00,9.610338211059570312e-01,7.847648859024047852e-01,6.513308286666870117e-01,6.183130145072937012e-01,4.933836460113525391e-01,5.433892011642456055e-01,6.617347002029418945e-01
-7.506219297647476196e-02,6.192904710769653320e-01,1.448667287826538086e+00,2.139454126358032227e+00,2.541416883468627930e+00,2.850147724151611328e+00,2.857317686080932617e+00,2.454606771469116211e+00,2.002929449081420898e+00,1.505639672279357910e+00,1.034510970115661621e+00,8.250957727432250977e-01,6.962330937385559082e-01,6.599694490432739258e-01,6.801038980484008789e-01,7.780059576034545898e-01,9.643018841743469238e-01,1.217464804649353027e+00,1.549301624298095703e+00,1.866125702857971191e+00,2.234661817550659180e+00,2.719752788543701172e+00,3.256188154220581055e+00,3.823411226272583008e+00,3.882821321487426758e+00,3.189122438430786133e+00,2.529206752777099609e+00,1.986566901206970215e+00,1.397920608520507812e+00,6.849392652511596680e-01,1.174328550696372986e-01,-1.306164413690567017e-01,2.004365622997283936e-02,3.256155848503112793e-01,6.632177233695983887e-01,9.790309071540832520e-01,1.241644501686096191e+00,1.418894171714782715e+00,1.538125395774841309e+00,1.569494605064392090e+00,1.583169102668762207e+00,1.597886204719543457e+00,1.587389588356018066e+00,1.523990154266357422e+00,1.538347244262695312e+00,1.518046140670776367e+00,1.507946372032165527e+00,1.523428916931152344e+00,1.532626032829284668e+00,1.518823862075805664e+00,1.525014877319335938e+00,1.505302786827087402e+00,1.521093249320983887e+00,1.524762153625488281e+00,1.524445056915283203e+00,1.507294416427612305e+00,1.506340146064758301e+00,1.512996912002563477e+00,1.508786201477050781e+00,1.481899857521057129e+00,1.496289610862731934e+00,1.485991358757019043e+00,1.481382489204406738e+00,1.474490404129028320e+00,1.492009162902832031e+00,1.490171432495117188e+00,1.480183362960815430e+00,1.488780260086059570e+00,1.499757170677185059e+00,1.501673460006713867e+00,1.467787742614746094e+00,1.469134092330932617e+00,1.494874596595764160e+00,1.478688955307006836e+00,1.486063122749328613e+00,1.500779390335083008e+00,1.502807378768920898e+00,1.500070810317993164e+00,1.488203287124633789e+00,1.493995070457458496e+00,1.504543066024780273e+00,1.483562350273132324e+00,1.485122919082641602e+00,1.480548739433288574e+00,1.490480184555053711e+00,1.503322243690490723e+00,1.469535946846008301e+00,1.483008861541748047e+00,1.499694108963012695e+00,1.485691666603088379e+00,1.481576204299926758e+00,1.498539686203002930e+00,1.477079510688781738e+00,1.476677179336547852e+00,1.488648056983947754e+00,1.504765748977661133e+00,1.488734245300292969e+00,1.494836568832397461e+00,1.509873747825622559e+00,1.507170557975769043e+00,1.509238600730895996e+00,1.510411024093627930e+00,1.512722730636596680e+00,1.511351346969604492e+00,1.498900413513183594e+00,1.502465248107910156e+00,1.504070639610290527e+00,1.517124533653259277e+00,1.511148214340209961e+00,1.497391700744628906e+00,1.508777260780334473e+00,1.504873275756835938e+00,1.497377276420593262e+00,1.493355512619018555e+00,1.506469964981079102e+00,1.496363401412963867e+00,1.509678840637207031e+00,1.521249175071716309e+00,1.515843629837036133e+00,1.539741754531860352e+00,1.522683858871459961e+00,1.529051542282104492e+00,1.531941652297973633e+00,1.525997400283813477e+00,1.529430389404296875e+00,1.542845249176025391e+00,1.512368917465209961e+00,1.494545578956604004e+00,1.504038095474243164e+00,1.469373703002929688e+00,1.478673577308654785e+00,1.466691613197326660e+00,1.421513915061950684e+00,1.380273103713989258e+00,1.343862414360046387e+00,1.310218572616577148e+00,1.228066682815551758e+00,1.143278479576110840e+00,1.041445136070251465e+00,9.009558558464050293e-01,6.976555585861206055e-01,4.976348876953125000e-01,2.624777853488922119e-01,2.146226167678833008e-02,-1.934023648500442505e-01,-3.519929051399230957e-01,-4.663737714290618896e-01,-4.471665322780609131e-01,-3.120887577533721924e-01,-1.287410557270050049e-01
-2.639999091625213623e-01,-3.866532444953918457e-01,-5.166786313056945801e-01,-6.473659873008728027e-01,-7.206779718399047852e-01,-8.019133806228637695e-01,-8.687700033187866211e-01,-9.388324022293090820e-01,-9.710611104965209961e-01,-9.921537637710571289e-01,-1.023432016372680664e+00,-1.035851716995239258e+00,-1.043020486831665039e+00,-1.054452657699584961e+00,-1.077226161956787109e+00,-1.132998585700988770e+00,-1.158012866973876953e+00,-1.134721517562866211e+00,-1.176530241966247559e+00,-1.191997766494750977e+00,-1.303782224655151367e+00,-1.403085350990295410e+00,-1.650494813919067383e+00,-1.808811187744140625e+00,-1.902391195297241211e+00,-2.020937442779541016e+00,-2.159993171691894531e+00,-2.148940324783325195e+00,-2.039056539535522461e+00,-1.957137823104858398e+00,-1.857815980911254883e+00,-1.780862450599670410e+00,-1.554843544960021973e+00,-1.295599699020385742e+00,-9.891209602355957031e-01,-7.228018641471862793e-01,-4.831996858119964600e-01,-2.256795912981033325e-01,-3.094816207885742188e-02,1.174957975745201111e-01,1.801858842372894287e-01,2.031085044145584106e-01,2.274197787046432495e-01,1.882750838994979858e-01,6.972737610340118408e-02,-1.948340237140655518e-01,-5.258474349975585938e-01,-8.256473541259765625e-01,-1.179828047752380371e+00,-1.415957331657409668e+00,-1.472963213920593262e+00,-1.476095914840698242e+00,-1.413977861404418945e+00,-1.390760779380798340e+00,-1.289988040924072266e+00,-1.190669417381286621e+00,-1.128391146659851074e+00,-9.766132235527038574e-01,-9.143703579902648926e-01,-8.658090829849243164e-01,-8.277145624160766602e-01,-7.856624722480773926e-01,-7.628721594810485840e-01,-7.337021231651306152e-01,-7.255014181137084961e-01,-7.153800129890441895e-01,-7.080615758895874023e-01,-7.165450453758239746e-01,-7.300406694412231445e-01,-7.494426965713500977e-01,-7.538939118385314941e-01,-7.529996633529663086e-01,-7.575244903564453125e-01,-7.543228864669799805e-01,-7.623618841171264648e-01,-7.480001449584960938e-01,-7.470471262931823730e-01,-7.329959869384765625e-01,-7.505673170089721680e-01,-7.464458346366882324e-01,-7.495456337928771973e-01,-7.537750601768493652e-01,-7.589055299758911133e-01,-7.513756752014160156e-01,-7.686916589736938477e-01,-7.697903513908386230e-01,-7.641695737838745117e-01,-7.562121152877807617e-01,-7.385402917861938477e-01,-7.297925949096679688e-01,-7.168220281600952148e-01,-6.935542821884155273e-01,-6.855407953262329102e-01,-6.888526678085327148e-01,-7.033075690269470215e-01,-7.374469637870788574e-01,-8.240535855293273926e-01,-8.824806213378906250e-01,-9.576011896133422852e-01,-1.113295674324035645e+00,-1.284633278846740723e+00,-1.441731572151184082e+00,-1.524648666381835938e+00,-1.435956954956054688e+00,-1.171843886375427246e+00,-8.421184420585632324e-01,-4.697780013084411621e-01,-1.289842575788497925e-01,4.665784910321235657e-02,1.522502154111862183e-01,1.669040471315383911e-01,1.005261167883872986e-01,-5.724061653017997742e-02,-2.840210795402526855e-01,-5.646446943283081055e-01,-8.626174926757812500e-01,-1.164909005165100098e+00,-1.481658697128295898e+00,-1.799900770187377930e+00,-2.013132572174072266e+00,-2.120572566986083984e+00,-2.193000078201293945e+00,-2.202338695526123047e+00,-2.167977333068847656e+00,-2.110899448394775391e+00,-1.997579932212829590e+00,-1.858747839927673340e+00,-1.714132308959960938e+00,-1.552456617355346680e+00,-1.387795448303222656e+00,-1.249889731407165527e+00,-1.167727708816528320e+00,-1.105562806129455566e+00,-1.106283426284790039e+00,-1.137850165367126465e+00,-1.139810204505920410e+00,-1.089537739753723145e+00,-1.026127576828002930e+00,-9.582557678222656250e-01,-9.206327199935913086e-01,-8.910083770751953125e-01,-8.548261523246765137e-01,-8.150137662887573242e-01,-8.194416165351867676e-01,-7.908822894096374512e-01,-7.392414212226867676e-01,-6.497439742088317871e-01,-5.692792534828186035e-01,-6.508910059928894043e-01,-6.841152906417846680e-01
7.597172260284423828e-01,8.668010830879211426e-01,9.253770709037780762e-01,9.528390765190124512e-01,9.550234675407409668e-01,9.467776417732238770e-01,9.400676488876342773e-01,9.930771589279174805e-01,1.035713434219360352e+00,1.080267429351806641e+00,1.116112351417541504e+00,1.113919496536254883e+00,1.106104016304016113e+00,1.102536439895629883e+00,1.100831389427185059e+00,1.102563381195068359e+00,1.103306412696838379e+00,1.106622099876403809e+00,1.100691080093383789e+00,1.093798875808715820e+00,1.080107808113098145e+00,1.063470721244812012e+00,1.045546293258666992e+00,1.017287611961364746e+00,9.812898635864257812e-01,9.375205039978027344e-01,8.900456428527832031e-01,8.300813436508178711e-01,7.661445140838623047e-01,6.922401189804077148e-01,6.018376350402832031e-01,4.856323599815368652e-01,3.810545802116394043e-01,2.726276218891143799e-01,1.740914136171340942e-01,8.021754026412963867e-02,-2.309096977114677429e-02,-1.630604714155197144e-01,-2.941831052303314209e-01,-4.490852952003479004e-01,-6.128522753715515137e-01,-6.282387375831604004e-01,-5.733994841575622559e-01,-4.693814814090728760e-01,-3.878403306007385254e-01,-3.462728857994079590e-01,-1.480205357074737549e-01,1.100375205278396606e-01,1.676081418991088867e-01,-6.669518351554870605e-02,-4.813318252563476562e-01,-8.244490623474121094e-01,-1.049444437026977539e+00,-1.162939667701721191e+00,-1.254484653472900391e+00,-1.439351797103881836e+00,-1.648502349853515625e+00,-1.914324522018432617e+00,-2.186182975769042969e+00,-2.408423662185668945e+00,-2.541954517364501953e+00,-2.703143835067749023e+00,-2.797033309936523438e+00,-2.852082490921020508e+00,-2.898189544677734375e+00,-2.909372091293334961e+00,-2.921633481979370117e+00,-2.925719976425170898e+00,-2.929502725601196289e+00,-2.932224750518798828e+00,-2.931784152984619141e+00,-2.933408021926879883e+00,-2.933598041534423828e+00,-2.927737474441528320e+00,-2.931731224060058594e+00,-2.925652980804443359e+00,-2.919104099273681641e+00,-2.903105735778808594e+00,-2.876295566558837891e+00,-2.848478555679321289e+00,-2.766486644744873047e+00,-2.666761159896850586e+00,-2.540113449096679688e+00,-2.359858274459838867e+00,-2.117891311645507812e+00,-1.824277281761169434e+00,-1.484900116920471191e+00,-1.172468662261962891e+00,-9.405114054679870605e-01,-8.408447504043579102e-01,-8.932586908340454102e-01,-1.022327661514282227e+00,-1.137142896652221680e+00,-1.048313498497009277e+00,-7.536112666130065918e-01,-3.444736599922180176e-01,1.548056304454803467e-02,1.915660798549652100e-01,1.133598089218139648e-01,-1.553495824337005615e-01,-4.727703034877777100e-01,-7.792413234710693359e-01,-9.837985038757324219e-01,-1.107758760452270508e+00,-1.072577714920043945e+00,-9.401658773422241211e-01,-7.307860255241394043e-01,-5.349055528640747070e-01,-3.765271008014678955e-01,-2.029950618743896484e-01,-5.581257492303848267e-02,7.258641719818115234e-02,1.507092565298080444e-01,2.145003825426101685e-01,2.792307734489440918e-01,3.095316588878631592e-01,3.519547581672668457e-01,4.083904623985290527e-01,4.808808267116546631e-01,5.622771978378295898e-01,6.823019981384277344e-01,8.092893362045288086e-01,9.119499921798706055e-01,9.888150095939636230e-01,1.037952780723571777e+00,1.070039868354797363e+00,1.084623932838439941e+00,1.092406988143920898e+00,1.089996099472045898e+00,1.083353281021118164e+00,1.069121718406677246e+00,1.059597492218017578e+00,1.043039321899414062e+00,1.018941998481750488e+00,9.889049530029296875e-01,9.483982324600219727e-01,8.943002820014953613e-01,8.229370117187500000e-01,7.525259852409362793e-01,6.489760279655456543e-01,5.514144897460937500e-01,4.498701095581054688e-01,3.176360428333282471e-01,9.218437969684600830e-02,-1.418256461620330811e-01,-2.235620468854904175e-01,-1.776584088802337646e-01,-2.043434381484985352e-01,-2.233100682497024536e-01,-1.949446201324462891e-01
-6.269081234931945801e-01,-1.083374142646789551e+00,-1.577763080596923828e+00,-2.065118312835693359e+00,-2.470440626144409180e+00,-2.775796413421630859e+00,-3.014983177185058594e+00,-3.153417110443115234e+00,-3.233926296234130859e+00,-3.276555299758911133e+00,-3.275409221649169922e+00,-3.282523632049560547e+00,-3.269667148590087891e+00,-3.281062602996826172e+00,-3.275184154510498047e+00,-3.268455028533935547e+00,-3.258097171783447266e+00,-3.265338897705078125e+00,-3.259953260421752930e+00,-3.264942884445190430e+00,-3.267821550369262695e+00,-3.274837017059326172e+00,-3.283145189285278320e+00,-3.300434112548828125e+00,-3.329771041870117188e+00,-3.329622268676757812e+00,-3.335069179534912109e+00,-3.337061643600463867e+00,-3.329574584960937500e+00,-3.314728975296020508e+00,-3.297979354858398438e+00,-3.265953063964843750e+00,-3.239739894866943359e+00,-3.239701747894287109e+00,-3.228907823562622070e+00,-3.223333358764648438e+00,-3.178207159042358398e+00,-3.171664714813232422e+00,-3.086051464080810547e+00,-2.975775003433227539e+00,-2.857146263122558594e+00,-2.731812477111816406e+00,-2.512209653854370117e+00,-2.063562631607055664e+00,-1.701451659202575684e+00,-1.365129709243774414e+00,-8.422697782516479492e-01,-2.486827075481414795e-01,6.076692789793014526e-02,1.030455604195594788e-01,-1.707974672317504883e-01,-7.704959511756896973e-01,-1.556649684906005859e+00,-1.628548860549926758e+00,-1.309919953346252441e+00,-9.642418026924133301e-01,-5.925327539443969727e-01,-2.448534071445465088e-01,8.317179977893829346e-02,2.598342895507812500e-01,3.760261833667755127e-01,3.936837315559387207e-01,4.032762944698333740e-01,4.452695250511169434e-01,4.840595722198486328e-01,5.064366459846496582e-01,5.258547663688659668e-01,5.502381324768066406e-01,5.526223182678222656e-01,5.473374128341674805e-01,5.439225435256958008e-01,5.447292923927307129e-01,5.456663370132446289e-01,5.578997135162353516e-01,5.753405690193176270e-01,5.838294029235839844e-01,6.202305555343627930e-01,6.865738630294799805e-01,7.706351280212402344e-01,8.518403172492980957e-01,9.280643463134765625e-01,9.233914613723754883e-01,7.736631631851196289e-01,4.956507086753845215e-01,6.223645061254501343e-02,-4.295109808444976807e-01,-9.609654545783996582e-01,-1.470434427261352539e+00,-1.885660529136657715e+00,-2.035925865173339844e+00,-1.874469399452209473e+00,-1.434332609176635742e+00,-8.337208032608032227e-01,-2.393105030059814453e-01,1.191344633698463440e-01,1.416772156953811646e-01,-6.274864077568054199e-02,-4.351948797702789307e-01,-9.675027728080749512e-01,-1.713814377784729004e+00,-2.535983800888061523e+00,-3.299198865890502930e+00,-3.693587779998779297e+00,-3.688071727752685547e+00,-3.550919771194458008e+00,-3.456915616989135742e+00,-3.225323438644409180e+00,-3.127218723297119141e+00,-3.084417819976806641e+00,-3.047640085220336914e+00,-2.976726055145263672e+00,-3.005251884460449219e+00,-3.030357599258422852e+00,-3.035290479660034180e+00,-2.935927867889404297e+00,-2.863827228546142578e+00,-2.806617021560668945e+00,-2.750047445297241211e+00,-2.713246107101440430e+00,-2.673159122467041016e+00,-2.666624546051025391e+00,-2.633294820785522461e+00,-2.618776798248291016e+00,-2.622510433197021484e+00,-2.637600898742675781e+00,-2.601552486419677734e+00,-2.596111059188842773e+00,-2.560452222824096680e+00,-2.517246723175048828e+00,-2.493368625640869141e+00,-2.461338758468627930e+00,-2.438312530517578125e+00,-2.414902448654174805e+00,-2.425230026245117188e+00,-2.406418323516845703e+00,-2.393137454986572266e+00,-2.370011806488037109e+00,-2.370338439941406250e+00,-2.409870862960815430e+00,-2.389993429183959961e+00,-2.327350139617919922e+00,-2.238921880722045898e+00,-2.135151386260986328e+00,-2.037252902984619141e+00,-1.858247995376586914e+00,-1.742618918418884277e+00,-1.563998937606811523e+00,-1.300004363059997559e+00,-1.350308418273925781e+00,-1.459575414657592773e+00
1.697179824113845825e-01,2.484550774097442627e-01,3.258180022239685059e-01,4.018624424934387207e-01,4.578598141670227051e-01,4.707157015800476074e-01,4.594756066799163818e-01,4.569086432456970215e-01,4.418114721775054932e-01,4.300855994224548340e-01,4.293009638786315918e-01,4.292864799499511719e-01,4.233161807060241699e-01,4.199087619781494141e-01,4.121215939521789551e-01,4.003621637821197510e-01,3.941438198089599609e-01,3.919102251529693604e-01,3.860940337181091309e-01,3.867084085941314697e-01,3.827358186244964600e-01,3.716724514961242676e-01,3.603452146053314209e-01,3.319768309593200684e-01,3.188359141349792480e-01,3.122190237045288086e-01,3.019360601902008057e-01,2.848845422267913818e-01,2.497657984495162964e-01,2.005513906478881836e-01,1.360420286655426025e-01,4.817194864153862000e-02,-8.860848098993301392e-02,-2.448437958955764771e-01,-4.539205133914947510e-01,-5.206432938575744629e-01,-4.713398814201354980e-01,-3.902774155139923096e-01,-2.097476422786712646e-01,2.876020595431327820e-02,6.657147407531738281e-02,-9.816564619541168213e-02,-3.814307153224945068e-01,-6.342010498046875000e-01,-7.290535569190979004e-01,-7.108008265495300293e-01,-6.660697460174560547e-01,-7.073121070861816406e-01,-7.546684145927429199e-01,-8.128852844238281250e-01,-8.412395715713500977e-01,-8.650192022323608398e-01,-8.896568417549133301e-01,-9.067748785018920898e-01,-9.266611933708190918e-01,-9.307654500007629395e-01,-9.426106214523315430e-01,-9.521481394767761230e-01,-9.597705602645874023e-01,-9.662007093429565430e-01,-9.596439599990844727e-01,-9.660555124282836914e-01,-9.694479107856750488e-01,-9.733425378799438477e-01,-9.760316610336303711e-01,-9.764422178268432617e-01,-9.726144671440124512e-01,-9.760939478874206543e-01,-9.759895205497741699e-01,-9.812092781066894531e-01,-9.776387214660644531e-01,-9.778267741203308105e-01,-9.780042767524719238e-01,-9.747533798217773438e-01,-9.801124334335327148e-01,-9.740842580795288086e-01,-9.740832448005676270e-01,-9.728052020072937012e-01,-9.714910387992858887e-01,-9.775775074958801270e-01,-9.716782569885253906e-01,-9.736235737800598145e-01,-9.709200859069824219e-01,-9.717881083488464355e-01,-9.713114500045776367e-01,-9.787462949752807617e-01,-9.722148180007934570e-01,-9.709377288818359375e-01,-9.728462100028991699e-01,-9.751275181770324707e-01,-9.688565135002136230e-01,-9.704195857048034668e-01,-9.733668565750122070e-01,-9.719489216804504395e-01,-9.723564386367797852e-01,-9.707087278366088867e-01,-9.688265919685363770e-01,-9.610472917556762695e-01,-9.465824365615844727e-01,-9.429568052291870117e-01,-9.327964782714843750e-01,-9.268163442611694336e-01,-9.062104225158691406e-01,-8.686000108718872070e-01,-8.022670745849609375e-01,-7.265811562538146973e-01,-6.283320188522338867e-01,-5.589966773986816406e-01,-5.638478398323059082e-01,-6.977298855781555176e-01,-9.915920495986938477e-01,-1.182014465332031250e+00,-1.083581209182739258e+00,-5.774243474006652832e-01,-1.040246635675430298e-01,1.236577779054641724e-01,-1.038769632577896118e-01,-7.397732138633728027e-01,-1.383435010910034180e+00,-1.746398925781250000e+00,-1.774948477745056152e+00,-1.157830595970153809e+00,-6.583519577980041504e-01,-3.413533568382263184e-01,-1.436676084995269775e-01,-6.097638513892889023e-03,6.390967220067977905e-02,1.497643291950225830e-01,2.246202528476715088e-01,2.776291668415069580e-01,3.086205124855041504e-01,3.218594491481781006e-01,3.228433132171630859e-01,3.193972706794738770e-01,3.242831230163574219e-01,3.219296038150787354e-01,3.298817276954650879e-01,3.328323960304260254e-01,3.354607224464416504e-01,3.363575935363769531e-01,3.374322056770324707e-01,3.372060358524322510e-01,3.326400816440582275e-01,3.180293440818786621e-01,3.059336543083190918e-01,3.103699684143066406e-01,2.959328591823577881e-01,2.486419379711151123e-01,1.824548244476318359e-01,1.096928864717483521e-01
0.000000000000000000e+00,0.000000000000000000e+00,0.000000000000000000e+00,0.000000000000000000e+00,0.000000000000000000e+00,0.000000000000000000e+00,0.000000000000000000e+00,0.000000000000000000e+00,0.000000000000000000e+00,0.000000000000000000e+00,0.000000000000000000e+00,0.000000000000000000e+00,0.000000000000000000e+00,0.000000000000000000e+00,0.000000000000000000e+00,0.000000000000000000e+00,0.000000000000000000e+00,0.000000000000000000e+00,0.000000000000000000e+00,0.000000000000000000e+00,0.000000000000000000e+00,0.000000000000000000e+00,0.000000000000000000e+00,0.000000000000000000e+00,0.000000000000000000e+00,0.000000000000000000e+00,0.000000000000000000e+00,0.000000000000000000e+00,0.000000000000000000e+00,0.000000000000000000e+00,0.000000000000000000e+00,0.000000000000000000e+00,0.000000000000000000e+00,0.000000000000000000e+00,0.000000000000000000e+00,0.000000000000000000e+00,0.000000000000000000e+00,0.000000000000000000e+00,0.000000000000000000e+00,0.000000000000000000e+00,0.000000000000000000e+00,0.000000000000000000e+00,0.000000000000000000e+00,0.000000000000000000e+00,0.000000000000000000e+00,0.000000000000000000e+00,0.000000000000000000e+00,0.000000000000000000e+00,0.000000000000000000e+00,0.000000000000000000e+00,0.000000000000000000e+00,0.000000000000000000e+00,0.000000000000000000e+00,0.000000000000000000e+00,0.000000000000000000e+00,0.000000000000000000e+00,0.000000000000000000e+00,0.000000000000000000e+00,0.000000000000000000e+00,0.000000000000000000e+00,0.000000000000000000e+00,0.000000000000000000e+00,0.000000000000000000e+00,0.000000000000000000e+00,0.000000000000000000e+00,0.000000000000000000e+00,0.000000000000000000e+00,0.000000000000000000e+00,0.000000000000000000e+00,0.000000000000000000e+00,0.000000000000000000e+00,0.000000000000000000e+00,0.000000000000000000e+00,0.000000000000000000e+00,0.000000000000000000e+00,0.000000000000000000e+00,0.000000000000000000e+00,0.000000000000000000e+00,0.000000000000000000e+00,0.000000000000000000e+00,0.000000000000000000e+00,0.000000000000000000e+00,0.000000000000000000e+00,0.000000000000000000e+00,0.000000000000000000e+00,0.000000000000000000e+00,0.000000000000000000e+00,0.000000000000000000e+00,0.000000000000000000e+00,0.000000000000000000e+00,0.000000000000000000e+00,0.000000000000000000e+00,0.000000000000000000e+00,0.000000000000000000e+00,0.000000000000000000e+00,0.000000000000000000e+00,0.000000000000000000e+00,0.000000000000000000e+00,0.000000000000000000e+00,0.000000000000000000e+00,0.000000000000000000e+00,0.000000000000000000e+00,0.000000000000000000e+00,0.000000000000000000e+00,0.000000000000000000e+00,0.000000000000000000e+00,0.000000000000000000e+00,0.000000000000000000e+00,0.000000000000000000e+00,0.000000000000000000e+00,0.000000000000000000e+00,0.000000000000000000e+00,0.000000000000000000e+00,0.000000000000000000e+00,0.000000000000000000e+00,0.000000000000000000e+00,0.000000000000000000e+00,0.000000000000000000e+00,0.000000000000000000e+00,0.000000000000000000e+00,0.000000000000000000e+00,0.000000000000000000e+00,0.000000000000000000e+00,0.000000000000000000e+00,0.000000000000000000e+00,0.000000000000000000e+00,0.000000000000000000e+00,0.000000000000000000e+00,0.000000000000000000e+00,0.000000000000000000e+00,0.000000000000000000e+00,0.000000000000000000e+00,0.000000000000000000e+00,0.000000000000000000e+00,0.000000000000000000e+00,0.000000000000000000e+00,0.000000000000000000e+00,0.000000000000000000e+00,0.000000000000000000e+00,0.000000000000000000e+00,0.000000000000000000e+00,0.000000000000000000e+00,0.000000000000000000e+00,0.000000000000000000e+00,0.000000000000000000e+00,0.000000000000000000e+00,0.000000000000000000e+00,0.000000000000000000e+00,0.000000000000000000e+00,0.000000000000000000e+00
4.763599336147308350e-01,7.152480483055114746e-01,9.723471403121948242e-01,1.228364706039428711e+00,1.371629357337951660e+00,1.502468347549438477e+00,1.593076348304748535e+00,1.612141966819763184e+00,1.630748033523559570e+00,1.643435716629028320e+00,1.646700859069824219e+00,1.645654320716857910e+00,1.639379858970642090e+00,1.630493521690368652e+00,1.634531259536743164e+00,1.647489309310913086e+00,1.668959975242614746e+00,1.691477179527282715e+00,1.708209276199340820e+00,1.733619689941406250e+00,1.739948272705078125e+00,1.756642937660217285e+00,1.756092429161071777e+00,1.744935035705566406e+00,1.717992067337036133e+00,1.687982797622680664e+00,1.669636368751525879e+00,1.642115354537963867e+00,1.635101675987243652e+00,1.621966600418090820e+00,1.610211968421936035e+00,1.609552025794982910e+00,1.603910088539123535e+00,1.609490394592285156e+00,1.617356538772583008e+00,1.637221574783325195e+00,1.663573861122131348e+00,1.690229058265686035e+00,1.704661965370178223e+00,1.760610818862915039e+00,1.791617155075073242e+00,1.857937812805175781e+00,1.840718865394592285e+00,1.642526984214782715e+00,1.248799324035644531e+00,9.793851971626281738e-01,7.640250921249389648e-01,4.834722578525543213e-01,1.252744197845458984e-01,-6.159345433115959167e-02,1.149196997284889221e-01,4.766115248203277588e-01,8.452538251876831055e-01,1.049370288848876953e+00,1.084429979324340820e+00,9.985688328742980957e-01,7.392451167106628418e-01,4.798786044120788574e-01,1.427981853485107422e-01,-8.208423107862472534e-02,-2.976071536540985107e-01,-4.345820546150207520e-01,-5.629329681396484375e-01,-6.543179750442504883e-01,-7.040060758590698242e-01,-7.352953553199768066e-01,-7.539805769920349121e-01,-7.517143487930297852e-01,-7.438423633575439453e-01,-7.377727031707763672e-01,-7.290996313095092773e-01,-7.261657118797302246e-01,-7.243716716766357422e-01,-7.225697040557861328e-01,-7.228943109512329102e-01,-7.198597192764282227e-01,-7.172736525535583496e-01,-7.210234403610229492e-01,-7.216349244117736816e-01,-7.231481671333312988e-01,-7.261712551116943359e-01,-7.289493083953857422e-01,-7.286025881767272949e-01,-7.287359237670898438e-01,-7.319544553756713867e-01,-7.412203550338745117e-01,-7.387710213661193848e-01,-7.189779281616210938e-01,-6.762138009071350098e-01,-6.526157259941101074e-01,-6.597577333450317383e-01,-6.660012006759643555e-01,-7.243502736091613770e-01,-6.761260032653808594e-01,-4.974675178527832031e-01,-1.771405637264251709e-01,3.097579181194305420e-01,9.288891553878784180e-01,1.442922830581665039e+00,1.805748581886291504e+00,1.677150964736938477e+00,1.037280082702636719e+00,2.074625045061111450e-01,-1.579763144254684448e-01,7.108848541975021362e-02,9.830120801925659180e-01,2.095668792724609375e+00,3.167638301849365234e+00,3.885129213333129883e+00,4.384016513824462891e+00,4.013800621032714844e+00,3.517945051193237305e+00,3.036530017852783203e+00,2.742018938064575195e+00,2.533493518829345703e+00,2.382610082626342773e+00,2.372000217437744141e+00,2.361372232437133789e+00,2.375809907913208008e+00,2.368781328201293945e+00,2.360699415206909180e+00,2.341300964355468750e+00,2.314105272293090820e+00,2.314326047897338867e+00,2.337643146514892578e+00,2.349533319473266602e+00,2.354816198348999023e+00,2.361257076263427734e+00,2.349522113800048828e+00,2.350611686706542969e+00,2.358002662658691406e+00,2.367963314056396484e+00,2.350088119506835938e+00,2.325377702713012695e+00,2.366629362106323242e+00,2.406390666961669922e+00,2.480360031127929688e+00,2.580394506454467773e+00,2.694746732711791992e+00,2.797923326492309570e+00,2.860217571258544922e+00,2.891535758972167969e+00,2.933297634124755859e+00,3.014837741851806641e+00,3.042852401733398438e+00,2.832494258880615234e+00,2.527897596359252930e+00,2.154605865478515625e+00,2.052922010421752930e+00,1.904441595077514648e+00
-1.589180529117584229e-01,-3.451824486255645752e-01,-5.539658069610595703e-01,-7.385357618331909180e-01,-8.199809193611145020e-01,-8.808860778808593750e-01,-8.790677785873413086e-01,-8.067294955253601074e-01,-7.214371562004089355e-01,-6.163691282272338867e-01,-5.245085954666137695e-01,-4.679971337318420410e-01,-4.278426170349121094e-01,-4.054747223854064941e-01,-3.879655599594116211e-01,-3.798684179782867432e-01,-3.730766475200653076e-01,-3.725257217884063721e-01,-3.743256032466888428e-01,-3.750202655792236328e-01,-3.788507580757141113e-01,-3.799638748168945312e-01,-3.852702975273132324e-01,-3.900022804737091064e-01,-3.914642333984375000e-01,-3.920548856258392334e-01,-3.923467099666595459e-01,-3.990930616855621338e-01,-4.087008535861968994e-01,-4.223993718624114990e-01,-4.535886347293853760e-01,-4.864079952239990234e-01,-5.109800100326538086e-01,-5.091893672943115234e-01,-5.293149948120117188e-01,-5.321033000946044922e-01,-5.445625782012939453e-01,-5.552772283554077148e-01,-6.042870879173278809e-01,-6.822552084922790527e-01,-7.439094781875610352e-01,-7.645661234855651855e-01,-7.866153717041015625e-01,-7.085443735122680664e-01,-6.079411506652832031e-01,-4.779960215091705322e-01,-4.457972645759582520e-01,-3.889687061309814453e-01,-2.574861943721771240e-01,-1.295378208160400391e-01,1.584069104865193367e-03,-2.367997542023658752e-02,-1.226705461740493774e-01,-2.481351196765899658e-01,-2.486713379621505737e-01,-1.839096993207931519e-01,-1.059418767690658569e-01,-5.488995462656021118e-02,-9.028526395559310913e-02,-1.276125162839889526e-01,-1.717674881219863892e-01,-1.945655941963195801e-01,-2.148438990116119385e-01,-2.203310281038284302e-01,-2.073361426591873169e-01,-1.938503086566925049e-01,-1.736878901720046997e-01,-1.582639366388320923e-01,-1.468884944915771484e-01,-1.404530704021453857e-01,-1.374629884958267212e-01,-1.363275498151779175e-01,-1.371806710958480835e-01,-1.401766985654830933e-01,-1.439893990755081177e-01,-1.530885398387908936e-01,-1.617130637168884277e-01,-1.669533699750900269e-01,-1.675955057144165039e-01,-1.628352701663970947e-01,-1.484540998935699463e-01,-1.237266287207603455e-01,-9.680552035570144653e-02,-5.031617730855941772e-02,3.166229277849197388e-02,1.134430319070816040e-01,1.642558127641677856e-01,1.563915312290191650e-01,5.508906766772270203e-02,-8.364034444093704224e-02,-2.138985842466354370e-01,-2.903600335121154785e-01,-2.443144619464874268e-01,-1.255834400653839111e-01,-1.150508224964141846e-02,1.988030038774013519e-02,-6.210713833570480347e-02,-2.379183769226074219e-01,-4.414320886135101318e-01,-6.414748430252075195e-01,-7.797964215278625488e-01,-9.035425186157226562e-01,-8.923628926277160645e-01,-7.735743522644042969e-01,-6.067938208580017090e-01,-5.062802433967590332e-01,-4.196431636810302734e-01,-3.706412613391876221e-01,-3.046157658100128174e-01,-2.436070442199707031e-01,-1.906917244195938110e-01,-1.306367516517639160e-01,-8.513288199901580811e-02,-5.528220534324645996e-02,-3.575586900115013123e-02,-3.696631640195846558e-02,-2.377980574965476990e-02,-1.870841719210147858e-02,-1.602047123014926910e-02,-2.166010066866874695e-02,-1.437798608094453812e-02,2.414930611848831177e-02,5.636453628540039062e-02,8.573181182146072388e-02,9.287252277135848999e-02,9.793142974376678467e-02,1.029202491044998169e-01,1.062138229608535767e-01,1.078735962510108948e-01,1.078421100974082947e-01,1.079925522208213806e-01,1.077403426170349121e-01,1.077263802289962769e-01,1.079126745462417603e-01,1.081863194704055786e-01,1.090452894568443298e-01,1.106414198875427246e-01,1.126257777214050293e-01,1.158642396330833435e-01,1.188808307051658630e-01,1.195593327283859253e-01,1.152841448783874512e-01,8.674596250057220459e-02,3.050639294087886810e-02,-3.092156024649739265e-03,5.203377804718911648e-04,7.275728881359100342e-02,1.214937716722488403e-01,2.079903781414031982e-01,2.712106704711914062e-01
-1.962159126996994019e-01,-4.339303970336914062e-01,-7.035599946975708008e-01,-9.326196908950805664e-01,-1.057774782180786133e+00,-1.141793966293334961e+00,-1.136328577995300293e+00,-1.037243604660034180e+00,-9.217850565910339355e-01,-7.841960191726684570e-01,-6.482614874839782715e-01,-5.686970353126525879e-01,-5.071355700492858887e-01,-4.696412086486816406e-01,-4.510111808776855469e-01,-4.469084143638610840e-01,-4.486971795558929443e-01,-4.537385106086730957e-01,-4.591648578643798828e-01,-4.690754413604736328e-01,-4.802044928073883057e-01,-4.900488257408142090e-01,-4.985024034976959229e-01,-5.065026879310607910e-01,-5.129672884941101074e-01,-5.197411775588989258e-01,-5.288110375404357910e-01,-5.369115471839904785e-01,-5.443325638771057129e-01,-5.588747262954711914e-01,-5.741613507270812988e-01,-6.036313176155090332e-01,-6.333734393119812012e-01,-6.660547256469726562e-01,-6.873685717582702637e-01,-7.075555920600891113e-01,-7.456564903259277344e-01,-7.817493677139282227e-01,-7.612627148628234863e-01,-7.416530847549438477e-01,-7.570073008537292480e-01,-8.135535120964050293e-01,-8.785411119461059570e-01,-9.978605508804321289e-01,-1.102705001831054688e+00,-1.150493264198303223e+00,-1.100720286369323730e+00,-9.206441640853881836e-01,-7.325483560562133789e-01,-5.424805879592895508e-01,-3.705041408538818359e-01,-2.215534150600433350e-01,-6.977950036525726318e-02,5.245830491185188293e-02,1.371368467807769775e-01,1.379158347845077515e-01,6.689201295375823975e-02,-1.892684996128082275e-01,-5.836591124534606934e-01,-7.342295646667480469e-01,-1.000609040260314941e+00,-1.246575951576232910e+00,-1.491505980491638184e+00,-1.638156652450561523e+00,-1.735848784446716309e+00,-1.818359136581420898e+00,-1.829496026039123535e+00,-1.801103234291076660e+00,-1.780489921569824219e+00,-1.733936667442321777e+00,-1.697128057479858398e+00,-1.636834502220153809e+00,-1.554100394248962402e+00,-1.455687642097473145e+00,-1.369209289550781250e+00,-1.304442167282104492e+00,-1.274811506271362305e+00,-1.272898674011230469e+00,-1.273524522781372070e+00,-1.277492165565490723e+00,-1.284958839416503906e+00,-1.291422724723815918e+00,-1.309803128242492676e+00,-1.328583955764770508e+00,-1.352506160736083984e+00,-1.389108777046203613e+00,-1.443044424057006836e+00,-1.483309984207153320e+00,-1.543209314346313477e+00,-1.600065588951110840e+00,-1.658486366271972656e+00,-1.655510544776916504e+00,-1.600811243057250977e+00,-1.496167898178100586e+00,-1.385775566101074219e+00,-1.308471679687500000e+00,-1.180194497108459473e+00,-1.046757459640502930e+00,-8.034051060676574707e-01,-5.682919621467590332e-01,-2.412151396274566650e-01,-2.464281860738992691e-03,1.196997165679931641e-01,1.577844917774200439e-01,1.533765047788619995e-01,1.566910743713378906e-01,1.703263372182846069e-01,1.776145994663238525e-01,1.839149892330169678e-01,1.772326678037643433e-01,1.673170924186706543e-01,1.611175239086151123e-01,1.574658602476119995e-01,1.543657481670379639e-01,1.492659002542495728e-01,1.475910693407058716e-01,1.472769975662231445e-01,1.433686912059783936e-01,1.428762227296829224e-01,1.349272429943084717e-01,1.234513744711875916e-01,1.020126342773437500e-01,5.273628234863281250e-02,-4.181146621704101562e-03,-9.907599538564682007e-02,-2.032411992549896240e-01,-3.243635296821594238e-01,-4.727087914943695068e-01,-6.261402368545532227e-01,-7.601363062858581543e-01,-8.881128430366516113e-01,-1.031629562377929688e+00,-1.115861654281616211e+00,-1.167733430862426758e+00,-1.186650514602661133e+00,-1.129494905471801758e+00,-1.004583597183227539e+00,-9.218767881393432617e-01,-8.593049049377441406e-01,-7.828171253204345703e-01,-7.294050455093383789e-01,-7.310416102409362793e-01,-7.416365742683410645e-01,-7.579668760299682617e-01,-7.031350135803222656e-01,-6.969074010848999023e-01,-6.216967701911926270e-01,-5.632901787757873535e-01,-6.228491067886352539e-01,-7.026954889297485352e-01
2.367526739835739136e-01,2.795158028602600098e-01,2.944541275501251221e-01,3.072579503059387207e-01,3.043910861015319824e-01,2.910875678062438965e-01,2.807940244674682617e-01,3.004792332649230957e-01,3.214939534664154053e-01,3.422352671623229980e-01,3.529024720191955566e-01,3.551353216171264648e-01,3.462697565555572510e-01,3.392083048820495605e-01,3.347690105438232422e-01,3.296373784542083740e-01,3.176987171173095703e-01,3.112131059169769287e-01,3.065971732139587402e-01,3.018603324890136719e-01,2.960302233695983887e-01,2.838319242000579834e-01,2.751282453536987305e-01,2.680729925632476807e-01,2.623276114463806152e-01,2.578518688678741455e-01,2.563881874084472656e-01,2.577321231365203857e-01,2.529950141906738281e-01,2.458343058824539185e-01,2.309695780277252197e-01,2.158201187849044800e-01,1.936841160058975220e-01,1.565504372119903564e-01,1.000126153230667114e-01,1.595760509371757507e-02,-8.921797573566436768e-02,-2.381233721971511841e-01,-4.412068426609039307e-01,-7.038592100143432617e-01,-9.448402523994445801e-01,-1.211225032806396484e+00,-1.313323736190795898e+00,-1.206157088279724121e+00,-1.069291591644287109e+00,-9.196026921272277832e-01,-5.745493769645690918e-01,-1.802884340286254883e-01,2.606623247265815735e-02,-9.765780717134475708e-02,-3.864672482013702393e-01,-5.161951184272766113e-01,-4.511524140834808350e-01,-2.240916490554809570e-01,-4.794585332274436951e-02,3.656048327684402466e-02,9.242839366197586060e-02,1.040854677557945251e-01,1.153452843427658081e-01,1.098044961690902710e-01,9.583099186420440674e-02,7.740367949008941650e-02,6.000183150172233582e-02,4.272881895303726196e-02,2.875145711004734039e-02,1.748509705066680908e-02,1.105436123907566071e-02,7.903054356575012207e-03,7.323838770389556885e-03,8.482402190566062927e-03,1.139172445982694626e-02,1.567212864756584167e-02,2.008993923664093018e-02,2.485329844057559967e-02,2.955166064202785492e-02,3.295388817787170410e-02,3.674511238932609558e-02,3.985786437988281250e-02,4.272722452878952026e-02,4.471008107066154480e-02,4.690139740705490112e-02,4.887523129582405090e-02,5.097038671374320984e-02,5.188745260238647461e-02,5.274162441492080688e-02,5.362847447395324707e-02,5.334154888987541199e-02,5.294866487383842468e-02,5.128377676010131836e-02,5.110416933894157410e-02,4.973343387246131897e-02,4.797697067260742188e-02,4.689232259988784790e-02,4.588259011507034302e-02,4.496449977159500122e-02,4.393859207630157471e-02,4.345455765724182129e-02,4.296059161424636841e-02,4.289368912577629089e-02,4.504405334591865540e-02,4.952519014477729797e-02,5.011651664972305298e-02,4.225192219018936157e-02,2.645654603838920593e-02,3.393373638391494751e-02,8.086900413036346436e-02,1.796902120113372803e-01,3.348989188671112061e-01,4.616809785366058350e-01,4.864188134670257568e-01,2.600282132625579834e-01,-2.156576365232467651e-01,-9.459908604621887207e-01,-1.547621011734008789e+00,-1.430015802383422852e+00,-7.541651129722595215e-01,-1.248706132173538208e-01,1.557499766349792480e-01,-1.930016577243804932e-01,-1.257916212081909180e+00,-2.580044507980346680e+00,-3.469570159912109375e+00,-3.985205411911010742e+00,-3.549640655517578125e+00,-2.325592041015625000e+00,-1.583734750747680664e+00,-1.009251832962036133e+00,-6.446820497512817383e-01,-3.845485150814056396e-01,-2.021927833557128906e-01,-1.195742003619670868e-02,1.260492950677871704e-01,2.128754854202270508e-01,2.586002945899963379e-01,2.692250907421112061e-01,2.789076864719390869e-01,2.801106870174407959e-01,2.860638201236724854e-01,2.892860472202301025e-01,2.925494313240051270e-01,2.941545844078063965e-01,2.890285849571228027e-01,2.714774012565612793e-01,2.514711022377014160e-01,1.960051059722900391e-01,1.908618509769439697e-01,2.094201147556304932e-01,2.074534446001052856e-01,2.173619717359542847e-01,2.393866479396820068e-01
-2.114765644073486328e-01,-4.534255564212799072e-01,-7.174275517463684082e-01,-9.489735364913940430e-01,-1.146906375885009766e+00,-1.313972592353820801e+00,-1.425038814544677734e+00,-1.456706881523132324e+00,-1.487692117691040039e+00,-1.467845320701599121e+00,-1.452893257141113281e+00,-1.438734412193298340e+00,-1.431185007095336914e+00,-1.418697595596313477e+00,-1.418232321739196777e+00,-1.371132493019104004e+00,-1.318952798843383789e+00,-1.298226714134216309e+00,-1.270612120628356934e+00,-1.245684385299682617e+00,-1.232074975967407227e+00,-1.231150150299072266e+00,-1.251643657684326172e+00,-1.301386713981628418e+00,-1.383634328842163086e+00,-1.497134447097778320e+00,-1.622369766235351562e+00,-1.770006895065307617e+00,-1.886939406394958496e+00,-2.002331733703613281e+00,-2.077605962753295898e+00,-2.164048671722412109e+00,-2.224001646041870117e+00,-2.250370979309082031e+00,-2.305326700210571289e+00,-2.293422698974609375e+00,-2.294005632400512695e+00,-2.264900445938110352e+00,-2.139756202697753906e+00,-1.942234754562377930e+00,-1.908403396606445312e+00,-1.876632690429687500e+00,-1.615758299827575684e+00,-1.343125700950622559e+00,-1.031705260276794434e+00,-7.371197938919067383e-01,-2.992320954799652100e-01,-7.881527766585350037e-03,3.328800899907946587e-03,-2.729109227657318115e-01,-5.860482454299926758e-01,-6.414102315902709961e-01,-4.389189779758453369e-01,-2.364933788776397705e-01,-5.114449188113212585e-02,2.464295364916324615e-02,6.934084743261337280e-02,6.311593204736709595e-02,4.263529926538467407e-02,4.043817520141601562e-03,-2.988796308636665344e-02,-5.156574398279190063e-02,-6.378395110368728638e-02,-7.723846286535263062e-02,-8.519294857978820801e-02,-9.259025752544403076e-02,-9.716990590095520020e-02,-9.893347322940826416e-02,-1.110778450965881348e-01,-1.321585625410079956e-01,-1.447529941797256470e-01,-1.271188408136367798e-01,-5.548990890383720398e-02,6.926421821117401123e-02,2.124686539173126221e-01,3.436963558197021484e-01,5.014891028404235840e-01,5.516002178192138672e-01,5.365909337997436523e-01,4.212462007999420166e-01,2.063951492309570312e-01,-8.032935857772827148e-02,-3.975643515586853027e-01,-6.713985800743103027e-01,-8.613675832748413086e-01,-9.091014862060546875e-01,-7.538179755210876465e-01,-5.229471325874328613e-01,-2.260082662105560303e-01,-3.477365896105766296e-02,6.531810760498046875e-02,4.223005101084709167e-02,-6.302583962678909302e-02,-1.962371766567230225e-01,-3.253066837787628174e-01,-4.868927896022796631e-01,-6.214748620986938477e-01,-7.822610139846801758e-01,-8.475100398063659668e-01,-8.230956792831420898e-01,-7.579981088638305664e-01,-7.094971537590026855e-01,-6.856627464294433594e-01,-6.999902725219726562e-01,-7.335128188133239746e-01,-7.511300444602966309e-01,-7.874615788459777832e-01,-8.450571298599243164e-01,-9.403284788131713867e-01,-1.031926989555358887e+00,-1.140057802200317383e+00,-1.281448364257812500e+00,-1.402017235755920410e+00,-1.508008360862731934e+00,-1.578133344650268555e+00,-1.612657904624938965e+00,-1.571784615516662598e+00,-1.523224830627441406e+00,-1.487251996994018555e+00,-1.436924219131469727e+00,-1.354303002357482910e+00,-1.289178848266601562e+00,-1.182504892349243164e+00,-1.112640380859375000e+00,-1.020055055618286133e+00,-9.524229168891906738e-01,-8.642660975456237793e-01,-7.823577523231506348e-01,-7.098152637481689453e-01,-6.586896181106567383e-01,-6.256260275840759277e-01,-6.086297631263732910e-01,-5.865734815597534180e-01,-5.763510465621948242e-01,-5.714961290359497070e-01,-5.712735652923583984e-01,-5.863753557205200195e-01,-5.864973068237304688e-01,-5.801275372505187988e-01,-5.758323669433593750e-01,-5.520625710487365723e-01,-5.291445851325988770e-01,-4.870158731937408447e-01,-4.644721150398254395e-01,-4.118539690971374512e-01,-3.759028017520904541e-01,-3.455894589424133301e-01,-3.140205740928649902e-01,-3.602612018585205078e-01,-4.100791811943054199e-01
1.387169361114501953e-01,-3.030509129166603088e-02,-2.549033463001251221e-01,-4.535393118858337402e-01,-6.170099973678588867e-01,-7.542325854301452637e-01,-8.204348683357238770e-01,-8.018701672554016113e-01,-7.858419418334960938e-01,-7.583230733871459961e-01,-7.256339788436889648e-01,-7.296992540359497070e-01,-7.660092711448669434e-01,-7.897673845291137695e-01,-8.441553115844726562e-01,-9.095205068588256836e-01,-9.808820486068725586e-01,-1.040717840194702148e+00,-1.104905962944030762e+00,-1.147627353668212891e+00,-1.207751631736755371e+00,-1.300879240036010742e+00,-1.410932540893554688e+00,-1.562535524368286133e+00,-1.729326605796813965e+00,-1.909350395202636719e+00,-1.980376005172729492e+00,-1.933328628540039062e+00,-1.781834840774536133e+00,-1.695052385330200195e+00,-1.427973508834838867e+00,-1.133048892021179199e+00,-8.535045385360717773e-01,-5.970959067344665527e-01,-4.116120338439941406e-01,-2.723813354969024658e-01,-8.835033327341079712e-02,2.872006967663764954e-02,5.897551029920578003e-02,-3.624403849244117737e-02,-1.969075202941894531e-01,-4.122226238250732422e-01,-5.892833471298217773e-01,-7.395355105400085449e-01,-7.472272515296936035e-01,-6.355079412460327148e-01,-5.206362009048461914e-01,-3.605991303920745850e-01,-2.116884738206863403e-01,-8.589081466197967529e-02,3.299717977643013000e-02,1.430317014455795288e-01,2.555541396141052246e-01,3.277300000190734863e-01,3.836663067340850830e-01,4.163985252380371094e-01,4.318862855434417725e-01,4.316837191581726074e-01,4.300011992454528809e-01,4.327330589294433594e-01,4.338562488555908203e-01,4.313930869102478027e-01,4.311034083366394043e-01,4.302583634853363037e-01,4.279629290103912354e-01,4.344070851802825928e-01,4.311944544315338135e-01,4.291979372501373291e-01,4.269355237483978271e-01,4.355716705322265625e-01,4.305127263069152832e-01,4.333887696266174316e-01,4.315605759620666504e-01,4.317332804203033447e-01,4.317736029624938965e-01,4.389074742794036865e-01,4.399255216121673584e-01,4.426431059837341309e-01,4.447053372859954834e-01,4.462836682796478271e-01,4.454398155212402344e-01,4.440454840660095215e-01,4.330762028694152832e-01,4.325310587882995605e-01,4.355958104133605957e-01,4.382838606834411621e-01,4.300268292427062988e-01,4.266746640205383301e-01,4.311900138854980469e-01,4.275737702846527100e-01,4.231990873813629150e-01,4.122765064239501953e-01,3.839344382286071777e-01,3.519103229045867920e-01,2.921774983406066895e-01,1.976589560508728027e-01,8.988113701343536377e-02,-7.795225828886032104e-02,-2.884106040000915527e-01,-5.088444948196411133e-01,-7.083636522293090820e-01,-8.184021115303039551e-01,-7.775396704673767090e-01,-5.982810258865356445e-01,-3.542926907539367676e-01,-1.437332332134246826e-01,-5.253307987004518509e-03,6.184019520878791809e-02,3.358726203441619873e-02,-1.201547980308532715e-01,-3.632056117057800293e-01,-6.757005453109741211e-01,-9.653169512748718262e-01,-1.261055231094360352e+00,-1.494372248649597168e+00,-1.712857604026794434e+00,-1.818460106849670410e+00,-1.763301849365234375e+00,-1.607063651084899902e+00,-1.462392568588256836e+00,-1.344115853309631348e+00,-1.235521078109741211e+00,-1.191501975059509277e+00,-1.151830315589904785e+00,-1.119762182235717773e+00,-1.105176448822021484e+00,-1.097091436386108398e+00,-1.067754983901977539e+00,-1.060315370559692383e+00,-1.096419453620910645e+00,-1.121617078781127930e+00,-1.133522510528564453e+00,-1.109422087669372559e+00,-1.105508446693420410e+00,-1.091891288757324219e+00,-1.083021283149719238e+00,-1.072885036468505859e+00,-1.113049268722534180e+00,-1.102689504623413086e+00,-1.106404900550842285e+00,-1.088870286941528320e+00,-1.100618243217468262e+00,-1.114174485206604004e+00,-1.087804555892944336e+00,-9.911571741104125977e-01,-9.278827905654907227e-01,-8.554452657699584961e-01,-6.860159635543823242e-01,-7.153185009956359863e-01,-7.633914947509765625e-01
3.597935736179351807e-01,3.360178470611572266e-01,2.892112731933593750e-01,2.398596256971359253e-01,1.928876936435699463e-01,1.491499841213226318e-01,1.181754320859909058e-01,1.354564428329467773e-01,1.421194225549697876e-01,1.507228314876556396e-01,1.575545966625213623e-01,1.503990590572357178e-01,1.461515724658966064e-01,1.398348510265350342e-01,1.266472488641738892e-01,1.112985238432884216e-01,9.264895319938659668e-02,6.295613944530487061e-02,1.787172071635723114e-02,-3.067145124077796936e-02,-8.467618376016616821e-02,-1.482153236865997314e-01,-2.226254940032958984e-01,-2.889759540557861328e-01,-3.579813838005065918e-01,-4.343265593051910400e-01,-5.283443927764892578e-01,-6.134232282638549805e-01,-7.001503109931945801e-01,-7.825346589088439941e-01,-8.468796014785766602e-01,-8.674266934394836426e-01,-9.210249185562133789e-01,-8.065114021301269531e-01,-6.759172677993774414e-01,-5.359576344490051270e-01,-4.501898288726806641e-01,-3.823449909687042236e-01,-1.902861297130584717e-01,-2.119725570082664490e-02,2.264820225536823273e-02,-7.550422102212905884e-02,-1.903460472822189331e-01,-2.886094450950622559e-01,-2.722486853599548340e-01,-2.025173157453536987e-01,-8.590944856405258179e-02,3.251276165246963501e-02,1.296184360980987549e-01,2.085580527782440186e-01,2.524148821830749512e-01,2.787484526634216309e-01,3.044096231460571289e-01,3.145388960838317871e-01,3.189170360565185547e-01,3.175243139266967773e-01,3.092673718929290771e-01,2.986099123954772949e-01,2.906910777091979980e-01,2.850851416587829590e-01,2.790413498878479004e-01,2.751204967498779297e-01,2.703937888145446777e-01,2.667661011219024658e-01,2.611593604087829590e-01,2.550860047340393066e-01,2.483900487422943115e-01,2.416939288377761841e-01,2.358746975660324097e-01,2.306850254535675049e-01,2.267083376646041870e-01,2.244884669780731201e-01,2.221708297729492188e-01,2.210675030946731567e-01,2.198841869831085205e-01,2.191131561994552612e-01,2.187148779630661011e-01,2.177691757678985596e-01,2.171733379364013672e-01,2.166193425655364990e-01,2.164712399244308472e-01,2.171148061752319336e-01,2.184745520353317261e-01,2.213488072156906128e-01,2.257892340421676636e-01,2.307761460542678833e-01,2.275758981704711914e-01,2.239007204771041870e-01,2.237317264080047607e-01,2.328578531742095947e-01,2.595481574535369873e-01,3.033699393272399902e-01,3.588190376758575439e-01,4.168008863925933838e-01,4.608164429664611816e-01,4.516694545745849609e-01,3.741960823535919189e-01,2.112356871366500854e-01,-2.744554355740547180e-02,-2.528424263000488281e-01,-4.003246724605560303e-01,-3.988393843173980713e-01,-2.862575054168701172e-01,-1.283372938632965088e-01,-4.077529069036245346e-03,3.350690007209777832e-02,-5.224220082163810730e-02,-2.246123105287551880e-01,-4.331136345863342285e-01,-6.248015761375427246e-01,-8.272103071212768555e-01,-9.493601918220520020e-01,-1.057479262351989746e+00,-1.031337022781372070e+00,-8.669012784957885742e-01,-7.199549674987792969e-01,-5.946367979049682617e-01,-4.811984896659851074e-01,-3.663500249385833740e-01,-2.671265006065368652e-01,-1.826345026493072510e-01,-1.185073852539062500e-01,-4.934812337160110474e-02,1.185095869004726410e-02,7.301481068134307861e-02,1.270113885402679443e-01,1.736736148595809937e-01,2.282466590404510498e-01,2.827778458595275879e-01,3.280026018619537354e-01,3.460748493671417236e-01,3.281191885471343994e-01,2.995328605175018311e-01,2.498088181018829346e-01,1.902489811182022095e-01,1.213668733835220337e-01,5.495554953813552856e-02,3.265381604433059692e-02,3.955680504441261292e-02,8.915935456752777100e-02,1.320957988500595093e-01,1.496262252330780029e-01,1.179648488759994507e-01,8.139334619045257568e-02,4.883945733308792114e-02,6.072285026311874390e-02,1.456487625837326050e-01,1.950899660587310791e-01,2.847789227962493896e-01,3.539184927940368652e-01
-7.195629924535751343e-02,-2.573496401309967041e-01,-4.304749071598052979e-01,-6.062336564064025879e-01,-7.763838768005371094e-01,-8.926227688789367676e-01,-9.812841415405273438e-01,-1.007408738136291504e+00,-1.026142239570617676e+00,-1.033800363540649414e+00,-1.035463929176330566e+00,-1.056012630462646484e+00,-1.064849972724914551e+00,-1.074543356895446777e+00,-1.078748464584350586e+00,-1.083401918411254883e+00,-1.093640327453613281e+00,-1.118877053260803223e+00,-1.151703596115112305e+00,-1.191579818725585938e+00,-1.250460267066955566e+00,-1.315243005752563477e+00,-1.379182815551757812e+00,-1.448933005332946777e+00,-1.525784969329833984e+00,-1.598031401634216309e+00,-1.640142798423767090e+00,-1.674117803573608398e+00,-1.673302650451660156e+00,-1.673455476760864258e+00,-1.694287657737731934e+00,-1.763726234436035156e+00,-1.773538589477539062e+00,-1.798391342163085938e+00,-1.735094666481018066e+00,-1.664071679115295410e+00,-1.525716185569763184e+00,-1.433784723281860352e+00,-1.429542899131774902e+00,-1.329898476600646973e+00,-1.243362665176391602e+00,-1.152352929115295410e+00,-1.050284862518310547e+00,-9.402999877929687500e-01,-8.250511288642883301e-01,-6.235378980636596680e-01,-3.390761017799377441e-01,-2.543785274028778076e-01,-1.860989332199096680e-01,-1.485254466533660889e-01,5.020923539996147156e-02,1.707909852266311646e-01,-2.518606558442115784e-02,-2.391677647829055786e-01,-8.441339731216430664e-01,-8.547099828720092773e-01,-9.880008697509765625e-01,-9.537180662155151367e-01,-8.707747459411621094e-01,-8.167570829391479492e-01,-7.818578481674194336e-01,-7.970541715621948242e-01,-8.289054036140441895e-01,-8.634567260742187500e-01,-8.885378837585449219e-01,-9.110862612724304199e-01,-9.442920684814453125e-01,-9.779306650161743164e-01,-9.922631382942199707e-01,-1.004929065704345703e+00,-1.020202994346618652e+00,-1.036147713661193848e+00,-1.045961618423461914e+00,-1.058127760887145996e+00,-1.066110610961914062e+00,-1.071701765060424805e+00,-1.074095964431762695e+00,-1.077069520950317383e+00,-1.078710198402404785e+00,-1.075338125228881836e+00,-1.077958822250366211e+00,-1.070572257041931152e+00,-1.031351089477539062e+00,-9.646803140640258789e-01,-8.563392758369445801e-01,-7.470944523811340332e-01,-6.062217950820922852e-01,-4.538585543632507324e-01,-2.899742722511291504e-01,-1.675558090209960938e-01,-1.438386887311935425e-01,-2.614646553993225098e-01,-5.097969770431518555e-01,-8.112387657165527344e-01,-1.060828924179077148e+00,-1.163519263267517090e+00,-1.031308531761169434e+00,-7.339493036270141602e-01,-3.401759564876556396e-01,-3.756599873304367065e-02,1.602024137973785400e-01,1.882929354906082153e-01,8.192205429077148438e-02,-6.521345674991607666e-02,-2.230677604675292969e-01,-3.191981911659240723e-01,-4.458611011505126953e-01,-5.225653648376464844e-01,-6.169461011886596680e-01,-5.761010646820068359e-01,-5.050842761993408203e-01,-4.291871488094329834e-01,-3.379267752170562744e-01,-2.951816022396087646e-01,-2.850655019283294678e-01,-2.819896340370178223e-01,-2.730821967124938965e-01,-2.944951057434082031e-01,-3.424985408782958984e-01,-4.625529646873474121e-01,-6.285139322280883789e-01,-8.832298517227172852e-01,-1.124941706657409668e+00,-1.354736924171447754e+00,-1.595494389533996582e+00,-1.681316614151000977e+00,-1.632012128829956055e+00,-1.471398591995239258e+00,-1.301613330841064453e+00,-1.159907102584838867e+00,-1.015434026718139648e+00,-9.477161169052124023e-01,-9.462089538574218750e-01,-1.010186195373535156e+00,-1.049680590629577637e+00,-1.065150618553161621e+00,-1.068823337554931641e+00,-1.136491656303405762e+00,-1.206897974014282227e+00,-1.282096624374389648e+00,-1.314219832420349121e+00,-1.366635680198669434e+00,-1.445269942283630371e+00,-1.546201944351196289e+00,-1.501105546951293945e+00,-1.462593793869018555e+00,-1.314265727996826172e+00,-1.004567861557006836e+00,-9.333502650260925293e-01,-9.233012199401855469e-01
2.757633328437805176e-01,2.012509554624557495e-01,8.876518905162811279e-02,-1.459261751733720303e-03,-8.028874546289443970e-02,-1.302173733711242676e-01,-1.298398822546005249e-01,-4.520541429519653320e-02,2.813556790351867676e-02,9.223990142345428467e-02,1.554046571254730225e-01,1.700129508972167969e-01,1.825641095638275146e-01,1.964867860078811646e-01,2.110641449689865112e-01,2.295899391174316406e-01,2.450300753116607666e-01,2.459164112806320190e-01,2.392268180847167969e-01,2.267696857452392578e-01,2.061952650547027588e-01,1.758877485990524292e-01,1.364986002445220947e-01,8.584775030612945557e-02,1.994374394416809082e-02,-6.111084297299385071e-02,-1.406338065862655640e-01,-2.358215302228927612e-01,-3.210282921791076660e-01,-4.072833657264709473e-01,-4.750128388404846191e-01,-5.142974853515625000e-01,-5.253599286079406738e-01,-5.405389666557312012e-01,-5.767368078231811523e-01,-6.291553974151611328e-01,-7.191451191902160645e-01,-8.471705317497253418e-01,-9.939816594123840332e-01,-1.118717193603515625e+00,-1.272046685218811035e+00,-1.402522087097167969e+00,-1.255961656570434570e+00,-1.217644691467285156e+00,-1.118252277374267578e+00,-9.810106158256530762e-01,-7.140285372734069824e-01,-3.450922369956970215e-01,-7.449970394372940063e-02,-3.369665518403053284e-02,-2.927516102790832520e-01,-3.759011626243591309e-01,-4.639644622802734375e-01,-4.082954525947570801e-01,-2.507829368114471436e-01,-1.454297602176666260e-01,-1.437722295522689819e-01,-2.027125358581542969e-01,-2.509226799011230469e-01,-3.029320538043975830e-01,-3.304284512996673584e-01,-3.397643268108367920e-01,-3.216531574726104736e-01,-3.050334155559539795e-01,-2.887199223041534424e-01,-2.791611254215240479e-01,-2.740765213966369629e-01,-2.702063918113708496e-01,-2.693657875061035156e-01,-2.696858644485473633e-01,-2.700295448303222656e-01,-2.732093334197998047e-01,-2.788253128528594971e-01,-2.857086658477783203e-01,-2.891654372215270996e-01,-2.888735234737396240e-01,-2.756106853485107422e-01,-2.474493533372879028e-01,-2.035960704088211060e-01,-1.583144515752792358e-01,-8.912416547536849976e-02,3.545377403497695923e-02,1.739238947629928589e-01,2.751185894012451172e-01,2.795528471469879150e-01,1.587512344121932983e-01,-8.978392928838729858e-02,-3.459663987159729004e-01,-5.292116999626159668e-01,-4.933624267578125000e-01,-3.103187680244445801e-01,-9.904296696186065674e-02,5.106705427169799805e-02,1.572320237755775452e-02,-1.867917180061340332e-01,-4.866387248039245605e-01,-8.320493698120117188e-01,-1.152171969413757324e+00,-1.403453111648559570e+00,-1.624199628829956055e+00,-1.688637137413024902e+00,-1.614262938499450684e+00,-1.399278163909912109e+00,-1.293117523193359375e+00,-1.205252289772033691e+00,-1.151467084884643555e+00,-1.100991487503051758e+00,-9.986410140991210938e-01,-8.123115301132202148e-01,-6.052686572074890137e-01,-3.958014845848083496e-01,-2.028283178806304932e-01,-6.902874261140823364e-02,2.572899684309959412e-02,4.946842789649963379e-02,3.920243307948112488e-02,-8.099680393934249878e-02,-2.540237307548522949e-01,-3.672304749488830566e-01,-3.771256804466247559e-01,-2.413662225008010864e-01,-1.088134795427322388e-01,1.079215854406356812e-02,1.062184125185012817e-01,1.732360124588012695e-01,2.070944309234619141e-01,2.164232432842254639e-01,2.216017544269561768e-01,2.235731184482574463e-01,2.217547446489334106e-01,2.173568755388259888e-01,2.160719335079193115e-01,2.155123651027679443e-01,2.151195555925369263e-01,2.138133496046066284e-01,2.155706435441970825e-01,2.191034853458404541e-01,2.252767533063888550e-01,2.329666614532470703e-01,2.407647669315338135e-01,2.452738285064697266e-01,2.407886087894439697e-01,1.916940063238143921e-01,1.087279096245765686e-01,4.461271315813064575e-02,4.452943801879882812e-02,1.748339235782623291e-01,2.644548416137695312e-01,4.105230271816253662e-01,5.297654867172241211e-01
4.485818445682525635e-01,6.784170269966125488e-01,9.001209139823913574e-01,1.129633665084838867e+00,1.292386054992675781e+00,1.432435750961303711e+00,1.529549121856689453e+00,1.581376075744628906e+00,1.638259530067443848e+00,1.686241507530212402e+00,1.674539327621459961e+00,1.649685144424438477e+00,1.623958945274353027e+00,1.616363525390625000e+00,1.597200155258178711e+00,1.590238571166992188e+00,1.567170739173889160e+00,1.541736960411071777e+00,1.554719686508178711e+00,1.563606977462768555e+00,1.558998823165893555e+00,1.543654084205627441e+00,1.542490601539611816e+00,1.555441260337829590e+00,1.548222303390502930e+00,1.564612388610839844e+00,1.562121748924255371e+00,1.564030766487121582e+00,1.572652459144592285e+00,1.570181488990783691e+00,1.580444574356079102e+00,1.594885587692260742e+00,1.611151099205017090e+00,1.638189554214477539e+00,1.666072130203247070e+00,1.710370063781738281e+00,1.745351791381835938e+00,1.794331789016723633e+00,1.822323203086853027e+00,1.800007462501525879e+00,1.824147820472717285e+00,2.000239610671997070e+00,2.088834285736083984e+00,2.069301128387451172e+00,1.676752448081970215e+00,1.470925688743591309e+00,1.165922522544860840e+00,8.737902641296386719e-01,1.035859870910644531e+01,-2.968801856040954590e-01,9.179555773735046387e-01,3.197246789932250977e-01,7.273616790771484375e-01,7.452133893966674805e-01,4.719973504543304443e-01,1.932051330804824829e-01,-1.776058077812194824e-01,-2.492957562208175659e-01,-2.018362730741500854e-01,-1.035176962614059448e-01,-5.994075443595647812e-03,1.113003715872764587e-01,2.402585297822952271e-01,3.344474732875823975e-01,4.039658606052398682e-01,4.587915539741516113e-01,4.949735999107360840e-01,5.201576352119445801e-01,5.249956846237182617e-01,5.292150378227233887e-01,5.378537178039550781e-01,5.331797599792480469e-01,5.334187150001525879e-01,5.179595947265625000e-01,5.038915276527404785e-01,4.727969765663146973e-01,4.392526149749755859e-01,3.817641139030456543e-01,2.684522569179534912e-01,1.045691967010498047e-01,-1.050822734832763672e-01,-3.471118211746215820e-01,-5.599546432495117188e-01,-7.313581705093383789e-01,-7.432932257652282715e-01,-4.393880963325500488e-01,1.832288056612014771e-01,1.056248426437377930e+00,1.838812589645385742e+00,1.469676613807678223e+00,8.602832555770874023e-01,1.325774937868118286e-01,-6.895573437213897705e-02,6.320115327835083008e-01,2.009173154830932617e+00,3.695218563079833984e+00,4.949165344238281250e+00,5.586070060729980469e+00,4.982329845428466797e+00,3.899561643600463867e+00,2.879072666168212891e+00,2.138556003570556641e+00,1.733142495155334473e+00,1.553342580795288086e+00,1.498222589492797852e+00,1.588030099868774414e+00,1.766479730606079102e+00,1.940970659255981445e+00,2.061935663223266602e+00,2.214517831802368164e+00,2.341557264328002930e+00,2.427772045135498047e+00,2.445937633514404297e+00,2.505924940109252930e+00,2.559425830841064453e+00,2.594714403152465820e+00,2.619951725006103516e+00,2.625389814376831055e+00,2.621663808822631836e+00,2.614826679229736328e+00,2.604663848876953125e+00,2.599801301956176758e+00,2.596519708633422852e+00,2.610384464263916016e+00,2.619738578796386719e+00,2.623708724975585938e+00,2.634232759475708008e+00,2.660972833633422852e+00,2.675071239471435547e+00,2.689151048660278320e+00,2.708901882171630859e+00,2.700642585754394531e+00,2.682910680770874023e+00,2.675077676773071289e+00,2.685222148895263672e+00,2.638257503509521484e+00,2.609433650970458984e+00,2.559544563293457031e+00,2.521001100540161133e+00,2.464649677276611328e+00,2.420642375946044922e+00,2.345943212509155273e+00,2.259512424468994141e+00,2.207005262374877930e+00,2.052059412002563477e+00,1.904637098312377930e+00,1.725621819496154785e+00,1.465978622436523438e+00,1.439958691596984863e+00,1.413928151130676270e+00
7.551454901695251465e-01,1.290897727012634277e+00,1.798059105873107910e+00,2.332897663116455078e+00,2.818015336990356445e+00,3.222647190093994141e+00,3.583574771881103516e+00,3.813787937164306641e+00,4.020326137542724609e+00,4.144192218780517578e+00,4.214224815368652344e+00,4.263180255889892578e+00,4.259306430816650391e+00,4.249093532562255859e+00,4.232462882995605469e+00,4.198260784149169922e+00,4.177680015563964844e+00,4.160223960876464844e+00,4.128063678741455078e+00,4.090977668762207031e+00,4.054669857025146484e+00,4.003060817718505859e+00,3.944589138031005859e+00,3.891328334808349609e+00,3.823287248611450195e+00,3.747848987579345703e+00,3.664962053298950195e+00,3.575951337814331055e+00,3.482233762741088867e+00,3.395411729812622070e+00,3.311404705047607422e+00,3.218803405761718750e+00,3.137175798416137695e+00,3.089504718780517578e+00,3.034868240356445312e+00,2.943131208419799805e+00,2.841259002685546875e+00,2.736320495605468750e+00,2.621234893798828125e+00,2.431356430053710938e+00,2.203068256378173828e+00,1.969123482704162598e+00,1.907071709632873535e+00,1.767282247543334961e+00,1.527071595191955566e+00,1.149429082870483398e+00,8.795610666275024414e-01,4.834930300712585449e-01,1.008444279432296753e-01,5.657393932342529297e+00,-1.390801966190338135e-01,1.581157147884368896e-01,5.943463444709777832e-01,1.069549202919006348e+00,1.132783293724060059e+00,9.430519342422485352e-01,5.992214679718017578e-01,3.669628500938415527e-02,-2.356262654066085815e-01,-4.054864346981048584e-01,-4.647124409675598145e-01,-4.660756587982177734e-01,-4.559503495693206787e-01,-4.222553372383117676e-01,-3.696455061435699463e-01,-3.273159563541412354e-01,-2.913745939731597900e-01,-2.772595882415771484e-01,-2.658069431781768799e-01,-2.589535713195800781e-01,-2.513778805732727051e-01,-2.447942793369293213e-01,-2.400064468383789062e-01,-2.382035702466964722e-01,-2.402766644954681396e-01,-2.370616197586059570e-01,-2.178190648555755615e-01,-1.899923682212829590e-01,-1.819398105144500732e-01,-2.066089212894439697e-01,-2.747098803520202637e-01,-4.195295870304107666e-01,-6.031148433685302734e-01,-8.444269299507141113e-01,-1.041145563125610352e+00,-1.116270422935485840e+00,-1.081872344017028809e+00,-8.962227106094360352e-01,-4.841922819614410400e-01,4.805584996938705444e-02,6.861596107482910156e-01,1.311756372451782227e+00,1.807944893836975098e+00,2.245832681655883789e+00,2.321285963058471680e+00,1.156023859977722168e+00,1.776971966028213501e-01,-1.888867914676666260e-01,2.117309868335723877e-01,1.395892381668090820e+00,2.810381412506103516e+00,4.085636138916015625e+00,5.229376316070556641e+00,5.531752109527587891e+00,5.260797977447509766e+00,4.952108860015869141e+00,4.659286499023437500e+00,4.273937702178955078e+00,3.980062961578369141e+00,3.639308929443359375e+00,3.510775804519653320e+00,3.571385860443115234e+00,3.803471326828002930e+00,3.996157169342041016e+00,4.152333259582519531e+00,4.205777645111083984e+00,4.263507843017578125e+00,4.158224582672119141e+00,4.035704612731933594e+00,3.754504442214965820e+00,3.471358776092529297e+00,3.178147554397583008e+00,2.985031127929687500e+00,2.838050127029418945e+00,2.721358776092529297e+00,2.663697481155395508e+00,2.702008962631225586e+00,2.660137891769409180e+00,2.539541482925415039e+00,2.470725059509277344e+00,2.376124382019042969e+00,2.270283460617065430e+00,2.141321182250976562e+00,2.036533117294311523e+00,1.958050012588500977e+00,1.900771856307983398e+00,1.869336724281311035e+00,1.823236107826232910e+00,1.746630430221557617e+00,1.650628447532653809e+00,1.522378563880920410e+00,1.345233321189880371e+00,1.177380084991455078e+00,1.022069692611694336e+00,8.566001057624816895e-01,7.136790752410888672e-01,6.263667345046997070e-01,5.364247560501098633e-01,5.907350778579711914e-01,7.158840894699096680e-01
1.010660767555236816e+00,1.603268384933471680e+00,2.180628299713134766e+00,2.734252929687500000e+00,3.095158100128173828e+00,3.356484174728393555e+00,3.489935398101806641e+00,3.504068851470947266e+00,3.433587312698364258e+00,3.304308652877807617e+00,3.146318912506103516e+00,3.026456832885742188e+00,2.931756258010864258e+00,2.813318252563476562e+00,2.732239484786987305e+00,2.657130718231201172e+00,2.588802576065063477e+00,2.542117357254028320e+00,2.493263006210327148e+00,2.448651075363159180e+00,2.411194324493408203e+00,2.376635074615478516e+00,2.359006404876708984e+00,2.331099033355712891e+00,2.322641611099243164e+00,2.315669775009155273e+00,2.302004814147949219e+00,2.294328689575195312e+00,2.291020154953002930e+00,2.288019657135009766e+00,2.298855543136596680e+00,2.302708625793457031e+00,2.305040121078491211e+00,2.301643610000610352e+00,2.321322202682495117e+00,2.351630926132202148e+00,2.394999980926513672e+00,2.467953205108642578e+00,2.584010601043701172e+00,2.708459615707397461e+00,2.823639631271362305e+00,2.948785305023193359e+00,3.038229465484619141e+00,3.028911590576171875e+00,2.865742206573486328e+00,2.591731309890747070e+00,2.164142847061157227e+00,1.951246976852416992e+00,1.516374230384826660e+00,8.383968472480773926e-01,1.447077095508575439e-01,-3.764874534681439400e-03,4.054805636405944824e-01,8.047384023666381836e-01,8.940229415893554688e-01,6.538632512092590332e-01,3.775137066841125488e-01,1.128586307168006897e-01,-9.053723886609077454e-03,-1.069673746824264526e-01,-1.117148846387863159e-01,-7.391262054443359375e-02,2.972590969875454903e-03,9.933574497699737549e-02,1.881710737943649292e-01,2.732670307159423828e-01,3.398210704326629639e-01,3.814018964767456055e-01,4.103402197360992432e-01,4.214293062686920166e-01,4.303142130374908447e-01,4.361275136470794678e-01,4.372370243072509766e-01,4.353438317775726318e-01,4.351246953010559082e-01,4.332357048988342285e-01,4.334862828254699707e-01,4.214169085025787354e-01,3.892378807067871094e-01,3.579732477664947510e-01,3.299663960933685303e-01,3.046240508556365967e-01,2.519653737545013428e-01,1.659643501043319702e-01,1.919081248342990875e-02,-2.239530831575393677e-01,-5.139637589454650879e-01,-8.012160062789916992e-01,-9.790316820144653320e-01,-9.784010052680969238e-01,-7.512122392654418945e-01,-2.584765851497650146e-01,4.092653691768646240e-01,1.036362648010253906e+00,1.437103748321533203e+00,1.262138128280639648e+00,7.547739744186401367e-01,1.358025074005126953e-01,-1.300209760665893555e-01,1.165648549795150757e-01,8.240350484848022461e-01,1.617291808128356934e+00,2.429488658905029297e+00,3.266276597976684570e+00,3.788702011108398438e+00,3.797672986984252930e+00,3.351577758789062500e+00,2.683269023895263672e+00,2.141322612762451172e+00,1.807467103004455566e+00,1.596023678779602051e+00,1.464642286300659180e+00,1.408269882202148438e+00,1.411176681518554688e+00,1.422823190689086914e+00,1.459547281265258789e+00,1.466437578201293945e+00,1.483735918998718262e+00,1.511763215065002441e+00,1.566518783569335938e+00,1.584663152694702148e+00,1.635850548744201660e+00,1.698631525039672852e+00,1.786778807640075684e+00,1.876678824424743652e+00,1.943978548049926758e+00,1.995246171951293945e+00,2.073884963989257812e+00,2.155972719192504883e+00,2.188034296035766602e+00,2.223015308380126953e+00,2.279899358749389648e+00,2.287434339523315430e+00,2.289797306060791016e+00,2.322439908981323242e+00,2.339387416839599609e+00,2.346813201904296875e+00,2.373038768768310547e+00,2.454247951507568359e+00,2.555106163024902344e+00,2.600999832153320312e+00,2.634050846099853516e+00,2.739243507385253906e+00,2.780366182327270508e+00,2.778424739837646484e+00,2.731931447982788086e+00,2.523987531661987305e+00,2.139035940170288086e+00,2.131068706512451172e+00,2.151432275772094727e+00
2.791158854961395264e-01,2.021294087171554565e-01,8.232064545154571533e-02,-1.846382580697536469e-02,-1.049271821975708008e-01,-1.811334341764450073e-01,-2.195941209793090820e-01,-1.986572444438934326e-01,-1.843332052230834961e-01,-1.684294492006301880e-01,-1.465329378843307495e-01,-1.990695744752883911e-01,-2.544216513633728027e-01,-3.321273922920227051e-01,-4.244717657566070557e-01,-5.413449406623840332e-01,-6.121568679809570312e-01,-6.550899744033813477e-01,-7.531074881553649902e-01,-8.148841857910156250e-01,-9.178762435913085938e-01,-1.036363005638122559e+00,-1.180432677268981934e+00,-1.225532770156860352e+00,-1.280914664268493652e+00,-1.229347944259643555e+00,-1.048016905784606934e+00,-7.911368012428283691e-01,-5.519682765007019043e-01,-2.790438532829284668e-01,-6.795225292444229126e-02,8.522629737854003906e-02,1.668928563594818115e-01,2.436031401157379150e-01,2.283083498477935791e-01,1.521508991718292236e-01,-1.449632574804127216e-03,-2.769532501697540283e-01,-5.633276700973510742e-01,-7.789658308029174805e-01,-9.120345115661621094e-01,-9.521819949150085449e-01,-9.380248188972473145e-01,-8.677840232849121094e-01,-7.837980389595031738e-01,-6.991013288497924805e-01,-6.374589204788208008e-01,-5.964493751525878906e-01,-5.120782256126403809e-01,-4.509501457214355469e-01,-4.103971123695373535e-01,-3.829448819160461426e-01,-3.603684008121490479e-01,-3.463668823242187500e-01,-3.385082781314849854e-01,-3.343192040920257568e-01,-3.344081938266754150e-01,-3.344476222991943359e-01,-3.317891955375671387e-01,-3.331754803657531738e-01,-3.344178199768066406e-01,-3.328453600406646729e-01,-3.344494402408599854e-01,-3.345874249935150146e-01,-3.342636227607727051e-01,-3.334001004695892334e-01,-3.349389135837554932e-01,-3.347219526767730713e-01,-3.359728753566741943e-01,-3.348332941532135010e-01,-3.320589959621429443e-01,-3.333372175693511963e-01,-3.334614634513854980e-01,-3.332265913486480713e-01,-3.341694474220275879e-01,-3.376870155334472656e-01,-3.408251702785491943e-01,-3.448356688022613525e-01,-3.470948338508605957e-01,-3.494649529457092285e-01,-3.493706285953521729e-01,-3.465201258659362793e-01,-3.444468080997467041e-01,-3.502922952175140381e-01,-3.527978062629699707e-01,-3.634581565856933594e-01,-4.243999421596527100e-01,-4.922753870487213135e-01,-6.073126792907714844e-01,-7.829353809356689453e-01,-9.489343762397766113e-01,-1.049650907516479492e+00,-9.826931953430175781e-01,-7.740436792373657227e-01,-4.892570078372955322e-01,-2.047036588191986084e-01,3.063794039189815521e-02,1.594064533710479736e-01,2.090681344270706177e-01,1.962849199771881104e-01,9.653712809085845947e-02,-8.252873271703720093e-02,-3.248050212860107422e-01,-5.662919282913208008e-01,-8.361109495162963867e-01,-1.150702714920043945e+00,-1.447490453720092773e+00,-1.597259759902954102e+00,-1.667086601257324219e+00,-1.715523362159729004e+00,-1.742035627365112305e+00,-1.762902617454528809e+00,-1.790989279747009277e+00,-1.802719116210937500e+00,-1.780680060386657715e+00,-1.741687059402465820e+00,-1.673096299171447754e+00,-1.550355911254882812e+00,-1.405068159103393555e+00,-1.255960702896118164e+00,-1.117121458053588867e+00,-9.722522497177124023e-01,-8.702669143676757812e-01,-7.941832542419433594e-01,-7.378538250923156738e-01,-6.887364387512207031e-01,-6.362628936767578125e-01,-5.906835794448852539e-01,-5.022552609443664551e-01,-4.065654873847961426e-01,-3.040452599525451660e-01,-2.406466454267501831e-01,-1.994262635707855225e-01,-1.710610389709472656e-01,-1.577930003404617310e-01,-1.693451702594757080e-01,-1.823819428682327271e-01,-2.203036993741989136e-01,-2.395998984575271606e-01,-2.962633967399597168e-01,-3.347118496894836426e-01,-3.946937918663024902e-01,-4.582949578762054443e-01,-5.258804559707641602e-01,-5.902834534645080566e-01,-5.554560422897338867e-01,-5.011488795280456543e-01,-4.864006638526916504e-01,-5.374463796615600586e-01,-5.572692751884460449e-01
-4.927210807800292969e-01,-5.518733263015747070e-01,-5.683290958404541016e-01,-5.641446709632873535e-01,-5.411794781684875488e-01,-5.016080141067504883e-01,-4.634052813053131104e-01,-4.651977121829986572e-01,-4.785260260105133057e-01,-4.933364987373352051e-01,-4.953451156616210938e-01,-4.732083380222320557e-01,-4.097242951393127441e-01,-3.228041529655456543e-01,-1.767943650484085083e-01,2.636015415191650391e-02,3.578829169273376465e-01,8.290556073188781738e-01,1.113643646240234375e+00,1.087200999259948730e+00,8.611913919448852539e-01,5.154135823249816895e-01,-3.948659822344779968e-02,-1.230504959821701050e-01,1.893145442008972168e-01,8.266836404800415039e-01,1.267005681991577148e+00,1.232423424720764160e+00,9.898406863212585449e-01,6.372677683830261230e-01,5.344125628471374512e-01,4.704893231391906738e-01,4.049925804138183594e-01,3.542036116123199463e-01,3.168007433414459229e-01,2.890461385250091553e-01,2.732296884059906006e-01,2.616446018218994141e-01,2.610681951045989990e-01,2.631638050079345703e-01,2.619033753871917725e-01,2.637553811073303223e-01,2.651680111885070801e-01,2.645931839942932129e-01,2.650757730007171631e-01,2.662133574485778809e-01,2.652488350868225098e-01,2.650419771671295166e-01,2.652679085731506348e-01,2.650083601474761963e-01,2.658018171787261963e-01,2.641074061393737793e-01,2.652680873870849609e-01,2.642970085144042969e-01,2.633383870124816895e-01,2.643066346645355225e-01,2.626515030860900879e-01,2.618913650512695312e-01,2.604900896549224854e-01,2.593627870082855225e-01,2.574214041233062744e-01,2.559246122837066650e-01,2.569798827171325684e-01,2.554241716861724854e-01,2.562449574470520020e-01,2.553802430629730225e-01,2.565643191337585449e-01,2.551202178001403809e-01,2.553864121437072754e-01,2.556689381599426270e-01,2.559586167335510254e-01,2.554514408111572266e-01,2.545995116233825684e-01,2.550225853919982910e-01,2.552168965339660645e-01,2.554976344108581543e-01,2.556361556053161621e-01,2.544361948966979980e-01,2.554871439933776855e-01,2.565135061740875244e-01,2.574058175086975098e-01,2.597971558570861816e-01,2.388434857130050659e-01,2.159212529659271240e-01,1.845946758985519409e-01,1.543550491333007812e-01,1.277128159999847412e-01,1.089884787797927856e-01,9.968300163745880127e-02,9.589262306690216064e-02,1.019530743360519409e-01,1.136407852172851562e-01,1.335137784481048584e-01,1.525838375091552734e-01,1.995754241943359375e-01,2.682715952396392822e-01,3.853188753128051758e-01,5.545752644538879395e-01,8.073108792304992676e-01,1.033805608749389648e+00,1.189316511154174805e+00,1.207065463066101074e+00,8.588841557502746582e-01,2.984868288040161133e-01,-8.560037612915039062e-02,-2.191799134016036987e-01,2.791004255414009094e-02,5.197231769561767578e-01,1.180304765701293945e+00,1.370294332504272461e+00,1.487889766693115234e+00,8.782108426094055176e-01,4.069178998470306396e-01,1.202200427651405334e-01,-2.879471704363822937e-02,-1.433758288621902466e-01,-2.392072379589080811e-01,-3.553830981254577637e-01,-4.482778012752532959e-01,-4.991857409477233887e-01,-5.212680101394653320e-01,-5.202227830886840820e-01,-5.172754526138305664e-01,-5.146558284759521484e-01,-5.144377350807189941e-01,-5.140439271926879883e-01,-5.146608948707580566e-01,-5.145397186279296875e-01,-5.155936479568481445e-01,-5.140882730484008789e-01,-5.153535008430480957e-01,-5.149857401847839355e-01,-5.136054158210754395e-01,-5.139725804328918457e-01,-5.127929449081420898e-01,-5.131053924560546875e-01,-5.124055743217468262e-01,-5.129063725471496582e-01,-5.117934942245483398e-01,-5.126483440399169922e-01,-5.119749307632446289e-01,-5.072249174118041992e-01,-4.728602766990661621e-01,-4.348087906837463379e-01,-3.866151869297027588e-01,-3.840466439723968506e-01,-4.171587526798248291e-01,-3.863675594329833984e-01,-3.703384399414062500e-01,-3.569787740707397461e-01
-7.898880839347839355e-01,-8.081172704696655273e-01,-7.402937412261962891e-01,-6.469801664352416992e-01,-5.256655812263488770e-01,-4.414047300815582275e-01,-3.657987713813781738e-01,-3.980799019336700439e-01,-4.038565754890441895e-01,-4.290573000907897949e-01,-4.584620594978332520e-01,-4.591765403747558594e-01,-4.454042315483093262e-01,-4.389772415161132812e-01,-4.355962872505187988e-01,-4.332977831363677979e-01,-4.352541863918304443e-01,-4.427928924560546875e-01,-4.491197466850280762e-01,-4.565992355346679688e-01,-4.641956686973571777e-01,-4.712864458560943604e-01,-4.787511825561523438e-01,-4.859061837196350098e-01,-4.918150901794433594e-01,-4.961814284324645996e-01,-4.990559518337249756e-01,-4.997761845588684082e-01,-4.987347126007080078e-01,-4.986823499202728271e-01,-4.945587515830993652e-01,-4.880918562412261963e-01,-4.765014052391052246e-01,-4.533324837684631348e-01,-4.050672650337219238e-01,-3.368250727653503418e-01,-2.295115441083908081e-01,-7.114242762327194214e-02,1.821202039718627930e-01,5.438833236694335938e-01,1.116667985916137695e+00,1.957191824913024902e+00,3.024829387664794922e+00,3.908360958099365234e+00,4.005764961242675781e+00,3.574107408523559570e+00,2.715467214584350586e+00,1.306321859359741211e+00,2.330810278654098511e-01,-4.988789930939674377e-02,6.078206300735473633e-01,1.668712258338928223e+00,2.211339473724365234e+00,1.911776185035705566e+00,1.569766283035278320e+00,1.295175075531005859e+00,1.439762115478515625e+00,1.685847878456115723e+00,1.858505249023437500e+00,1.953550577163696289e+00,2.063025474548339844e+00,2.153363466262817383e+00,2.197196960449218750e+00,2.232053279876708984e+00,2.245652437210083008e+00,2.256899118423461914e+00,2.263785362243652344e+00,2.276488780975341797e+00,2.285568714141845703e+00,2.291282653808593750e+00,2.285629510879516602e+00,2.265568256378173828e+00,2.247146606445312500e+00,2.239916086196899414e+00,2.223261356353759766e+00,2.240248203277587891e+00,2.252387762069702148e+00,2.254905700683593750e+00,2.269672632217407227e+00,2.239144563674926758e+00,2.187713861465454102e+00,2.129099607467651367e+00,2.024142265319824219e+00,1.912077903747558594e+00,1.759986519813537598e+00,1.551044702529907227e+00,1.260675311088562012e+00,9.111639261245727539e-01,5.771871805191040039e-01,3.433517813682556152e-01,2.621472775936126709e-01,4.213383793830871582e-01,7.467480897903442383e-01,1.063343763351440430e+00,1.279505610466003418e+00,1.074695348739624023e+00,5.641290545463562012e-01,3.883277624845504761e-02,-1.480606049299240112e-01,9.237624704837799072e-02,6.598836779594421387e-01,1.373310804367065430e+00,1.954334616661071777e+00,2.273419857025146484e+00,2.536866664886474609e+00,2.298193454742431641e+00,1.929025650024414062e+00,1.484437704086303711e+00,1.141181945800781250e+00,9.286950230598449707e-01,8.199125528335571289e-01,7.552692294120788574e-01,7.284468412399291992e-01,7.363818883895874023e-01,7.403745651245117188e-01,7.353945374488830566e-01,6.492722630500793457e-01,5.425113439559936523e-01,5.036512613296508789e-01,5.233263969421386719e-01,5.626316666603088379e-01,6.079918146133422852e-01,6.168558001518249512e-01,5.918850898742675781e-01,5.718753933906555176e-01,5.363531112670898438e-01,4.195373952388763428e-01,2.909030914306640625e-01,1.588496565818786621e-01,8.646932244300842285e-02,7.044152915477752686e-02,6.976434588432312012e-02,6.798178702592849731e-02,6.926617026329040527e-02,7.066012173891067505e-02,7.764550298452377319e-02,8.257121592760086060e-02,9.244464337825775146e-02,1.099240928888320923e-01,1.411200314760208130e-01,1.799270659685134888e-01,2.340719699859619141e-01,3.511864244937896729e-01,5.167168378829956055e-01,6.721844077110290527e-01,6.392812132835388184e-01,4.257131516933441162e-01,2.976810932159423828e-01,1.525452435016632080e-01,1.872885227203369141e-02
4.900663346052169800e-02,7.380083948373794556e-02,1.008173450827598572e-01,1.240224391222000122e-01,1.385300457477569580e-01,1.442149877548217773e-01,1.421821415424346924e-01,1.410663723945617676e-01,1.368286907672882080e-01,1.318786293268203735e-01,1.274174600839614868e-01,1.234396919608116150e-01,1.210617795586585999e-01,1.206069365143775940e-01,1.167590618133544922e-01,1.169596537947654724e-01,1.189709529280662537e-01,1.202200502157211304e-01,1.235095039010047913e-01,1.196477189660072327e-01,1.201401501893997192e-01,1.201479211449623108e-01,1.205701008439064026e-01,1.192533373832702637e-01,1.189427524805068970e-01,1.184509992599487305e-01,1.185124516487121582e-01,1.182872205972671509e-01,1.189859509468078613e-01,1.210200935602188110e-01,1.212016120553016663e-01,1.213776618242263794e-01,1.164039373397827148e-01,1.070235818624496460e-01,1.018840521574020386e-01,1.062095984816551208e-01,1.037369966506958008e-01,1.063537746667861938e-01,1.048879772424697876e-01,1.070693284273147583e-01,1.064010262489318848e-01,1.142764836549758911e-01,1.187014803290367126e-01,1.224202513694763184e-01,1.259716749191284180e-01,1.293538212776184082e-01,1.386869251728057861e-01,1.273146122694015503e-01,1.039379686117172241e-01,-7.562749087810516357e-02,-2.765251100063323975e-01,-5.110548138618469238e-01,-6.841102242469787598e-01,-9.713557958602905273e-01,-1.280123353004455566e+00,-1.519015789031982422e+00,-1.666407227516174316e+00,-1.757265329360961914e+00,-1.778274893760681152e+00,-1.721941232681274414e+00,-1.600750327110290527e+00,-1.453333139419555664e+00,-1.315157532691955566e+00,-1.196610212326049805e+00,-1.052225112915039062e+00,-9.362368583679199219e-01,-8.390773534774780273e-01,-7.685090303421020508e-01,-7.366629838943481445e-01,-7.279682755470275879e-01,-7.220980525016784668e-01,-7.204937338829040527e-01,-7.248794436454772949e-01,-7.357428073883056641e-01,-7.503457665443420410e-01,-7.682974338531494141e-01,-7.964479923248291016e-01,-8.415160179138183594e-01,-9.023865461349487305e-01,-9.815255999565124512e-01,-1.095448732376098633e+00,-1.275982260704040527e+00,-1.496264815330505371e+00,-1.741519331932067871e+00,-1.903408050537109375e+00,-1.924811720848083496e+00,-1.795591354370117188e+00,-1.566251873970031738e+00,-1.236243367195129395e+00,-8.740097284317016602e-01,-5.701223611831665039e-01,-3.397567570209503174e-01,-1.571422517299652100e-01,-3.939232602715492249e-02,4.658071324229240417e-02,8.916459977626800537e-02,1.148972958326339722e-01,1.210126131772994995e-01,1.289310455322265625e-01,1.331281810998916626e-01,1.362217962741851807e-01,1.301942169666290283e-01,1.286947429180145264e-01,1.209275498986244202e-01,1.181797832250595093e-01,1.163251847028732300e-01,1.149738058447837830e-01,1.146260499954223633e-01,1.140927076339721680e-01,1.128105074167251587e-01,1.131489127874374390e-01,1.113937944173812866e-01,1.115036159753799438e-01,1.090913787484169006e-01,1.072627305984497070e-01,1.145746707916259766e-01,1.145915761590003967e-01,1.165481358766555786e-01,1.179082542657852173e-01,1.187045425176620483e-01,1.226922124624252319e-01,1.259105056524276733e-01,1.286762654781341553e-01,1.262652873992919922e-01,1.217927187681198120e-01,1.234902888536453247e-01,1.282843351364135742e-01,1.298991739749908447e-01,1.280857622623443604e-01,1.274833828210830688e-01,1.256530433893203735e-01,1.237745657563209534e-01,1.193692535161972046e-01,1.219327077269554138e-01,1.256105005741119385e-01,1.287876665592193604e-01,1.273975968360900879e-01,1.279252022504806519e-01,1.266402751207351685e-01,1.244028657674789429e-01,1.219137683510780334e-01,1.286168992519378662e-01,1.360742449760437012e-01,1.449822485446929932e-01,1.484319120645523071e-01,1.513503789901733398e-01,1.317625939846038818e-01,1.060603260993957520e-01,4.994366317987442017e-02,-4.268541466444730759e-03
6.250045895576477051e-01,4.750706255435943604e-01,3.278425037860870361e-01,1.577197313308715820e-01,1.969059184193611145e-02,-1.102866679430007935e-01,-1.626840531826019287e-01,-9.726405143737792969e-02,-1.149482876062393188e-01,-1.507716923952102661e-01,-2.342413961887359619e-01,-3.346329331398010254e-01,-4.440066218376159668e-01,-5.783098340034484863e-01,-7.134614586830139160e-01,-8.372038602828979492e-01,-9.633863568305969238e-01,-1.059892416000366211e+00,-1.133724927902221680e+00,-1.203957557678222656e+00,-1.326654195785522461e+00,-1.466042518615722656e+00,-1.607509255409240723e+00,-1.757532119750976562e+00,-1.966756820678710938e+00,-2.179847717285156250e+00,-2.295827150344848633e+00,-2.414670467376708984e+00,-2.339438438415527344e+00,-2.060022354125976562e+00,-1.612233519554138184e+00,-1.278417468070983887e+00,-1.020689725875854492e+00,-7.266845703125000000e-01,-2.098410129547119141e-01,1.090448126196861267e-01,6.907770782709121704e-02,-3.053158521652221680e-01,-7.959218025207519531e-01,-1.078237652778625488e+00,-1.140006303787231445e+00,-1.040932893753051758e+00,-9.122923016548156738e-01,-7.906786799430847168e-01,-6.845026016235351562e-01,-6.819686293601989746e-01,-6.942369341850280762e-01,-7.211004495620727539e-01,-7.433927655220031738e-01,-7.745610475540161133e-01,-8.196935653686523438e-01,-8.534128069877624512e-01,-8.946472406387329102e-01,-9.306852221488952637e-01,-9.446951746940612793e-01,-9.572698473930358887e-01,-9.633080363273620605e-01,-9.665626287460327148e-01,-9.669116139411926270e-01,-9.667546153068542480e-01,-9.559335708618164062e-01,-9.572712779045104980e-01,-9.492023587226867676e-01,-9.347894787788391113e-01,-9.189748764038085938e-01,-9.099549055099487305e-01,-9.005106091499328613e-01,-8.921419382095336914e-01,-8.843601346015930176e-01,-8.842698931694030762e-01,-8.786279559135437012e-01,-8.809191584587097168e-01,-8.825027346611022949e-01,-8.750747442245483398e-01,-8.822846412658691406e-01,-8.817991018295288086e-01,-8.787625432014465332e-01,-8.717004060745239258e-01,-8.607284426689147949e-01,-8.483890295028686523e-01,-8.455171585083007812e-01,-8.305161595344543457e-01,-7.828550934791564941e-01,-6.921936273574829102e-01,-5.341108441352844238e-01,-3.129024505615234375e-01,-6.016004085540771484e-02,1.773546189069747925e-01,2.806341052055358887e-01,2.450672686100006104e-01,-3.660242632031440735e-02,-5.535082817077636719e-01,-1.134726524353027344e+00,-1.504982113838195801e+00,-1.496833801269531250e+00,-1.106527566909790039e+00,-5.580186843872070312e-01,-3.489817306399345398e-02,1.153763756155967712e-01,-1.622225791215896606e-01,-7.409843206405639648e-01,-1.389745354652404785e+00,-2.145244359970092773e+00,-2.625782966613769531e+00,-2.958201885223388672e+00,-2.870136499404907227e+00,-2.390538454055786133e+00,-1.779530525207519531e+00,-1.339747071266174316e+00,-9.913183450698852539e-01,-7.550964355468750000e-01,-4.860248565673828125e-01,-2.663857042789459229e-01,-8.827032148838043213e-02,6.580901890993118286e-02,2.173419296741485596e-01,3.582278788089752197e-01,4.817059934139251709e-01,5.901007652282714844e-01,6.363662481307983398e-01,6.382720470428466797e-01,6.143273711204528809e-01,5.752906799316406250e-01,5.184283852577209473e-01,4.665371775627136230e-01,4.001137614250183105e-01,4.181370735168457031e-01,4.673418104648590088e-01,5.553563237190246582e-01,6.252754926681518555e-01,6.768584251403808594e-01,7.023386955261230469e-01,7.166494131088256836e-01,7.194827198982238770e-01,7.190114259719848633e-01,7.183234691619873047e-01,7.195090055465698242e-01,7.205563187599182129e-01,7.230567336082458496e-01,7.303147315979003906e-01,7.400104403495788574e-01,7.391020655632019043e-01,6.379739046096801758e-01,5.096988677978515625e-01,4.126585125923156738e-01,4.490996003150939941e-01,6.680800914764404297e-01,7.432751655578613281e-01,9.071483612060546875e-01,1.048339009284973145e+00
-4.090114533901214600e-01,-4.153514504432678223e-01,-3.687162995338439941e-01,-3.048396110534667969e-01,-2.308091670274734497e-01,-1.762042492628097534e-01,-1.307543367147445679e-01,-1.343979090452194214e-01,-1.350616663694381714e-01,-1.482179313898086548e-01,-1.693831533193588257e-01,-1.841392219066619873e-01,-1.800377964973449707e-01,-1.784895658493041992e-01,-1.742997467517852783e-01,-1.667660325765609741e-01,-1.529291272163391113e-01,-1.260633766651153564e-01,-7.959841191768646240e-02,-1.429414004087448120e-02,8.432585000991821289e-02,2.199115753173828125e-01,4.270503520965576172e-01,7.164969444274902344e-01,1.031426787376403809e+00,1.111770868301391602e+00,1.032791495323181152e+00,8.679677844047546387e-01,6.785562634468078613e-01,1.706832647323608398e-01,-2.312104962766170502e-02,3.524355217814445496e-02,3.791203498840332031e-01,6.756153702735900879e-01,6.655684709548950195e-01,5.123888254165649414e-01,2.620452046394348145e-01,1.159658432006835938e-01,3.384716110303997993e-03,-1.127752289175987244e-01,-2.091764956712722778e-01,-2.865656018257141113e-01,-3.674873411655426025e-01,-3.474603593349456787e-01,-3.673468232154846191e-01,-3.609403669834136963e-01,-3.700866103172302246e-01,-3.497728705406188965e-01,-3.557654321193695068e-01,-3.537109494209289551e-01,-3.679697513580322266e-01,-3.700965046882629395e-01,-3.726980388164520264e-01,-3.805167078971862793e-01,-3.946210443973541260e-01,-4.078658521175384521e-01,-4.132665693759918213e-01,-4.118088185787200928e-01,-4.135280549526214600e-01,-4.098689556121826172e-01,-4.234038293361663818e-01,-4.266472458839416504e-01,-4.201039373874664307e-01,-4.253663420677185059e-01,-4.164935648441314697e-01,-4.233425557613372803e-01,-4.133017063140869141e-01,-4.171107709407806396e-01,-4.163911342620849609e-01,-4.294117093086242676e-01,-3.929082751274108887e-01,-4.014305174350738525e-01,-3.908556401729583740e-01,-3.759060502052307129e-01,-3.808445930480957031e-01,-3.819837570190429688e-01,-3.773722350597381592e-01,-3.869507014751434326e-01,-3.883879184722900391e-01,-3.888215720653533936e-01,-3.777558505535125732e-01,-3.741562068462371826e-01,-3.693062961101531982e-01,-3.646842837333679199e-01,-3.347820341587066650e-01,-3.445149064064025879e-01,-3.419623970985412598e-01,-3.417839705944061279e-01,-3.417889475822448730e-01,-3.487555086612701416e-01,-3.528062105178833008e-01,-3.425056934356689453e-01,-3.490633964538574219e-01,-3.635734319686889648e-01,-3.874645829200744629e-01,-3.844739794731140137e-01,-3.717370629310607910e-01,-3.520066738128662109e-01,-3.402142226696014404e-01,-3.101680874824523926e-01,-2.663008272647857666e-01,-1.935173422098159790e-01,-1.066517978906631470e-01,2.643763087689876556e-02,1.977577656507492065e-01,4.248984754085540771e-01,6.075537204742431641e-01,8.235641717910766602e-01,1.014022111892700195e+00,1.031499505043029785e+00,1.103426456451416016e+00,1.371482729911804199e+00,9.011804461479187012e-01,4.480365812778472900e-01,-1.586184836924076080e-02,-7.166965305805206299e-02,3.507575988769531250e-01,1.144420623779296875e+00,1.953139901161193848e+00,2.269384860992431641e+00,2.090465784072875977e+00,1.254995822906494141e+00,7.574080228805541992e-01,4.714475274085998535e-01,2.805162370204925537e-01,1.600937843322753906e-01,1.406953949481248856e-02,-8.863428980112075806e-02,-1.511090397834777832e-01,-1.743246167898178101e-01,-1.783829629421234131e-01,-1.804097890853881836e-01,-1.823579519987106323e-01,-1.850974857807159424e-01,-1.863367259502410889e-01,-1.893898546695709229e-01,-1.902436763048171997e-01,-1.924152076244354248e-01,-1.964452564716339111e-01,-2.028785496950149536e-01,-2.063791006803512573e-01,-2.021313011646270752e-01,-1.687530875205993652e-01,-1.118929237127304077e-01,-6.895194202661514282e-02,-7.337616384029388428e-02,-1.621281206607818604e-01,-2.117215096950531006e-01,-3.133303523063659668e-01,-3.960411548614501953e-01
