-1.808990910649299622e-02,-4.966057091951370239e-02,5.859800428152084351e-02,1.197677105665206909e-01,6.474819034337997437e-02,6.226481124758720398e-02,1.634244918823242188e-01,-4.575021192431449890e-02,1.763004809617996216e-01,9.084924310445785522e-02,6.827299296855926514e-02,-3.907000273466110229e-02,6.502547115087509155e-02,7.367264479398727417e-02,-2.966822311282157898e-02,5.571661051362752914e-03,1.949893534183502197e-01,-8.685741573572158813e-02,1.529819071292877197e-01,1.796534359455108643e-01,4.086614027619361877e-02,3.408536687493324280e-02,5.707918405532836914e-01,1.620610952377319336e-01,5.917080044746398926e-01,4.539921879768371582e-01,6.121277213096618652e-01,4.245134294033050537e-01,-8.234919607639312744e-02,-4.673244804143905640e-02,1.274328231811523438e-01,6.410230696201324463e-02,1.074373573064804077e-01,-1.107227429747581482e-01,5.312319844961166382e-02,1.897219866514205933e-01,-5.489588901400566101e-02,-1.027225032448768616e-01,1.269014924764633179e-01,-1.020410656929016113e-01,-5.352411419153213501e-02,1.013201028108596802e-01,1.159464865922927856e-01,8.442787826061248779e-02,6.668965518474578857e-02,-3.806477040052413940e-02,5.631489306688308716e-02,-3.978141397237777710e-02,7.523936033248901367e-02,7.145691663026809692e-03
1.639870740473270416e-02,4.375743120908737183e-02,-5.078117921948432922e-02,7.723523769527673721e-03,-8.791200071573257446e-02,3.451646491885185242e-02,-1.647580564022064209e-01,7.356899976730346680e-02,7.448108494281768799e-02,-7.498241961002349854e-02,-9.243161976337432861e-02,-1.456470787525177002e-01,1.331920921802520752e-01,9.826511144638061523e-03,-7.128922641277313232e-02,1.665546596050262451e-01,-1.375747472047805786e-01,-7.097734510898590088e-02,3.205968067049980164e-02,-1.440165489912033081e-01,1.595887094736099243e-01,1.129693165421485901e-01,7.122787237167358398e-01,6.405704617500305176e-01,6.085945963859558105e-01,3.764327466487884521e-01,5.025617480278015137e-01,4.292971491813659668e-01,2.075142040848731995e-02,-5.578072741627693176e-02,-1.223244890570640564e-01,4.155195876955986023e-02,9.051033109426498413e-02,-7.347138226032257080e-02,-7.030170410871505737e-02,1.550073027610778809e-01,2.432506904006004333e-02,-4.998862370848655701e-02,-7.397037744522094727e-02,2.910754084587097168e-02,-1.341178715229034424e-01,-4.300488904118537903e-02,1.731746196746826172e-01,4.843816906213760376e-02,-2.817918919026851654e-02,5.641220882534980774e-02,5.795359611511230469e-02,8.937373012304306030e-02,1.740751564502716064e-01,1.936141168698668480e-03
1.731265522539615631e-02,-3.711459785699844360e-02,2.126343175768852234e-02,7.251383271068334579e-03,1.343634445220232010e-02,-8.196912705898284912e-03,-4.265398904681205750e-02,3.923798911273479462e-03,-1.371916085481643677e-01,8.560444228351116180e-03,-9.974785149097442627e-02,-3.384182602167129517e-02,-3.270241618156433105e-02,4.842544719576835632e-02,-3.309563547372817993e-02,-2.067446708679199219e-02,-1.262340247631072998e-01,-3.180383890867233276e-02,9.001991897821426392e-02,-2.219025418162345886e-02,-7.020296901464462280e-02,2.390979789197444916e-02,4.608962535858154297e-01,3.095601201057434082e-01,6.766256093978881836e-01,4.732218682765960693e-01,2.284108102321624756e-01,6.139093041419982910e-01,7.939036935567855835e-02,1.097854152321815491e-01,-5.883787944912910461e-02,9.484858065843582153e-02,-1.254656910896301270e-02,-5.737514421343803406e-02,8.553729951381683350e-02,-1.491244286298751831e-01,4.489161819219589233e-02,-3.981951624155044556e-02,7.243306841701269150e-03,7.424875348806381226e-02,5.616972339339554310e-04,1.370463818311691284e-01,-8.041480928659439087e-02,3.620891273021697998e-02,-2.099401131272315979e-02,-2.970799244940280914e-02,3.209418058395385742e-02,-3.057633340358734131e-02,7.998542487621307373e-02,-2.757183276116847992e-02
7.962379604578018188e-02,-5.875752121210098267e-02,-1.184187382459640503e-01,2.569876909255981445e-01,-9.556089341640472412e-02,-9.528219699859619141e-02,-1.368534266948699951e-01,1.147403717041015625e-01,-1.812416613101959229e-01,-2.997316718101501465e-01,1.228153996635228395e-04,5.144821852445602417e-02,2.551240622997283936e-01,1.237339377403259277e-01,-2.556536793708801270e-01,6.008681841194629669e-03,-1.780108511447906494e-01,-5.360018014907836914e-01,-2.276990860700607300e-01,-2.389717400074005127e-01,6.196627616882324219e-01,-2.482970505952835083e-01,6.243195533752441406e+00,4.919033050537109375e+00,6.026084899902343750e+00,9.540570259094238281e+00,9.943521618843078613e-01,4.324516296386718750e+00,3.050027132034301758e+00,6.666854619979858398e-01,3.568837344646453857e-01,2.429506480693817139e-01,-1.513889729976654053e-01,2.407533228397369385e-01,-3.719345480203628540e-02,1.803937554359436035e-01,-1.842099428176879883e-02,4.692433029413223267e-02,-1.261073052883148193e-01,1.306199580430984497e-01,2.888827919960021973e-01,-6.981049478054046631e-02,-2.160543501377105713e-01,-8.470969647169113159e-02,2.295335829257965088e-01,1.233984082937240601e-01,-3.134504705667495728e-02,1.187890768051147461e-01,-7.102058082818984985e-02,8.042633533477783203e-02
-5.109139159321784973e-02,1.024152040481567383e-01,-7.271979120559990406e-04,1.641420125961303711e-01,-2.780620157718658447e-01,1.500520259141921997e-01,3.068191111087799072e-01,-5.593347549438476562e-02,-5.977349355816841125e-02,4.026877693831920624e-03,2.288289368152618408e-01,6.405703723430633545e-02,-1.924512386322021484e-01,1.090637817978858948e-01,-1.800676882266998291e-01,-6.269843131303787231e-02,-2.542920708656311035e-01,-3.183730542659759521e-01,7.752417027950286865e-02,2.650278508663177490e-01,3.423402905464172363e-01,3.087115883827209473e-01,7.633594274520874023e-01,1.828949213027954102e+00,1.550429940223693848e+00,9.991886019706726074e-01,2.192524433135986328e+00,1.137234926223754883e+00,-4.512154161930084229e-01,2.279410660266876221e-01,-1.742359995841979980e-01,6.474023312330245972e-02,2.604423835873603821e-02,-1.171303540468215942e-01,-1.410551816225051880e-01,-1.345655620098114014e-01,-1.500200629234313965e-01,-6.225000834092497826e-04,-1.021509394049644470e-01,-2.028266936540603638e-01,2.402725666761398315e-01,-4.737497307360172272e-03,-6.559903919696807861e-02,-2.158841341733932495e-01,-3.842289745807647705e-02,-1.535939425230026245e-01,-7.702463865280151367e-02,-5.045254155993461609e-02,-3.927291184663772583e-02,1.132917851209640503e-01
0.000000000000000000e+00,0.000000000000000000e+00,0.000000000000000000e+00,0.000000000000000000e+00,0.000000000000000000e+00,0.000000000000000000e+00,0.000000000000000000e+00,0.000000000000000000e+00,0.000000000000000000e+00,0.000000000000000000e+00,0.000000000000000000e+00,0.000000000000000000e+00,0.000000000000000000e+00,0.000000000000000000e+00,0.000000000000000000e+00,0.000000000000000000e+00,0.000000000000000000e+00,0.000000000000000000e+00,0.000000000000000000e+00,0.000000000000000000e+00,0.000000000000000000e+00,0.000000000000000000e+00,0.000000000000000000e+00,0.000000000000000000e+00,0.000000000000000000e+00,0.000000000000000000e+00,0.000000000000000000e+00,0.000000000000000000e+00,0.000000000000000000e+00,0.000000000000000000e+00,0.000000000000000000e+00,0.000000000000000000e+00,0.000000000000000000e+00,0.000000000000000000e+00,0.000000000000000000e+00,0.000000000000000000e+00,0.000000000000000000e+00,0.000000000000000000e+00,0.000000000000000000e+00,0.000000000000000000e+00,0.000000000000000000e+00,0.000000000000000000e+00,0.000000000000000000e+00,0.000000000000000000e+00,0.000000000000000000e+00,0.000000000000000000e+00,0.000000000000000000e+00,0.000000000000000000e+00,0.000000000000000000e+00,0.000000000000000000e+00
-2.432236075401306152e-02,1.635446250438690186e-01,-2.556447684764862061e-01,-1.261793524026870728e-01,-4.985740780830383301e-01,1.752709001302719116e-01,2.039270699024200439e-01,2.813206017017364502e-01,-6.998191028833389282e-02,6.279824674129486084e-02,-2.728502154350280762e-01,-3.800774216651916504e-01,1.562891900539398193e-01,3.739649057388305664e-01,-2.551200985908508301e-01,-1.823459938168525696e-02,1.512392424046993256e-02,-8.352545648813247681e-02,-4.840203821659088135e-01,3.917063176631927490e-01,4.560249447822570801e-01,1.550645947456359863e+00,8.642310142517089844e+00,1.315849494934082031e+01,6.488118171691894531e+00,1.435236167907714844e+01,1.460991859436035156e+01,1.455617237091064453e+01,1.225089788436889648e+00,1.384205698966979980e+00,6.375259757041931152e-01,-3.479703068733215332e-01,-3.060424923896789551e-01,7.322429418563842773e-01,1.027687788009643555e-01,2.692187726497650146e-01,1.368152201175689697e-01,-9.960734099149703979e-02,-3.600005805492401123e-01,-1.352203488349914551e-01,-1.112920790910720825e-02,1.882415711879730225e-01,-1.711216270923614502e-01,4.516682028770446777e-02,-3.461689502000808716e-02,5.111106485128402710e-02,1.893116682767868042e-01,-2.154545783996582031e-01,-1.355528831481933594e-01,-1.727656424045562744e-01
8.375257253646850586e-02,2.365157380700111389e-02,-1.031861677765846252e-01,-1.070561856031417847e-01,7.774643599987030029e-02,-2.958524823188781738e-01,-1.820465773344039917e-01,-8.677233755588531494e-02,-1.758724302053451538e-01,2.484525442123413086e-01,1.164464130997657776e-01,-3.929421305656433105e-02,3.253244236111640930e-02,-2.372165471315383911e-01,9.676234424114227295e-02,1.733274161815643311e-01,8.106352388858795166e-02,2.741096913814544678e-01,2.416953593492507935e-01,3.633221238851547241e-02,6.936396658420562744e-02,-2.571406364440917969e-01,1.274335145950317383e+00,5.207408666610717773e-01,3.089210689067840576e-01,9.041491746902465820e-01,3.040638267993927002e-01,8.117815256118774414e-01,2.838883101940155029e-01,4.842131137847900391e-01,1.460829973220825195e-01,-2.328990995883941650e-01,1.114635691046714783e-01,-2.103047445416450500e-02,-1.362208276987075806e-01,2.549995481967926025e-01,-5.458234995603561401e-02,2.551489174365997314e-01,1.191697083413600922e-02,-3.160868287086486816e-01,-2.812280654907226562e-01,-9.510599076747894287e-02,-3.856416791677474976e-02,7.429983466863632202e-02,2.692527770996093750e-01,-1.082806810736656189e-01,-2.803927063941955566e-01,1.518990099430084229e-01,2.035106867551803589e-01,7.593065500259399414e-02
-4.693689942359924316e-02,8.819755166769027710e-03,2.884063497185707092e-02,-1.675076037645339966e-01,3.014319576323032379e-02,3.126405552029609680e-02,6.459280848503112793e-03,2.893615700304508209e-02,2.042329311370849609e-01,-5.358410999178886414e-02,2.545551359653472900e-01,-1.644067168235778809e-01,-6.643597036600112915e-02,4.271281510591506958e-02,-1.358173042535781860e-01,8.841484086588025093e-04,1.054494231939315796e-01,3.155240043997764587e-02,9.383605420589447021e-02,4.435840249061584473e-02,-2.674116194248199463e-01,-1.653515845537185669e-01,5.698815584182739258e-01,1.162259101867675781e+00,7.120267152786254883e-01,7.662675976753234863e-01,1.266651988029479980e+00,4.591372609138488770e-01,2.715230546891689301e-02,6.600816547870635986e-02,-1.909241378307342529e-01,-2.576397731900215149e-02,5.394206382334232330e-03,1.672558039426803589e-01,8.541901409626007080e-02,-1.037754639983177185e-01,-1.036943942308425903e-01,1.961717940866947174e-02,1.714239595457911491e-03,4.814304783940315247e-02,1.190604194998741150e-01,-1.873918081400915980e-04,8.606898784637451172e-02,1.150090545415878296e-01,-9.239898622035980225e-02,-2.003028430044651031e-02,-6.375262048095464706e-03,-1.568275131285190582e-02,5.093852430582046509e-02,9.664078801870346069e-02
1.902126334607601166e-02,-1.227780729532241821e-01,6.367500126361846924e-02,-7.117960602045059204e-02,-6.587366759777069092e-02,1.329162437468767166e-02,7.528895884752273560e-02,-1.323748528957366943e-01,-1.472055017948150635e-01,1.654084324836730957e-01,-2.270092666149139404e-01,1.082708090543746948e-01,-2.163566462695598602e-02,1.769799292087554932e-01,-7.899860292673110962e-02,1.209085211157798767e-01,-2.527954578399658203e-01,1.153624504804611206e-01,1.072781309485435486e-01,-3.537063598632812500e-01,2.946700155735015869e-01,3.399738669395446777e-01,3.468767106533050537e-01,5.569142103195190430e-01,8.417180776596069336e-01,1.452946424484252930e+00,7.217064499855041504e-01,1.831359505653381348e+00,1.541266739368438721e-01,-2.111264765262603760e-01,2.969985641539096832e-02,-1.829116195440292358e-01,3.599557280540466309e-01,-2.225326746702194214e-01,3.423659130930900574e-02,-5.722951889038085938e-02,-5.406527593731880188e-02,3.828311339020729065e-02,-1.758415997028350830e-01,3.354609012603759766e-01,-2.496681213378906250e-01,1.590225994586944580e-01,1.858127862215042114e-02,-1.095004305243492126e-01,3.949769586324691772e-02,-2.162634432315826416e-01,-9.579294919967651367e-02,2.196853235363960266e-02,9.969119727611541748e-02,8.020992577075958252e-02
-1.366349169984459877e-03,2.637453004717826843e-02,5.841251462697982788e-02,-6.186237931251525879e-02,-1.232688426971435547e-01,-8.375862985849380493e-02,2.922707237303256989e-02,-2.420423924922943115e-01,2.708989940583705902e-02,-4.397134110331535339e-02,-1.679207533597946167e-01,-1.536240875720977783e-01,-6.032109260559082031e-02,-6.457268027588725090e-04,1.204587239772081375e-02,2.317177318036556244e-02,-1.925445534288883209e-02,-1.924822852015495300e-02,-8.160203695297241211e-02,3.392292931675910950e-02,-4.670218378305435181e-02,-7.997034490108489990e-02,3.613342642784118652e-01,6.687967479228973389e-02,3.229093253612518311e-01,3.905992805957794189e-01,3.206915855407714844e-01,4.612973332405090332e-01,-9.798023849725723267e-03,-1.033307332545518875e-02,6.366376765072345734e-03,6.689619272947311401e-02,6.850545294582843781e-03,1.539039611816406250e-02,4.511842876672744751e-02,-9.110690653324127197e-02,-1.592220366001129150e-01,9.644101560115814209e-02,4.799044877290725708e-02,9.922395646572113037e-02,8.282454684376716614e-03,1.082134991884231567e-01,-4.495323635637760162e-03,-1.449587792158126831e-01,1.707734167575836182e-02,7.121869921684265137e-02,-2.732930146157741547e-02,-1.073913574218750000e-01,-8.995691314339637756e-03,1.569144055247306824e-02
-1.283434312790632248e-02,7.805402576923370361e-02,4.732269048690795898e-02,-8.208431303501129150e-03,8.497802168130874634e-02,5.791149288415908813e-02,1.568516939878463745e-01,-8.338036388158798218e-02,1.423631459474563599e-01,-2.012600004673004150e-01,-1.373036503791809082e-01,-2.588508427143096924e-01,-1.278584003448486328e-01,7.116392999887466431e-02,-3.314747214317321777e-01,3.555411696434020996e-01,-1.298993229866027832e+00,2.269933559000492096e-02,1.749423742294311523e-01,-2.861493229866027832e-01,-7.480285763740539551e-01,-1.347496271133422852e+00,6.557167053222656250e+00,4.101273536682128906e+00,1.010967254638671875e+01,1.146389579772949219e+01,1.408689880371093750e+01,8.689229965209960938e+00,7.261427640914916992e-01,2.444812297821044922e+00,6.665614247322082520e-01,3.239232897758483887e-01,7.962743043899536133e-01,-4.674777984619140625e-01,-1.317340433597564697e-01,2.828366495668888092e-02,7.007275521755218506e-02,1.172069758176803589e-01,-7.368566840887069702e-02,2.091376855969429016e-02,-1.088143140077590942e-01,-1.467679627239704132e-02,-9.717505425214767456e-02,-1.833933591842651367e-01,1.880520582199096680e-01,-1.109507307410240173e-01,-1.549060083925724030e-02,2.760529145598411560e-02,5.629982799291610718e-02,9.727964177727699280e-03
-2.354598604142665863e-02,-7.907075434923171997e-02,-3.308834880590438843e-02,-1.965883560478687286e-02,7.892215251922607422e-02,5.038033798336982727e-02,6.076250225305557251e-02,3.070549108088016510e-02,1.220915466547012329e-02,1.622275635600090027e-02,-5.791188403964042664e-02,-1.655626110732555389e-02,-9.112495183944702148e-02,-6.254692375659942627e-02,3.951761871576309204e-02,6.351947039365768433e-02,-1.283532660454511642e-02,-5.030033737421035767e-02,-1.261576414108276367e-01,1.536096185445785522e-01,-3.966815769672393799e-02,3.420933336019515991e-02,3.275132775306701660e-01,5.045329928398132324e-01,7.375376820564270020e-01,3.696821630001068115e-01,5.288648605346679688e-01,2.729234099388122559e-01,-1.224805600941181183e-02,-5.383070558309555054e-03,1.409862786531448364e-01,-1.539628207683563232e-02,1.165759786963462830e-01,1.352485734969377518e-02,9.668792784214019775e-02,2.491066902875900269e-01,-3.003860637545585632e-02,-6.888693571090698242e-02,-1.191900372505187988e-01,-6.563725322484970093e-02,7.916285097599029541e-02,-2.231515385210514069e-02,-4.651852697134017944e-02,-4.446861147880554199e-02,-4.517035931348800659e-02,-8.396057784557342529e-02,4.078774712979793549e-03,-9.791372716426849365e-02,-6.574112176895141602e-02,8.675497770309448242e-02
-3.422648459672927856e-02,-1.614786125719547272e-02,-6.759621948003768921e-02,-2.905431948602199554e-02,4.492373019456863403e-02,-1.347904186695814133e-02,-7.390866428613662720e-02,-1.809472963213920593e-02,-4.368773102760314941e-02,8.645880967378616333e-02,3.214796259999275208e-02,2.991270460188388824e-02,-1.284275352954864502e-01,-1.051457896828651428e-01,-3.571856915950775146e-01,7.525444775819778442e-02,-9.776760935783386230e-01,-1.322549819946289062e+00,-2.799763903021812439e-02,-3.813609480857849121e-01,4.198490679264068604e-01,1.443155050277709961e+00,3.117707490921020508e+00,5.448181152343750000e+00,8.067361831665039062e+00,4.290422916412353516e+00,4.012122631072998047e+00,2.174346685409545898e+00,3.923045694828033447e-01,1.099502854049205780e-02,9.235783666372299194e-02,-3.677552342414855957e-01,-4.905486106872558594e-02,-1.785993129014968872e-01,1.995872557163238525e-01,-7.911978662014007568e-02,1.508221626281738281e-01,-1.711929738521575928e-01,-6.174410693347454071e-03,-2.825335599482059479e-02,1.444487739354372025e-02,7.502026110887527466e-02,-1.383947879076004028e-01,-1.296323090791702271e-01,2.873084507882595062e-02,2.471699006855487823e-02,1.367729902267456055e-02,-4.210367053747177124e-02,-2.610516920685768127e-02,-5.701408535242080688e-02
-3.366846591234207153e-02,-2.567009255290031433e-02,-2.262264117598533630e-02,-1.812462881207466125e-02,-2.913697622716426849e-02,5.745263025164604187e-02,6.507738679647445679e-02,-2.288481965661048889e-02,-2.155700325965881348e-02,-8.485177531838417053e-03,3.394115716218948364e-02,-9.901123121380805969e-03,-1.474606096744537354e-01,-2.672580257058143616e-02,-4.669712856411933899e-02,-5.686636082828044891e-03,-2.218350172042846680e-01,1.330418139696121216e-01,4.475703462958335876e-02,-1.229151248931884766e+00,9.685130417346954346e-02,1.273967504501342773e+00,3.661592483520507812e+00,4.660397529602050781e+00,6.846607208251953125e+00,8.174015998840332031e+00,3.351073026657104492e+00,4.879463195800781250e+00,1.758808940649032593e-01,3.355651795864105225e-01,-3.334907442331314087e-02,-7.980225980281829834e-02,-1.549948453903198242e-01,4.283266142010688782e-02,-3.654066473245620728e-02,-3.006677329540252686e-02,-2.289222180843353271e-02,1.497811079025268555e-02,-2.698369883000850677e-02,6.241685152053833008e-02,5.706644058227539062e-02,-5.080964416265487671e-02,-3.529803827404975891e-02,-8.990683592855930328e-03,-4.409548267722129822e-02,-7.604496087878942490e-03,-7.299684733152389526e-02,3.603425621986389160e-02,-1.204352546483278275e-02,-2.048975293291732669e-04
3.204631432890892029e-02,3.838299587368965149e-02,3.943236079066991806e-03,-4.555068165063858032e-02,1.934363320469856262e-02,-6.987098604440689087e-02,3.456385806202888489e-02,-4.116813093423843384e-02,-2.593077160418033600e-02,3.418894857168197632e-02,-4.732289910316467285e-02,-1.095149852335453033e-02,-6.313937902450561523e-02,3.639084845781326294e-02,-1.013713702559471130e-01,2.964537963271141052e-02,2.599008381366729736e-02,-3.355069458484649658e-02,-1.672004349529743195e-02,4.417552053928375244e-02,-2.992105856537818909e-02,-2.611939050257205963e-02,2.145400494337081909e-01,1.279413104057312012e-01,1.877891570329666138e-01,2.032855749130249023e-01,8.674787729978561401e-02,1.033239141106605530e-01,-6.051721051335334778e-02,5.044139549136161804e-02,8.745788037776947021e-02,5.781542137265205383e-02,-3.375895693898200989e-02,-4.667352885007858276e-02,2.256806753575801849e-02,5.491869989782571793e-03,1.017707213759422302e-02,-2.873549424111843109e-02,-6.278024520725011826e-03,1.019150856882333755e-02,-2.482911571860313416e-02,-3.713711351156234741e-02,4.941856488585472107e-02,-5.153612233698368073e-03,4.301007837057113647e-02,6.839607656002044678e-02,4.504932090640068054e-02,4.186436161398887634e-02,1.652604900300502777e-02,-9.573620744049549103e-03
1.646559312939643860e-02,3.232156112790107727e-02,-7.880906015634536743e-02,-9.827834367752075195e-02,-3.659866005182266235e-02,-1.191236972808837891e-01,4.984708502888679504e-02,-1.040699705481529236e-02,-2.059261128306388855e-02,2.677340805530548096e-02,-1.461737137287855148e-02,-2.446010336279869080e-02,4.075899778399616480e-04,1.136361854150891304e-03,-8.812505006790161133e-02,-1.218816637992858887e-02,-4.451495187822729349e-04,-1.594454050064086914e-01,2.172553911805152893e-02,8.318908512592315674e-02,-9.208770096302032471e-02,-6.277082115411758423e-02,1.099154233932495117e+00,1.020274639129638672e+00,7.814338803291320801e-01,7.119122743606567383e-01,6.383140683174133301e-01,4.293687939643859863e-01,-7.606867700815200806e-02,-1.453795135021209717e-01,-2.282510995864868164e-01,1.545515377074480057e-02,4.296044260263442993e-02,1.541712582111358643e-01,-6.035225838422775269e-02,-8.233200758695602417e-02,-9.294820576906204224e-02,-1.749739944934844971e-01,-7.012297958135604858e-02,-4.827728867530822754e-02,1.423147618770599365e-01,-2.835323214530944824e-01,-5.660163238644599915e-02,2.322974242269992828e-02,1.107946038246154785e-01,6.404908746480941772e-02,-8.181234449148178101e-02,8.543847128748893738e-03,1.152416877448558807e-02,5.355869606137275696e-02
-6.141489744186401367e-02,1.530830282717943192e-02,6.753884255886077881e-02,-2.420631982386112213e-02,-1.080217584967613220e-01,2.165983058512210846e-02,2.827045973390340805e-03,8.733627945184707642e-02,-1.208204478025436401e-01,9.027007967233657837e-03,3.331942111253738403e-02,4.218108952045440674e-02,-2.474298514425754547e-02,5.714834854006767273e-02,-7.082178443670272827e-02,3.776330500841140747e-03,1.717019826173782349e-01,7.442920003086328506e-03,7.488930225372314453e-02,1.680644750595092773e-01,8.704429492354393005e-03,1.170152649283409119e-01,2.367439568042755127e-01,6.489713788032531738e-01,9.255515933036804199e-01,6.153600811958312988e-01,9.545255899429321289e-01,4.471505582332611084e-01,1.188631504774093628e-01,-8.957628160715103149e-02,-1.451039016246795654e-01,-5.437248386442661285e-03,1.042231544852256775e-01,4.314147680997848511e-02,9.913115762174129486e-03,-6.879149377346038818e-02,1.515882164239883423e-01,-4.504611343145370483e-02,2.163751572370529175e-01,-3.657095506787300110e-02,-1.115438900887966156e-02,1.212865859270095825e-02,1.389043312519788742e-02,2.083796821534633636e-02,-5.224542692303657532e-02,1.453780680894851685e-01,-2.167060226202011108e-02,-5.358848720788955688e-02,-3.903347998857498169e-02,7.426863163709640503e-02
6.844135466963052750e-03,2.039370883721858263e-04,-5.816940590739250183e-02,-1.055267229676246643e-01,-1.090241298079490662e-01,-9.304858744144439697e-02,8.704444766044616699e-02,-2.492244169116020203e-02,-4.858062416315078735e-02,1.248147245496511459e-02,3.159814700484275818e-02,9.671740233898162842e-02,1.175636425614356995e-01,-4.990739375352859497e-02,-6.899751722812652588e-02,-2.886297106742858887e-01,-1.998628675937652588e-01,-4.324832558631896973e-02,4.520378112792968750e-01,3.507757186889648438e-01,2.176496088504791260e-01,2.497669756412506104e-01,1.527649641036987305e+00,1.629791975021362305e+00,1.080414175987243652e+00,8.671308755874633789e-01,7.867652773857116699e-01,1.510737538337707520e+00,-3.013100028038024902e-01,-1.440544873476028442e-01,4.947076737880706787e-01,-1.038527116179466248e-01,5.000314861536026001e-02,-5.426164716482162476e-02,-3.546726703643798828e-02,-8.078000694513320923e-02,5.180846527218818665e-02,-5.906867329031229019e-03,-8.942835032939910889e-02,-1.527343839406967163e-01,3.852976858615875244e-02,-1.548564732074737549e-01,-5.081493780016899109e-02,-6.223928928375244141e-02,-2.356792986392974854e-02,5.507666617631912231e-02,2.076579071581363678e-02,-3.961988538503646851e-02,-6.945706158876419067e-02,-4.162491299211978912e-03
-3.424583002924919128e-03,2.188505791127681732e-02,-7.619085721671581268e-03,-1.075888648629188538e-01,4.565993323922157288e-03,-3.992652893066406250e-02,1.500574201345443726e-01,-1.097726821899414062e-01,2.124577388167381287e-02,-1.086655035614967346e-01,4.227296635508537292e-02,-9.809856116771697998e-02,3.993292525410652161e-02,-5.019223783165216446e-03,8.060944080352783203e-02,1.057822927832603455e-01,9.274359792470932007e-02,-1.024418622255325317e-01,-8.207159489393234253e-02,-7.174636423587799072e-02,2.225696295499801636e-02,-7.795623689889907837e-02,5.448213815689086914e-01,6.075850725173950195e-01,8.496807217597961426e-01,5.581874251365661621e-01,1.126657485961914062e+00,1.078152060508728027e+00,-3.578235507011413574e-01,3.173461556434631348e-02,9.535983949899673462e-02,9.927447885274887085e-02,7.120676338672637939e-02,-7.814624160528182983e-02,1.143021276220679283e-03,4.666341096162796021e-02,-9.628282487392425537e-02,5.505373235791921616e-03,-1.641680747270584106e-01,6.509655714035034180e-02,-6.321065127849578857e-02,-2.157377777621150017e-03,5.764255672693252563e-02,-5.948454886674880981e-02,-1.353184729814529419e-01,2.354540079832077026e-01,4.626433178782463074e-02,8.624391630291938782e-03,-5.466669797897338867e-02,-5.662443488836288452e-02
3.553629294037818909e-02,-9.621702134609222412e-02,-2.528206631541252136e-02,9.217751026153564453e-02,4.665232449769973755e-02,1.595812141895294189e-01,-7.640346139669418335e-02,-1.416491568088531494e-01,-1.079239845275878906e-01,1.827312260866165161e-01,-9.185285866260528564e-02,8.257224410772323608e-02,2.404052317142486572e-01,9.588646888732910156e-02,4.452645033597946167e-02,-2.716959686949849129e-03,-6.768903881311416626e-02,1.904195845127105713e-01,4.892182946205139160e-01,1.836635172367095947e-01,-1.594887822866439819e-01,-2.056650817394256592e-01,5.081967353820800781e+00,3.913123369216918945e+00,4.242511272430419922e+00,4.959238529205322266e+00,2.466431140899658203e+00,3.935417890548706055e+00,-2.531198859214782715e-01,-7.601804137229919434e-01,-3.742311894893646240e-01,-7.563072443008422852e-02,-2.107892185449600220e-02,-9.556074440479278564e-02,3.565579056739807129e-01,-3.511428460478782654e-02,-1.644450128078460693e-01,-6.250423192977905273e-02,1.197308450937271118e-01,-9.879199415445327759e-02,-1.187722459435462952e-01,-5.164737626910209656e-02,2.419894486665725708e-01,-7.628601789474487305e-02,-3.644807636737823486e-01,6.554401014000177383e-03,4.311028867959976196e-02,5.016431212425231934e-02,-5.265200138092041016e-02,-1.097921840846538544e-02
4.661690071225166321e-02,-6.192343775182962418e-03,9.197413921356201172e-02,-7.443501055240631104e-02,-6.292335689067840576e-02,-9.203734248876571655e-02,-2.925585582852363586e-02,9.647839702665805817e-03,1.203033179044723511e-01,7.045390456914901733e-02,1.139881387352943420e-01,7.500384747982025146e-02,8.165220916271209717e-02,-2.280499935150146484e-01,1.163689121603965759e-01,1.117794662714004517e-01,4.429184645414352417e-02,-5.155366659164428711e-01,-1.173236519098281860e-01,-3.210686743259429932e-01,8.704687952995300293e-01,-1.779882073402404785e+00,2.905276060104370117e+00,1.139933586120605469e+01,1.373566627502441406e+01,9.817504882812500000e+00,9.357770919799804688e+00,4.323299884796142578e+00,-9.411756182089447975e-04,-1.610445976257324219e+00,7.781161069869995117e-01,7.780504971742630005e-02,4.601839557290077209e-02,-6.685542315244674683e-02,-7.258308585733175278e-03,-4.132330790162086487e-02,-1.612439751625061035e-01,-1.585647016763687134e-01,4.195884242653846741e-02,-5.548167228698730469e-02,-6.542227417230606079e-02,-1.016679406166076660e-01,1.539101898670196533e-01,-2.513376995921134949e-02,-1.412683445960283279e-02,9.002564102411270142e-02,7.981697097420692444e-03,3.179743885993957520e-02,-2.129403688013553619e-02,3.478415682911872864e-02
-3.526126220822334290e-02,8.817914128303527832e-02,-2.048721723258495331e-02,4.825150221586227417e-02,1.913853585720062256e-01,3.670114576816558838e-01,-3.592363744974136353e-02,1.176266521215438843e-01,2.437441349029541016e-01,-2.611249089241027832e-01,1.390815824270248413e-01,-6.192221119999885559e-02,2.060716897249221802e-01,1.601127982139587402e-01,2.492737323045730591e-01,3.487653285264968872e-02,-2.210909128189086914e-01,-2.353691756725311279e-01,1.409578323364257812e-02,2.994162440299987793e-01,-2.047044783830642700e-01,2.376970052719116211e-01,9.543498158454895020e-01,6.451433897018432617e-01,9.668965339660644531e-01,1.676420927047729492e+00,1.509897708892822266e+00,2.162637472152709961e+00,-4.314413666725158691e-01,2.648231685161590576e-01,-1.327596902847290039e-01,1.689080893993377686e-01,-1.914487183094024658e-01,-1.425307691097259521e-01,-4.726926796138286591e-03,1.388625800609588623e-01,1.425653845071792603e-01,3.437242507934570312e-01,-4.306691512465476990e-02,3.118123114109039307e-01,-1.692645251750946045e-01,9.728739038109779358e-03,1.407518535852432251e-01,1.657957285642623901e-01,2.710857987403869629e-02,-1.739846467971801758e-01,5.517097562551498413e-02,-2.593318000435829163e-02,1.862969100475311279e-01,5.267050117254257202e-02
1.318904608488082886e-01,7.410995662212371826e-02,4.919762257486581802e-03,-1.748458296060562134e-01,1.694126576185226440e-01,8.377870544791221619e-03,4.943398758769035339e-02,4.443458467721939087e-02,3.613150864839553833e-02,-2.463986165821552277e-02,-1.750387251377105713e-01,-1.928068101406097412e-01,1.132838428020477295e-02,1.078343167901039124e-01,-6.946007609367370605e-01,-4.880825430154800415e-02,-4.516783654689788818e-01,-7.104445695877075195e-01,3.295296430587768555e-01,-1.322589039802551270e+00,-2.302496194839477539e+00,-1.668139696121215820e+00,1.077850151062011719e+01,1.113171577453613281e+01,1.936001014709472656e+01,3.014975070953369141e+00,1.617536354064941406e+01,1.045804023742675781e+01,8.651353120803833008e-01,8.571354150772094727e-01,3.822413086891174316e-01,2.392749041318893433e-01,-4.118106365203857422e-01,-2.902875244617462158e-01,7.073089480400085449e-01,-1.003537923097610474e-01,5.837254598736763000e-02,1.430600434541702271e-01,4.548930749297142029e-02,-1.836953908205032349e-01,3.980494290590286255e-02,1.399223059415817261e-01,-1.160749569535255432e-01,1.221212521195411682e-01,-7.481829822063446045e-02,2.816437482833862305e-01,6.237353011965751648e-02,1.624951884150505066e-02,-7.506812922656536102e-03,-1.101237088441848755e-01
2.526438236236572266e-02,-1.403122246265411377e-01,1.431939303874969482e-01,-2.476992644369602203e-02,-8.413872681558132172e-03,-1.618530750274658203e-01,-1.104520782828330994e-01,7.433003187179565430e-02,-8.558700233697891235e-02,3.317008540034294128e-02,1.371316313743591309e-01,1.165960580110549927e-01,-3.929203152656555176e-01,-2.179510146379470825e-01,2.441853731870651245e-01,1.861746907234191895e-01,-8.614142239093780518e-02,-5.609902143478393555e-01,-3.248710632324218750e+00,-4.168091714382171631e-01,-2.586815953254699707e-01,1.049177885055541992e+00,1.522336769104003906e+01,1.643529510498046875e+01,2.653206825256347656e+01,2.252944946289062500e+01,2.230833053588867188e+01,1.110266685485839844e+01,-2.340840101242065430e-01,-9.654393196105957031e-01,-4.800227582454681396e-01,-2.646821141242980957e-01,-1.828477978706359863e-01,2.855288088321685791e-01,-1.618705540895462036e-01,5.519086867570877075e-02,-1.451527178287506104e-01,2.548693716526031494e-01,5.046964883804321289e-01,-3.637785315513610840e-01,-5.293998122215270996e-02,-2.024007588624954224e-01,-4.564000964164733887e-01,-7.852850854396820068e-02,-5.213616043329238892e-02,-1.023098975419998169e-01,-3.758044168353080750e-02,-5.899316631257534027e-03,1.112663522362709045e-01,7.646975573152303696e-03
1.656076610088348389e-01,-4.380588233470916748e-02,-1.168652176856994629e-01,-1.271386891603469849e-01,1.621008813381195068e-01,1.195104941725730896e-01,1.381051391363143921e-01,1.407797783613204956e-01,-3.918435424566268921e-02,8.221442252397537231e-02,5.391324311494827271e-02,-1.865163743495941162e-01,-1.416272073984146118e-01,3.022267296910285950e-02,-2.903806567192077637e-01,-1.880905330181121826e-01,-2.581337094306945801e-01,-4.376635700464248657e-02,-1.204749494791030884e-01,3.069890737533569336e-01,3.506768941879272461e-01,-4.711036104708909988e-03,1.066245675086975098e+00,1.098206281661987305e+00,6.120717525482177734e-01,1.214351415634155273e+00,1.352411627769470215e+00,1.158591628074645996e+00,1.549194604158401489e-01,-1.402884423732757568e-01,1.502609252929687500e-01,-2.141441404819488525e-02,2.208042889833450317e-01,-1.958601921796798706e-01,-3.142074868083000183e-02,-2.249884605407714844e-01,5.228802561759948730e-02,9.231010824441909790e-02,1.053467020392417908e-01,1.666950806975364685e-02,-1.220068484544754028e-01,9.488650411367416382e-02,9.893546253442764282e-02,-9.572217240929603577e-03,-7.655163109302520752e-02,-1.530090570449829102e-01,1.608237773180007935e-01,7.247354090213775635e-02,9.224984794855117798e-02,8.049879968166351318e-02
4.785222560167312622e-02,-9.661635383963584900e-03,-3.641184046864509583e-02,-3.042561188340187073e-02,-1.168019417673349380e-02,-1.895671524107456207e-02,-1.048037856817245483e-01,3.133031772449612617e-03,-1.758458092808723450e-02,-1.502520032227039337e-02,8.242000825703144073e-03,4.557120054960250854e-02,1.171957403421401978e-01,1.311120688915252686e-01,-2.573501467704772949e-01,7.715445011854171753e-02,1.591024361550807953e-02,-9.055184572935104370e-02,4.834449291229248047e-01,-6.526466012001037598e-01,-5.141097586601972580e-03,1.585762143135070801e+00,7.342095851898193359e+00,5.381863594055175781e+00,4.441378593444824219e+00,3.518225908279418945e+00,6.742891788482666016e+00,6.266034126281738281e+00,1.080280184745788574e+00,-6.483310461044311523e-01,2.741736173629760742e-01,1.822644621133804321e-01,-9.453954547643661499e-02,-1.101303100585937500e-01,-1.405527740716934204e-01,-4.621047526597976685e-02,4.731643572449684143e-02,3.589666634798049927e-02,1.589855365455150604e-02,7.070608437061309814e-02,-5.542168393731117249e-03,6.993226706981658936e-02,8.931861072778701782e-02,8.550094068050384521e-02,3.329754248261451721e-02,3.151535522192716599e-03,2.042751573026180267e-02,-1.715360023081302643e-02,-4.127783700823783875e-02,-8.629866875708103180e-03
1.142655732110142708e-03,2.514331974089145660e-02,6.207605823874473572e-03,-2.426715940237045288e-02,-3.977977484464645386e-02,3.219585865736007690e-02,-1.635972037911415100e-02,-4.928355291485786438e-02,3.202294558286666870e-02,-8.572991192340850830e-02,-2.997313626110553741e-03,6.124500557780265808e-02,5.729579925537109375e-02,-7.953525637276470661e-04,-1.624357327818870544e-02,1.457267720252275467e-02,2.650471590459346771e-02,-2.538508306315634400e-05,-1.771275326609611511e-02,8.182679861783981323e-02,-2.253951504826545715e-02,2.083773352205753326e-02,1.679850816726684570e-01,1.407317221164703369e-01,1.108364462852478027e-01,1.076077073812484741e-01,1.136439591646194458e-01,1.414167284965515137e-01,-8.397843688726425171e-02,2.282040752470493317e-02,-5.917070433497428894e-02,-2.483326569199562073e-02,8.901174366474151611e-02,5.711811780929565430e-02,-7.793490588665008545e-02,-3.924697265028953552e-02,5.978961661458015442e-02,-4.019519838038831949e-04,-5.060886219143867493e-02,-4.486476629972457886e-02,-5.058486945927143097e-03,1.770602539181709290e-02,7.735250052064657211e-03,-7.210268080234527588e-02,5.268356949090957642e-02,-7.508833706378936768e-02,-4.447486996650695801e-02,-3.016984462738037109e-02,-2.318612672388553619e-02,-3.312897309660911560e-02
-4.805525392293930054e-02,-2.529955841600894928e-02,1.083598956465721130e-01,7.994262874126434326e-02,-1.188826933503150940e-01,-8.776006847620010376e-02,3.724776804447174072e-01,-9.474437683820724487e-02,1.062542647123336792e-01,-6.957826018333435059e-02,-6.404708325862884521e-02,1.561873108148574829e-01,-4.695041775703430176e-01,4.160060733556747437e-02,4.725822061300277710e-02,-1.675539016723632812e-01,-5.688843131065368652e-02,-2.930551767349243164e-01,1.844459772109985352e-01,3.300540521740913391e-02,-4.219374656677246094e-01,1.872048974037170410e-01,1.122068643569946289e+00,1.086563348770141602e+00,1.408551812171936035e+00,1.826917409896850586e+00,1.805905938148498535e+00,1.189239025115966797e+00,4.483111798763275146e-01,3.057479299604892731e-02,2.193702161312103271e-01,3.284888565540313721e-01,-1.572601646184921265e-01,3.247037529945373535e-01,-1.068459153175354004e-01,3.046062588691711426e-01,1.972187459468841553e-01,-1.757530868053436279e-01,-3.047096431255340576e-01,2.914591506123542786e-02,1.816007643938064575e-01,-9.398647397756576538e-02,-6.271149218082427979e-02,-2.485554516315460205e-01,9.927711635828018188e-02,-2.191019058227539062e-01,8.473832905292510986e-02,9.587217122316360474e-02,1.487776637077331543e-01,-1.261206567287445068e-01
-3.568167611956596375e-02,2.372354641556739807e-02,3.543427214026451111e-02,6.185708567500114441e-02,1.413317956030368805e-02,-5.617858842015266418e-02,-1.230923272669315338e-02,5.917271226644515991e-02,8.562921732664108276e-02,2.187572605907917023e-02,-9.116018190979957581e-03,-1.407927721738815308e-01,2.164522111415863037e-01,-1.033823266625404358e-01,9.573257528245449066e-03,-1.304170191287994385e-01,7.024189084768295288e-02,-5.998232215642929077e-02,-3.245086641982197762e-03,-2.198944985866546631e-01,-8.631295524537563324e-03,-1.194567307829856873e-01,1.301008939743041992e+00,1.829115152359008789e+00,1.235411047935485840e+00,1.294987440109252930e+00,5.930444002151489258e-01,1.253963112831115723e+00,1.711565256118774414e-02,-2.055091857910156250e-01,-9.145061671733856201e-02,2.534087300300598145e-01,-2.991406992077827454e-02,-1.660257279872894287e-01,-9.555610269308090210e-02,5.792564153671264648e-02,-5.937616154551506042e-02,-1.040440052747726440e-01,-1.258662641048431396e-01,1.413123160600662231e-01,5.709315463900566101e-02,1.683245785534381866e-02,-1.552705615758895874e-01,-1.360944509506225586e-01,1.226221472024917603e-01,2.158616781234741211e-01,1.009479537606239319e-01,7.130551151931285858e-03,-4.604978859424591064e-02,-3.542952239513397217e-02
-1.568849682807922363e-01,-1.534531414508819580e-01,-2.193254679441452026e-01,-7.190193235874176025e-02,-8.920276165008544922e-02,4.144852161407470703e-01,-2.443192899227142334e-02,4.219916090369224548e-02,-1.924825906753540039e-01,-3.163383901119232178e-01,2.459192723035812378e-01,2.505953311920166016e-01,1.470944732427597046e-01,-4.718021452426910400e-01,-8.923556208610534668e-01,5.771011114120483398e-01,7.609365135431289673e-02,-7.717153523117303848e-03,6.577493548393249512e-01,2.021171092987060547e+00,5.387522578239440918e-01,6.570801734924316406e-01,9.651800155639648438e+00,1.257513713836669922e+01,1.603936767578125000e+01,1.934455299377441406e+01,1.398672008514404297e+01,1.444570350646972656e+01,-6.242722272872924805e-01,-9.695532917976379395e-02,1.187497138977050781e+00,1.297011524438858032e-01,8.038425445556640625e-01,-3.580114245414733887e-02,1.638623625040054321e-01,-1.083861142396926880e-01,5.864894390106201172e-02,3.336169719696044922e-01,-3.859487175941467285e-02,-2.794167026877403259e-02,-1.494540274143218994e-01,1.501439698040485382e-02,1.448256224393844604e-01,6.966827809810638428e-02,-1.267065703868865967e-01,-7.934451103210449219e-02,1.754834949970245361e-01,-2.168477140367031097e-02,-1.682858914136886597e-01,-7.392326742410659790e-02
2.802614495158195496e-02,7.092842459678649902e-02,-3.195655765011906624e-03,-1.689331233501434326e-01,2.175499498844146729e-01,1.228268966078758240e-01,-7.594166696071624756e-02,2.662394382059574127e-02,2.205794602632522583e-01,-5.677009746432304382e-02,-7.136642187833786011e-02,-1.878419220447540283e-01,-2.912385463714599609e-01,6.791885942220687866e-02,2.269685268402099609e-01,5.141150951385498047e-01,-3.629239648580551147e-02,-3.646934926509857178e-01,1.462996453046798706e-01,-7.842478901147842407e-02,-1.456253826618194580e-01,2.128714770078659058e-01,1.608967065811157227e+00,1.249460220336914062e+00,1.335948109626770020e+00,1.225139856338500977e+00,1.492898821830749512e+00,1.643625855445861816e+00,-3.209120333194732666e-01,-1.460418999195098877e-01,-1.950955241918563843e-01,-9.240673854947090149e-03,6.920491456985473633e-01,-1.910251080989837646e-01,1.095515266060829163e-01,3.830832242965698242e-02,2.876209095120429993e-02,2.097358256578445435e-01,-7.891751825809478760e-02,-1.670767813920974731e-01,-4.601163789629936218e-02,3.641757071018218994e-01,-1.603961884975433350e-01,-1.562124937772750854e-01,8.775950968265533447e-02,1.196318119764328003e-01,9.026309102773666382e-02,1.872224546968936920e-02,1.010397076606750488e-01,-9.830839931964874268e-02
1.090797632932662964e-01,-2.373129595071077347e-03,5.132600665092468262e-02,-3.954410552978515625e-02,1.054019331932067871e-01,2.929588258266448975e-01,4.837170243263244629e-02,1.453388929367065430e-01,-3.723555505275726318e-01,-1.479851305484771729e-01,9.541913121938705444e-02,3.294786810874938965e-02,-3.859326541423797607e-01,-6.158303469419479370e-02,-5.466721206903457642e-02,-1.189615964889526367e+00,-1.246388673782348633e+00,4.035962224006652832e-01,1.471982240676879883e+00,-1.679075360298156738e-01,1.962876081466674805e+00,3.682541102170944214e-02,1.058203697204589844e+01,1.738954734802246094e+01,1.247211170196533203e+01,1.223238563537597656e+01,9.684858322143554688e+00,1.351587486267089844e+01,-4.645767688751220703e+00,2.425872802734375000e+00,-7.261055707931518555e-01,1.171102747321128845e-01,-3.959033191204071045e-01,5.491507798433303833e-02,-4.386802613735198975e-01,6.230065226554870605e-02,2.870954871177673340e-01,8.642745018005371094e-02,-2.430827170610427856e-01,-1.000792980194091797e-01,9.082403779029846191e-02,3.404969274997711182e-01,2.925464510917663574e-01,1.132891327142715454e-01,1.367796026170253754e-02,1.455666571855545044e-01,3.856778889894485474e-02,1.209373585879802704e-02,2.443526685237884521e-02,8.666426688432693481e-02
-8.261896669864654541e-02,-7.988543948158621788e-04,-7.768074516206979752e-03,-8.189941942691802979e-02,-1.479401290416717529e-01,-1.310123503208160400e-01,-2.019565552473068237e-01,-1.429851502180099487e-01,2.408341616392135620e-01,2.570606768131256104e-01,-2.016859501600265503e-01,5.341847985982894897e-02,3.059882223606109619e-01,-8.804816007614135742e-02,1.055413708090782166e-01,-8.245388269424438477e-01,-7.205066680908203125e-01,-5.997514724731445312e-02,-2.924535751342773438e+00,3.754137039184570312e+00,1.188744902610778809e+00,4.093853473663330078e+00,1.850353622436523438e+01,1.936527252197265625e+01,1.644570350646972656e+01,1.465420341491699219e+01,1.620972061157226562e+01,2.099275112152099609e+00,-2.199230492115020752e-01,9.126634597778320312e-01,2.745925188064575195e+00,6.371101737022399902e-01,1.799777746200561523e-01,-2.259085625410079956e-01,-1.688162833452224731e-01,2.076689898967742920e-01,-1.966255456209182739e-01,8.394328504800796509e-02,2.126918360590934753e-02,-2.707972750067710876e-02,-1.457742601633071899e-01,6.201527267694473267e-02,-7.974614202976226807e-02,8.143739402294158936e-02,1.562546044588088989e-01,1.666910201311111450e-01,4.137442633509635925e-02,-1.004540324211120605e-01,-8.797971159219741821e-02,7.705184072256088257e-02
-2.060211598873138428e-01,-1.582804322242736816e-01,-1.217782497406005859e-01,9.473387897014617920e-02,-2.324611647054553032e-03,-5.563549324870109558e-02,-2.578934729099273682e-01,3.736819699406623840e-02,-1.066890358924865723e-01,2.602685429155826569e-02,1.396780312061309814e-01,-2.191773951053619385e-01,5.870606750249862671e-02,-1.687516644597053528e-02,5.154948309063911438e-02,1.633709995076060295e-03,-1.235328800976276398e-02,-1.381636690348386765e-02,-5.603996515274047852e-01,6.146478001028299332e-03,-1.004740357398986816e+00,4.638111591339111328e-01,2.611718654632568359e+00,1.641715764999389648e+00,3.393082857131958008e+00,3.758309125900268555e+00,6.383717536926269531e+00,4.164268970489501953e+00,-8.963862657546997070e-01,-8.493959307670593262e-01,1.588121205568313599e-01,5.427115559577941895e-01,6.684363484382629395e-01,-1.776509881019592285e-01,-4.074322432279586792e-02,-8.966922014951705933e-02,-2.104048281908035278e-01,-2.250115573406219482e-02,2.589277327060699463e-01,3.791678547859191895e-01,-8.814562857151031494e-02,-3.017135560512542725e-01,-1.371897161006927490e-01,1.021402329206466675e-01,-1.791482865810394287e-01,2.510517835617065430e-02,-3.055550716817378998e-02,-1.592981666326522827e-01,4.170828964561223984e-03,9.551052749156951904e-02
9.574757516384124756e-02,-5.182908847928047180e-02,-9.649755805730819702e-02,7.487859111279249191e-04,7.731778919696807861e-02,1.027799993753433228e-01,9.473493695259094238e-02,-1.035100072622299194e-01,-4.512011259794235229e-02,-4.966151714324951172e-02,3.111578822135925293e-01,1.823403686285018921e-01,2.595497071743011475e-01,-1.398319751024246216e-01,2.219676971435546875e-01,-5.585373640060424805e-01,-5.275977849960327148e-01,-1.980916708707809448e-01,-4.079171717166900635e-01,8.995113372802734375e-01,-3.251523971557617188e+00,3.826940953731536865e-01,8.934591293334960938e+00,1.300305461883544922e+01,1.156604385375976562e+01,1.939957809448242188e+01,8.692875862121582031e+00,3.544197082519531250e+00,-1.402427315711975098e+00,4.246684014797210693e-01,-4.582517147064208984e-01,-6.263598799705505371e-03,-2.726262211799621582e-01,-7.979315519332885742e-02,-1.109501495957374573e-01,7.394365221261978149e-02,-5.523747205734252930e-02,-3.295070528984069824e-01,-4.914177358150482178e-01,-4.420641958713531494e-01,-6.352981179952621460e-02,2.393957674503326416e-01,-2.261629141867160797e-02,-3.948928322643041611e-03,-3.176454901695251465e-01,1.435106713324785233e-02,1.777658164501190186e-01,7.444560527801513672e-02,1.478267163038253784e-01,-1.488831937313079834e-01
0.000000000000000000e+00,0.000000000000000000e+00,0.000000000000000000e+00,0.000000000000000000e+00,0.000000000000000000e+00,0.000000000000000000e+00,0.000000000000000000e+00,0.000000000000000000e+00,0.000000000000000000e+00,0.000000000000000000e+00,0.000000000000000000e+00,0.000000000000000000e+00,0.000000000000000000e+00,0.000000000000000000e+00,0.000000000000000000e+00,0.000000000000000000e+00,0.000000000000000000e+00,0.000000000000000000e+00,0.000000000000000000e+00,0.000000000000000000e+00,0.000000000000000000e+00,0.000000000000000000e+00,0.000000000000000000e+00,0.000000000000000000e+00,0.000000000000000000e+00,0.000000000000000000e+00,0.000000000000000000e+00,0.000000000000000000e+00,0.000000000000000000e+00,0.000000000000000000e+00,0.000000000000000000e+00,0.000000000000000000e+00,0.000000000000000000e+00,0.000000000000000000e+00,0.000000000000000000e+00,0.000000000000000000e+00,0.000000000000000000e+00,0.000000000000000000e+00,0.000000000000000000e+00,0.000000000000000000e+00,0.000000000000000000e+00,0.000000000000000000e+00,0.000000000000000000e+00,0.000000000000000000e+00,0.000000000000000000e+00,0.000000000000000000e+00,0.000000000000000000e+00,0.000000000000000000e+00,0.000000000000000000e+00,0.000000000000000000e+00
-4.689846187829971313e-02,-1.993916556239128113e-02,-4.011365771293640137e-02,4.646620899438858032e-02,-5.474423244595527649e-02,-2.032279036939144135e-02,8.915816247463226318e-02,-1.242637448012828827e-02,-4.279836639761924744e-02,-1.767197810113430023e-02,-1.344411075115203857e-01,8.889620006084442139e-02,-8.059273660182952881e-02,-3.067548014223575592e-02,-9.238364547491073608e-02,-2.186271697282791138e-01,3.702331706881523132e-02,5.777008458971977234e-02,3.434630483388900757e-02,7.312376797199249268e-02,2.300520688295364380e-01,6.435748934745788574e-02,2.507670819759368896e-01,5.989168882369995117e-01,6.126919984817504883e-01,7.347138524055480957e-01,4.059402942657470703e-01,6.582919359207153320e-01,8.857959508895874023e-02,6.415703799575567245e-03,-9.197706356644630432e-03,3.905653655529022217e-01,-4.266118165105581284e-03,-2.441874518990516663e-02,-1.280506998300552368e-01,-1.859315484762191772e-01,-1.464575976133346558e-01,-9.054892696440219879e-03,3.563166828826069832e-03,-1.267029345035552979e-01,1.520226448774337769e-01,6.813281029462814331e-02,1.213442720472812653e-02,-8.520595729351043701e-02,-9.443790465593338013e-02,-8.765236288309097290e-02,4.972649738192558289e-02,-2.079301280900835991e-03,-2.337677218019962311e-02,6.908962875604629517e-02
1.284036319702863693e-02,-1.222453266382217407e-02,2.021923102438449860e-02,-3.281604498624801636e-02,1.418000180274248123e-02,1.504574716091156006e-02,2.729195728898048401e-02,-2.825230360031127930e-02,4.489148780703544617e-02,-1.471581757068634033e-01,-1.075583696365356445e-01,1.264748871326446533e-01,-3.703763335943222046e-02,7.694571465253829956e-02,-2.137783356010913849e-02,-8.587087690830230713e-02,8.008383959531784058e-02,2.721155285835266113e-01,-9.885415434837341309e-03,-2.672813832759857178e-03,5.556936264038085938e-01,-2.031473219394683838e-01,9.008705019950866699e-01,8.514748811721801758e-01,4.477711319923400879e-01,5.403397083282470703e-01,3.196641802787780762e-01,5.046372413635253906e-01,-4.523365572094917297e-02,-9.401144087314605713e-02,-1.523182094097137451e-01,-1.352661401033401489e-01,1.287447065114974976e-01,1.142822951078414917e-01,1.283399760723114014e-01,-1.340139657258987427e-01,-1.059686299413442612e-02,1.170003861188888550e-01,-1.743615791201591492e-02,2.543478608131408691e-01,-5.811318010091781616e-02,-1.743697002530097961e-02,-1.707193851470947266e-01,-5.071585625410079956e-02,-6.151647120714187622e-02,8.330993587151169777e-04,-3.908751998096704483e-03,3.207817301154136658e-02,-4.407016187906265259e-02,-7.241908460855484009e-02
-7.169269025325775146e-02,1.251841038465499878e-01,-2.543296478688716888e-02,1.928231120109558105e-01,-1.386174112558364868e-01,3.653759360313415527e-01,-1.651509664952754974e-02,1.413520127534866333e-01,4.264066815376281738e-01,1.826600879430770874e-01,-1.344265043735504150e-01,2.078472077846527100e-01,3.973451256752014160e-02,1.262359321117401123e-01,4.266920685768127441e-02,1.206228882074356079e-01,-1.323690712451934814e-01,3.615314885973930359e-02,5.383880808949470520e-02,2.432140335440635681e-02,3.885192275047302246e-01,1.480963826179504395e-01,1.191510200500488281e+00,1.394536495208740234e+00,2.104345321655273438e+00,2.050127029418945312e+00,1.060322999954223633e+00,1.274122834205627441e+00,-2.489941120147705078e-01,1.152889952063560486e-01,-1.451208293437957764e-01,1.908880025148391724e-01,-1.880449205636978149e-01,-4.002048969268798828e-01,-5.951614305377006531e-02,-1.288892626762390137e-01,-2.604054510593414307e-01,-2.926191389560699463e-01,6.679905205965042114e-02,2.849817276000976562e-01,-1.496444791555404663e-01,1.466511040925979614e-01,-2.301776111125946045e-01,-8.740606158971786499e-02,1.801748946309089661e-02,-3.045794367790222168e-02,7.239212095737457275e-02,-1.059971656650304794e-02,3.777590394020080566e-02,2.769214846193790436e-02
-2.461125329136848450e-02,5.931418854743242264e-03,4.977307468652725220e-02,-1.334396004676818848e-01,1.464426517486572266e-01,-1.412378391250967979e-03,1.163251996040344238e-01,-2.085119485855102539e-01,-1.119905933737754822e-01,1.275276839733123779e-01,-2.068931795656681061e-02,3.427495434880256653e-02,-2.800461053848266602e-01,-1.119193881750106812e-01,-2.093051970005035400e-01,2.024643309414386749e-02,4.332766681909561157e-02,-1.899282336235046387e-01,-1.284063160419464111e-01,-8.001498878002166748e-02,-2.987257242202758789e-01,-1.084993109107017517e-01,7.001245617866516113e-01,1.690662384033203125e+00,1.115402460098266602e+00,1.134647369384765625e+00,1.559822797775268555e+00,9.280007481575012207e-01,-1.480863839387893677e-01,3.971413671970367432e-01,7.390672564506530762e-01,1.893461495637893677e-01,-5.328802391886711121e-02,-1.293719410896301270e-01,5.503272414207458496e-01,5.828424543142318726e-02,-5.215714126825332642e-02,1.653285920619964600e-01,-8.535953611135482788e-02,-1.944342851638793945e-01,1.565263024531304836e-03,-9.063476324081420898e-02,4.979229718446731567e-02,-8.649062365293502808e-02,-6.984043866395950317e-02,-4.081761091947555542e-02,-1.898222975432872772e-02,-8.882199227809906006e-02,1.606470793485641479e-01,1.510035246610641479e-01
-4.308104515075683594e-02,1.818378865718841553e-01,3.428384661674499512e-01,-5.187351629137992859e-02,-6.052642129361629486e-03,2.443749271333217621e-02,-8.063404262065887451e-02,5.317852646112442017e-02,6.943730264902114868e-02,2.234969884157180786e-01,2.490006983280181885e-01,-3.458118140697479248e-01,2.551158890128135681e-02,-6.658229976892471313e-03,-1.758051812648773193e-01,-7.622611522674560547e-02,-3.290073871612548828e-01,-3.968951106071472168e-02,2.267561703920364380e-01,1.383730210363864899e-02,1.204245239496231079e-01,-4.267185330390930176e-01,6.522635221481323242e-01,9.351806640625000000e-01,1.322358369827270508e+00,1.530410647392272949e+00,1.024923086166381836e+00,2.055868148803710938e+00,-1.091594338417053223e+00,-8.624234050512313843e-02,1.299592107534408569e-01,-9.630563855171203613e-02,1.357385814189910889e-01,-4.904805496335029602e-02,-2.098292170558124781e-04,-3.954609334468841553e-01,6.926184147596359253e-02,-2.404998242855072021e-01,3.305712640285491943e-01,-3.724765181541442871e-01,-4.235365428030490875e-03,-3.677563071250915527e-01,-2.400467097759246826e-01,-2.598700225353240967e-01,-8.534986525774002075e-02,3.348791599273681641e-01,-2.104180157184600830e-01,8.308921754360198975e-02,2.526738680899143219e-02,-6.606744229793548584e-02
1.212006807327270508e-01,1.733308881521224976e-01,1.280989646911621094e-01,1.777550876140594482e-01,-1.316505372524261475e-01,2.616812661290168762e-02,4.480156302452087402e-02,3.090800344944000244e-01,3.022035658359527588e-01,-7.032632827758789062e-02,1.691703498363494873e-01,1.207660883665084839e-02,4.594932310283184052e-03,3.347711861133575439e-01,-2.832212448120117188e-01,3.465299010276794434e-01,6.724733114242553711e-01,-1.742946207523345947e-01,-1.484753608703613281e+00,-1.266216993331909180e+00,1.609190702438354492e+00,-1.926509857177734375e+00,1.220367240905761719e+01,1.380283927917480469e+01,1.734242630004882812e+01,2.680554771423339844e+01,1.623052597045898438e+01,8.406949043273925781e+00,5.681232213973999023e-01,1.329877138137817383e+00,-9.702863693237304688e-01,1.865746855735778809e+00,3.903311789035797119e-01,4.068294912576675415e-02,6.024874001741409302e-02,2.767989970743656158e-02,-4.529138505458831787e-01,4.586906731128692627e-02,-1.198552846908569336e-01,-2.531661689281463623e-01,-7.430259883403778076e-02,4.546307772397994995e-02,-1.550429016351699829e-01,-5.110658407211303711e-01,1.799549311399459839e-01,-3.925695419311523438e-01,-2.740170434117317200e-02,3.008386492729187012e-01,6.502217054367065430e-02,-2.338135242462158203e-01
5.089353770017623901e-03,-5.993250012397766113e-02,2.686187997460365295e-02,-2.905342914164066315e-02,5.248103290796279907e-02,2.505934238433837891e-02,6.034938851371407509e-04,-6.500688195228576660e-02,4.516173526644706726e-02,1.938083209097385406e-02,4.541056603193283081e-02,1.886293850839138031e-02,4.405295476317405701e-02,-1.295938808470964432e-02,4.477557667996734381e-04,-3.367943572811782360e-04,-1.473789662122726440e-02,-1.111083012074232101e-02,-6.622984260320663452e-02,1.039494853466749191e-02,-4.940735548734664917e-02,-3.673041611909866333e-02,1.511423140764236450e-01,1.094408780336380005e-01,2.115394771099090576e-01,9.138493984937667847e-02,1.210445389151573181e-01,2.092057913541793823e-01,1.004200335592031479e-02,3.411995247006416321e-02,-2.235509641468524933e-02,5.248308926820755005e-02,-2.848014235496520996e-02,1.850164867937564850e-02,-3.856942802667617798e-02,-8.616306632757186890e-02,4.408875480294227600e-02,4.958395846188068390e-03,-5.976102501153945923e-02,-4.758597537875175476e-02,-2.213012799620628357e-02,-8.821486495435237885e-03,3.774973005056381226e-02,-9.010381251573562622e-02,-1.643321849405765533e-02,4.798806738108396530e-03,1.289594732224941254e-02,-2.440141513943672180e-02,1.210108515806496143e-03,-8.789924904704093933e-03
-1.059921830892562866e-02,1.047165170311927795e-01,1.328891981393098831e-02,-3.293659538030624390e-02,7.695779949426651001e-02,1.506102830171585083e-01,-1.440198123455047607e-01,2.137457877397537231e-01,1.075513586401939392e-01,-3.538156673312187195e-02,1.013673394918441772e-01,2.408622801303863525e-01,-1.782329082489013672e-01,-1.690460182726383209e-02,5.941110104322433472e-02,-9.112312644720077515e-02,1.787844672799110413e-02,-1.276814006268978119e-02,-4.390861466526985168e-02,3.719749301671981812e-02,2.844771742820739746e-02,1.677371375262737274e-02,3.377081453800201416e-01,8.027292490005493164e-01,6.513179540634155273e-01,4.754670262336730957e-01,3.466029763221740723e-01,5.886543989181518555e-01,3.102924302220344543e-02,2.524874173104763031e-02,-3.080666624009609222e-02,2.177348881959915161e-01,6.770644336938858032e-02,-2.591697964817285538e-03,-4.958163946866989136e-02,-1.060874685645103455e-01,-5.116938427090644836e-02,-6.932391971349716187e-02,6.092231348156929016e-02,-6.352101266384124756e-02,6.544265896081924438e-02,1.845531463623046875e-01,-3.489743918180465698e-02,5.054664611816406250e-02,-5.281683057546615601e-02,-3.521786257624626160e-02,-1.069944873452186584e-01,-1.889985799789428711e-02,8.281746879220008850e-03,6.951672583818435669e-02
-6.389224529266357422e-02,-3.224984556436538696e-02,-1.260285824537277222e-01,5.753694102168083191e-02,-4.696467425674200058e-03,4.484004527330398560e-02,-8.449552953243255615e-02,-4.697129875421524048e-02,1.417674124240875244e-01,1.136553063988685608e-01,-1.373401284217834473e-02,6.616746634244918823e-02,2.174704819917678833e-01,-2.136516012251377106e-02,6.041449960321187973e-03,1.288705319166183472e-01,1.182827949523925781e-01,1.240000352263450623e-01,8.311159908771514893e-02,4.991353303194046021e-02,1.548980176448822021e-01,-7.752313464879989624e-02,8.130092620849609375e-01,3.011911809444427490e-01,8.782907724380493164e-01,1.699249863624572754e+00,8.031884431838989258e-01,8.914024233818054199e-01,3.998386673629283905e-03,-1.908547803759574890e-02,1.014750152826309204e-01,2.828162014484405518e-01,9.403516352176666260e-02,1.136747933924198151e-02,-4.251748695969581604e-02,1.524338275194168091e-01,1.651026308536529541e-01,-1.917785033583641052e-02,1.427992731332778931e-01,-3.173011587932705879e-03,1.466450542211532593e-01,-1.522890776395797729e-01,6.361778825521469116e-02,8.317434787750244141e-02,4.969580844044685364e-02,2.393293082714080811e-01,1.343987733125686646e-01,-4.541712254285812378e-02,7.184890657663345337e-02,-3.796911612153053284e-02
-2.890771627426147461e-02,-7.734854705631732941e-03,-9.293480776250362396e-03,3.090518154203891754e-02,-3.678104653954505920e-02,8.348630508407950401e-04,-4.933823831379413605e-03,9.926417842507362366e-03,-2.022294094786047935e-03,1.836913451552391052e-02,-7.353646308183670044e-02,-4.814276844263076782e-02,-3.892147541046142578e-02,-4.478148370981216431e-02,-1.785412244498729706e-02,1.377729792147874832e-02,-1.856009126640856266e-03,2.228914573788642883e-02,2.768410183489322662e-02,-7.975976169109344482e-02,-5.961548164486885071e-02,-3.612977638840675354e-02,5.014728307723999023e-01,3.414418995380401611e-01,5.783501267433166504e-01,3.489803969860076904e-01,2.672850489616394043e-01,2.947826683521270752e-01,-1.144908294081687927e-01,-4.236341640353202820e-02,-9.543251246213912964e-02,5.443124100565910339e-02,-6.158832460641860962e-03,2.557339146733283997e-02,-6.860010325908660889e-02,-1.106020621955394745e-02,-4.884249716997146606e-02,6.531677208840847015e-04,1.050346624106168747e-02,7.840012013912200928e-02,6.535553187131881714e-02,1.833110675215721130e-02,2.451933361589908600e-02,-4.073331132531166077e-02,-6.978827295824885368e-04,-3.960640728473663330e-02,-8.231146261096000671e-03,1.636644452810287476e-02,-2.825724147260189056e-02,-6.629297044128179550e-03
-8.605664223432540894e-02,-6.159008946269750595e-03,5.257756263017654419e-02,1.289080083370208740e-01,2.788849472999572754e-01,4.738348722457885742e-02,-1.153259277343750000e-01,-3.635492175817489624e-02,3.267673254013061523e-01,1.547767221927642822e-01,7.495381683111190796e-02,-4.598503559827804565e-02,-1.551022529602050781e-01,-1.676993221044540405e-01,-2.959921360015869141e-01,-3.172605931758880615e-01,5.381425470113754272e-02,-9.882712364196777344e-02,-2.063922435045242310e-01,3.154474794864654541e-01,9.793215990066528320e-02,8.673383295536041260e-02,5.634106397628784180e-01,4.246081411838531494e-01,4.543096423149108887e-01,5.940267443656921387e-01,4.540355205535888672e-01,6.129215955734252930e-01,1.018834859132766724e-01,-2.370602339506149292e-01,1.509852856397628784e-01,-1.002770513296127319e-01,-2.290222607553005219e-02,1.419923603534698486e-01,2.939325571060180664e-01,-1.100285500288009644e-01,1.786042004823684692e-01,-2.116612941026687622e-01,-7.741590589284896851e-02,-2.146531641483306885e-02,2.555847465991973877e-01,-2.695433497428894043e-01,-1.038081869482994080e-01,-8.637855947017669678e-02,2.550986111164093018e-01,7.620029151439666748e-02,-1.082436889410018921e-01,-5.282657220959663391e-02,-1.251237690448760986e-01,-6.277526728808879852e-03
6.337167229503393173e-03,-8.858046680688858032e-02,2.097064256668090820e-02,9.873215854167938232e-02,7.155326753854751587e-02,1.436830908060073853e-01,-5.967228207737207413e-03,-1.072526350617408752e-01,-2.376858741044998169e-01,-4.803611710667610168e-02,5.156797170639038086e-02,1.829245984554290771e-01,-2.823382019996643066e-01,4.126145243644714355e-01,-2.444084435701370239e-01,-9.370208978652954102e-01,1.247878819704055786e-01,2.535541653633117676e-01,5.109473466873168945e-01,-4.525779783725738525e-01,-1.260695219039916992e+00,3.931435108184814453e+00,1.333691120147705078e+01,2.136564254760742188e+01,1.261065769195556641e+01,1.514449024200439453e+01,1.367883014678955078e+01,9.403162002563476562e+00,-4.523212462663650513e-02,-1.367873698472976685e-01,-4.272896647453308105e-01,-1.242920383810997009e-01,-2.810820341110229492e-01,-1.869507133960723877e-01,6.662319600582122803e-02,3.525323569774627686e-01,2.876759171485900879e-01,1.536234170198440552e-01,5.429106950759887695e-02,-9.034379571676254272e-02,-1.036357432603836060e-01,-5.903975293040275574e-02,-3.051207959651947021e-01,1.020171418786048889e-01,4.077714681625366211e-02,6.996174156665802002e-02,-7.521079969592392445e-04,-3.199134767055511475e-02,1.020671892911195755e-02,-1.572141796350479126e-02
4.900667443871498108e-02,2.529068663716316223e-02,5.936497356742620468e-03,-5.329744890332221985e-02,-1.154836267232894897e-02,6.975348107516765594e-03,7.445662049576640129e-04,-8.867803961038589478e-02,6.458613788709044456e-04,5.253088474273681641e-02,9.469348192214965820e-02,-1.370980739593505859e-01,6.373305618762969971e-02,-5.761992186307907104e-02,4.564491286873817444e-02,-2.372021973133087158e-01,9.522242471575737000e-03,-2.553537953644990921e-03,-7.952359318733215332e-02,-7.630915939807891846e-02,-8.958777412772178650e-03,1.578606814146041870e-01,4.988678991794586182e-01,4.138055741786956787e-01,3.730284571647644043e-01,3.840538263320922852e-01,5.180201530456542969e-01,3.200464844703674316e-01,-2.530560456216335297e-02,1.991337165236473083e-02,-3.892708569765090942e-02,1.717529296875000000e-01,1.127095445990562439e-01,-4.876876994967460632e-02,-2.093178452923893929e-03,-1.761992722749710083e-01,5.207954719662666321e-02,-8.489205688238143921e-02,-6.795963644981384277e-02,1.017279401421546936e-01,-9.751348197460174561e-02,-2.354660257697105408e-02,-1.325718164443969727e-01,-1.193273114040493965e-03,-7.158783823251724243e-02,5.404169484972953796e-02,2.556198835372924805e-02,-4.107475653290748596e-02,2.408218756318092346e-02,2.300619147717952728e-02
-4.646744579076766968e-03,5.562508106231689453e-02,1.336512155830860138e-02,1.690910756587982178e-02,-1.355633139610290527e-03,-6.637022644281387329e-02,6.895955651998519897e-02,5.104238912463188171e-02,-7.016283273696899414e-02,-9.738944470882415771e-02,-9.668362140655517578e-02,3.143095644190907478e-03,4.791106283664703369e-02,-1.245594844222068787e-01,4.354454576969146729e-02,1.817429512739181519e-01,-8.753104507923126221e-02,-7.935295999050140381e-02,7.463783770799636841e-02,-2.194696571677923203e-03,-1.216793775558471680e+00,3.761393129825592041e-01,4.714569091796875000e+00,4.846369743347167969e+00,3.940101623535156250e+00,5.921053886413574219e+00,6.048308372497558594e+00,6.736170291900634766e+00,-1.063956022262573242e+00,5.122702103108167648e-03,2.338203638792037964e-01,3.154112100601196289e-01,1.729102432727813721e-01,3.412383049726486206e-02,-2.194906771183013916e-01,6.623639166355133057e-02,1.561644971370697021e-01,-7.848959416151046753e-02,1.651666909456253052e-01,-2.472945749759674072e-01,5.121800303459167480e-02,2.833833731710910797e-02,1.823712885379791260e-01,8.690507709980010986e-02,3.314834460616111755e-02,-2.998689934611320496e-02,-7.310470193624496460e-02,3.144939988851547241e-02,-1.353444457054138184e-01,-8.830197900533676147e-02
-8.813335746526718140e-02,-3.980770707130432129e-03,5.595477670431137085e-02,-4.517182707786560059e-03,-8.352404460310935974e-03,1.196343079209327698e-01,1.869162470102310181e-01,-7.388538122177124023e-02,1.878660917282104492e-01,2.052667140960693359e-01,9.879855811595916748e-02,7.740811258554458618e-02,-1.384742558002471924e-01,-2.541930973529815674e-02,-2.348354309797286987e-01,-3.062526583671569824e-01,2.915115356445312500e-01,3.456063568592071533e-01,2.159213274717330933e-01,-6.134289503097534180e-01,-8.556472063064575195e-01,1.658595681190490723e+00,5.340245246887207031e+00,4.653784275054931641e+00,4.758250713348388672e+00,3.735718965530395508e+00,5.315726280212402344e+00,6.192134857177734375e+00,-5.258132219314575195e-01,-3.329434692859649658e-01,5.409880876541137695e-01,3.054387569427490234e-01,-6.236970424652099609e-02,6.452828645706176758e-02,2.144495546817779541e-01,-5.141227245330810547e-01,-3.141479939222335815e-02,1.927223056554794312e-02,2.070188820362091064e-01,9.903070330619812012e-02,-1.027818173170089722e-01,3.908944725990295410e-01,-8.019383251667022705e-02,-2.069245874881744385e-01,1.555959694087505341e-02,1.700973510742187500e-01,-1.382952630519866943e-01,2.921682596206665039e-02,1.217270456254482269e-02,1.507457345724105835e-02
-6.966602988541126251e-03,5.565377324819564819e-02,-3.513719141483306885e-02,-9.778328239917755127e-03,-2.026803232729434967e-02,1.826031506061553955e-02,-1.067302972078323364e-01,-1.662128046154975891e-02,9.787462651729583740e-02,-5.652530863881111145e-02,-3.191176801919937134e-02,-4.573670774698257446e-02,5.104652792215347290e-02,7.071240246295928955e-02,2.498517781496047974e-01,2.030820101499557495e-01,7.538342475891113281e-02,-5.857622623443603516e-01,4.458168447017669678e-01,-1.441062211990356445e+00,3.108395576477050781e+00,8.003104329109191895e-01,4.302464485168457031e+00,9.542882919311523438e+00,7.635632991790771484e+00,1.198344230651855469e+01,7.808545589447021484e+00,1.081129360198974609e+01,-2.214030742645263672e+00,-8.751444816589355469e-01,-6.888257265090942383e-01,4.279530644416809082e-01,5.353087186813354492e-02,2.191482037305831909e-01,-8.235392719507217407e-02,-1.109143048524856567e-01,-2.867530845105648041e-02,-2.231087237596511841e-01,-2.961231172084808350e-01,-6.240185350179672241e-02,-6.099197268486022949e-02,-4.122083261609077454e-02,1.706386506557464600e-01,-4.762610048055648804e-02,-3.542958572506904602e-02,-6.699415296316146851e-02,-1.368636637926101685e-01,-6.909692287445068359e-02,-9.165996685624122620e-03,2.432559058070182800e-02
-2.927551791071891785e-02,2.990697883069515228e-02,5.965731292963027954e-02,5.761191248893737793e-02,-2.730630338191986084e-02,1.373325008898973465e-02,-6.183111667633056641e-02,-1.458203047513961792e-01,-4.687570780515670776e-02,6.609199941158294678e-02,-1.298095006495714188e-02,-4.481846094131469727e-02,2.783863618969917297e-02,-2.270903289318084717e-01,1.140740364789962769e-01,2.816672064363956451e-02,7.671443372964859009e-02,-1.502457540482282639e-02,-5.026878323405981064e-03,-7.584287971258163452e-02,-3.183262795209884644e-02,-1.111939400434494019e-01,3.657316863536834717e-01,1.122265815734863281e+00,6.606378555297851562e-01,1.006635308265686035e+00,5.487767457962036133e-01,1.020614862442016602e+00,3.749184608459472656e-01,2.427502572536468506e-01,1.809030771255493164e-01,-6.832773983478546143e-02,2.428035484626889229e-03,4.989313334226608276e-02,4.385754838585853577e-02,-5.656550079584121704e-02,1.853476092219352722e-02,-1.324920058250427246e-01,7.245050370693206787e-02,9.192781150341033936e-02,1.205068174749612808e-02,4.288375005125999451e-02,4.839178174734115601e-02,8.713655918836593628e-02,6.424492597579956055e-02,-2.308725379407405853e-02,5.641992669552564621e-03,2.230987325310707092e-02,-5.961287021636962891e-02,1.907869055867195129e-02
2.595023438334465027e-02,-5.166093260049819946e-02,-9.768620133399963379e-02,9.735932201147079468e-02,6.795190274715423584e-02,-1.169890314340591431e-01,-7.027045637369155884e-02,7.038421928882598877e-02,1.591231375932693481e-01,-1.019160524010658264e-01,3.302184864878654480e-02,-8.066785335540771484e-02,-1.764375865459442139e-01,-2.027478441596031189e-02,3.070049919188022614e-02,1.601041667163372040e-02,6.733872741460800171e-02,-3.508030176162719727e-01,3.105184137821197510e-01,3.331318795680999756e-01,-4.252334237098693848e-01,-4.203884005546569824e-01,4.225678920745849609e+00,2.195976734161376953e+00,4.153241634368896484e+00,3.825985670089721680e+00,2.462561130523681641e+00,3.092060565948486328e+00,1.446890234947204590e-01,-2.946003153920173645e-02,1.277477145195007324e-01,-1.254516839981079102e-01,1.063775867223739624e-01,-1.160100102424621582e-01,-7.861588895320892334e-02,-1.803819462656974792e-02,-4.121999070048332214e-02,7.389921694993972778e-03,-2.714055776596069336e-02,2.593952976167201996e-02,2.474473975598812103e-02,6.531061232089996338e-02,1.143944486975669861e-01,8.389459550380706787e-02,8.292305469512939453e-02,1.521438639611005783e-02,-6.481514871120452881e-02,-6.302098929882049561e-02,5.245009809732437134e-02,2.197419106960296631e-02
1.117740496993064880e-01,3.996494039893150330e-02,-4.129494354128837585e-02,7.431583944708108902e-03,-7.213587872684001923e-03,2.037121802568435669e-01,1.206706389784812927e-01,-6.210887432098388672e-02,-3.200755417346954346e-01,8.758811652660369873e-02,-2.686141133308410645e-01,2.253742218017578125e-01,-3.033632338047027588e-01,2.288937270641326904e-01,-2.469247877597808838e-01,4.997652173042297363e-01,-7.118617892265319824e-01,-7.567540407180786133e-01,7.922877073287963867e-01,8.895887136459350586e-01,-1.991861701011657715e+00,1.302947700023651123e-01,1.053466987609863281e+01,1.218948554992675781e+01,1.332777976989746094e+01,8.548971176147460938e+00,8.369242668151855469e+00,6.626528739929199219e+00,2.231807410717010498e-01,-8.056198358535766602e-01,4.163783490657806396e-01,-2.046407163143157959e-01,-1.913712322711944580e-01,-2.337733209133148193e-01,-2.828320562839508057e-01,-5.611430481076240540e-02,4.873327314853668213e-01,2.723145782947540283e-01,-1.827228516340255737e-01,6.203178316354751587e-02,-7.789823412895202637e-02,2.451694384217262268e-02,-9.981161355972290039e-02,6.182583048939704895e-02,2.091943472623825073e-01,-8.270853757858276367e-02,-1.435778588056564331e-01,-3.483932092785835266e-02,4.719836637377738953e-02,-3.649422153830528259e-02
-2.112320857122540474e-03,1.339561790227890015e-01,1.922093331813812256e-02,-5.438509583473205566e-02,4.547344520688056946e-02,2.181399427354335785e-02,-3.078039363026618958e-02,-3.705788403749465942e-02,-8.933464437723159790e-02,8.848400413990020752e-02,6.840372085571289062e-02,-8.555822819471359253e-02,-3.760759159922599792e-02,1.912648975849151611e-02,1.550981542095541954e-03,-7.862888276576995850e-02,2.534204348921775818e-02,-3.425018116831779480e-02,4.465238377451896667e-02,1.525866426527500153e-02,-4.188523441553115845e-02,-1.567983254790306091e-02,5.164746046066284180e-01,8.981267809867858887e-01,6.198251247406005859e-01,8.567569851875305176e-01,4.717032313346862793e-01,8.795684576034545898e-01,2.763080000877380371e-01,1.401456892490386963e-01,-5.044404789805412292e-02,-1.821180731058120728e-01,5.483467504382133484e-02,-1.014959439635276794e-01,-7.502427790313959122e-03,-1.794700697064399719e-02,-5.734209343791007996e-02,9.699721634387969971e-02,4.361078888177871704e-02,5.418306589126586914e-02,3.081279993057250977e-01,-5.616252496838569641e-02,-6.258418411016464233e-02,1.854300200939178467e-01,-4.480679519474506378e-03,-9.332122653722763062e-02,1.472007669508457184e-02,-4.422692954540252686e-02,3.766625747084617615e-02,2.726601064205169678e-02
-5.301565676927566528e-02,-1.378584653139114380e-02,-8.086358197033405304e-03,-1.988396048545837402e-02,-2.161809802055358887e-02,-8.171160519123077393e-02,-5.908002331852912903e-02,1.017441004514694214e-01,-8.485065400600433350e-02,1.007741689682006836e-01,4.985124617815017700e-02,1.921338401734828949e-02,3.529127687215805054e-02,1.185294613242149353e-02,-7.730960845947265625e-02,-4.286104440689086914e-02,-7.360477931797504425e-03,3.174132853746414185e-02,-1.050419360399246216e-01,-1.433492638170719147e-02,1.949530392885208130e-01,-1.242237538099288940e-01,4.664274752140045166e-01,8.519600033760070801e-01,5.398260354995727539e-01,6.187322735786437988e-01,2.908952534198760986e-01,6.627001166343688965e-01,-1.191557645797729492e-01,1.498618423938751221e-01,5.517321638762950897e-03,5.404447205364704132e-03,3.386626392602920532e-02,1.060119867324829102e-01,1.567422896623611450e-01,4.460248351097106934e-02,-9.069512039422988892e-02,-8.352469652891159058e-02,6.257376819849014282e-02,3.177088126540184021e-02,5.405296012759208679e-02,9.278981015086174011e-03,-4.878523200750350952e-02,-4.614182189106941223e-02,7.436154782772064209e-02,9.124715626239776611e-02,3.636846691370010376e-02,5.678900331258773804e-02,1.071044057607650757e-02,1.114315167069435120e-02
-3.204271942377090454e-02,9.199224412441253662e-02,-2.158161103725433350e-01,8.195005357265472412e-02,-7.700495421886444092e-02,-3.184030950069427490e-01,-1.084261387586593628e-01,1.905755251646041870e-01,6.791581958532333374e-02,-1.136712208390235901e-01,-2.898922264575958252e-01,-2.914946675300598145e-01,-5.511261224746704102e-01,-1.917131841182708740e-01,4.714213311672210693e-01,-1.900721311569213867e+00,4.172678589820861816e-01,-2.150325536727905273e+00,-1.389067053794860840e+00,7.882614731788635254e-01,-2.621947526931762695e+00,4.135387897491455078e+00,1.578365898132324219e+01,1.757212448120117188e+01,1.493025684356689453e+01,2.528920555114746094e+01,2.054399108886718750e+01,1.585398674011230469e+01,3.968161821365356445e+00,1.085368767380714417e-01,7.449508905410766602e-01,4.629109501838684082e-01,-4.888520836830139160e-01,-1.461100131273269653e-01,-2.501263981685042381e-03,2.233399152755737305e-01,-1.720324605703353882e-01,-1.505288034677505493e-01,1.166560873389244080e-01,3.017228841781616211e-02,1.430381685495376587e-01,1.161075085401535034e-01,1.062185913324356079e-01,4.935640841722488403e-02,2.329656183719635010e-01,9.989947825670242310e-02,4.246648401021957397e-02,9.553753584623336792e-02,-5.869282037019729614e-02,5.183424800634384155e-02
4.670467972755432129e-02,1.592757925391197205e-02,8.379192650318145752e-02,2.029929161071777344e-01,9.355066716670989990e-02,-2.206358462572097778e-01,3.928904980421066284e-02,-5.582417175173759460e-02,-2.208621501922607422e-01,6.042816117405891418e-02,-2.234037779271602631e-02,4.573439434170722961e-02,4.233260750770568848e-01,9.984461218118667603e-02,6.435766220092773438e-01,2.257641255855560303e-01,2.101564407348632812e-01,-7.231664657592773438e-01,3.610135912895202637e-01,-1.106535196304321289e+00,-8.161007761955261230e-01,2.999540269374847412e-01,6.829313755035400391e+00,9.556791305541992188e+00,1.310444831848144531e+01,1.628635597229003906e+01,1.422716999053955078e+01,1.104408836364746094e+01,1.315846204757690430e+00,-6.560580134391784668e-01,-5.865058898925781250e-01,9.053738713264465332e-01,5.003291964530944824e-01,-4.662669301033020020e-01,-1.283657699823379517e-01,-2.883354723453521729e-01,-2.409571036696434021e-02,3.092297911643981934e-01,8.825557678937911987e-02,3.351467475295066833e-02,-2.801161110401153564e-01,-9.517852216958999634e-02,-8.560567349195480347e-02,2.754505872726440430e-01,-1.534776836633682251e-01,-1.314803659915924072e-01,6.316264718770980835e-02,3.410302102565765381e-02,5.310380458831787109e-02,-9.660614654421806335e-03
2.436724316794425249e-04,2.638163603842258453e-02,2.612935937941074371e-02,6.235114298760890961e-03,-3.797456622123718262e-02,4.106579720973968506e-02,9.624409489333629608e-03,-1.348702353425323963e-03,-2.106929197907447815e-03,-3.596287220716476440e-02,9.109816700220108032e-02,-4.589756578207015991e-02,1.044733747839927673e-01,6.383713334798812866e-02,-8.042220771312713623e-02,-5.273024365305900574e-02,-3.489315882325172424e-02,1.718429177999496460e-01,8.274644017219543457e-01,1.551313877105712891e+00,-9.545025825500488281e-01,5.935325473546981812e-02,5.017919063568115234e+00,8.570644378662109375e+00,7.480025291442871094e+00,5.034435272216796875e+00,3.466588258743286133e+00,2.478363513946533203e+00,-1.162296310067176819e-01,-2.243073880672454834e-01,-7.846172899007797241e-02,1.193675622344017029e-01,-1.435188949108123779e-02,8.256430178880691528e-02,-9.112834185361862183e-02,9.811302274465560913e-02,1.605274900794029236e-02,-1.994829997420310974e-02,-4.135743156075477600e-02,-8.971935138106346130e-03,-9.873649477958679199e-02,1.184615306556224823e-02,-1.751749962568283081e-02,4.859288409352302551e-02,4.300313442945480347e-02,3.001698479056358337e-02,8.626185357570648193e-03,-1.912475936114788055e-02,1.824472285807132721e-02,1.801222190260887146e-02
-8.744861185550689697e-02,-3.606823831796646118e-02,3.275211155414581299e-02,-4.251809045672416687e-02,-3.258644416928291321e-02,-1.339721530675888062e-01,-1.865571737289428711e-01,-1.312029641121625900e-02,-5.278081819415092468e-02,-3.055992722511291504e-02,1.134430989623069763e-01,1.046154648065567017e-01,1.055692806839942932e-01,2.067990414798259735e-02,-1.609458923339843750e-01,1.955175101757049561e-01,2.503476738929748535e-01,6.794927120208740234e-01,1.383232623338699341e-01,1.463927984237670898e+00,-6.908868551254272461e-01,1.059326529502868652e+00,6.527199745178222656e+00,1.088078689575195312e+01,1.464177989959716797e+01,1.114990711212158203e+01,6.010050773620605469e+00,4.829881191253662109e+00,-1.789077520370483398e+00,4.406427443027496338e-01,-6.275116205215454102e-01,7.228150963783264160e-03,-1.463314443826675415e-01,8.224043995141983032e-02,-8.765045553445816040e-03,-1.105158478021621704e-01,-2.775596976280212402e-01,-1.962214522063732147e-02,3.964271396398544312e-02,2.510878443717956543e-02,-1.805939227342605591e-01,-5.702807754278182983e-02,-2.147048711776733398e-02,1.736981235444545746e-02,5.568536370992660522e-02,8.021306991577148438e-02,4.218730330467224121e-02,-2.211480960249900818e-02,4.495637491345405579e-02,-3.458996769040822983e-03
3.903032094240188599e-02,1.271773129701614380e-01,-8.483465015888214111e-02,1.018320098519325256e-01,-1.077565178275108337e-01,1.496085077524185181e-01,-5.129085038788616657e-04,1.603867113590240479e-01,-1.527625620365142822e-01,-8.288846909999847412e-02,3.137281537055969238e-01,-2.650677599012851715e-02,-1.244068294763565063e-01,-2.111008167266845703e-01,2.438709735870361328e-01,1.241830214858055115e-01,1.738855838775634766e-01,2.369141280651092529e-01,2.982982695102691650e-01,-2.187720835208892822e-01,-2.449951469898223877e-01,2.373879542574286461e-03,1.578025102615356445e+00,1.488596200942993164e+00,1.834323644638061523e+00,1.043137311935424805e+00,1.149086952209472656e+00,9.053812026977539062e-01,1.598143577575683594e-01,5.278814956545829773e-02,-1.534127295017242432e-01,4.493048787117004395e-01,-2.150238454341888428e-01,1.070485711097717285e-01,-4.518917202949523926e-01,-7.768546044826507568e-02,-4.665228072553873062e-03,-1.779337227344512939e-01,-2.186603993177413940e-01,4.336473047733306885e-01,6.541976332664489746e-02,8.473922312259674072e-02,-2.288086861371994019e-01,1.988055408000946045e-01,-3.798608481884002686e-02,-1.918322592973709106e-01,1.978686153888702393e-01,1.554802358150482178e-01,3.309472650289535522e-02,-7.271619886159896851e-02
-1.930061727762222290e-02,1.222035847604274750e-02,3.471149876713752747e-02,-5.027975887060165405e-02,2.431493252515792847e-02,-5.424774810671806335e-02,2.971196733415126801e-02,3.790405020117759705e-02,-1.168203074485063553e-02,-2.599103190004825592e-02,2.916464768350124359e-02,3.528442978858947754e-02,-4.114875197410583496e-02,-1.668347249506041408e-04,1.821226626634597778e-02,1.437194794416427612e-01,1.262742578983306885e-01,1.488149911165237427e-01,-3.821232914924621582e-01,-3.659273982048034668e-01,-5.287297964096069336e-01,1.294734239578247070e+00,3.834490537643432617e+00,2.532126903533935547e+00,5.513051986694335938e+00,6.353116512298583984e+00,7.513981819152832031e+00,3.369813203811645508e+00,-5.426769256591796875e-01,-2.847708165645599365e-01,-5.379540473222732544e-02,-9.734424203634262085e-02,1.335430145263671875e-01,-1.594777107238769531e-01,1.622692449018359184e-03,1.293253600597381592e-01,-1.836686022579669952e-02,-3.460800275206565857e-02,-3.112034872174263000e-02,-4.700329154729843140e-03,2.597596868872642517e-02,5.807582288980484009e-02,1.733939535915851593e-02,-1.141633279621601105e-02,9.403521195054054260e-03,3.379631042480468750e-02,-2.912634983658790588e-02,2.718148194253444672e-02,-5.992535734549164772e-04,1.389436237514019012e-02
1.772480644285678864e-02,-5.702173709869384766e-02,-5.419622734189033508e-02,7.112307846546173096e-02,2.453494071960449219e-02,4.751528613269329071e-03,9.115215390920639038e-02,-1.979664862155914307e-01,-1.336470395326614380e-01,1.195705756545066833e-01,7.683908939361572266e-02,8.348780870437622070e-02,1.027700770646333694e-02,-4.065869003534317017e-02,1.769198477268218994e-01,7.381363958120346069e-02,5.448650196194648743e-02,9.533035010099411011e-02,-2.455163002014160156e-01,-9.951089620590209961e-01,-1.654162168502807617e+00,6.517885327339172363e-01,3.689653873443603516e+00,5.370075702667236328e+00,7.097571372985839844e+00,7.726914405822753906e+00,4.376064300537109375e+00,5.797584533691406250e+00,-2.412784397602081299e-01,2.182787179946899414e+00,1.204630509018898010e-01,-4.285523891448974609e-01,9.093977510929107666e-02,-2.080695703625679016e-02,1.234053745865821838e-01,1.026401668787002563e-01,-2.394891232252120972e-01,3.314673304557800293e-01,1.815617531538009644e-01,-2.684130072593688965e-01,-2.354638874530792236e-01,-3.536063432693481445e-02,1.073814854025840759e-01,-1.260257661342620850e-01,2.827719412744045258e-02,-1.160786859691143036e-02,-8.640604466199874878e-02,-2.772756293416023254e-02,7.818965613842010498e-02,4.854483064264059067e-03
1.368736010044813156e-02,-1.614067144691944122e-02,-3.398771956562995911e-02,-5.453751236200332642e-02,-6.701346486806869507e-02,-2.029963955283164978e-02,7.875736802816390991e-02,-7.612002640962600708e-02,2.063467204570770264e-01,9.118621051311492920e-02,6.310614943504333496e-02,1.104596070945262909e-02,-1.289403289556503296e-01,-4.628185555338859558e-02,-4.943346232175827026e-02,-7.915629446506500244e-02,-9.834303520619869232e-03,1.637141704559326172e-01,6.434838473796844482e-02,9.378935396671295166e-02,1.603062003850936890e-01,-4.490587115287780762e-02,4.992280900478363037e-01,8.709062337875366211e-01,9.221875071525573730e-01,9.975852966308593750e-01,1.371811628341674805e+00,1.122157692909240723e+00,1.921590045094490051e-02,-1.085517089813947678e-02,-1.853664666414260864e-01,2.500332295894622803e-01,-7.976977527141571045e-02,-6.821098923683166504e-02,7.257778942584991455e-02,3.038377128541469574e-02,6.941048800945281982e-02,-7.937001064419746399e-03,-1.241760030388832092e-01,3.705392032861709595e-02,-1.048636622726917267e-02,1.132067590951919556e-01,-1.367446267977356911e-03,7.040868699550628662e-02,3.685823176056146622e-03,4.120499268174171448e-02,-5.842291191220283508e-02,-2.180869877338409424e-02,-6.796857807785272598e-03,6.607546657323837280e-02
5.502942949533462524e-02,1.014988869428634644e-01,-1.135065928101539612e-01,2.789216339588165283e-01,5.279687792062759399e-02,2.796771824359893799e-01,-1.729386001825332642e-01,-1.495556533336639404e-01,-3.481605648994445801e-02,1.766242384910583496e-01,2.361095882952213287e-02,6.687150895595550537e-02,3.795893862843513489e-02,2.098794877529144287e-01,-6.820891797542572021e-02,-1.540034711360931396e-01,3.065207898616790771e-01,-4.122907519340515137e-01,-1.263216972351074219e+00,-4.300813078880310059e-01,-8.119421005249023438e-01,-1.163380026817321777e+00,4.899772644042968750e+00,9.282471656799316406e+00,8.894480705261230469e+00,6.287067890167236328e+00,1.197010612487792969e+01,1.218170356750488281e+01,3.796727418899536133e+00,2.045479714870452881e-01,1.168945804238319397e-01,5.670273900032043457e-01,-5.371015667915344238e-01,1.632137894630432129e+00,5.612679719924926758e-01,-3.637201189994812012e-01,1.730486005544662476e-01,-2.833887636661529541e-01,-5.157955735921859741e-02,3.288955092430114746e-01,7.463414967060089111e-02,1.335687935352325439e-01,-3.692277967929840088e-01,-2.992517054080963135e-01,-5.688517354428768158e-03,-1.124147176742553711e-01,1.101707816123962402e-01,-4.033383354544639587e-02,2.504281103610992432e-01,2.222342491149902344e-01
-4.476179834455251694e-03,-2.208129968494176865e-03,9.843641892075538635e-03,1.978767290711402893e-02,-1.478166598826646805e-02,-7.578086107969284058e-03,7.941929996013641357e-02,-4.229103773832321167e-02,-1.826147548854351044e-02,1.703592203557491302e-02,7.223707437515258789e-02,4.600133746862411499e-02,-7.499417755752801895e-03,-2.941862121224403381e-02,-1.182681764476001263e-03,4.172126203775405884e-02,-1.021460071206092834e-02,-1.659239456057548523e-02,-4.579201340675354004e-02,6.306101381778717041e-02,1.008522696793079376e-02,-3.463459759950637817e-02,1.594673693180084229e-01,2.212961167097091675e-01,1.789023429155349731e-01,9.177958220243453979e-02,2.591484487056732178e-01,2.515010237693786621e-01,1.036964124068617821e-03,-1.713845878839492798e-02,-3.217775002121925354e-02,1.044789794832468033e-02,3.222960978746414185e-02,2.199712581932544708e-02,-2.229464426636695862e-02,7.381390035152435303e-02,2.132117375731468201e-02,-3.979564458131790161e-02,1.270501594990491867e-02,-2.996363118290901184e-02,-2.185824140906333923e-02,-1.379062235355377197e-02,5.235725082457065582e-03,3.168249502778053284e-02,4.974414408206939697e-02,6.686837878078222275e-03,-3.388253599405288696e-02,2.613616548478603363e-02,-6.907848175615072250e-03,6.423222366720438004e-03
3.212852030992507935e-02,-5.832589790225028992e-02,3.836896643042564392e-02,3.828865289688110352e-02,4.282163828611373901e-02,1.296417266130447388e-01,8.090521395206451416e-02,7.233400829136371613e-03,1.529088914394378662e-01,2.453532218933105469e-01,-1.858297437429428101e-01,-1.316733937710523605e-02,4.480862021446228027e-01,1.172074861824512482e-02,2.469405233860015869e-01,5.213804170489311218e-02,1.554397791624069214e-01,6.510861963033676147e-02,-1.875279843807220459e-02,9.636655449867248535e-02,3.940440341830253601e-02,-5.786565691232681274e-02,2.259928733110427856e-01,1.237491846084594727e+00,6.073144078254699707e-01,1.218059182167053223e+00,2.135054320096969604e-01,5.621355175971984863e-01,3.184325993061065674e-01,-1.561599075794219971e-01,-4.431836679577827454e-02,-9.452673606574535370e-03,3.766141459345817566e-02,4.066965356469154358e-02,2.602207660675048828e-01,4.474830627441406250e-02,8.567436784505844116e-02,1.423492282629013062e-01,1.815955638885498047e-01,-5.850911140441894531e-02,-3.059249743819236755e-02,2.496836632490158081e-01,2.556163445115089417e-02,8.880344778299331665e-02,-1.370375901460647583e-01,1.684643924236297607e-01,-3.912718500941991806e-03,1.196979545056819916e-02,-8.866043388843536377e-02,-6.439279019832611084e-02
4.955083131790161133e-02,5.621836706995964050e-02,-4.646957665681838989e-02,-3.769642859697341919e-02,3.945012763142585754e-02,3.790554031729698181e-02,1.395061379298567772e-03,2.520763315260410309e-02,2.856787107884883881e-02,-1.460867822170257568e-01,-6.480409204959869385e-02,7.044731173664331436e-03,1.099421158432960510e-01,4.805810377001762390e-02,-8.423128724098205566e-02,-7.823241874575614929e-03,-7.476141303777694702e-02,-4.807633906602859497e-02,-4.730575680732727051e-01,-4.490895867347717285e-01,-1.075698956847190857e-01,5.575649142265319824e-01,5.877708435058593750e+00,6.470874786376953125e+00,1.248814105987548828e+01,9.391743659973144531e+00,1.154313468933105469e+01,8.233947753906250000e+00,1.605299234390258789e+00,-9.111505746841430664e-02,6.609522700309753418e-01,-6.379179954528808594e-01,9.313897043466567993e-02,1.135997027158737183e-01,-7.083021104335784912e-02,-9.804407507181167603e-02,-1.741052269935607910e-01,7.797199487686157227e-02,-3.111567534506320953e-02,-4.250012710690498352e-02,-2.633044719696044922e-01,-3.029836714267730713e-02,8.141382038593292236e-02,5.575201008468866348e-03,1.419822569005191326e-03,2.019031941890716553e-01,-7.515507750213146210e-03,2.622584626078605652e-02,1.527083851397037506e-02,-4.773347824811935425e-02
4.400199651718139648e-02,-1.817500591278076172e-02,-2.387987077236175537e-02,1.437110155820846558e-01,5.494532734155654907e-02,-1.281088292598724365e-01,1.923657953739166260e-01,-1.387653648853302002e-01,2.014744728803634644e-01,9.079830348491668701e-02,5.007841624319553375e-03,1.442778408527374268e-01,2.183215692639350891e-02,-1.319733113050460815e-01,-1.492408812046051025e-01,4.815057665109634399e-02,1.737222075462341309e-02,5.802268907427787781e-02,1.640574932098388672e-01,1.803245022892951965e-02,2.850565873086452484e-02,9.348471462726593018e-02,2.793782651424407959e-01,2.169475108385086060e-01,1.531724184751510620e-01,2.527872025966644287e-01,3.843492865562438965e-01,4.852951318025588989e-02,5.210655182600021362e-02,4.997282475233078003e-02,1.522529572248458862e-01,5.563870817422866821e-02,4.190679267048835754e-02,6.946503184735774994e-03,-5.076017230749130249e-02,1.558090895414352417e-01,6.918477360159158707e-03,-8.046808093786239624e-02,8.484980463981628418e-02,4.374181479215621948e-02,5.693206936120986938e-02,8.736045658588409424e-02,2.119047939777374268e-02,1.375681161880493164e-01,-1.658013835549354553e-02,-1.602684333920478821e-02,-5.249061435461044312e-02,-5.342931672930717468e-02,-9.544569998979568481e-02,4.790294449776411057e-03
1.846902770921587944e-03,-1.542855240404605865e-02,4.760069306939840317e-03,-4.255355149507522583e-02,3.535947203636169434e-02,2.779730781912803650e-02,9.617099910974502563e-02,-7.105870544910430908e-02,-8.688189834356307983e-02,-7.301299273967742920e-02,8.786232210695743561e-04,-7.260708510875701904e-02,1.298455297946929932e-01,2.003957778215408325e-01,-1.056184917688369751e-01,3.439395129680633545e-01,-2.533560618758201599e-02,-1.312682181596755981e-01,-5.194676518440246582e-01,7.131534814834594727e-02,-5.380972623825073242e-01,1.544449031352996826e-01,4.275646686553955078e+00,5.769711017608642578e+00,9.490845680236816406e+00,8.047658920288085938e+00,4.784603595733642578e+00,1.953831076622009277e+00,3.540396988391876221e-01,-6.056703329086303711e-01,-4.149873554706573486e-02,3.392903832718729973e-03,6.601913273334503174e-02,1.241426244378089905e-01,7.023169100284576416e-02,7.738588750362396240e-02,1.843385547399520874e-01,-3.282613307237625122e-02,1.471033394336700439e-01,1.848162710666656494e-01,3.960194438695907593e-02,-3.111015632748603821e-02,-5.345712415874004364e-03,1.374391615390777588e-01,1.452856697142124176e-02,1.495176106691360474e-01,6.355689465999603271e-02,2.937585115432739258e-03,-1.266097743064165115e-02,2.443382143974304199e-02
-4.852764308452606201e-02,-2.024990878999233246e-02,-2.334213629364967346e-02,-1.734846830368041992e-02,-1.485841441899538040e-02,-1.288786828517913818e-01,-3.845076542347669601e-03,-6.070070667192339897e-04,3.650773689150810242e-02,6.876043975353240967e-03,4.960241168737411499e-02,-1.758277416229248047e-02,5.070071201771497726e-03,5.707408301532268524e-03,-1.453247945755720139e-02,8.184913545846939087e-03,-2.592017874121665955e-02,-4.316297918558120728e-02,3.679778054356575012e-02,9.636719524860382080e-02,3.180812671780586243e-02,-1.907612942159175873e-02,4.815860092639923096e-02,1.062618941068649292e-01,1.545709222555160522e-01,1.593231111764907837e-01,2.515151500701904297e-01,1.221288293600082397e-01,5.345145985484123230e-02,-2.605221047997474670e-02,-6.362925469875335693e-02,7.599889487028121948e-02,9.016643464565277100e-02,3.396073356270790100e-02,-4.391873627901077271e-02,7.932118326425552368e-02,-5.214855074882507324e-02,-4.681615158915519714e-02,-1.404109001159667969e-01,-6.282551586627960205e-02,-2.787303365767002106e-02,-1.311029195785522461e-01,-9.703074395656585693e-02,-4.894678294658660889e-02,-1.139891706407070160e-02,-1.018925160169601440e-01,-4.484251886606216431e-02,3.534629475325345993e-03,-2.824007533490657806e-02,6.302396953105926514e-02
3.440229967236518860e-02,3.423293307423591614e-02,-8.119796402752399445e-03,-6.489552557468414307e-02,-1.021447591483592987e-02,-5.004816129803657532e-02,1.297506988048553467e-01,-1.122771501541137695e-01,-1.200688630342483521e-01,-1.428363323211669922e-01,-1.166616305708885193e-01,-9.860315173864364624e-02,4.263017326593399048e-02,2.109294831752777100e-01,-7.438304275274276733e-02,-7.244879007339477539e-01,1.471925824880599976e-01,1.229681611061096191e+00,1.294652819633483887e+00,6.614340543746948242e-01,9.068721532821655273e-01,2.111328601837158203e+00,1.136625480651855469e+01,8.844810485839843750e+00,4.804326057434082031e+00,5.913045406341552734e+00,7.800276279449462891e+00,4.141718387603759766e+00,-8.050255775451660156e-01,5.930703878402709961e-01,-8.133603930473327637e-01,1.729056090116500854e-01,4.699040204286575317e-03,4.469813033938407898e-02,1.019508615136146545e-01,-8.228620514273643494e-03,1.146220117807388306e-01,1.443931758403778076e-01,3.243331983685493469e-02,-1.476218402385711670e-01,-9.705273061990737915e-02,2.337573319673538208e-01,1.321488171815872192e-01,-1.552452426403760910e-02,-1.699936762452125549e-02,-3.945619240403175354e-02,-2.170343138277530670e-02,-6.234023720026016235e-03,-3.994070738554000854e-02,-5.548296123743057251e-02
-7.621160894632339478e-02,4.659290984272956848e-02,1.578953415155410767e-01,9.200753271579742432e-02,1.052216440439224243e-01,-2.958927452564239502e-01,1.663991212844848633e-01,1.253975927829742432e-01,-1.163404807448387146e-01,1.667865812778472900e-01,3.030970692634582520e-01,-9.956196546554565430e-01,2.921226918697357178e-01,-3.794628977775573730e-01,2.102179974317550659e-01,-2.071275264024734497e-01,2.304041832685470581e-01,4.645031094551086426e-01,9.026437997817993164e-01,-2.160298526287078857e-01,8.583700060844421387e-01,7.069352865219116211e-01,7.704690456390380859e+00,1.987154006958007812e+01,1.100580596923828125e+01,1.891740989685058594e+01,1.155108642578125000e+01,6.786371707916259766e+00,-3.254484534263610840e-01,-1.170529723167419434e-01,6.972581744194030762e-01,1.613026559352874756e-01,8.477339744567871094e-01,-2.316352874040603638e-01,-1.844271719455718994e-01,-4.988971650600433350e-01,1.367610227316617966e-02,-1.504697650671005249e-01,-9.298218786716461182e-02,-1.306538581848144531e-01,-1.366047561168670654e-01,-1.709308922290802002e-01,-1.148021444678306580e-01,-1.111125349998474121e-01,-1.431654691696166992e-01,1.328543275594711304e-01,1.495356261730194092e-01,4.922397434711456299e-02,6.355929188430309296e-03,7.410301826894283295e-03
-5.365914199501276016e-03,-3.200728446245193481e-02,-2.003858331590890884e-03,-2.085800170898437500e-01,-1.589558422565460205e-01,-5.941262096166610718e-02,-1.627388596534729004e-02,1.763158738613128662e-01,-1.602932512760162354e-01,-5.941342189908027649e-02,-8.860079199075698853e-02,2.421361207962036133e-02,1.622495353221893311e-01,1.308798193931579590e-01,-1.411409974098205566e-01,-1.171334236860275269e-01,-8.913967758417129517e-02,-1.039241999387741089e-02,4.923201352357864380e-02,-2.357765138149261475e-01,4.400762915611267090e-01,-1.983271539211273193e-01,1.238723993301391602e+00,8.821943402290344238e-01,1.410172879695892334e-01,1.074710249900817871e+00,1.257661938667297363e+00,1.087445616722106934e+00,-2.928311470896005630e-03,2.172427177429199219e-01,5.772331953048706055e-01,-8.402949571609497070e-02,6.761550903320312500e-02,7.695819437503814697e-02,2.071056663990020752e-01,2.413628846406936646e-01,3.885937631130218506e-01,6.830042600631713867e-02,-5.213461071252822876e-02,-6.600194424390792847e-02,-7.357244193553924561e-02,1.958965361118316650e-01,-6.271965801715850830e-02,2.003202959895133972e-02,-6.974768638610839844e-02,1.100132912397384644e-01,1.234722360968589783e-01,-7.450629025697708130e-02,-3.511868789792060852e-02,8.201339095830917358e-02
-2.128527685999870300e-02,-2.025374583899974823e-02,-1.481586974114179611e-02,-3.541451692581176758e-02,4.485117644071578979e-02,-1.235303878784179688e-01,6.324649602174758911e-02,1.464174538850784302e-01,1.198316439986228943e-01,7.127082441002130508e-03,1.575059890747070312e-01,-6.928624212741851807e-02,9.082069247961044312e-02,7.077757269144058228e-03,-1.076118946075439453e-01,1.415441334247589111e-01,1.860027462244033813e-01,-4.141438752412796021e-02,8.330647647380828857e-02,2.091923505067825317e-01,-6.571192294359207153e-02,-6.593588739633560181e-03,1.117177367210388184e+00,1.398670196533203125e+00,1.208932638168334961e+00,6.120195388793945312e-01,1.344918966293334961e+00,9.153418540954589844e-01,2.192167341709136963e-01,8.465494960546493530e-02,-1.857355535030364990e-01,-3.083256445825099945e-02,-9.175569564104080200e-02,1.440403461456298828e-01,-6.635275483131408691e-02,5.169848725199699402e-02,-2.164729833602905273e-01,4.414088279008865356e-02,-1.373794376850128174e-01,-4.819194972515106201e-02,1.840085834264755249e-01,-7.635678350925445557e-02,9.365638345479965210e-02,4.168867692351341248e-02,1.290934681892395020e-01,-4.879894480109214783e-02,8.415644615888595581e-02,6.211324408650398254e-02,-1.347384415566921234e-02,-9.768806397914886475e-02
8.027821779251098633e-02,-7.686999440193176270e-02,-2.013004273176193237e-01,3.975339978933334351e-02,-5.256702750921249390e-02,-8.749222010374069214e-02,-3.509255871176719666e-02,4.901833087205886841e-02,1.872726976871490479e-01,-1.229118648916482925e-02,2.521439194679260254e-01,8.560391515493392944e-02,8.035029470920562744e-02,5.173020809888839722e-02,-2.429970800876617432e-01,7.018791045993566513e-03,-1.241894721984863281e+00,3.973265290260314941e-01,-2.637985050678253174e-01,1.022768974304199219e+00,5.247629284858703613e-01,-2.572210788726806641e+00,1.271588897705078125e+01,1.628990173339843750e+01,1.507326698303222656e+01,2.243222808837890625e+01,2.706076622009277344e+01,2.896719932556152344e+01,3.247940778732299805e+00,-7.154267430305480957e-01,1.209864735603332520e+00,-1.544280409812927246e+00,7.928959131240844727e-01,-6.201791167259216309e-01,-1.977063119411468506e-01,1.431742161512374878e-01,6.170046925544738770e-01,-7.581733912229537964e-02,2.078543454408645630e-01,1.369146108627319336e-01,-5.092728734016418457e-01,-4.750492796301841736e-02,3.364176154136657715e-01,-8.918510377407073975e-02,-1.144792698323726654e-02,-4.211947917938232422e-01,1.467204988002777100e-01,8.126159757375717163e-02,-1.222548037767410278e-01,-2.177833020687103271e-02
