1.533408363860733203e-01,1.133607940012202553e+00,3.668533723433251570e+00,5.441900016073313751e+00,2.762929437363399465e+00,2.872674224959251722e-03,8.284772471123499349e-01,-1.821073561022358844e-01,6.170022401333642020e-02,4.051879706558957905e-01,9.144647109779887595e-01,6.123759304281936044e-01,5.385386668434172242e-02,-4.906673409860572849e-02,1.649140248562166733e-01,3.332917844093731818e-01,3.253331471812117570e-01,1.595400581450971411e-01,7.311445918928295186e-03,-8.528808825267387983e-02,-1.125311558254327160e-01,-1.296915902933868658e-01,-1.092077780838216911e-01,-6.943318431290555759e-02,2.977580492697189107e-02,1.188085849520748721e-01,2.586118814322851955e-01,2.428677186081061312e-01,2.039164343230663590e-01,1.144133710171318236e-01,1.831244294209701320e-02,-4.020779861945986133e-02,-6.216669547588538763e-02,-3.715473786583290555e-02,1.591424151029604064e-02,9.792624526180741806e-02,1.526048395396259472e-01,8.186237146158238664e-02,3.468876354904978226e-02,1.148737912163610639e-02,2.003763652347491098e-01,4.235089605958789472e-01,7.559927874499872136e-01,9.891415754166885677e-01,8.384789371266889724e-01,1.085241706889691793e+00,7.804433387503112440e-01,2.267882407918155874e-01,8.494335754293889929e-02,4.975857812048017914e-02,1.503857195694455751e-01,1.412455463233789621e-01,6.701933283769874461e-02,7.877803911936286096e-02,8.274604480000695428e-02,8.874752455563257592e-02,8.290167091476062511e-02,1.526438817073224596e-01,1.925702681691530971e-01,1.063622750600080186e-01,1.896264643948067097e-01,3.479501674828361923e-01,2.515462419041939457e-01,1.271041502252494293e-01,9.630564461399704346e-02,9.832907397085229040e-02,4.453622978801114601e-02,-2.362282500996845669e-02,-6.021965449445165763e-02,-3.746787085359241237e-02,-1.253360328709712812e-01,-5.774630028818890197e-03,2.112993337001524974e-01,9.371740806163173509e-01,8.672817571993588492e-01,1.118981641350215606e+00,7.572113863933841449e-01,1.297755776457126253e-01,5.891641843382799948e-02,-1.790214810359338918e-03,1.696181166555406003e-02,-1.679463684894781303e-02,1.957690534161150506e-02,4.799422472596944628e-02,2.873921071671750940e-02,5.113022287390667220e-02,4.116195765161960278e-03,3.428366799605488124e-02,1.568381420596149170e-02,6.064012525179925291e-03,3.813718336490752158e-03,8.713565432002497516e-04,-8.367814376934866081e-05,-3.909246255020270319e-04,-6.014604283758809419e-04,3.648878948837345430e-04
3.326353699898732530e-01,2.016217056722509948e+00,4.980417059102082433e+00,3.187128336296083830e+00,8.650949831018382996e-01,7.539482562037913560e-02,6.784981470209331400e-01,2.458921396506074525e-02,2.109678471156194723e-01,-2.223359890303835407e-01,-4.818157114496813276e-01,2.019969515656622472e-01,-1.846777143214655137e-01,1.913546152654505561e-01,4.504949975679172769e-01,4.888534303002186054e-01,7.485744557907818564e-01,2.488075718159393490e-01,2.829143832233498856e-01,8.640808764766667871e-02,-2.871800671640421104e-02,-1.106270542325160505e-01,-1.219827272269777274e-01,-8.965764409499484000e-02,-2.905809545818715048e-02,4.699094279863172408e-02,1.118726776043685867e-01,1.228869849910792234e-01,9.716933622167125972e-02,4.952390730219798781e-02,6.192958799889997047e-04,-2.826851915759852341e-02,-2.363734898254762559e-02,2.419870869128603816e-02,4.863983589208008274e-02,9.935748669578088610e-02,1.414952499944985009e-01,-1.271355444742535735e-02,6.100211240283303369e-04,2.080326936604242616e-01,4.080790458624061201e-01,7.071564770908705944e-01,1.147171377350412635e+00,9.636189531322453261e-01,8.322663905730199874e-01,3.578848765052541347e-01,3.041860917897424854e-01,6.193349393352388654e-01,1.114972009067315001e-01,6.372820409363376404e-02,1.146638511747077593e-01,1.561749922421521233e-02,9.892524889854997783e-02,1.548429141514607310e-01,6.312308091114314512e-02,6.257192572155521881e-02,1.365547347561119063e-01,9.510178892583356913e-02,9.415157462125539611e-02,2.985247673194028617e-01,1.184697793057246373e-01,2.103335210495710650e-01,1.716843696558648102e-01,1.609458302224843484e-01,1.787163169908913551e-01,4.907568949148807119e-02,1.129737387603904769e-01,1.669225756269708885e-02,4.322422790226528727e-02,-7.433047750833558787e-02,2.908938820407099696e-02,-3.864491111897392500e-02,1.805048812953988224e-01,3.552729594464384966e-01,1.057034893840551160e+00,8.242251107506211039e-01,4.126433652561676824e-01,3.257529544830935486e-01,2.519524527167205097e-01,1.968827955080396375e-01,9.568640889538850350e-04,1.734489806416930277e-02,-7.848508116400303158e-03,3.116992039788282418e-02,-2.080429061503066834e-02,9.675640519447033239e-03,-1.348758760318652904e-02,-2.177568095108924073e-02,3.576063473302374535e-02,-2.894099948707737693e-02,6.081972446116551412e-03,-2.642613155929422514e-04,-7.293586896338848753e-04,-8.738753044445411690e-04,8.937852380918730622e-04,9.208955094412880080e-04
6.562365660699370773e-02,3.908012161714273236e-01,9.002952169118614290e-01,2.802483242469000935e+00,3.967703276957859515e+00,1.183911589942416853e+00,-5.793728164975591177e-01,-5.491275410535708668e-01,1.542895630690032327e+00,-5.883819095151742590e-02,-3.851666271980060396e-01,5.050988029537669677e-01,1.208526188797573564e+00,2.723605371398081232e+00,2.829217202057217495e+00,8.227708270024661763e-01,1.349046308548099149e-01,-4.159925641769763871e-01,-8.263536257570949228e-01,-8.079774506181933713e-01,-4.299472883450832228e-01,-2.332408992627112709e-01,-1.431402666394802348e-01,-2.875602920868015541e-02,1.326745798797991302e-02,3.462310769788520121e-02,4.078765719391036493e-02,2.750540239636245152e-02,1.201566360942901701e-02,2.657431180458543971e-03,-2.692009649568949392e-03,-5.443073524006629416e-03,-6.493013708801585737e-03,-6.309270230536572106e-03,-5.762318411566544514e-03,-5.016533687601371777e-03,-4.369966090617370680e-03,-3.616338753269770102e-03,-2.572644565878439826e-03,-2.251004783378822340e-03,-1.653063836005840698e-03,-1.317424941296509687e-03,-1.080866934594239661e-03,-9.695408068451671392e-04,-8.838530665513683483e-04,-1.143055262703775643e-03,-1.364940296332108624e-03,-2.421210271216124241e-03,-5.405458154489640836e-03,-7.605495916133558215e-03,-4.978567155031522057e-03,-4.712699002443880916e-03,-6.608647464580721595e-04,4.032018290546409908e-03,-7.912613220022194835e-05,-5.890077228886491864e-03,-2.283254885254751565e-01,-4.680939420922530236e-01,-3.084398702995884145e-01,-2.711617824812929123e-01,-4.148958535088826394e-01,-3.479766463509656460e-01,-2.317704178994751951e-01,-2.029400992327494435e-01,-1.680933914576912269e-01,-1.348734827726897900e-01,-1.216933207832483904e-01,-8.203519899595189402e-02,-4.407434774147186290e-02,-8.483246078424695746e-02,-1.980630888682235191e-01,-2.231647832489957184e-01,-1.088706569245967565e-01,-1.850796476345112698e-02,2.159414243757314805e-02,4.300364047953609409e-02,3.171452087165034517e-02,3.635359071637597056e-02,2.900923219768334130e-02,2.907205758722832337e-02,4.749963257459405286e-02,1.227802138209764249e-01,2.472639904698429869e-01,2.849737580896979927e-01,-5.987279534667100389e-02,-8.578195096428188338e-01,-1.727003350492674727e+00,-1.213145122655389763e+00,2.129537330618705315e+00,7.943989711958169941e+00,9.380089497791262332e+00,6.040030780848200997e+00,7.336956632413139667e-01,2.507668492292537632e+00,5.081956291072245335e+00,3.421885567411010243e+00
7.252418287041370037e-01,2.402988810465298997e+00,3.348483518188576813e+00,1.862641052253779739e+00,1.689639767188811648e-01,9.947984771639779844e-02,-4.909936520062852527e-01,-7.439722959283529002e-01,-3.963461837279320110e-01,-2.175333834310668735e-01,5.305107385702945155e-02,-7.367382730097372934e-02,2.894184987689713551e-01,4.464429490430257830e-01,4.066590026576055728e-01,-1.002854199341064040e-01,-6.315158433196171872e-01,-1.044217459414999993e+00,-1.066231394376793817e+00,-7.441855156959605866e-01,-6.102291077096371197e-01,-3.947496405014596643e-01,-2.284792855722901916e-01,-6.567306380586512837e-02,1.414613404662167229e-01,3.716497157840816246e-01,4.973887487361152160e-01,4.703175676876970024e-01,3.246801522336551504e-01,1.273986440875642390e-01,-3.700996506979693790e-02,-8.495386326044804259e-02,-4.456268505234899091e-02,4.398909058159861107e-02,1.071233785442343434e-01,1.159381801217687219e-01,7.323940806777978763e-02,-1.775527857839708174e-03,4.105707752031824420e-02,1.739729922852793487e-01,3.372294889429542919e-01,5.867489715395133310e-01,7.322770733114909447e-01,5.457945669806540945e-01,3.589599266106779929e-01,2.875376653352710310e-01,1.580426805997075523e-01,9.815296977446802407e-02,6.492186490158911860e-02,5.609591589422519009e-02,7.836989009286074448e-02,1.138924113546196243e-01,1.700119835138294844e-01,1.822848422560938431e-01,2.093919373549729124e-01,1.941949608077033207e-01,1.489323851823036726e-01,1.691331417146615113e-01,1.874946392925875283e-01,1.756629871950529942e-01,1.497741594252446351e-01,1.728330416318950846e-01,1.628268767436288622e-01,1.456554100886865710e-01,1.340834613440456680e-01,1.179756709661027164e-01,1.182091250363962454e-01,5.993262704109503236e-02,2.192503200630908228e-02,-9.106471689067110326e-03,-1.728129464681322841e-03,5.706576813664365061e-02,2.421590468083784364e-01,4.829431124783858942e-01,6.695042059920811583e-01,5.383919129324029607e-01,2.751862965460591948e-01,1.922989233751931648e-01,1.231777082556139991e-01,7.177391168018618095e-02,3.251370580736793331e-02,3.661748825677881708e-02,2.523778496354704692e-02,1.142272833989745051e-02,3.959119301122977080e-02,5.459663277158654376e-02,3.461683581198947424e-02,1.469765596936381015e-02,1.923678858191617616e-02,2.449035084284033326e-03,-1.016037426765488416e-02,-1.528669748680514320e-02,-9.852232715922150386e-03,-9.337323799666829086e-03,1.777381995315739302e-03,9.731325000048297175e-03
-9.422486498123830434e-02,-5.705882632041849867e-01,-2.325661536446459010e+00,-3.584678771965858157e+00,-2.376435962484413356e+00,-6.302811281712844549e-01,9.041000822181828600e-02,-4.084106612839057404e-01,8.454847299528017723e-02,7.356782828706204258e-02,-2.209381034740530714e-01,-3.523971853614106808e-01,-4.881539549439243286e-01,-3.318171357796039778e-01,-1.916486336418961600e-01,-6.978907046296418948e-02,-2.953884905630179292e-03,-6.451052187715343444e-02,-2.127187047866671912e-02,4.101767475729696522e-02,5.188129021683206277e-02,7.562939896029663087e-03,-7.830036600094018862e-02,-1.214848223982274156e-01,-1.048317668729201180e-01,-6.783292405285373805e-02,-2.660758668681575262e-02,7.009293578200421343e-03,2.117108182400337726e-02,2.081539590536980733e-02,1.473585098753872093e-02,7.306201608587007193e-03,7.743510220048176185e-04,-3.021692230432060453e-03,-4.677531019516921462e-03,-5.249244233746577781e-03,-5.470290175796044436e-03,-5.281740802273552325e-03,-4.649212420449586394e-03,-3.378605260804293763e-03,-1.466691849883731968e-03,2.906378358971433893e-04,9.461451745600365799e-04,1.255075314629930697e-04,-1.324995823217095005e-03,-2.630681023106361607e-03,-3.730293603146690121e-03,-3.664348414918911293e-03,-2.798473927467337412e-03,-1.418450637243135132e-03,-1.212192201858725222e-03,-5.837065070443859735e-03,-2.045674796657956027e-02,-3.204781936577405510e-02,-2.746134971709713116e-02,-6.852822501436288058e-03,-9.271939307199805400e-03,-7.100790406022858270e-02,-1.425431117825783356e-01,-2.408297958516562032e-01,-3.673009778800668257e-01,-4.347959039874353948e-01,-4.411920010994206942e-01,-3.819778035597494181e-01,-2.985754727557686783e-01,-2.534164653258670907e-01,-2.277659500325193986e-01,-2.080652698798429179e-01,-1.693967410112490191e-01,-1.084764795890415523e-01,-9.135039166372717345e-02,-9.177906056652564148e-02,-8.915227864485790465e-02,-1.348004691523910781e-01,-1.842045195714648587e-01,-1.213391759464874237e-01,-6.922810255661435153e-02,-4.667923059899819344e-02,1.697309295309088958e-02,7.857966366364645128e-02,1.614687370705351621e-01,1.626223168732514046e-01,9.977205274307827942e-02,2.635091032267755651e-02,3.435853960640788268e-02,2.310872162096813676e-01,8.918819448910251246e-01,1.550103586354890650e+00,5.635925130464261024e-01,2.885433338689454286e-01,6.523654341475489282e+00,1.385818672355873282e+01,2.566749427283678386e+01,1.791960902076068507e+01,8.275610433429372748e+00,-3.182764808650833555e+00
6.192627528804554166e-02,8.578605985790361821e-01,3.485578670413091995e+00,5.848806985171835393e+00,3.460221319048179645e+00,3.629322159761153577e-01,4.543134608021572318e-01,6.794288606189538005e-01,1.100885219243563206e-03,-1.708745148403865433e-01,-2.750618440556860667e-01,-3.044064079922915722e-01,-3.807460887394651522e-02,-1.037202732493415908e-01,1.805424983741680811e-01,5.105100419390974364e-01,5.748378360327942582e-01,5.317233004843089361e-01,4.017432155623376633e-01,2.512745885956762515e-01,5.674417677902982016e-02,-4.487553419290034318e-02,-9.018709746181283182e-02,-9.689282163130044645e-02,-6.819169715409392762e-02,-1.870566150466502001e-02,2.880006471232926524e-02,6.380327965969477544e-02,7.385287193415972229e-02,6.389390289053661909e-02,3.912313821340311637e-02,9.323613255118696694e-03,-1.661767931999634518e-02,-1.721427151466608033e-02,5.377380954826343172e-03,5.285933467578333989e-02,9.835867589637664610e-02,1.292770470951303818e-01,1.944851747100331124e-02,-7.151460742825793172e-03,3.372893083870386749e-02,2.226148377393622479e-01,4.823669412765340669e-01,8.181979582307037369e-01,7.904136177666599705e-01,8.993444559685382922e-01,8.011076318072909430e-01,4.865790078715855893e-01,3.149013396344257365e-01,1.173051330296716183e-01,8.396041166398418576e-02,5.263911096629712849e-02,4.760588052849820673e-02,1.156189189864194056e-01,9.570384827145790585e-02,5.696374459344438757e-02,4.256826933632033849e-02,4.671194721986473425e-02,1.156804029647490462e-01,1.718948592770382366e-01,2.100873219103763789e-01,1.514383615948025896e-01,1.475123605844496089e-01,1.637293145301853825e-01,1.668022131731346780e-01,2.245110454665907307e-01,1.056941136534361309e-01,3.701699586390490553e-03,-5.128841722668274483e-02,-8.574095961450156622e-02,-7.605595113824320519e-02,1.299503969125000331e-02,7.207526979247373677e-02,4.905262471528476498e-01,1.005931552837173726e+00,7.190639951534115726e-01,3.958641948675871158e-01,2.112374566347103300e-01,2.699700827753111487e-01,8.473928117473307486e-02,3.427552355153713759e-02,6.960626501040560743e-02,-2.212220153151587046e-04,3.427364567200101141e-03,1.664605027009181254e-02,-2.612199013744322812e-02,1.870534435091883441e-02,7.781658959442665224e-02,1.855060798417134532e-02,2.280643115983525121e-02,1.537313996617100536e-04,4.988496712742211854e-03,4.781617642294799103e-03,9.298030334912046842e-06,-3.286393324902655536e-04,-6.076550545909129757e-04
-2.164273703483985123e-01,3.876430951550360188e-02,1.187811170300247632e+00,2.279971608065149979e+00,2.443999411529933052e+00,9.045212126535318031e-01,-1.194761633276095747e-01,3.135159043776967747e-01,1.309417629865113619e-01,-1.444989071064574915e-01,2.881205251147854474e-02,-4.700061426199253489e-01,-4.778238126874181924e-01,-1.429539186597863498e-01,-2.325522666238962963e-02,1.133534581434441912e-01,3.899623327182711319e-01,6.278961319614371206e-01,5.827884250015716860e-01,4.986851887489437973e-01,3.560222593078750108e-01,1.560534983903698325e-01,3.990688271402269283e-02,-3.369112504306038397e-02,-5.512553930826036286e-02,-5.798674198266914881e-02,-4.426049317459312266e-02,-2.299609749611450371e-02,-1.232060779123536620e-02,-7.144862842058494201e-03,-2.476587840352500406e-03,9.146389779184961339e-04,5.495637259906233085e-03,9.894885410214535049e-03,1.356770788526331234e-02,1.506685683595962444e-02,1.179478024844539397e-02,5.851932876986616801e-03,-1.101132402018490838e-05,-4.019526391588151490e-03,-4.460921930311908742e-03,-3.762309085201284535e-03,-1.698414415846381288e-03,8.009424362099575381e-03,1.433895201699494221e-02,2.665384788776480746e-02,4.381144156658726280e-02,1.388787059276588333e-02,-6.070122630746371643e-03,1.447425016009561485e-02,1.085129706475630035e-01,2.898545013802619197e-01,4.311923463866097483e-01,5.478839618791286892e-01,5.090551137758477784e-01,3.981989900425913498e-01,3.374714427874998535e-01,2.891889571589355001e-01,2.450543731101490486e-01,2.219576358773893143e-01,2.059618361828627620e-01,1.767235353203701342e-01,1.572893133146703593e-01,1.558271509260561460e-01,1.453543799431931405e-01,1.214865287530531440e-01,9.455473870223655986e-02,6.419080532182927512e-02,3.487097652576059970e-02,-7.774569695648655271e-03,-7.018961539714495268e-02,-1.556953744153304620e-01,-1.931212246215708861e-01,-1.554192803573756221e-01,-1.218190250708317962e-01,8.300760594915974899e-02,3.576620615594462427e-01,4.571430054935247678e-01,5.578721895599827452e-01,6.718350884090396047e-01,6.754630134983509171e-01,6.457987746412283681e-01,4.191831598653536495e-01,7.135280707453912907e-02,-1.538504839543830272e-01,-3.567683528976726276e-02,1.653460929311975913e-01,4.793102804718580301e-01,2.926198587884978886e-01,-1.659595213271390701e+00,-4.032448376766363474e+00,-4.137215180856872010e+00,-2.376739761847646015e+00,-6.331386429727059451e-01,-1.990464744729332436e+00,-1.456658514577510832e+00
1.313600157022925430e+00,3.044126866221993133e+00,1.845753075140701416e+00,8.577740588676181499e-01,-1.207076929110143275e-03,6.453945354146038704e-02,1.185570645010127211e-01,3.270089615929903659e-01,2.295651780463723590e-01,2.604817011524054871e-01,-5.167565925598324728e-02,-6.777777384016693552e-02,8.600710168534553279e-02,3.275382481624573572e-01,3.057151101528164383e-01,3.833027638756599798e-01,1.690153257912224427e-01,9.070139507061379669e-02,3.292371767228508689e-02,-4.161687787445800951e-02,-1.112492385428447278e-01,-1.541280122808589559e-01,-1.350331624917240347e-01,-6.401635647760753334e-02,6.549184605776456336e-02,1.586586666676049473e-01,2.779409986588133874e-01,2.668542724544898936e-01,1.684282348444939292e-01,6.590969055248324660e-02,-1.402494610567330859e-02,-1.760222609977439567e-02,6.324867468166604778e-02,1.152771658633720830e-01,1.936203248652018649e-01,1.310884124814801766e-01,5.410076104957989122e-03,5.454559469885405208e-03,2.625510511260435442e-01,3.766111693995846110e-01,9.313343465325365500e-01,8.150309149753642846e-01,7.561543166673093674e-01,4.425926021828772150e-01,3.013595498164017839e-01,2.197738611186988433e-01,7.664030020273458754e-02,4.824735645137897405e-02,5.656026536229453311e-02,-2.409899681418631225e-03,8.673805991487260059e-03,1.172247800110128024e-01,2.285165438975704233e-01,2.719699037574337397e-01,2.647712667999387315e-01,1.547726518203910162e-01,1.794474399190227054e-01,1.427549137119877853e-01,1.157197321376102206e-01,1.579858770263335155e-01,2.816347796206439824e-01,1.077298148707396125e-01,1.748088829708424607e-01,2.239132223981154246e-01,5.597541501975911854e-02,1.018110134093978408e-01,7.241397135616042813e-02,6.659623415512862243e-02,5.146154545257560636e-02,2.128408743860413233e-02,-1.175692280539797005e-02,-1.304864454338236675e-02,4.513928094325926621e-02,2.242468936782924527e-01,4.966196780790256837e-01,7.568666800367646053e-01,5.880962156571855060e-01,4.226941206815501562e-01,2.812723289355362755e-01,8.091987713501867796e-02,3.181627441915224619e-02,6.837141335276249177e-02,2.170859612355236640e-02,9.656859976675639945e-03,9.116928327756901318e-02,3.651834606440720887e-02,4.459278221150293070e-02,7.862445718857548338e-02,6.023004356579170909e-02,5.042644089512173270e-04,-1.754389261637620198e-02,-6.534821756023487249e-02,-8.869902808856099108e-03,-4.924410589333861818e-03,2.101944096733550024e-02,5.421170368240112170e-02
1.066181751911906339e+00,3.463228992187895816e+00,3.897780973683855343e+00,3.474973642557777076e+00,4.206724333636233104e-01,-1.630255846924837937e-01,-1.727035576823092944e+00,-1.981370129297481242e+00,-7.914673694917488955e-01,-1.465893393996522964e-01,7.832687112180933275e-02,1.220984452202208276e-01,4.167477454108229895e-01,2.272086599658976469e-01,-5.534899691587225751e-02,-5.409133632187366203e-01,-1.180075457893493773e+00,-1.289244097455348959e+00,-9.723452062928312767e-01,-5.566674524027201976e-01,-1.293453036750727148e-01,3.265188011193244366e-02,8.216868188354611857e-02,5.645441131970773546e-02,2.091588030172318938e-02,6.014794185106929307e-03,1.758292405691221430e-02,3.422571755658845860e-02,4.001621327583929771e-02,3.209297845388504183e-02,1.323404943881198448e-02,-6.447054556413473261e-03,-1.098574811593805434e-02,1.381860337954050021e-02,7.900109864570926954e-02,1.373694872773172093e-01,1.496492657244703484e-01,9.581292533346318085e-02,1.639683428521307321e-04,6.145895228342188044e-02,2.552484771846619260e-01,6.943900680582065776e-01,6.815439192515366784e-01,8.315555003230388209e-01,8.892079875275010759e-01,7.671265707037006054e-01,3.987290488863311499e-01,1.785798541490994928e-01,1.068211558401503808e-01,7.282408008139545919e-02,1.171228330800944545e-01,1.593147512075940297e-01,1.519525539914749479e-01,1.290451842510352276e-01,1.173759926277967852e-01,1.498202046766100581e-01,1.279045377358805080e-01,1.241746407009226005e-01,2.302797407781885797e-01,1.601185175567199082e-01,1.358219812212883570e-01,2.090364267477027582e-01,2.018692742315005006e-01,2.100861481188000257e-01,1.320945636275829838e-01,9.215550691843628350e-02,1.111177009654840120e-01,5.086128077168253214e-02,3.503516895159645549e-03,-4.149722143747668762e-02,-8.026858232759682965e-02,-1.905997994885216124e-02,1.800125971020427942e-02,2.333384008899529738e-01,6.506566062518996940e-01,1.058995989009171579e+00,7.265140119086103132e-01,2.893178699228634576e-01,2.234095438310274573e-01,4.930939739424791690e-02,-1.291953428915929881e-02,-5.760824855716373087e-03,1.584563907963291648e-02,9.929203620376236827e-02,3.100964248390260594e-02,1.528898011009081903e-02,5.304267539019547062e-02,6.417133686319288766e-02,2.413548799010399940e-02,1.259336923527113253e-02,1.287974547502022775e-02,1.804617911822187096e-03,-5.614357109697694879e-04,-1.700814291744496328e-03,1.731334723252543097e-03,2.159170327677948330e-03
-1.035652698563017809e-01,3.608270629436682864e-01,1.867378652095769365e+00,5.664563581098523315e+00,1.126353699660031715e+01,1.221390803590915475e+01,3.913997583934766045e+00,-2.638384581784257499e+00,8.581193801710331748e-01,5.468038337970579477e+00,4.354721891910598330e+00,1.174546310059748910e-01,9.070215921540883963e-01,9.834694511702912756e-01,1.583997274001691880e+00,3.511727193700416194e+00,2.486400233600225551e+00,5.387131105468514480e-01,-1.370245363147562789e-01,-5.654900620974631087e-01,-6.419097462803878829e-01,-4.680965876169977391e-01,-3.556062757310926026e-01,-2.855442994597587880e-01,-2.032645525205311887e-01,-1.128885547346763357e-01,-3.209398155402300862e-02,4.526617425960165197e-02,1.130916430971041914e-01,1.696602814801161097e-01,1.828239043550250742e-01,1.733118732722110922e-01,1.181860113529343698e-01,-1.023240935471422461e-02,-1.299262675984736715e-01,-2.431000775391873037e-01,-3.008844120751223428e-01,-2.438620826058733870e-01,-1.554256936975725312e-01,-6.306923633605027169e-02,1.409477207470815653e-02,4.415040593479958170e-02,4.111010975956438940e-02,3.038896223003411876e-02,1.531352116713847675e-02,3.837421812724997692e-03,-2.651300604389398002e-03,-9.938633872058091207e-03,-1.824043650603349859e-02,-2.026653808341409221e-02,-1.834679933107682265e-02,-2.304660846900172255e-02,-3.649176798742419497e-03,-2.293100994197895190e-02,-1.338513984226892550e-01,-2.154502493135931618e-01,-3.490651978214747153e-01,-5.128885649585325224e-01,-4.484963041949355800e-01,-3.180933158511490277e-01,-2.305308006839288937e-01,-1.274845572254836024e-01,-9.260222237858009575e-02,-1.908633701411941164e-01,-2.762906655478842843e-01,-2.064322004800503985e-01,-1.346794751280067648e-01,-1.201991836744950165e-01,-1.147950956338218975e-01,-1.269242098575046884e-01,-1.335983984182207707e-01,-1.131713923106044545e-01,-1.194866992473889028e-01,-1.674976868338643454e-01,-2.005853291507870562e-01,-1.508538210027630666e-01,-6.680942799940824128e-02,-2.865670514870009324e-03,-1.243497377927913665e-03,-7.890212139086741350e-02,-2.799262666422306367e-01,-4.637057454640420295e-01,-4.515453866915281611e-01,-3.498336053505973764e-01,-1.922193788408549653e-01,-7.088652375282819551e-02,-3.701073510746467898e-02,-7.805714910674151075e-02,-1.480718829655578717e-01,-1.704620693423634648e-01,-1.378699592301615429e-01,-7.835871583645570571e-02,-1.032023610385307023e-02,1.104870237123043442e-01,2.154298852554975829e-01,2.006912122452673419e-01
-1.606876633301405066e+00,-3.161751562657397763e+00,5.213550096014013313e+00,1.161639910807060083e+01,1.390479093654664267e+00,9.981415913564873676e+00,3.560723051996444344e+00,-2.325815890350371618e+00,-6.853820399249424433e+00,2.747126604865305133e+00,4.235381246512875286e+00,3.150720871097159037e+00,2.772474580048896797e+00,2.593531933398397715e+00,3.907204650981737526e+00,3.128671984579252108e+00,2.438308605413621155e+00,1.485524553584664620e+00,6.474819778069571541e-01,2.552458887440891555e-01,-8.960268530405585130e-02,-1.227358111070372543e-01,-8.385812198935012340e-02,-7.291918309143095335e-03,1.795306820277851531e-02,5.531855083630543915e-03,-4.765062726364722306e-02,-1.220340404565061765e-01,-1.624674576768017908e-01,-1.309940644331164250e-01,-2.370340802162500607e-02,7.498998348137055417e-03,-8.553494067244186982e-02,-5.924176339645109701e-01,-6.280161911889056148e-01,-1.154796013217880502e+00,-8.806909918613833321e-01,-5.312899885465814931e-01,-3.016409601482120117e-01,-1.524925072980634067e-01,-1.546560417678942978e-01,-1.148581567782586965e-01,-2.702526355050539619e-01,-1.068582885933178628e-01,-1.252138718959760477e-01,-8.912998837642308048e-02,-1.249605677820831290e-01,-1.567933051912128728e-01,-9.669914906137862254e-02,-2.812048718139122938e-01,-1.921082497712504888e-01,-2.342337231748841675e-01,-1.248684667757293532e-01,-2.184469417994238660e-01,-1.792761036559949450e-01,-8.448213882242315564e-02,-7.035534023956935279e-02,-4.273329187054452499e-02,-1.688343645302747553e-01,-9.859888403351395325e-02,-6.521745978108557662e-02,-1.345535672530163429e-01,-2.798623092222308761e-01,-2.848078902035654225e-02,-5.581260714025455816e-02,-1.024549581096316914e-01,-8.774616168072515987e-02,-3.516485400331478828e-02,-2.355364427758979261e-03,-2.060687313397266407e-02,-4.116039245188654258e-03,3.432338574453146132e-03,-4.535629203689488242e-03,3.790437402751093560e-02,5.684267809603617272e-02,-1.876754967716155699e-03,7.681400296676009487e-02,-7.463213899125814565e-01,-8.402896610815893119e-01,-8.231266353181525552e-01,-4.354800463298409974e-01,-1.676071391970238855e-01,-2.563396771937362720e-02,-5.388098032827445642e-03,-5.886878209400203676e-02,-1.637884363263664156e-01,-1.012058009564113792e-01,-2.340264524492033371e-02,-1.936580693030259259e-01,-7.137136036529935501e-02,-2.437846986555312900e-02,-4.924751784792207043e-02,-6.477396614006914605e-03,9.245343867466112664e-04,5.522717531320177863e-03,4.001143445842168279e-03
-2.098739454703289486e-01,1.065366693399498813e-02,-3.814076943350443449e-01,-5.942172490911591665e-03,-2.048676313217292488e-01,6.029418750699772761e-02,5.982332724322715345e-01,8.660541227226888905e-01,1.966043914712898577e-01,3.624722103654912098e-01,4.281594619664571555e-01,2.235603477472165312e-01,9.619013699531793471e-02,-3.590899350045875359e-03,-3.165291715139226247e-02,-5.804901919163980156e-02,-5.550679231991310913e-02,-4.125613486051236262e-02,-1.571984543398153439e-02,3.517055707701706967e-03,1.176871140881286318e-02,1.283400818973572804e-02,6.600253090946505904e-03,1.051217691504208971e-04,-3.731385011807120209e-03,-4.934381382214435285e-03,1.942700987691095907e-03,2.364170368163070329e-02,6.472832021401463132e-02,5.128260989963046024e-02,1.023660700068322049e-01,1.229909401113708257e-02,-3.422952483933218632e-04,1.607331995407484254e-02,4.579631356202260029e-01,3.583299048433845613e-01,6.640643152142686745e-01,5.407483128326177058e-01,3.848173909153707606e-01,4.493628386604124336e-01,2.007449616982968366e-01,3.097417532658021111e-01,2.662934249583446822e-01,1.225795996452740816e-01,3.835033136532591674e-02,7.271134660505960967e-02,9.330747515851009477e-02,5.420308648301884469e-02,6.556358083010103976e-02,1.621673197041632319e-01,2.384881679846162228e-01,2.587539097746773820e-01,3.209603939853353793e-01,1.438189718759112778e-01,1.252505794450292087e-01,1.638553708399232978e-01,9.609227488985014332e-02,1.036387891515271331e-01,3.981891292359340806e-02,-7.472037642758477816e-02,-1.616259872417506738e-01,3.965408643035305686e-03,-1.575779851904739182e-01,6.041253877818425488e-02,2.516582982881324093e-01,7.119965232344673822e-01,1.074316643618529410e+00,8.802169455588667590e-01,4.862979802274556840e-01,2.751251579103958234e-01,1.060017113444984144e-01,1.052448244990471654e-01,4.431116883761102715e-02,1.706409722496728953e-01,1.927683772261047368e-01,9.166836128789056237e-02,8.484006043964417709e-02,4.150730813871601754e-02,4.308074107015959220e-02,-2.376407997262317690e-02,-3.102692667779678726e-02,-3.306436874911630047e-02,-2.570637592272933536e-01,-9.762468247387394438e-02,-2.692369219007076375e-01,2.227843157199669785e-02,-2.761936467556583980e-02,-3.941383880740376711e-01,-8.893925499075838736e-02,8.423449301112668763e-01,3.130430260717021795e+00,1.376509697519782804e+00,-2.078201840893633356e+00,-1.206301505578542876e+00,1.233627832968680504e+00,-3.413234943395855314e-01
-4.381543247048383383e-01,-4.596227575891722039e-01,-3.358910043399239709e-01,-8.078865837534895955e-02,1.725447210512864038e-01,2.650526922878262970e-01,3.665060584399448818e-01,2.828406303111120623e-01,1.155577456286425164e-01,1.749480428320453890e-02,-1.981659291639522452e-02,-2.480182982761061639e-02,-1.130453843613066049e-02,4.330215619171210286e-04,2.280228529444713360e-03,5.722678990007700091e-03,5.033867067245798368e-03,1.834747979673176854e-03,3.667183903780287121e-04,-8.760682504949557532e-04,-1.165867741570252589e-03,4.769729041683764951e-04,9.445457532896091605e-04,1.481475776298435149e-03,2.116901578890681510e-03,2.662180426691090548e-03,3.868970744072960152e-03,3.940776109959189324e-03,2.848045503917991973e-03,1.587042134744296330e-03,-3.518167325601736215e-04,-3.027001820218264919e-03,-2.754670369626460377e-03,8.710306655398112642e-04,1.026204217422574914e-03,1.694488828460865085e-03,3.036993311807889822e-03,3.470680874086746418e-03,9.546354419802451433e-03,2.962206781182454701e-02,-1.120716069640573806e-03,8.750689846202398814e-03,4.924681923342021789e-02,1.687297174277447576e-01,7.119894332280999327e-01,6.895445490554981127e-01,1.531228324243602834e-01,3.443795459873485315e-02,1.986075165872146497e-01,8.743840109821928719e-01,8.843999500603765274e-01,3.589433074397504475e-01,1.654263915290431555e-03,-2.200646745718024544e-01,-1.872502650161868842e-01,3.581802734448036318e-02,3.081433905106623072e-01,2.934388330741234396e-01,1.245966635457524535e-02,-1.394306197021843163e-01,-1.785359941844781584e-01,-5.277605798590618430e-02,3.965030130092828120e-02,4.934953289528076770e-02,-4.604467000582112418e-02,-8.862503844264647823e-02,-1.975371035460736779e-01,-3.595971465118086297e-01,-3.486843688434199673e-01,-2.189088180704287512e-01,-2.918393088121956289e-02,3.902397911079343307e-01,4.175764940885799970e-01,1.300793826258125341e-01,-4.687868454912154370e-02,-1.017320916830515010e-01,-2.061820820705242141e-01,-1.919040162467187116e-01,-9.180492737855740215e-02,1.421574045074910364e-01,4.379935397285235621e-01,4.809940396101177185e-01,4.158078409652242180e-01,1.953461771596579633e-01,-1.059659539696458132e-02,-1.560558629577352314e-02,2.601913144535307476e-02,1.370066017638803535e-01,1.158191910562941102e-01,1.421672786146729039e-01,6.943005785034456201e-02,-1.285323132327270343e-03,-5.099203267964784925e-05,-3.415675717315632548e-02,-5.254951317522377208e-02,5.240053673799770044e-03
1.285330749970724940e+00,4.172419986678828074e+00,9.817041608950699327e+00,1.194313759215931547e+01,8.183714564504873223e+00,5.449795609841845412e+00,3.213499937520550187e+00,1.729120832699343913e+00,-5.572606757754883233e-01,-6.612602342281126422e-02,1.519037115953092210e+00,3.318919931192402473e+00,3.325644252749236696e+00,2.797733951159804722e+00,1.810354516971120598e+00,5.113333611487812513e-01,-1.675371105801210792e-01,-2.151302636290304549e-01,-1.182037642402641725e-01,-1.063691743079545060e-01,-8.942265301205626349e-02,-2.816837010765807850e-02,-1.451606266608559048e-03,3.210161312234858198e-03,6.047650673027857304e-03,1.358978477354818096e-02,2.696319918663020801e-02,5.503347886115720483e-02,1.166786452145152503e-01,1.736466111738862172e-01,1.643196140850136655e-01,1.182750478770650121e-01,5.131524657483684665e-02,-8.927162347040552837e-02,-2.197205539662820672e-01,-2.749472512288239079e-01,-2.830696642144059916e-01,-2.083096277629295223e-01,-9.807098660374810595e-02,-1.967778510398917463e-02,2.985885197482527134e-02,4.810229427963966936e-02,4.484514486525574550e-02,2.794978673156117352e-02,9.916791597422230931e-03,9.505427776659213174e-04,-2.515611304939097907e-03,-4.204015404293014180e-03,-7.432455746776250351e-03,-1.643782748288575082e-02,-2.743500969551175561e-02,-1.721421321477894367e-02,-8.013972809650132811e-03,5.030891615433995007e-04,2.853320853135804525e-02,-7.009655948442522488e-02,-2.976446291157045509e-01,-2.825152820602175874e-01,-5.075056443333399170e-02,-2.618181148156129012e-02,-1.798135987034340244e-01,-2.682949142362861528e-01,-2.153919226501392892e-01,-2.153363939256651705e-01,-1.850080252195164809e-01,-1.197973455754051536e-01,-1.194819743852690713e-01,-1.300095033583459625e-01,-9.907204103017398789e-02,-1.129396174462552610e-01,-1.826301665433082699e-01,-1.968483736340391754e-01,-1.192170899254189065e-01,-4.400383832196901046e-02,3.288069779570502310e-02,1.323025156474267050e-01,2.017480578224648269e-01,1.665036927429355551e-01,-7.789681064269120096e-03,-4.200621983030958240e-01,-8.731042558025786660e-01,-8.575347705339275706e-01,-2.736304428179503478e-01,2.122594613513220999e-02,-1.391589508962267838e-02,-2.856723935925157276e-01,-4.233844883759547151e-01,-5.410791771198404376e-01,-8.065575243670833894e-01,-1.162793831395092237e-01,2.754766093928948223e+00,4.395896247193778805e+00,3.712574801044786543e+00,1.901508468061160917e+00,8.906635635428580278e-01,7.661586214800136796e-01
1.238600045277217093e-01,-5.625672773379584157e-01,-2.674201341631821105e+00,-6.150710870212788173e+00,-7.703165180748713148e+00,-4.648303061515068002e+00,8.076263131001860884e+00,2.252197765976224986e+01,3.276913587735000988e+01,2.469584450722137348e+01,6.715825073589885008e+00,-7.709681471166439870e+00,-1.097864974820534556e+01,-5.270401618914887010e+00,2.486088927104549220e-02,1.346498218379559297e+00,1.370294998619924431e+00,1.058736551856113817e+00,6.598869213064156858e-01,3.304669013186609106e-01,-2.306456028105325490e-02,-2.595656586186555481e-01,-3.580851376349040716e-01,-2.719094817669698294e-01,-1.165384821312160646e-01,-3.725001753274376909e-02,-3.501233572484426480e-03,9.058793160520944507e-03,9.395616124319145987e-03,5.909675593085930712e-03,2.617035112706024829e-03,1.308465424778704157e-03,1.233899205803992878e-03,2.626459602546205897e-03,6.261652843968846562e-03,1.184519753289850139e-02,1.581466006697747687e-02,1.362863831021813438e-02,7.766449860217814437e-03,5.878732770144892532e-03,2.169762665994547698e-03,-5.326551633251886374e-03,-5.547037140729749356e-03,-8.022771366918023301e-05,2.463900597624657865e-03,2.041118100877246412e-03,-5.575821211399659832e-03,-2.272204119873879810e-02,-3.105353916427711081e-02,-2.608446136720306285e-02,-1.750898471421167765e-02,-1.045419018966566894e-02,-4.247880136430304439e-03,-6.660458520942819441e-04,3.010657147879109265e-04,1.339859553122011836e-04,-2.788814387781442185e-04,-1.731778224190036767e-03,-2.944745987858186226e-03,-3.228716441931568128e-03,-2.997867001346875716e-03,-2.563950420267194913e-03,-2.138309419979115850e-03,-2.083517736113178233e-03,-2.161662491794192134e-03,-1.966077002767113030e-03,-1.790601796595870819e-03,-1.790746626071950754e-03,-2.580719331311233638e-03,-3.514880224199798658e-03,-3.783248152097106951e-03,-1.661907568337901491e-03,9.175496227471840408e-04,-2.575785257217292745e-03,-6.046211205101273758e-03,6.420899295730012946e-05,8.509354204695456989e-03,1.686711581773228663e-02,2.131087775875156374e-04,-1.019601187178792306e-01,-3.351296448256786964e-01,-6.346979509173320544e-01,-8.213897625412637238e-01,-6.620662388977081037e-01,-2.534387051664606649e-01,9.737387341034100391e-03,4.297024165414147640e-02,-1.102052488432779948e-01,-4.640533417543460937e-01,-7.146024281394305344e-01,-4.496066983459549582e-01,2.655174038299027914e-02,3.420452005781003391e-01,4.129226019728216013e-01,4.249696842045041500e-01,4.154364521714797309e-01
2.413477460193361734e-01,8.669525395262810408e-01,2.420930162312601386e+00,3.464030581695094479e+00,2.388550291185518315e+00,7.701918656773434346e-01,-4.790124872543018858e-02,3.525524270770207663e-02,-6.476659074872771760e-02,1.499814149110602346e-01,1.722241228427685011e-01,1.264834201480663223e-01,2.657197123156839202e-01,3.296285878157167448e-01,1.237694812413962786e-01,-4.354904585071850409e-02,2.656844476315524395e-02,1.623670161859134264e-01,2.783613254576378093e-01,3.225017753228659467e-01,3.481309760718680479e-01,2.941488610863822739e-01,1.527417489841989828e-01,4.838852292955540813e-02,-7.369804786612559055e-02,-1.238469993544052683e-01,-1.958653500162262640e-01,-1.697921251489416805e-01,-5.900185619473381077e-02,6.351751042909917211e-02,1.861780900743050804e-01,2.581988832906227938e-01,2.602319059082549568e-01,1.910382487815998342e-01,9.524182993061608427e-02,7.321975381926311421e-03,-4.088632172747824062e-02,-5.216437157708426336e-02,-4.275620316482366123e-02,-2.285840071426755923e-02,-8.004037468758056981e-03,-7.009211934052272377e-04,2.928120027305144459e-03,7.049201904999124850e-03,1.151804199917594480e-02,1.311217072552946054e-02,1.653774283865933753e-02,8.858446383477361699e-03,1.447714160992966039e-03,3.677606255503542733e-03,9.339494074890949959e-02,2.364581066675161269e-01,3.210793744991498611e-01,5.296008145166601899e-01,5.373561539253586261e-01,3.796651851396848909e-01,3.699057140366538432e-01,2.559715599876719039e-01,1.599874621380956707e-01,1.686271282903574475e-01,9.589203874625286395e-02,9.610389508408304082e-02,1.095689114731205199e-01,5.943662207622212035e-02,2.294268754414452438e-02,-4.726145708555436198e-02,-7.184506792576259016e-02,-2.345576609525365785e-01,-2.029661725524007365e-01,-1.483108540868909031e-01,1.687580198760086150e-02,2.622677584203504386e-01,6.782114310992073403e-01,9.619625391770739720e-01,8.578098699370112490e-01,7.848217184175390049e-01,5.035948641734869780e-01,2.613709565118015887e-01,1.534599098524570271e-01,5.579266811898728196e-02,-2.289434428357156603e-02,-3.284262918627673528e-02,1.098027066878078453e-02,8.043960799365904024e-02,1.386951807480242549e-01,9.281332577530461425e-02,6.316900097155393745e-02,7.477307703607956324e-02,1.206506584671593191e-01,2.447893649341620070e-01,2.514436067211145986e-01,1.094837026395477642e-01,-3.920267800392187446e-02,-1.426652907342777499e-01,-3.179734865533968557e-01,-3.768917184835729461e-01
3.878262365299857684e-01,2.496574367001219930e+00,3.658575988638276044e+00,1.353683506728934338e+00,-3.749899776196947217e-04,7.633110797630722200e-01,-8.934231219944852032e-02,5.547763408884794079e-02,3.671845820360314372e-01,5.930956027375909878e-01,4.046735062596143462e-01,-2.616275579160335860e-02,5.489213804026270294e-02,3.464197412636965678e-01,5.979633257166088178e-01,3.929349974056655093e-01,5.620086367926468290e-02,-2.361193732246038290e-01,-2.184865586555440331e-01,-1.601740379494807631e-01,-4.717998254511839712e-02,-4.238909965206309749e-03,9.813140578948878132e-03,-4.589183058667354979e-03,-1.087162471953686746e-02,-1.733152468174083832e-02,-1.115021465818616907e-02,-5.212269870992416055e-04,5.170858471205343372e-03,4.495207971979528309e-03,-1.427792204830819400e-03,-9.463431880613236424e-03,-1.268365039110592139e-02,3.613464296046936357e-03,5.099137546806328108e-02,9.293704044421688404e-02,1.142839928467951904e-01,8.281447495690011373e-02,7.176170304096279352e-03,2.707743569303133063e-02,2.012563983567698944e-01,5.500864735759356527e-01,9.155101448993208102e-01,1.103579089541819602e+00,9.549321900311640299e-01,5.622067090298039638e-01,3.211181532630753011e-01,1.553975050641174249e-01,7.499873395558133427e-02,8.201440965000640626e-02,3.719893132452422452e-02,-4.775059735156113837e-03,-2.858619655524581235e-02,-1.623435047938959902e-02,6.445765154759053317e-02,1.645667561953560454e-01,1.460483365986239290e-01,1.676756355146738209e-01,1.705203415295871161e-01,1.259964686691441016e-01,1.779922159369998480e-01,1.935526672489571720e-01,1.193118922912134172e-01,1.336909029078486577e-01,1.423273598514343541e-01,1.006797197189909371e-01,5.918325191419281789e-02,2.510431627637972271e-02,1.263712078851279667e-02,-2.159596048030922727e-02,-1.732624003470044707e-02,3.054163998442004785e-02,1.350091237084292961e-01,3.364740656401488672e-01,5.996310323578395440e-01,7.065201869726464023e-01,5.519244063345268847e-01,2.038868120819876395e-01,1.152149756263390890e-01,5.325315140585085150e-02,1.606164478512284166e-02,4.366862892918866451e-03,2.983164476756573085e-04,1.307100971681344819e-03,3.595843103342035709e-04,3.944448393308397816e-04,2.146357271504963082e-02,2.509479054387568631e-02,3.612807306414362457e-02,3.251513976014822754e-02,1.045744501932422375e-02,1.670078801077030939e-02,6.806281228010612090e-03,1.478619988031082541e-03,4.583808812670247808e-04,5.033255403391869755e-03
7.731424622980491712e-01,2.122067040375978042e+00,1.294765714354404240e+00,1.306931225799998542e+00,4.829166129181074879e-02,1.475078491718334606e-01,-1.210269234157411618e-02,1.520827128978766984e-01,8.022815179845950440e-02,1.480058146122411045e-01,-6.678554695308676348e-02,-7.871143042780835708e-02,1.801664976523626172e-01,3.779897561997648259e-01,3.975142313565276919e-01,2.905784592931225929e-01,1.879366891374598114e-01,1.091992441091156341e-01,5.328026326612496366e-02,1.877864736134265619e-02,-1.061069973794420175e-02,-3.515718461840708353e-02,-4.719366282181343408e-02,-3.978621540938947349e-02,-2.743581369313431023e-02,-7.932272359668800579e-03,8.095690693938025970e-03,1.698134552216549326e-02,1.537486999167396971e-02,7.377589209385570883e-03,-2.223674006639105635e-03,-8.330752291636990894e-03,-5.730849747918726617e-03,1.727285657239555072e-02,6.476104166878404733e-02,1.090678342143067414e-01,9.433938049346145271e-02,7.167016264166747863e-02,5.435049576682542604e-04,3.621758422454257609e-02,1.911927191344445498e-01,4.495778630352475491e-01,6.594489066340234462e-01,7.463980307289386218e-01,5.251437201253373876e-01,3.928459719352665469e-01,2.115052106107609964e-01,1.401699419219048504e-01,8.597793179868760960e-02,6.145790203225042631e-02,9.132867976464043025e-02,9.743110781210509441e-02,1.049609661598834981e-01,1.284482538959015319e-01,1.908668476977709305e-01,1.868820933707657783e-01,2.056668846881294366e-01,1.889720514308191601e-01,1.265319224370118067e-01,8.518370712483590290e-02,9.775584378699585242e-02,1.739370043053846404e-01,1.799891089071312678e-01,1.295026347647152409e-01,1.272003710522881803e-01,1.247984715102589681e-01,5.497413518374046765e-02,-2.998095626580297621e-04,-7.507783045821117551e-02,-1.056927558543024476e-01,-1.297311144518253079e-01,-5.704352603150388001e-02,1.375863707097305932e-01,4.881316952155149713e-01,7.851298964173770711e-01,7.197521594162895608e-01,4.667637727719567420e-01,2.119734882333776937e-01,8.697775722618827920e-02,7.000088144019607495e-02,8.650783619819871206e-02,1.486242437435843222e-01,1.305027018838444686e-01,8.953531587783031265e-02,1.046439833553209631e-01,8.896228879874068518e-02,1.087011216309347605e-01,9.910371686316991890e-02,1.122842598688528759e-01,1.381007920602488892e-01,1.131584889594179910e-01,9.167673000926936100e-02,4.971638542924666088e-02,-3.967770390793644297e-02,-1.870771023041943315e-01,-3.756307039515157653e-01
4.411276907284380933e+00,4.793667068633129524e+00,1.229729667815402605e+00,1.192270650328233872e+00,7.185344683836546453e-01,-5.938680914000276090e-01,-1.475248361094212424e+00,-1.367027526793065606e+00,2.209228261791747749e-01,1.873608607041690188e+00,3.957039782440446629e+00,3.976696014456990724e+00,3.498184707006226191e+00,1.977812567449364067e+00,9.246005897652961325e-01,3.071848250806354375e-01,-1.817368843042139678e-02,-1.016448537060887641e-01,-7.581659370670072728e-02,-3.889150803518247324e-02,-2.099361465836638643e-02,-1.261289053802379032e-02,-8.166968578474181895e-03,-2.344827516169559201e-03,2.563823377154959837e-03,-1.306459696664681418e-02,-4.349572715419801339e-02,-8.983169258300703619e-02,-1.599921637841189015e-01,-1.092727558259706661e-01,-2.909149108673180287e-02,-4.277705084917415683e-03,-5.198741284177592348e-02,-3.105629660840558137e-01,-6.219729447259818578e-01,-8.352598265122103127e-01,-6.253334828315078031e-01,-5.472583036855374061e-01,-4.147243233159064735e-01,-2.098209084567346783e-01,-2.090974772421043681e-01,-1.707941082659405474e-01,-1.264072860143093668e-01,-8.819880670433960512e-02,-5.178356268296991499e-02,-5.907544613006952827e-02,-1.023777053828544281e-01,-1.415348463939899437e-01,-1.258938792942748131e-01,-1.359573733540561657e-01,-1.169997570958528077e-01,-1.453688156650776442e-01,-1.144062534572369838e-01,-8.877930617913992739e-02,-1.147972702707555082e-01,-1.202492983422169537e-01,-1.771768207681539142e-01,-1.730862363734466669e-01,-1.442381549316313627e-01,-1.646216355610045645e-01,-1.610663973530924720e-01,-1.002724987210337482e-01,-8.427573602479530857e-02,-6.815198978325147372e-02,-1.068531865929385136e-02,3.688562136141997766e-02,5.057200278739448079e-02,4.824919479981180925e-02,-2.869026210178532432e-02,-2.504098462254502055e-01,-4.795301999603414078e-01,-6.336080278872983085e-01,-6.006223861782177265e-01,-4.771423541169548810e-01,-3.118577916438579067e-01,-1.368966900452925350e-01,-9.825240304209383047e-02,-8.237706957547241693e-02,-9.444073142433666301e-02,-3.658103897921934078e-02,-8.251685102935860106e-02,-1.331963259038999592e-01,-1.535336640558972732e-01,-5.319362249353010857e-02,-6.340794499834634390e-02,-1.002080072477428557e-01,-1.445536375575841581e-01,-1.210771019783382640e-01,-1.560390048153167952e-01,-9.403040886500452222e-02,-3.783753105281423279e-03,1.406600737949412899e-02,1.518015746453628759e-02,8.221608186973372590e-03,3.868472445266623021e-03,3.289908164292459219e-02
-1.738350630826349885e+00,-3.795845287514131527e+00,-1.601065101645199995e+00,-1.419665550014558741e+00,-3.455571263967912032e-01,-3.887181054437356953e-01,1.643276700079430649e-02,6.210200094821552996e-01,1.663679163590934540e-01,-5.151043472909823118e-01,-1.186491338882696978e+00,-2.264403865099611668e+00,-2.227515578712652378e+00,-1.447769426713491736e+00,-1.021819273785715909e+00,-2.958957591016656563e-01,-4.882932603352319045e-02,2.197882847626094760e-01,2.902446345619063006e-01,3.758034558091100652e-01,3.780984125653280015e-01,2.878707501049163620e-01,1.575520360092384220e-01,2.909532470660597392e-02,-5.883679422317040358e-02,-9.551939096503052340e-02,-5.885243514696459483e-02,-5.724576571475148770e-03,6.268402805269146505e-02,1.068539713662880197e-01,1.285048484871508800e-01,4.431429555565503942e-02,-3.551561182938747438e-03,7.293074801830644327e-02,2.316227548024640537e-01,5.910678827798052648e-01,8.445471100341213067e-01,8.267951157085234870e-01,8.817837903081910955e-01,4.946212292873938821e-01,3.778983675980521761e-01,4.001437592872676974e-01,1.302689078149888435e-01,1.244853370080728078e-01,5.502615938906992021e-02,8.015904021122215173e-02,9.435670860175451868e-02,9.073537346681367910e-02,1.562135012312387550e-01,1.377006765188628357e-01,1.504109562286253809e-01,2.045802456800472902e-01,1.542991211252891515e-01,9.235702723096421429e-02,1.240496010257818443e-01,1.924556027037226114e-01,3.381026856781964018e-01,1.544351718541358831e-01,2.167775966016614181e-02,-3.757333879147007477e-02,-1.224870651919068437e-01,-1.083054727647673465e-01,-5.304236780410775259e-02,3.069151099608384906e-03,2.933548359465635302e-01,7.885637495782661377e-01,9.766453265801072758e-01,9.987745285953860686e-01,5.489952819256845862e-01,1.130846069412503180e-01,8.089121939792666416e-02,2.645212771657695291e-03,6.654947323068992338e-02,6.916999697371607747e-02,1.491377161630628168e-01,1.198832237086379787e-01,1.393143191818934680e-02,3.095023794801761083e-02,2.965684301432072734e-02,9.924990791347535965e-03,3.104315300403914270e-03,2.618646021919545513e-02,7.524898280402653183e-02,1.123995031515448995e-01,1.017865598335002814e-01,3.523361976442180438e-02,8.610087630478070742e-02,4.185459416425185014e-02,3.292678482627287018e-01,2.880810605777179845e+00,4.998803855550710828e+00,1.888454964397478397e+00,1.108088055658540960e-01,2.268142941411136482e-01,7.467313936297481636e-01,-1.633667334063355625e-01
6.279506398803194500e+00,6.920589941085907526e+00,5.822454652847744327e+00,-8.301191560741184583e-01,-4.089881682169802524e+00,-5.221080456387489299e+00,-3.115164487347289679e+00,4.525280692051876219e-01,4.890448515541288010e+00,7.585625829337804937e+00,7.657493695553436730e+00,6.241210098490233449e+00,4.394565300614679870e+00,2.161009581874390406e+00,6.483209388905766257e-01,-2.131131591549606796e-01,-5.704904941001761598e-01,-4.259536539875666272e-01,-4.874527159261201475e-02,-2.437511212962552298e-02,-3.721517373190213473e-01,-1.129394655823060312e+00,-1.490459601587287297e+00,-1.541950095053544079e+00,-1.086658154560606881e+00,-5.192163314327011836e-01,-1.736988016401967982e-01,-6.832271309044141150e-02,-1.106584421917021221e-01,-2.096687127319527277e-01,-1.884830741262382425e-01,-1.760940480374086348e-01,-1.776483686909109683e-01,-2.449915084215890659e-01,-1.433733670099313073e-01,-1.580809030191471787e-01,-2.058627672856190305e-01,-8.700674198130092796e-02,-1.109876346709095518e-01,-5.497553758250572908e-02,-2.002096264960026920e-02,-2.759141012832896922e-02,-1.538979175947204937e-03,1.818171739970985247e-03,1.070068210063241342e-02,-3.478020551877838637e-03,9.132295221805891705e-03,-2.049565731629031384e-03,-4.023013415327798131e-02,-1.130946220656812579e-01,-6.397219274552672086e-02,-1.827106940201957408e-01,-5.778391936516293070e-02,-8.565548537691786146e-02,-4.305091102996437546e-02,-5.080750337032074321e-03,3.263135531187711779e-03,-4.042404838882084116e-04,2.502220365744940722e-02,2.300763276935429390e-03,5.752078040365197174e-03,-6.597800047100674942e-03,-1.419185320679609494e-02,-7.432566848453264763e-02,-8.276871665294835423e-02,-8.539323070308878216e-02,-2.325062390524661182e-01,-1.065511939162655797e-01,-1.855180816673239752e-01,-1.335819024007891542e-01,-1.336846178224234127e-01,-1.523039718758460725e-01,-7.026299733487427479e-02,-5.631076423614313209e-02,5.533494161944492451e-03,4.076323764431001584e-02,7.236696366678811720e-02,8.828617375207710449e-02,5.163174022704384442e-02,-7.092998248913023884e-02,-3.889172307985011012e-01,-1.050709528584649943e+00,-1.612403818072424055e+00,-1.333861537236603612e+00,-2.615708922081949606e-01,-4.148112564886441422e-02,-3.111706684533438287e-03,-1.614256667294509950e-02,3.027191686380316989e-03,2.082744946641152881e-02,-4.685628409021339036e-02,-1.871299054264909069e-03,-3.656714748846281310e-02,1.454466426257265688e-02,1.420455089555089628e-03,-3.147711692656431082e-02
1.474573614194980564e-01,6.034934552117415807e-01,3.564663373268732727e+00,4.828872433766853156e+00,2.147319725194700712e+00,1.527471099264953239e-02,6.248109940936379114e-02,-3.456078585254174773e-01,5.168958196572007169e-02,4.040042611737052480e-01,4.473339377112703907e-01,1.155221771356243349e-01,-4.819503438214733232e-02,1.529719650083508076e-01,2.721570680329741254e-01,2.072965481222769080e-01,1.484444976594452743e-02,-2.083204612674045830e-01,-2.257700296719158117e-01,-1.104197514442489536e-01,-2.083427582922368557e-02,6.252178402197242080e-02,7.169246374596399685e-02,3.577637211801964340e-02,1.402691679676129578e-03,-2.039623176252185199e-02,-1.596189161937296846e-02,-1.639428453072012916e-03,8.871269672847912138e-03,5.194905445615966531e-03,-9.875619636316862460e-03,-1.428460107081276631e-02,2.736899667374723122e-02,1.104945347019300472e-01,2.327087196104258016e-01,2.402376447435182749e-01,6.334215315770369559e-02,-5.689211059835271945e-04,9.873978732906857347e-02,4.764520609007912300e-01,9.304203213920185789e-01,1.259936984279278471e+00,1.182634757688316274e+00,9.961570173313494259e-01,5.846751153726813532e-01,2.363698486584402125e-01,1.344282785187607687e-01,1.044860252794671540e-01,1.419780730379451572e-01,3.340166239257993247e-02,-1.020367002884589244e-02,-3.783861058545291678e-04,4.665678823441439527e-02,1.156091046584742515e-01,1.727857146943622968e-01,1.989107842950367522e-01,1.714019457562139526e-01,1.801550026436075647e-01,2.055808486648838806e-01,1.789553505261132493e-01,1.676501122133220445e-01,1.869109481703249420e-01,2.680795486200917010e-01,1.549504723524978422e-01,1.425617293685837450e-01,1.361993963345799197e-01,3.460428747819103978e-02,6.429366641175730812e-02,1.741839013655530760e-02,-5.840044822920094011e-03,-4.267416472932430982e-02,-3.537786143883055179e-02,-3.771658339691354861e-02,3.120687206411699652e-02,1.731924130474824797e-01,7.151934035944365053e-01,9.518849968014153617e-01,7.276696229666675952e-01,3.631439435656131365e-01,1.037311549149093348e-01,5.203184443234680490e-02,-1.084542168180004183e-03,3.882821522375174556e-02,5.857636679541899927e-02,9.601044400482189323e-02,6.416394227352310853e-02,8.581416975519035040e-02,5.067426441967754630e-02,3.669802870057325278e-02,2.315821510001949551e-02,5.902709382184025654e-03,9.012550354969920676e-04,-1.807103264995112016e-03,-2.968409319089924600e-03,-5.039282095200925231e-04,1.707966456042300113e-04
-7.051593555232592292e-02,9.112655531229828521e-01,2.978144331678961976e+00,3.938593701017571558e+00,2.110881514262025416e+00,-5.003357138045557567e-02,8.854866433897902178e-01,5.391685171866165138e-01,-1.022564261092000909e-02,-2.047050529629753368e-01,-3.316007946882287283e-01,-4.972270812311394561e-01,-2.701126631109908027e-01,-3.497815450042311702e-02,4.007366353291633709e-01,6.690257681177934623e-01,7.101409008956405255e-01,6.477207717375274010e-01,3.391171480550737027e-01,2.469248361795678137e-01,5.003047408984494931e-02,-3.168408638446453679e-02,-8.114713498318842921e-02,-8.528438829051350478e-02,-5.533715182044864761e-02,-2.751551060343901400e-02,-3.475683876506708604e-03,5.523783215023836402e-03,6.829640064629961642e-03,2.109897050442735393e-03,-4.032823134952259921e-03,-9.119467504401047864e-03,2.190032441062556012e-03,2.368162657966912249e-02,6.835113707155891782e-02,9.529728812059985732e-02,4.308999476537220957e-02,-1.950628988522801199e-03,-3.747870877245341840e-03,1.767346533686714807e-02,1.597553113640700906e-01,3.776517928179817241e-01,8.218757525365175676e-01,8.905216942803496627e-01,8.644967769573824734e-01,8.874342067041288695e-01,3.552764673550230512e-01,2.004516943202350188e-01,1.849801941581281084e-01,1.127073475365451410e-01,6.105988113612961093e-02,3.012966736506873799e-02,3.014770151978161256e-02,5.936247869247639891e-02,1.302248263017326546e-01,1.055813524008440418e-01,6.486263408915883544e-02,8.244360421427163188e-02,1.414197186008066820e-01,2.032949602548672352e-01,2.026487979207840795e-01,1.309857975746269998e-01,1.132780345257463073e-01,2.192127047130140172e-01,1.614122582303894327e-01,5.941991899161050417e-02,1.369303034810594351e-02,-5.827617275041253875e-02,-1.277952800691669055e-01,-1.668179696331573425e-01,-9.493399311921851824e-02,-6.727568953087711967e-02,1.225240598413356585e-01,3.289866028890908733e-01,8.749606147341477680e-01,8.137160582499290973e-01,5.230822547305234993e-01,5.296906679396069517e-01,1.388043589816031764e-01,6.372891649907781730e-02,2.569392513703022130e-01,1.299815001756385313e-01,-1.231094942706415646e-02,1.659887669582499892e-01,1.193395046574217550e-01,2.020343909690170206e-02,1.424611161175744385e-02,1.689226523734415134e-02,5.671857664077142175e-02,5.865414525852764849e-02,2.571634326126528286e-02,5.014383090901355314e-04,-2.598117370970464551e-02,-2.635478217325986153e-02,-1.316959118521404334e-02,-2.755719409808512696e-02
1.722934411731262550e-02,8.065952683340067431e-01,3.351903482024157110e+00,4.682202178400841852e+00,3.514921015108557700e+00,3.720185318016389631e-01,3.409016086354350605e-01,9.648191633979183446e-02,4.799365744195021460e-02,1.450371544788826572e-01,3.599662080122572050e-01,2.057728883993606428e-01,-2.029925009107924339e-01,-6.320811269812329214e-02,1.216152105729799288e-01,4.715984523161432795e-01,4.148885915097552113e-01,3.408512969419262850e-01,3.490472363670206191e-01,1.442036844031981402e-01,1.320433520811465089e-01,1.058878381601728730e-01,2.877136813712253063e-02,-1.426665941796189524e-02,-4.442839522586697343e-02,-3.779206929860839254e-02,-2.281784456455817137e-02,8.771806009353583927e-03,2.845300134880526105e-02,3.376554818728087770e-02,2.371184543440911160e-02,2.048324175626219101e-03,-6.718907304394457214e-03,-1.288149612385303643e-02,1.572786659933371467e-02,6.874369795597523591e-02,1.367558316230512716e-01,1.064698859569908201e-01,8.089708150085896110e-02,3.173331105926354648e-03,2.386295334056020012e-01,4.481627476838034307e-01,3.590389972367343252e-01,7.266434932953970138e-01,1.278454959471367447e+00,8.298608118338146600e-01,6.591728876031346385e-01,5.021068654446066981e-01,2.536390046287138045e-01,1.067767132046943540e-01,2.431708982809791669e-02,-2.043163643046197117e-02,-1.800736971357984675e-02,7.730716771321781422e-02,2.051397852548932088e-01,1.146569111483919240e-01,9.882879585032582070e-02,1.352386194089022220e-01,1.149027050863293820e-01,1.998040282204995577e-01,6.563499167815335655e-02,1.751494573138787370e-01,2.629035793665951415e-01,1.099445093546497498e-01,1.934483030923481728e-01,1.243851739321559513e-01,1.158361767044229634e-01,9.107258754382907551e-02,1.540584934869785316e-01,-1.176633399807111742e-03,-3.197682268029048563e-02,-1.540380648756515258e-01,-2.151272438922679706e-02,8.168266410407444555e-02,5.878963614696173234e-01,7.588020747505637154e-01,9.120923394655842120e-01,5.932192114838531483e-01,2.690362911620015618e-01,1.228130547164858338e-01,1.311333531363672450e-02,3.566963520598938776e-03,-1.620901189802641598e-04,2.723595168836422369e-03,1.206373350804604717e-03,6.465804388486443878e-03,1.161301451019141999e-02,-8.122017670270632872e-03,4.089052381776877437e-02,5.196398282145073266e-02,2.244991542221982245e-02,2.377431947097076708e-03,3.493864497480426599e-04,1.366837288643850661e-03,-5.559972808216250917e-04,6.662887137888516076e-04
8.036675556379827556e-01,6.720308360581213059e-01,3.954139465285284039e-01,1.845242141954545501e+00,3.482321940568360863e-01,2.181148589252066838e-01,-1.967741226310231600e-02,1.001703885674713607e-01,-2.274725408533156690e-01,1.434228387921404613e-01,-2.040564799947816033e-01,-6.115108758213183560e-02,2.980955755611733871e-01,1.692367797624181047e-01,7.060145705897982182e-01,4.821945116145610055e-01,8.055679093926330914e-02,1.479377822078822499e-02,2.853316143822844965e-03,8.357783556332071262e-02,9.410667560229794837e-02,1.847986179364862203e-01,1.781712567025776628e-01,3.448621387554567930e-02,3.866586269473156617e-02,5.794178272399937851e-02,2.180522088864352281e-01,1.899520318303265509e-01,9.659383951034271332e-02,2.066008706194964392e-02,-1.820983374511361552e-01,6.526977076584815629e-01,2.007546958784183655e+00,3.292730710634295122e-01,9.205714886233841154e-01,2.059999445698076137e+00,4.555241363704376489e-01,1.041868250488093423e-02,-1.438248754560160492e-01,-2.882630497578840198e-02,-2.500676306358650541e-02,5.990496955303666882e-01,1.170465428363890004e+00,4.087141884041447376e-02,-9.980804682545540291e-03,2.117973454734251026e-02,1.003713999801633117e-01,2.167847623574491456e-01,6.279996545600273761e-01,1.542271388072725125e-01,-8.985876797253308790e-02,1.011868911034572022e-01,2.573628255796361897e-02,-1.673527756720512294e-01,1.304424325461696343e-01,-7.598763212749728990e-03,2.194911209936843133e-01,6.247000325200861015e-01,5.546257415570404747e-01,-1.033476816589135872e-01,-3.484181806717523335e-03,6.578988695745019433e-02,-7.206009095983062496e-02,4.513730974580501543e-02,6.474286426564333785e-02,6.404977579177326685e-01,2.201730672841217262e-01,1.928479070545187746e+00,4.244010306420761269e-01,4.335283079674860374e-01,-5.576891269154211905e-02,1.440205669064724137e-01,2.293088167299229263e-01,-2.338674101396726046e-02,2.910752819320566731e-02,1.107110766028358423e-01,4.643713855280200142e-02,1.568803993125226226e-01,2.183718899718926632e-01,4.545753284413031614e-02,8.874757915243655648e-02,-8.151149590042728113e-03,9.678312930045203377e-02,1.125620494606898760e-02,2.230124378409563402e-01,1.938284960961681735e-01,-1.203556204081259323e-01,4.727049978002162423e-02,-4.147867432973900009e-02,1.663679546742626858e+00,4.092111637286818038e+00,3.765926943150542439e+00,8.690078173623105862e-01,-1.935384756757968228e-01,1.223869016233098517e+00,4.149884899983450337e-01
-7.257692125186232524e-02,1.949841640994696423e-01,1.181764410678449728e-01,-7.180148791933554930e-02,1.650038718996102993e-01,-9.677967693704352115e-02,3.395405072382498557e-01,1.897175194886328575e-01,3.097886019474118680e-01,5.698508804554816010e-01,4.405246348521535404e-01,2.942866956200205220e-01,1.580767329210207017e-01,1.292400618151794967e-01,5.917579991464719247e-02,3.129018678124163063e-03,-3.287658056050080796e-02,-3.332540684446486101e-02,-3.040118720105981776e-02,-1.813588685504298817e-02,6.083495916559768148e-04,9.830404592848566298e-03,7.987917099228476758e-03,-3.108137145158478085e-03,-1.433547801610386696e-02,-1.214428403604458223e-02,2.622358996792897509e-02,8.140396585500116189e-02,1.841339648891888447e-01,1.287963476647877303e-01,4.712513409483850418e-02,2.249261349044048147e-02,1.968392056472649809e-01,1.639116174353903166e-01,6.784709645883632012e-01,9.344560918384131609e-01,9.299049463327043741e-01,8.962680549968918831e-01,8.911694841767584530e-01,6.181044552759563659e-01,1.646330015700014915e-01,-1.297063165792533383e-02,-2.014386262133856936e-02,2.333677215922267123e-01,1.056628127819043694e-01,1.753403914129281552e-02,-6.510925333285825026e-03,1.687183168417639989e-02,8.676220570377843333e-02,2.588249047395866365e-01,2.152081008339007395e-01,1.646562397811592859e-01,1.844317508459546728e-01,2.505215593909858041e-01,2.441348295799715129e-01,6.492345195731558105e-02,2.958578719760799336e-01,7.332894085776360538e-02,4.242808806971496175e-04,-9.380499805721188855e-02,-1.603163944724947110e-01,-4.940513381015729927e-02,-1.299801357761157239e-01,-9.018284510158376677e-02,1.244903672663525696e-01,4.709352661520382344e-01,7.489514696351101675e-01,1.357801085464070967e+00,1.128261458360618308e+00,5.192334614401487025e-01,3.880884814066682953e-01,7.355276330389254325e-02,1.013199871810135239e-02,3.150327040283277657e-03,1.124848856738750597e-02,7.954420388521178664e-02,-1.354566179403313662e-02,5.739233284373500277e-03,2.081626106072831991e-03,2.847793350566804951e-02,6.323307434907619699e-04,-4.068214018259925374e-03,1.215756450767458141e-01,-7.376903348291559415e-02,-2.173492242060175855e-02,1.395144686885119445e-01,-1.342050068076594029e-02,3.716947569281631777e-03,3.741816947090592649e-01,1.363425924409767509e+00,3.151781132863246349e+00,3.824577172131863989e+00,5.972424128642320751e-01,-4.518124560728806194e-02,1.296443941489251017e+00,4.163467948598243984e-01
1.167231942638323472e-01,8.151900473950138837e-01,3.075948740080265864e+00,7.027898386355629690e+00,6.826686103095417124e+00,3.654769050934687069e+00,1.238097964690043629e+00,2.251582649527198665e+00,2.549049431091553242e+00,3.520785312728232919e-01,-1.190917133067747047e-01,8.752583049979749674e-01,9.314530283630094720e-01,3.730848472202504595e+00,3.409158415521154506e+00,1.523886390804359836e+00,2.403964114376624939e-01,-3.342539532833403992e-01,-4.567402194392339854e-01,-5.421400164337570882e-01,-3.441245742719989398e-01,-1.595590051060723213e-01,-7.323290000140235401e-02,-8.681350675871092604e-03,2.736237456393206258e-02,4.944881187190260097e-02,7.728413591656999038e-02,8.601914528530850423e-02,7.169359943224340448e-02,4.315084724846418585e-02,-1.129989003737769636e-02,-7.009243073014979897e-02,-1.159009546031915666e-01,-1.243427799849756016e-01,-9.330816111784226430e-02,-5.587080669063807653e-02,-1.618851421370706006e-02,1.082459413556186890e-02,1.748402263134701123e-02,1.409137757847278918e-02,8.063697755318207164e-03,2.331230193718261158e-03,3.110134715644315856e-05,-7.912376187636647367e-04,-1.391726731210504719e-03,-2.612851535821960388e-03,-4.668749434425844939e-03,-8.358495945953933748e-03,-6.305712917277629496e-03,-2.568440497140940569e-04,-3.875248625646443047e-03,-1.080790013263926020e-04,-3.793888563289483928e-02,-1.137019892146258343e-01,-1.553419061988719208e-01,-2.384159473454112443e-01,-4.025508855791038454e-01,-4.624182739223925975e-01,-3.186893881899551806e-01,-2.055530931697362729e-01,-1.914061037153624856e-01,-1.747159478184802106e-01,-1.585352837600527975e-01,-1.863570675962121226e-01,-1.667769990785450962e-01,-7.947626106605554241e-02,-9.595722356513233103e-03,2.081508766258697435e-02,3.873691431810134811e-03,-7.210995229077737934e-02,-1.759730093245820137e-01,-1.987491661352292771e-01,-1.867134189257129706e-01,-1.765865354550326949e-01,-2.258710650072040249e-01,-2.823811660430396997e-01,-1.364938593763751484e-01,-1.827627375837613879e-02,2.635655548024228370e-02,3.800967447697182339e-02,-7.331153059503507652e-02,-2.204107362549280469e-01,-2.405206292738447660e-01,-2.815695043070828851e-01,-3.085196698049458286e-01,-9.845554645005583083e-02,1.846408965549205250e-02,3.890892868595367121e-02,7.683283323412774812e-03,-6.049509937372578999e-02,-1.460728643447967434e-01,-1.199157097299076297e-01,-1.798314901003086538e-02,1.485165227849611358e-01,3.156852173091486691e-01,2.087610144275554580e-01
4.833384165208241823e-02,8.976156347527174395e-01,2.721845665171785278e+00,2.676839016939900340e+00,1.563445943965944274e+00,-2.004326098875315598e-02,6.363486189909023372e-02,9.197507377031033382e-02,1.400417566513810497e-02,6.718163450308435591e-02,6.113516264491784119e-02,-2.092064796395400050e-01,-4.195185588153736711e-02,1.390435102569397841e-01,3.260323375795779466e-01,3.617748704810319071e-01,3.615547563323296409e-01,2.929982142295734504e-01,1.920083878683661871e-01,1.147579074448386582e-01,3.505054126580865043e-02,-2.995473227778174333e-02,-7.475359779061066523e-02,-8.260679511551127785e-02,-5.952185432867935361e-02,-1.411621142204397619e-02,3.829192815723907184e-02,7.305575247270122696e-02,8.476828175970561874e-02,6.111637225221028258e-02,2.683351344033441457e-02,-6.318224537410320127e-03,-1.549002199078232563e-02,9.994150820519890135e-03,6.941034932449471895e-02,1.391466758932012326e-01,1.556812081940469605e-01,7.635581873974797706e-02,-8.568596565663751238e-04,-9.128226941907722309e-04,2.156760213484374411e-01,4.703717161810981318e-01,6.182906612728592544e-01,6.685662339008316968e-01,4.981462111451535058e-01,4.811587842667816584e-01,2.883162341817480656e-01,1.977452926907812270e-01,1.960485470947408992e-01,1.452975653236518450e-01,1.202566040567212141e-01,1.035437948765105809e-01,1.263196419511763702e-01,1.131738865608943323e-01,1.134776974067661648e-01,2.116973575638436134e-01,2.020230995036906285e-01,1.607165810808378614e-01,1.469746395287791774e-01,1.436611344235528276e-01,1.106839334435373717e-01,1.314277461845788086e-01,1.951419996326447526e-01,1.526328090801644111e-01,1.090775964695872152e-01,1.134418190078421984e-01,9.577425757399195272e-02,4.024061990304914765e-02,-1.870097573635151611e-02,-6.615887456597401017e-02,-1.092448589003279374e-01,-1.145404807512499235e-01,-6.097456383939930946e-02,9.080225551840517828e-02,4.823358463798408935e-01,7.905820886965926331e-01,9.221634238623295232e-01,7.579473186438697718e-01,3.207370209700102226e-01,1.033692045656107311e-01,3.688979135386737801e-02,6.316371622464518609e-02,8.181124174266300730e-02,7.791511115381354047e-02,7.877878717687396282e-02,4.621143653044296890e-02,2.475981101389475997e-02,3.232570960601097859e-02,8.894066437304416761e-02,1.483066843309178151e-01,1.608438707256153732e-01,1.188405218776356354e-01,1.133648634815735256e-03,-1.190958787240603833e-01,-2.763509147358738649e-01,-3.858040624852151490e-01
1.049858668231662762e+01,1.609708092358946274e+01,1.552372378924195040e+01,1.323302582147098683e+01,8.839881380790389542e+00,4.953963383477378635e+00,1.900381192361426441e+00,-8.256652904920036562e-01,-4.572957458305699219e-01,1.617125964375239811e+00,4.159541211384020443e+00,5.298289430436753378e+00,5.106601707468045426e+00,4.113587170010250205e+00,2.471421947569335309e+00,8.737636181987322725e-01,3.195324386532843314e-02,-2.596933171305785271e-01,-2.712331922520677119e-01,-1.510566796836358416e-01,-6.779272606174288618e-02,-9.238275951983950657e-03,4.386408626968250381e-03,3.687203964007255107e-03,-1.308241856028317593e-03,-1.831373060602248335e-03,3.938701064974854129e-04,-1.100335142659934935e-02,-4.314203268319825868e-02,-8.913794712624768801e-02,-1.059772511956770941e-01,-8.117578324355359531e-02,-1.283067097060996455e-02,-2.634956466022227162e-02,-1.310624952182572744e-01,-3.635899367664954251e-01,-6.633211713497443318e-01,-7.758732894593930451e-01,-6.971809813013686297e-01,-6.224057861049164808e-01,-4.713578317764706149e-01,-2.969844634441112796e-01,-2.156346307969429776e-01,-1.291595326103959496e-01,-1.016673160225937123e-01,-7.680588087164071098e-02,-4.618927599287401403e-02,-1.728276832061851481e-02,3.014046633268389810e-03,1.233114967071853238e-02,5.854113509652587692e-03,-3.711780257765668473e-02,-1.353667596805171736e-01,-2.599182938251098918e-01,-3.175319185751478979e-01,-4.505507183621725309e-01,-4.868696528512219679e-01,-2.375147211698701855e-01,-2.868077920403603320e-01,-3.416265647500205671e-01,-3.265970955676654741e-01,-1.803698785124566162e-01,-6.497971471325780790e-02,5.894546839092783611e-03,2.264944738061539474e-03,-1.555093618786029808e-03,-3.030683408512287527e-02,-4.200802858292688319e-02,-7.264304412608865724e-02,-6.057661170276933127e-02,-5.637048301824983121e-02,-5.247275886648032628e-02,-3.091169971125852511e-02,-1.408510163806708966e-02,-4.137181933403158776e-03,2.100348614321957165e-03,3.635318490134111045e-03,3.510455426365916530e-03,2.059586537688157856e-03,1.045551007627096903e-03,-2.363583158851485127e-04,-9.287733516995181748e-04,-1.095750620614200374e-03,-1.416530528720986960e-03,-1.685433226996833293e-03,-1.400222809851119337e-03,-1.235437319126212472e-03,-1.526562628790512034e-03,-1.444454614726539817e-03,-1.079175084669072244e-03,-2.713825652799294443e-04,-3.450278895964212418e-04,5.092253975461316791e-05,3.688891252847046058e-04,-3.821887174838834757e-03,-9.621245393163599391e-03
1.523346869516695005e-02,1.639635371493972205e+00,4.246023015089085639e+00,2.595046540272210933e+00,1.288532856111616942e+00,1.462402087973331544e-03,5.915977748951745108e-01,-1.056151479105860679e-02,2.228317463079888539e-01,6.995891541421626024e-03,-4.870445908772469412e-02,1.893439867232311891e-01,-1.704709215659284960e-01,1.476346911426429931e-01,3.907892001995822984e-01,4.644114627874479373e-01,5.431434440208983139e-01,4.265996705162273805e-01,2.377567907227688959e-01,1.591037034629160796e-01,7.284031710127299164e-02,3.147033657987602373e-02,-7.579027898881596226e-03,-2.667496739421016880e-02,-3.574987537770257101e-02,-2.599365517983079354e-02,-1.556807238268476980e-02,-3.279587060009401568e-03,7.659395508269606356e-03,1.061781587873717771e-02,6.251742533297700508e-03,-2.202414352651618605e-03,-9.894448969472670677e-03,-1.220132952941947561e-02,6.162754958067756528e-03,4.712881113488794765e-02,7.324765320732323781e-02,1.125255601431056629e-01,9.096699301583412167e-02,-2.131768298214898466e-02,2.566949883121731613e-02,1.564242190397826526e-01,6.585236255123401161e-01,7.258858335621622970e-01,1.017105673336084370e+00,1.016891623811974288e+00,7.003441216816421733e-01,3.666158397380012701e-01,2.010408945966270511e-01,2.360976231352105992e-01,1.064044641812332964e-01,-4.890070479894235989e-02,-8.152433538478226493e-02,-3.352355785430922996e-02,2.400386492051209686e-02,5.692615619191622456e-02,1.584783799600198717e-01,1.608943615311383968e-01,4.123068967762748005e-01,1.695068127026006233e-01,1.331967620730762636e-01,1.517383968265744454e-01,1.227151626329941736e-01,9.958094715237800210e-02,9.561594153310801203e-02,2.382844075515471449e-01,1.254131296200463319e-01,1.460919539912934884e-01,8.669552973985241925e-03,-7.152662302699491770e-02,-1.877020576785380923e-01,-9.257115556891916397e-02,2.795920482226432746e-03,3.676125475371464502e-01,7.758463566998735628e-01,8.698298111002311650e-01,5.543394345741543550e-01,2.976124513994050091e-01,2.055304237459002203e-01,1.206072885397328348e-01,5.671614789121192518e-02,7.131120915568181506e-02,1.536466975791292433e-02,-5.713876387714385448e-03,8.141019837500880485e-03,1.548566020042077942e-03,5.401664798180161320e-03,-1.999027565589852479e-02,3.256289301571317629e-02,7.761951095466745887e-02,-1.810875095614275856e-02,2.700125743443658466e-02,1.815283553468914970e-02,1.903080141117046353e-03,3.283464111472927504e-03,2.074965503032438578e-04
3.379089233921906549e-02,1.345793751695211482e-01,2.539239963387179611e+00,4.026264210426854895e+00,2.115520544248302048e+00,2.628298303954940129e-01,1.933592586152472481e-01,5.831605573729614633e-02,1.618426097569619637e-01,2.302380604493178828e-01,1.061871513441196013e-01,-4.204652454860210303e-02,-1.424163995472562116e-01,4.495589457800590327e-02,2.897272271229281992e-01,4.565948530780691295e-01,5.339165271718915307e-01,3.939602476430114075e-01,2.611058247284457345e-01,1.280253672186970615e-01,3.549716714655821309e-02,-3.726868573408606555e-02,-9.317765500059650707e-02,-1.345284816286165530e-01,-1.322718623261728565e-01,-1.141958570656106398e-01,-4.179245687261461117e-02,4.607058169778717460e-02,1.200780354803671485e-01,1.414032077696885381e-01,1.369464866916010048e-01,8.789073477273107171e-02,2.458690913705573883e-02,1.337329719091446753e-02,7.142557997922287238e-02,1.607820202582441738e-01,1.828262043186276720e-01,1.425391907509072908e-01,1.426730768938014836e-02,5.133820255340958150e-02,2.445845976454158188e-01,5.680771077675202951e-01,7.871471200217380337e-01,9.586114899038775672e-01,7.950098292895664276e-01,4.566144963883843610e-01,3.160948974549819268e-01,1.654273837359553356e-01,7.355731215106894871e-03,-7.613041589371068521e-03,7.285530144772477124e-02,7.370075881098105131e-02,6.203498952761728191e-02,7.660546906627725694e-02,9.348045916801721311e-02,2.139348318559453899e-01,2.738095498548367979e-01,2.078153529166251179e-01,2.464308835289199529e-01,2.266118711384507434e-01,1.490754224219588697e-01,1.436005342790300787e-01,1.666308236113513419e-01,1.432814287774945572e-01,7.988217619979225137e-02,5.980484034280243028e-02,2.804385004150459354e-02,-9.808624766038120252e-03,-5.016140250240629789e-02,-8.739973275785449525e-02,-7.704815731196235085e-02,-5.710650857530880087e-02,4.541246203731439529e-02,2.542736583927386329e-01,5.429565674077310167e-01,8.120330426477070374e-01,7.907289356460380780e-01,4.662569669462046651e-01,3.369775699369715327e-01,2.353520730350081303e-01,9.544855960169588982e-02,4.713649699767692713e-02,4.597410822645028872e-02,7.347257151585388779e-02,3.078754008068065179e-02,7.701999522147884303e-02,3.463620567676994888e-02,1.071642242360153208e-02,-4.331627874103481657e-03,-8.107905228793628460e-03,-4.840225392249730002e-02,2.114708649392713774e-02,-2.090826879886788919e-02,-2.161967869371527601e-02,-9.985323476107497553e-04,2.857704564465936292e-02
6.256746986567056357e-02,4.588969881219219227e-01,2.279018663964571090e+00,5.542206854384829740e+00,3.124593926761368046e+00,8.435697495544952629e-02,1.606356125167539339e+00,2.496151720228481530e+00,3.032349369149199281e-01,-6.063716318191021415e-01,-1.545817651102880053e+00,-2.054654433773060784e+00,-4.899936388021235434e-01,-1.913799552435659634e-01,2.953581734107366685e-01,1.843075775069555611e-01,2.533668247689118136e-01,1.012414239786957049e-01,2.651805879878048593e-03,-1.488609590686055389e-02,-1.846556485044897195e-02,-4.979141785664481686e-03,8.991467416698163337e-03,2.395037628434115717e-02,3.077823270420361815e-02,3.526842767592342637e-02,3.820233951491391194e-02,3.153853871446706675e-02,2.043077036621427506e-02,6.373306934483655845e-03,-7.486183918247666692e-03,-1.745105992187575075e-02,-7.079958904798512934e-03,2.426941009591208898e-02,9.135636274322651851e-02,1.703010534212366645e-01,9.011000726972381858e-02,2.289994906681604506e-02,3.441922095314512396e-03,1.719316146546870927e-01,4.230682556359828261e-01,7.684688097514292826e-01,1.038575954175514182e+00,1.016854567980590041e+00,8.536100062950063849e-01,4.607919204539082658e-01,3.618779168857545470e-01,2.798601332278073395e-01,1.156685792905177979e-01,1.078068027374550764e-01,6.125786141127859824e-02,-4.774286024861395909e-03,-1.907632108449719074e-02,-4.204568556835376093e-03,3.799959950970660527e-02,1.333838662483670112e-01,1.155942390419770066e-01,1.328698901899360019e-01,1.560319183796063380e-01,1.173792221979056416e-01,2.888316908255598725e-01,2.584092292944056291e-01,2.146929233164285578e-01,2.324454021486811461e-01,1.514920803325458254e-01,1.258356433902749483e-01,7.649634905469186730e-02,4.698849325630018170e-02,-4.162267001957357243e-02,-1.161624721123493131e-01,-1.732719015901105220e-01,-7.633393419780265532e-02,8.633371424870955185e-03,4.045195177299272804e-01,1.049432524140964329e+00,1.072239546627406392e+00,6.509614426319197955e-01,4.525598576712254184e-01,2.253599512015916906e-01,8.091204692130943288e-02,5.057569519687898224e-02,3.248181187946605025e-05,2.357053656614912368e-02,1.669967710104365219e-02,1.139151168479596819e-02,-7.645046459689374633e-04,1.298061449906836619e-02,5.264930647438710587e-02,2.811478249407102156e-02,8.711578910054446068e-03,1.146925813936552734e-02,3.393677176211859665e-03,5.567783088785846707e-04,4.253127761902118252e-06,-1.430398958896352338e-03,6.006608116754503070e-04
-1.325583036125065062e-01,-4.031434174514226254e-01,-8.103873626600166524e-01,-1.580695636417405181e+00,-9.746658846685715138e-01,2.581889046364707063e+00,4.275970276118900237e+00,1.118252957247344082e+00,-2.324891240141998328e+00,-2.223755748582821656e+00,-9.646064835778904445e-02,-5.291210775537694144e-02,1.227801158401473636e+00,1.165348754917894469e+00,1.456840317958822684e-01,-4.911548355580704073e-02,7.407289629670422981e-02,9.308893829428462052e-02,2.890893673674411676e-02,-7.684474354383557387e-03,8.856493022193381859e-02,2.133347960936498866e-01,2.876286188324939097e-01,2.903022972836801219e-01,2.211947385017982437e-01,1.512690623896574271e-01,4.540698973944698458e-02,-7.000669659988736915e-02,-1.786764774301445591e-01,-3.128022424543011604e-01,-3.703863281869301249e-01,-3.132087450314623434e-01,-2.072605806400840966e-01,2.034125057163430408e-02,2.840383165612367367e-01,4.657536707897503292e-01,5.991162116855546227e-01,4.962818664067848440e-01,2.645905843079663367e-01,8.795943524449291451e-02,-3.634240776139233825e-02,-8.338514371994946994e-02,-7.705800401067379457e-02,-5.904643798103437896e-02,-3.244130852711740037e-02,-1.009837294438840037e-02,9.713438566105546791e-04,4.375580924855950078e-03,4.709452604659683690e-03,8.273570160367723497e-03,1.505197961814043819e-02,1.617826627386752605e-02,1.412033141050297348e-02,9.116988800950765262e-03,4.844698844333924538e-03,4.710077284202737746e-02,1.197210536544691256e-02,7.082517235205286477e-02,3.605685505014694092e-01,3.607656852333069875e-01,2.545927174106594193e-01,3.232257452368519912e-01,2.710034904931203359e-01,1.602629404178493866e-01,1.892477995414210135e-01,2.415560885885167097e-01,1.842918789214024189e-01,1.296253934738604285e-01,1.252963239405595897e-01,1.297664373797038639e-01,1.467653627301424846e-01,2.072211281504977021e-01,2.006780883855971975e-01,1.278284363230206278e-01,9.520432574047801855e-02,6.630663283152940513e-02,2.612038954075262751e-02,-9.733993327937961321e-03,-3.812755230590093858e-02,-2.025525345465967880e-02,1.060165365112545888e-01,3.250864710809759917e-01,5.419916533849922224e-01,6.957612416039705705e-01,5.180790576359798338e-01,1.526451660761952156e-01,1.570475333324989828e-02,-4.522410660524638819e-04,4.613420040038792441e-02,1.230684464644235671e-01,1.948698273858754382e-01,1.243803949706192014e-01,-1.057813138221844716e-02,-1.470759096586837233e-01,-3.127564235160760764e-01,-2.824553351173639815e-01
2.237147668073608542e-01,1.507544920153051971e+00,5.351958479518646783e+00,5.300687908796250625e+00,1.312263147109575145e+00,1.642794700910957806e-01,-2.437635014848373027e-01,-5.739509590184547205e-01,8.245268024380068839e-02,4.229352385234462219e-01,5.169945886403837232e-01,-1.966814466541299267e-01,-9.353491292569562562e-03,1.440256476343473591e-01,1.404096835274542543e-01,7.670645832340639014e-02,-3.413892070769023457e-01,-7.144952503755065409e-01,-8.506959520288669419e-01,-4.619872592407582301e-01,-3.779837994256998734e-01,6.166468256734455172e-02,5.562578602940401185e-01,6.279188706230645067e-01,6.102889897524006457e-01,3.875766514496634119e-01,1.680736193101070863e-01,2.758994450533412690e-02,2.007743655804735544e-02,9.308030001504803697e-02,1.240756202046863765e-01,7.016521648692274071e-02,3.250838575546576795e-03,6.982617284208233761e-04,1.713321539311292441e-01,5.334866191570002414e-01,7.775944886666668054e-01,7.137152621982431056e-01,5.813825454753619448e-01,5.146360795067325133e-01,2.256018885069586699e-01,1.533298466861379439e-01,2.467406778452244931e-01,2.178945093964302915e-01,2.670619982975787621e-01,5.583460520460362814e-02,2.559460469295767038e-02,1.502506571967791582e-01,2.791824307265048932e-01,2.465596136766334823e-01,2.857502240109396907e-01,2.491612423258982856e-01,1.774709537500914203e-01,1.236825747234179262e-01,1.484125922867479408e-01,1.126608611362233670e-01,4.987747132060497968e-02,1.915890515723126311e-02,1.507166508044853193e-01,3.580753584212605783e-02,9.532308567242027408e-02,2.346048981725919746e-01,-6.067018320230587597e-02,7.681648872039592568e-02,-6.118642682458273578e-03,-1.703353469144946314e-03,1.384012068122678291e-03,-3.024008952496015125e-03,4.443444488848788398e-02,-2.492771046053400205e-03,4.567692457821628804e-02,1.625376078350784098e-02,1.411700898160061016e-02,1.600882920897269551e-02,-1.040900338670450610e-03,-1.549284057457246504e-02,4.222316657424597386e-01,7.568329590821696318e-01,1.266318535580407190e+00,1.089217681771512014e+00,4.141609681940244814e-01,-2.256339104669366838e-02,-2.403632175617763118e-03,4.656183489911119161e-02,9.018744325783675797e-02,2.198132827377092813e-01,5.771993856999590305e-02,8.266128987632540004e-02,8.034589927570835732e-02,3.073265236075014076e-03,4.699279566499689823e-03,-5.466831772965599851e-04,-1.512043322413404159e-03,-3.888957240454884914e-03,6.653685296679167673e-03,4.057591268414326505e-03
-3.833082479225063399e-01,1.410288148413979259e-01,-1.432638688620143652e-01,1.468461079599550911e-01,6.598738763800254814e-02,2.819586171487306961e-02,-3.510086207953821424e-01,-1.779723277967784900e-01,-5.471279968426171481e-01,-6.699129359764399716e-01,-1.690488610958752747e-01,-3.036419915951590331e-01,-1.121589716732471625e-01,-3.156751712450094755e-02,-1.992839034079201368e-05,3.167748252283224958e-02,3.844999482625066634e-02,3.433817218273293309e-02,1.675620290751153249e-02,9.445528479683464734e-03,3.944339171013036896e-03,-3.171567560799626491e-03,-5.744924671398582774e-03,-5.883283999777442694e-03,-3.195716521624814878e-03,8.204268483034956672e-04,1.571969420117253153e-03,-9.312277115091890977e-04,-2.107951767285403885e-02,-2.598925792112427233e-02,-8.174654102503454978e-02,-7.711597826934583899e-02,-5.709505577488133837e-02,6.918508902006392618e-04,-1.480044930472315841e-02,-6.404043132373263281e-02,-4.301379929790012380e-01,-3.594375285151816257e-01,-9.205226314989156666e-01,-1.863237277429037608e-01,-1.183988720038510190e-01,-2.612674809160474565e-01,-1.982343562851187901e-01,-1.730671901759623932e-01,-7.444212284519860501e-02,-1.568689276814594635e-01,-3.007412955100993157e-01,-2.013049454243415470e-01,-2.155922074606488603e-01,-1.975004498329737124e-01,-9.843598926370360214e-02,-5.192961407369790783e-02,-3.174220856837273869e-02,2.116091676450287951e-02,1.091846415050209095e-02,-5.919853008260274330e-02,-2.982360938199454248e-01,-5.650949805724964081e-01,-7.052360643582917810e-01,-1.337849400511432196e-01,4.007943216659347330e-02,1.091924335305063110e-01,1.829460779921763813e-01,1.817023407253640921e-01,-1.273323654991671654e-02,-3.878397914715603911e-01,-8.415182411555024444e-01,-1.107669496919718721e+00,-9.891305114274545618e-01,-3.922406332668194606e-01,-1.433737329407808181e-01,-6.617568206642737705e-02,-4.082345130038488729e-02,-6.781674444368650245e-02,-1.126454708705465144e-02,3.315609269830637721e-04,-6.421930114238733230e-03,-1.616995739382762892e-02,-4.541517675124411707e-02,-9.665682107127938905e-02,-6.482841069988341809e-02,5.372125487975324375e-03,1.427268599086838341e-01,1.426246629563483748e-01,1.720047882793822036e-01,6.700731704071997974e-02,8.826132913972835337e-02,3.272790820685737012e-01,1.735134364690257502e+00,3.405607902129706765e+00,1.017866736807019912e+01,6.347994028154254842e+00,-1.488533531255592290e+00,7.705094532407609442e+00,1.184356026073243662e+01,2.461021388281514177e+00
-7.304967374889981269e-01,-1.841142956652233931e+00,-2.737683910806259835e+00,-3.361999789625192303e+00,3.526902193942072383e+00,6.867922338491530887e+00,1.312037517819914179e+00,-3.104090048957145243e+00,-1.364342387904831533e+00,3.641048662895841059e-01,-8.733333418609630083e-01,-1.318143997700581105e+00,-1.535589579377466540e-01,-1.870856445451835603e-01,-3.512151234395186061e-01,-1.465543478651280263e-01,1.965945421138475813e-01,4.764010744037394107e-01,5.815698121003642918e-01,6.499077202231695605e-01,6.135514927027272414e-01,5.606043059770173809e-01,3.670469905838351643e-01,1.475626454840693325e-01,2.919847927994291201e-02,-3.507760517188786981e-02,-5.283551872940900340e-02,-6.098217154898585846e-02,-4.758812710318312961e-02,-2.675360117273546320e-02,-1.087858897001451816e-02,4.115360238574020113e-03,1.125813313658794931e-02,1.565366982374640642e-02,1.646367386794716364e-02,1.066601173123535307e-02,4.368220089491892978e-03,-1.217136158005988240e-03,-6.432655043306730394e-03,-4.733055971107414002e-03,-2.345665670728499033e-03,2.293140125118598956e-04,2.770349571908564418e-03,6.259802659293890389e-03,1.404282979162683152e-02,1.660202958215353797e-02,4.454343926148810785e-03,-6.811539510101920908e-03,4.549504503235490827e-03,-8.479757314566441564e-03,3.157805268544024158e-02,3.883074126225782852e-01,7.555984737075988056e-01,5.554831452093192956e-01,3.397922819601167932e-01,3.103271064974893467e-01,2.487975803576608358e-01,2.426381452239959602e-01,2.795176918607141237e-01,2.193893625671116399e-01,2.211712536217424196e-01,8.031213108264796674e-02,2.160338017393703593e-03,2.118403022164681588e-03,-5.488484682289297700e-02,-6.063916211559512021e-02,-7.010844611229996581e-02,-4.198560121725892352e-02,-1.036747971255748135e-01,-1.589392423978073232e-01,-4.750294530157780221e-02,7.787048940272617292e-02,4.443140760016399127e-01,9.085458885446543453e-01,1.323828527974516556e+00,1.303700735770023211e+00,8.357150458248414626e-01,5.782814386778821758e-01,2.144874292510144109e-01,-2.855879373693842246e-02,-4.107209510215086012e-02,3.845487882353011699e-02,1.115864093556141745e-01,2.388350809950955111e-01,3.390024474290872503e-01,1.763695774653261661e-01,1.635494425672827656e-01,2.443353465581352413e-01,1.374118345588753731e-01,8.913737921090313099e-02,6.079349105111226531e-02,-2.010613349889467036e-02,4.381556578155574450e-02,-2.125614734101894526e-02,-8.083956882865796223e-02,-1.657680220775186244e-02
5.224794631315050619e-01,2.121030507987756941e+00,3.926811298086996249e+00,2.007749264832559444e+00,8.446212662239012403e-02,5.448032786084207046e-01,9.560574409146124220e-01,2.745604909048695447e-02,-2.128823429676243995e-01,-2.820202933914042753e-01,-4.569211621414157598e-01,-3.097195394561191306e-01,-6.864395838159044472e-02,2.446216338246944566e-01,5.328380130691457994e-01,6.018559798824945073e-01,6.071887273445663036e-01,4.294695998742444898e-01,2.855693033861085306e-01,1.047080312960843307e-01,1.415841625988012963e-02,-5.109441329756454070e-02,-6.456554913441880927e-02,-5.045119211356728639e-02,-2.706179661249913035e-02,-1.930068858004449842e-02,-3.666889752041892301e-03,4.282529352894892324e-03,3.989994877716728471e-03,-1.507622875755570404e-04,-5.328984420103253551e-03,-8.700906660619999247e-03,-3.115747907360834346e-03,1.212176728005716179e-02,5.235893143495337632e-02,9.536094771091495337e-02,5.305684686706239883e-02,4.416482652044711327e-02,5.705530462571490116e-03,1.146987397964951416e-01,1.795068551438411264e-01,3.794686092130752919e-01,6.392896523812774401e-01,4.528525346681075425e-01,7.325986958398885696e-01,9.062613632048672763e-01,3.564022736270710534e-01,3.065222589332336489e-01,1.418547641076660371e-01,1.081345087244634379e-01,8.966458616162689688e-02,6.130099420170061209e-02,1.483658480821110626e-01,-3.373895609908295599e-05,5.666519226040587359e-03,3.566546982199655241e-02,1.135661586657048527e-01,1.052220278458627645e-01,7.462582797689976122e-02,1.274924638750847272e-01,2.165756881083386043e-01,3.722347251760503850e-01,3.008215640325959117e-01,9.628028161036457366e-02,1.703850862365487440e-01,1.332811611425841758e-01,1.298704161791008546e-02,-3.483924077103955907e-02,-1.051668764529735955e-01,-1.506013937598051633e-01,-1.744024524173414803e-01,-5.774834997675302312e-02,1.237153451641916230e-01,5.295916000754825603e-01,5.963839700333126714e-01,9.414892017682472414e-01,4.994289636448826508e-01,2.997830219877486990e-01,2.912904890700719895e-01,1.271880406225757987e-01,1.806145272773204413e-01,8.668456637465873915e-02,7.623158884980375805e-02,7.245475870131772023e-02,8.616940725675410750e-02,1.302051664401021047e-01,1.304613033209351194e-02,2.094191632673951444e-03,1.557080995642701540e-02,8.136639854171930086e-02,1.409432188712416989e-01,3.759344564417512607e-02,1.808970951605242891e-02,-3.360697083558073645e-02,-7.013247389782405194e-02,6.035064100270341216e-03
1.140780919322097464e+00,2.749228943645240619e+00,1.827806613529786794e+00,1.132165130238638184e+00,1.350436714094793364e-02,-7.922770302835106804e-03,-3.465886918175411363e-02,2.864338525471958885e-01,2.803773705252233794e-01,1.182249498656646469e-01,-1.098198392909563587e-01,-4.620545012856891454e-02,9.745634825063728690e-02,1.583638014248026082e-01,1.471432473148665820e-01,8.948700324445955923e-02,6.302099945258117508e-02,6.796775585385428364e-02,7.291761463770346507e-02,5.359263391086900585e-02,1.113285782595253848e-02,-3.698392986943779825e-02,-6.904806409060496031e-02,-7.411386919524221017e-02,-4.199875334634843582e-02,6.635905125473724395e-03,5.238629851207834975e-02,7.817278752191891833e-02,7.125593200570501384e-02,4.685371539577923294e-02,1.148920891180028707e-02,-5.969656172512357965e-03,1.788692158076856872e-02,8.478759134757331284e-02,1.790546627243004008e-01,1.592902000548373498e-01,7.742388973085587156e-02,-2.164364454754278289e-03,4.029640786346820602e-02,3.074397441176358048e-01,5.897439272587239323e-01,7.565837742392996779e-01,8.791311154433987252e-01,6.912309322701687408e-01,4.153864208732193086e-01,2.484980903578772604e-01,1.533501985735951645e-01,8.670198713139072588e-02,9.409777832872803782e-02,1.109006999714998998e-01,1.093818034044224535e-01,9.574587771316203644e-02,7.027499224555833202e-02,8.524692694478078203e-02,1.141960245278174219e-01,1.577317650825730833e-01,1.992970996792567950e-01,1.721183108402265516e-01,1.701074265803488861e-01,1.239298845215073136e-01,1.534547980273859580e-01,2.154707544494564031e-01,1.937666051070673912e-01,1.586976562795067158e-01,1.324821691632403486e-01,1.361882590589486297e-01,7.182130769561359540e-02,4.083737976074264253e-02,1.051473517185570923e-02,-3.363616042503728143e-02,-6.283763993703203599e-02,-4.062056863175252108e-02,4.341377905211932231e-02,2.390366185686250700e-01,4.842733250360846675e-01,7.909526814034175679e-01,6.589652357411858175e-01,3.633100919771990456e-01,2.798760499079435138e-01,2.093673142066101445e-01,8.488546850837776214e-02,3.124597469887497106e-02,3.419909627239115651e-02,6.458200903128173687e-02,6.861329321113264490e-02,1.100201695638725052e-01,1.721004832927007511e-01,1.065105764918518050e-01,1.024540750982659704e-01,7.510092197921490464e-02,5.688716355120779222e-02,3.708234132561696178e-02,7.987943888435204698e-03,-1.390317849501610144e-02,-3.636785902592502145e-02,-7.321008203169718231e-02
6.017855513664414069e+00,7.142791042268188839e+00,6.034135986110345407e+00,3.239470550738666965e+00,-2.754530257474536281e+00,-3.909245099804549817e+00,-4.611918400026087994e+00,-1.076792655520506958e+00,2.877265793344163214e+00,7.007732138611032724e+00,7.669179037509490371e+00,7.544445240377906536e+00,5.701067319723409632e+00,3.852176312049843787e+00,1.892612747724812028e+00,5.579761860725398481e-01,-2.108201507907916938e-01,-5.599116899238149037e-01,-3.134990139457415337e-01,3.122549876391790807e-03,-2.140777132435882010e-02,-6.435951263996667615e-01,-1.027184139820475961e+00,-1.290454107736900280e+00,-1.095185625599454093e+00,-7.183451883053775244e-01,-3.514997314995018662e-01,-2.222613334954698094e-01,-1.627666696787459233e-01,-1.891488244080396508e-01,-1.662773774228761825e-01,-1.495614145350731561e-01,-1.467001530676123600e-01,-1.280484350942745764e-01,-1.202251174886555252e-01,-1.437796287023335173e-01,-1.084159614173125646e-01,-1.380347363534816796e-01,-1.871756182037190575e-01,-1.628768436269394937e-01,-1.689531228383111261e-01,-1.383044710599986293e-01,-9.951374171471155661e-02,-1.190276841904622795e-01,-1.026713152452405631e-01,-1.283571733465780629e-01,-1.606704405060605800e-01,-1.542040915088635777e-01,-1.859864942401167898e-01,-1.239756272517066882e-01,-1.049289318277181193e-01,-7.581046024497190006e-02,-6.663812131477887812e-02,-1.156138321749133890e-01,-1.085428732272527702e-01,-8.895929265195508251e-02,-1.437973901867073689e-01,-1.432373234823201003e-01,-1.648390765852406070e-01,-1.691137986583914343e-01,-9.160644100731740735e-02,-1.030745583868999810e-01,-1.297333528101701772e-01,-1.156326017324765809e-01,-2.055454683107901526e-01,-6.671856054750530118e-02,-1.233486028777470572e-01,-8.973631233441405064e-02,-4.240155828380287595e-02,-8.760939667191063041e-02,-4.444919955052922117e-02,-7.062917508481982021e-02,-7.967485739585127014e-02,-7.880470140142502300e-02,-1.114262587071506300e-01,-5.383593258020902966e-02,-3.788883349708277361e-03,4.977860388455654372e-02,4.814967019027707046e-02,4.058035004353260922e-02,-4.536325773231042469e-02,-2.365520863387312323e-01,-8.615809266710392489e-01,-9.831704361615000165e-01,-8.640942605414152489e-01,-4.223926310670196860e-01,-6.750926146492233770e-02,-2.541509277696456064e-03,1.681065263401934975e-02,1.321627010582878022e-02,-8.214309670019119222e-05,3.169872301614236332e-02,-2.245857649452759688e-02,3.881604270936315354e-02,1.003968361627847680e-02,4.659682176645967878e-03
-1.385325669668367565e+00,-3.175445770258023881e+00,-2.955672073632554131e+00,9.393853416365066655e-01,6.742575631515072665e+00,4.352248280741704001e+00,-1.321033283745807196e+00,-3.475195809160868787e+00,-7.447063124982550297e-01,1.010013506481512169e-01,1.102870239196415136e+00,3.349200375850202027e-01,-1.622383434108016775e-01,3.193075972858633316e-01,5.099501525808286528e-02,7.953784505734187368e-03,-1.804441628707462511e-02,1.156979879066413197e-01,3.882586170554091498e-01,3.437263409401518643e-01,2.658806354349465551e-01,2.601939907357112558e-01,2.159276825900994512e-01,1.373726720592184647e-01,-1.179727152094561110e-02,-8.967379636333584758e-02,-1.295337561134884685e-01,-1.531759305341516553e-01,-1.086779811410956836e-01,-7.973176984958922804e-04,1.159671131370435954e-01,1.861206769748502687e-01,2.095462160076018432e-01,1.898869858970879954e-01,1.238479788587077829e-01,4.741024679454806240e-02,-5.531028563511021165e-03,-3.173180028031859917e-02,-3.707605736027085042e-02,-2.661430815432917069e-02,-1.563848643214993742e-02,-7.979006590183437136e-03,-2.182281202027507028e-03,1.558511375665057059e-03,2.467776706284477602e-03,2.617204483513707082e-03,3.465815857527265471e-03,6.443211874630812991e-03,1.195998148572606848e-02,1.298610713460858317e-02,3.110129716375537989e-03,2.294951368205708046e-03,-4.319072653365498178e-03,3.138191260203494065e-02,8.182279458010498219e-02,6.022462454196182008e-02,9.783741728251921232e-02,1.914703002793875508e-01,2.363154356981984616e-01,2.295228335847987189e-01,2.699224416475363153e-01,3.600421029065635214e-01,2.962917009194606099e-01,1.223865525518989666e-01,7.841553727529035345e-02,1.492879836119470338e-01,2.041388227250192922e-01,1.351239543495495743e-01,1.019242561308647543e-01,1.349311007682496844e-01,1.193141354355656686e-01,8.897342484023441911e-02,1.080320473814029014e-01,1.610108662156985726e-01,2.572038646184745536e-01,3.493992658300830723e-01,3.063526338071475563e-01,1.901642647807155750e-01,1.163229297518007105e-01,6.900196398814145704e-02,1.140432810517817003e-01,2.539016435069313404e-01,2.578086671416254250e-01,1.347444483282862204e-01,1.059575278791274056e-01,1.170766021692362102e-01,6.222969880008882848e-02,4.259832152905748681e-02,7.463233842529808093e-02,9.845808931763180838e-02,8.421499266610914247e-02,8.985862907993305559e-02,6.491488166870006127e-02,-4.371042842139173656e-02,-1.918665785359442155e-01,-2.231825898300996980e-01
1.958157755735238648e-01,1.145519060029297265e+00,3.783372006727133474e+00,5.630315298445188965e+00,2.686972531253720931e+00,3.059130052635400041e-02,6.993761845740037453e-01,-3.365267457242348409e-02,1.655975973508727606e-01,5.842514181433863252e-01,3.443944335679752222e-01,2.267710664824074684e-01,4.055272725727779304e-01,-1.539608587113980853e-01,8.652122211618745729e-02,1.594823035834738167e-01,2.954439062987141429e-01,2.422490953182557805e-01,2.201779050864161036e-01,1.789006606215101380e-01,1.203463403903723278e-01,1.597581425113744069e-01,1.300107866795185974e-01,4.787064485338585890e-02,-5.056517067273546932e-03,-3.804669091122753893e-02,-3.999308743926445475e-02,-8.759948481826845823e-03,3.042626449704556243e-02,6.206118236590110748e-02,5.851370643512979891e-02,4.315094675442792543e-02,8.328300931201891924e-03,-8.112848581190771485e-03,4.467711230961499136e-03,4.293203503876861366e-02,8.558035940856319190e-02,1.619817606559440515e-01,7.799796901641109503e-02,-6.675718922308390875e-03,6.112363005882150667e-03,1.950992815434529071e-01,5.387342906212692073e-01,7.428512567472532746e-01,9.542060133320198201e-01,7.608260649475382387e-01,7.618000186152587005e-01,5.017282919343593051e-01,2.698091167060923112e-01,2.712062762288955931e-01,7.929793958939959642e-02,-2.693122938625352666e-02,-4.619004240473063849e-02,-1.396033654933007432e-03,1.383528002603102158e-01,2.159375461209488700e-01,1.786636638633732899e-01,1.249842518802425917e-01,1.781557249780069130e-01,1.775299868753654753e-01,1.926724157254342262e-01,2.778844491181701182e-01,1.320468618659582649e-01,1.156656442267905566e-01,2.495096629330126603e-01,1.232027883078889302e-01,7.278889822620843164e-02,7.068726677214054455e-02,5.314611304707607571e-03,-5.146611296014089176e-02,-8.680145991066498534e-02,-4.255830316843917799e-02,1.959592376248060069e-02,2.207478723086101213e-01,8.757583363019119105e-01,7.917687710849182769e-01,6.169222674416309227e-01,4.679932634250091872e-01,1.723092522790150849e-01,1.075526174143317942e-01,1.698651092393847761e-02,2.552708582471466953e-02,-9.063001367918539330e-05,3.631142820558458384e-02,3.851930719633490235e-02,1.330387006392762250e-02,1.523889734451697869e-02,6.746253296236516539e-02,2.491382437765150837e-02,2.713855240806451602e-02,-5.275508497260419406e-03,3.631780506095767542e-03,7.926080699555295914e-03,7.324353823880221830e-05,-4.992686989169685483e-04,-1.330793287638072902e-03
