5.424612211747606091e-03,1.623768069059156396e-02,1.623768069059156396e-02,1.206372360347054105e-02,1.206372360347054105e-02,7.677750516059099646e-03,4.520213896819069883e-03,-6.292854582024887990e-03,-6.292854582024887990e-03,5.357990953642026433e-04,5.805213035039875555e-03,2.904560390295423886e-02,2.677852831044666773e-02,2.762361140577982571e-02,2.067345119845737794e-02,2.974992890893370795e-02,2.561435535119451629e-02,1.965225932402794168e-02,1.930008405686403639e-02,2.662850170475337952e-02,6.031367604555142037e-02,7.688869887556269711e-02,8.129866501983541716e-02,8.088467421152563397e-02,1.054887334110704150e-01,1.039555350436907194e-01,1.051370387441600135e-01,7.313071231602361055e-02,7.709535712212903236e-02,9.713404275528096654e-02,7.816939836476866077e-02,6.103406083231352475e-02,4.904703255119659266e-02,4.093244004106558198e-02,3.448039638233531268e-02,4.844127940852420433e-02,4.442357590010536511e-02,4.399684553161803402e-02,3.716400289637003529e-02,3.014310828200816167e-02,3.014310828200816167e-02,2.332709423769166804e-02,1.292204774555562145e-02,1.574785322443449445e-02,5.288563783796947082e-03,5.288563783796947082e-03,4.371932727141684787e-03,4.371932727141684787e-03,5.895442068638710037e-03,5.895442068638710037e-03
1.782734816831749863e-02,1.691371261104415019e-02,1.691371261104415019e-02,1.691371261104415019e-02,1.691371261104415019e-02,1.480374743727989190e-02,1.007161570421958446e-02,8.679493487329334803e-03,1.173108509673713960e-02,1.030891223691739363e-02,1.030891223691739363e-02,2.766236164814138074e-02,1.981702698966420276e-02,1.546576333761489480e-02,1.546576333761489480e-02,1.369378489992808048e-02,1.504148596777850344e-02,2.826539049751945060e-02,3.854891688144806983e-02,4.646166657232227160e-02,6.157462550450193417e-02,7.751248424340577425e-02,9.620232758312785570e-02,1.242624334910773787e-01,1.800511244673933808e-01,2.639418456097152865e-01,2.893815719742014458e-01,2.774807515912929290e-01,2.920610617922478891e-01,3.066051545660325450e-01,2.932261041937829771e-01,2.469725860633409376e-01,2.232911948629084375e-01,1.089713314849151543e-01,6.045907964226836240e-02,3.312002018747600696e-02,3.218041880509268926e-02,3.119059751860619664e-02,3.261277037842593568e-02,2.252732618166627607e-02,2.889076662430902984e-02,3.751527837161224704e-02,3.203318520456833324e-02,2.391714760844132481e-02,2.391714760844132481e-02,1.895803637264253938e-02,9.958432624575797032e-03,1.333920877272576355e-03,-0.000000000000000000e+00,-0.000000000000000000e+00
-0.000000000000000000e+00,7.899992872198977750e-03,1.200443361407888508e-02,1.200443361407888508e-02,1.200443361407888508e-02,1.200443361407888508e-02,1.200443361407888508e-02,1.282688989443186815e-02,1.252008642316334783e-02,8.359688140707116633e-03,1.540321682685092536e-02,1.739210075334089375e-02,1.359446348272950675e-02,1.359446348272950675e-02,1.359446348272950675e-02,2.466549256388233385e-02,2.277577132107951735e-02,1.882614116307573804e-02,5.315592338252322219e-02,5.941589966071184753e-02,6.072304151974679959e-02,7.489911994793674310e-02,7.955906061121208184e-02,9.139154225705159451e-02,8.726368245984310323e-02,9.925448879247664169e-02,8.980026483778580371e-02,9.455504382228714644e-02,8.226228669500117163e-02,7.858391428872148199e-02,1.078520515280397274e-01,8.259370013995262494e-02,7.408304987091363092e-02,4.881807008500304440e-02,4.245559474267218691e-02,3.345553736305661996e-02,3.671771629188312625e-02,3.523980385540203403e-02,3.039927995797885724e-02,3.010324272352603303e-02,2.511653374829849947e-02,1.891042294309485880e-02,1.819326335904736247e-02,1.228791741630141411e-02,1.150285509860036852e-02,-0.000000000000000000e+00,-0.000000000000000000e+00,-0.000000000000000000e+00,-0.000000000000000000e+00,-0.000000000000000000e+00
3.663589837272542612e-03,3.663589837272542612e-03,5.712688463641053122e-03,1.040582167266691956e-02,2.399578031083840490e-02,3.108625535722697036e-02,4.276805998521006347e-02,6.263969951171555195e-02,9.237518593784428689e-02,8.563295410244990691e-02,8.440942824976091496e-02,7.632751831147178978e-02,7.382375964564139026e-02,6.877699612576292088e-02,6.086595751481885253e-02,4.614277013098265490e-02,8.963568553604593647e-02,1.071271025602560378e-01,1.587530487059689854e-01,1.849946783556450924e-01,1.949866118776812374e-01,2.095397311835626997e-01,2.150603904967582913e-01,1.950759931294578364e-01,1.840345282876619248e-01,1.496132588895429660e-01,1.217549110138568536e-01,1.284901287704924844e-01,1.340419390067023320e-01,1.188823882902803608e-01,1.111384217208083308e-01,1.128878878390851409e-01,1.128878878390851409e-01,9.385190876151539019e-02,5.483011897055327377e-02,4.883109782115936659e-02,3.052358912986422035e-02,9.251351062263208150e-03,9.179703079634917579e-03,9.873958169511641222e-03,3.603564456535760657e-03,-2.034728231562188665e-03,-4.661691422776516845e-03,2.949562905524240851e-03,2.643188183250284179e-03,3.834420590416182800e-03,9.132962363622791277e-03,9.132962363622791277e-03,7.611254328300757696e-03,-0.000000000000000000e+00
-2.836853591683109158e-04,-1.055578966066102924e-03,-2.272776426600239298e-03,-2.272776426600239298e-03,-1.035820603440913896e-04,-1.035820603440913896e-04,1.801032988242195262e-04,2.093950517241168971e-02,4.308278121728180421e-02,5.276181026018540721e-02,5.059261589392925751e-02,5.059261589392925751e-02,4.870712839688663698e-02,4.391465718997175638e-02,1.741563827159668676e-02,1.339745345194069508e-02,1.223015966128482984e-02,4.904051375078643388e-02,8.215583343624989487e-02,1.260563531758897293e-01,1.710339672368745845e-01,1.904510187270176957e-01,2.021336651946824547e-01,1.899387028664979438e-01,1.809190867183448626e-01,1.817194772396463764e-01,1.871184392153255605e-01,1.781349519716464436e-01,1.430120733043221404e-01,1.430335902626565514e-01,1.269938748164148590e-01,1.769961594568847385e-01,1.728742593416788820e-01,1.678016535818627197e-01,1.666248705760284277e-01,1.900268734392048242e-01,1.819668715303751627e-01,1.491322771193110408e-01,1.058046971509370299e-01,8.833121059026721733e-02,7.980761412047204795e-02,6.749757689930452331e-02,6.173775611485171622e-02,4.811099191922739438e-02,4.204627905610842931e-02,4.204627905610842931e-02,1.996956521818121430e-02,1.996956521818121430e-02,1.996956521818121430e-02,9.749926337871759122e-03
-0.000000000000000000e+00,-0.000000000000000000e+00,1.390620247742364564e-03,8.971170878125035025e-03,6.778184334419315622e-03,1.013746433529618199e-02,1.013746433529618199e-02,8.746844087553816774e-03,1.560947603484979899e-02,1.323133262561750588e-02,1.486260578066730953e-02,2.307275745400103051e-02,2.353264357171962196e-02,2.517755613242558810e-02,2.158448662378082555e-02,2.227946533069083412e-02,2.165896039196285594e-02,4.400676639544767732e-02,6.193858365227680740e-02,9.563669023230143840e-02,1.216245490846731836e-01,1.699813651374055268e-01,1.594507003950758062e-01,1.613648197574094612e-01,1.691332183335521044e-01,1.681133490791003049e-01,2.041418125439329045e-01,2.287828915812573638e-01,2.084672574560815783e-01,2.010774899842328600e-01,1.906946055575514387e-01,1.759769975547339493e-01,1.391401989865137800e-01,1.122634741671317965e-01,6.688175180530733788e-02,5.364117112239589341e-02,4.687032138377358881e-02,4.725251900330653537e-02,4.779100279670734502e-02,4.999595404676787647e-02,3.892143035242313920e-02,3.739792101092610788e-02,3.367572082476470718e-02,3.148956634462954374e-02,2.576908698462680031e-02,8.391235197254249753e-03,1.058422174095996829e-02,-2.011179547823052638e-03,-3.949823584909247648e-03,-8.996587104787727440e-03
-0.000000000000000000e+00,9.896172487550503397e-03,1.547024342733345839e-02,2.735481618911849572e-02,3.450752311421343560e-02,3.389424319728336771e-02,3.389424319728336771e-02,2.960023262820562356e-02,4.907810766428674643e-02,3.897835821261118328e-02,2.825835717510022382e-02,2.887163709203029865e-02,3.122756663930328219e-02,2.562540472083051774e-02,2.562540472083051774e-02,2.401748403957771477e-02,4.960037785537167038e-02,5.123204972810421060e-02,6.080315645928453111e-02,5.988652540262925927e-02,4.890646744378332467e-02,4.356790350326504579e-02,3.866760706097992217e-02,2.766065449102149409e-02,2.561593130405099769e-02,2.463103993351827697e-02,4.033762924139127487e-02,4.495261600384635459e-02,6.256104699718333106e-02,7.465955900360769781e-02,7.102150524527216235e-02,6.131104307186665409e-02,4.842068173719635271e-02,3.191767118144777510e-02,2.462813372340993262e-02,2.680670066660225531e-02,1.848590410168979292e-02,2.654206743728324686e-03,1.711462995207013553e-03,-5.883811546015762194e-03,-7.577184638606183388e-03,-6.145459910539748452e-03,-6.145459910539748452e-03,4.876199517987921984e-03,4.876199517987921984e-03,4.876199517987921984e-03,3.959895655308603990e-03,2.528170927242168187e-03,2.528170927242168187e-03,-6.005845454417431308e-04
2.054035052544044698e-02,1.764700083954044707e-02,1.670425709101913680e-02,1.670425709101913680e-02,1.670425709101913680e-02,1.217843393479765314e-02,1.366372859894692156e-02,1.797289857856191123e-02,1.758695177511301541e-02,1.388881996848525396e-02,1.572424405894053395e-03,2.463664069364351460e-03,2.463664069364351460e-03,4.297700202849191221e-03,1.704575258458743831e-02,1.774073129149744688e-02,3.271951879250258044e-02,5.224669008288947147e-02,6.835459425300194347e-02,1.174076879820811214e-01,1.374621706151063771e-01,2.004673471449992250e-01,2.244222665051051335e-01,2.147790322086399750e-01,2.270068273612410314e-01,2.415792310006696364e-01,2.523674373804845050e-01,2.397169830496168608e-01,2.112765241142994521e-01,1.925607336523236790e-01,1.968036281485955052e-01,1.582635211723696922e-01,1.148394153768367287e-01,7.318818062729681717e-02,4.879006291799871387e-02,2.389472863544944009e-02,1.522705992889437920e-02,1.521853556242484633e-02,8.924245839546787046e-03,8.924245839546787046e-03,9.113369412325659363e-03,2.594521178299306115e-03,-0.000000000000000000e+00,-0.000000000000000000e+00,-0.000000000000000000e+00,-0.000000000000000000e+00,-0.000000000000000000e+00,-0.000000000000000000e+00,-0.000000000000000000e+00,-0.000000000000000000e+00
1.613879926064099718e-02,1.613879926064099718e-02,1.613879926064099718e-02,1.613879926064099718e-02,1.613879926064099718e-02,1.024000711501723421e-02,4.058018798063504212e-03,4.058018798063504212e-03,1.889412965594009647e-02,1.939021232909327735e-02,1.939021232909327735e-02,2.008117411511282577e-02,2.005209599998776862e-02,1.585592495431187299e-02,2.451834285011987927e-02,2.097429899412667914e-02,2.369549955481984466e-02,3.186840494799859230e-02,5.393124650213194926e-02,5.669531382925901974e-02,6.139647770957457756e-02,8.281381071677798578e-02,1.118898642452778175e-01,1.278443040085062710e-01,1.427542966952504155e-01,1.630689026924840301e-01,1.680968863588409024e-01,1.653339918389563068e-01,1.663534802932986056e-01,1.605797022601913038e-01,1.533718585029292814e-01,1.191477648678889723e-01,1.156907516923005586e-01,9.286556680786393903e-02,9.032440663763598165e-02,6.030760983438061829e-02,4.660777460045054110e-02,4.382653410496581414e-02,1.691175419138627248e-02,7.738516291886026605e-03,8.685673980611680056e-03,1.869659936295188160e-03,5.533249773567731206e-03,9.108087504772073920e-03,7.731862912842222754e-03,8.493617583590734946e-03,4.244408604973875544e-03,7.546459894865080627e-03,3.882870057592538015e-03,1.615794465084962554e-03
-4.068952118706023469e-02,-6.508688225294004259e-02,-9.929214769178235089e-02,-2.049878598469777047e-01,-2.373738020245435287e-01,-2.733058453656662667e-01,-2.890713148870514559e-01,-3.261034509261382386e-01,-3.467802797079759247e-01,-3.713045076769367348e-01,-3.759034261010184563e-01,-3.624365748125456532e-01,-3.262557254179524469e-01,-3.010861537648752972e-01,-3.512164222798723756e-01,-3.332821824523127252e-01,-3.242404850991605358e-01,-3.463506922770860363e-01,-2.873680376479499921e-01,-2.182356037549849082e-01,-2.040553751182895559e-01,-1.952164376932537526e-01,-2.118502149366414955e-01,-1.954932028859988624e-01,-1.764075602682078359e-01,-1.734734402775031659e-01,-1.526973518346985692e-01,-1.401336323646271143e-01,-1.366585522609658765e-01,-1.358288815180622999e-01,-1.357544097260929838e-01,-1.774776796368405796e-01,-1.961135915198736479e-01,-2.333652969126344956e-01,-2.087959237055493078e-01,-2.088210357350067103e-01,-2.374012767807818780e-01,-2.848857927810211077e-01,-2.981283466407307903e-01,-2.995443152127880704e-01,-3.001288189892220570e-01,-2.881475497939670061e-01,-2.632809922200572972e-01,-1.880152109859427323e-01,-1.626929271843764735e-01,-1.539601207119226101e-01,-1.247448609132350006e-01,-7.761279934041029338e-02,-5.114275624449458879e-02,-5.114275624449458879e-02
-7.228280131859761426e-02,-7.228280131859761426e-02,-1.254409488720584498e-01,-1.435353583084015283e-01,-1.625215400257764009e-01,-1.711590579207740437e-01,-1.924176324595386900e-01,-2.000601553700415980e-01,-1.959897718224307139e-01,-1.931512038932208797e-01,-1.766985080335350122e-01,-1.726158206602772249e-01,-1.621004048449302681e-01,-1.981489291395063246e-01,-2.117288583966528970e-01,-1.931192486265367325e-01,-2.357670244621721256e-01,-2.268248825390951073e-01,-1.895302244642254053e-01,-1.962031452166579926e-01,-1.938118162357002350e-01,-1.869934934384336334e-01,-1.877760270534103437e-01,-1.774277216526993217e-01,-1.630483376070384627e-01,-1.604922177184714971e-01,-1.514220039008692953e-01,-1.398731867187105182e-01,-1.427061432079675118e-01,-1.567268875488465885e-01,-1.566524157568772724e-01,-1.832305881562217020e-01,-2.378436229255556089e-01,-2.501687387829365505e-01,-2.477040209046943442e-01,-2.076913368951958661e-01,-2.125137314287488532e-01,-2.267004014017507119e-01,-2.239174363865641115e-01,-2.334166990254631091e-01,-2.110774842817246255e-01,-2.073973224818340122e-01,-1.896030501985652428e-01,-1.649788310815064052e-01,-1.317904005023729508e-01,-1.143415537528686132e-01,-1.030100929187275083e-01,-8.738574162805640144e-02,-6.723040247875076980e-02,-4.955378825134930387e-02
1.207650300247172653e-02,1.207650300247172653e-02,1.207650300247172653e-02,3.530319187790401797e-02,4.419008852600828097e-02,4.419008852600828097e-02,4.419008852600828097e-02,5.941415469785563119e-02,5.941415469785563119e-02,5.954545560923391045e-02,6.300481718029965483e-02,6.674040256340943444e-02,6.674040256340943444e-02,6.521803166896741888e-02,6.267003173046777065e-02,5.506283581203715027e-02,7.150879219530181796e-02,9.544002775403014061e-02,7.358463762246922335e-02,1.188547467993805451e-01,1.764463926989093823e-01,2.042900109355426652e-01,2.407147362871323859e-01,2.676716939637008297e-01,3.028475059031595640e-01,3.173141888178878101e-01,3.288178944040133223e-01,3.432265962858491171e-01,3.375741662069870475e-01,3.532634514721209040e-01,2.927715084057546102e-01,2.635842084079960124e-01,2.119300172615666833e-01,1.326977392428549118e-01,7.872450341615735980e-02,2.400062921513219580e-02,1.935309161815550183e-02,2.098842895918981086e-02,1.007147447802704890e-02,9.073385389135206480e-03,7.720497890533115776e-03,9.040283508195138401e-03,7.906745711941351104e-03,-5.278267023669403358e-04,-5.278267023669403358e-04,-4.568177786366748715e-04,-0.000000000000000000e+00,-0.000000000000000000e+00,-0.000000000000000000e+00,-0.000000000000000000e+00
-8.267509043443007147e-03,-3.519287565411134688e-02,-5.322327872280546712e-02,-6.156887445252501312e-02,-1.300806261220238680e-01,-2.056610729031655704e-01,-2.211242388797988179e-01,-2.355179294616293328e-01,-2.383388584394211807e-01,-2.405569238761932349e-01,-2.781683397031140537e-01,-2.941628424798574670e-01,-3.134447317834431201e-01,-3.126215501335132263e-01,-3.512535790775107580e-01,-3.436098335314975438e-01,-3.340393282903937333e-01,-3.326018057753816204e-01,-2.789234636604895345e-01,-2.280584497862486737e-01,-1.931790683936547848e-01,-1.819694810907571125e-01,-1.433101888414413383e-01,-1.512605407901330135e-01,-1.255412392322561577e-01,-1.124981820173380914e-01,-1.124981820173380914e-01,-9.233918800604384858e-02,-9.328193175456515884e-02,-1.056187447610939800e-01,-1.063137234680039955e-01,-1.524473243665496192e-01,-1.979286446441758940e-01,-2.291823453212171180e-01,-2.566740637754852949e-01,-2.829213589437484799e-01,-3.033020718710495167e-01,-3.252490019729979420e-01,-3.319224455842558763e-01,-3.319421867687696870e-01,-3.003527411027629435e-01,-3.059024128809498810e-01,-2.951203653798133986e-01,-2.411862029867948287e-01,-2.041855047439780635e-01,-1.706399884478800033e-01,-1.321427985540926109e-01,-8.284695843762156231e-02,-5.258062860552299711e-02,-2.040415038387958374e-02
-5.607618575232409253e-02,-6.272596732663687780e-02,-1.343292861914194836e-01,-1.718270383285966374e-01,-1.949462954032891715e-01,-2.241057877879157612e-01,-2.817963603293855979e-01,-2.999195256855341496e-01,-3.424334882419339809e-01,-3.445204097888834305e-01,-3.498175532767648921e-01,-3.624572529623478756e-01,-3.692742619608004873e-01,-4.005441979427888377e-01,-4.490492631095157616e-01,-4.245152268447410782e-01,-4.058829018408740552e-01,-3.589043787356491766e-01,-2.707751515738738846e-01,-1.951967558836250061e-01,-2.026259882138083945e-01,-1.765584490892938008e-01,-1.896688661031253054e-01,-1.798444706105623569e-01,-1.680860076673164061e-01,-1.657695987777969004e-01,-1.562814528286126936e-01,-1.559591545489485975e-01,-1.438553534159651426e-01,-1.493786193181041166e-01,-1.572611754709066223e-01,-2.084189626809846985e-01,-2.558156828082256418e-01,-2.983791428813611923e-01,-2.898788617351611419e-01,-2.875076525177386877e-01,-2.768502715564166161e-01,-2.855485279432483647e-01,-2.855485279432483647e-01,-3.012029689165383051e-01,-2.764020238462232548e-01,-2.858778044607346858e-01,-2.173116678543257074e-01,-1.944182816034311090e-01,-1.628181481445216960e-01,-1.114394728272373736e-01,-1.037922856393880544e-01,-7.383007632701320266e-02,-4.159619376936099511e-02,-3.021525636066627746e-02
-7.958774663861574450e-02,-1.006665391277733607e-01,-1.243457563922063663e-01,-1.302543948810663266e-01,-1.408576779534885526e-01,-1.844293587266404022e-01,-2.053850989788391090e-01,-2.268493026175195382e-01,-2.414910308864027799e-01,-2.551892610683635931e-01,-2.513942339972695672e-01,-2.507467895644364675e-01,-2.807131292482373253e-01,-3.021314856569821128e-01,-3.610108770226031494e-01,-3.879532033312463879e-01,-3.982550386404397069e-01,-3.770700722108126235e-01,-3.193327930120321567e-01,-2.477168429097448832e-01,-2.343822505348530649e-01,-1.956811960943262152e-01,-2.007861445195751882e-01,-1.830051224261604603e-01,-1.694829252312826107e-01,-1.566846432047186988e-01,-1.326049351336142934e-01,-1.342498476943202457e-01,-1.282359717007567901e-01,-1.184889757342473676e-01,-1.229089464194343673e-01,-1.380217205573704975e-01,-1.899418361813685341e-01,-1.782873225399549955e-01,-1.511994597614901847e-01,-2.442404072961373296e-01,-2.079467548447193059e-01,-2.612268453332095564e-01,-2.982719323966475100e-01,-3.160526290322203669e-01,-3.206280217316251901e-01,-2.979354950582790984e-01,-2.998755603733156971e-01,-2.731768615893941377e-01,-2.351571217443040318e-01,-1.926670867580261848e-01,-1.496852695698870916e-01,-1.156010680660022327e-01,-8.652284099973678311e-02,-5.374225813559115050e-02
-5.244496801272508640e-02,-5.744917681930761938e-02,-1.096904458495852608e-01,-1.230501018770017163e-01,-1.337459721299870952e-01,-1.380764561012333413e-01,-1.306092147773294243e-01,-1.306092147773294243e-01,-1.169595137408242780e-01,-1.121431705544591317e-01,-1.063496764392675153e-01,-1.166598385552073680e-01,-9.928140878989114015e-02,-1.523723507574444302e-01,-1.733468820454776016e-01,-2.143258004310627796e-01,-2.373575783264001426e-01,-2.128261832978567969e-01,-2.321510315799683588e-01,-2.196393628215567162e-01,-1.848868058460920727e-01,-1.957087675782255287e-01,-1.704717520476212722e-01,-1.897972157963048190e-01,-1.618750528387284948e-01,-1.544139149831190161e-01,-1.481222097114422709e-01,-1.491017295462203351e-01,-1.322646278767319328e-01,-1.347539863555407558e-01,-1.203140783498509170e-01,-2.057878361714753912e-01,-2.762273625448670167e-01,-3.515419633383770615e-01,-3.495038775162544464e-01,-3.600848040144285500e-01,-3.795249403420984935e-01,-3.420841537820326628e-01,-3.379009086208020207e-01,-3.441763124888863046e-01,-3.301311543311836738e-01,-3.353274105633817781e-01,-3.078309180083579344e-01,-2.404839191405940269e-01,-2.372569760034501374e-01,-1.797869525632627974e-01,-1.599005361373170564e-01,-1.380267151453663244e-01,-9.689295428573697910e-02,-8.093416018382419697e-02
1.313013086027113585e-02,2.809674233605716567e-02,2.809674233605716567e-02,2.809674233605716567e-02,2.478801774509476613e-02,2.746584825709495054e-02,2.925944873335626500e-02,1.421381000589896915e-02,4.563449776178507555e-03,4.246385077951348591e-03,1.062425845670696839e-02,1.390677281084812950e-02,1.473806408876155750e-02,4.431541593616463923e-03,1.571959982161695579e-02,1.795132468180254265e-02,2.878117583586901201e-02,9.106578453533439865e-02,1.014237205394396130e-01,1.464348203147219918e-01,1.579517987295991077e-01,1.502620141441547985e-01,1.468722807140665221e-01,1.785908618197052100e-01,1.730839700212358501e-01,1.342901844090580998e-01,1.152151008259198334e-01,1.006862681908043816e-01,8.835946020419256641e-02,6.883271565621304489e-02,7.557810254220338753e-02,8.610276256462363886e-02,7.191977253035772288e-02,6.229162176036600468e-02,5.001584915403323867e-02,4.538582133177276184e-02,2.796809400975550780e-02,1.264965005907932663e-02,8.208881483759816397e-03,1.578943211414248621e-02,8.571111400941298572e-03,8.571111400941298572e-03,1.301187997626080881e-02,1.239827303372376816e-02,1.239827303372376816e-02,1.002012962449147331e-02,7.010708947046816013e-03,4.440768575319510234e-03,4.440768575319510234e-03,4.440768575319510234e-03
-5.710033800568979634e-02,-1.082524471597950816e-01,-1.554801540969657780e-01,-1.993686635663185491e-01,-2.129217442920416925e-01,-2.826422543981287339e-01,-3.082646312632233432e-01,-3.755013139084588669e-01,-3.916461983914152900e-01,-4.396003011465832722e-01,-4.508491792282303123e-01,-4.461852536991449680e-01,-4.496113835796721747e-01,-3.926345037398545901e-01,-4.161158598799742370e-01,-3.977317899099106491e-01,-3.460778426473721803e-01,-2.719826252716587844e-01,-1.931928244806427886e-01,-1.640885475937406968e-01,-1.428049377791972274e-01,-1.577183471915437896e-01,-1.585187269842077418e-01,-1.496371898335687178e-01,-1.373207942709775420e-01,-1.373207942709775420e-01,-1.304159992335022777e-01,-1.197201682252760080e-01,-1.212807638612650868e-01,-1.300779925654941827e-01,-1.255710259212787228e-01,-1.806038707745472316e-01,-2.021239250402842025e-01,-2.053326946139519826e-01,-2.053519584900641015e-01,-1.944819172174015731e-01,-1.694773613209884788e-01,-1.700675816849878952e-01,-1.582760445641188118e-01,-1.404817980674692990e-01,-1.191857383415240723e-01,-9.669046396640515462e-02,-8.812469731814494278e-02,-5.148073171981593088e-02,-4.018451302142718451e-02,-3.437000273515756349e-02,-2.408098536968797040e-02,-1.700405772724489228e-02,-7.975847762487444162e-03,1.314612251550260815e-03
-6.655171047847646681e-02,-9.256256354471742442e-02,-1.177790872990717164e-01,-1.629653614826400421e-01,-2.060300178606170318e-01,-2.492165791739823777e-01,-2.505252636428473845e-01,-2.797529626273973502e-01,-3.028587445746416806e-01,-3.304451985264463820e-01,-3.287441505464046010e-01,-3.076096035537342344e-01,-2.847742934101350487e-01,-3.089726118372888575e-01,-3.641802394961155542e-01,-3.453559549911153770e-01,-3.357751899219005853e-01,-3.282249082408446039e-01,-2.643434673706044347e-01,-2.046559566408051034e-01,-1.963519948309639940e-01,-1.753544839832998359e-01,-1.952677237827323831e-01,-1.863069753453452382e-01,-1.819446860944002320e-01,-1.765412323040254916e-01,-1.702495270323487186e-01,-1.718944395930546987e-01,-1.653511715263039639e-01,-1.679375703749166060e-01,-1.703882775376160952e-01,-2.053519425416818200e-01,-2.316894309214646008e-01,-2.259788445353677067e-01,-2.569528795056626458e-01,-1.988299418058659673e-01,-2.545244740974267339e-01,-2.665718921392409291e-01,-3.023565426621669938e-01,-3.093552035363232866e-01,-3.153896506793831822e-01,-3.215149443391763229e-01,-3.262777211886512263e-01,-3.115593137415911262e-01,-2.896718411415765693e-01,-2.603730046764594075e-01,-1.655804772571364269e-01,-1.311135506970891595e-01,-9.203260834859658401e-02,-3.767796346732892737e-02
-3.226874503380972037e-02,-6.345402867606188269e-02,-7.136583157699191715e-02,-1.191182392225336173e-01,-1.701127548127454314e-01,-2.265729781630429485e-01,-2.582466398528966423e-01,-2.995117305145644782e-01,-3.026113284228824085e-01,-3.199027658639834737e-01,-2.940270900686269284e-01,-3.036535903164213623e-01,-3.110841671781836570e-01,-2.851795226501484537e-01,-2.911143949517718821e-01,-2.883349706104714749e-01,-3.072276841381358925e-01,-2.937601573563343726e-01,-2.678218409807450739e-01,-2.189158760357670097e-01,-1.552644715512622176e-01,-1.440910503657134578e-01,-1.311954490949022167e-01,-1.453143597251822516e-01,-1.474104604915034422e-01,-1.474104604915034422e-01,-1.350940649289122386e-01,-1.298808326268285074e-01,-1.298808326268285074e-01,-1.187589254917828796e-01,-1.000347587203512939e-01,-1.301274006826402263e-01,-1.976190534624126804e-01,-2.361038773549677949e-01,-2.798861604167581785e-01,-3.431095478551871580e-01,-3.358811727333183006e-01,-3.455006651901698644e-01,-3.355211178375828718e-01,-3.569626728513778935e-01,-3.258495210786458429e-01,-3.155733490668160557e-01,-2.721385415125687213e-01,-2.445489629505699369e-01,-1.899066198453449317e-01,-1.445663441206295752e-01,-1.033032529509073927e-01,-7.372639873759231910e-02,-6.327015437043666257e-02,-4.548505409245369446e-02
-0.000000000000000000e+00,-0.000000000000000000e+00,-0.000000000000000000e+00,-0.000000000000000000e+00,-0.000000000000000000e+00,6.828653677389090633e-03,1.299433327916690688e-02,1.299433327916690688e-02,1.142337182039495150e-02,5.702892460392210670e-03,8.765089451701065654e-03,1.640450196217320758e-02,7.201497603258187608e-03,7.201497603258187608e-03,1.736505269183308969e-02,2.732049801921768162e-02,3.348392207927384373e-02,6.657465740749306249e-02,9.408842741237287421e-02,1.114478397660814968e-01,1.013382606627484112e-01,1.109904935329113773e-01,1.488551349318120720e-01,1.797983344707099751e-01,1.939273412639784255e-01,1.776584856295333192e-01,1.897469530434078844e-01,1.705686572016121838e-01,1.822338723514595193e-01,1.818938349998031612e-01,1.524244766599997802e-01,1.371798649622242017e-01,1.243046512913775353e-01,4.862967452880855718e-02,3.207364457827908272e-02,2.545272065747944748e-02,2.545272065747944748e-02,1.713192409256698162e-02,1.882038712953025550e-02,1.903055391118900833e-02,1.706968435243708809e-02,1.706968435243708809e-02,1.351086284509118128e-02,1.371539849260352759e-02,1.371539849260352759e-02,6.584564119057678862e-03,6.584564119057678862e-03,2.045356475123467118e-04,2.045356475123467118e-04,-0.000000000000000000e+00
-8.692619605117440917e-02,-1.077270760773724467e-01,-1.899626367680715688e-01,-2.527769542607442022e-01,-2.830523781271797601e-01,-3.087065433458902608e-01,-3.295435854975713452e-01,-3.333327107419993274e-01,-3.347290327314966785e-01,-3.511862224175136271e-01,-3.757705663058745760e-01,-3.271900543656912630e-01,-3.580391200818645592e-01,-3.429985563833202189e-01,-3.879419335232546784e-01,-3.753694301516291021e-01,-3.931186756119853798e-01,-3.576660752299211099e-01,-3.192776648719359844e-01,-2.071814987046472767e-01,-2.149820061932325999e-01,-1.936551765132026315e-01,-1.883707906830496270e-01,-1.940919218192622142e-01,-1.809608093484817992e-01,-1.697640861097625131e-01,-1.603188575912904978e-01,-1.548533610444329522e-01,-1.459056992837305389e-01,-1.363363860458219057e-01,-1.482845836610555690e-01,-1.682282467175026108e-01,-1.943723345705003491e-01,-1.886764221998169788e-01,-1.754066496009521747e-01,-1.204769603289565505e-01,-1.200296582040279031e-01,-1.115691974476231141e-01,-1.343757421969649923e-01,-1.374877924492688974e-01,-1.244134932539994187e-01,-1.343959892824439784e-01,-1.395229565827513230e-01,-1.403113907926087922e-01,-1.457653852529705585e-01,-1.381420883812821687e-01,-1.174906845574898023e-01,-1.018642801629680295e-01,-7.550852799216267730e-02,-5.038525002547612763e-02
-0.000000000000000000e+00,-3.786880526030622228e-04,1.488392964885673804e-03,1.488392964885673804e-03,7.329727669668660225e-03,7.329727669668660225e-03,2.316930735466563029e-02,2.013140975211630962e-02,4.597470776169425982e-02,4.597470776169425982e-02,4.386895844002106776e-02,5.150837095049320968e-02,3.928241948096614783e-02,3.937265138004752973e-02,3.742779343998074021e-02,3.102540262105700150e-02,4.098245539730261539e-02,6.637135010545042180e-02,1.078457976283179603e-01,1.146642267438819224e-01,1.318604890255450635e-01,1.560836914955938126e-01,1.484442789851216360e-01,1.575131903410557088e-01,1.461617133900908472e-01,1.617350241994652826e-01,1.265317004294169434e-01,9.694824837344766244e-02,6.130583452268476008e-02,6.197667840336459205e-02,6.027195875632428146e-02,5.382960749782787768e-02,4.903921898723387351e-02,4.180330772859167099e-02,3.524651449755542010e-02,2.470482394076937982e-02,2.409121699823233917e-02,2.409121699823233917e-02,1.514199265769521768e-02,1.514199265769521768e-02,-4.769677446118757332e-03,5.650848061215245528e-03,1.793191100488369938e-02,2.683528038766556240e-02,3.160495783378432233e-02,3.160495783378432233e-02,3.160495783378432233e-02,2.805972031059003613e-02,1.107485496331348657e-02,8.249049484434615304e-03
-0.000000000000000000e+00,-0.000000000000000000e+00,-0.000000000000000000e+00,5.202407221150375828e-03,3.178111950037404172e-03,1.359863745737140660e-02,2.510435684371300005e-02,5.038124977678011540e-02,5.137569174002510480e-02,5.137569174002510480e-02,4.617328451887472290e-02,5.276837986292041982e-02,3.178573613454915847e-02,4.630087806570952480e-02,4.700122751283790368e-02,5.630672453901189312e-02,6.454603332202464572e-02,1.059060802325315492e-01,1.637057478551967593e-01,1.788342270490550501e-01,1.562910064931532783e-01,1.731805945771214827e-01,1.683905456661893008e-01,1.627211701902128993e-01,1.222704272419033872e-01,1.032748397601119666e-01,7.109509221774565346e-02,6.591717892296804215e-02,7.238020509627804411e-02,1.129566080641722786e-01,1.341642976234230511e-01,1.176446578458694575e-01,1.193523628626448757e-01,9.231955709240839691e-02,9.365847234840848912e-02,6.292937372481297031e-02,2.752999554199353147e-02,1.855345803870356303e-02,1.130362803994330347e-02,8.855088703091320082e-03,-0.000000000000000000e+00,-1.904308449740707305e-03,-5.500712151479028155e-04,-5.500712151479028155e-04,4.707883023526058218e-03,4.707883023526058218e-03,4.707883023526058218e-03,4.707883023526058218e-03,5.257954238673961250e-03,5.257954238673961250e-03
-3.178732056625072078e-02,-5.645793609250730760e-02,-7.251857327203009573e-02,-1.364586440242666621e-01,-1.884059462012980524e-01,-2.330766035869419051e-01,-2.777154943771301121e-01,-3.206483842863044331e-01,-3.424272429408776741e-01,-3.350285454822439779e-01,-3.558306872342186233e-01,-3.122844164083201091e-01,-3.130152213025085284e-01,-2.921003551182126956e-01,-3.179960647578711219e-01,-2.869406505527007378e-01,-3.012225976550567674e-01,-3.024889192054188713e-01,-2.422656465239504120e-01,-2.266145212059341718e-01,-2.090119029568575926e-01,-2.119491723479544065e-01,-2.025058934857998094e-01,-1.944412198921514068e-01,-1.775262182892484997e-01,-1.659839073132299558e-01,-1.540313578183056253e-01,-1.471265627808303611e-01,-1.331686562011938635e-01,-1.352460050684521076e-01,-1.353139493719206776e-01,-1.786650856574361068e-01,-2.016811697933136860e-01,-2.314184227737319244e-01,-2.239769369798979559e-01,-2.740677135423313926e-01,-2.740677135423313926e-01,-2.826758339394145891e-01,-3.355747133567942297e-01,-3.570078791488114911e-01,-3.739242272532973255e-01,-3.557425495316653974e-01,-3.386319587743922277e-01,-2.687159530168365396e-01,-2.615095854205600756e-01,-1.916349818912464475e-01,-1.282865057040972756e-01,-1.150324365284919464e-01,-7.721201803258648244e-02,-3.862267219334284546e-02
-1.632359557901322689e-03,-2.137305081036725701e-02,-5.713010705842531956e-02,-8.788025415051467504e-02,-1.237603762643911254e-01,-1.979240156217022262e-01,-2.364828421397661418e-01,-2.890171753704576241e-01,-3.158325601658793502e-01,-3.346903001906511577e-01,-3.447030694095475911e-01,-3.579710164523680072e-01,-3.924063082903900268e-01,-3.869253448614449198e-01,-3.961933629001104795e-01,-3.791397307873652367e-01,-3.399399289972223070e-01,-3.163660445409860467e-01,-2.182938538589681010e-01,-2.010388211226432631e-01,-1.679578327908270441e-01,-1.620141693699548302e-01,-1.733002894897959223e-01,-1.770145156608824710e-01,-1.569326467419680515e-01,-1.563387029838002595e-01,-1.609479904300343822e-01,-1.405161891528131091e-01,-1.416061177626944390e-01,-1.484535682559678382e-01,-1.632605890470903987e-01,-2.311924751699479530e-01,-2.318436088689121433e-01,-2.723546623117437115e-01,-3.044720687934954206e-01,-2.965353380283822782e-01,-3.138130401772954992e-01,-2.989140671562903195e-01,-2.938486479930737527e-01,-2.866007236020188254e-01,-2.600638978438601367e-01,-2.820484668979814091e-01,-2.769332856998432124e-01,-2.527545319032006299e-01,-2.005134869419830379e-01,-1.217499080006408246e-01,-8.137795950765200348e-02,-5.362289968408541496e-02,-2.849390181268941780e-02,-2.685997530607550296e-02
-5.126639292780370283e-02,-7.123128694680203044e-02,-9.542221775436188214e-02,-1.012325337282229121e-01,-1.051542988991413102e-01,-1.101074316788683699e-01,-1.186866321342162495e-01,-1.551865097140045502e-01,-1.713476694583743187e-01,-1.767465223138405817e-01,-1.562751137982927863e-01,-1.486061651475112377e-01,-1.207471588946177343e-01,-6.932349462870808499e-02,-6.222010917307106703e-02,-9.804445637376753286e-02,-1.082173024714582488e-01,-1.400677598266905355e-01,-1.345847357179734971e-01,-1.475894810705957461e-01,-1.404442878341889411e-01,-1.387046878410065354e-01,-1.648021837135951184e-01,-1.648021837135951184e-01,-1.569074840241382329e-01,-1.483266738446568089e-01,-1.407313993034340349e-01,-1.423763118641399872e-01,-1.311214040700133254e-01,-1.534209426193577364e-01,-1.534888869228263064e-01,-2.213838774162316114e-01,-2.749988888330850978e-01,-2.850157397770406442e-01,-3.168956795740803800e-01,-2.910283089776785070e-01,-3.340693385467402576e-01,-3.747752684177250160e-01,-3.970105575083312521e-01,-3.974412334874204422e-01,-4.145627214975579067e-01,-3.930434784548372251e-01,-3.928099571269797474e-01,-3.237025316053567248e-01,-2.993045561178606095e-01,-2.661398136742116893e-01,-2.392403179826738946e-01,-1.838921087440135438e-01,-1.632325274285468253e-01,-1.009820544432646072e-01
-0.000000000000000000e+00,-0.000000000000000000e+00,1.572030279771616940e-02,2.237857539206901392e-02,2.206805311979361667e-02,2.206805311979361667e-02,2.820052041898389247e-02,3.350867312842894380e-02,2.229518824957616926e-02,2.247375652975052568e-02,2.199836795234581463e-02,1.902069430078465531e-02,1.836918008542961014e-02,1.346327262009947359e-02,1.496864889399804679e-02,2.329350361139759587e-02,2.321903181942827632e-02,3.899955818542481106e-02,6.291845439887250313e-02,8.975950010020566916e-02,9.629212090898943421e-02,8.977325815620935956e-02,9.189642701476145870e-02,8.438787105419341683e-02,7.506279705444411643e-02,8.843858708059110230e-02,1.030837958288773337e-01,1.038069605003215795e-01,9.970781528527963844e-02,1.317253366437606266e-01,1.841418377506387483e-01,1.654289295054994502e-01,1.435465741559919794e-01,1.263410496690114126e-01,1.085220615655154430e-01,1.004699352751894925e-01,5.817810289936969914e-02,5.302495822285149818e-02,3.550217306759974323e-02,1.774883102311560282e-02,1.075911441193414496e-02,1.075911441193414496e-02,1.048161764988149447e-02,9.115749425634959600e-04,9.115749425634959600e-04,9.115749425634959600e-04,9.115749425634959600e-04,9.115749425634959600e-04,-0.000000000000000000e+00,-0.000000000000000000e+00
-0.000000000000000000e+00,-0.000000000000000000e+00,-0.000000000000000000e+00,-0.000000000000000000e+00,6.949787069100061849e-04,6.949787069100061849e-04,6.448382679461052425e-03,1.332574264960295282e-02,1.659530508825417250e-02,1.659530508825417250e-02,2.507987105544701514e-02,3.403339726883714694e-02,3.225400387564444221e-02,2.543858354525611876e-02,3.051444147825287806e-02,3.051444147825287806e-02,4.336264654919537442e-02,9.533768376654319643e-02,1.133713194989694195e-01,1.452012285626912425e-01,1.355529020925230199e-01,1.560326883082214233e-01,1.562749835320377811e-01,1.274783582029125895e-01,1.142416903302067160e-01,1.180490135506261362e-01,1.132710575484160570e-01,1.205046718464913985e-01,1.284486569529183775e-01,9.817259570019007398e-02,1.426399837599711395e-01,1.283485370330874620e-01,1.480322240459604477e-01,1.296964909134316613e-01,1.099446444125560390e-01,8.186154579202878367e-02,7.868562543185073088e-02,6.762577198132266321e-02,6.790940727912313235e-02,6.790940727912313235e-02,5.180895192307351932e-02,5.165635767723614213e-02,4.535537690952502060e-02,4.535537690952502060e-02,3.710492435155689217e-02,3.513771351118682301e-02,2.706043326819613029e-02,1.108058785878773822e-02,1.988883926489967528e-03,1.988883926489967528e-03
-1.050159312758770953e-02,-3.484517776145980988e-02,-3.826352674582700342e-02,-8.449364041426990490e-02,-1.123280288482663009e-01,-1.420941697871870302e-01,-1.512943080651817651e-01,-1.809720851885433801e-01,-2.088085911637158065e-01,-2.460561486248227792e-01,-2.354106458175129757e-01,-2.385349106978114087e-01,-2.738585735939627064e-01,-3.111622344037351939e-01,-3.799926195170078569e-01,-4.061151954820190202e-01,-4.376644926473793884e-01,-3.959604897166367210e-01,-3.352413960956571182e-01,-2.351266264048255394e-01,-2.494905762317972675e-01,-2.192553073552097609e-01,-1.912764653287201688e-01,-1.848970419116364727e-01,-1.689131722374627720e-01,-1.577164489987434859e-01,-1.438294691858439389e-01,-1.271383965281803752e-01,-1.192703147210306125e-01,-1.251750214657826876e-01,-1.232635477185203277e-01,-1.480266946836384656e-01,-2.022766910028850063e-01,-2.598662125225454367e-01,-2.936639469573594230e-01,-2.922943629296372858e-01,-3.509979243290263784e-01,-3.385916247503417131e-01,-3.469800277203425320e-01,-3.395270643326297466e-01,-3.502521683752058412e-01,-3.626480701542445506e-01,-3.316374057221574967e-01,-2.867330272316501727e-01,-2.144711090652694496e-01,-1.748247561270469541e-01,-8.814271943705945245e-02,-8.031755690132864889e-02,-7.193820428979030845e-02,-3.630697441509352086e-02
4.347916076822347375e-02,4.486978101596583723e-02,4.486978101596583723e-02,4.486978101596583723e-02,4.486978101596583723e-02,3.092777214641050793e-02,2.770908026260008802e-02,3.000996752915918372e-02,3.327952996781040340e-02,3.554660556031798146e-02,3.448196822351963509e-02,4.585696611710157050e-02,3.539656957015323291e-02,3.621902585050621598e-02,4.425911466770998670e-02,4.199203907520240864e-02,3.990412859254844485e-02,5.409971227041983355e-02,5.372102421781677073e-02,5.764162608149701883e-02,6.953176140303216068e-02,6.424685474739738611e-02,5.747980887643620862e-02,3.859663514950344154e-02,3.859663514950344154e-02,5.329347392100720893e-02,7.051953163945910708e-02,6.407718038096271718e-02,8.067471690716659927e-02,9.076787572160084638e-02,9.253596835641926532e-02,8.633406144653510417e-02,6.423660669664058021e-02,6.705486141157174229e-02,5.327366085143694918e-02,2.807873426056509830e-02,3.225269134768612295e-02,2.268264864036812628e-02,2.203016564434168503e-02,3.483876461697459070e-02,4.226172496161803571e-02,4.579608746088439930e-02,3.749528977937964525e-02,3.749528977937964525e-02,3.897022905575906609e-02,1.095732284390981207e-02,2.552882651745493753e-03,-0.000000000000000000e+00,-0.000000000000000000e+00,-0.000000000000000000e+00
-0.000000000000000000e+00,-3.921739117503845670e-03,-3.921739117503845670e-03,-3.921739117503845670e-03,-3.921739117503845670e-03,-3.921739117503845670e-03,1.440613798748872215e-02,1.440613798748872215e-02,1.440613798748872215e-02,1.440613798748872215e-02,1.381038463041780670e-02,2.081317943168393622e-02,6.407041444195214069e-03,2.446041446089895072e-02,3.674244231410446482e-02,4.098851029626680853e-02,7.071680786880650549e-02,1.085451078961323645e-01,1.094784705079995812e-01,1.311976577542073863e-01,1.273989788573164639e-01,1.808210102509256179e-01,2.512901591307011850e-01,2.720458639521504685e-01,2.943875739702277450e-01,3.098941552243014708e-01,2.991828144426519343e-01,3.239976416136334803e-01,3.261834959184692351e-01,3.158545098183363486e-01,3.211253559541635272e-01,2.588619721432079412e-01,2.443477171266129899e-01,1.735249606589915616e-01,1.716623545103176385e-01,1.642595107745110361e-01,1.431533038364309063e-01,1.181483166656732975e-01,6.413903736834103420e-02,2.276327525080795722e-02,1.986495906635537753e-02,1.759788347384780294e-02,1.147818887913321963e-02,-1.885487497042622265e-03,-1.885487497042622265e-03,-1.885487497042622265e-03,-1.885487497042622265e-03,-1.885487497042622265e-03,-0.000000000000000000e+00,-0.000000000000000000e+00
-0.000000000000000000e+00,-0.000000000000000000e+00,-0.000000000000000000e+00,-3.921739117503845670e-03,-3.921739117503845670e-03,9.644570215214774700e-05,3.102112629687486800e-04,3.102112629687486800e-04,4.231950380472594350e-03,4.231950380472594350e-03,4.231950380472594350e-03,3.287257867367764444e-03,2.153720071113977147e-03,1.278207577666641385e-02,2.327625678202571713e-02,3.410657908871059935e-02,1.001282722308762529e-01,1.546469033224037171e-01,1.838877068302801066e-01,2.247137030571128014e-01,2.501908511336559116e-01,2.583683533158482315e-01,2.565266541507144615e-01,2.650027136160220675e-01,2.516800836183281098e-01,2.448571151108699662e-01,1.592940624301960040e-01,1.377458319559525801e-01,1.248173620495130753e-01,1.188116054111670872e-01,1.467752147167217247e-01,1.105393565811546297e-01,1.082544285042882637e-01,9.345374794888064440e-02,6.238761012766964875e-02,5.088063237805325045e-02,4.416338184391352395e-02,2.780636979327088393e-02,2.780636979327088393e-02,1.991167010381397762e-02,-0.000000000000000000e+00,2.169194366256147529e-03,3.115296243778512171e-03,3.115296243778512171e-03,3.115296243778512171e-03,3.115296243778512171e-03,3.115296243778512171e-03,9.461018775223647504e-04,9.461018775223647504e-04,-0.000000000000000000e+00
1.744147469442199755e-02,1.781949739932424392e-02,3.755306922086541072e-02,5.137272938605382672e-02,5.137272938605382672e-02,5.137272938605382672e-02,4.730927431385724413e-02,6.013614092667129984e-02,6.250290635990833621e-02,6.246620524710770617e-02,6.246620524710770617e-02,6.491948491208335281e-02,6.491948491208335281e-02,6.289070560294798828e-02,8.276241940611128722e-02,6.946280906969171109e-02,7.028937285323848261e-02,7.505505350102986695e-02,6.356736287035261168e-02,6.781832928429171181e-02,7.271012525991676911e-02,6.535025907970323789e-02,8.520181958975792114e-02,9.268815583227263399e-02,1.014287008592067441e-01,1.039242529387165437e-01,9.083483274100365157e-02,8.390691400378062770e-02,9.706971825774526885e-02,8.635819252078305586e-02,6.301106990543836606e-02,4.719970189245061704e-02,2.751732553447645141e-02,2.462653008691412237e-02,2.198835850850354434e-02,1.916720249751164423e-02,1.916720249751164423e-02,1.457218111104457980e-02,1.143971843946103156e-02,1.143971843946103156e-02,1.603458442959117963e-02,1.430290590314542074e-02,4.423263686214876783e-03,3.480519937693565217e-03,3.480519937693565217e-03,2.594797789621122210e-03,-2.659424774452344778e-03,-6.315568046588459356e-03,1.738275309677955651e-03,1.738275309677955651e-03
5.234020072471353389e-03,3.632461284626705041e-03,4.853412427355791037e-03,4.853412427355791037e-03,4.853412427355791037e-03,5.517699533079225768e-03,3.100444305635905416e-03,1.908241381470653216e-03,4.959832990878457366e-03,4.959832990878457366e-03,9.708813574961510859e-03,1.600567363802832266e-02,1.639162044147721847e-02,1.681558185945410122e-02,1.681558185945410122e-02,1.889293072671233836e-02,3.028861853698604223e-02,3.999333658357408228e-02,4.260153973252239767e-02,4.664304574640563278e-02,6.670948670014384407e-02,7.445853773610551507e-02,8.360836762529426369e-02,7.310947505573159311e-02,6.275709915257385307e-02,7.284482990781208922e-02,1.019209426864422507e-01,1.347662951390418418e-01,1.423730993780098764e-01,1.418514504097326268e-01,1.730207098739702243e-01,1.814375312073485125e-01,1.845790199138072074e-01,1.490509839989747620e-01,1.214070471978375421e-01,9.592684939579237957e-02,7.234129198491431878e-02,7.322042511684204169e-02,5.768939847237866680e-02,5.007804582020499579e-02,3.269610818391439910e-02,3.903464325638714150e-02,2.514766344348759800e-02,2.514766344348759800e-02,2.312593526179034312e-02,1.111406860878880361e-02,1.111406860878880361e-02,7.893351230811012503e-03,-0.000000000000000000e+00,-0.000000000000000000e+00
-0.000000000000000000e+00,6.117791585780559503e-03,5.204156028507210194e-03,5.204156028507210194e-03,5.204156028507210194e-03,5.204156028507210194e-03,5.204156028507210194e-03,3.215272102017242232e-03,2.378143409232294416e-03,-9.385707177152462916e-05,7.263983132975009374e-03,1.273916850926721037e-02,1.273916850926721037e-02,1.438408106997317651e-02,2.835011325817048816e-02,3.033137381541387359e-02,2.346427353442777711e-02,4.750606631429571403e-02,5.588535701486548046e-02,6.309865814511791959e-02,7.759612577473032347e-02,7.066311263560361156e-02,8.195738568108158761e-02,8.159334982113668200e-02,7.352532059994512648e-02,9.332209030975832653e-02,1.068950500695749484e-01,1.059092473508531917e-01,1.281082059718398336e-01,1.189907219156120521e-01,1.199909058390749572e-01,1.242298383812954765e-01,1.305996753830898083e-01,8.769901621499014144e-02,6.018236580899413019e-02,5.729906822094725516e-02,4.951141552057210238e-02,3.939475687384332014e-02,2.077807942042383949e-02,1.365527333786472480e-02,8.913163283628074141e-03,1.848320599094607428e-02,1.166719194662958065e-02,5.883716036538542797e-03,5.883716036538542797e-03,5.959098098247843367e-03,5.959098098247843367e-03,-3.610944609070155468e-03,-3.610944609070155468e-03,8.172334332744298976e-05
-0.000000000000000000e+00,3.414326838694545316e-03,4.832509716220189516e-03,4.832509716220189516e-03,8.890528514283693728e-03,8.890528514283693728e-03,8.890528514283693728e-03,3.236991003134172436e-03,-1.773358355603728807e-04,2.913658322916492550e-03,2.953838475900811243e-03,6.689423859010601263e-03,1.811285581336165643e-02,2.203225344893957813e-02,2.912272849532814706e-02,3.317647803064660561e-02,3.382725966368183013e-02,3.824212682273767788e-02,4.082297288884236680e-02,4.315659094211311136e-02,4.991806649516584288e-02,7.403863565937209013e-02,7.827238646769196784e-02,7.398831503464613213e-02,7.873768193159798312e-02,1.013332658969846728e-01,1.163471041839887199e-01,1.321633387895712608e-01,1.518401212254382182e-01,1.690121688639079911e-01,1.702496745299424685e-01,1.576242555473935381e-01,1.437336266387565231e-01,8.187093378101420460e-02,5.959390908941500364e-02,5.496710447801077259e-02,6.453714718532876926e-02,5.688642080826025738e-02,3.868065439689577500e-02,2.636425883430457834e-02,2.707477737569947279e-02,3.126224723043589948e-02,2.629823671246672712e-02,1.947743853593521604e-02,1.947743853593521604e-02,1.947743853593521604e-02,1.035374558038349053e-02,1.035374558038349053e-02,3.946675615405506252e-03,-0.000000000000000000e+00
-7.569315801518269882e-02,-1.225045795204125487e-01,-1.873424772308602826e-01,-2.025671422000719923e-01,-2.440389503571266105e-01,-2.525511493456540912e-01,-2.556586588789213632e-01,-2.784803385325764769e-01,-2.719712724131030379e-01,-2.786781898215170972e-01,-2.925105060393703438e-01,-2.949401750019824409e-01,-2.429309314995988234e-01,-2.327602910700161676e-01,-2.133387412885677237e-01,-2.456294458366510836e-01,-2.404942926270285386e-01,-2.455686906887277199e-01,-2.079277172628879455e-01,-1.692110684499381901e-01,-1.781621965050674272e-01,-1.518419247998868959e-01,-1.384730996687883187e-01,-1.504181225181872028e-01,-1.572467761955763099e-01,-1.578288798018408490e-01,-1.578730177710902238e-01,-1.605721247084564152e-01,-1.584365714879083509e-01,-1.726200724411257603e-01,-1.817385109062339132e-01,-2.541194147285165683e-01,-3.228745836167954963e-01,-3.543566969474369888e-01,-3.668657469091883838e-01,-3.663356637560208906e-01,-3.379459748610479930e-01,-3.243247588582665042e-01,-3.107416765870236741e-01,-2.968082328712396967e-01,-2.714718206534750822e-01,-2.805086116642628857e-01,-2.091025335822128406e-01,-1.359314319182554076e-01,-1.139908167390732141e-01,-6.282494624344095446e-02,-2.159515989682114431e-02,-1.960232046839602976e-02,-1.402785565621835449e-02,-3.787358416194110209e-03
-5.079012278770317530e-03,-5.079012278770317530e-03,-5.175086095497506353e-03,-1.763697797036146986e-02,-5.002946672633110103e-02,-1.100862217449043307e-01,-1.647396924080917757e-01,-2.021676809729882340e-01,-2.513347622223417455e-01,-2.694436410318150066e-01,-2.798572201757427713e-01,-2.734124827822312920e-01,-2.658413927290563250e-01,-2.716793658757527541e-01,-2.953645828249875649e-01,-2.947154579971636990e-01,-2.678986285044879789e-01,-2.732902866307339584e-01,-2.672004538203541779e-01,-2.153084814977587191e-01,-1.774403726371480972e-01,-1.365256140619881542e-01,-1.341320979303376182e-01,-1.251713494929505011e-01,-1.197841782895229801e-01,-1.138110749419282142e-01,-1.048600860971387466e-01,-9.602409599291486519e-02,-9.602409599291486519e-02,-1.052492088098369444e-01,-1.128534015815904901e-01,-1.856910860603958879e-01,-2.552337484122270128e-01,-3.081514690853712768e-01,-3.373862424299555185e-01,-3.439365349240759429e-01,-3.976443476790527121e-01,-4.126061194737771776e-01,-4.247487930715094229e-01,-4.129227750480685133e-01,-4.111941228648607893e-01,-3.648023666404370813e-01,-3.170186018762030655e-01,-2.516630007450617601e-01,-2.349826428633508546e-01,-1.908691054252714681e-01,-1.418795111152772459e-01,-1.355448920105298827e-01,-9.691633273101329937e-02,-6.591055316500317451e-02
1.415978707882654605e-02,1.415978707882654605e-02,1.415978707882654605e-02,1.415978707882654605e-02,1.231345310262774682e-02,1.231345310262774682e-02,2.154725020679703479e-02,2.154725020679703479e-02,2.154725020679703479e-02,2.154725020679703479e-02,2.712916956610562230e-02,2.712916956610562230e-02,2.795162584645860537e-02,2.165992057478184629e-02,2.443926632623556056e-02,3.314929691956593205e-02,7.261444759717909647e-02,1.045060728852981041e-01,1.149364948358289201e-01,1.111504817946983581e-01,1.165865164584348329e-01,1.199710694313908810e-01,1.055917481806543379e-01,1.170014924484481800e-01,8.175849946337222784e-02,7.177634112796868471e-02,7.829683703980608311e-02,9.477451594272839897e-02,1.007213940477709735e-01,1.038502130719458072e-01,7.782486689239868916e-02,7.341737788359019301e-02,7.184134449454507299e-02,2.187836243206001119e-02,1.793485953257215049e-02,6.094452640883325778e-03,8.763242897435108078e-03,4.377269810023670139e-03,-3.563516807058455301e-03,-5.752666649777171334e-03,-3.466843513633690536e-03,-3.466843513633690536e-03,-7.843576676585549195e-04,2.779159139399899840e-03,3.256143829868914878e-03,6.752540045088914825e-03,3.159470536444149678e-03,3.159470536444149678e-03,4.769846904690148211e-04,-9.136355572733497431e-04
2.315639523774399439e-02,2.315639523774399439e-02,2.495292999206637566e-02,2.495292999206637566e-02,2.495292999206637566e-02,2.733107340129867224e-02,3.690111610861666891e-02,4.560740178219080398e-02,4.655350365971316906e-02,4.655350365971316906e-02,4.558200488379347826e-02,3.723193130955364250e-02,1.573897657520794552e-02,1.040728424787264877e-02,-6.486169028756658475e-03,-1.333491454200733464e-03,2.075797766890301321e-02,8.081730598015722522e-02,1.382584320368296649e-01,1.526919305836832441e-01,1.597851700445940548e-01,1.727046765946340101e-01,1.863013301186519644e-01,1.685768719403447358e-01,1.507768675239296308e-01,8.711477353646823740e-02,8.433572390276117270e-02,7.442255133547689971e-02,5.980124016583389379e-02,7.593018575315513274e-02,9.191171360397472345e-02,1.022297654178566523e-01,9.188424042931100932e-02,7.788704985007072201e-02,7.163928692183782476e-02,5.492691498890298063e-02,2.660474618540092234e-02,1.708792617927366517e-02,8.519838098015821218e-03,6.921886149421838975e-03,-4.359715062580392375e-03,-4.359715062580392375e-03,-4.359715062580392375e-03,-3.686326670779456471e-03,-3.686326670779456471e-03,-1.725457112027533636e-03,1.967210840370065255e-03,-0.000000000000000000e+00,-0.000000000000000000e+00,-0.000000000000000000e+00
-8.562508982994609941e-02,-1.025141708644600885e-01,-1.307413480949820572e-01,-1.394380106622443993e-01,-1.590738004662780591e-01,-1.923253649397474729e-01,-2.006407923297318097e-01,-2.394670157719514803e-01,-2.498939354314955730e-01,-2.604550528610301008e-01,-2.576631190864215881e-01,-2.733457597445187459e-01,-2.581993509892473448e-01,-2.620110266917268782e-01,-3.017426535806663201e-01,-3.199271568517981779e-01,-3.121921456552466667e-01,-2.995336380285257283e-01,-2.655447777480744453e-01,-2.180224406020370154e-01,-1.964478700129532185e-01,-2.007068127431917981e-01,-1.855365162487346287e-01,-1.813653882602665190e-01,-1.622797456424754925e-01,-1.510830224037562064e-01,-1.489814397228531040e-01,-1.486471342958300967e-01,-1.227827649856401693e-01,-1.294271826323163399e-01,-1.294951269357849100e-01,-1.746174123247927201e-01,-2.286975925114276831e-01,-2.336915400263122333e-01,-2.330641881012662509e-01,-1.968328151353364308e-01,-1.974659793686502074e-01,-1.573680189442299981e-01,-1.312073908328238725e-01,-1.261820724703590635e-01,-8.900778881255216879e-02,-5.310292157471273311e-02,-6.530608192366256504e-02,-4.609613011307189118e-02,-3.908570147172504144e-02,-3.372109543246722130e-02,-3.051145031494525289e-02,-3.051145031494525289e-02,-2.226658019239919489e-02,-1.870739405965556740e-02
-7.091833884631190688e-02,-9.627837503758274185e-02,-1.235049874598831698e-01,-1.852468549027042888e-01,-2.281311153134994163e-01,-3.470557734593637811e-01,-3.540613561266034992e-01,-3.934057673579320347e-01,-4.321265426831896184e-01,-4.191394453613166426e-01,-4.260778160385200186e-01,-4.331632840574975996e-01,-4.200335511466508631e-01,-4.423848039616417038e-01,-4.824821873409776418e-01,-4.384496107535923448e-01,-4.260133776676038320e-01,-3.272161986629678054e-01,-2.794961654294414455e-01,-2.173345642244241538e-01,-2.198175881547599908e-01,-1.887426339591607993e-01,-1.928899522710436631e-01,-1.964678405739021527e-01,-1.773821979561111262e-01,-1.684525503098994181e-01,-1.439656240026122025e-01,-1.454049224932299211e-01,-1.343803871166213137e-01,-1.341657588318655447e-01,-1.297053139524848020e-01,-1.791407017663255163e-01,-1.895894394387607762e-01,-1.809201321844495225e-01,-1.779599287781505057e-01,-1.755818459403876708e-01,-1.263308606799408151e-01,-1.330590088800336634e-01,-1.294383536629508114e-01,-1.382176024001725567e-01,-1.234906399698047913e-01,-1.136791898895644221e-01,-1.159555916608615428e-01,-1.039728583725842426e-01,-8.930074336864732287e-02,-7.984877936977953505e-02,-7.415705207591426207e-02,-6.744638435382697972e-02,-6.131242064264497832e-02,-3.441532506440136280e-02
-7.326246354389431836e-02,-9.104958917054264966e-02,-1.214755193231800562e-01,-1.463221420832658826e-01,-1.610561163883055258e-01,-2.089172619270313336e-01,-2.172814709897343821e-01,-2.273074425543215038e-01,-2.545622883165280514e-01,-2.730769269018530898e-01,-2.852367003665858269e-01,-2.804235236066039416e-01,-2.626918064650380913e-01,-2.846896511025561738e-01,-3.499195139396495957e-01,-3.512936015973214809e-01,-3.227499371896228597e-01,-3.012493804761622873e-01,-2.764384390358732291e-01,-2.115172556435583884e-01,-2.202805902894903745e-01,-1.766380569985514792e-01,-1.985126573559450880e-01,-1.992644985859657325e-01,-1.800167500486499761e-01,-1.662667110621979805e-01,-1.599750057905212075e-01,-1.512238570700175089e-01,-1.347845311150467351e-01,-1.372512813597868142e-01,-1.360534208009467894e-01,-1.866631529214578533e-01,-2.683042108222688515e-01,-2.580922084169955943e-01,-3.085742126128509510e-01,-2.943803304333281745e-01,-3.305281921405207601e-01,-3.518904172102850225e-01,-3.761146825719049458e-01,-4.039388330789390746e-01,-4.028468801852017056e-01,-3.832941552944683639e-01,-3.825988103447893196e-01,-3.776255354573644363e-01,-2.650252325161798206e-01,-2.410703604677747192e-01,-1.986248713896159035e-01,-1.507910256611404154e-01,-1.171390680715120591e-01,-6.704104385399932420e-02
-4.769677446118757332e-03,-4.769677446118757332e-03,-4.769677446118757332e-03,-4.769677446118757332e-03,-7.241677927122576811e-03,-2.020979191406486151e-03,1.009946401486189541e-02,1.546443570681216642e-02,1.262008998717267447e-02,1.416522359577530171e-02,1.663722407677912032e-02,1.642031733718059619e-02,8.946190421831354267e-03,-3.825810543816017626e-04,2.414797032719183043e-04,3.095795829053238097e-03,2.209549066176266438e-02,1.289449341965208384e-01,1.605285724794376923e-01,1.952753855115400006e-01,2.186638987663851452e-01,3.180303773684983737e-01,3.226507208347047517e-01,3.576628439112100599e-01,3.299476349605185987e-01,3.088248901701282634e-01,2.959104698969892144e-01,2.625658635724011924e-01,2.189570681128272245e-01,2.141502378943306306e-01,1.895477377728650437e-01,1.501489333018682371e-01,1.197678485918953067e-01,4.053650460264064670e-02,3.385287906534591856e-02,1.521681419328742811e-02,1.200154209127018631e-02,1.042126820123574077e-02,-2.886737334319838637e-03,-3.921739117503845670e-03,-3.921739117503845670e-03,-3.921739117503845670e-03,-5.149808518096840246e-03,-1.606757453196056527e-03,2.552856383600810887e-03,1.574425702603899496e-04,1.702576178863017195e-03,1.702576178863017195e-03,2.996468186095918584e-03,1.004969500716250451e-04
-0.000000000000000000e+00,-0.000000000000000000e+00,1.796534754322382139e-03,1.796534754322382139e-03,3.619684639449374276e-03,3.619684639449374276e-03,3.619684639449374276e-03,3.619684639449374276e-03,1.823149885126991920e-03,9.863238702330757654e-03,8.040088817203765517e-03,1.761013152452176392e-02,2.273348114705733836e-02,2.181984558978398991e-02,2.993588318591099487e-02,2.993588318591099487e-02,3.075465346560190411e-02,5.063102553195713423e-02,4.952404653575767646e-02,5.838367775085370748e-02,8.926107964258198080e-02,1.091640747337128681e-01,1.213049963101749951e-01,1.272143942504423697e-01,1.382824260257659033e-01,1.611808711770135738e-01,1.605963483449348861e-01,1.513417470217461869e-01,1.354264791774339172e-01,1.279491605291658285e-01,1.011775247377387638e-01,9.364732360437294512e-02,8.720497234587654134e-02,5.739110248640943990e-02,4.264004958206518009e-02,3.629744310893073811e-02,3.172333000439993972e-02,3.159177488025558672e-02,3.636539713091922754e-02,2.748385998028020361e-02,1.293842523173497835e-02,1.246668001509185914e-02,6.805835791844257361e-03,4.388405665158746395e-03,-1.021583714496064089e-02,-1.021583714496064089e-02,-1.380189440595570860e-03,-6.339169244189356636e-03,-6.339169244189356636e-03,-0.000000000000000000e+00
5.038379589845448474e-03,3.002761967112602126e-02,3.201650359761598619e-02,3.201650359761598619e-02,3.201650359761598619e-02,3.201650359761598619e-02,2.697812400777054032e-02,2.319868152216490731e-02,1.231639556259120014e-02,1.366369891966158837e-02,1.841267950374464446e-02,6.785536244303135879e-03,5.842792495781824746e-03,7.487705056487790022e-03,1.915506611152114486e-02,1.688799051901357026e-02,1.780776275445075663e-02,4.925408337032063238e-02,4.868671265198400849e-02,5.822718563725648444e-02,5.839932438462355768e-02,7.518440068896649342e-02,1.215949517030964766e-01,1.533768686874341924e-01,1.824854277635981348e-01,3.089055885974945070e-01,3.292021760122377794e-01,3.383505003077457718e-01,3.378175564222312688e-01,3.497021080431731432e-01,3.127719518267372822e-01,2.403339544983648657e-01,1.987982824205421495e-01,1.166507842919457388e-01,3.050643872160471032e-02,2.876683872842229761e-02,2.030814140392036768e-02,2.125088515244167794e-02,9.552991358374011283e-03,1.151386091712593499e-02,3.593069508644764279e-03,1.297933592669649715e-02,1.297933592669649715e-02,1.297933592669649715e-02,9.386266418051732868e-03,9.386266418051732868e-03,9.386266418051732868e-03,-0.000000000000000000e+00,-0.000000000000000000e+00,-0.000000000000000000e+00
-5.745895137369581851e-02,-8.917129168921331117e-02,-1.294215613537839094e-01,-1.506988777442912486e-01,-1.810691766473802589e-01,-2.405369267240106135e-01,-2.748980852028545252e-01,-3.314491718736111703e-01,-3.771570937026326731e-01,-3.930757539785214583e-01,-4.307460993613748679e-01,-4.477665157742428681e-01,-4.446221891710176455e-01,-4.191938890830748665e-01,-4.762844001555130991e-01,-4.384315797412132731e-01,-4.435036711937831999e-01,-4.028903554232359796e-01,-2.922884436867724256e-01,-2.665056218213567307e-01,-2.443951064679791285e-01,-2.168209767635005947e-01,-2.266440096061484444e-01,-2.038846067365820691e-01,-1.724825685561998390e-01,-1.697834069580176075e-01,-1.639852471749956853e-01,-1.514215277049242303e-01,-1.578660505778317069e-01,-1.632604384604048331e-01,-1.631859666684355170e-01,-1.916040556107582171e-01,-1.699081801754862009e-01,-1.680303862731573061e-01,-1.434890611929850734e-01,-1.038076855001877213e-01,-1.014940191150404958e-01,-8.821690723349430441e-02,-9.055491883187313795e-02,-8.200948733910329302e-02,-7.214665940654602094e-02,-7.783781161477126842e-02,-7.479586803019758201e-02,-7.479586803019758201e-02,-1.018466779214756146e-01,-1.026040540266817402e-01,-1.016532768718723390e-01,-9.263775847781441364e-02,-8.741597580220349106e-02,-7.582168696998831114e-02
-0.000000000000000000e+00,-0.000000000000000000e+00,-0.000000000000000000e+00,-1.960869558751922835e-03,-1.960869558751922835e-03,-1.960869558751922835e-03,-1.960869558751922835e-03,-1.960869558751922835e-03,1.308265417192752342e-02,2.189356065581080785e-02,2.296808350381716879e-02,2.296808350381716879e-02,2.461299606452313146e-02,2.461299606452313146e-02,2.558429873244791319e-02,2.284417220117915606e-02,3.819068496448337069e-02,4.567546909584566800e-02,6.133988863130632185e-02,6.950694064329807076e-02,8.069922665416684460e-02,8.867235278317252278e-02,1.647842492973739525e-01,1.645123575722733933e-01,2.154909525026819928e-01,2.108175745911242405e-01,2.325287717856052427e-01,2.809382477911638309e-01,2.553947996366394690e-01,2.521839743565685299e-01,2.467826840583969839e-01,2.316441516245658083e-01,2.421330137975964969e-01,1.625242559679274945e-01,1.349460524783032134e-01,1.048061123296431391e-01,1.048061123296431391e-01,6.506414183534701967e-02,5.830849584522584950e-02,5.505420441097994000e-02,5.743904313403931650e-02,5.743904313403931650e-02,2.386194004437105706e-02,2.690535611501512075e-02,4.138128735694116683e-02,2.383039667523543029e-02,2.383039667523543029e-02,2.317607677688818604e-02,2.251672020294486973e-02,1.404264316234874257e-02
5.323282296020955505e-03,5.323282296020955505e-03,5.323282296020955505e-03,-1.464232349624632404e-04,-7.989386133696456047e-03,-3.840493858989774828e-02,-8.917142067029411312e-02,-1.193712068179414998e-01,-1.838479980233201083e-01,-2.718662018778608136e-01,-2.955079559611639151e-01,-3.270154838595683566e-01,-3.405549553690137565e-01,-4.012133404320913921e-01,-4.270550078826454987e-01,-4.275937243528206699e-01,-4.071113691094702114e-01,-3.916018960058315068e-01,-3.050095248964338479e-01,-2.082105148825392216e-01,-2.106435748673335662e-01,-1.834693840080977023e-01,-1.962729975506606606e-01,-1.879522009857481912e-01,-1.688665583679571647e-01,-1.614054205123476859e-01,-1.416093566515004842e-01,-1.423812502583982897e-01,-1.290666991742595304e-01,-1.218717731577210472e-01,-1.374639912924224272e-01,-1.513517365567521866e-01,-1.867443672404312249e-01,-1.584007547409452266e-01,-1.503591537827715929e-01,-2.002005083686358433e-01,-1.857819542027903670e-01,-2.415631157461991529e-01,-2.655815514338608074e-01,-3.188012956021695765e-01,-3.468298077841482918e-01,-3.331683999591169565e-01,-3.366462406653983330e-01,-3.216514766092872235e-01,-3.130016062275174926e-01,-2.587952679205703377e-01,-2.394380114775931656e-01,-2.126568728651563323e-01,-1.668767971536963823e-01,-1.481742430119075693e-01
-3.856029372691834739e-02,-6.757946308909268396e-02,-9.414980787707963317e-02,-1.436519776070114829e-01,-1.861475709167215997e-01,-2.573509939537737545e-01,-2.864897437340789832e-01,-3.396595393047285860e-01,-3.845219222632516587e-01,-4.165309309172472441e-01,-4.134525984187659153e-01,-4.228495505816161071e-01,-4.102719606903574845e-01,-3.842881909128530449e-01,-4.218113301282638283e-01,-3.852337269444283119e-01,-3.778576875214350039e-01,-3.506979059559914846e-01,-3.061874394342110062e-01,-2.689887347822204067e-01,-2.169270891134838231e-01,-2.261068872116823447e-01,-2.170250130253090493e-01,-1.904709308406640766e-01,-1.805863851213403704e-01,-1.693896618826210843e-01,-1.525570961676196990e-01,-1.394336445967002680e-01,-1.541738935842219271e-01,-1.424115938026075667e-01,-1.842847066620429131e-01,-2.995173388769852840e-01,-3.311395973858106134e-01,-3.192795104095138004e-01,-3.171403406073718956e-01,-3.412675451250544167e-01,-3.220167565575539070e-01,-3.295022681396867492e-01,-3.316008959210424711e-01,-2.925208137704354283e-01,-2.586631940848318489e-01,-2.065177290819015243e-01,-1.428981718081067109e-01,-9.489786276460582259e-02,-5.387560351571052397e-02,-2.216382890803871020e-02,-4.406741666383546044e-03,-2.696676118185805174e-03,-2.696676118185805174e-03,-1.539343689489500308e-03
-1.493050396302817578e-02,-3.082223065972816006e-02,-3.745775203762666261e-02,-6.866335065683662475e-02,-1.154426191776718735e-01,-1.444671604264011477e-01,-1.807639304066435693e-01,-1.922184234797231217e-01,-1.921463755101424087e-01,-2.261987390055070213e-01,-2.566119416139238107e-01,-2.658886329770659973e-01,-2.954412504066148415e-01,-3.048496311368373846e-01,-3.187195465243840564e-01,-2.812439650148524928e-01,-2.834895174248747707e-01,-2.386450087778305973e-01,-2.002716064856643330e-01,-1.720120073370559055e-01,-1.807753419829878916e-01,-1.781138036043947714e-01,-1.991949446257235967e-01,-1.799393281037410808e-01,-1.697617977050933646e-01,-1.603067027973665293e-01,-1.546722978148956651e-01,-1.403120435905018115e-01,-1.504434386291239600e-01,-1.587222328375892944e-01,-1.736037254206811986e-01,-2.547883608340876238e-01,-2.876214998271133250e-01,-2.903798018038222795e-01,-3.245848995190916964e-01,-3.156510649478783126e-01,-3.656215575872402423e-01,-3.990647941130632814e-01,-3.963914246725008805e-01,-4.088694495403937257e-01,-3.883416393426588620e-01,-3.714654347955167468e-01,-3.137528097037029506e-01,-2.356958775967845920e-01,-1.821854841531300451e-01,-1.309496000699208185e-01,-8.375812454489692249e-02,-4.888391697041415823e-02,-1.458767126040242876e-02,-1.458767126040242876e-02
8.297342453072722654e-03,1.447933077002645438e-02,1.447933077002645438e-02,1.447933077002645438e-02,1.251846121127453068e-02,1.113341707840775907e-02,1.082604174338260353e-02,1.901848245127710224e-02,1.424880500515834578e-02,1.620967456391026948e-02,1.620967456391026948e-02,1.661323884925616778e-02,8.023356251665605607e-03,6.602872315888714573e-03,5.362906864330645000e-03,5.362906864330645000e-03,1.843847477595785336e-02,3.310648575866836918e-02,4.783429716240342189e-02,6.230081017502647062e-02,7.017461492862334116e-02,7.601643418484037296e-02,7.483216042842090465e-02,6.790715754115506098e-02,6.380561839593593132e-02,3.555434478415860078e-02,4.171357415079329778e-02,5.334355182585083510e-02,4.648681250821100341e-02,7.221466600814865910e-02,8.425505423749597711e-02,8.722248721435113539e-02,7.930973752347693362e-02,6.172456794142464065e-02,4.664124485918084984e-02,3.133942109382710506e-02,2.162743509713370427e-02,1.995838596815568966e-02,1.995838596815568966e-02,2.629755521234504456e-02,2.227937039268905461e-02,2.089432625982228300e-02,1.735083915999282092e-02,9.755564618770043439e-03,9.755564618770043439e-03,1.565023203170843235e-03,1.565023203170843235e-03,2.950067336037613328e-03,-3.224596084494175691e-04,-3.224596084494175691e-04
-9.521542248703536524e-04,-7.314547865313368938e-04,7.043406630613836643e-03,8.504861508436541845e-03,8.504861508436541845e-03,8.257167517291250786e-03,1.040466229941307448e-02,1.515430190560040392e-02,8.157021500316406770e-03,8.157021500316406770e-03,1.321239250108821942e-02,1.125152294233629745e-02,1.574078122268175381e-02,8.340324884097135433e-03,1.142704977982895304e-02,1.612885406546239048e-02,1.475160155520742651e-02,2.138712293310593426e-02,2.684136882763381998e-02,3.871888726389295654e-02,4.097343552858466464e-02,5.851211120055882509e-02,7.690941380418983564e-02,1.067273989755870706e-01,1.254111764611332003e-01,1.505089300037543987e-01,1.657970109075633525e-01,1.777008077092049054e-01,1.890099753548562522e-01,1.896104839274302400e-01,1.670356260734205400e-01,1.402771365992418195e-01,1.029246765554900633e-01,4.985554516162356287e-02,3.654028450666176042e-02,5.748940565023976518e-03,6.335466094474303915e-03,-6.146941128481429872e-04,-1.400313903282568787e-03,-1.400313903282568787e-03,-7.363388494612503957e-03,-7.363388494612503957e-03,1.728315437685267603e-03,1.814686422683406408e-02,2.083249254917573373e-02,2.279336210792765396e-02,1.920029259928288795e-02,1.920029259928288795e-02,1.010858866698511813e-02,2.031308423994424104e-03
4.651704355605885445e-03,4.651704355605885445e-03,4.651704355605885445e-03,4.651704355605885445e-03,3.118297089701664408e-03,-6.411528590670664829e-04,-6.411528590670664829e-04,-6.411528590670664829e-04,2.628409579584152760e-03,6.692850962489572605e-03,6.862631947295983956e-03,2.533572542820033621e-02,3.026801358126088998e-02,3.109046986161387305e-02,4.795095795941022726e-02,5.263668265923079209e-02,5.649969142340465628e-02,4.437594600675450612e-02,4.166817476907535428e-02,4.410256380923077008e-02,6.394450097983532533e-02,8.079748044517481853e-02,1.040529325855985010e-01,1.072006684184923786e-01,1.329747037146986610e-01,1.329646317671367706e-01,1.398191566456402080e-01,1.389305753120949616e-01,1.402271724565639088e-01,1.308124534814359141e-01,1.026130713363058722e-01,7.978539057259884104e-02,6.708385432067974496e-02,5.567325046566404950e-02,3.575701274204035052e-02,2.030247190731139864e-02,2.208249315203314814e-02,1.310595564874317796e-02,-9.164479676831933713e-04,-1.086228952489604830e-03,-8.681503493712380143e-03,8.925119582226132345e-03,7.529634114935175419e-03,7.529634114935175419e-03,1.447979432225762406e-02,1.382711902671105060e-02,1.730366964606696450e-02,1.730366964606696450e-02,1.669006270352992385e-02,1.716143457779057899e-02
-7.457661060277850917e-02,-1.060233060384804110e-01,-1.462726498345451043e-01,-1.682688892880586096e-01,-2.166919062061828383e-01,-2.307610637053656433e-01,-2.632606048894050588e-01,-3.064122362423918333e-01,-3.370700729118836780e-01,-3.601674087864378815e-01,-3.449664874456412900e-01,-3.652285701549030650e-01,-3.584053004232608530e-01,-3.106272354243152511e-01,-3.725212736618346288e-01,-3.681631132954386598e-01,-3.453710945896348861e-01,-3.592316904084772444e-01,-3.329602093969816767e-01,-2.445691294694217199e-01,-2.346347122093376258e-01,-1.983271093015816500e-01,-2.009622139191422074e-01,-1.920014654817550626e-01,-1.782432820599399448e-01,-1.638179931386181676e-01,-1.528063736032925224e-01,-1.544512861639984747e-01,-1.412575564211337176e-01,-1.378974657820032923e-01,-1.339265494476206131e-01,-1.428817562382724560e-01,-1.535048859988974446e-01,-1.365105244821515074e-01,-1.348190921140524079e-01,-9.276217929373242743e-02,-1.156199800284596069e-01,-1.232961329154667607e-01,-1.306841267312488508e-01,-1.355948434334240393e-01,-1.509330953849518375e-01,-1.425236939370831957e-01,-1.255804568257627984e-01,-1.075420528960068095e-01,-1.023467062460081262e-01,-6.395259153227693394e-02,-3.557839218409437898e-02,-1.479764842773698824e-02,-1.151877131887415681e-02,-4.706144974970087082e-03
-3.061654115361057624e-02,-4.224366111445283095e-02,-4.624115613953364012e-02,-1.436229030202502699e-01,-1.498741589481200065e-01,-1.524532688943538716e-01,-1.909923697978012647e-01,-2.130751549928650290e-01,-2.283465225892477579e-01,-2.694937752848086676e-01,-2.717391098856535847e-01,-2.868810383209591253e-01,-2.889137924298482152e-01,-3.204662543264227281e-01,-3.719933994306680591e-01,-3.539710799830043109e-01,-3.783030597189165900e-01,-3.726460523668069236e-01,-3.425640637007358325e-01,-3.129207791628918489e-01,-2.444492635531763103e-01,-2.257971436578010971e-01,-2.219939711579164698e-01,-2.219939711579164698e-01,-1.953420910226784102e-01,-2.000284769344250480e-01,-1.807275449009352886e-01,-1.760844292929197863e-01,-1.484507915443651627e-01,-1.431518137174204730e-01,-1.456025208801199622e-01,-2.119775558348185873e-01,-2.431362736788784673e-01,-2.682336602089902544e-01,-2.291561601312018248e-01,-2.551889657939688805e-01,-2.725691523092539370e-01,-2.731926831393146626e-01,-2.866233981427000477e-01,-2.589726659759495897e-01,-2.337436060372784508e-01,-2.252074608227309649e-01,-2.040628357318698960e-01,-1.763981568820668921e-01,-1.693573346340536689e-01,-1.052038678388966947e-01,-8.054571325727241660e-02,-3.723900546178363080e-02,-2.559671316810308017e-02,-2.018646904880600987e-02
4.209532517603606361e-02,4.209532517603606361e-02,4.209532517603606361e-02,4.209532517603606361e-02,4.259595073799005149e-02,3.948535711400549125e-02,1.353097555066853572e-02,4.306164281084561354e-03,1.568390817882027097e-02,1.948154544943166144e-02,1.948154544943166144e-02,1.741467526875805152e-02,1.691404970680406017e-02,1.766715534769098400e-02,9.411246401193052585e-03,9.411246401193052585e-03,1.373074587745683195e-02,4.209218113116540427e-02,7.519381681312577170e-02,8.215283161592058792e-02,1.172089921023668768e-01,1.333601668931125861e-01,1.504631916184865359e-01,1.563551460327789744e-01,1.412344812206660083e-01,1.405958580849938910e-01,1.382586527725300218e-01,1.439124254721719509e-01,1.553034678498922960e-01,1.196631512009506682e-01,1.122023583489113741e-01,1.013994063777630406e-01,8.016950894677575545e-02,4.669175012494095750e-02,4.506314652736099352e-02,1.885782936677902338e-02,1.222795117732603486e-02,1.411256373787761302e-02,8.747592045927342005e-03,5.676538732991190384e-03,-3.137436136134899968e-04,-3.137436136134899968e-04,-4.126021813723970049e-04,-4.458465266520670114e-03,-4.458465266520670114e-03,1.227080791418045649e-03,3.073414767616845095e-03,3.073414767616845095e-03,-0.000000000000000000e+00,-0.000000000000000000e+00
-7.099914930596811771e-04,-4.883948580180706364e-03,-4.883948580180706364e-03,3.232089015946301193e-03,1.280213172326430046e-02,1.882265468978182657e-02,2.066664679230524604e-02,2.066664679230524604e-02,2.484060387942627068e-02,1.672456628329926920e-02,7.154523575981267328e-03,5.455802442822392517e-03,1.958528426884809451e-02,5.610228072740245514e-02,7.540203096211983702e-02,1.208407268575814042e-01,1.510480171377212022e-01,2.034594776022305429e-01,1.922339451527433907e-01,1.975157770091989784e-01,2.012295478465773169e-01,2.076718991050737206e-01,1.929594761815432991e-01,1.587564768260315007e-01,1.180245281192965900e-01,9.866738600842875351e-02,8.089643820711985012e-02,8.110053715437484656e-02,7.422042363603609250e-02,7.906324586995019943e-02,8.014613884241472697e-02,6.077112896090255262e-02,5.424520604948426111e-02,3.435834983384014607e-02,2.268555611742349709e-02,2.615445920681240544e-02,3.248075510659299836e-02,2.398377486813166662e-02,2.398377486813166662e-02,1.543003394715797630e-02,1.728403430791083939e-02,1.540290551885216061e-02,8.294051313580408369e-03,6.853969242396634569e-03,8.739456739439255967e-03,3.780476935845471492e-03,3.085498228935465090e-03,3.085498228935465090e-03,2.169194366256147529e-03,-0.000000000000000000e+00
-4.067298626057154476e-02,-6.533810493063643698e-02,-8.438928455762302605e-02,-1.101719687617033483e-01,-1.800512351775371556e-01,-2.223315783061728668e-01,-2.828336048934795288e-01,-2.924114688275400442e-01,-3.284933365180642273e-01,-3.203055032732850527e-01,-3.098281437960790363e-01,-3.030520387681492345e-01,-2.665638385450712633e-01,-2.320028036671785143e-01,-2.003616531657089472e-01,-1.829138232168804057e-01,-1.826099395408438686e-01,-1.879502233158995284e-01,-1.694735183142210833e-01,-1.511796956643520207e-01,-1.371736210621698759e-01,-1.232890141324347461e-01,-1.141297971955423929e-01,-1.386590808158483790e-01,-1.417024968864924461e-01,-1.404322140641541816e-01,-1.292354908254349233e-01,-1.211194532293079218e-01,-1.335455151339231261e-01,-1.327388564299556983e-01,-1.297633846627802012e-01,-1.878713331221439353e-01,-2.019547132236222398e-01,-2.038755459364600120e-01,-2.238015688533187275e-01,-2.567386714874480003e-01,-2.802111558551028114e-01,-3.197165227805335852e-01,-3.081871739866643423e-01,-3.121834803664322866e-01,-3.144781313597164729e-01,-2.820707307674533704e-01,-2.550093314092348740e-01,-2.083073521059768674e-01,-1.418778921115546321e-01,-1.030130201633816522e-01,-8.203912036864238755e-02,-4.840378625981024696e-02,-3.546627093693063837e-02,-2.940707005412881297e-02
-3.815343496099218856e-02,-4.403206677134237357e-02,-8.397605667375131200e-02,-1.324731445719396217e-01,-1.500341599486942068e-01,-1.822198422274671492e-01,-2.093722570238017167e-01,-2.423259705160853428e-01,-3.036928302187378304e-01,-3.136174436427759393e-01,-3.295092814731134245e-01,-3.413211319937237143e-01,-3.636869645453101318e-01,-4.394320925378301657e-01,-4.454236410670219803e-01,-4.654827673167864499e-01,-4.115451950502565515e-01,-3.768350963931996755e-01,-2.926651009703276074e-01,-2.273575953052647258e-01,-2.141412933004452346e-01,-1.981892563626776738e-01,-2.117248900955208402e-01,-1.775046570574554949e-01,-1.663079338187362366e-01,-1.564034313916038976e-01,-1.465263504903203673e-01,-1.353634801116104791e-01,-1.266702797587475060e-01,-1.326725945820431407e-01,-1.353158780616276202e-01,-2.419840081132585974e-01,-2.541766744774963671e-01,-2.936199286660957086e-01,-2.757318257479499102e-01,-2.709465359015859054e-01,-2.424755041868631167e-01,-2.576589984176119730e-01,-2.608440506419755778e-01,-2.648052007914469819e-01,-2.683555072469827052e-01,-2.383240517039316719e-01,-2.119332525051405847e-01,-1.798247839169014595e-01,-1.432567269620428907e-01,-8.983764727887724733e-02,-7.106163650684760302e-02,-5.844179786906215923e-02,-3.445289573048710557e-02,-2.855465450568843433e-02
-9.938877843920833344e-02,-1.648528545820377444e-01,-1.689108733801012452e-01,-1.762679775389356940e-01,-1.867033075515431850e-01,-1.833890688574880135e-01,-1.824753637938721917e-01,-1.472086314500397064e-01,-1.196557954203623098e-01,-1.287103328904620758e-01,-9.099181897333327718e-02,-9.412025339041625582e-02,-9.364674998833236175e-02,-9.040951548154971262e-02,-1.156190065646278131e-01,-1.503984077390937701e-01,-1.766556160347851068e-01,-1.897441475026613866e-01,-1.828986968792488121e-01,-1.868339904559350173e-01,-1.774424996993686499e-01,-1.860167398675258710e-01,-1.950695396454634745e-01,-1.867487430805510051e-01,-1.699336345404208748e-01,-1.775730470508930237e-01,-1.580252230147459191e-01,-1.419026820373285314e-01,-1.395345785906488278e-01,-1.395345785906488278e-01,-1.639847629859267353e-01,-2.422058954430406919e-01,-2.905469600655157802e-01,-3.160281923977190099e-01,-4.090328915681805677e-01,-4.046194372635960601e-01,-3.810869970843834276e-01,-3.892004547877988552e-01,-3.810477076162163135e-01,-3.558300589407468184e-01,-3.446565490940963761e-01,-3.025033466885559408e-01,-2.594861955764607986e-01,-2.184415894518949575e-01,-1.643464480144030682e-01,-1.538110106947485345e-01,-1.094052571400538770e-01,-8.147323303845827036e-02,-5.796073623307684830e-02,-4.695821838384391100e-02
-3.589761964079393741e-02,-6.589622982291895581e-02,-1.078857356170914716e-01,-1.340901894520639126e-01,-1.466832631862171055e-01,-2.135913089596701009e-01,-2.447017437456528444e-01,-3.017873963295596429e-01,-3.127266294294940852e-01,-3.571876282565462635e-01,-3.724582831525318771e-01,-3.845085097278183595e-01,-3.744485735077843214e-01,-3.920980742025231836e-01,-4.121643051640659916e-01,-3.989568633500538697e-01,-4.000413893613872784e-01,-3.523991204096198482e-01,-3.307449636285878514e-01,-2.330314046351604218e-01,-2.285646499541028609e-01,-2.018043227362392722e-01,-1.745045244239418758e-01,-1.789114526012655637e-01,-1.556909366717728060e-01,-1.535720472489959243e-01,-1.314347151833465677e-01,-1.152060200721211070e-01,-1.191789992019899047e-01,-1.118026725077869848e-01,-1.120603931267807607e-01,-2.290635783478956466e-01,-2.856999797173082056e-01,-3.244809948812308331e-01,-3.149362125774028964e-01,-3.113330249855073006e-01,-3.104813474452726707e-01,-2.911255501562116099e-01,-2.781917358544458430e-01,-2.557122315769681520e-01,-1.868392043413375503e-01,-1.616650588439093317e-01,-1.240692509792058473e-01,-7.476298751056247027e-02,-4.934797035643328361e-02,-5.235634154214587055e-02,-5.399169198445917528e-02,-4.264406170928158879e-02,-3.799142241990936808e-02,-3.870440046151760183e-02
5.760461642151561666e-03,2.264835557079067710e-02,3.054170680160168960e-02,3.054170680160168960e-02,5.389969658841226030e-02,5.832377119241903551e-02,6.721066784052330545e-02,6.721066784052330545e-02,6.504160728101163191e-02,5.952639945943291599e-02,5.952639945943291599e-02,5.593332995078814651e-02,5.732395019853050999e-02,5.876324868914822863e-02,7.678317072924845110e-02,7.865109530217850864e-02,6.496667161845398608e-02,1.119937808485666070e-01,1.297915847802398326e-01,1.250316771308501440e-01,1.301097371669405200e-01,9.966972258656688066e-02,1.087444916133623735e-01,1.017671682489956625e-01,9.338391957586456016e-02,7.585766210998454162e-02,7.769741157395339270e-02,1.109881483903860655e-01,1.171753240537612983e-01,1.066234452552837775e-01,1.372994831502439839e-01,1.651296818588495197e-01,1.376376816330515673e-01,1.475874522621330731e-01,1.120289358650637529e-01,1.005219581154473407e-01,1.011715061788456826e-01,7.789564582018680683e-02,7.358847172724480856e-02,7.575766609350095826e-02,3.941426784238319381e-02,3.337267466072230127e-02,1.200348373532019071e-03,9.803337618555747063e-03,8.887033755876429936e-03,6.136069425370401084e-04,6.136069425370401084e-04,6.136069425370401084e-04,-0.000000000000000000e+00,-0.000000000000000000e+00
1.403641542435505978e-02,1.375273006518674956e-02,1.375273006518674956e-02,1.592192443144289579e-02,1.830006784067519238e-02,2.721579064964594827e-02,2.717336615214149126e-02,1.610626440929640787e-02,2.016428320735991209e-02,1.799508884110376586e-02,2.751583823775885854e-02,1.680130759156877457e-02,1.625172215569652828e-02,1.625172215569652828e-02,1.625172215569652828e-02,1.625172215569652828e-02,4.229436491340956422e-02,5.305395992823369600e-02,7.271418622392057662e-02,9.186379500440258750e-02,8.967575705713390355e-02,1.178300327546762949e-01,1.429584624830341488e-01,1.698126398947975846e-01,1.462881409055411253e-01,1.417601220914505022e-01,1.421585230164612024e-01,1.317433005397646850e-01,1.187175955328886590e-01,1.101869632729290671e-01,1.103497217065582681e-01,7.902076101326357960e-02,5.837302846225496389e-02,2.641418878956256280e-02,1.378671508710978266e-02,1.378671508710978266e-02,1.020962981478604030e-02,6.981064132183556134e-03,-9.136355572733497431e-04,-2.220881929774631489e-03,1.357424621059061774e-02,2.601600256821272328e-02,5.634209670044431489e-02,5.481858735894728357e-02,7.400615998043111321e-02,7.400615998043111321e-02,7.400615998043111321e-02,7.091516582195424301e-02,6.010209734311028340e-02,4.235810244701326832e-02
-0.000000000000000000e+00,-0.000000000000000000e+00,-0.000000000000000000e+00,-0.000000000000000000e+00,-0.000000000000000000e+00,-0.000000000000000000e+00,-0.000000000000000000e+00,-9.980890888918417681e-04,-3.921538780154228132e-03,-4.550034612501769465e-03,-4.550034612501769465e-03,-8.144492293919794457e-04,-8.144492293919794457e-04,1.836398594998629730e-04,1.310964150654654603e-02,2.335806481172553184e-02,2.517667186181486022e-02,5.726814647017946375e-02,7.168298949765550265e-02,7.809717043053682195e-02,9.278373866815220472e-02,9.412614993755349935e-02,1.121551048903786513e-01,1.046642002422666501e-01,9.718242929613352121e-02,9.624560039215110385e-02,1.015284247119283556e-01,1.043328894648542227e-01,9.352075105960200307e-02,1.020403068667176533e-01,1.249772061152632785e-01,1.114321778043261824e-01,9.876952134362010360e-02,7.430031422561794718e-02,7.374501010783972299e-02,5.755014982785343347e-02,5.493250303785279787e-02,5.693257234409265788e-02,4.903787265463575851e-02,5.594095293823542203e-02,2.811949724446583671e-02,2.552284551597163581e-02,5.886925507038339583e-03,5.258429674690799985e-03,1.464469609274252765e-02,8.107604785424547475e-03,4.514535276779783196e-03,3.882435164169617189e-03,8.066480800389710243e-03,9.386266418051732868e-03
-2.928645642637592132e-03,-1.859194447566628328e-02,-2.007452800612303037e-02,-3.505573700244270924e-02,-6.940234382352761244e-02,-1.119946154083648615e-01,-1.353560073527910190e-01,-1.785068826501809980e-01,-2.736037797196043120e-01,-3.121984948605746601e-01,-3.521796227068614282e-01,-3.828041714445010735e-01,-3.997391249597809226e-01,-4.188926651465159079e-01,-3.977170594151252514e-01,-3.877414455129102322e-01,-3.675862719883157825e-01,-3.111500361868685949e-01,-2.040887904246547757e-01,-1.941416613427842941e-01,-1.814398807965853788e-01,-1.613396871990205317e-01,-1.810191620704727777e-01,-1.445584329084109443e-01,-1.493074134924939900e-01,-1.351689456544761525e-01,-1.140555185862234533e-01,-1.187396274507389882e-01,-1.112718768212190706e-01,-1.197706525495133012e-01,-1.345510557749628466e-01,-1.623802653199578616e-01,-1.691318432385715553e-01,-2.146883087375552057e-01,-2.636906617741275882e-01,-2.269729724320763975e-01,-3.236845170178465625e-01,-3.474932292204222506e-01,-4.049314508810956670e-01,-4.274350931958626476e-01,-4.546729695497925272e-01,-4.334329621184398462e-01,-4.394260612496641571e-01,-3.955728743423808647e-01,-3.912673340567759395e-01,-3.014132475831061142e-01,-2.489548021545639755e-01,-1.745619686854061603e-01,-1.168042072946524901e-01,-7.235913191451495696e-02
-6.943463945223890543e-02,-9.689666985334374760e-02,-1.582760832209218482e-01,-2.013944401833268893e-01,-2.343007992763048997e-01,-2.786501934299137617e-01,-3.243605316901453373e-01,-3.462506711060948095e-01,-3.714024680886496843e-01,-3.643661503487756192e-01,-3.554702478656258102e-01,-3.446263406597060430e-01,-3.270164639977778953e-01,-3.029513107762714097e-01,-2.942190788189211759e-01,-2.978301065895145872e-01,-2.603623598050075483e-01,-2.172311828806372525e-01,-1.761897814867277312e-01,-1.717321427800989619e-01,-1.599476082079980266e-01,-1.771647835931914050e-01,-1.915673795826397519e-01,-1.843833503123905038e-01,-1.621943830156288291e-01,-1.480612784812075089e-01,-1.353298720990311621e-01,-1.227661526289597071e-01,-1.213333322298629086e-01,-1.266318740030695222e-01,-1.266318740030695222e-01,-1.516399224489967668e-01,-1.570355002671160183e-01,-1.519762163680520306e-01,-1.713389602732031392e-01,-1.318786961181661610e-01,-1.510598137559158727e-01,-1.887746155410475468e-01,-1.932929524605118965e-01,-1.948017833022759326e-01,-2.094451436534781608e-01,-2.242289561421945687e-01,-2.180677020187208326e-01,-1.810070776363913447e-01,-1.708735147009892708e-01,-1.658676630254787288e-01,-1.165167833747190462e-01,-6.752187136380205512e-02,-4.195626103704973298e-02,-2.235523132353390771e-02
-5.761064642269867614e-02,-7.709457672547692653e-02,-9.705126570186885238e-02,-1.770876388200128826e-01,-2.203870490208840738e-01,-2.562185533993993070e-01,-2.745278645571027631e-01,-2.985682040263276105e-01,-2.951225802675414567e-01,-2.721383386583365316e-01,-2.824130316233264826e-01,-2.669622684688956471e-01,-2.769895383616968187e-01,-3.000338855504648405e-01,-2.759934905719967912e-01,-2.679917781920859721e-01,-2.703253446445990082e-01,-2.604180948587715427e-01,-1.857563695985857133e-01,-1.613949345848730843e-01,-1.720906399196197034e-01,-1.702044225698676194e-01,-1.542304969021660310e-01,-1.622853145167604261e-01,-1.535741806935645992e-01,-1.521908320739383536e-01,-1.474399032523550646e-01,-1.330888202716138391e-01,-1.411289090888175890e-01,-1.485192072081123749e-01,-1.435768463348857660e-01,-1.900930160494650467e-01,-2.944276493966955788e-01,-3.168146634334276235e-01,-3.571153258746466164e-01,-3.265176241317367389e-01,-3.332475397934305805e-01,-3.316156041357683493e-01,-3.351020295017232975e-01,-3.343699053256564135e-01,-2.942493761861857959e-01,-2.619113374802174987e-01,-2.473956957114510913e-01,-2.169437134524904165e-01,-1.783616964324668541e-01,-1.379995094604236361e-01,-8.742495263716565379e-02,-6.363589190152449393e-02,-3.933143207284126031e-02,-3.514175576707208315e-02
-6.170857690822450364e-02,-7.002193656120936360e-02,-1.403276462394812962e-01,-1.964433255335876760e-01,-1.967730668117380344e-01,-2.527367870983313614e-01,-2.515474919930988928e-01,-3.032397561609966874e-01,-3.023405968298276680e-01,-3.602424021518048081e-01,-4.332638085808336315e-01,-4.573944327859602588e-01,-4.756967488948855571e-01,-4.427373044072886454e-01,-4.858191573989709133e-01,-4.880279494133076268e-01,-4.481335597352447686e-01,-4.188524106405899783e-01,-3.445868757567277507e-01,-2.480283263854672349e-01,-2.264081998321307576e-01,-2.069891879646460486e-01,-2.217600142435766641e-01,-2.082924478873261764e-01,-1.681861365561266863e-01,-1.645733394006711203e-01,-1.518583588192722322e-01,-1.346403061110501564e-01,-1.371678638608204714e-01,-1.502555056412611667e-01,-1.479880473055861234e-01,-1.689885067793067686e-01,-1.831642689490128040e-01,-1.775306949289980896e-01,-1.623940889109729835e-01,-1.125995908601996054e-01,-1.225538200295844538e-01,-1.092403630170984130e-01,-1.134732547451536844e-01,-1.239956652394219316e-01,-1.143343916260476933e-01,-1.011634864931785505e-01,-7.619060176864954348e-02,-7.710679439164179472e-02,-6.607860658791724073e-02,-5.568683250148185465e-02,-5.115809309773663299e-02,-3.227643991858312328e-02,-1.103796650005417490e-02,-3.552674800476405235e-03
-0.000000000000000000e+00,-0.000000000000000000e+00,-0.000000000000000000e+00,-0.000000000000000000e+00,1.580273890034445110e-03,1.580273890034445110e-03,3.727768672156268372e-03,3.727768672156268372e-03,5.896963038412415467e-03,5.896963038412415467e-03,5.896963038412415467e-03,9.973946009659994186e-03,1.298203842537348253e-02,1.462695098607944694e-02,3.167993256266878749e-02,3.237491126957879606e-02,3.231421423993284525e-02,5.722863141206189358e-02,5.239496687698676908e-02,5.239496687698676908e-02,3.795985777521339311e-02,4.800405004091776173e-02,8.039694086759478775e-02,8.540577430427469252e-02,9.704800515395693716e-02,9.515603445960098272e-02,1.384585729223141992e-01,1.733790114381952574e-01,1.925718921793163341e-01,2.104687315678841764e-01,2.024558157630625965e-01,2.139382917765148551e-01,1.785624120094496114e-01,1.565572207507867630e-01,1.344245946541267334e-01,9.229699790995726794e-02,6.211102703357433696e-02,4.851200813355950603e-02,2.839559769220806676e-02,2.778699896194099933e-02,2.778699896194099933e-02,2.778699896194099933e-02,-6.085987302670679703e-04,-4.301266682664666753e-03,-4.301266682664666753e-03,-3.692667952397598891e-03,-3.692667952397598891e-03,-3.692667952397598891e-03,-3.692667952397598891e-03,-0.000000000000000000e+00
-3.121754984717965004e-02,-5.572807191193432375e-02,-8.013488327786186249e-02,-1.460597632887215280e-01,-2.025181265969484834e-01,-2.258238656812800449e-01,-2.593091810103764216e-01,-3.205774783006148376e-01,-3.772367735910500675e-01,-3.800181675038362683e-01,-4.108389332362044066e-01,-4.132068918572245342e-01,-3.789521423030305924e-01,-3.794621170213972050e-01,-3.780938218225274872e-01,-3.869664178717744374e-01,-3.127895570477405851e-01,-2.499151321507366574e-01,-2.371253950750337736e-01,-2.202109368980647297e-01,-1.900236073512628354e-01,-2.067651384684201510e-01,-1.982135530900106524e-01,-2.015730847214378119e-01,-1.824874421036468131e-01,-1.750263042480373066e-01,-1.582866688391095789e-01,-1.504147613936883121e-01,-1.512028218339377950e-01,-1.438264951397348612e-01,-1.463964355114621696e-01,-1.941696034608826060e-01,-1.997741554944304498e-01,-2.364048190900519819e-01,-2.355948497116330809e-01,-2.164508897582372859e-01,-2.349532736055227611e-01,-2.096714971193588961e-01,-2.615541703089543368e-01,-3.023213742248471725e-01,-2.959567807811903650e-01,-2.752162054237912159e-01,-2.703206090403589279e-01,-2.607378796441001123e-01,-2.339941955539763807e-01,-2.010289896477198135e-01,-1.733552021143576205e-01,-1.380372852742478285e-01,-1.070316933919775310e-01,-6.990144547045530621e-02
-3.570762745358804779e-02,-5.082680009528113552e-02,-9.824537502473985884e-02,-1.410335015659694158e-01,-2.151242042821480682e-01,-2.671149771922445293e-01,-2.895380712936268530e-01,-3.207895809708081192e-01,-3.624871612597048709e-01,-3.539198493452548333e-01,-3.622330356815972041e-01,-3.611682632029254991e-01,-3.410487595731266364e-01,-2.845287515194550032e-01,-2.884505778610560456e-01,-2.709807933286076387e-01,-2.696306969809766363e-01,-2.470408367085202284e-01,-2.210756034729787489e-01,-1.775804210473000411e-01,-1.900313736660964314e-01,-1.666823448371844707e-01,-1.765774897489987283e-01,-1.707029341710652182e-01,-1.628082344816083049e-01,-1.509979043003519816e-01,-1.389992287665484660e-01,-1.374122770349667233e-01,-1.490679992155534428e-01,-1.475462911802314092e-01,-1.978058954765118116e-01,-2.922589440418081885e-01,-3.585440860547481901e-01,-3.851153040464533328e-01,-3.759851766534149098e-01,-3.688231388006609768e-01,-3.754535644218232049e-01,-3.712179851116237939e-01,-3.585689583300796790e-01,-3.500895517889918707e-01,-3.300153601213174914e-01,-2.971345825813312969e-01,-2.554442385107980051e-01,-1.851836287264831127e-01,-1.320097361537869440e-01,-7.325593786362526172e-02,-5.950429372249090021e-02,-2.609720872228190117e-02,-9.138007856601966516e-03,-3.586643420965819097e-03
-2.529838112902974001e-02,-4.790255490523832177e-02,-6.153073543072606899e-02,-7.975844929293625374e-02,-1.451214379486835959e-01,-1.611855309856555230e-01,-1.632751323282737310e-01,-1.604697908744126544e-01,-1.864226602594591664e-01,-1.878818882211816532e-01,-2.035908192059975030e-01,-2.555027919033161510e-01,-2.878145024925531370e-01,-3.091593835255572187e-01,-3.663657048872807076e-01,-3.887546513434303463e-01,-4.118983136484810625e-01,-4.056680854923369606e-01,-3.528178288419817621e-01,-3.035288972184078116e-01,-2.348790918725281451e-01,-2.084561970581764179e-01,-1.869801976538449373e-01,-1.791447187493589721e-01,-1.573520358063749680e-01,-1.617380088937863947e-01,-1.381339495024131170e-01,-1.323537288023881875e-01,-1.155408752152979196e-01,-1.148068070534837837e-01,-1.402367385853710013e-01,-2.184291525022839242e-01,-2.393810300328770013e-01,-2.466884168851296577e-01,-2.980210608088533220e-01,-3.267818002532966171e-01,-3.315990523191909567e-01,-3.440336200834935299e-01,-3.485056509197709818e-01,-3.429440883518651839e-01,-2.971923248578443033e-01,-2.848757523715740314e-01,-2.495424232369677919e-01,-2.099579035458689902e-01,-1.621266881562349327e-01,-9.894504823138045024e-02,-6.263985661512508352e-02,-1.564619458500647597e-02,0.000000000000000000e+00,0.000000000000000000e+00
-4.173818705444698463e-02,-5.058147593502616834e-02,-1.021589761663880547e-01,-1.556821308018523087e-01,-1.796257935645432513e-01,-2.123878625590737423e-01,-2.192498717216956605e-01,-2.511130275947567325e-01,-2.701996639196671546e-01,-3.024729020532209711e-01,-3.181582307534281950e-01,-3.155609421498476452e-01,-3.381482235218734034e-01,-2.971707717254293279e-01,-2.902251162607835111e-01,-2.656284824397899813e-01,-2.319478178945746927e-01,-1.958893623764636494e-01,-1.359040417248784105e-01,-1.037045383001988785e-01,-8.616055462429600409e-02,-7.566524751993652931e-02,-8.470161749473466284e-02,-8.111273250610938346e-02,-7.020988981154287212e-02,-5.374968097307390724e-02,-5.555419135827916605e-02,-5.719910391898513219e-02,-5.786286604198598305e-02,-5.786286604198598305e-02,-6.781604133872246032e-02,-1.445094130148257827e-01,-1.811851164970814110e-01,-2.196277566781237034e-01,-2.194642080443963139e-01,-2.289308906714632719e-01,-2.237355476736016535e-01,-2.403231853101208682e-01,-2.385057890667202640e-01,-2.144495114518970846e-01,-2.053929942534127029e-01,-2.161981621640851892e-01,-1.936351618579212897e-01,-1.922969086582834441e-01,-1.831580754067070049e-01,-1.552696445687720139e-01,-1.129822532999178314e-01,-1.089713019550483247e-01,-6.893675970394330665e-02,-5.727661188234301620e-02
-0.000000000000000000e+00,1.207650300247172653e-02,3.577916406419995310e-02,5.290760537792453533e-02,8.694073178748959463e-02,8.694073178748959463e-02,9.081790735514429225e-02,1.061133938712810199e-01,9.967601010366017311e-02,7.317699118528510349e-02,7.317699118528510349e-02,7.228508629709433364e-02,7.055540551156146145e-02,7.055540551156146145e-02,8.350664737895405199e-02,9.765643814058151684e-02,8.936847211031433147e-02,8.239097075903334400e-02,8.883364445707551960e-02,5.648116546335654742e-02,6.769852413384115641e-02,1.140275284486889779e-01,1.406126780778568230e-01,1.601184697264505519e-01,1.757037414581031354e-01,1.859297028495391080e-01,1.778906312851222249e-01,1.708001562387336525e-01,1.531178909057608895e-01,1.504718709556239487e-01,1.386502920718247767e-01,7.877029026577597737e-02,5.577898341624695083e-02,3.719702925751466188e-02,3.341758677190902888e-02,2.992946792642080245e-02,2.992946792642080245e-02,2.562685618116433348e-02,1.829967650661924392e-02,1.994458906732521006e-02,1.994458906732521006e-02,2.736754941196866200e-02,2.554411619564149818e-02,2.089920493161104634e-02,1.967264509775090708e-02,1.967264509775090708e-02,1.802773253704494094e-02,1.060477219240149246e-02,8.573463768407068794e-03,4.905907465330135685e-03
-7.049208610320252533e-02,-7.750010828970316235e-02,-1.181546005920061926e-01,-1.246801830773130726e-01,-1.559822637781125287e-01,-1.825017243144109180e-01,-2.228212195119488592e-01,-2.432291139382848355e-01,-2.416532104786421886e-01,-2.565219367875215539e-01,-2.773122552440128175e-01,-2.925445240027160221e-01,-3.112181362491389658e-01,-3.386874199367868599e-01,-3.431045995668683957e-01,-3.633085822772712525e-01,-3.334449727577694644e-01,-3.282161003031615065e-01,-2.845403725569555786e-01,-2.152896273582600439e-01,-2.254165332155927404e-01,-2.083966183404502570e-01,-2.154517503510520182e-01,-1.981702053487524595e-01,-1.790845627309614330e-01,-1.793715405439292310e-01,-1.585954521011246343e-01,-1.600347505917423807e-01,-1.482840420035836937e-01,-1.409077153093807877e-01,-1.403363993063194148e-01,-1.565889985881451785e-01,-1.718773145285296122e-01,-1.623640225468464260e-01,-1.801836655551898869e-01,-1.795324246001329671e-01,-1.986788015256981677e-01,-2.573507477933320020e-01,-3.048041312011464665e-01,-3.345838230723794382e-01,-3.611240119941304672e-01,-3.468430979357693955e-01,-3.376500659982532571e-01,-3.346368477094561200e-01,-3.292339319122281616e-01,-3.000058602866251256e-01,-2.542079470256567997e-01,-2.104770409336620129e-01,-1.380817577500034476e-01,-8.989835011488692129e-02
-5.628317252501952722e-02,-8.289296312781488374e-02,-1.076216380893047220e-01,-1.323659445437530835e-01,-1.384521249747025506e-01,-1.917851103074827146e-01,-2.300959894914957338e-01,-2.523460083603124016e-01,-3.277281008555689157e-01,-3.864343065369636454e-01,-4.105660912386039918e-01,-4.453525971065559474e-01,-4.181479304991689849e-01,-4.175614569978952639e-01,-3.927620809278978831e-01,-4.318403910890089570e-01,-4.212162221608823920e-01,-4.356018615933553439e-01,-3.781652492827540790e-01,-2.940376069958020588e-01,-2.269347085709179368e-01,-2.238619825894493931e-01,-1.954255793571638700e-01,-1.996740738396806381e-01,-1.810868672980909810e-01,-1.772550377026926305e-01,-1.712543624029226330e-01,-1.650983863523175776e-01,-1.589298431387439203e-01,-1.504199786482872114e-01,-1.459595337689064409e-01,-1.781525395981767290e-01,-2.670806827580285980e-01,-3.189973200575154655e-01,-3.404705949541921295e-01,-3.147330888014383543e-01,-3.339003393150791199e-01,-2.865194727653256335e-01,-2.840436161020004624e-01,-2.835778749935010667e-01,-2.657332702447149364e-01,-2.462085451813479375e-01,-2.067308093150051762e-01,-1.749731582355047999e-01,-1.265316530887675428e-01,-7.962497612648235246e-02,-5.334351256724582241e-02,-2.885233724092061552e-02,-1.613354404861716898e-02,-8.646109185147748608e-03
